word,1,2,3,4,5,6,7,8,9,10,11,12,13,14,15,16,17,18,19,20,21,22,23,24,25,26,27,28,29,30,31,32,33,34,35,36,37,38,39,40,41,42,43,44,45,46,47,48,49,50,51,52,53,54,55,56,57,58,59,60,61,62,63,64,65,66,67,68,69,70,71,72,73,74,75,76,77,78,79,80,81,82,83,84,85,86,87,88,89,90,91,92,93,94,95,96,97,98,99,100,101,102,103,104,105,106,107,108,109,110,111,112,113,114,115,116,117,118,119,120,121,122,123,124,125,126,127,128,129,130,131,132,133,134,135,136,137,138,139,140,141,142,143,144,145,146,147,148,149,150,151,152,153,154,155,156,157,158,159,160,161,162,163,164,165,166,167,168,169,170,171,172,173,174,175,176,177,178,179,180,181,182,183,184,185,186,187,188,189,190,191,192,193,194,195,196,197,198,199,200,201,202,203,204,205,206,207,208,209,210,211,212,213,214,215,216,217,218,219,220,221,222,223,224,225,226,227,228,229,230,231,232,233,234,235,236,237,238,239,240,241,242,243,244,245,246,247,248,249,250,251,252,253,254,255,256,257,258,259,260,261,262,263,264,265,266,267,268,269,270,271,272,273,274,275,276,277,278,279,280,281,282,283,284,285,286,287,288,289,290,291,292,293,294,295,296,297,298,299,300,301,302,303,304,305,306,307,308,309,310,311,312,313,314,315,316,317,318,319,320,321,322,323,324,325,326,327,328,329,330,331,332,333,334,335,336,337,338,339,340,341,342,343,344,345,346,347,348,349,350
un,0.250339,0.071572,-0.049847,-0.008116,0.045119,0.00692,0.003499,0.089477,-0.191927,-0.165422,0.000969,0.146775,0.129956,-0.091234,0.197909,-0.294689,-0.035367,0.070216,-0.136485,-0.186468,-0.194772,-0.137553,0.058929,0.279846,0.119945,-0.240026,0.005974,0.038046,0.043694,-0.132884,-0.085314,0.17757,0.177239,0.173963,0.303874,-0.016101,0.328711,0.050867,0.282687,-0.118174,0.115647,0.467265,-0.235396,0.289466,-0.127648,-0.013184,0.3,0.177899,-0.117967,-0.053737,0.052574,-0.065682,-0.20731,0.1406,-0.440683,-0.091833,0.289255,-0.507417,0.129629,0.108477,0.280519,0.286887,0.05463,0.110931,0.004581,0.183842,0.558345,0.190478,-0.108651,-0.138074,0.20825,0.18663,0.384117,0.10649,-0.061741,-0.016396,0.433157,-0.053403,-0.447758,0.046472,0.238093,-0.28016,-0.101629,0.030148,0.299464,0.003682,0.293809,-0.079112,-0.290662,0.050681,0.129054,0.233544,0.064044,-0.185922,-0.187845,0.014564,-0.233441,0.226593,0.05139,-0.131702,0.058336,-0.180729,0.25438,0.056144,0.076389,-0.069443,-0.080817,-0.072891,-0.071529,-0.132596,0.129546,0.255318,-0.495781,0.04023,-0.290884,-0.052736,-0.00105,0.311825,0.093283,0.035508,-0.314137,-0.296041,-0.015867,-0.070666,0.013119,0.217743,0.2736,-0.134087,-0.189871,0.137516,-0.068133,0.2481,-0.189478,-0.022471,-0.221023,0.235695,-0.118381,0.00803,-0.028425,0.543291,-0.064603,0.197681,0.227209,0.346127,-0.135326,0.206551,0.015737,-0.124442,0.0328,0.148858,0.113242,-0.241669,0.038325,-0.047224,-0.097401,-0.194823,0.002503,-0.15755,-0.056593,-0.230127,-0.114307,0.139497,0.258872,0.253472,-0.36788,0.072955,-0.086738,0.044625,-0.1313,0.19228,-0.190709,-0.067291,0.086081,-0.114279,0.196028,0.136583,0.098493,0.02756,-0.433704,-0.026002,0.198205,-0.016534,-0.021685,-0.230219,-0.208783,0.025193,-0.033018,-0.312081,0.057424,-0.110603,0.177639,-0.514301,-0.153525,0.375975,-0.05638,0.037893,0.024307,0.400895,-0.243386,-0.114771,-0.00275,0.052177,0.273631,-0.156772,0.375559,-0.157915,0.138254,0.067861,-0.049456,0.079488,-0.355019,-0.240233,0.088666,0.089819,-0.122893,0.044117,-0.057481,0.170076,0.163521,0.173581,-0.092208,-0.019675,0.294655,-0.753953,-0.078965,-0.104473,0.117345,0.277583,-0.149737,0.141128,0.163135,0.172028,0.18599,-0.239332,-0.096068,-0.217464,-0.081637,0.149735,-0.205783,-0.33583,0.24902,-0.138944,0.146412,0.059279,0.076363,-0.301373,-0.271104,0.077797,-0.171625,0.013548,-0.106334,0.24529,0.179705,-0.524881,-0.023827,0.03227,-0.363819,-0.108067,-0.218015,-0.007511,-0.160808,-0.303824,0.133053,-0.172121,0.094531,0.34471,0.016853,0.082616,0.014965,0.239834,0.013569,0.215117,0.279798,0.125112,0.132954,-0.160484,0.260559,-0.496493,-0.009656,0.093624,-0.385442,0.107355,-0.298932,0.252457,0.016838,0.332313,0.208125,0.152825,-0.240918,-0.047172,-0.412621,-0.059957,-0.01736,0.289297,-0.119834,-0.394821,0.106969,-0.32304,0.203606,0.422822,-0.256899,-0.09686,0.001363,-0.047335,-0.185451,-0.11063,0.050501,0.386833,0.106216,-0.058278,-0.133481,-0.170228,0.196264,-0.029274,-0.075838,0.050445,0.207772,-0.015523,-0.015506,-0.201133,0.23486,0.130149,0.482295,0.086522,-0.294166,0.168008,-0.106169,0.211556,0.047821,0.110338,0.126002,0.220933,0.049228,0.029279,0.180363,-0.270092,-0.260634,0.007848,0.246051,0.023982,-0.088762,0.019487,0.477764,-0.095023,0.104023,0.180884,0.028331,-0.075272,0.187782,-0.142551
nombre,-0.151724,-0.166188,0.27042,0.138094,0.129491,0.056202,0.057972,-0.191403,-0.416724,0.064175,-0.055628,0.277181,0.443746,0.378781,-0.217507,-0.115552,-0.205334,0.207758,-0.202804,-0.573369,-0.182761,-0.022818,0.252061,0.487716,-0.058017,0.091673,-0.498071,0.230297,-0.204484,-0.294784,0.192216,0.365335,0.26468,-0.246921,-0.022644,0.172635,-0.244558,0.131071,0.11668,-0.200919,-0.477596,0.314026,0.009024,0.286417,-0.296629,0.102462,0.316497,-0.089059,-0.159792,0.198137,0.310795,-0.13616,0.185362,0.114327,-0.405045,-0.102814,0.442243,-0.343824,-0.109279,0.288204,0.566595,-0.302137,0.06233,-0.194875,0.279894,-0.046206,0.182648,0.06203,0.081104,-0.272558,0.066855,-0.248669,0.498652,0.23024,-0.351196,0.320447,-0.246152,0.104061,-0.788849,-0.276523,-0.088354,-0.578688,-0.130655,-0.504553,-0.002375,0.315264,0.47065,0.178156,-0.121365,0.004869,-0.204491,0.05522,0.028577,-0.261157,0.502408,0.162326,-0.313442,0.353262,-0.162312,0.120218,-0.009708,-0.567686,0.385799,-0.338361,-0.264308,-0.066648,0.144234,0.404768,0.277449,0.144871,-0.071785,0.086518,0.082125,-0.001274,-0.443183,-0.415611,0.215751,0.019232,0.501236,-0.321234,-0.662973,-0.153549,0.43222,0.066048,-0.091181,-0.217451,0.109393,0.023984,-0.194157,0.212666,-0.277473,0.143043,0.008579,-0.030158,0.265071,-0.287006,0.038951,-0.435134,-0.373519,0.589665,-0.376604,0.209833,0.260789,-0.310206,-0.012534,0.349083,-0.334521,-0.441438,-0.155503,0.014384,-0.187779,-0.211967,-0.096481,-0.06313,0.350207,-0.617476,0.203387,0.126184,-0.173385,-0.276224,0.136541,0.511609,0.441766,0.283569,-0.167658,-0.151803,-0.120945,-0.272957,0.051295,-0.26876,-0.030523,-0.29577,0.13093,-0.189626,0.032147,0.195075,0.20677,-0.076623,-0.475952,-0.358338,-0.290796,-0.209641,0.291436,-0.233257,0.133584,-0.363023,0.018909,-0.318637,-0.087184,0.170211,0.362959,-0.430848,-0.123415,0.01634,-0.140906,0.281167,0.238177,-0.061297,0.15177,0.001999,0.179704,0.106812,0.40354,-0.00271,0.102403,-0.554943,0.06414,0.146079,-0.085931,0.044258,-0.381471,-0.121399,0.122537,-0.134934,0.30489,-0.052304,-0.1567,0.166795,0.051979,-0.085717,-0.306271,0.192858,0.080128,-0.940445,-0.224719,-0.007034,-0.234555,0.505841,-0.16652,-0.277597,0.364368,0.518614,0.335066,0.0677,0.204136,-0.599438,0.037105,-0.154207,0.397225,0.330473,0.19343,0.028065,0.328898,-0.059865,-0.046384,-0.595058,-0.350684,0.110878,-0.097331,-0.044627,-3e-06,0.581455,0.499889,-0.745572,-0.366227,-0.191193,-0.401684,-0.245666,-0.067844,-0.307424,-0.050881,-0.255682,0.165167,0.062336,0.184581,0.172883,0.375835,-0.065207,0.291258,-0.012927,0.08113,-0.061357,-0.323779,0.267068,-0.120973,0.071226,-0.093852,-0.316621,-0.052235,0.058531,0.10778,-0.113228,-0.138304,0.389619,-0.165786,0.039888,0.010305,-0.250328,-0.132651,0.050138,-0.481909,-0.345305,-0.222312,0.093348,0.443376,-0.453969,-0.37365,-0.181591,-0.114159,0.369484,0.201569,-0.299101,-0.111881,-0.558704,-0.327249,0.014557,-0.169821,-0.017266,-0.10669,0.252158,0.1934,-0.307829,0.543087,0.088378,0.004681,0.063606,0.238338,0.174434,-0.421653,-0.08896,-0.09369,-0.025369,0.231315,0.024774,-0.02245,-0.748287,0.365184,0.206195,0.156486,-0.0617,-0.184073,0.146664,0.365413,0.154013,-0.196752,0.436727,0.154892,0.392691,-0.239256,0.113091,0.116422,-0.343889,0.327284,0.05729,-0.040419,0.142612,-0.069698,-0.19457,0.139959,-0.18548
$\mathbb{N}$,0.066478,0.187872,-0.107028,-0.18907,0.047437,-0.130647,-0.18944,-0.232689,0.003126,0.024292,-0.270656,-0.321023,0.371071,0.173651,-0.248485,-0.300675,0.023582,0.009734,-0.076839,-0.052719,0.082869,-0.131265,0.056379,0.455022,0.155336,-0.273652,-0.276312,0.271337,0.004292,-0.173576,-0.030318,-0.066953,0.008897,0.380028,-0.03896,-0.029641,0.030412,0.000718,-0.212049,-0.075746,0.073668,-0.187701,0.174197,0.550962,0.076385,-0.204866,0.090334,0.185324,-0.029544,0.064318,0.196111,-0.228846,-0.02129,0.225696,-0.306837,-0.238289,-0.232439,0.174722,-0.042273,0.154747,0.442895,-0.242331,-0.141665,-0.081807,-0.034975,-0.277438,0.457245,-0.147173,-0.369513,-0.221536,-0.074029,0.034769,2.4e-05,-0.137264,0.052039,-0.078414,0.491263,0.070258,-0.102525,-0.116252,-0.2148,-0.379633,0.042788,-0.12211,0.135625,-0.325451,0.036491,-0.104685,-0.240352,0.172893,0.12232,-0.130808,0.352907,-0.205795,0.061484,0.106026,-0.190735,0.278138,-0.029311,-0.075351,-0.104068,-0.240829,0.200664,0.008433,-0.030603,-0.370618,-0.101014,0.251633,0.285868,-0.4075,-0.094486,0.215134,-0.144477,-0.101681,0.226923,0.000396,0.206497,0.038244,0.094321,-0.038914,-0.258024,-0.167325,0.217359,-0.019264,0.004053,-0.114992,0.290409,-0.004667,0.180818,0.054572,-0.11713,-0.028558,-0.009569,-0.135328,0.037446,0.215682,0.030405,0.194932,-0.164843,0.486579,-0.122306,-0.019338,0.081102,-0.049705,0.018424,0.136944,0.058805,-0.340182,-0.135186,0.276793,0.074737,0.107785,0.325096,-0.208365,0.045976,-0.026632,0.246381,-0.020687,0.047403,0.203882,-0.032874,-0.030972,0.272199,0.363751,-0.398696,-0.23832,-0.155687,0.003125,-0.268584,0.109861,-0.190398,-0.40515,0.149668,-0.149922,-0.113058,0.305649,-0.198745,0.18884,-0.704237,0.070651,0.138964,0.152015,-0.059601,-0.310768,-0.0078,-0.080175,0.241456,-0.026552,-0.479237,0.139723,-0.046651,-0.094595,-0.029865,0.141416,-0.200009,0.17932,0.152714,-0.084584,-0.113836,0.096766,-0.019418,-0.04606,0.316628,-0.088589,0.451274,-0.115447,0.182143,0.110924,0.064941,0.089412,-0.283913,-0.170012,0.122017,0.127131,-0.152657,0.05842,0.093632,0.143828,0.102784,-0.081187,0.028626,-0.119959,0.263407,-0.441209,0.152211,-0.046821,0.207524,0.306048,-0.095272,0.234321,0.246622,-0.094114,0.339417,0.255951,-0.043186,-0.19829,0.053055,-0.011151,-0.002936,0.11179,0.06463,-0.052274,0.203364,0.15685,-0.334258,-0.10967,-0.559335,-0.100726,-0.187072,-0.102701,0.079581,0.259958,-0.006238,-0.454911,-0.31591,-0.326936,-0.312104,-0.278092,-0.253897,-0.224347,-0.055401,0.054514,-0.109531,0.090084,0.293993,0.097598,0.187707,0.370036,0.088664,-0.184404,-0.067579,-0.130692,-0.245101,-0.059336,-0.22875,0.074818,-0.096292,-0.408878,0.004734,0.188966,0.105328,0.091124,0.11202,0.248198,0.075297,-0.094126,-0.284744,0.102337,0.010966,-0.045147,-0.084953,0.033373,-0.119851,-0.276751,0.184438,-0.081158,-0.324161,-0.144298,-0.119673,0.376853,0.132014,-0.134647,-0.008575,0.116047,0.021836,-0.022419,-0.180937,0.42503,0.150939,-0.048844,-0.139136,-0.219843,0.324234,0.161168,-0.255664,-0.150057,0.3094,0.339631,0.158749,-0.183292,0.123439,0.211447,-0.047077,0.204257,-0.191064,-0.08636,0.013958,-0.108816,-0.029576,-0.178885,-0.07001,0.205143,0.105057,-0.040902,0.067974,0.186249,0.167235,0.079767,0.115365,0.324073,-0.082968,-0.260333,0.273869,-0.312846,-0.035898,0.063799,0.241223,-0.055915,-0.061486,-0.007064
deux,-0.129551,0.152049,-0.22129,0.102929,0.343998,-0.087146,-0.085168,-0.12463,-0.415718,-0.052098,0.073413,0.24757,0.44474,-0.129995,0.194504,0.079743,-0.170735,0.141216,-0.007665,-0.045805,0.181949,-0.241631,0.028933,0.255517,-0.037188,0.038259,0.058366,0.012403,-0.134013,0.145801,0.057302,0.339866,-0.074692,-0.036766,0.224104,0.106142,-0.177487,0.154812,0.071181,-0.175873,-0.216074,0.049883,-0.082086,0.133977,-0.129105,-0.155643,0.205992,-0.251363,-0.216285,-0.122042,0.238406,0.165601,-0.224651,0.127431,-0.447402,-0.033888,0.115026,-0.212815,0.26061,-0.180246,0.240948,0.047711,0.060502,0.196463,0.121601,-0.027907,0.479331,0.169891,0.054703,-0.244352,0.015525,0.014658,0.36319,0.178938,-0.151494,0.309141,0.28092,-0.061788,-0.41135,0.014003,0.014813,-0.377545,-0.170172,-0.159431,0.118388,0.144581,0.455369,0.033445,-0.122573,0.182252,0.111836,0.286018,0.382151,-0.04719,-0.164823,0.104259,-0.251911,0.050325,-0.156033,0.01547,-0.115278,-0.276597,0.280461,-0.179202,0.002144,0.01733,-0.016557,0.118111,0.090409,0.070223,-0.043252,0.429403,-0.377833,0.102727,-0.1526,-0.284023,0.293666,-0.035054,0.030224,0.095486,-0.217542,-0.364995,-0.205144,-0.352811,-0.182242,-0.020315,0.021336,-0.255589,-0.198038,0.582367,-0.008438,0.336803,-0.035208,-0.14794,-0.149788,-0.151814,0.135813,-0.044735,0.113721,0.363198,-0.132717,0.084878,0.153171,0.269202,-0.442975,0.023263,-0.005568,-0.207502,0.252983,0.28025,-0.106974,0.133009,0.166201,-0.029413,0.010143,-0.110377,-0.059185,0.037147,-0.018023,-0.008842,0.060946,0.220417,0.261647,0.143169,-0.138346,-0.020648,-0.041959,-0.1381,0.022134,-0.008741,-0.261753,0.317803,0.133343,0.150555,-0.238578,0.240376,0.343029,-0.101863,-0.152107,0.028434,0.11793,-0.039938,-0.145871,-0.000296,-0.328051,-0.111273,0.017858,-0.305166,-0.166739,-0.008173,-0.116188,-0.483019,0.091402,0.367707,-0.244735,0.240701,-0.147446,-0.026142,-0.284902,0.012605,0.043322,0.329582,0.011627,-0.166269,0.52549,-0.258404,-0.047399,-0.121434,0.02904,0.10434,0.005906,-0.010584,0.160295,-0.000866,-0.258908,-0.155678,0.163532,0.288507,-0.002257,0.403647,0.244369,-0.025501,0.552232,-0.751226,-0.180259,-0.391502,0.127707,0.448779,0.1129,0.23078,0.233046,0.110291,0.147575,0.116462,0.049845,-0.249045,-0.004932,-0.195133,0.23461,0.02071,0.30214,-0.164958,0.105219,0.172509,-0.059155,-0.052173,-0.273514,-0.027868,-0.173054,0.02283,0.02778,0.187792,0.129927,-0.437115,-0.298314,-0.283825,-0.27496,-0.289263,-0.193691,-0.178507,-0.10702,-0.352749,-0.205166,0.127506,-0.262205,-0.002728,0.306098,-0.068358,-0.234187,0.026385,0.147507,-0.099015,0.144148,0.102544,0.066487,-0.140345,0.172458,-0.463262,0.038235,0.205228,-0.14497,0.061324,0.007702,0.324239,0.247974,0.448726,0.136797,-0.258773,-0.430066,-0.084645,-0.464112,0.067249,-0.349526,0.083066,-0.283096,-0.2173,-0.019624,-0.28988,0.185255,0.321651,0.162651,0.293895,-0.244842,-0.259456,-0.09064,0.036493,-0.075029,0.149744,0.281522,-0.211222,-0.334694,0.299332,0.40904,0.072196,-0.156848,0.133043,0.297146,-0.143452,0.175767,-0.140926,-0.037113,-0.388212,0.297108,0.163903,-0.366933,0.086781,-0.131441,0.140126,0.072933,0.01195,3.4e-05,-0.225713,0.082238,0.171185,-0.109908,-0.323553,0.043159,-0.075755,0.247477,-0.031328,-0.058334,0.155514,0.114905,-0.46297,-0.19574,-0.069476,-0.051481,0.043007,-0.018781,0.072276
fonction,-0.174482,-0.153881,0.152769,0.415145,-0.485856,-0.234035,-0.079429,-0.06137,0.19803,0.196163,0.301849,0.249544,0.196549,0.131588,-0.308264,-0.576436,0.367714,0.088686,-0.567733,-0.067651,-0.570182,0.257914,-0.287161,-0.047898,-0.525237,0.114978,-0.18286,0.222895,0.115729,-0.583471,-0.078251,-0.154127,-0.14099,-0.368455,-0.298483,-0.300482,0.533133,-0.070816,0.332838,-0.17641,0.218667,-0.088149,0.085617,0.28107,-0.043136,0.234034,0.312637,0.096946,0.067456,-0.231039,0.185033,0.372832,-0.109448,-0.004588,-0.407676,-0.318252,0.668452,0.030952,-0.176351,-0.150547,-0.034882,-0.386561,0.269938,0.20666,0.433957,-0.334688,0.336647,-0.41311,0.048325,0.001027,-0.303935,0.14503,0.436938,0.093949,-0.09452,-0.138756,0.205179,0.239231,-0.48527,0.119964,-0.283266,-0.398993,-0.405524,-0.212618,-0.056695,0.22499,0.460463,-0.115314,-0.099605,-0.112933,-0.039471,0.111092,0.257214,-0.387708,-0.155399,0.299115,-0.35632,-0.22975,-0.113018,0.09169,-0.25528,-0.557969,-0.242562,-0.211117,-0.365168,-0.001668,0.43144,0.116281,0.299443,0.357941,0.074928,0.492021,-0.036081,-0.038983,-0.295883,-0.163898,-0.090179,0.135937,0.085453,0.123635,-0.74336,0.313816,0.472089,-0.024084,0.523951,-0.409713,0.385549,0.160313,-0.001341,-0.008076,0.307559,0.439913,-0.313443,0.441416,-0.012844,-0.172282,0.005641,-0.447311,0.094513,-0.099304,-0.024019,-0.039302,0.208616,-0.096335,0.389375,0.029682,0.216066,0.694678,0.150332,-0.142012,0.261615,-0.258226,0.358363,-0.35269,0.195796,-0.696891,0.116786,0.52336,0.004239,-0.241142,0.211501,0.575163,0.332124,-0.019985,0.140991,0.095911,-0.166553,-0.279425,-0.008617,-0.0554,0.781555,0.073852,0.178908,-0.277316,0.028241,-0.186722,-0.32182,0.445401,-0.168857,0.171823,-0.120917,0.212004,-0.157059,-0.345758,-0.12584,-0.343132,-0.112605,-0.35295,-0.341803,0.433481,0.611992,-0.449503,-0.229538,0.062267,0.000872,0.268878,0.111929,-0.194723,-0.185452,-0.028532,0.348676,-0.074792,0.264232,0.08726,-0.225897,-0.185602,0.132517,0.041785,0.084117,0.244746,-0.459649,0.084244,-0.158678,0.522817,0.23736,0.054331,0.638605,-0.056905,0.434063,0.032969,-0.012254,-0.015474,0.215949,-1.063449,-0.335182,-0.29772,-0.011088,-0.12759,-0.247126,0.247814,0.417958,-0.010428,0.131812,-0.314388,-0.036665,-0.381109,-0.267911,-0.043997,-0.226474,-0.284232,-0.071041,-0.492192,0.256275,0.103886,0.286089,-0.068822,-0.122648,0.080609,-0.044949,0.310826,-0.141271,0.21984,-0.032744,-0.972432,-0.132956,-0.545343,0.408572,-0.189158,-0.18957,0.326427,-0.193334,0.000124,-0.728391,-0.064822,0.119091,0.445634,0.559079,-0.140225,0.062509,-0.625348,-0.053443,-0.204079,-0.038033,-0.329788,-0.248259,0.325418,-0.339254,-0.127772,0.150043,-0.412751,0.171881,0.091903,-0.101159,0.11964,-0.387297,-0.036954,0.370835,0.007609,0.143571,-0.035126,-0.474105,-0.332552,-0.18534,-0.416131,-0.019312,-0.117752,-0.340922,-0.427592,0.081774,0.091613,0.194013,-0.023175,-0.419673,-0.030972,0.156876,0.068362,0.233657,0.520168,0.03711,0.103508,-0.43893,0.288279,0.313205,0.133647,-0.776826,-0.007094,0.479244,0.25063,-0.207948,-0.158689,-0.026452,-0.19336,0.111979,0.139513,-0.561221,-0.033262,-0.049362,0.039934,0.171653,-0.04568,-0.639271,0.701693,-0.257978,-0.125193,0.015744,0.236672,0.102732,0.232193,0.091382,-0.184569,0.10907,-0.232331,0.583407,-0.01176,-0.138122,0.288482,0.325337,0.123667,0.113246,0.250941
premier,0.080298,-0.175313,-0.219999,-0.0374,0.132364,-0.107503,0.007641,-0.053038,-0.184574,-0.056377,-0.129324,-0.040493,0.398384,-0.03177,-0.023249,-0.294332,0.158663,0.064794,-0.184817,0.13449,-0.107134,-0.049296,0.082461,-0.013591,0.176157,-0.042787,0.218159,-0.027735,0.252384,-0.462585,-0.071759,0.383557,-0.008308,-0.088947,0.288355,-0.158783,0.07668,-0.003168,0.127923,-0.082721,-0.013747,0.010154,-0.134244,0.118162,-0.193943,-0.180889,0.079374,0.014444,-0.297379,0.026946,-0.083384,-0.063168,0.122781,-0.165687,-0.354602,0.049823,0.048502,-0.182941,-0.036838,-0.370435,-0.137686,0.002905,-0.185154,0.348236,-0.018966,-0.16856,0.639028,0.085978,-0.157058,-0.036272,0.273667,-0.386772,0.28694,0.05869,-0.252973,-0.329943,0.223943,-0.052595,-0.320708,-0.023431,-0.014717,-0.038315,-0.110579,-0.3519,-0.146888,0.127515,0.265387,-0.091661,0.234729,0.042348,-0.098142,0.102731,0.132055,-0.08646,-0.243559,0.192938,-0.366149,0.071694,0.193903,0.073505,0.171066,-0.102465,0.295916,-0.167421,0.220426,-0.308879,-0.200451,0.170725,0.260958,-0.051912,-0.018394,0.010877,-0.319835,-0.023109,-0.074258,-0.228563,0.39734,0.203175,-0.00206,0.070443,-0.376417,-0.210866,-0.323652,-0.109826,0.103355,-0.291939,0.224608,-0.189785,-0.142842,0.322901,0.029359,0.0379,-0.031185,-0.124196,-0.266448,-0.035499,0.177604,-0.029969,0.124413,0.385665,-0.223132,-0.07891,0.112236,0.211999,-0.603644,0.312695,0.03482,-0.211441,0.274483,0.099147,0.211737,0.142467,0.180522,-0.181667,-0.130435,-0.312568,-0.046991,-0.040706,0.170372,0.084922,0.045341,0.123053,0.133909,0.449055,-0.01593,-0.033011,0.324416,-0.327252,-0.158979,0.057433,0.011875,0.059427,-0.025936,0.092676,-0.29096,0.098171,0.398804,0.113923,-0.432698,-0.202485,0.313297,-0.236597,-0.014324,0.174673,-0.607858,0.190632,-0.017537,0.131971,-0.023976,0.085726,-0.067115,-0.275404,0.220196,0.092736,-0.240379,0.053866,-0.181634,-0.075863,-0.054832,-0.065062,0.065347,0.363331,0.205095,0.213138,0.246203,-0.639247,0.026688,0.001847,-0.10524,0.237228,-0.265534,0.081592,0.112296,0.017498,-0.242837,0.247259,-0.001769,0.102928,-0.01449,0.142495,-0.070529,0.160624,0.17678,-0.081538,-0.15618,-0.569358,0.018852,0.089511,-0.006185,0.158701,0.279016,0.010057,0.072804,-0.243416,-0.018998,0.0991,0.018079,-0.053937,0.126271,-0.04527,0.301948,-0.221148,0.434826,-0.200503,-0.307426,-0.09801,-0.427377,-0.126585,-0.181498,0.289412,0.135666,0.22098,0.060388,-0.240164,-0.137892,-0.120137,-0.538928,-0.165892,-0.061403,0.191094,-0.347862,-0.24813,-0.103555,-0.296333,-0.005697,0.133477,0.181062,-0.171003,-0.310264,0.301326,-0.10584,-0.196155,0.009974,0.143199,-0.190541,-0.012934,-0.003022,-0.331307,-0.1507,0.001016,-0.040137,0.003289,-0.329685,0.173833,0.396904,0.18465,0.119619,0.009353,-0.279047,-0.200727,-0.385314,0.121938,-0.00527,0.125396,-0.173469,-0.029517,-0.155995,-0.172534,0.075975,0.46791,-0.044818,-0.016862,-0.03707,-0.152507,-0.087066,-0.10962,-0.027896,0.045983,0.248786,-0.022749,-0.180236,-0.23423,0.323828,0.012725,-0.280267,0.093572,0.256305,0.058003,0.231213,-0.266031,0.337802,0.022939,0.228936,0.03647,0.137034,0.049431,-0.112751,0.066822,0.279027,-0.270746,0.060419,0.211617,-0.035553,0.225936,-0.249862,0.096197,0.083427,-0.044971,0.365448,0.027391,-0.183499,0.021203,0.123608,0.02642,0.085945,0.002246,0.134276,0.153273,0.056005,0.174438
ensemble,-0.03924,0.076703,-0.206426,0.078931,-0.444497,-0.106867,0.196852,-0.360461,-0.172362,-0.105517,0.096151,0.082096,0.123251,-0.225591,-0.03629,-0.056448,-0.17429,0.055,-0.116143,-0.046443,-0.171797,0.136387,0.043597,-0.244721,-0.374832,-0.276661,-0.284126,-0.291222,0.005671,0.174141,-0.060882,0.219982,0.159414,0.025619,0.426708,0.138538,0.022266,0.087096,-0.068425,-0.188227,-0.40129,0.464591,-0.002698,0.447956,-0.046547,-0.206958,0.086923,0.347586,0.050151,0.232665,-0.243167,0.04652,-0.465277,0.361764,-0.070963,-0.338724,-0.237273,-0.144331,0.228141,-0.12057,0.380687,0.060891,0.201029,0.089806,0.04424,-0.124265,0.315673,0.084455,0.08369,0.056575,0.048018,0.1904,0.51117,0.054477,-0.176096,0.308957,0.191507,0.12876,-0.580446,0.228321,0.093063,-0.544738,0.144526,0.12092,0.305845,-0.107442,0.185569,0.349508,-0.393309,0.168159,-0.338535,0.036034,0.280349,0.032743,-0.161893,0.037919,0.020011,0.142115,0.030244,0.0607,-0.55615,-0.115813,0.26856,-0.680219,-0.117013,0.197744,0.392782,-0.338991,0.159331,0.203453,-0.082511,0.094944,-0.040107,0.03254,-0.200919,-0.299151,0.464069,-0.106158,-0.063825,-0.218335,-0.315534,-0.13973,-0.091122,0.047264,-0.047965,-0.178668,-0.008508,0.022616,-0.366625,0.188026,0.116084,0.010531,-0.24054,-0.153366,0.134309,0.103658,-0.337306,0.004352,-0.076249,0.045493,-0.189246,-0.052449,-0.393956,0.233445,0.093194,0.062616,-0.1876,0.009993,0.151137,0.057547,0.065816,-0.306262,0.630684,-0.056255,-0.024516,-0.071952,0.23775,-0.026122,-0.163588,0.09065,-0.014115,0.184049,-0.041334,0.152201,-0.150466,-0.129382,-0.42342,-0.356587,-0.448726,0.006735,-0.318765,0.053064,-0.052261,-0.195314,0.071486,-0.027937,-0.110123,-0.134139,-0.117216,-0.011214,-0.058281,-0.023278,-0.283349,-0.107207,-0.388134,0.047275,0.255748,-0.053454,-0.127584,-0.078697,0.027663,-0.345574,-0.008398,0.376915,0.027052,0.263227,0.084073,0.250198,-0.340771,0.298209,-0.059466,0.112489,0.21282,-0.345985,0.209871,-0.347857,0.260313,0.129669,0.314792,0.25367,0.145617,0.052265,-0.131718,-0.267164,-0.064221,-0.147667,0.536096,0.180566,0.058744,-0.123007,0.335638,0.13199,0.218654,-0.641446,0.015102,-0.162127,-0.061672,0.46114,-0.002649,0.041443,-0.106929,0.179684,0.078348,-0.029849,-0.295524,-0.319048,0.301906,0.087437,0.177996,-0.041269,0.155525,-0.076076,0.023462,-0.373599,0.079169,-0.039939,-0.061796,0.080138,0.24731,-0.112862,0.216687,-0.117307,-0.199631,-0.314495,-0.200165,-0.14158,0.193562,-0.120441,-0.055108,0.106557,-0.272584,-0.043276,-0.189356,0.256849,-0.214219,-0.075387,0.213922,-0.23273,-0.111615,0.459867,-0.225628,-0.149774,0.092385,0.161465,0.047699,0.244042,0.24083,0.113663,0.392934,0.197548,-0.214318,0.021569,-0.334598,0.206454,-0.004602,0.121275,-0.036473,0.165808,-0.159005,0.217339,-0.037818,-0.215393,0.106391,0.133422,0.261478,-0.282405,-0.025156,-0.350236,0.186199,0.122437,0.005166,-0.017145,-0.287277,-0.178609,-0.17724,-0.02193,-0.061116,0.107674,-0.082609,0.059486,-0.112764,-0.079575,0.374727,0.144591,0.004503,-0.001017,0.296281,-0.054633,-0.101442,-0.303336,0.289991,-0.145737,0.273242,0.030436,0.104395,-0.104314,0.131998,0.170966,-0.353278,0.188419,0.085176,0.133686,-0.028565,0.252575,-0.087824,0.240355,0.008069,-0.041808,-0.031302,0.513756,0.225527,0.067214,0.035963,-0.204356,0.258464,-0.343935,-0.083737,0.140199,-0.137806,-0.013755
point,-0.077019,0.125519,-0.10143,-0.167595,-0.061965,-0.108335,-0.350834,0.093923,-0.07141,-0.073627,0.127471,0.251129,0.504736,0.318303,0.115088,0.090056,0.101719,-0.042351,-0.013434,-0.038955,0.24899,0.123719,0.291549,0.207086,0.298449,0.176958,-0.130668,0.193145,-0.092712,0.221944,0.214166,-0.082815,0.668758,0.116425,0.434096,-0.191623,-0.387189,-0.10824,0.315001,-0.053247,-0.071315,-0.188138,0.411673,0.265232,0.006742,-0.066108,0.448781,0.158819,-0.495825,0.346517,0.080086,-0.192665,0.302896,0.670677,0.101047,-0.050805,0.17682,0.336688,0.051188,0.077416,-0.109455,0.304338,-0.238368,0.025895,0.355865,-0.238479,-0.406789,-0.082806,0.490955,-0.044182,-0.196795,-0.188265,0.820133,0.273562,0.147512,-0.048403,-0.197944,0.066051,-0.342078,-0.267921,-0.079975,-0.566093,-0.273323,-0.512188,-0.172072,0.041355,0.444779,0.095245,0.096839,0.19057,0.13828,0.375617,0.06544,-0.4964,-0.166253,0.294922,-0.809414,0.459106,-0.072451,-0.336628,-0.160606,-0.20976,0.457694,0.266459,-0.920548,-0.309487,-0.322316,0.158836,0.266555,-0.192061,-0.188977,0.019188,-0.451718,0.249553,0.094708,-0.384358,0.350184,-0.184083,0.228577,0.079578,-0.017712,-0.183367,0.093804,-0.275896,-0.04188,-0.148621,0.157412,0.266711,0.241439,0.165115,-0.121045,-0.149488,-0.202634,-0.132297,0.106963,0.064413,-0.096914,-0.278824,-0.282323,0.474884,0.011463,-0.425686,0.147575,0.420409,-0.303201,0.298055,-0.080598,-0.239302,-0.306168,-0.31568,-0.149705,0.059814,-0.374726,0.023258,-0.165197,-0.166348,-0.10133,0.241919,-0.225017,0.127148,-0.437361,0.42043,0.017428,0.1259,-0.196046,0.115908,-0.271013,-0.283995,-0.515926,-0.542885,-0.102569,-0.112068,0.437293,-0.227609,-0.108757,-0.311279,0.099447,0.047055,-0.390665,-0.276048,-0.280391,0.326694,-0.38907,0.400839,0.152445,0.410754,0.142858,0.249436,-0.12758,0.039387,-0.159663,0.155661,-0.011287,0.194298,0.144827,0.452113,-0.338683,-0.223949,0.064177,0.334997,-0.263629,0.353548,0.388855,-0.111224,0.127626,-0.799821,0.147839,-0.148431,-0.283229,0.521272,0.241661,0.06182,0.521406,0.196043,0.090758,-0.153638,-0.423868,0.250575,0.158897,0.0339,0.13876,-0.211023,0.414292,-0.742416,0.498581,0.654994,0.190503,0.312572,0.428202,0.490822,0.790523,0.241838,0.473851,-0.102697,0.072445,0.106977,0.074341,-0.019178,0.357427,0.46741,0.215963,-0.171404,0.247378,0.367691,-0.446576,0.005446,-0.243593,-0.274095,-0.237099,-0.118248,0.081335,0.453104,-0.033499,-0.644004,-0.094633,-0.559282,-0.475168,-0.027187,0.461094,-0.14504,-0.001956,0.011073,0.20451,-0.106279,-0.023004,-0.074052,0.231975,0.057547,0.345119,0.069902,-0.071834,0.026845,-0.254488,-0.163664,-0.444644,0.261084,0.181605,0.010472,-0.201519,0.071877,-0.051095,-0.082351,0.414014,0.205705,0.20572,-0.059952,-0.372724,-0.218218,-0.126509,-0.090638,-0.149331,0.174421,-0.122706,-0.211749,0.010564,-0.05857,0.072227,-0.523451,-0.417302,0.354567,0.248828,0.082765,-0.006749,-0.030512,0.151671,-0.093992,0.1145,0.020508,0.011838,-0.08377,-0.241876,-0.255529,-0.030239,0.393568,-0.340134,-0.003606,0.084343,-0.402362,0.229335,-0.377673,0.018614,-0.227451,0.510624,-0.054304,-0.409898,-0.268237,0.182332,0.145244,-0.080246,-0.072791,0.052864,-0.264703,0.187076,0.629763,-0.252484,0.355801,-0.089852,0.337951,0.265809,-0.353199,-0.168182,0.024961,0.336928,-0.117386,-0.064197,0.088462,-0.123087,-0.331413,-0.559633,-0.249324
théorie,0.116792,0.098045,-0.452436,-0.297702,-0.3559,-0.216941,0.648706,0.099927,0.178752,-0.405863,0.543083,-0.060093,0.90373,0.41284,-0.104756,-0.441315,-0.179314,-0.156234,-0.513058,-0.252229,0.049037,0.092242,0.054974,0.565836,0.554807,-0.039558,-0.106001,-0.103281,0.032738,-0.50855,0.008321,0.122231,-0.084097,0.434832,0.381463,0.167687,0.744474,0.543316,0.418957,-0.255687,0.334279,0.099917,0.213422,-0.455248,-0.443187,0.200095,-0.678309,-0.147107,-0.109293,-0.124855,0.13779,-0.522123,-0.224534,0.635752,0.033359,0.024273,-0.137523,-0.265577,0.319684,0.008131,0.243383,-0.160906,-0.449448,-0.129599,0.171265,-0.331747,0.278257,0.024513,-0.101922,-0.634225,-0.925428,0.275154,-0.327418,0.076032,0.42458,0.023287,0.298572,-0.416417,-0.185415,0.266445,0.297707,0.14459,0.126519,0.571338,0.029168,0.060011,-0.399036,0.367612,0.889631,-0.0723,-0.210562,0.409904,0.003576,-0.34603,-0.009826,0.104067,0.125377,0.460496,0.185428,0.222002,0.08817,-0.314428,-0.033974,-0.424805,-0.434633,0.352216,0.009021,0.162934,0.57186,0.675035,-0.344414,-0.171284,0.341339,-0.395967,0.23669,-0.227442,-0.138755,0.115857,0.081409,0.367263,-0.340212,0.269791,0.82209,-0.642917,-0.286607,0.158077,0.193987,-0.256025,0.315068,0.382087,-0.247083,0.069626,-0.160355,0.33012,-0.024295,0.332851,-0.29045,-0.050727,-0.15144,-0.470829,-0.107933,-0.326795,-0.151033,-0.252577,0.373142,-0.393976,-0.089596,-0.596138,0.232394,-0.14525,0.402516,-0.487094,0.541056,-0.530159,0.358018,-0.254894,-0.209451,0.030992,-0.420421,-0.128406,-0.356806,-0.233495,-0.003687,0.062257,-0.133287,-0.091805,-0.800784,0.415422,-0.183189,-0.436333,0.003824,-0.058207,0.225074,0.235595,-0.101238,0.260738,0.162343,-0.27842,-0.588367,-0.492012,-0.506762,-0.687994,-0.598343,-0.560458,-0.134017,0.142423,-0.116256,-0.257118,-0.088757,-0.209582,-0.078902,0.184075,0.194298,-0.020363,0.091354,0.100601,0.061334,0.292743,0.010837,-0.034504,-0.327191,-0.696657,0.643447,-0.211392,-0.04796,0.050616,0.342315,-0.489879,0.214257,0.473647,-0.403733,-0.003532,0.326479,0.846686,0.116391,-0.60175,-0.287714,0.237687,-0.035908,-0.285897,-0.0923,-0.400811,0.344286,-1.12285,-0.513939,-0.000896,0.371041,-0.23435,-0.090129,0.077533,0.351379,0.115115,0.096413,-0.016929,0.636872,-0.183686,-0.127915,0.097002,-0.238161,0.164017,0.457529,0.039638,-0.390961,0.204326,-0.32498,-0.10256,-0.205563,-0.094002,-0.306826,-0.174728,0.462737,-0.148488,0.158629,-0.45029,0.015903,0.241628,0.526249,0.258449,0.055069,-0.329191,-0.480539,0.362761,-0.338158,-0.26339,-0.308261,0.144042,0.554699,0.034997,-0.103174,-0.259533,-0.0333,-0.561023,0.547904,0.155247,-0.472327,-0.027115,-0.239073,0.020644,0.308605,0.248772,-0.140252,-0.018064,-1.243298,0.449229,-0.159538,-0.038894,0.100743,-0.248026,0.83381,-0.227298,0.302394,0.003312,-0.174074,-0.201516,0.330047,-0.368514,-0.09894,-0.002667,-0.263557,0.098569,0.278936,0.444196,-0.398972,0.078207,0.245501,-0.192936,0.681945,-0.020359,0.066357,0.109029,-0.045661,-0.231567,-0.058452,0.275523,-0.418206,0.174043,0.348042,0.538412,-0.052047,0.036991,0.084114,0.344519,0.130928,0.32636,-0.043093,0.123319,-0.133222,-0.055072,-0.467098,-0.273964,0.328102,0.132195,0.123785,-0.039983,-0.413434,-0.254933,0.159851,0.10296,-0.202632,-0.001764,-0.266369,-0.095139,0.305752,0.010497,0.659875,-0.441259,0.274384,-0.399464,-0.461242,-0.068109
exemple,-0.197086,0.107782,-0.181519,0.094066,-0.192178,-0.007069,0.130629,0.001233,-0.064742,-0.014229,0.042027,-0.03591,-0.009928,-0.070598,-0.280187,-0.511282,-0.162412,0.16276,-0.035543,-0.260633,-0.180262,-0.083056,0.017429,0.114266,-0.021732,-0.247653,-0.210858,0.101731,0.03519,0.088936,-0.020006,0.134304,0.140974,-0.14735,0.377774,-0.132964,0.290094,0.149234,-0.134078,-0.116078,0.008121,0.431322,0.120301,0.377431,0.367197,0.061121,0.043502,0.443125,0.058112,0.0786,0.3491,-0.159894,-0.368658,0.339273,0.097064,0.194656,0.067173,-0.047369,-0.29963,0.225416,0.44346,-0.033016,0.106116,0.003585,0.066615,-0.095407,0.288198,0.016287,-0.054204,-0.158887,-0.058461,0.02735,0.071783,0.091063,0.046232,0.274695,0.183592,0.120867,-0.138405,-0.329737,-0.070296,-0.242442,-0.157315,-0.24417,0.049986,0.160632,-0.175683,-0.055136,0.037431,0.029624,0.201166,0.182162,0.096757,-0.280357,0.27967,0.308149,-0.114911,0.470319,-0.331572,-0.079087,0.039348,-0.250209,0.002865,-0.330167,-0.252573,0.009955,0.143412,0.264469,0.319864,0.030032,-0.094091,0.28678,-0.023773,-0.344888,-0.285985,-0.01261,0.115239,0.093854,0.139314,0.035953,0.069409,0.133867,0.103981,-0.205945,-0.128159,-0.225312,-0.218885,-0.261512,-0.049334,0.075307,0.072952,0.077143,0.0129,-0.031319,-0.03663,-0.057866,0.427769,0.007757,-0.124615,0.120374,-0.182872,0.262421,0.127175,-0.054627,0.23459,0.213943,-0.158645,0.004111,-0.161687,-0.030059,0.212602,-0.352964,0.151178,-0.132429,0.192951,-0.152517,0.449133,0.229115,-0.097752,-0.121609,-0.216281,0.165739,0.107653,0.225097,-0.335233,0.122973,-0.255946,0.260551,-0.43298,-0.066097,-0.272332,-0.268465,0.177946,-0.231097,-0.119406,0.295659,-0.00259,-0.057316,-0.336948,0.234277,-0.069089,-0.036033,-0.078851,-0.400329,-0.076311,-0.136458,0.069177,0.049928,-0.450982,-0.11072,0.061037,-0.37018,0.020298,0.201827,0.039323,0.220212,0.319918,0.03988,-0.08775,0.316529,0.118246,-0.252962,0.486935,-0.424875,0.06707,-0.041452,0.26735,0.32959,-0.083597,0.07661,-0.511995,-0.265559,-0.009918,0.0562,-0.092203,-0.119306,0.182422,-0.198284,-0.212836,0.199684,-0.219287,-0.281139,0.153058,-0.525899,0.047547,-0.02235,0.075628,0.544576,-0.159375,0.074718,0.250251,0.375194,0.303065,-0.018639,0.210033,-0.049329,0.017176,0.191635,-0.498073,0.127782,0.136364,-0.037619,0.290535,0.058957,0.488417,-0.334784,-0.211997,-0.034975,-0.435031,0.10931,0.044602,0.019268,0.018974,-0.715241,-0.147529,-0.058468,0.051603,-0.092653,-0.319391,-0.085728,-0.013012,0.101214,-0.029513,-0.296648,-0.101066,0.100056,0.198995,0.102476,0.410359,-0.063506,0.143556,-0.03055,0.135229,0.445545,-0.280001,0.011602,0.489435,-0.042285,0.183492,0.312401,-0.033585,0.182385,-0.225092,0.128759,-0.146788,0.03378,-0.03317,-0.041633,-0.048361,0.152656,-0.028831,-0.212073,-0.403603,-0.225349,0.237904,-0.144213,0.22936,-0.076264,0.13996,0.293064,0.031355,-0.181905,-0.125534,0.057946,-0.144603,0.146008,0.242682,0.627708,-0.046872,0.381796,-0.023628,-0.15507,-0.013402,-0.108375,-0.218228,0.078253,0.498598,0.128351,0.087375,-0.021713,-0.01045,0.071256,0.10268,0.002691,0.03077,-0.288149,-0.009453,0.058043,-0.315585,-0.061379,-0.029693,0.292216,0.065685,0.153482,0.216456,0.295413,-0.039422,-0.05875,-0.002809,0.153988,0.054262,-0.216155,0.233439,-0.000667,0.012775,0.260226,0.102262,-0.182918,-0.023492,0.066181
espace,-0.433568,0.008591,-0.396244,-0.396035,-0.221328,-0.237787,0.634904,-0.103652,-0.023347,0.040954,-0.327563,0.36812,0.686457,-0.0452,0.2594,-0.602327,0.302996,0.152511,-0.281134,-0.138917,0.098918,0.02437,-0.151182,-0.169716,0.052793,0.13228,-0.086644,0.117646,0.158168,0.276433,-0.420463,-0.625839,-0.34639,-0.057106,0.499786,0.015369,0.415274,-0.035294,-0.126683,-0.405973,0.054846,1.197474,0.615697,-0.015991,-0.368437,-0.535515,-0.041181,0.56355,0.213364,0.016939,0.253524,0.025171,0.225568,-0.238567,-0.093309,-0.052482,0.51732,-0.066402,0.350635,-0.419888,0.051219,-0.371199,0.133454,0.182026,0.054754,0.155428,0.680943,-0.127469,-0.0261,-0.13838,0.096651,0.257592,0.446472,0.015124,-0.012047,0.179289,-0.055096,0.120587,-0.071834,-0.185708,0.189796,-0.052585,0.341269,-0.067978,0.411518,-0.27921,0.227083,-0.117539,-0.128149,-0.223534,0.043359,0.431246,0.488757,-0.072044,-0.273052,-0.004112,-0.405235,0.193049,0.025662,-0.195403,-0.3876,-0.442095,0.065831,-0.141173,-0.200595,0.253305,0.228734,-0.109649,0.188144,0.86873,0.167538,-0.294145,0.291276,0.040339,-0.688916,-0.33221,0.286571,-0.031567,0.361619,0.123044,-0.43425,0.105557,0.547886,0.111367,-0.329044,-0.203595,-0.002728,-0.01516,-0.375141,0.38394,0.053357,0.108099,0.125577,0.064665,-0.004497,0.21225,-0.522089,-0.426791,-0.152185,0.212945,-0.078945,-0.181461,-0.009485,0.339377,0.133984,-0.300422,0.160687,0.274145,-0.165353,-0.102407,0.160319,-0.438705,0.41216,0.135967,-0.218702,-0.031152,0.169946,0.586082,-0.18833,-0.15328,-0.393792,0.655809,0.274564,0.482841,0.142273,-0.232711,-0.382253,-0.018205,0.032136,-0.648123,-0.282857,-0.548138,0.233718,0.208192,0.383372,-0.174285,-0.219955,0.029065,0.13482,0.063347,0.066184,-0.038672,-0.083929,0.268903,0.150511,0.066233,0.086031,-0.066387,-0.6141,-0.205357,0.137918,0.154425,-0.008278,0.303443,-0.081427,0.373039,0.673614,-0.137804,-0.390521,0.168839,-0.196996,0.153239,0.255797,-0.715937,-0.316412,-0.27851,0.093848,0.488974,0.297799,0.494087,0.417253,-0.116461,0.260283,0.265709,-0.079378,-0.36215,-0.018231,-0.147264,0.101835,-0.237521,0.473044,-0.224612,0.527171,-0.900086,-0.05133,0.68075,-0.022512,0.181423,0.330043,0.662201,0.099511,0.499358,-0.135786,0.201856,-0.262455,-0.050565,0.487718,-0.160672,-0.168735,-0.668306,0.183734,0.202054,-0.802534,-0.16796,0.24422,0.331472,0.357175,0.039198,0.164559,-0.210892,0.316436,0.191133,0.166167,-0.311753,-0.118368,-0.246853,-0.029237,-0.224553,-0.539748,-0.085223,-0.225415,-0.314263,0.271859,0.229072,-0.008437,-0.209119,0.375953,0.137595,-0.134673,0.17035,0.188907,0.39373,-0.11929,-0.203029,-0.131673,0.091693,0.218528,-0.187026,0.213222,0.380591,-0.71258,0.527492,-0.558379,0.204571,0.099578,0.033571,0.271716,0.238774,-0.132966,-0.243373,-0.072258,-0.254995,0.175005,0.017199,0.723912,0.126473,-0.449648,-0.368012,0.028661,-0.053171,-0.055866,0.548811,0.363347,0.022992,-0.197558,-0.238783,-0.071044,0.047666,-0.238618,0.644092,0.183956,0.22296,-0.102277,0.508284,0.010969,-0.336293,0.801573,0.043664,0.029387,-0.46864,0.159708,0.198,-0.255236,-0.47263,0.234803,-0.223746,0.009252,0.146551,-0.37748,0.285646,0.125531,-0.079411,-0.295282,0.207582,-0.001338,0.023299,-0.136948,-0.009592,0.095159,0.144061,0.391505,-0.085825,0.184096,-0.224712,-0.039197,0.044937,-0.033458,0.006997,-0.030683,0.711416
théorème,-0.592692,0.035471,-0.508773,-0.008259,-1.133337,-0.653914,-0.28696,1.091498,-0.746043,-0.111791,-0.551376,0.02657,0.63043,-0.161605,-0.16136,-0.691363,0.014506,0.739574,-0.542836,0.028515,0.253124,0.685307,-0.084636,-0.516045,-0.365204,0.769807,-0.286983,-0.52771,-0.14131,-0.720945,0.135259,0.166863,0.001203,0.454062,0.346153,0.006975,0.311364,0.179978,-0.060974,-0.062784,0.249986,0.231439,0.511098,-0.548991,-0.116678,0.383177,-0.108929,-0.483962,0.136695,-0.069666,-0.011346,-0.01506,-0.106461,0.765755,0.086872,-0.266465,0.033493,-0.693293,-0.378716,-0.842246,-0.020887,0.258452,0.044293,-0.112684,0.296515,0.603128,-0.165967,-0.17603,0.208015,-0.560157,-0.419829,0.023033,0.085544,0.834466,0.467654,-0.163005,0.080861,-0.383592,-0.584284,0.125122,0.731803,0.027888,0.145996,0.737903,0.409272,-0.117253,-0.768412,-0.630604,0.36882,0.160188,-0.236645,0.143297,-0.072339,-0.385062,-0.098028,0.166437,-0.791927,0.281932,-0.087187,-0.107236,0.187866,0.59609,0.090751,0.136943,-0.215242,-0.509392,1.127081,0.184256,0.365876,0.595908,0.089385,-0.25172,0.749919,-0.913337,-0.00973,-0.552913,0.430603,-0.027754,0.015879,0.333614,-0.16653,0.847348,0.665139,-0.553172,0.08034,0.080775,-0.40787,-0.048487,0.341022,0.682562,-0.053926,0.522467,0.406872,0.790086,0.192443,0.220106,0.275615,0.099753,-0.46254,-0.057191,0.167488,-0.727081,0.051239,-0.743091,0.245965,0.240159,-0.871394,-0.383787,-0.044609,-0.426143,0.51252,-0.608839,0.013667,-0.585233,0.568934,-0.067901,0.163804,0.435173,-1.007998,0.471907,-0.40429,0.298169,0.719049,-0.079516,0.132848,0.084269,-0.350842,0.8645,-0.273416,-0.278395,0.043758,0.684302,-0.010253,0.488801,0.934292,-0.15576,-0.015188,-0.248819,-0.259416,-0.530928,-1.099253,-0.284567,-0.224569,-0.662526,0.169463,0.076854,-0.195789,0.487302,-0.19426,0.699929,-0.301449,0.935133,-0.035199,0.062881,0.285429,-0.31108,-0.25853,-0.538067,0.510365,0.210146,0.580673,-0.529487,0.829149,0.168167,-0.890101,0.225107,0.542839,0.402702,0.269709,0.491265,0.302869,0.197289,0.241724,0.592324,-0.213592,-0.86,-0.395086,0.545613,-0.632992,-0.16021,-1.071223,-0.284543,-0.053483,-0.614133,-0.221595,0.265033,0.470016,0.270976,-0.621566,-0.447188,0.652521,-0.220947,-0.249279,-0.557253,-0.000937,-0.462737,0.17707,0.302898,0.040913,0.339042,0.573241,-0.390137,0.084216,0.607531,0.035545,-0.056368,0.0311,-0.435817,-0.082426,-0.302369,0.774408,-0.388944,0.330023,0.357505,0.060892,-0.4827,0.500405,0.014794,-0.563583,-0.071557,-0.256939,0.426612,0.39531,0.133742,-0.139555,-0.022975,0.197262,0.623741,0.379308,-0.505118,0.368361,-0.557834,-0.234993,-0.737009,-0.222851,-0.319899,-0.235805,-0.699684,0.172978,0.660304,-0.332917,0.060994,-0.190001,0.492659,-0.473572,-0.286371,0.503732,-0.327238,0.201224,-0.012114,0.429091,0.061663,0.566835,0.701175,0.033993,0.115224,-0.836915,1.033817,-0.641434,0.024697,0.324103,0.46946,-0.082865,-0.062042,0.817618,0.493914,-0.031728,0.270213,-0.277621,-0.032488,0.369659,-0.089631,-0.079934,-0.716036,0.30269,-0.795294,0.287897,-0.435805,0.037659,-0.349289,-0.149648,0.866036,-0.057807,0.165198,-0.544253,-0.190282,-0.11291,0.120406,0.345216,-0.338949,-0.213818,-0.288741,-0.667316,0.077073,-0.427948,0.172076,0.074677,-0.189665,0.824421,0.117959,-0.219987,-0.746751,-0.450127,-0.601495,-0.047135,-0.633839,0.258,-0.421815,0.110222,0.725406
problème,0.123276,-0.124633,0.452095,-0.008043,0.01267,-0.317644,0.188042,-0.248022,0.019393,0.287797,-0.042905,-0.395507,0.340416,0.002635,-0.271521,-0.587737,0.020666,0.282586,-0.22998,-0.126875,-0.074407,0.102439,0.196669,0.476733,-0.064384,-0.187518,0.077626,0.010776,0.044897,-0.025934,-0.137535,0.176001,0.23347,0.161178,0.033098,-0.117835,0.488999,-0.239433,-0.090801,-0.045688,0.273781,-0.070113,0.235231,-0.068355,0.185887,0.12085,0.079981,0.04362,-0.216442,0.064748,0.153049,-0.736295,0.020688,0.223425,-0.013068,-0.038232,-0.456896,-0.136609,0.012568,-0.374248,0.370709,0.247775,-0.242772,0.048085,-0.151193,0.139326,0.292738,-0.097718,0.383569,-0.057036,-0.112829,0.028146,0.681734,-0.038499,0.117786,0.261157,0.131861,0.002731,-0.296354,0.144746,0.548494,-0.663243,0.073629,0.278928,-0.19223,-0.162406,-0.270067,0.151615,0.289148,-0.211633,0.249722,0.118728,-0.06431,0.141466,-0.189266,-0.384932,-0.353622,-0.025516,0.080013,0.387536,-0.380067,-0.225052,0.220477,0.090649,-0.471708,-0.338041,0.1616,0.054316,0.170581,-0.016709,-0.096262,-0.163713,-0.100598,-0.057243,0.552214,0.182251,-0.025366,0.035335,0.227785,0.067425,0.072804,-0.030588,-0.057199,-0.175362,0.0546,0.364357,0.030437,-0.117798,0.379467,0.175617,-0.121703,0.361888,0.023016,-0.034982,-0.139125,0.242987,0.045566,-0.077262,-0.124044,0.127066,-0.043287,-0.090995,0.369019,0.119826,0.240272,-0.420156,-0.051458,-0.199404,-0.118941,-0.483022,0.082687,-0.533401,0.736695,0.006205,0.298775,0.299753,0.134331,-0.417752,0.486589,-0.050381,-0.21414,-0.272924,0.260867,0.169786,-0.129327,0.35498,-0.625331,0.393244,-0.036647,-0.434492,0.276646,-0.221223,0.060086,0.281163,-0.013482,-0.263602,0.15228,-0.37792,-0.587682,-0.177924,-0.492165,-0.056693,-0.246552,-0.354963,-0.140011,0.002756,-0.293399,0.42204,-0.374164,-0.122002,0.241473,-0.244085,0.082599,-0.222631,0.060924,0.340817,0.137107,0.156337,-0.171113,-0.000675,-0.122942,0.228247,-0.122958,-0.176491,0.448304,-0.067409,0.227498,-0.196508,-0.462597,0.083377,-0.593496,-0.005614,0.350485,0.369164,-0.075295,-0.188283,0.369262,0.05372,0.217565,-0.322138,-0.363044,-0.030794,0.066046,-0.830536,-0.048978,0.048525,-0.081025,0.214291,0.010916,0.334609,0.639994,0.344461,0.358484,0.240859,0.200735,0.053197,0.058068,0.000293,0.31766,0.053758,0.380129,0.098976,0.417833,0.323069,-0.065732,-0.239818,-0.713186,0.34474,-0.588266,-0.463756,-0.253575,0.123235,-0.020166,-0.252558,-0.231943,-0.231564,-0.303353,0.240216,0.051953,-0.260314,-0.02386,0.278661,0.016457,0.385697,0.295042,0.220912,0.246431,0.518431,-0.082411,-0.524031,0.210898,0.089129,-0.036902,-0.062405,-0.559401,0.028246,0.3083,-0.353047,-0.240774,-0.132901,0.001407,0.067797,-0.651893,-0.097703,0.078234,0.076734,-0.208878,0.105148,0.355527,-0.124574,0.208739,-0.174605,-0.325638,-0.084982,0.119905,-0.523779,-0.183199,-0.037868,-0.105014,-0.311255,-0.096696,0.06768,0.336707,-0.062513,-0.171125,-0.11141,0.120505,-0.090862,-0.065355,0.042319,-0.197119,-0.236931,-0.11124,0.323163,-0.285725,0.664702,0.571004,-0.331292,0.314591,-0.19055,-0.055307,0.148506,-0.169952,0.083713,0.157331,0.091053,0.179524,0.039335,-0.176793,-0.077187,-0.093319,0.591743,-0.219182,0.291477,-0.170541,0.768736,-0.004955,0.02354,0.193028,0.165921,0.255204,-0.178868,0.483408,-0.351752,0.36506,0.005783,-0.156757,0.211564,0.153725,-0.081766
valeur,-0.160624,0.26753,-0.353283,-0.263182,0.093135,-0.027478,0.159146,0.306335,-0.529612,-0.180516,-0.130606,-0.246131,0.234285,-0.088906,-0.119869,-0.703278,-0.014117,0.2936,-0.215817,-0.506279,-0.188464,-0.147978,-0.148399,0.450461,0.16857,-0.277391,-0.089771,-0.673425,-0.635944,0.329625,-0.085824,0.213963,-0.059748,-0.0512,0.361758,0.20143,0.66794,0.010115,0.154492,-0.222491,0.00158,0.293085,0.262896,0.265819,0.237905,0.221894,0.07634,-0.110693,0.449978,-0.187549,0.501176,-0.216025,-0.111714,0.348702,0.162767,-0.249474,-0.194714,0.219705,-0.260164,0.677687,0.210227,-0.047337,0.082613,0.171621,-0.134483,-0.516417,-0.585192,-0.169769,-0.411528,-0.139967,0.332202,-0.392096,0.852906,0.083261,-0.332133,0.098658,-0.042607,-0.271317,-0.054937,-0.18896,0.009274,-0.714125,0.072754,0.078854,0.150272,-0.356863,0.240757,0.10907,-0.327276,-0.163311,-0.322219,0.304715,0.260615,-0.572998,-0.232022,0.259811,-0.270152,0.921084,-0.347569,-0.380163,-0.100284,-0.400032,0.112561,-0.136985,-0.562083,0.347394,0.365187,0.070521,0.909883,0.426131,0.059592,0.337697,0.292541,-0.477226,-0.627313,0.027007,0.106191,-0.26466,0.234015,-0.307422,-0.351872,0.579598,0.719851,0.020078,-0.5107,-0.329454,-0.144958,0.378994,-0.230892,0.021804,0.079809,-0.299591,-0.236621,0.091866,0.429887,0.013602,0.01296,-0.187146,0.090438,0.106325,-0.041367,0.269333,0.273905,-0.363381,0.222302,0.258812,0.261878,-0.064865,0.061402,-0.058843,0.171406,0.099933,0.094918,0.099921,-0.128021,-0.867558,0.44566,0.193557,-0.070426,-0.700679,-0.189085,-0.075511,0.485186,-0.306503,-0.036376,-0.140453,-0.091481,0.204018,-0.559864,-0.129508,0.264036,-0.601135,0.260874,0.015171,0.230923,-0.022699,-0.117822,0.18154,-0.478487,0.064054,-0.155361,0.231362,0.113922,-0.235517,-0.140395,0.05529,-0.231602,-0.116395,0.025912,-0.050211,-0.113324,-0.190136,-0.278672,0.221458,0.072041,0.276792,0.488324,0.4325,-0.148991,0.268835,-0.076018,-0.434574,0.552482,0.193233,-0.271959,-0.587671,0.272405,0.006263,-0.090289,0.155282,0.03752,0.23441,0.257584,0.138521,-0.122347,-0.343281,0.4409,0.233704,0.192796,-0.391781,-0.611584,0.160403,-0.069618,-1.029212,-0.219439,0.23262,0.339215,0.10089,-0.050245,-0.238902,0.341796,0.373541,-0.111348,-0.384453,0.002916,-0.661646,0.083736,0.197384,-0.293926,0.274404,-0.028747,0.265041,0.30396,-0.021464,-0.166583,-0.345235,-0.135645,0.048665,0.347594,-0.704853,0.19862,-0.011559,0.127903,-0.715532,0.187194,-0.414718,-0.115256,-0.390323,0.155175,0.102027,-0.168265,0.411983,-0.009737,-0.430249,-0.027413,-0.097015,0.194544,-0.208839,0.443904,-0.262733,-0.006549,0.308749,0.425783,-0.178543,-0.253811,0.086716,-0.042966,-0.094133,0.378199,0.546743,-0.635069,0.407635,-0.628925,0.158344,-0.203612,0.053494,-0.124307,-0.037212,-0.098388,0.168538,-0.194756,-0.383099,0.121086,-0.833381,-0.106631,0.559432,-0.307869,-0.170045,-0.303892,0.621151,-0.062413,-0.741543,-0.11977,-0.143641,0.031886,-0.069123,-0.013341,0.335772,0.084411,0.76025,0.202259,0.346667,0.169443,0.033498,-0.699656,0.045219,0.655009,0.381708,0.086203,-0.033262,0.290277,-0.035769,0.23443,0.250672,-0.319333,-0.024239,0.022555,-0.085196,-0.125377,-0.176837,-0.009442,0.389271,0.282951,0.185096,-0.069295,0.412323,0.152931,-0.382824,-0.25586,0.100724,-0.382954,0.026747,0.250416,-0.262857,-0.26819,0.292286,0.260657,-0.0206,0.105042,-0.105165
groupe,-0.222472,-0.059854,0.050838,-0.202076,-0.126709,-0.40851,0.10202,0.059458,-0.644424,0.396217,0.053985,-0.305906,0.275225,-0.433701,0.483134,-0.223231,0.240337,0.106098,0.29962,0.050312,0.35641,0.310732,0.237254,-0.177348,-0.540742,-0.158963,-0.211439,-0.147822,0.015391,0.39307,0.14148,0.319755,-0.222092,-0.292038,0.936646,0.277931,0.065706,-0.124447,-0.007345,0.207773,-0.183593,-0.084307,0.079677,0.097108,-0.332288,0.226047,0.362071,0.09402,0.092282,0.331396,0.373847,0.058473,-0.64105,-0.116202,-0.321051,-0.119013,-0.053293,0.035378,-0.015878,-0.603945,-0.026638,-0.376139,0.396059,-0.141889,-0.50738,-0.421117,0.765266,0.11853,-0.338007,0.018806,0.105094,0.200092,0.389704,-0.171838,-0.172566,0.0453,0.172846,0.348055,-0.299418,-0.023545,0.165283,-0.335605,0.084354,-0.430256,0.043476,-0.337573,-0.189201,-0.402039,0.370015,0.185892,-0.082294,0.033894,-0.032724,-0.08628,0.440833,-0.343275,0.573723,-0.022742,0.160731,-0.108055,-0.274036,0.130986,-0.087273,-0.370208,0.414068,0.021397,0.298492,0.022908,-0.089838,0.283163,0.226942,0.594325,-0.3759,-0.289097,0.05767,-0.00744,0.047292,-0.243309,0.15791,0.057731,-0.317171,0.358959,-0.304192,-0.390794,-0.535601,0.35546,-0.306977,0.202694,-0.16262,0.356134,0.35702,-0.001571,-0.077792,0.015589,-0.19194,-0.060712,0.688401,-0.334063,0.270643,-0.061547,-0.296978,-0.081932,-0.022991,-0.080082,-0.191016,0.478675,-0.742004,-0.186468,0.286824,0.119155,0.02834,-0.182376,0.302749,-0.532195,-0.233508,-0.634584,-0.030202,-0.235377,0.288484,-0.115868,-0.594333,0.249358,0.464953,0.171417,0.243739,-0.072802,-0.001216,-0.1683,-0.341687,-0.369853,-0.003727,0.294696,-0.009605,0.085696,-0.107155,0.004946,0.849462,-0.097356,0.006864,-0.149787,0.583325,-0.065787,-0.278574,-0.002194,-0.342573,-0.176886,0.389756,-0.090304,0.057272,0.026034,0.137569,-0.009294,-0.203228,0.019593,-0.408176,-0.015321,0.09422,-0.080102,0.108586,-0.035221,-0.115924,0.900444,-0.627538,-0.057325,0.408244,-0.60128,0.532625,0.121979,0.1521,-0.171572,-0.233986,-0.555148,-0.128586,-0.208029,-0.193084,-0.235902,0.134328,-0.150925,0.257673,-0.656889,0.36297,0.077283,0.196518,-0.775439,0.237869,-0.000381,-0.338894,0.292866,-0.148028,-0.618975,0.317272,-0.447847,-0.453039,-0.142937,-0.323131,-0.44809,0.242072,0.099427,0.277276,0.032401,0.502907,-0.498287,0.289517,-0.484426,0.004162,0.141707,-0.309562,0.123689,0.330331,0.273377,-0.127142,-0.090489,0.869803,-0.370517,-0.223686,-0.243795,-0.267078,-0.41637,-0.35906,-0.601869,-0.353769,0.47908,0.46045,-0.094506,0.344332,0.388031,0.395945,-0.648066,-0.251072,0.699791,-0.527069,0.056385,0.219056,0.352075,-0.020834,-0.079235,0.257093,0.02067,0.107727,0.13914,0.062837,0.354741,-0.180511,0.060948,0.132323,-0.108651,-0.649689,0.176354,0.354325,0.225586,0.151561,0.143675,-0.04468,-0.473607,0.231243,-0.203357,-0.193797,0.139963,-0.370195,0.251185,-0.131313,-5.5e-05,-0.470065,0.156702,0.056497,0.506056,0.330171,-0.547341,0.480117,-0.24336,-0.214322,-0.374479,0.2841,0.043038,-0.016359,-0.170197,0.046962,0.443148,0.056187,-0.056482,-0.31515,-0.103027,0.561542,0.048171,0.03734,0.288796,-0.059197,0.124733,0.320662,-0.199268,0.425996,-0.179847,-0.113719,0.172313,-0.050959,-0.040011,0.225253,0.303478,0.17943,0.092665,0.07167,0.054898,-0.076179,-0.208108,-0.000328,-0.165968,-0.041859,-0.088505,-0.367123,-0.011504
graphe,0.110188,0.742913,-0.280567,-0.017296,-0.341473,-0.666537,0.467459,0.602189,-0.368757,-0.524584,0.034686,0.80677,-0.251132,0.349644,0.062272,-0.521958,0.284494,-0.15954,-0.082997,-0.596443,-0.594971,-0.254491,0.467011,-0.249167,-1.175606,0.595992,0.067543,0.142124,-0.553529,0.244537,0.095501,-0.160298,0.221537,-0.449025,-0.498318,0.010966,-0.001813,0.654979,-0.264807,-0.289775,-0.318804,0.273678,0.192984,-0.266332,0.132858,-0.119866,0.031935,-0.148765,0.071639,0.854587,0.521609,-0.252662,0.686914,0.576843,-0.290209,0.073435,0.827123,0.278506,-0.365556,0.160831,-0.186487,0.323062,-0.345441,0.301274,-0.246983,0.181278,-0.508047,-0.05619,0.392796,-0.551079,-0.772124,-0.004945,-0.440836,-0.372183,-0.791653,-0.076865,0.138601,0.220721,-0.365728,0.056971,-0.236173,0.048888,0.363542,0.37288,0.338544,-0.437272,-0.324052,-0.289895,0.449545,0.170347,0.170415,0.365442,0.34303,-0.171529,0.044446,-0.247129,-0.313831,-0.123525,-0.33466,0.089222,-0.452759,0.344066,0.115781,0.473202,-0.046337,-0.035086,0.259259,0.124445,-0.328906,0.499604,0.173976,0.103694,0.536352,-0.195654,0.283997,0.100598,0.5264,0.079394,0.48137,0.063919,0.10279,0.235184,0.621941,-0.201828,0.255798,-0.110319,-0.090664,-0.853854,0.008794,-0.598208,0.287441,-0.086714,-0.172202,0.441179,-0.437063,-0.261624,-0.113032,-0.503816,-0.446634,0.285894,-0.058086,-0.34939,-0.75155,-0.139258,0.211881,0.376544,-0.135761,0.205985,-0.078424,0.019798,0.436964,-0.080333,-0.489774,0.077024,-0.415456,-0.330992,0.399792,0.110765,-0.727291,0.598945,0.044355,-0.259746,0.432665,-0.180747,0.788055,0.326408,-0.078303,0.447949,-0.311777,-0.041889,0.145765,0.421821,0.243598,-0.268907,0.249118,0.884351,-0.15543,-0.74084,0.005617,0.023402,-0.357521,-0.28571,-0.007214,-0.217171,0.050441,0.431307,-0.448798,-0.126071,0.024802,0.158842,-0.259211,0.391141,0.393487,-0.727461,-0.217668,-0.148989,0.055715,0.111697,0.178062,0.18458,-0.362355,-0.377156,0.275701,-0.386354,-0.215838,0.569777,0.126446,0.241915,0.123891,0.494227,-0.112207,0.33339,-0.453781,0.78962,-0.060316,-0.121981,0.011583,0.629689,-0.425883,-0.177738,0.000878,-0.665464,-0.104155,-1.1847,-0.167698,0.141929,0.386977,-0.087999,-0.337276,-0.661503,-0.374506,0.324608,-0.266945,-0.084538,-0.221843,-0.197099,-0.697627,-1.077076,-0.799802,0.658677,0.611543,0.00984,-0.316384,0.220651,1.083448,-0.892451,0.933376,-0.421373,0.078734,-0.205171,-0.130591,-0.565441,0.177536,0.135696,0.3606,-0.446453,1.154517,0.03235,-0.830067,-0.000657,-0.477745,0.423806,0.4221,0.354079,-0.108073,-0.343587,0.279755,-0.11788,-0.168704,-0.364511,0.112277,0.281623,0.298295,-0.367413,-0.521965,0.281762,0.527882,0.524752,-0.326867,0.379184,0.351521,0.205889,-0.953303,-0.117498,-0.681009,-0.698788,-0.085541,-0.439165,0.215105,0.419003,0.242835,-0.301368,0.76526,-0.12514,0.175583,-0.877552,-0.09196,-0.530212,0.25154,0.231925,0.708632,0.076809,-0.526191,-0.429457,0.226996,-0.619161,0.025731,-0.540466,0.20961,0.005367,-0.21522,-0.516236,0.115934,-0.041941,0.930423,0.511992,0.792656,0.063786,-0.750004,0.016378,-0.345261,0.011619,0.201492,-0.556868,-0.214101,-0.711721,-0.459511,0.068259,1.132621,0.012046,0.570527,0.26939,-0.554472,-0.116279,-0.449512,0.361857,0.016953,0.346065,0.391495,0.030737,-0.035116,-0.331667,-0.018182,-0.414251,0.218102,-0.30102,-0.028258,-0.024653,0.046607,-0.114339
forme,0.050728,0.123039,-0.442203,-0.240166,0.204972,-0.245896,0.209697,0.169009,-0.078293,0.217418,0.022292,0.036935,0.077956,-0.17885,-0.15812,-0.079922,-0.0203,-0.118681,-0.353711,-0.235765,-0.58747,0.057001,0.128971,-0.224209,0.182849,-0.230776,-0.126836,0.417155,0.18126,-0.242647,0.448905,0.17647,0.173412,0.047969,0.155602,-0.0944,0.0784,0.273783,0.062041,-0.272077,0.058693,0.668721,0.22905,0.255396,-0.073715,-0.275304,-0.035992,0.42094,-0.020798,-0.294777,-0.137728,-0.245767,-0.61091,0.172125,-0.413305,0.101343,0.324883,-0.067751,-0.038708,0.356546,0.553807,0.032823,-0.195026,0.073857,0.026332,0.180478,0.474563,0.191666,-0.167033,-0.438873,-0.072039,0.148976,0.639967,0.183047,-0.216073,0.271673,0.378953,0.495833,-0.122331,-0.131636,-0.129803,-0.159876,-0.265965,-0.175519,0.309239,0.36776,-0.206676,0.069177,0.360232,0.432369,-0.153866,0.428025,-0.191414,-0.055656,-0.218181,0.29009,-0.354957,-0.052483,-0.644561,0.474754,0.136988,0.075974,0.112147,0.059235,0.249145,0.097135,-0.287691,-0.081272,-0.128837,0.230999,-0.06041,0.313606,-0.385958,-0.49622,-0.272798,-0.296753,0.473798,0.556392,0.060344,0.029874,0.043472,0.318588,-0.099974,0.18157,-0.102899,0.247529,0.023986,-0.232107,-0.532568,0.215807,0.175342,0.464186,0.037651,0.02089,-0.0254,0.619109,0.336696,-0.234228,0.138467,0.315482,0.186237,-0.177853,0.142427,0.474879,0.225188,0.109477,-0.125226,0.512022,-0.190093,0.162812,0.323699,-0.145143,0.20589,-0.373489,-0.097444,-0.056979,0.046179,0.110611,0.043123,-0.314131,-0.458926,-0.176497,0.106684,0.397676,-0.216203,-0.354041,-0.416677,-0.014661,-0.277587,0.164947,-0.358469,0.114381,0.079773,0.151773,-0.054958,0.269292,0.201442,-0.213175,-0.647477,0.322774,-0.324939,-0.121269,-0.238728,-0.130946,-0.160159,-0.040893,-0.356641,-0.249518,-0.178392,-0.349982,-0.496408,-0.120841,0.048859,0.137951,-0.040901,0.156225,-0.089214,0.073337,-0.624522,0.183462,0.111775,0.104484,0.294455,-0.152261,0.209348,-0.010747,0.121584,0.255979,-0.073981,-0.112304,-0.347241,-0.577049,0.101837,-0.091963,-0.272552,0.04886,0.118537,0.242373,-0.405375,-0.105288,-0.135284,-0.418615,0.152484,-0.817088,0.115149,0.084381,0.09328,0.460951,-0.176015,0.554462,0.169529,0.15658,0.046373,-0.443669,-0.388213,-0.174038,-0.205948,0.071655,-0.352112,-0.111629,-0.061343,0.011435,-0.022889,0.151702,0.211267,0.27208,-0.10669,-0.222527,-0.256879,0.144387,-0.38217,0.118002,-0.219729,-0.62975,0.198938,0.126716,0.127659,-0.414893,-0.014003,-0.382445,-0.193863,0.055092,0.191791,-0.395894,-0.470386,0.441837,0.507573,0.06204,-0.127471,0.377083,-0.407169,0.021948,0.459007,-0.26594,-0.040064,-0.190323,0.400401,-0.301434,0.263145,-0.025432,-0.271507,-0.105586,-0.58792,0.361667,-0.317516,0.139809,0.119173,-0.104205,-0.230988,0.416291,0.027438,-0.119499,0.03075,-0.054738,-0.138336,-0.202633,0.083214,-0.539955,0.028894,0.071023,-0.060917,0.077595,-0.370078,-0.069605,-0.562593,0.323561,-0.188262,0.557546,-0.095668,0.208064,-0.084708,0.06051,0.186999,0.089966,-0.370524,-0.088352,0.532682,0.155788,0.01055,-0.086719,0.213004,0.402821,0.315474,0.023804,0.183046,-0.267826,-0.101039,0.011892,0.211211,0.491038,-0.175449,0.475971,-0.271556,0.19519,0.086878,-0.183111,-0.013054,-0.161829,0.026096,0.211133,-0.115343,-0.028811,-0.068886,-0.068634,-0.093816,-0.26002,0.004334,-0.264418,-0.32174,0.159311
entier,-0.201721,0.020221,-0.304901,-0.096532,0.205648,0.170238,0.130635,0.227637,-0.304489,0.417495,-0.105874,0.478335,0.22778,0.311254,-0.301165,-0.381123,0.22061,0.207561,-0.494159,-0.418798,-0.172477,-0.06577,-0.014417,-0.066457,-0.043712,-0.272404,-0.184495,-0.127873,-0.031886,0.179219,-0.297074,0.385965,0.155724,-0.399303,-0.104627,0.067286,-0.005969,0.506634,-0.185697,0.308203,-0.63836,0.642527,-0.090109,0.038963,-0.162428,-0.050724,0.37094,0.125688,0.381877,0.514122,-0.106126,-0.349702,-0.111882,-0.041925,-0.259509,-0.053366,0.327533,-0.125934,0.211884,-0.031547,0.295201,-0.587956,0.337538,-0.092809,0.099572,0.326684,0.136887,0.123213,0.066044,-0.278863,0.193661,-0.196593,0.009775,0.336903,0.090973,0.578694,0.041923,0.287365,-0.094732,0.149709,0.431259,-0.241046,0.003035,-0.03552,0.273685,0.322687,0.27748,0.00894,-0.134944,-0.298733,-0.277436,0.34785,0.120988,-0.454995,-0.201836,0.204257,-0.327537,-0.141767,-0.086806,0.017651,0.309094,0.243164,0.342248,-0.457799,-0.091046,0.162116,0.451128,0.020871,0.171305,0.045533,0.273516,0.24586,0.050849,-0.261802,0.118268,0.378682,0.436852,-0.270644,0.285198,0.238537,-0.496911,0.228645,-0.043935,0.046625,0.067749,-0.097139,-0.025785,-0.030612,-0.604544,-0.212948,-0.56962,0.262662,0.03531,-0.153039,0.221101,0.316799,0.258675,0.11827,-0.211397,0.249103,-0.44118,-0.107787,0.235201,-0.397807,0.247249,0.559791,-0.503172,0.106641,-0.449315,-0.165052,0.064145,-0.197438,-0.261249,-0.328444,-0.091507,-0.301076,0.19744,0.409047,-0.164442,-0.289785,-0.030713,0.268198,-0.073246,-0.04376,0.093209,-0.104574,-0.284702,-0.459894,-0.170117,-0.441186,-0.238637,-0.223655,-0.001676,-0.420705,-0.099585,0.411732,0.009261,0.132787,-0.568189,-0.170802,-0.252383,-0.075251,0.311657,0.049165,-0.028106,-0.52492,0.021076,-0.087147,0.071251,0.227547,-0.059855,0.015705,-0.012306,0.181643,-0.152942,0.054739,0.180114,-0.083383,0.016072,-0.034524,0.049117,-0.041784,0.692481,-0.03598,-0.115915,-0.190516,0.198018,0.19507,0.487754,0.198291,-0.118095,-0.638718,0.054368,0.039359,-0.205942,-0.613635,3.3e-05,0.277398,0.041215,-0.458896,-0.200784,0.203806,0.128209,-0.547155,-0.07938,-0.119524,0.036993,0.169144,0.00143,0.201762,0.197257,0.168062,0.268366,-0.28923,0.114934,-0.156278,0.14348,-0.24191,-0.191414,-0.228604,0.109045,0.127141,0.230446,0.424756,0.100689,-0.37537,0.041823,0.394488,0.193699,-0.010183,0.191455,0.192113,-0.15488,-0.474075,-0.483925,0.017469,-0.050746,-0.389333,-0.005059,-0.324865,0.16054,-0.187322,-0.050808,0.05226,0.154054,0.251857,0.338082,0.232466,0.22343,0.087054,-0.110941,-0.065603,-0.022455,0.102456,-0.253857,-0.097294,-0.207138,0.058295,0.389125,0.323173,0.114527,0.244596,-0.100549,0.438725,-0.105583,-0.146537,-0.195051,0.162785,-0.055505,-0.128848,-0.08897,-0.153192,0.0655,0.16317,-0.313197,-0.144064,-0.047723,-0.064115,-0.041386,0.10413,-0.092175,-0.107391,0.339407,-0.290504,-0.218322,-0.309533,-0.062349,0.139106,-0.057634,-0.136585,0.147682,-0.122111,0.432217,0.000876,-0.233495,-0.320591,0.125589,0.058545,0.271612,0.131505,-0.228881,-0.28056,0.002223,0.305152,0.383493,-0.125452,-0.25131,0.002357,0.008777,0.205095,0.203376,0.239098,-0.33516,-0.11932,-0.123843,0.236766,-0.083805,0.011879,-0.075391,0.117528,0.184501,0.077208,-0.428581,-0.221532,0.04391,0.085376,0.112679,0.33771,0.010463,0.218522
système,-0.186192,-0.179772,0.166154,0.174768,-0.326385,0.110727,-0.157543,0.024205,0.331818,0.359347,0.144753,0.040575,0.278069,0.083852,0.033048,-0.671507,-0.149069,0.004761,-0.427059,-0.458674,-0.339873,0.122361,-0.036794,0.133905,-0.172656,0.002954,0.087751,0.222143,0.606406,-0.263161,0.300778,-0.440282,0.028875,-0.292856,0.572642,-0.037601,0.619797,0.371304,0.180507,0.142659,0.114557,0.38118,0.512734,-0.003882,0.336385,0.09214,0.376487,0.252136,-0.505837,-0.080669,0.216784,-0.059471,0.192824,0.367196,0.141705,-0.220798,0.516406,-0.23603,-0.054057,-0.25269,0.859508,-0.267172,-0.317201,0.400069,0.22117,-0.577829,-0.016139,-0.031609,0.322252,-0.033883,-0.292659,0.121198,0.411325,0.300618,-0.097499,-0.244591,0.253789,-0.011585,-0.108336,-0.23281,0.225102,0.253402,-0.100061,0.144755,-0.496221,0.249462,-0.050314,0.120218,-0.286516,-0.161563,-0.067007,0.253214,0.005847,0.009437,-0.139893,0.094348,-0.509496,0.041452,0.124187,0.108527,-0.113481,0.261497,0.241861,-0.432891,-0.020113,-0.31625,0.03922,-0.456555,0.34062,0.460653,-0.114398,0.511511,-0.095182,-0.000922,-0.745017,-0.550168,0.050887,0.225431,-0.012999,0.206827,-0.42053,-0.161608,0.281607,-0.063083,-0.529157,0.311479,0.204612,-0.341467,-0.022516,0.144142,0.157676,0.262236,-0.162223,-0.248882,-0.245709,0.335404,-0.523097,0.092892,-0.2547,-0.28595,-0.170138,0.249437,-0.270721,0.286944,0.082137,-0.012551,-0.301417,0.258876,-0.062178,0.002469,0.586556,-0.058355,0.555462,-0.163506,0.32082,0.100185,0.384185,0.087666,0.264458,0.187312,0.113158,-0.244818,0.03274,-0.131395,-0.056092,0.270813,-0.240427,0.470518,-0.179976,-0.103406,0.129396,0.182024,-0.131766,-0.488685,-0.489136,-0.285396,-0.128015,-0.159915,-0.48352,-0.159327,-0.034438,0.032149,-0.436482,-0.393142,0.176408,-0.06436,0.314485,0.237931,-0.082098,0.054673,0.289094,-0.192849,0.052579,0.091471,0.582757,-0.177618,-0.195656,0.478827,-0.424663,0.007807,-0.005634,0.176986,0.253477,0.241816,-0.228041,-0.777484,-0.084271,0.778504,-0.085088,0.149927,-0.701333,-0.5103,0.358606,0.189211,-0.068362,0.248635,0.062936,0.589181,0.398622,0.279663,0.007279,-0.184865,0.528866,-1.119148,-0.314303,0.597925,-0.502245,0.644855,0.372181,0.077408,0.226803,0.042937,0.329519,-0.124223,-0.027455,0.310653,-0.196422,0.381201,0.013453,0.179646,0.137284,0.211729,0.565378,0.390894,0.51361,-0.188963,-0.730682,0.174325,-0.035551,-0.149248,-0.36652,0.016083,0.268389,-0.66218,-0.026824,0.284522,0.28707,-0.17328,0.048156,-0.292129,-0.273382,-0.045057,-0.345158,0.829106,0.220851,0.330457,0.069753,0.05569,0.33917,0.106351,0.226152,-0.350715,0.306864,0.107483,-0.267472,0.334889,0.495407,0.015859,0.25552,0.459219,-0.75143,0.40779,-0.493698,0.177303,-0.335543,-0.014904,0.506807,-0.084909,-0.194456,-0.17878,0.013638,0.057584,-0.587717,-0.477265,-0.567657,-0.317063,0.12079,-0.376476,-0.249471,-0.212956,0.510874,0.159623,-0.092074,-0.040167,-0.300189,-0.685715,0.375239,0.389424,0.495761,0.523568,-0.383987,0.033605,0.257099,-0.375139,-0.473581,0.386222,0.346846,0.128694,0.402637,-0.053028,0.208806,0.088269,0.115191,0.176938,-0.006445,0.339157,-0.089459,-0.356711,-0.089718,0.09841,-0.069911,0.491484,-0.099111,0.07044,-0.214796,0.354672,0.074123,0.444946,-0.090507,0.188339,-0.243512,-0.38978,0.763599,-0.430913,0.079554,0.248652,-0.063605,-0.359563,-0.292976,0.253666
équation,-0.175197,-0.33103,-0.403539,0.422567,-0.797941,-0.271301,-0.494446,0.422122,-0.592054,0.143938,0.953996,0.197639,0.361447,0.497437,0.077747,-0.432426,0.037576,0.908449,-0.488635,0.221694,-0.260903,0.523301,0.55139,0.006459,0.225346,0.340031,-0.525975,-0.420666,-0.315455,-1.325537,0.603992,-0.146883,0.224181,0.460373,0.558445,0.188719,0.09295,0.622677,0.245444,-0.150596,0.100872,-0.513124,0.221048,-0.392267,0.360752,-0.173904,-0.068166,-0.410534,0.258033,-0.364922,-0.152904,-0.075614,0.222656,0.4923,0.175854,0.135262,0.926907,-0.208428,0.186879,0.013042,0.744483,0.556776,-0.337184,0.27801,0.036784,0.741749,-0.178243,-0.95383,0.229125,-0.39946,-0.24482,-0.096532,-0.551281,0.445783,-0.140874,-0.23722,-0.09785,-0.529258,-0.527017,-0.026066,-0.07238,0.017548,0.173641,0.027429,-0.122177,-0.136977,-0.454628,-0.919111,0.328707,0.131604,-0.39396,0.304936,-0.07547,-1.093118,-0.038039,0.323073,-0.541066,0.696304,0.445666,-0.311881,-0.237549,0.292919,0.311926,0.16977,-0.254761,0.089504,0.396584,-0.090718,0.4264,0.983083,0.109895,0.334669,-0.217217,-1.14557,0.677962,-0.579631,0.187837,-0.050017,0.674373,-0.033322,-0.256194,0.777587,0.689496,-0.649372,0.109782,0.12065,-0.260327,0.12208,0.271582,0.063774,0.071996,0.503884,0.215142,0.413041,0.239978,0.160368,0.171972,0.149394,0.099509,-0.486315,0.406413,-0.398466,-0.231711,-0.584455,0.306703,-0.922101,-0.494795,-0.001657,-0.001117,-0.356293,0.830513,-0.328665,0.571703,-0.237913,0.120267,-0.464932,0.417118,0.15381,-0.264543,-0.120911,0.121759,0.211532,0.309686,0.887792,-0.061652,0.423982,-0.360308,0.193507,-0.108114,-0.6849,0.310811,-0.205473,-0.195583,1.028934,-0.19113,0.51093,0.176594,-0.106177,-0.38432,-0.2973,-0.995807,-0.536884,-0.183687,-0.212816,-0.388684,-0.128078,-0.284357,0.198742,-0.30582,0.038244,-0.219693,-0.257724,-0.123887,0.067456,-0.068126,0.034289,-0.129558,-0.575267,0.346581,0.142592,-0.024434,-0.684052,0.124362,0.595692,-0.160988,0.253105,-0.145908,0.115472,0.069921,-0.03352,-0.338261,0.420477,0.04027,0.853741,0.312391,-0.607245,0.162869,0.052881,-0.122687,-0.535255,-0.707118,-0.436447,0.09056,-0.838575,-0.197858,0.504745,0.152642,0.627484,0.038923,-0.702845,0.399729,0.503906,0.098819,-0.126511,0.4779,-0.288576,0.084248,0.301254,-0.555687,-0.092767,0.657903,-0.346705,-0.416597,1.04184,0.516006,-0.255833,0.08538,0.503597,-0.130168,-0.509167,0.273426,-0.596704,-0.051489,0.233075,0.268365,-0.617944,0.615965,0.595934,-0.579384,-0.078777,-0.603641,0.940444,0.145385,-0.60353,-0.49173,-0.103441,0.250627,-0.171201,0.466522,-0.621313,0.366596,-0.644561,-0.251052,-1.061315,-0.454392,-0.262825,0.127184,-0.755565,-0.093466,0.041288,-0.857207,0.107703,-1.150236,0.800959,-0.093474,-0.134106,0.332044,-0.556529,-0.068241,-0.019243,-0.21877,-0.262055,-0.439052,-0.18183,0.100202,-0.394017,-0.761123,0.376564,-0.412166,0.059667,0.061667,0.423188,-0.237682,-0.749778,0.469741,-0.098148,-0.433246,0.854253,-0.121655,0.322318,-0.030693,6e-06,-0.262591,-0.061528,-0.077278,0.081043,0.235037,-0.459275,-0.157015,-0.079625,0.144759,0.51023,0.120756,-0.040243,-0.034147,-0.154504,-0.249608,0.026092,-0.688942,-0.439954,0.354722,0.027483,-0.790829,0.431266,0.304214,0.402429,-0.009066,-0.12172,0.193919,0.340712,-0.386305,-0.084091,0.351585,-1.074192,-0.045288,-0.151435,-0.23893,-0.781605,-0.486806,0.411169
suite,0.030464,-0.50366,-0.053884,0.124199,-0.176367,-0.338839,0.054588,-0.012695,0.079725,0.019866,0.128816,-0.038546,0.245491,-0.200887,-0.139169,-0.070476,0.092632,-0.067709,-0.116476,0.039565,-0.168097,0.006096,0.004825,-0.302747,0.047109,-0.150349,0.222506,0.201768,-0.245966,-0.016371,-0.154296,-0.300718,-0.033679,0.120455,0.009939,0.314686,0.286813,0.203456,-0.160156,0.226905,-0.147258,-0.412875,-0.012781,-0.060141,0.010089,-0.07268,0.042843,0.067448,-0.349195,0.190183,0.044917,-0.204735,0.093618,-0.006362,-0.286997,-0.184996,-0.155019,-0.453017,0.114102,-0.294976,0.058533,-0.101889,0.007823,0.020048,0.015689,-0.067736,0.702994,0.202819,-0.126866,-0.017192,-0.10977,0.123671,0.045425,0.088275,0.047867,0.282084,0.106848,0.340353,-0.313429,0.151685,0.204497,-0.161085,-0.123619,0.088855,-0.055522,-0.087132,0.490236,-0.403639,-0.186491,0.237214,-0.229033,-0.147999,0.128272,-0.059971,-0.35971,0.098298,-0.339364,-0.185749,0.179157,0.358167,-0.010875,-0.08992,0.093597,-0.034404,0.206398,-0.189502,0.168872,0.241926,-0.041906,-0.238556,-0.00821,-0.071995,-0.187131,-0.017965,0.014389,-0.136858,0.122012,0.480924,-0.049351,-0.100355,-0.207613,-0.115789,-0.323377,-0.048111,0.030078,0.262805,0.151741,-0.223736,-0.05346,0.229203,0.020201,-0.029521,-0.289659,-0.19049,-0.126127,-0.232366,0.280254,-0.004865,0.029398,0.254195,0.045126,-0.0861,0.010831,0.234311,-0.242517,0.057431,0.005108,0.09075,0.181951,0.01834,-0.000854,-0.080116,0.291453,-0.256228,-0.013958,0.235657,0.199703,0.278215,0.237598,-0.046725,-0.298154,0.245008,0.006518,0.547429,-0.153224,-0.008404,0.032285,-0.004984,-0.094386,0.17246,-0.054229,0.284844,0.262672,0.093075,-0.095291,0.082395,0.140076,-0.296567,-0.537166,-0.270182,0.340511,0.216526,0.388422,-0.192903,-0.065791,-0.422384,0.13612,-0.1064,0.010321,-0.080664,0.092236,-0.559165,0.499333,0.432827,0.110261,0.182693,-0.000214,0.033686,-0.156653,-0.205203,-0.18364,0.132613,0.113352,0.038298,0.332579,-0.090582,0.041888,-0.13944,0.132965,-0.207655,-0.37069,0.08307,0.001486,0.160628,0.009216,-0.014692,0.395999,0.017494,0.046655,0.002544,-0.261455,-0.158287,0.106396,-0.129613,-0.265899,-0.339738,-0.339534,0.199696,-0.13637,0.128632,0.105036,-0.195705,0.275213,-0.344191,0.27848,-0.18736,0.088427,0.188884,0.376542,-0.238854,0.10328,-0.096569,0.666726,0.044273,-0.28724,-0.007013,-0.625131,0.179921,-0.131086,0.051236,0.005762,0.293612,0.130408,-0.30193,-0.163394,-0.168753,-0.532099,0.059504,-0.069045,-0.118107,-0.291983,-0.430582,-0.262799,-0.153617,0.095609,0.080712,0.144405,0.118821,-0.012554,-0.161582,-0.188689,-0.144036,0.085057,0.236509,0.092708,-0.059147,-0.107439,-0.093993,-0.043001,-0.059437,0.192477,-0.229685,-0.110756,0.350069,0.324552,0.126396,0.028968,0.331271,0.05372,0.09298,-0.338252,-0.171947,-0.025456,-0.081048,-0.235324,-0.083805,-0.120881,-0.215441,0.140767,-0.086401,-0.340913,0.045066,-0.010564,0.203193,-0.289263,-0.152089,0.391421,-0.18211,0.098981,-0.043575,-0.034481,-0.026353,0.139084,-0.009995,0.120435,-0.078266,0.3577,-0.024818,0.073179,-0.205453,0.179614,-0.057112,0.274902,-0.106043,0.120027,0.04215,0.177767,0.154471,0.018994,-0.166147,-0.034113,0.237194,0.056475,0.26816,-0.109694,0.158161,-0.042517,0.061006,0.178889,0.179324,-0.102627,-0.098711,0.352683,-0.047468,0.375889,0.046092,0.055791,0.07902,0.1596,-0.230153
algorithme,-0.402553,0.453938,0.091901,0.495285,-0.759285,0.15566,0.179075,-0.077749,0.625491,-0.115389,0.513403,-0.128095,0.239448,0.310261,-0.474987,-0.486882,0.474332,0.987435,-0.136339,-0.474091,-0.01205,0.193151,0.213587,0.074538,-0.56418,-0.010318,-0.13582,0.355624,-0.29564,-0.099006,-0.065177,0.288192,-0.123388,-0.219826,0.019634,-0.016538,0.526264,0.939123,0.692331,-0.425507,-0.133975,0.166,-0.663086,-0.192353,-0.113171,0.175355,1.064682,-0.327392,0.195899,0.194873,0.376686,0.100753,0.026865,0.698762,0.575006,-0.170963,0.09549,-0.627486,-0.413244,-0.156608,0.290682,-0.097466,0.039788,-0.551929,0.890206,-0.149694,0.209681,-0.477568,0.26103,-0.247885,-0.373466,-0.337517,-0.236138,0.169223,-0.519267,-0.086266,0.143857,-0.021455,0.211625,0.023387,0.648,0.29721,0.199657,0.40634,0.140796,0.021254,-0.574281,-0.968153,0.271408,-0.027917,-0.291242,0.618071,0.207032,-0.535159,0.182832,-0.042256,-0.008701,0.669008,-0.336097,0.024365,-0.111775,0.018092,0.588656,-0.227502,0.080137,0.104624,0.611623,0.478679,0.40146,0.846711,-0.100712,0.464136,0.500878,0.039039,0.219901,-0.295051,0.276781,-0.197704,0.660691,0.628387,0.1494,0.28368,-0.405576,0.22547,-0.082777,-0.007681,-0.221222,-0.557115,-0.136392,0.265281,-0.433975,0.053626,-0.422601,0.108416,0.419027,-0.073592,-0.576735,-0.166442,-0.333245,-0.217651,-0.246681,-0.146179,-0.460532,-0.074249,-0.060718,0.48494,0.015731,0.707265,-0.325568,-0.24405,0.235209,-0.265673,0.666783,-0.470982,0.219095,-0.265241,0.824523,0.119612,-0.381805,0.087904,0.76977,0.053841,0.365898,-0.18292,0.477396,0.620614,-0.377118,0.254915,-0.386842,-0.851227,-0.339586,-0.138737,-0.193151,0.348673,-0.210961,0.641605,0.358158,-0.373297,-0.173968,-0.352521,-0.702475,-0.233818,-0.421061,-0.285069,0.634287,0.294987,-0.393428,0.506205,-0.156966,0.336231,0.566754,0.250268,0.209411,0.06938,0.119411,-0.133993,-0.304709,0.447936,0.843655,0.039809,0.532529,-0.109961,0.74973,-0.355828,-0.056329,0.69572,0.087315,-0.102255,-0.317904,-0.54107,-0.354744,0.093865,-0.018772,0.803247,-0.461053,0.182709,0.445552,0.3509,-0.029171,0.187894,-0.405252,-0.408613,-0.418982,-1.055291,-0.165185,0.796879,-0.474931,0.21196,0.09505,-0.202589,0.084152,0.482474,-0.157981,0.200329,-0.039785,0.566038,-0.620351,0.406349,-0.235568,0.533776,0.343479,-0.446981,0.743769,0.783638,0.275901,-0.577605,0.03,-0.000386,-0.194569,0.009024,-0.106451,-0.166978,-0.235004,-0.135512,-0.127922,-0.223674,1.116762,0.054545,-0.21841,0.156823,-0.103266,0.126102,-0.401125,0.112846,0.317876,-0.198287,0.044345,0.009725,0.532366,-0.277827,-0.034375,0.26308,-0.201408,-0.060291,-0.280146,-0.008057,0.214766,0.111069,0.132426,0.266594,0.272252,0.336306,-0.27115,0.041808,-0.288017,-0.438312,-0.30659,-0.208841,0.364046,-0.334495,0.522021,-0.397932,0.653667,-0.367875,-0.176353,-0.375498,-0.577655,-0.656351,0.238336,-0.105331,0.385498,-0.253174,0.39704,-0.474404,0.276535,0.441161,0.625614,-0.209527,-0.146053,0.078579,-0.324438,-0.513084,-0.534445,-0.50644,0.139979,0.551592,0.226908,0.20217,-0.462028,0.076617,-0.24364,0.540163,0.169719,0.002125,0.136252,-0.061634,-0.649335,0.086439,0.139307,-0.382361,-0.138462,0.187009,-0.440096,0.006061,0.110412,-0.536633,-0.159067,0.85331,-0.107028,-0.279491,-0.25583,-0.113623,0.590477,0.269082,-0.702775,-0.068094,-0.548069,-0.279175,0.216325,-0.574322
calcul,-0.038872,-0.326119,-0.077373,0.139951,-0.528638,0.189049,-0.080948,0.220625,0.04374,0.297031,0.431375,-0.042082,0.106916,-0.132979,-0.175333,-0.771671,-0.208292,0.527418,-0.313426,-0.199857,-0.224166,-0.503584,-0.510237,0.519227,-0.28884,0.101009,-0.387071,-0.112807,0.091626,-0.586931,0.075782,-0.113566,0.211195,-0.379867,0.04347,0.15921,0.554989,0.335908,-0.112177,-0.160339,-0.005065,-0.175485,0.3779,-0.28463,0.053291,-0.200691,0.197333,-0.266941,-0.034389,-0.275133,0.377811,0.179436,0.34975,0.561389,-0.048279,-0.109192,0.719438,-0.491781,0.107741,0.286156,0.12652,0.007298,-0.018799,0.415323,0.232524,-0.268619,0.350889,-0.435808,0.485541,-0.00171,-0.392738,0.182028,0.139516,-0.030581,-0.699186,0.187905,0.236629,-0.448104,-0.554707,0.191495,0.211946,-0.453723,0.18098,-0.174704,-0.19728,0.106567,0.152307,-0.369989,0.217138,-0.179125,-0.296996,0.021005,0.274205,-0.60443,0.144271,-0.478306,-0.726426,0.740346,-0.027674,-0.225636,-0.562692,0.296232,0.584436,0.378182,-0.309889,0.112652,0.919172,0.485602,0.209982,0.065309,0.023562,-0.039707,0.081769,-0.182585,-0.032678,-0.597006,0.64951,-0.150914,0.358541,0.370351,-0.507228,0.265175,0.482404,0.495798,-0.256919,-0.225562,0.105451,-0.154885,-0.030379,-0.307576,-0.042654,0.1222,-0.348178,-0.503254,-0.005029,0.098727,-0.262641,-0.091176,-0.120891,-0.000531,0.130346,-0.450902,-0.060589,-0.153117,-0.101334,0.155884,-0.796244,-0.10581,0.004643,-0.452738,0.475175,-0.695107,0.370995,-0.416389,0.640619,-0.329566,0.530547,-0.094584,-0.039232,0.014647,0.313126,0.167655,-0.050766,-0.134081,-0.423,-0.052521,-0.459264,-0.279542,-0.463769,-0.520882,-0.463093,-0.468286,-0.144999,-0.006402,-0.266492,-0.166133,-0.454164,0.086944,-0.42156,-0.387798,-0.752202,-0.371306,-0.031855,-0.440743,0.01788,0.060611,-0.517531,-0.178525,0.08791,0.185833,-0.140411,-0.155146,0.157482,-0.425654,0.283524,-0.324537,0.049772,0.178731,0.275709,0.174133,0.157006,-0.401006,0.343988,0.180295,0.079431,0.30465,-0.324033,0.039104,-0.014161,0.04594,-0.095033,0.053858,0.143816,0.539617,-0.021171,-0.233374,0.161337,0.120232,-0.09718,-0.029968,-0.60801,-0.533268,-0.150322,-0.803393,0.119578,1.041205,-0.094916,0.4348,0.05448,-0.291096,0.768559,0.591582,0.432833,0.041724,0.227039,0.226836,0.031887,0.307229,-0.400327,-0.054291,-0.114492,-0.060071,0.083616,0.345637,0.48902,-0.440885,0.074051,-0.260459,-0.011579,-0.361611,-0.315681,-0.568716,0.171446,0.000797,0.692202,0.060137,0.709195,-0.045498,-0.107671,-0.238249,-0.250532,0.089509,-0.401865,-0.099668,0.038166,0.163581,-0.100401,-0.076007,0.441539,-0.534258,0.357009,-0.347592,-0.453109,-0.280621,-1.079147,0.086627,0.007828,0.037817,-0.482598,0.389294,-0.367343,0.353268,-1.100124,0.261872,-0.013083,0.187636,-0.154751,-0.110538,-0.040789,-0.250791,-0.350285,-0.055471,0.356632,-0.247637,0.027074,-0.289056,-0.812702,-0.212894,-0.367845,-0.16157,0.066142,-0.405302,-0.045126,-0.681008,-0.070901,-0.002679,0.459363,0.082775,-0.557337,0.16162,0.084741,-0.290973,0.25612,-0.598675,-0.291351,0.016379,0.454147,-0.405213,0.132594,-0.07158,0.332224,0.45156,0.59032,-0.074636,-0.244554,-0.190555,-0.37546,-0.724549,-0.00531,-0.375162,-0.024273,0.4866,-0.410347,0.023758,-0.320442,0.577744,0.256805,-0.072504,-0.596706,-0.045066,-0.602477,-0.061264,0.907434,0.343373,-0.266089,-0.192079,-0.043561,-0.799626,-0.181268,-0.302358
application,0.085578,-0.104402,0.409027,0.084484,-0.543551,0.246689,-0.151918,0.280628,0.057597,-0.009786,-0.177647,-0.151392,0.335883,0.171599,-0.37859,-0.801652,-0.144268,0.214637,-0.454672,-0.628659,-0.612209,-0.264088,0.024357,0.1113,-0.460483,0.343485,-0.205932,-0.054871,-0.273095,-0.354944,0.079531,-0.125536,0.325017,-0.453036,0.273872,0.118846,1.090045,0.260139,-0.085516,0.046683,0.050812,0.422024,0.087419,-0.235405,-0.001186,0.051705,0.167531,0.120928,0.023115,0.016995,-0.058064,-0.220349,-0.054097,0.442503,0.12581,-0.311263,-0.182217,-0.06381,-0.111234,-0.484555,0.561148,-0.044804,0.349114,0.851285,0.205653,0.185603,-0.000347,-0.323264,0.275552,-0.660774,-0.420831,-0.155222,0.512762,0.695065,0.171164,0.44248,-0.046977,0.222351,0.071908,-0.130194,0.07174,-0.042051,-0.135546,-0.292,0.043366,-0.156546,-0.106929,-0.221431,0.452884,-0.172926,-0.146017,-0.079186,0.14432,0.175589,-0.140793,-0.111376,-0.082064,0.239206,0.072656,0.237301,-0.294822,0.18857,-0.172972,-0.180177,0.24869,-0.071977,0.496195,-0.068933,0.147054,0.101062,-0.378427,0.39951,0.207671,-0.05248,-0.163125,-0.328482,0.330936,0.245217,0.143995,0.31945,-0.303303,0.288375,-0.07873,0.166052,-0.023884,-0.104837,0.2117,-0.255357,0.155507,-0.185393,0.451173,0.577464,-0.452544,-0.050192,-0.103453,0.026412,0.49606,-0.199052,-0.124419,-0.120674,-0.232036,0.023499,0.163339,0.252089,0.20766,-0.114064,0.124406,-0.175088,-0.226354,-0.223283,0.760344,-0.276137,0.225813,-0.336611,0.240374,-0.074392,0.446164,-0.121597,0.238373,0.297241,-0.241864,0.330444,0.240238,0.331576,-0.312683,-0.068694,-0.568573,0.282268,0.048943,-0.345855,-0.154409,0.372822,-0.366846,-0.163308,0.221842,0.312826,-0.420484,0.169112,0.033165,-0.311741,-0.225329,-0.634343,0.480032,-0.805065,0.047773,-0.095332,0.022314,0.111623,-0.14282,0.27919,0.290552,-0.221287,-0.279753,0.016072,0.242801,0.201714,0.298324,0.476323,0.219765,0.147327,-0.035391,-0.162204,0.155156,-0.318964,-0.311855,-0.258502,0.055993,0.294715,0.173205,0.423311,-0.21596,-0.00816,0.119683,0.150944,-0.410548,0.030085,0.445544,-0.147915,0.374566,0.191887,0.31332,-0.454211,0.110484,-0.815304,-0.195835,0.704395,-0.115918,0.18171,0.054965,0.130244,0.240275,0.19267,0.4059,0.111186,0.44513,0.602538,-0.362776,0.16179,-0.143018,-0.413925,-0.350655,0.043916,0.967876,0.132539,0.466706,-0.192513,-0.358419,-0.005259,-0.370394,0.172855,-0.346711,0.290608,-0.290159,-0.984643,-0.198335,0.260973,0.81901,0.436791,-0.314275,0.102813,-0.186621,-0.007889,-0.12256,-0.056629,0.426303,-0.087366,0.1575,-0.185302,-0.043737,0.066488,0.522265,-0.47922,-0.174042,-0.041079,-0.284638,0.378947,0.088289,0.016064,0.175377,0.213895,-0.416543,0.176478,-0.51679,0.045229,0.270589,0.062127,-0.15962,-0.127675,0.028067,0.084521,0.224664,-0.444039,0.120947,-0.077472,0.216699,0.035032,-0.226409,-0.494346,-0.270383,-0.412976,0.222716,0.379203,0.179775,0.065661,0.171334,0.030958,0.342185,0.251091,0.263392,-0.017952,0.10381,-0.419775,0.31425,-0.073916,-0.072645,0.134806,-0.06172,-0.201949,-0.238464,-0.187194,0.10667,0.422973,0.439495,0.019031,0.058267,-0.06355,0.235627,0.010919,-0.291842,0.186205,-0.260921,0.179605,0.382719,-0.061958,0.223434,0.66187,-0.124239,0.117041,0.274347,0.324183,-0.200605,0.252107,0.704645,0.03642,0.047193,-0.152657,-0.457371,-0.021655,-0.003495,-0.015784
élément,-0.067727,-0.133579,-0.433933,-0.313847,-0.012892,-0.031459,-0.106763,-0.016627,-0.153389,0.080292,-0.051486,-0.13667,0.035056,-0.03317,-0.365524,-0.422699,-0.101113,0.066171,-0.050489,0.018303,0.174246,-0.197476,0.202144,-0.105708,-0.296753,-0.289406,-0.099459,-0.345732,0.192778,0.292274,-0.007975,0.107095,-0.205356,-0.465299,0.397707,-0.094249,0.196254,-0.160258,-0.142319,-0.389127,0.202681,0.512875,0.482165,0.128773,-0.3309,-0.139279,0.219259,0.398076,0.120023,0.11985,-0.146138,-0.272304,-0.69982,0.543411,-0.469223,-0.120978,0.01226,0.143966,-0.213499,0.128104,0.28193,0.097918,0.365899,0.122111,0.252038,0.042359,0.543987,-0.25698,-0.020373,-0.571628,0.008688,0.353134,0.01509,-0.109627,-0.08166,0.446767,0.452494,-0.188277,-0.47734,-0.457744,-0.386013,-0.452595,0.345991,-0.469117,0.191647,-0.034902,-0.256908,0.18816,0.290957,0.123161,0.257045,0.004594,0.016877,-0.132169,0.108846,0.088281,-0.11866,0.640271,-0.536038,-0.306578,0.005928,0.017501,0.20918,-0.736316,-0.241021,0.163926,0.028707,0.224794,-0.057351,0.336819,0.195813,0.094787,-0.144419,-0.330767,-0.343704,-0.478391,0.271359,0.249034,-0.206572,0.328103,-0.213569,-0.317857,0.138781,-0.303545,-0.327706,0.228082,-0.062065,0.068405,0.16304,0.514217,0.34539,0.159167,-0.091225,0.378727,0.144762,0.160491,0.188468,0.137764,-0.080421,-0.24501,-0.167151,0.447309,0.135655,0.330615,0.40498,0.157637,0.102304,0.332428,-0.065722,0.311762,0.184683,-0.254043,0.534163,-0.185159,0.078419,-0.785258,0.031386,0.263586,-0.14586,0.071757,-0.436471,-0.108974,-0.093083,-0.008396,0.194174,-0.275135,-0.785888,0.111447,-0.781206,0.040761,0.121155,0.087342,0.467459,-0.041646,-0.162168,-0.217905,0.306054,-0.017251,-0.490281,0.156524,0.039352,0.152973,-0.50574,0.144396,-0.056743,-0.170895,-0.012353,-0.257027,-0.449892,0.090853,0.097592,0.078912,-0.081529,0.193914,-0.206706,0.29351,0.067367,0.338991,-0.308583,0.325277,-0.109337,-0.347279,0.530536,-0.271902,0.129513,-0.546725,0.394131,0.060024,-0.224815,0.141015,-0.032044,-0.080684,-0.166543,-0.02963,0.189987,0.104585,0.322463,0.27965,-0.393962,0.076893,0.208976,0.204691,0.322408,-0.339098,-0.315006,0.218379,0.325161,0.200666,0.183486,0.223254,0.295183,0.03215,0.042976,-0.250634,0.454365,-0.031152,-0.533427,0.368615,-0.232022,0.000899,0.052858,-0.191809,0.148143,-0.217718,0.417084,-0.287737,-0.1979,0.040558,0.029237,0.15951,-0.211095,-0.058729,-0.215816,-0.600052,0.418372,-0.304144,-0.181165,-0.295635,-0.147859,-0.123012,-0.145681,0.073196,0.214523,-0.211112,-0.016501,0.014386,0.262418,0.000689,0.033523,-0.035756,-0.012271,0.114971,0.320961,0.292684,-0.193237,-0.138242,0.036497,0.177742,0.147619,0.155612,-0.067819,0.049796,-0.872351,0.444808,-0.383045,0.549601,-0.373006,-0.526591,0.477209,0.136254,-0.228273,-0.211762,0.218765,-0.111182,0.234734,-0.261628,0.171904,-0.01034,-0.251279,-0.184973,-0.052082,0.115745,-0.197125,0.018603,-0.452313,0.062109,0.187403,0.499981,0.110044,0.375439,0.118317,0.347629,0.818846,-0.228891,0.005381,0.07563,0.592914,-0.145431,0.072114,-0.153653,-0.018314,0.107559,0.199287,-0.236522,-0.220855,0.197903,0.469105,0.358657,-0.191054,-0.298573,0.067677,0.066419,0.276414,0.180235,0.41983,0.663164,0.119949,0.367911,-0.061874,0.118596,0.193284,-0.311341,0.123341,-0.174374,-0.076978,0.096579,0.136959,-0.087344,-0.309951,-0.185038
grand,0.117731,-0.123685,0.286771,0.12115,-0.127131,0.073412,0.124481,0.139797,-0.400064,0.189871,0.045747,0.299295,0.133336,0.025189,-0.106964,0.167274,0.076234,0.12942,-0.111951,-0.091115,0.184074,-0.225144,0.124048,0.555989,-0.293332,0.048574,0.176502,0.027303,0.086741,-0.222178,-0.13394,0.388547,0.016343,-0.041017,0.583683,0.095104,0.033843,-0.195489,0.307963,0.023094,-0.057809,0.742427,-0.621341,0.053798,-0.148574,-0.460568,0.268463,-0.25225,0.264779,-0.033106,-0.180226,-0.157644,-0.406693,-0.012185,-0.283084,-0.052695,0.135024,0.118085,0.240903,-0.024509,0.423682,0.173761,0.071145,-0.138835,0.217594,0.331123,0.029057,0.30599,0.25049,0.118461,0.679582,-0.120418,0.30929,-0.044274,0.017899,-0.33486,0.136042,-0.123717,-0.038922,-0.051421,0.243778,-0.365623,-0.068038,-0.127347,-0.116138,0.064813,0.757114,0.414316,-0.062285,-0.110154,0.006557,0.458481,0.401446,-0.359674,-0.2423,-0.066259,0.003932,0.06686,-0.219658,0.033958,0.066727,-0.190823,0.003111,-0.00528,-0.081246,-0.471085,0.060545,-0.270077,0.153558,-0.178215,0.255163,-0.219807,-0.377155,-0.074355,-0.375406,-0.151314,-0.286394,0.303493,-0.057761,0.140838,-0.517712,-0.269544,0.32393,-0.127315,0.054197,-0.015194,-0.032122,-0.389747,0.034175,0.28684,0.000655,0.280717,0.20055,0.043927,-0.134024,0.186437,-0.174552,-0.217957,0.226534,-0.002705,-0.180679,-0.030218,0.073915,0.076295,-0.162624,-0.023055,-0.13841,-0.375837,0.025609,0.135042,-0.361396,-0.098332,0.079188,-0.105905,-0.12716,-0.085738,-0.09834,-0.218053,-0.018274,-0.089051,-0.39577,0.219484,0.364619,0.719817,-0.088197,-0.147064,0.134452,-0.044676,0.007854,0.046342,-0.171448,-0.350617,0.288102,-0.075311,-0.099737,-0.076569,-0.233699,0.245911,-0.112643,0.200852,-0.050067,0.142865,-0.42072,-0.167301,-0.170713,0.192601,0.154526,-0.18567,0.089417,-0.070257,0.31537,-0.384886,-0.355736,0.332261,0.198135,0.116927,-0.005317,0.062778,-0.269358,-0.029938,0.123517,0.331864,0.40055,0.13185,0.110907,-0.099592,-0.195327,-0.035135,0.07598,0.232396,0.246145,-0.249519,0.408956,0.195742,0.130213,-0.054553,0.013319,0.07879,0.112847,0.151632,-0.248238,0.182231,0.092478,0.096859,0.094804,-0.321793,0.265626,0.097382,-0.134111,0.354895,0.167727,0.192167,-0.012946,-0.164041,-0.293981,-0.308784,0.34698,0.251764,-0.050141,-0.071471,0.237067,-0.221458,0.286623,-0.105242,-0.203517,-0.322004,-0.158016,-0.069079,-0.018577,0.107758,0.063149,0.396128,0.200194,-0.010029,0.175682,0.132138,-0.357637,-0.538989,-0.259505,-0.11674,-0.100005,-0.429584,-0.080327,-0.17667,0.165162,-0.050035,0.174776,-0.123571,0.026939,-0.210841,0.133697,0.021078,-0.114948,0.325237,-0.149747,0.045254,0.598257,-0.353705,0.220091,-0.088017,0.116522,0.236698,-0.155598,-0.130462,0.282269,0.029557,0.16575,0.435171,-0.258777,0.068901,-0.507207,0.087475,-0.211619,0.054398,0.10626,0.01785,0.282988,-0.110146,0.083298,0.622383,-0.13304,-0.185073,-0.195331,0.275875,-0.311664,-0.493046,-0.123958,-0.148346,0.157058,-0.396227,-0.009104,-0.325009,-0.219623,0.159561,-0.07605,0.200461,0.314299,-0.079606,0.038157,0.091174,0.387026,0.118794,0.259332,0.202233,0.09325,-0.18167,-0.201399,0.38819,-0.119354,-0.031215,-0.13149,0.264038,-0.07036,0.308322,-0.272247,-0.053349,-0.240267,0.154683,-0.119533,0.267827,0.292482,0.24003,0.321395,-0.046072,-0.038337,0.063024,0.056066,0.206463,-0.155372,0.061077
propriété,0.473811,-0.089092,-0.157307,-0.02754,-0.291848,0.08796,0.385201,0.028922,0.217351,-0.339367,0.281926,0.130479,0.405715,-0.099674,-0.227039,-0.167279,-0.348618,0.050842,0.016263,-0.092988,-0.533216,0.028074,-0.162478,-0.358234,0.202858,0.144255,0.090635,-0.214933,-0.230241,-0.00938,0.076093,0.015652,-0.185688,-0.247755,0.351159,0.144771,-0.036276,0.037349,-0.391558,-0.000547,0.198373,0.172428,0.060305,0.162834,-0.051081,0.329683,0.009819,0.00188,0.493494,0.558271,0.350455,-0.419604,-0.491772,0.408764,-0.001743,-0.155968,-0.304367,-0.310296,-0.101408,-0.35382,0.010127,0.143669,-0.000587,0.14221,0.13029,-0.117449,0.89014,0.184195,-0.144262,-0.014647,-0.42678,0.121237,0.298271,0.286237,-0.144788,-0.192828,0.452541,0.224183,-0.068067,-0.46517,-0.05014,-0.27045,0.330414,-0.210005,0.223095,-0.313631,0.359715,-0.061938,-0.4413,0.238767,-0.152627,-0.343149,-0.143616,-0.062029,-0.674258,0.134511,0.197493,0.391467,0.145524,0.10966,0.044384,0.157588,0.052322,-0.297701,-0.347845,0.049033,0.726301,-0.010398,0.019325,-0.067729,-0.083003,-0.095804,0.026294,-0.257971,-0.418553,-0.029361,0.4075,0.25632,0.462393,0.057945,-0.002571,0.291159,0.587531,0.052363,-0.265176,0.307535,-0.119322,0.005689,0.086713,0.546701,0.335749,0.280957,-0.279727,0.211391,0.148123,0.094152,0.278914,-0.028062,-0.47938,0.187316,0.0895,-0.028619,0.04325,0.228657,0.438826,-0.067577,0.352697,-0.188079,-0.028234,-0.238475,-0.025918,-0.433988,0.331931,0.189771,-0.125049,-0.751378,0.065872,-0.168764,-0.107983,-0.100917,-0.346167,-0.116705,0.49118,0.433837,0.038469,0.092108,-0.62983,0.384235,-0.439457,0.03023,0.030446,0.062675,0.313082,0.003043,-0.1401,-0.137278,-0.494414,0.227846,-0.372485,0.115919,-0.506188,-0.389704,-0.032725,-0.209298,0.085983,-0.137976,0.109031,-0.372065,-0.23224,0.285915,-0.272571,-0.441247,-0.638878,0.117304,0.610479,0.393863,0.100136,0.438151,0.034843,0.429052,-0.204354,-0.210029,0.104215,-0.191832,-0.074032,-0.431811,-0.347501,0.328017,0.26758,0.321594,0.096916,-0.481001,0.007626,0.304702,0.378722,-0.244254,0.294984,0.194347,0.49175,-0.101054,-0.204019,-0.072534,-0.054033,-1.266697,0.01236,-0.162039,-0.012434,-0.284038,0.193283,0.293993,0.035597,-0.320241,0.167277,-0.147215,0.229722,-0.154447,0.223827,0.239017,-0.876809,-0.513791,-0.26148,0.029608,-0.44828,0.392888,-0.005783,-0.512806,0.125823,-0.077594,0.139351,0.073047,-0.122102,0.274374,-0.072458,-0.491612,-0.317955,-0.412232,0.284678,0.060758,-0.455201,0.252195,-0.137028,0.005657,-0.348454,-0.416497,0.016996,0.18948,-0.417036,0.42899,0.61678,-0.500185,-0.231051,0.133854,0.444411,0.313233,-0.566789,0.314876,0.230246,-0.092941,0.331424,0.007563,-0.241281,-0.273245,-0.230561,-0.298811,0.244157,-0.139262,-0.042293,-0.09587,-0.121385,0.641941,0.341791,-0.406264,-0.195729,-0.48855,0.011434,-0.147103,-0.390792,0.296724,0.441042,0.001352,0.021143,-0.201532,-0.542776,-0.104688,0.091939,-0.51566,-0.257636,0.42719,0.005186,0.60904,-0.010353,-0.12512,-0.015196,-0.202508,-0.534381,0.092141,-0.520616,-0.317118,0.083752,-0.102879,0.161007,0.560214,0.503961,0.253267,0.123955,-0.257406,0.101306,0.085002,0.147033,-0.541337,-0.070779,-0.269314,0.039166,0.321746,0.302238,-0.05292,-0.112642,-0.216617,0.774203,-0.049628,0.529441,0.196857,-0.288975,-0.393055,-0.335014,0.405604,-0.018979,0.16402,-0.74582,-0.420729
ordre,0.468771,0.389043,0.287136,0.028311,-0.509227,-0.606991,-0.087125,-0.129838,-0.273837,-0.268912,-0.35943,0.583455,0.467383,-0.599335,0.07499,0.151504,-0.270057,0.116514,-0.522551,-0.425045,-0.565657,-0.218974,0.280384,0.247058,0.213542,-0.200747,0.124167,0.209259,-0.146542,-0.28472,-0.316442,0.429542,-0.037948,0.566654,-0.360826,-0.365926,0.429288,0.027866,0.183678,0.050977,0.320031,-0.456365,-0.807276,0.818517,-0.120455,0.18132,-0.227272,-0.074318,0.306213,-0.29478,0.276129,-0.226281,-0.076428,0.385388,-0.40238,-0.407639,-0.078661,-0.191028,-0.187945,0.412204,0.504345,0.18669,0.371305,0.271725,-0.043769,-0.144542,0.202072,-0.242048,-0.514623,0.514858,-0.456652,-0.467286,-0.142609,-0.246067,0.057086,-0.380603,-0.104258,0.079956,0.301921,0.243253,-0.246361,-0.484275,-0.297364,0.16028,0.001126,-0.414505,0.439481,0.202807,-0.260812,0.075383,0.163409,0.141887,0.172973,-0.406342,0.117013,0.195252,0.246755,0.581295,0.246787,0.126355,0.203585,0.041451,-0.034515,-0.185808,0.252834,-0.884778,-0.117538,0.001788,0.062239,0.03566,0.228606,0.402168,-0.569148,-0.226753,-0.732875,-0.005963,0.358682,0.277572,-0.11904,-0.513371,-1.237738,-0.269422,0.311471,-0.34934,-0.384844,-0.190818,-0.455036,0.263161,-0.275361,0.517025,0.298112,0.174622,0.504948,0.006774,-0.245523,0.223843,0.075444,-0.321204,-0.181906,-0.682469,-0.186857,-0.250415,-0.057222,-0.377759,0.290012,0.046291,0.289272,0.317187,-0.073631,0.275656,-0.028836,0.00673,0.22122,-0.335472,0.515185,-0.209131,0.063302,-0.009027,0.057356,-0.087143,-0.580329,0.204441,0.094067,0.513857,0.193928,0.267979,-0.387279,-0.292157,0.532106,-0.503812,-0.094614,0.426595,0.45764,-0.528557,0.483491,-0.014422,-0.182117,0.437983,-0.246873,0.513458,0.00011,0.05745,-0.168827,0.45617,-0.195717,-0.309124,0.171689,-0.119651,0.368135,-0.092649,0.421859,-0.650112,-0.433847,-0.530703,-0.340542,-0.104255,-0.215542,0.131294,0.074955,0.296083,0.216212,-0.037682,0.207233,0.244748,0.322774,-0.327223,0.310034,0.181189,0.235965,0.449692,0.219791,0.193883,0.251052,0.236105,0.254561,-0.149759,-0.183348,0.246353,-0.011482,-0.391104,-0.51752,0.196767,0.185424,0.275305,-0.293257,-0.455106,-0.270092,0.188666,0.059319,-0.091814,0.28034,-0.197661,0.282827,0.208155,0.057311,0.175403,-0.206944,0.413571,0.051414,0.105679,-0.115175,-0.108342,0.447468,0.24087,0.082667,-0.308251,-0.308862,-0.090381,0.075129,-0.353635,0.250074,-0.168701,0.113417,-0.548706,0.15998,-0.094803,0.026625,-0.075863,-0.15424,-0.067578,0.084246,0.20145,-0.5068,-0.252266,-0.076185,-0.149944,-0.018428,0.096267,-0.183183,-1.244911,-0.480218,0.115014,-0.187102,0.301501,0.019312,-0.110463,0.02784,0.126517,-0.042049,0.050804,0.046073,0.521692,0.234139,-0.559625,-0.059518,0.285784,0.2676,0.272564,-0.464244,0.480131,-0.456652,-0.196812,-0.096439,-0.151716,0.034849,0.038977,-0.381199,0.278964,0.077708,0.534127,-0.580496,0.223596,-0.272798,-0.184618,-0.154803,-0.523159,0.225529,-0.114939,0.374337,0.06292,0.349759,0.407771,0.340003,0.41983,-0.62842,-0.031253,0.99808,0.125508,0.010047,-0.178963,0.116886,-0.222332,0.123747,-0.063267,0.278885,-0.114141,-0.293321,0.605019,0.500044,-0.102444,0.433739,-0.124466,0.495703,-0.025473,-0.155733,0.525191,0.074674,0.066616,-0.122885,-0.06882,0.030156,0.049848,0.29508,-0.486587,0.129771,0.004295,-0.078689,-0.031882,-0.24901,0.049715
variable,-0.142548,0.038911,0.226276,0.155277,-0.337876,0.22599,-0.406643,0.300505,-0.189413,-0.063876,0.210395,0.273395,0.182522,0.024631,-0.221908,-0.284135,0.085392,0.40937,0.220018,-0.586654,0.184016,0.157349,0.099207,0.288192,-0.156133,-0.206028,-0.084072,-0.20632,-0.10173,-0.316806,-0.122263,0.217148,0.62481,0.003436,0.004976,0.430243,0.5276,0.665509,-0.315746,0.095309,-0.62099,0.56426,0.140113,0.117783,-0.169697,-0.108111,0.562246,0.401723,0.446801,0.04583,0.844686,-0.077062,-0.440106,0.008794,0.150187,0.37216,0.360415,-0.369063,-0.134103,0.340315,0.328785,0.300444,-0.230794,0.421396,0.160094,-0.34292,0.101509,-0.782771,-0.160389,-0.227625,-0.420504,0.239804,0.493552,0.624561,-0.541987,0.05152,0.416226,0.046123,-0.477944,0.003218,0.223657,-0.371009,-0.161773,-0.00704,-0.613499,0.344587,-0.638926,-0.021976,-0.474487,-0.439523,-0.277364,0.605626,0.401932,-0.702301,0.174069,0.227456,-0.068815,0.473181,-0.381014,-0.051667,0.182287,-0.225523,-0.385515,0.059651,-0.207671,-0.142991,0.539264,0.026244,0.192573,0.727669,-0.289442,0.648184,0.237672,0.106887,-0.783658,-0.257663,-0.248989,0.009623,0.000335,0.208964,-0.579141,0.375806,0.557493,0.621724,-0.188372,-0.247212,0.156645,0.410476,0.349007,-0.247785,0.247949,0.033875,-0.361379,-0.145367,0.310129,-0.537812,-0.108851,-0.032617,0.258054,0.029852,-0.389755,0.133874,0.079442,-0.015561,0.029898,-0.045178,-0.065805,0.038335,-0.431118,-0.010211,0.321763,-0.370267,0.31294,0.664823,0.322398,-0.156782,0.61459,-0.151454,-0.404102,-0.436666,-0.186369,0.037178,0.422618,-0.036809,0.255504,0.157524,-0.21643,-0.007554,0.082703,-0.354629,0.212515,0.25095,0.183433,-0.387061,0.712507,-0.401394,0.357504,0.26702,-0.728474,-0.088019,-0.986553,0.148651,0.158211,-0.354406,0.010076,0.0366,-0.127293,-0.237724,0.014153,-0.12035,0.35321,-0.205823,0.04145,-0.067174,0.254041,0.470465,-0.168906,-0.349703,0.279341,0.098019,-0.015102,-0.192793,0.183213,-0.105773,-0.289731,-0.144589,0.399807,0.34665,-0.349408,0.06247,-0.083911,0.085834,0.43409,-0.291535,0.218776,0.21398,0.865808,0.429106,-0.308761,-0.46,-0.068057,0.087701,0.436756,-1.488157,-0.309368,0.356665,0.039914,0.321188,-0.057312,-0.712404,-0.433141,0.285115,-0.240373,-0.3156,0.627432,-0.383263,-0.301202,0.517847,-0.138466,-0.073722,0.333368,0.332387,-0.123448,0.201203,0.349671,-0.379346,-0.109436,0.144479,-0.303737,-0.239636,-0.092229,-0.182444,-0.276981,-0.752697,0.233503,-0.499322,0.858864,-0.071074,0.073602,0.131229,0.066021,0.030866,0.05388,0.231784,-0.10742,-0.029243,0.149849,0.471748,0.761886,0.038826,0.278045,0.038015,0.385429,-0.250474,0.115878,0.467239,-0.054929,0.291244,-0.048565,0.169938,-0.642832,0.18449,-0.544621,0.382427,-0.44677,0.086781,0.694686,0.565,-0.127167,0.269573,-0.301664,-0.004502,-0.112533,-0.60703,-0.122644,-0.256569,-0.151123,-0.566188,-0.615429,0.642201,0.190958,-0.461592,0.094429,-0.426659,-0.251533,0.732014,0.043701,0.537724,-0.560115,-0.41752,-0.020353,0.300787,0.010374,0.325999,-1.03163,0.612866,0.748287,0.39417,-0.452419,0.00791,-0.008957,0.329813,0.394769,0.495323,-0.907222,-0.139845,-0.105745,-0.176413,0.108339,-0.169599,-0.230185,0.042675,-0.489501,0.618824,0.295258,0.459274,-0.315558,-0.502236,0.014825,0.414599,-0.060641,-0.039901,-0.073071,-0.36966,-0.182545,0.205538,0.058669,-0.00019,-0.2148,0.293423
