word,1,2,3,4,5,6,7,8,9,10,11,12,13,14,15,16,17,18,19,20,21,22,23,24,25,26,27,28,29,30,31,32,33,34,35,36,37,38,39,40,41,42,43,44
un,0.19528,-0.340001,-0.263127,1.142431,-0.055196,-1.423245,-0.350081,0.185,-0.130133,-0.06436,0.532571,0.46658,-0.256993,-0.489872,0.183553,-0.982166,-0.125758,-0.289077,0.286426,-0.077961,-0.300039,-0.115855,0.682173,0.461876,-0.500283,-0.195383,-0.806128,-0.092894,-0.126407,-0.239208,-0.094463,-0.522409,-0.145634,-0.593129,-0.040327,-0.142989,-0.268058,0.576907,-0.526107,0.031924,-0.317281,0.463859,-0.86368,-0.390534
nombre,0.479992,0.163326,0.070147,1.090761,-0.199187,-1.601091,-0.330949,0.092137,0.312045,-0.331042,0.442324,0.288638,-0.676616,-0.420849,0.03132,-1.405359,0.299832,-0.088804,-0.327049,-0.011212,-0.600605,0.00205,1.386963,0.047649,-0.431996,-0.218901,0.255974,0.482053,-0.428369,0.711393,0.241084,-0.876814,-0.348296,-0.481893,0.197146,0.391454,-0.863584,0.381728,-0.346025,-0.616216,0.368478,0.077944,-0.413088,0.393441
$\mathbb{N}$,0.457752,0.072427,0.195248,0.972176,-0.276502,-0.915363,-0.380551,0.191849,0.559819,-0.148163,0.212714,-0.001962,-0.357675,-0.669783,-0.24311,-0.994538,-0.04434,0.073451,0.422008,0.3754,-0.256936,0.069141,0.532471,0.270699,-0.185854,0.039509,-1.129562,-0.059131,-0.221501,0.229089,-0.256906,-0.733034,-0.086914,-0.190846,0.365285,0.125465,-0.019292,0.158911,-0.577723,-1.0816,0.149132,0.54934,-0.319899,0.00394
deux,0.40747,0.246403,-0.345194,1.267925,-0.298769,-1.322087,-0.004439,0.162032,-0.603697,-0.261343,0.555243,0.041652,-0.204822,-0.487274,0.502821,-0.752537,-0.424363,-0.241836,0.592458,-0.018993,-0.244944,-0.721762,0.573262,0.323041,-0.466351,0.236446,-1.072843,-0.156315,0.318435,0.156375,0.593147,-0.456172,0.022096,-0.42577,-0.163418,-0.461606,-0.325989,0.620659,-0.555212,-0.499722,0.006636,-0.30965,-0.58456,-0.067499
fonction,-0.659421,0.629149,0.196673,0.560939,0.223754,-1.782179,-0.609737,0.491297,-0.240816,0.165504,0.516584,0.181284,0.005193,-0.720961,-0.149377,-1.545342,0.619844,-0.657509,-0.425362,0.088714,0.142645,0.320251,0.751456,0.652698,-0.517591,0.468253,-0.094844,0.035344,0.713027,0.367351,0.10807,-0.395461,0.174396,-0.566194,0.767879,0.072233,0.79452,-0.282134,0.130311,-0.104947,0.814439,0.452192,-1.414234,0.186842
premier,0.526912,0.629802,-0.229871,0.898564,-0.344508,-1.129152,0.139929,0.166536,-0.082749,-1.130007,-0.40946,0.315877,-0.628354,-0.312107,0.86764,-0.795169,-0.136925,-0.212715,0.170799,-0.120461,0.078449,-0.474491,-0.000658,0.294008,-0.586959,-0.323354,-0.981748,-0.396348,-0.120731,-0.373092,0.281496,-0.444685,0.108628,-0.040728,-0.184479,-0.432927,0.086183,0.45337,-0.196829,-0.362401,0.051327,-0.155564,-0.520848,-0.044214
ensemble,-0.108905,0.252531,-0.584019,1.179156,0.120609,-1.275733,-0.362947,0.260421,-0.007458,0.243562,0.7163,-0.239168,-0.210642,-0.37183,0.000944,-1.196859,-0.090025,0.124997,-0.295093,-0.056067,-0.654251,-0.602681,-0.054417,-0.411863,-0.192452,-0.309946,-0.698678,0.407473,0.283618,-0.477282,0.146163,0.150466,0.199259,-0.371509,0.09802,-0.216167,-0.507155,0.024878,-0.325663,-0.023418,0.127605,0.011013,-0.786729,-0.071742
point,0.870143,-0.163214,0.541748,0.6761,-0.589932,-1.087977,0.711388,0.154679,-0.279986,-0.309604,0.086172,0.818581,-0.792475,-0.641015,-0.801976,-0.89195,0.051196,0.091172,-0.470521,0.274281,0.157557,-0.325433,1.094892,-0.410242,0.191304,-0.025129,-0.575353,-0.07033,0.594093,0.610167,-0.244811,-0.320489,-0.601961,0.142643,-0.287119,-0.658356,-0.840934,0.637764,-0.820808,-1.013698,0.123298,0.114537,0.16511,0.445834
théorie,0.488342,0.004281,0.733559,-0.28222,0.107724,-0.887536,-0.923874,0.285931,-0.354582,0.691361,-0.35468,-0.16478,-0.181423,-1.610783,-0.208396,-0.530236,0.375774,0.157919,-2.066894,0.782765,-0.444431,0.509472,0.450486,0.341465,-0.138334,0.25293,-1.074654,0.331889,-0.387513,-0.284611,-1.655894,0.181754,-0.233835,-0.043836,-0.855484,0.229414,1.119548,0.158775,-0.956262,0.231745,0.15571,0.479496,-0.959996,-0.081355
exemple,0.322596,0.254354,0.228464,0.613568,-0.393037,-1.696757,-0.457277,0.377442,0.237372,0.724545,0.820255,-0.346043,0.016825,-0.530121,-0.299327,-0.783515,0.162907,-0.128334,-0.169843,0.293297,0.008901,0.418534,0.799713,0.539642,-0.015245,-0.144075,-0.393504,0.026865,-0.076267,-0.406102,-0.658113,-0.490122,-0.04587,-0.683231,0.313047,0.300327,-0.372215,-0.01088,-0.361368,-0.173466,-0.161493,0.913543,-0.407627,-0.570436
espace,-0.652266,-0.201814,-0.183441,0.951798,0.364318,-1.262227,-0.37234,0.920357,-0.337312,0.570564,0.835245,0.580883,-0.025787,-0.643709,-0.749943,-1.236467,-0.127054,-0.395057,-0.468034,-0.614879,-1.153445,0.033834,0.406637,-0.489019,0.258205,-0.808704,-0.682013,0.254171,1.100881,-0.318781,-0.533021,0.502295,0.230873,-0.54591,-0.580026,0.221621,-0.247242,-0.545328,-0.574758,0.148325,-0.057159,-0.179597,0.031952,-0.114109
théorème,0.467146,-0.028321,0.298325,-1.348871,-0.290066,-1.092208,-0.225828,0.371604,0.544934,1.665605,0.406034,-0.095237,0.37153,-1.563152,0.034133,1.149806,-0.427647,-0.344278,-1.558543,1.312243,0.627819,0.352301,0.476581,0.598098,0.741363,0.960258,0.089249,0.329893,0.530037,-0.204288,-1.259375,0.917195,0.161397,0.974689,-0.370636,0.27936,0.513881,0.415595,-1.37118,-0.150746,1.32362,-0.946905,0.138118,0.542771
problème,0.405478,-0.05515,0.440335,0.075456,0.185081,-0.787531,-0.908637,-0.074898,0.247643,0.180167,0.093661,0.256181,-0.808179,-0.585448,-0.531528,-1.495191,0.095193,0.356683,-0.00867,0.965616,0.316123,0.466367,0.566405,0.798188,0.08212,-0.610528,-0.770091,-0.360543,0.141636,0.019395,-0.920773,-0.011024,-0.922268,-0.221405,-0.515803,0.250594,0.384219,0.127038,-0.211229,-0.213818,0.331533,0.834534,-0.621467,0.066737
valeur,0.249828,-0.072543,-0.072784,0.527638,-0.537855,-2.252472,-0.249733,0.088355,1.039119,0.070102,0.33155,0.33025,0.158925,-0.672749,-0.874968,-1.188262,1.033017,-0.314715,-1.035001,0.559882,-0.500732,0.152655,0.844196,0.294232,0.600056,-0.072157,0.284721,0.659422,0.118858,0.203827,-0.390974,-0.341377,0.100161,-0.263465,0.127375,0.708367,-0.288749,0.422267,-0.828112,-0.540468,0.497775,0.622153,-0.595095,0.059118
groupe,0.862391,0.704814,-1.206319,1.014795,-0.780814,-1.047865,0.252845,-0.175995,-0.593784,-0.345171,0.495886,-0.473443,-0.421965,-0.427747,0.250976,-1.239307,0.150806,0.4855,0.49786,-0.827812,-0.180393,-0.000765,-0.288197,-0.554578,-0.484695,0.371569,-0.901022,-0.229397,-0.814253,-1.239898,-0.263756,-0.965988,0.29138,0.144595,-0.403242,-0.065814,0.230211,-0.41841,-0.203736,-0.312157,0.32748,0.008172,-0.182297,0.545662
graphe,-0.380481,0.406647,1.002433,0.033943,0.126876,-0.77867,-0.931879,0.34012,-0.024456,1.407738,2.210832,0.174058,0.109899,-0.531025,-0.529109,0.553544,-0.262116,0.628252,-1.606671,0.063506,0.161981,0.550734,1.110472,-0.323524,0.563571,0.060547,0.930602,0.982928,0.571212,0.202269,-0.345526,-0.168778,0.251801,0.759577,-0.634456,-0.304731,0.183819,-0.279047,-0.778392,0.439984,1.035178,-0.521989,0.499676,-0.253269
forme,0.156306,0.344349,0.225793,1.394916,-0.704053,-1.914164,-0.465429,-0.075728,-0.546984,1.283861,0.533117,-0.149097,-0.083933,-0.47636,-0.106148,-0.753623,-0.036349,0.013937,-0.047517,0.068342,-0.217475,-0.436272,0.372591,0.67119,-0.167666,-0.155483,-0.77273,0.382205,-0.251005,-0.284139,0.085977,0.156566,0.114315,-0.504531,-0.116449,0.244399,0.008795,0.568456,-0.316453,0.372112,-0.285692,0.264083,-0.224579,-1.169397
entier,0.091364,0.052899,-0.330507,0.972658,-0.267642,-1.092657,-0.349645,0.207324,0.161847,0.078228,0.728845,0.263839,-0.136088,-0.617497,0.080205,-0.974053,0.01621,-0.100447,-0.291141,0.380225,-0.492411,0.027897,0.364654,0.450056,-0.247619,0.095557,-0.142058,0.467431,-0.384049,-0.178646,0.532502,-0.625537,0.329904,-0.088664,-0.093747,0.591067,-0.432207,0.051899,-0.169541,-0.455051,-0.229765,0.218364,0.157115,-0.415502
système,-0.140343,0.417814,0.500124,0.594398,0.61143,-2.062653,-0.074948,0.4165,-0.393303,0.527494,0.750864,0.523255,-1.177448,-0.835883,-0.232266,-0.992766,0.207518,0.399101,-0.287911,-0.722136,0.647812,0.453403,1.013111,0.856542,0.07575,0.018377,-0.405852,0.061695,0.505964,-0.315086,-0.583646,-0.287641,-0.476679,-0.428488,-0.109098,0.930579,0.863472,-0.649315,-0.776308,0.272664,0.492404,0.345238,-1.130154,-0.593355
équation,-0.356,0.46247,0.806283,-1.728246,-0.702598,-1.761087,-0.265411,1.116659,-0.395699,1.383023,0.482749,-0.223193,0.059788,-1.561439,-0.466613,0.181804,-0.011994,-0.028301,-1.316626,1.728002,0.632801,1.085773,0.868257,0.943519,0.415665,0.481285,-0.106385,0.92353,0.693444,0.102083,-1.059201,-0.17099,0.198277,0.746547,-0.138609,0.034814,1.208357,0.835418,-1.696271,0.101876,0.904633,-0.637127,-0.107047,0.60777
suite,0.047745,0.469027,-0.170085,0.862721,0.042395,-0.413087,-0.29099,-0.438861,0.133725,-1.016744,-0.170074,-0.019147,-0.659899,-0.177715,0.487997,-1.207949,-0.520602,-0.126604,0.194245,0.046102,0.221727,0.146801,-0.016938,0.719889,-0.357947,-0.415064,-1.165129,-0.307863,-0.695019,-0.495063,0.102904,-0.20596,-0.544121,-0.381494,0.173562,-0.501928,0.507096,0.3162,0.19924,-0.699869,0.276832,-0.109943,-0.479964,0.061417
algorithme,0.989669,0.206538,1.306007,-0.814256,0.979771,-1.495557,-0.022467,0.557031,0.151942,1.759107,0.88878,0.754435,-0.026383,-0.228979,-0.35243,-0.430945,0.289203,0.864422,-0.860929,0.238816,0.854638,0.898218,0.925369,0.725844,0.525735,-0.44095,0.323921,0.233341,0.573484,-0.45305,-0.304191,-0.424614,-0.43229,0.754816,0.58636,-0.318503,0.384789,-0.332664,-0.690559,0.521652,1.363024,-0.203515,0.317699,-0.611588
calcul,0.26615,0.271079,1.22477,-0.55086,0.182131,-2.000124,-0.489012,0.578139,0.352346,1.039384,0.251863,0.883404,-0.474543,-0.30436,-0.008685,-1.20723,0.532299,-0.181113,-1.474797,0.530354,0.33781,0.830279,0.964619,0.867115,0.501484,-0.063864,0.669009,0.055427,0.702576,0.20402,-0.50179,-0.50249,-0.237486,0.192265,0.210797,0.436235,0.305182,0.661938,-1.152202,0.08133,1.10009,-0.417359,-0.40729,-0.274588
application,-0.008461,0.281298,1.171962,-0.171135,0.382508,-1.593905,-0.058242,0.193398,0.080895,0.422547,0.474595,0.497954,-0.640244,-0.890137,0.058042,-1.474607,-0.1592,0.05845,-0.537829,-0.347778,0.835816,0.924032,0.027995,0.38134,-0.101666,-0.029571,-0.178874,0.286658,0.966365,-0.974904,-0.147665,-0.446284,-0.317618,-0.524371,0.554899,1.293268,0.235988,-1.358419,-0.382411,-0.247846,0.44589,0.631153,-1.003414,-0.526157
élément,0.232884,0.366328,0.290863,0.885974,-0.644784,-1.499107,-0.682932,0.14447,-0.307904,0.829723,0.593711,-0.177714,-0.043193,-0.469563,0.112308,-1.019803,0.433464,-0.047086,-0.656568,0.057178,-0.351566,-0.351521,0.540869,0.405275,0.044317,-0.103565,-0.914304,0.673003,-0.240012,-0.366982,-1.168964,0.315923,0.005886,-1.374502,0.547148,0.179818,-0.558264,-0.091672,-0.892011,0.210996,0.220997,0.265768,-0.085198,-0.474548
grand,-0.40331,-0.169696,-0.49565,1.203339,-0.14998,-0.886129,-0.214443,0.283805,0.180213,-0.918916,-0.072226,0.439092,-0.203273,-0.238561,-0.364004,-0.472308,0.220095,-0.5206,0.188036,-0.316212,-0.549073,-0.690293,0.381322,-0.235862,-0.321743,-0.160493,-0.519018,-0.277937,0.13502,-0.215618,0.027058,0.133427,0.40739,-0.434942,-0.538992,-0.400677,-0.141832,1.033332,-0.597707,-0.137832,-0.455523,0.427553,-0.623216,-0.537799
propriété,-1.027852,-0.070684,0.204564,0.526845,-0.599672,-1.208156,-0.650149,0.470589,0.394682,0.176191,0.15679,0.207218,1.13445,-0.596584,-0.271705,-0.552779,-0.105304,0.176211,-0.057998,0.237762,0.025833,0.126014,1.049711,0.469136,-0.620128,-0.026711,0.079598,0.320589,0.136835,-0.896321,-0.489391,0.431572,0.530116,-0.971866,0.108878,1.040819,0.399884,0.717476,-0.442266,-0.393712,0.380367,-0.208028,-1.033001,0.273387
ordre,-0.21951,0.156173,0.105738,0.520503,-0.194511,-0.389233,-0.401224,0.263423,-0.234105,-1.350597,0.096188,-0.084475,-0.02623,-1.407204,0.302715,-0.419268,0.873851,-0.688822,0.090022,0.498731,-0.154613,-0.262102,0.346473,0.659405,-0.36716,0.73268,-0.456312,0.181364,0.067232,0.754883,0.241765,0.055933,0.690412,-0.729386,0.720593,0.295028,0.397119,0.42031,-0.09758,-0.156215,0.558337,0.260329,-0.867688,-0.623121
variable,-0.275446,0.945132,0.076362,0.220144,-0.308711,-2.134647,-0.087772,0.169924,0.037175,1.643829,0.666964,-0.158699,-0.628784,-0.509301,-0.847584,-0.623379,0.707094,-0.710169,0.10032,0.254413,0.130177,1.060749,0.971294,0.502198,0.307229,0.044039,0.695807,0.841342,0.359919,0.428428,-0.003399,-0.563369,-0.313584,-0.366385,0.02097,0.462617,-0.099209,0.608078,-0.508573,-0.02234,0.095953,0.159335,-0.300518,-0.19196
base,0.234227,0.007385,0.319506,0.38957,-0.255215,-1.50677,0.300709,0.302493,-0.49177,0.167847,0.782018,0.155359,-0.540977,-0.50592,0.260103,-1.183693,0.130075,0.274401,-0.009539,-0.041326,0.383036,-0.244355,0.745619,0.045642,-0.344344,0.224923,-0.357173,0.427727,0.113635,-0.171204,-0.14213,0.134771,0.200423,-1.069375,0.156118,0.901246,-0.472971,-0.21629,-0.462809,0.340679,0.029573,0.239946,-0.118773,-1.007191
géométrie,0.02927,0.394492,0.976996,-0.519962,-0.092077,-1.442527,-0.901114,1.301433,-0.942335,1.790266,0.071625,0.170334,0.24216,-0.322756,0.333151,-0.132263,0.501689,-0.339677,-1.499259,0.177039,-0.358316,0.140183,-0.189472,0.339845,0.684785,0.710632,-0.346539,0.235021,0.798182,0.213394,-0.385842,0.60545,-0.218875,-0.095793,-0.654708,-0.024876,0.200468,-0.239203,-1.239722,0.864597,0.453464,-0.398982,-0.061562,-0.428607
analyse,0.78708,0.370755,0.570653,-0.017842,0.240945,-0.693361,-0.694399,-0.268098,0.195838,0.747591,0.024466,-0.125645,-0.436782,-0.656956,-0.188556,-1.925374,0.408186,-0.274543,-1.531232,0.88959,-0.368143,0.989087,0.475136,0.043388,-0.403651,-0.175856,-0.496508,0.458709,0.46397,-0.813745,-1.081779,0.465556,-0.187779,-0.086402,-0.065479,-0.135803,0.063255,-0.488154,-0.47445,0.534922,0.028916,0.235416,-0.504182,-0.48379
loi,-0.664028,-0.365556,0.366456,0.13838,0.731854,-1.482073,0.207036,-0.788296,1.027536,-0.450288,-0.301961,0.022426,-0.142521,-2.203812,0.281357,-0.547677,-0.496327,-0.355184,-0.484187,0.419002,-0.703432,-0.216712,0.234105,0.339952,-0.45099,0.733178,-0.901891,0.435078,-0.115214,0.572921,-0.196478,0.150411,-0.755989,-0.200213,0.699399,0.9735,0.889181,-1.071911,0.258333,-0.799024,0.58289,0.806354,-0.870337,0.992315
définition,0.214616,-0.080119,1.035768,0.313667,-0.319938,-1.619621,-0.485994,0.067913,0.366651,0.737586,0.089842,0.037166,-0.435982,-1.382968,-0.346537,-0.841535,0.299603,-0.396542,-0.940935,0.419264,-0.072141,0.496704,0.686785,0.166399,0.253196,-0.138507,-0.420903,0.850954,0.438132,0.011872,-0.999754,-0.138374,-0.11226,0.573537,0.129528,1.056663,-0.028991,-0.618962,-0.298473,0.468292,0.342901,0.587583,-0.544182,-0.247282
réel,0.145413,-0.383402,0.615568,0.453785,-0.114845,-1.091534,-0.608834,-0.060725,0.622187,0.026195,0.682804,0.67098,-0.352971,-0.424992,-0.496397,-0.842325,0.547943,-0.263708,-0.380593,0.119115,-0.769545,0.754965,0.685367,0.666586,0.4948,-0.647666,-0.894209,0.835431,0.010284,-0.436656,-0.950419,-0.296467,-0.573944,0.167846,-0.113014,0.029439,-0.028715,-0.010855,-0.746089,-0.052603,0.657029,0.561145,-0.593873,0.004483
dimension,-0.341006,-0.359521,0.293785,0.475525,-0.328965,-1.362275,-0.197309,-0.130906,-0.331235,0.876252,0.533687,0.651062,-0.66688,-0.591685,-0.085506,-0.492804,0.982667,0.307312,-0.734765,-0.169017,-1.081065,-0.137921,0.285081,0.032881,0.81915,-0.44497,-1.063197,0.959654,0.734046,-0.106741,-0.456166,0.274233,-0.055522,-0.424426,-0.627174,0.198009,-0.729805,0.178267,-0.845018,0.027717,0.4239,0.020989,-0.335637,-0.152022
statistique,0.551164,0.620575,0.326163,0.717471,-0.600324,-0.343957,1.198334,1.023299,0.130261,-0.663514,-0.886447,1.500849,-0.467205,-0.959479,-0.452177,-1.252542,0.343589,0.418961,-1.016517,0.598413,0.757786,0.123579,1.862683,-0.226645,-0.174046,-0.265932,1.216566,0.027078,0.980581,0.086393,-1.259949,-0.079572,-0.154803,0.446727,0.339352,-0.680009,-0.132072,-0.071526,0.638498,-0.12121,0.667756,-0.007469,0.274835,1.299169
sommet,-0.227186,-0.610887,-1.149065,0.771596,0.173006,-0.93756,-0.041097,-0.247444,-0.626256,-0.025593,0.572249,0.683304,-0.985896,-1.14052,-0.676864,-0.471985,-0.304152,-0.126039,-0.015409,0.133331,0.78057,-1.258598,0.063584,-1.014849,0.124837,-0.208206,-0.620412,0.132455,0.073544,0.41531,0.571837,-0.311211,0.815009,-0.156917,-0.547716,-0.85681,-0.303457,1.390051,-0.625428,0.507305,-0.590387,-0.39116,0.402283,-1.096151
logique,0.623725,-0.13929,1.465631,0.22675,0.537617,-1.227049,-1.136849,0.28127,-0.515661,0.712908,0.303139,0.101311,0.115384,-0.810822,-0.524587,-0.481995,0.282624,0.12765,-1.793868,0.054205,-0.122592,0.33908,0.226742,0.503604,0.630155,0.045952,-1.025008,0.31913,0.579252,-0.129607,-1.122988,0.473625,-0.45443,0.979938,-0.07981,0.523626,0.41084,-0.298453,-0.570348,-0.282622,0.644196,0.623547,-0.281302,0.199353
terme,0.363177,0.088696,0.394897,1.025384,-0.559335,-1.448289,-0.479893,0.153719,0.115016,-0.108312,0.12325,-0.209674,-0.196905,-0.742643,-0.454895,-0.901557,0.061879,-0.006624,-0.48331,0.457461,0.380817,-0.33773,0.631073,0.470515,-0.091274,0.162647,-0.461804,-0.157613,-0.445416,-0.1459,-0.978167,-0.304392,-0.224277,0.015692,-0.100286,0.528408,0.143842,0.467466,0.066666,0.113431,0.037815,1.270122,-0.19063,-0.093367
trois,0.353659,0.244019,-0.510335,1.480972,-0.136093,-1.098198,0.204587,0.125325,-0.506356,-0.489994,0.547903,0.0874,-0.392345,-0.482648,0.746355,-0.690726,-0.246248,-0.304338,0.255693,0.181362,-0.409162,-0.83518,0.388084,0.234442,-0.505739,0.131485,-0.833335,-0.190739,0.485074,0.207302,0.575762,-0.309648,-0.008869,-0.384442,-0.097717,-0.387983,-0.280606,0.869654,-0.348057,-0.265853,-0.045232,-0.415368,-0.248709,-0.042387
plan,-0.717338,0.156337,0.085432,0.425255,0.884883,-1.183427,-0.339671,-0.301561,-0.055885,-0.005379,0.203593,0.510419,-0.570167,-0.530059,-0.319194,-1.509011,-0.06126,-0.250028,-0.172956,-0.353622,-0.181946,-0.426827,0.074925,-0.416907,-0.017541,-0.067107,-1.214604,0.309087,0.647771,-0.221943,-0.402548,0.701093,0.109342,-0.79607,0.244179,-0.190932,-0.075359,0.207207,-0.16347,-0.310695,0.088745,-0.0649,-0.390304,-0.435141
formule,0.799874,0.370438,0.005373,0.495442,-1.565027,-1.42351,0.12424,0.346863,0.162031,0.274707,-0.93441,-0.439637,0.043605,-0.648452,0.49117,-0.345984,0.555219,-0.10135,-0.462649,0.653262,1.32836,-0.032169,-0.208039,0.23488,-0.056896,-0.006663,-0.751555,0.16277,0.636087,0.440454,-0.562382,-0.815842,-0.348777,0.486479,-0.730947,0.179193,0.528739,0.25041,-1.153778,-0.003441,0.292086,0.271154,0.310831,0.657728
droite,0.20692,-0.663691,-0.036953,0.753664,-0.334616,-1.211235,-0.341733,-1.043942,-1.308827,0.186806,1.030772,-0.063105,0.635134,-1.247852,-0.940774,-0.746616,-0.460992,-0.484064,0.144791,-0.522796,0.513735,-1.105076,-0.251508,-0.479879,-0.178253,0.272851,-0.711186,0.080604,-0.123405,1.228485,-0.220908,-0.070226,0.37663,-0.300242,-0.206448,-1.249925,-0.150967,0.337787,-0.564841,-1.082328,0.022833,-0.424367,-0.326967,-1.326507
$\mathbb{C}$,0.303421,0.246127,0.40296,0.808419,-0.796384,-0.964264,0.276123,0.733437,-0.003373,0.057487,-0.01241,-0.502424,-0.422634,-0.031224,-0.331742,-0.559064,0.221915,-0.042321,0.147144,0.145429,-0.040431,0.538031,0.275102,-0.1589,0.086793,-0.01403,-0.369839,-0.37261,0.265486,0.245534,-0.213081,0.056383,-0.178739,-0.586181,0.068375,0.4487,-0.43815,-0.208525,-0.573025,-1.141822,0.207418,0.490242,-0.015299,0.099811
solution,-0.034177,0.097393,0.727413,-0.779123,-0.621274,-1.376613,-0.537714,0.158672,0.352672,0.616388,0.714615,0.390255,0.069838,-0.426461,-0.599975,-1.508909,-0.395141,0.347877,-0.52506,0.053208,0.961101,0.430497,-0.080275,0.471246,0.227877,0.246024,-0.749664,0.295515,0.607823,-1.114079,-0.550197,-0.5864,-0.336211,-0.774551,-0.158972,1.037287,0.649354,-0.715927,-0.988716,-0.377198,0.273603,0.735219,-0.452488,-0.060416
modèle,0.403205,0.209006,0.697305,0.445789,-0.311509,-1.901785,-0.263953,0.198532,0.014229,0.64478,-0.439478,-0.039415,-0.426482,0.023803,0.392642,-0.068754,1.012247,0.564585,0.108396,-0.696847,0.117555,0.056728,0.474864,0.176113,-0.122751,-0.578899,-0.843272,0.65178,0.597634,0.083512,-0.445752,-0.041586,-0.151242,-0.539204,-0.981593,0.86534,0.02947,-0.405708,-1.361853,-0.078516,0.410843,0.294738,-0.823882,-0.162189
linéaire,0.321115,0.302143,1.067136,-0.694421,-0.596599,-2.263326,-0.648736,0.614869,-0.726988,1.747985,0.697085,0.141854,-0.526648,-0.8117,-1.071676,-0.446432,-0.242465,-0.406877,-0.76781,0.011756,-0.270093,0.301005,0.803921,0.547395,0.322756,-0.382241,-0.120558,0.680095,0.130437,-0.00893,0.19968,0.223626,-0.472929,-0.041581,-0.261009,0.222434,-0.321434,-0.129711,-0.821014,0.596705,0.527848,-0.712043,0.017454,-0.248702
probabilité,0.30797,0.186731,0.635358,-0.368792,-0.363035,-0.309159,-0.931855,0.059105,0.540739,1.078647,0.720662,0.373733,-0.819161,-0.802234,-0.89784,-0.64326,0.502338,-0.557048,-0.789171,0.984259,0.172698,1.063705,1.355997,0.906365,0.314039,0.036944,0.621018,0.31502,-0.252039,0.125503,-0.647945,-0.743007,-0.460071,0.314762,0.22376,0.347408,0.189591,0.550741,-1.031813,-0.37001,1.066971,-0.656359,-0.169607,0.532315
série,0.361146,-0.063893,0.311217,0.821578,-0.494336,-0.430781,1.535219,-0.363554,-0.099943,-0.433365,-0.20471,0.30373,-0.882835,0.08997,0.70047,-0.454187,-0.146675,0.143233,0.865488,-0.58667,-1.541375,0.859545,0.151104,0.75486,-0.167832,-0.366686,-1.692202,0.48021,0.693643,-0.73533,-0.147031,-0.41379,-0.495442,0.51691,-0.790782,-0.51274,-0.101711,0.256717,-0.046131,0.234217,0.066361,-0.02061,0.359015,0.331108
somme,0.262195,-0.056533,0.193914,0.630566,-0.110273,-0.769757,0.12933,-0.160245,0.652359,-1.068836,0.373684,0.750142,0.911996,-0.11985,-0.34611,-1.139917,-0.516977,-0.658339,-0.54743,0.242737,-0.438053,-0.446245,0.479649,0.153565,0.069345,0.303756,0.909393,0.714364,0.124669,0.458932,-0.143191,-0.199841,0.24809,-0.394657,0.587647,0.608511,-0.231698,1.079844,-0.899541,-1.370821,0.554886,-0.581554,-0.414835,0.48541
mesure,0.188023,-0.145766,-0.491032,0.240428,0.556851,-1.55797,-0.370386,-0.147968,0.422383,0.480745,-0.17371,0.360969,-1.1007,-1.092975,-0.566358,-1.039493,0.619553,-0.013013,-0.366106,0.648541,0.254327,0.417224,1.109236,-0.156796,-0.061761,0.204227,-0.28847,0.374984,0.221353,0.750738,0.697534,0.077034,-0.432376,-0.832799,0.311799,-0.032889,-0.122102,-0.023725,-0.583438,-0.329719,-0.117966,0.379474,-0.561728,-0.292363
carré,0.089112,0.02097,-0.077413,0.348376,-0.315153,-1.703807,0.168643,0.08243,-0.506622,0.858424,0.403504,0.376021,0.599715,-0.197818,-0.474497,-0.515868,-0.069026,-0.065138,0.077239,-0.408692,-1.126258,-1.133018,0.48381,0.297425,0.211024,-0.415772,-0.254308,0.288948,0.877304,1.112875,0.379808,0.454902,0.54831,-0.625545,-0.359572,-0.413034,-0.649438,0.581448,-0.384168,-0.289729,-0.188612,-1.262795,-0.033972,-0.792656
vecteur,0.442131,0.255659,0.15363,-0.663668,-0.407162,-1.142112,-0.358178,1.270762,-0.461611,1.375371,1.173924,-0.428064,-0.137753,-1.400168,-1.653826,-0.243098,1.241399,-0.6982,-0.88624,-0.151894,0.054322,1.362695,1.465782,1.122794,0.067636,-0.254288,-0.081209,-0.209191,-0.158438,-0.33891,-0.104494,-0.265551,-0.255636,-0.128516,-0.015588,0.853852,-0.145796,-0.365297,-0.33865,0.129073,0.825552,-0.345978,0.430563,-0.226514
connexe,-0.170408,0.034601,0.379209,0.842298,-0.204995,-0.640518,1.275982,0.021179,-0.024892,-0.845559,-0.40937,0.058661,-0.373275,-1.417526,-0.071984,0.362807,-0.287221,-0.020051,-0.212923,-0.675862,-0.346843,0.380064,0.587571,-0.676013,-0.453659,-0.426604,0.863196,-0.316297,0.663124,0.106055,-1.228908,0.797089,0.220574,-0.73777,-0.248601,0.313169,0.252783,-0.663362,0.18505,0.766473,-0.084866,0.170373,-0.133421,-1.07328
classe,0.32165,0.624649,0.136529,0.444322,-0.332349,-0.747003,-0.082155,0.955018,-0.186506,-0.562907,0.459332,-0.161718,-0.594565,-0.407009,0.80594,-0.462653,0.843623,0.064886,0.340933,-0.249705,-0.107706,-0.096729,0.177057,-0.172749,-0.249189,1.07245,-0.155515,0.246272,0.224347,0.38947,0.004186,-0.038095,0.231977,-0.575687,-1.474551,0.671962,-0.175453,0.158058,-0.627727,-0.478768,0.933611,0.685517,-0.073887,0.09096
produit,0.307371,-0.368527,-0.379959,0.315812,-1.180752,-1.890248,0.397351,0.040391,1.229712,0.539181,0.111684,0.085263,0.163234,0.31536,-0.051389,-1.498734,-0.089554,0.707312,0.34567,-0.191903,0.501279,0.352702,0.559061,1.11889,-1.025772,-0.235186,0.047248,0.374242,0.434617,-1.515803,-0.341053,-0.361645,-0.447992,-0.75121,-0.180516,1.418183,-0.10987,-0.686924,-0.879604,0.356611,-0.384079,0.684299,-0.215252,0.255746
égal,-0.133846,-0.250065,-0.242938,0.294476,-0.920303,-1.82349,-0.030956,0.058532,0.26119,0.411745,0.61415,0.296545,-0.402834,-0.796772,-0.650552,-0.322789,0.735338,-0.464139,-0.492642,0.612616,-0.522724,-0.207532,0.655419,0.367616,0.569106,0.874104,0.293359,0.768177,0.185789,1.118933,0.674972,-0.434832,-0.232424,0.21285,-0.090891,0.172101,-0.357204,0.558954,-1.061522,-0.824362,0.629536,-0.07966,-0.807979,0.841827
cercle,0.050781,0.229436,-0.319337,0.869218,-0.045106,-0.881733,-0.856325,0.177707,-1.722057,-0.082516,0.143833,0.328408,0.445825,-0.284397,-0.128691,-0.121801,0.110151,-0.927084,-0.787979,-0.192767,-0.992815,-0.123608,0.113515,-0.297017,0.443624,0.071146,-0.321643,0.233746,0.278046,0.654767,0.014595,-0.049987,0.947657,-0.097268,-0.767738,-0.307403,0.29926,0.174525,0.038403,-0.088758,-0.487378,-0.090734,-0.205163,0.13564
partie,-0.382343,-0.001375,-0.100869,1.363223,-0.170324,-0.980356,-0.21946,0.166879,-0.503502,-0.530602,0.390771,0.247183,-0.633891,-0.612726,0.028274,-1.09432,-0.809883,0.062998,0.250051,-0.134442,-0.194654,-0.681074,0.495023,-0.210455,-0.436802,-0.154542,-0.584244,0.29554,-0.302736,-0.302881,0.105105,0.248615,0.356362,-0.288869,0.268645,0.132713,-0.291421,0.559145,-0.130484,-0.195816,-0.319701,-0.029914,-0.277528,-0.386894
relation,-0.370625,0.121683,0.649366,-0.38367,-0.324775,-0.614759,-1.09722,0.296522,0.326074,-0.648211,0.377026,0.040887,0.120512,-1.116991,-0.920175,-0.760596,0.031966,-0.598082,-0.314894,0.819057,-0.679328,0.406384,0.11151,-0.40311,0.199912,0.034345,-1.253312,-0.478105,0.046009,-0.698782,-0.104289,0.143329,0.127466,-0.128555,-0.436215,0.224597,0.57469,-0.412172,0.385348,0.092028,0.305657,1.182789,-0.819132,0.402553
courbe,0.098469,0.072627,0.666482,-0.515769,0.206938,-2.077651,-0.384417,-0.065272,-0.745159,1.77181,0.315248,0.785332,-0.126837,-0.059739,-1.037871,-0.238705,-0.351678,-0.671696,-0.205735,0.4653,0.144282,-0.286755,0.531613,0.281414,0.727848,-0.012905,0.212265,0.091561,0.515688,0.653634,-0.201905,0.509298,-0.164158,-0.027881,-0.317972,-0.246104,-0.409822,1.151829,-0.881049,-0.394295,-0.221163,-0.483709,-0.219128,-0.537808
différent,0.219524,0.421529,0.003026,1.430781,-0.218558,-1.843735,-0.465215,0.369611,-0.304249,0.130155,0.84111,0.084112,-0.523488,-0.482023,0.17018,-1.269157,0.351478,-0.282543,-0.317268,0.092818,-0.27426,-0.066349,0.714745,0.292538,-0.374775,-0.437445,-0.728747,0.507152,0.038581,-0.530602,-0.10507,-0.455134,-0.039537,-0.365059,0.071102,0.424556,-0.545517,-0.169246,-0.283924,0.504519,-0.125776,0.600696,-0.45793,-0.303886
complexe,-0.217094,0.095641,0.081426,0.78249,-0.212117,-1.47469,-0.772933,0.862681,-0.138793,1.172499,0.68608,0.198447,-0.235993,-0.240076,-0.360321,-0.837394,0.094351,0.008005,-0.610269,-0.207537,-0.18587,0.192133,0.606966,-0.092617,-0.102446,-0.525432,-0.907468,-0.267113,0.081555,-0.664516,-0.512187,0.608507,0.021413,-1.246935,-0.438735,-0.06602,-0.184009,0.097715,-0.238028,0.480094,0.708788,0.250757,0.03481,-0.0028
matrice,0.479694,0.079644,0.747547,-0.485567,-1.354546,-1.38794,-0.298606,0.633747,-0.430695,1.570581,0.931589,-0.155179,1.013056,-0.651357,-0.658701,-0.220324,0.038652,0.645424,-1.18926,0.30077,-0.391314,0.530467,0.951797,0.953387,0.425923,0.109148,0.173035,1.014583,0.087165,-0.289529,0.559902,0.183286,-0.464001,-0.515453,0.466967,-0.001311,-0.06418,-0.432804,-0.723688,0.458597,1.474636,-1.060372,0.132096,0.027531
domaine,-0.823964,0.300391,0.499789,0.912298,0.235996,-0.866893,-0.773065,0.489609,0.186867,-0.462337,0.322094,0.316207,-0.200737,0.108457,0.076874,-1.19605,0.132376,-0.489854,-0.55065,0.004887,-0.209701,-0.336071,0.669986,0.145517,-0.956911,-0.138615,-0.217704,0.070009,0.3838,-0.864783,-0.664469,0.537335,0.735959,0.078428,-0.157422,1.128552,0.377241,0.362139,-0.260508,0.680103,0.14482,0.36052,-1.577376,-0.112464
fois,0.292279,0.167215,-0.158215,0.959269,-0.564615,-0.668185,-0.180344,0.243283,-0.19458,-0.776839,-0.146807,0.509274,-0.660264,-0.228018,0.425941,-0.940628,0.007927,0.070929,0.12555,0.261316,-0.060255,-0.266119,0.355032,0.407788,-0.325269,-0.105993,-0.921607,-0.117084,-0.165036,-0.07494,0.469989,-0.989734,-0.413036,-0.058928,-0.084144,-0.612331,-0.002907,0.561659,-0.569949,-0.758642,-0.193819,0.283276,-0.308526,0.111097
type,0.459745,0.550027,0.318492,0.766145,-0.284454,-1.940316,0.231003,0.059961,-0.247067,1.169519,0.287219,-0.434334,-0.945441,-0.396671,-0.113371,-0.273809,0.514636,-0.066423,0.613379,-0.678301,0.34446,0.414142,1.190069,0.175619,-0.334782,-0.062498,-0.369624,0.324285,0.398857,0.150306,-0.731868,-0.03803,-0.179789,-1.370928,-0.233926,1.124097,-0.307371,-0.068082,-0.91695,0.12428,-0.137626,0.295865,-0.102962,-0.59489
mot,1.027767,0.194932,0.368991,1.160377,-0.242514,-1.459562,0.13736,0.281445,0.059062,0.459111,0.950673,-1.123452,0.561537,-0.251411,-0.079685,-0.33129,-0.331456,0.11823,-0.348325,0.605326,-0.711697,0.094262,0.478936,0.592844,0.549372,0.23465,-0.416418,-0.018185,-0.597465,0.447272,-1.248573,-0.478393,0.401249,0.480286,0.540291,0.414885,-0.42222,0.395932,0.183164,-0.31264,-0.528387,1.423054,0.398619,-1.201721
algébrique,0.649457,0.526104,1.239242,-0.56797,-0.506167,-1.577846,-0.680797,0.87846,-0.262964,2.181385,0.579237,0.332342,0.298026,-1.186519,-0.07061,0.992655,0.370378,-0.059647,-1.747859,-0.267062,-0.347833,0.446469,0.402017,0.642204,1.042197,1.00174,0.298416,0.397162,0.050949,-0.193256,-0.751755,0.282009,0.270262,-0.038649,0.465278,0.121075,0.303568,-0.190135,-0.818462,-0.070124,1.598078,-0.562532,1.231385,0.967971
degré,-0.322258,0.05156,0.522952,-1.214773,-0.781183,-1.247041,0.184492,0.415204,0.015837,-0.72849,-1.115388,-0.806254,-0.654563,-0.786242,0.382712,0.162903,0.475393,-0.444476,0.038492,-0.08737,-1.105636,0.310678,0.545822,-0.238343,-0.826581,0.693134,1.019179,-0.177699,0.742249,1.473289,-0.426376,-0.003895,-0.441006,-0.134899,0.019738,-1.098387,-0.587108,0.407374,-0.880143,0.334011,-0.606569,-0.321865,-1.07474,-0.387954
langage,0.603713,0.29509,1.879526,0.467479,0.708863,-1.460682,-0.486603,1.062167,-0.257308,1.300372,0.772024,-0.309396,0.235,-0.113984,-0.078955,-0.338323,0.38142,0.466685,-1.150581,0.175546,-0.223356,0.878428,0.266283,0.446716,0.232667,-0.434585,-0.319421,0.248264,-0.156038,-0.527184,-1.348014,0.181858,-0.366915,0.953796,-0.110683,0.200163,-0.454732,-0.865369,0.15421,-0.113723,0.312008,1.636705,-0.690152,-1.136116
nul,0.723136,0.548953,-0.233912,0.371293,-1.634869,-0.926465,-0.009767,0.902799,0.188081,-0.584516,-0.077411,0.506774,0.017254,-1.494334,-1.282952,-0.789351,0.418118,-0.221395,-0.452336,1.311449,0.181082,0.165023,1.164181,0.655304,1.262698,-0.053932,-0.126927,0.029765,0.149833,0.560861,0.294755,-0.321884,-0.472175,0.375542,0.45594,-0.694901,-0.045856,0.113207,-0.146652,-1.367615,0.623179,-0.246925,0.955235,0.889088
moins,0.159972,0.058986,0.104595,0.935665,-0.828964,-1.422964,-0.776585,0.098846,0.412255,-0.007633,-0.064804,0.635835,-0.967521,-0.603467,-0.399144,-1.530874,0.427816,-0.17371,0.466578,0.290125,-0.513424,-0.497829,1.022733,-0.02612,-0.459069,0.055116,-0.289916,0.160844,-0.434672,0.54639,0.198908,-0.900145,-0.598527,-0.586726,-0.215052,0.174938,-0.650502,0.284075,-0.562548,-0.666564,-0.532343,0.427846,-0.295424,0.174907
objet,0.030579,0.017536,-0.191219,1.483801,0.741972,-1.254083,-0.634607,-0.241199,0.714704,0.837993,-0.118521,0.703881,0.285053,-0.858137,0.73823,-0.544806,0.395889,-0.184805,-0.833924,-0.137595,-0.991841,0.862708,1.316241,-0.087528,0.24516,-0.321295,-0.842495,0.568796,0.287556,-0.350577,-0.684795,-0.732062,0.19012,-1.158869,0.598747,0.006177,0.475625,0.020571,-1.118125,0.271382,-0.506476,-0.068639,-0.28936,-0.802699
triangle,-0.130119,-0.689535,-0.556373,0.372477,0.026703,-1.072737,0.597896,-0.629882,-1.475653,1.055781,0.825661,0.540678,-0.061352,-0.193683,-0.285836,0.67026,-0.286497,-0.295399,-0.04184,-0.203129,-0.6152,-0.008906,0.72564,0.117687,0.94527,0.450196,-0.816999,0.40462,-0.09392,-0.126024,0.354104,0.677724,0.43123,-0.043637,-0.098115,-0.087207,-0.038893,0.058954,0.039736,0.415703,-0.251812,-0.659203,0.255743,0.011231
structure,-0.227456,0.800084,-0.061353,0.812846,-0.060154,-1.617881,-0.657971,0.074325,-0.894586,1.251348,0.653621,-0.082854,-0.392809,-0.669245,-0.256941,-1.613114,0.427868,0.352401,-0.680931,-0.31556,-0.326455,-0.217254,0.182549,-0.261057,-0.087133,0.027228,-0.464408,0.471189,0.374528,-0.483799,-0.239087,0.630616,0.092822,-1.564867,-0.242762,0.32013,0.316344,0.038198,-0.145601,0.496637,0.692464,-0.059507,-0.453853,0.034323
corps,-0.163963,-0.302377,0.15252,0.631776,-0.200966,-0.091227,-0.43183,-0.016546,-1.377413,0.306406,1.049147,0.383076,-0.241487,-0.74961,0.402007,-0.993911,0.698992,-0.358631,0.478799,0.613972,-0.693792,-0.134661,0.215431,0.97071,-0.427337,0.909925,-0.991158,0.1695,-0.027848,0.375705,0.237341,0.518641,0.398739,-1.680652,0.160254,0.17905,0.038691,0.077954,-0.825269,-0.463952,0.236991,0.173137,-0.448479,-0.685179
rapport,0.010072,-0.200449,0.098336,-0.001369,-0.012895,-1.509584,-0.4666,-0.70415,0.638383,0.126313,-0.06448,0.346642,-0.807468,-1.029175,-0.632934,-1.298373,0.368657,-0.59655,-0.814326,0.13295,-0.32681,0.303782,0.901862,-0.461897,-0.157064,0.323667,-0.579615,0.288113,0.612878,0.658813,-0.373362,-0.414212,-0.263078,-0.558308,-0.205622,0.222988,0.066393,-0.050234,-0.360288,-0.238996,-0.024774,0.24275,-0.673951,0.017446
longueur,0.920935,-0.174046,0.182939,0.340811,-0.033877,-2.134717,0.398379,0.494773,-0.451822,0.929469,0.284499,0.845534,-1.170561,-0.661466,-0.999778,0.09632,-0.647177,-0.704776,1.034069,0.30515,-0.043843,-0.306232,1.158071,-0.599606,0.005641,0.045102,0.508778,0.599488,0.589692,1.338874,0.849929,0.190414,0.198224,-0.394674,-0.379128,0.035444,-0.922944,0.925661,-1.612117,0.013864,-0.376745,-0.40857,-0.4891,-0.607458
informatique,0.786666,0.106531,1.061935,0.275018,0.662477,-1.339331,0.204532,0.727843,-0.22393,0.787879,0.699578,0.854319,-0.301428,0.588357,0.543032,-1.564615,-0.219856,0.384785,-0.608644,-0.275937,0.378168,0.967842,0.871486,0.536153,0.111956,0.017624,0.151252,-0.69079,0.938234,-0.799581,-1.183922,0.063586,0.506913,0.643939,-0.197198,0.839197,0.62211,-1.460214,0.224478,1.033076,0.662128,0.445227,-1.421878,-0.562515
infini,-0.060554,-0.440927,0.225215,0.351975,-0.035376,-0.426077,-0.295832,0.550199,0.137156,0.936673,0.682677,0.28282,-0.063586,-0.704924,-0.783837,-0.019185,0.069349,-0.292705,-1.219283,0.932752,-1.143062,0.790039,-0.383314,1.211971,1.472735,-0.344478,-0.016409,0.626129,0.390866,0.197405,-0.140596,0.365566,-0.470313,0.273395,-0.438978,0.026053,0.479358,0.243062,-1.542881,-0.324675,0.226318,-0.264607,0.284321,-0.313387
variété,0.406173,0.611871,-0.497876,0.164151,-0.423901,-1.381176,0.318829,0.869768,0.933713,1.045929,-0.447483,-0.490996,0.429547,-0.015832,-0.695503,-0.232114,0.836108,-0.356262,0.242717,-0.059748,-0.03513,0.16623,0.419464,0.286152,-1.506448,0.214224,0.106455,0.973598,-0.590334,-0.967771,0.577632,0.21211,0.265801,0.111704,-0.555281,0.315318,-0.686863,-0.150353,0.024496,0.296096,-1.223833,1.083037,0.898844,-0.560301
ligne,0.572349,-0.103884,1.291496,0.383685,0.170144,-1.345631,0.149346,0.513377,-0.967665,-0.85625,-0.410874,-0.004715,-0.434763,-0.069595,-0.38967,-0.698459,-1.615723,-0.762822,0.385451,-0.8871,0.25271,0.22139,0.560947,-0.985513,0.092678,-0.086454,-0.643124,0.123757,1.263279,0.517552,-0.021774,0.865293,-0.128301,-0.226965,-0.26232,0.459078,-0.830365,-0.215672,-0.225593,-0.964344,-0.552976,-0.120176,-0.219706,-0.548697
positif,0.546812,-0.120851,0.139738,-0.048024,-0.840554,-0.386985,-0.240655,-0.243352,0.576078,0.797929,0.141271,0.072798,-0.500837,-0.83105,-0.944319,-1.190234,0.57491,-0.574283,-0.533898,0.329625,0.128806,0.566881,0.008889,0.231344,-0.092458,-0.259153,-0.041923,0.511897,-0.219162,0.027882,-0.535769,-0.790692,-0.816131,0.086797,-0.630504,-0.305183,-0.540532,-0.186434,-0.169271,-0.69002,0.307126,0.259149,-0.881705,0.119292
angle,-0.422786,-0.466455,0.218981,-0.022639,-0.153404,-1.467743,-0.072488,-0.170465,-1.409961,1.462705,0.263364,0.758038,0.11405,-0.226629,-0.889384,-0.575518,0.382245,-0.719465,-0.100156,-0.441403,-0.152364,-0.299926,0.63303,0.027771,0.913851,-0.172134,-1.100868,0.252026,0.727564,0.660223,-0.21955,0.460127,0.531873,-0.669293,-0.061082,-0.508335,-0.720136,1.20475,0.076247,-0.512612,-0.120921,-1.051776,-0.642269,-0.591343
polynôme,-0.508256,0.333287,1.230544,-0.691284,-1.716369,-0.564805,0.48358,0.671267,0.380368,1.877593,1.82056,-0.315689,0.912734,-1.277781,-0.42705,1.523337,0.196049,-0.236721,-0.724835,1.073117,-0.727401,0.220818,0.997615,1.107366,0.340542,0.995716,0.241344,0.772411,-0.408757,0.127748,-0.621593,0.45889,-0.021697,0.107473,-0.135954,0.578608,-0.224971,0.337847,-0.836169,-1.060762,2.482755,-1.171137,0.59959,1.66102
centre,-0.412531,-0.410507,-0.558711,1.243932,0.312065,-0.814855,0.177322,0.479249,-1.005375,-0.311154,0.499026,0.637794,-0.079584,-0.422499,-0.375849,-1.358926,-0.419197,-0.361058,-0.232907,-0.394436,0.029068,-0.277543,0.20595,-1.314771,-0.560542,-0.580011,-0.13959,-1.022525,0.590547,-0.195777,-0.176024,0.919211,0.926426,-0.807378,-0.636557,0.063429,-0.366817,-0.427975,0.401234,0.125982,0.010882,-0.118069,-0.494813,0.107521
démonstration,0.622685,-0.147639,0.234267,0.030987,0.568044,-0.567023,-0.718569,0.541973,-0.12545,0.232254,-0.112529,0.622235,-0.400463,-0.207715,0.641222,0.054164,0.868502,-0.885932,-0.770739,0.172108,1.038207,0.285356,-0.236166,0.645254,0.389682,-0.572597,-0.555797,-0.11688,0.283075,-0.542608,-0.465684,-0.496236,-0.288684,0.033687,-0.205829,0.145941,-0.560261,-0.131278,-1.043676,-0.277499,0.077492,0.50112,0.374421,0.164651
vectoriel,-0.502772,-0.437331,1.377786,-0.769265,-0.776508,-1.636573,-0.253547,0.750191,-0.705038,1.161516,1.577268,-0.168063,0.557451,-0.495547,-0.095801,0.014859,1.042668,0.567921,-0.702278,-0.301024,0.379783,1.517152,1.022087,1.540564,0.332926,-0.381417,-0.012271,0.970126,0.78502,-0.333412,-0.039174,-0.011497,-0.04933,0.106867,0.274096,0.043853,-0.07309,-0.576851,-0.376813,0.448161,2.134994,-0.532746,0.796645,-0.570982
limite,-0.561321,-0.558234,0.358016,0.985011,0.274157,-1.354152,-0.244252,0.138108,-0.070374,0.298322,0.226413,0.57518,-0.836141,-1.010733,-1.341229,-0.912133,-0.921952,-0.738263,-0.006306,0.396038,0.148234,-0.302085,0.677068,-0.185096,-0.00884,0.039631,-0.076601,0.785825,0.114771,0.350604,-0.394995,0.638481,-0.142499,0.153853,0.349757,0.362432,0.074921,0.682975,-0.782978,-0.28201,-0.101568,0.189604,-0.362128,0.061501
représentation,-0.128503,0.234178,0.064284,1.241578,-0.288917,-1.294338,-0.704273,0.001134,0.435946,0.336056,0.549101,-0.012894,0.348079,-0.585839,0.543357,0.034379,0.442141,-0.643141,-1.028499,0.61519,-0.773702,0.28339,0.559477,-0.346213,0.367609,-0.562274,-0.701141,0.545388,-0.18429,0.18053,-0.100451,0.539817,-0.043502,-0.155705,-0.197046,-0.655921,-0.716527,-0.665101,0.202483,-0.343853,0.255342,0.373551,-0.436514,-0.514708
famille,-0.736495,0.547263,0.288389,0.40007,-0.286065,-0.273841,-0.851096,0.153708,0.573755,-0.824599,-0.146034,-0.489799,0.875802,-0.443026,0.139975,0.00608,0.220107,0.363012,0.775758,-0.049766,-1.090118,-0.101729,1.156692,-0.098449,-1.762351,0.252551,-0.400759,-0.399216,-0.481616,-0.367858,0.364462,-0.227278,0.773563,-0.130747,-0.189932,0.106642,0.211608,0.62909,0.246424,-0.305192,-0.316358,0.237162,-0.599658,-0.582081
arête,0.290223,-0.108168,0.390545,-0.575339,0.193957,-0.641997,-0.435824,-0.151884,-1.513998,1.763667,0.373441,0.162872,0.15617,-0.400835,-0.92604,0.082798,-0.649682,0.348195,0.161013,-0.03682,0.572054,-1.351115,-0.111372,-0.189623,0.320768,0.210956,-0.503685,0.628619,0.366902,0.955916,0.836417,-0.109843,0.049178,-0.471996,-0.464708,-0.425332,-0.29647,2.022224,-0.053968,0.510175,-0.206967,-0.814024,0.623504,-1.061578
distance,0.500671,-0.258195,0.171893,0.405037,0.159834,-1.219128,-0.432142,0.600265,-0.671268,0.290557,0.241701,0.931117,-1.32876,-0.951518,-0.685952,-0.48593,0.117135,-0.542102,0.398249,0.034568,0.115834,0.658802,0.962555,-0.735005,0.789157,-0.14549,-0.08528,-0.229976,0.693596,0.679615,0.0548,-1.022987,0.019407,-0.086707,-0.157681,0.169665,-0.437347,0.684784,-1.519056,-0.410046,-0.088357,-0.232519,-0.423275,0.024027
surface,-0.459363,-0.140656,-0.383054,0.211641,-0.348062,-1.323135,-0.184969,0.434216,-0.629478,1.224979,0.496031,0.958831,-1.09028,-0.132226,-0.962239,-1.427576,-0.048938,0.173056,0.216121,0.143975,-0.069926,0.346763,1.024674,-0.256854,0.006367,-0.163649,0.133137,0.357344,0.434862,0.357519,0.414582,-0.09832,-0.226292,-1.632814,-0.146716,0.426197,-0.409703,0.335308,-1.705144,0.061676,-0.771085,-0.840545,-0.163288,-0.468466
aléatoire,0.287739,0.830426,0.676394,-0.216975,0.547681,-0.878252,-0.991555,0.466971,-0.081206,1.115749,1.029329,0.365654,-0.25507,-0.1533,-0.874059,-0.819742,0.345023,-0.461814,-0.632735,0.093833,-0.095589,1.05349,0.880202,1.079165,0.713406,-0.798645,0.241461,1.216673,-0.150007,-0.241958,-0.181045,-0.993752,-0.82532,0.028924,0.619213,0.043113,0.22956,-0.072278,-0.592441,0.235,0.473693,-0.265813,0.436555,0.211848
naturel,-0.812167,-0.179399,-0.360799,1.219356,0.172849,-0.473446,-0.554672,0.659938,0.562851,0.363816,-0.034658,0.43608,-0.578622,-1.336087,-1.240041,-1.231194,0.032913,-0.175924,-0.566702,0.38025,-0.220277,-0.077391,0.571871,-0.416392,-1.15623,0.392725,0.950788,0.413269,0.37643,-0.743076,-0.466466,0.993286,0.193805,-0.641565,-0.385004,0.682966,-0.27124,0.530584,-1.035734,0.102973,-0.714078,0.662389,-0.095979,-0.821676
normal,-0.033493,-0.254905,0.790796,0.145892,-0.045373,-1.170607,-0.690212,0.80814,-0.732756,0.92388,-0.248885,0.329744,-0.927732,-0.402778,-0.127736,-0.918885,-0.37441,-0.817534,0.327708,0.483073,-0.55181,1.09964,-0.342654,0.470503,-0.327774,0.356406,0.55592,-0.300944,0.597623,0.571872,0.401772,-0.168263,0.0701,-0.539955,-0.454254,0.487123,0.402664,0.40859,-0.223267,-0.023712,0.478699,0.589071,-0.444725,0.394426
arbre,-0.316177,0.174508,-0.417562,0.736372,0.460122,-0.911224,-0.036115,0.202114,-0.025249,1.118226,0.649202,-0.09084,-0.039832,-0.826674,-0.936103,-0.091744,0.386298,0.409574,0.109837,0.314431,-0.257092,-0.536147,0.752234,0.595777,-0.810759,-0.670341,-0.024242,-0.408441,0.379344,0.227145,0.589839,-0.021256,0.10564,-0.912444,-0.756561,0.380048,-0.490279,0.731967,-0.71916,-0.43486,-1.536132,0.25377,0.556912,-1.360144
démontrer,1.039318,-0.017899,0.095886,0.141492,0.22845,0.056889,-1.234875,0.143806,0.61999,0.754411,-0.231743,0.482697,-0.164161,-0.701013,-0.582678,-0.80117,0.933815,-0.28471,-0.555364,0.794782,0.481028,0.160273,0.678718,0.167234,-0.2294,-0.040178,-0.659098,0.196644,-0.692328,-0.401621,-0.658495,-0.229202,-0.231132,-0.428752,0.117315,0.455961,0.078549,0.291788,-1.003007,0.008324,0.335251,0.445774,-0.609029,-0.019282
algèbre,0.213945,0.536144,0.931138,-1.184037,-1.476573,-1.84793,-0.981161,0.396954,-0.347605,2.09461,0.800303,0.265603,1.019616,-1.572359,0.287787,0.786981,0.891424,0.773738,-0.620332,0.613125,-0.275774,-0.188967,0.396034,0.692108,0.652122,0.564947,-0.04563,-0.14198,0.438391,-0.532394,0.206574,0.971539,1.080323,0.302993,0.009029,0.824784,0.225506,-0.504838,-0.466074,0.641613,2.245397,-1.268968,0.894327,0.19742
règle,-0.008991,0.561559,1.103428,1.154809,0.387768,-1.585903,-0.314873,0.363878,0.283017,0.433964,0.114212,-0.019272,-0.032255,-1.297304,0.207344,-0.583837,0.334505,-0.200098,-0.60216,0.755533,0.061337,-0.831873,0.271241,0.719416,0.431032,-0.077207,-0.761039,0.401159,0.628813,0.474758,-0.611551,-0.696285,-0.945279,0.181965,0.938698,0.771806,0.15276,0.025021,0.264233,-0.169623,0.247323,1.227524,-0.54806,0.541833
volume,0.167639,0.771146,0.743451,-0.232128,-0.545467,-0.499969,1.184107,-0.297353,-0.197192,-0.292614,-0.817732,-0.823153,-0.786042,0.246,0.371095,-0.996043,-0.224199,0.774013,-1.094203,0.406042,-1.198958,1.172249,-0.565082,-0.116688,0.300204,0.11767,0.54728,0.984543,0.489258,-0.217955,0.470143,0.370775,-0.345379,-0.977137,-0.269948,0.490379,-0.322345,0.732185,-0.219376,-0.389098,-0.612416,-0.112718,-0.522313,-0.90386
calculer,0.054106,0.11459,0.430752,-0.517226,-0.1698,-1.772589,-0.140174,0.532847,0.506947,0.689031,0.288945,1.055083,-0.405427,-0.581847,-0.287555,-1.220476,0.400481,-0.377137,-1.123946,0.873144,0.276625,1.054226,1.399198,0.136484,0.718035,0.014909,0.92276,0.583522,0.770717,0.538422,-0.18362,-1.526144,0.113154,0.29043,0.583693,0.164026,0.217866,1.160441,-1.541008,-0.098241,0.690261,-0.718294,-0.29953,0.506573
constant,-0.250501,0.479698,0.206922,-1.136776,-0.166662,-1.540262,-0.597129,0.431348,0.103982,0.193026,-0.076631,-0.338389,0.251752,-0.620679,-1.35551,-0.505237,0.631635,-0.913047,-0.539048,0.367704,-0.476053,0.536563,0.149387,0.558759,-0.031708,-0.415439,0.62725,0.173678,0.1158,0.189151,-0.595306,0.221166,-0.040558,-0.35451,-0.099098,-0.185969,0.318676,0.725708,-1.424374,-0.677356,0.49616,-0.380115,-0.802043,0.275131
quatre,0.441729,0.194357,-0.500719,1.329402,-0.284043,-1.402597,0.143925,0.006277,-0.621027,-0.534079,0.347408,0.150761,-0.659957,-0.392647,1.003943,-0.767757,-0.167376,-0.158144,0.28975,-0.031925,-0.405652,-0.912921,0.448918,0.281479,-0.465269,0.188466,-0.724023,-0.150491,0.617407,0.49251,0.881089,-0.552136,-0.081412,-0.408522,-0.194266,-0.345991,-0.619761,0.785872,-0.448517,-0.396517,-0.032609,-0.492714,-0.267962,0.094834
différentiel,0.500118,0.433477,0.56384,-0.848573,0.019687,-1.155468,-0.674363,-0.249457,-0.867994,1.889749,0.350845,-0.175851,-0.833489,-0.92432,-0.928129,-0.24701,0.465653,0.272788,-0.323963,0.534847,1.030416,0.276443,0.887372,1.412156,0.063811,-0.452036,0.566792,0.28016,0.935041,0.614664,-0.437606,0.090972,-1.133649,0.248849,-0.190239,0.371451,0.268758,0.358759,-0.571482,0.679802,0.760259,-0.519151,-0.774352,0.331245
hypothèse,0.671192,0.479025,0.768003,0.378642,-0.141416,-0.262397,-1.092571,0.007963,0.643128,0.903913,-0.244797,-0.269971,0.122604,-1.317817,-0.759814,-0.606965,0.082945,-0.307599,-0.790299,1.08536,0.200458,0.136781,1.018712,-0.392587,-0.274708,-0.279896,-1.289645,0.202709,-0.80058,-0.176783,-1.299769,-0.447473,-0.218333,-0.23788,0.310827,0.517697,0.579159,0.995139,-0.83692,0.439176,0.131017,-0.350602,-0.332549,-0.425021
image,0.032678,-0.519877,0.449273,0.486748,-0.465755,-0.801445,0.253399,-0.097111,0.053355,0.211056,0.336069,0.39143,0.16642,-0.066612,-0.306609,-0.526592,0.415381,-0.257484,-0.302344,-0.143684,-0.57056,1.007606,0.116321,0.164423,0.488615,-1.454776,-0.924897,0.92545,0.384358,-0.705232,-0.402239,-0.178734,0.135435,-0.270638,-0.0241,-0.694457,-0.64792,-0.661067,-0.465672,0.227562,-0.310336,0.339644,-0.625769,-1.042211
régulier,-0.02281,0.210293,0.006157,0.414748,-0.498562,-0.901383,0.46038,0.625631,-0.77117,-0.136816,0.278845,0.396503,-0.428074,-0.184254,-0.189713,-1.368904,0.312569,-0.807539,-0.175534,0.180847,0.160241,-0.535692,0.558047,0.211996,-0.237393,-0.378553,-0.273574,-0.030592,0.146518,0.455683,0.432185,-0.579799,-0.755191,-0.310475,0.014983,-0.186834,-1.169378,0.754479,0.714536,-0.247228,0.020129,-0.48014,-0.072018,1.136281
complet,0.999701,0.91623,0.396054,0.405441,0.388594,-1.136489,0.044197,0.337955,0.209183,-0.157676,-0.246563,-0.162104,-0.461434,-0.335404,0.387168,-0.770213,0.104703,0.162906,-0.484536,0.311822,0.018038,0.089129,0.159563,0.612839,-0.001585,-0.512134,-0.316371,0.196376,0.743805,-0.302581,0.284949,0.255904,-0.483242,-0.278525,0.050563,-0.357203,-0.199495,0.347082,-0.041589,0.181133,0.275352,0.181636,-0.141426,-0.619477
racine,0.49537,0.470574,0.113707,0.278755,-0.606334,-0.715749,-0.277871,0.695223,-0.24309,0.90665,0.550735,-0.899226,0.560256,-0.590844,-0.655697,-0.225734,-0.488249,-0.330184,-0.345242,0.189724,-0.967171,-0.125656,0.277337,1.011066,-0.206381,0.697224,0.060084,-0.636424,-0.746161,-0.101721,-0.293536,0.640634,-0.27666,-0.091289,-0.716429,0.353198,-0.245,0.50246,0.004022,-0.311352,-0.92627,0.36222,0.091332,-1.165429
coefficient,0.08097,0.594066,0.71214,-0.830925,-1.974649,-1.64649,0.297268,0.361074,-0.182248,0.937158,0.657348,0.277906,-0.433896,-1.002475,-1.211343,-0.381832,0.354619,-0.860177,-0.668596,1.508749,0.32521,-0.051202,0.318681,0.813265,0.756191,-0.304065,0.91074,0.404374,0.84821,0.414533,-0.226102,-0.207265,-0.02843,-0.085087,-0.278698,0.464521,0.155533,0.422547,-0.858943,0.463743,1.10541,-0.225002,-0.004285,1.122755
côté,0.087404,-0.562917,-0.302466,0.377388,-0.03876,-0.700102,-0.080747,0.036375,-0.620031,0.037336,0.760116,0.307518,0.299715,-0.13702,-0.362511,-0.606901,-0.34447,-0.139113,0.855869,-0.489511,-0.422281,-1.084352,0.047897,-0.098126,-0.308756,-0.113629,-1.671294,-0.145684,-0.026104,0.019962,-0.004458,0.019562,0.407934,-0.207463,-0.318007,-0.941626,-0.538882,0.719384,-0.216255,-0.360406,-0.306617,-0.102076,-0.608375,-0.59804
preuve,0.772108,-0.289057,0.560006,0.481546,0.178829,0.297667,-1.016615,-0.740538,0.818178,-0.091141,-0.169648,0.642251,0.341607,-0.808659,-0.267095,-0.986157,0.980436,-0.377804,-0.242256,0.924923,-0.345084,0.038309,0.653252,0.358883,0.277429,0.11681,-0.898534,0.126662,-0.379886,-0.508684,-0.752403,-0.381819,-0.291574,-0.197589,1.067915,0.600194,-0.149798,0.550259,-0.366497,-0.051919,0.322267,0.707022,-0.508366,-0.09727
axiome,-0.151566,0.208566,0.185488,-0.16528,-0.387723,0.24868,-0.860586,0.503814,0.124867,1.060423,0.446964,-0.421437,0.650713,-0.99634,0.694922,0.565991,0.382889,-0.074045,-1.467992,0.750876,0.910003,-0.131637,-0.104805,0.835494,1.088511,1.069176,0.19853,0.383347,0.336323,0.232255,-0.711038,0.29919,-0.378552,1.102294,0.158731,1.040546,0.304844,-0.194889,-0.216663,-0.069411,0.995676,-0.782474,0.397539,0.355247
$\mathbb{R}$,0.455534,0.303221,0.534389,-0.161036,-1.176697,-0.952962,1.66734,0.289264,-0.070195,0.606641,-0.27534,-0.805419,-1.095501,-0.229421,-0.187903,0.432572,0.004466,0.815891,0.755174,-0.340364,-0.106614,0.717005,-0.265885,-0.515731,0.433459,0.507692,-0.15284,-0.043327,0.358924,-0.031688,-0.379978,-0.031617,-0.179998,-0.21078,0.318987,0.140637,-0.14153,-0.211779,-0.929558,-0.584042,0.801336,-0.004357,-0.102897,0.195717
continue,-0.056506,0.02468,-0.430964,0.093935,0.101354,-0.650617,-0.681066,0.222692,-0.324512,-0.444767,0.108646,-0.108178,-0.704315,0.176342,0.00164,-1.209677,-0.25833,0.098283,0.015155,0.363854,-0.056075,-0.115429,-0.381456,0.415464,-0.241004,-0.197255,-0.728051,-0.316999,-0.415544,-0.401536,0.454091,0.031576,-0.220696,0.082996,-0.25125,-0.134361,0.042973,0.428836,-0.152782,-0.140006,-0.008063,0.155078,-0.757921,0.292471
résoudre,-0.092769,-0.127372,0.796283,-0.246263,0.485895,-0.338483,-1.212926,0.387656,0.213527,-0.121186,0.522934,0.440482,0.113528,-0.468193,-0.221063,-0.808903,0.048159,0.204794,-0.254493,0.841864,0.279111,0.213365,0.605594,0.777625,0.259281,0.085503,-1.336546,0.312972,-0.072118,0.193902,-0.226537,-0.552337,-0.578835,0.184122,0.347117,0.293887,0.833472,-0.115764,-0.688391,-0.404794,0.473659,0.313878,-0.429449,0.029576
arithmétique,0.595441,-0.14836,1.0969,-0.722331,0.022345,-1.690908,-0.586089,0.888433,-0.401178,1.056107,0.445421,0.350237,0.000488,-0.115498,0.613291,0.189923,0.550575,-0.126415,-1.973001,0.577519,-0.257839,0.180736,0.529159,1.308632,0.845692,0.902952,1.087547,-0.084695,-0.307498,-0.016024,-0.166791,0.747331,-0.095664,1.284926,0.429994,0.574747,-0.559561,-0.136655,-0.578655,0.253461,1.191133,-0.432013,0.217088,0.142727
conjecture,0.603634,-0.175403,0.850369,-0.81856,0.212116,0.478167,-0.942537,-0.289112,0.579054,1.180882,-0.530769,0.225455,0.550965,-0.33655,0.231839,0.451517,0.02052,-0.135455,-1.451012,0.834872,0.518422,0.294477,0.084067,0.124231,0.979561,0.637492,-0.240491,0.616775,-0.740987,-0.297963,-1.056844,0.101085,-0.056201,0.553785,0.302208,0.694101,0.322247,0.74565,-0.453068,0.100919,0.34257,-0.408259,0.613832,0.038126
réseau,0.108141,-0.633271,0.104462,0.31984,0.464257,-1.452129,-0.30414,0.652195,-0.431578,-0.174179,0.918284,0.297402,-0.321018,-0.492915,-1.000868,-1.599248,-1.480259,-0.633331,0.234891,-1.558408,0.02723,0.725482,0.863565,-0.879952,-0.171906,-0.32814,-0.149562,-0.082466,0.868978,-0.50039,-0.296343,-0.213861,0.064822,-0.249009,-0.304224,1.295031,-0.070404,-0.918686,-0.169646,0.156693,0.316712,-0.180936,-0.745743,0.247723
opération,0.685267,0.029845,-0.411766,-0.463065,0.794658,-0.262484,-0.011154,-0.168942,-0.05938,-1.283058,1.104555,0.540901,-0.93349,-0.243978,-0.090842,-1.566906,-0.115045,-0.180176,0.485999,-0.091035,0.50647,0.275073,0.618907,0.813371,0.099968,0.03294,-1.064437,-0.324341,0.067507,-0.406741,0.013997,0.338544,-0.242308,-1.413279,0.603479,0.343646,0.09784,-0.393468,-0.323943,0.453589,0.862261,0.185442,0.388902,-0.054735
chiffre,1.084018,-0.066906,0.056232,0.52266,-0.542414,-1.699834,0.161893,-0.775309,1.464641,-0.281675,0.235295,0.486034,-0.319401,0.425033,0.035669,-1.51271,-0.283862,-0.109956,-0.364053,-0.036423,-0.216006,0.289439,1.533971,0.090229,0.147957,-0.417052,0.592982,0.565445,0.20952,1.027058,-0.215102,-0.576882,0.227594,0.123583,0.037701,0.846061,-0.319187,0.207937,-0.132206,-0.303344,0.415361,-0.662077,0.02421,-0.158034
expression,0.546679,0.019466,0.501164,0.669879,-0.418091,-1.545881,-0.463268,-0.05445,-0.245059,0.569984,0.428268,-0.526136,0.317807,-0.859289,-0.47943,-0.411174,0.409272,-0.495411,-0.632103,0.455874,-0.560714,0.492578,-0.243197,0.486024,0.618249,-0.015702,-0.036452,0.070333,-0.776227,-0.169808,-1.219364,-0.053701,0.092368,0.058612,-0.015017,0.227867,-0.171158,-0.021508,0.30541,-0.001528,-0.074015,1.710474,-0.480855,-0.603817
propre,-0.003363,-0.149036,0.051658,1.187334,0.007428,-1.248371,-0.526828,0.199292,0.16809,-0.058204,0.808784,-0.051643,0.140571,-0.072142,0.16288,-0.822079,0.162257,0.058915,-0.035428,0.309818,-0.203178,-0.058011,0.23358,0.526238,-0.02359,-0.156629,-1.117913,0.217227,-0.080988,-0.674918,-0.301153,-0.293444,0.010136,0.097032,0.086319,0.461162,0.003832,0.117462,-0.515123,-0.240269,0.183611,1.011701,-0.768466,0.070506
principal,-0.375369,-0.274642,-0.350978,0.540287,0.028239,-1.115083,0.238584,0.439247,0.024664,-0.062277,0.298493,0.243425,-0.477466,-0.459761,0.002261,-0.632496,-0.084925,-0.127963,0.053849,-0.449948,-0.374713,-0.319764,0.884896,-0.442239,-0.686363,0.194794,-1.078139,-0.148191,0.234436,-0.385319,-0.437377,-0.249594,0.364839,-0.281117,-0.104807,-0.434952,-0.073779,0.47481,-0.159862,0.489593,0.077086,0.142297,-0.657381,0.106422
paramètre,-1.012066,0.867158,1.026096,-0.510833,-0.29093,-1.932647,-0.522946,1.007422,0.257082,1.358639,0.557116,0.173919,-1.087398,-0.491948,-1.028576,-1.064369,0.287355,-1.163684,-0.484978,0.539234,0.60573,1.333954,0.700202,-0.168726,0.423159,-0.001269,1.058583,1.047149,0.68734,-0.256142,-0.487406,-0.896814,-0.349474,-0.347719,0.926288,0.077135,0.030148,0.361042,-1.339139,0.444019,0.485872,0.105149,-0.323089,0.180527
coordonnée,-0.793869,-0.498288,0.555156,-0.774515,0.149018,-1.198614,0.433764,0.833113,-0.54036,0.290498,1.451327,0.201337,-0.336563,-1.37897,-0.332779,-0.051449,0.088957,-0.712591,-0.868532,0.781293,0.537969,1.341718,1.750119,-0.719961,1.088156,-0.300972,0.46695,0.882276,0.290804,1.097057,-1.009542,-0.142522,0.405491,0.753684,0.803723,0.143373,-0.76032,-0.169688,-0.677474,0.215167,0.868713,-1.255457,0.353106,-0.266297
opérateur,0.96995,0.076386,-0.397774,-0.82624,0.546584,-1.489391,0.552168,0.797218,0.365238,-0.485712,1.023661,-0.285731,0.745736,0.391824,-0.603084,-0.559034,-0.348655,-0.589615,0.969342,-0.574476,0.466844,1.021237,0.941404,0.236228,0.156275,-0.410307,-0.49958,0.437667,0.916598,-0.342962,-0.382204,-0.31618,0.219997,0.316866,0.065076,0.608091,0.309171,-0.591016,-0.613941,1.13929,1.006231,-0.258743,-0.958964,0.741009
numérique,0.674053,-0.228546,0.638781,0.193612,0.013284,-1.229017,0.163133,0.093348,0.025071,-0.267387,0.452175,0.590337,-0.564646,0.202671,-0.104443,-1.667628,-0.036606,-0.389994,-0.74198,-0.514403,0.110524,0.815333,0.250421,0.741357,0.535341,-0.750184,0.001549,0.761029,1.02824,-1.153345,-0.276252,0.272359,-0.057702,1.02997,0.281369,0.610808,-0.56535,-1.780265,-0.343107,0.670648,0.130998,-0.214927,-1.107713,-1.095571
unité,0.244472,-0.315065,0.169431,0.686447,-0.305304,-1.000069,0.101748,0.250457,-1.060063,-0.98846,1.038819,-0.090788,-1.22067,-0.474687,-0.048534,-1.148083,0.403768,-0.425658,0.077428,-0.312756,-0.046554,-0.110691,0.554509,0.211566,-0.499126,0.573606,-0.316563,0.514142,-0.130054,0.497365,-0.238134,0.737911,0.596253,-0.833976,0.473974,1.194155,-0.334632,-0.713248,-1.008086,0.010457,1.184439,0.135211,0.036477,0.384711
liste,-0.233682,0.87942,-0.123977,1.512401,0.070392,-0.913756,1.178258,-0.227274,0.500878,-0.797,-0.47688,0.045994,-0.533445,-1.653858,0.244572,-0.420665,-0.408313,-0.151917,0.414046,-0.734954,-0.141285,-0.015594,0.664504,-1.231326,-0.927407,0.195971,0.635543,0.631059,-0.057311,-0.063052,-0.445857,-0.392725,0.729908,0.101621,0.615254,0.048549,0.174821,-0.188534,0.388794,-0.218136,-0.227713,-0.011868,0.064881,-1.072773
convexe,-0.182659,-0.375743,0.84429,-1.014655,-0.319848,-0.902643,-0.64395,-0.085074,-1.644067,2.5954,0.143964,0.882519,0.333957,0.312054,-1.317586,0.04322,-0.090427,-0.108781,-0.309851,0.121536,0.130476,-0.475967,0.526626,-0.01417,1.067214,0.71907,0.193972,0.510075,0.15808,1.212353,1.488043,0.259534,0.296263,0.121181,-0.365539,-0.576925,-0.156143,0.109983,0.448986,0.543252,-0.665304,-0.56748,0.578064,-0.977715
rationnel,-0.185283,-0.511841,1.454376,-0.128788,0.21505,-0.711588,-1.092778,0.645605,0.115662,1.362149,-0.06963,0.278939,0.392371,-0.965486,-0.343141,-0.403739,1.039234,0.519724,-1.684673,0.018429,-0.232521,0.266855,0.155631,0.635371,0.364045,0.573149,-0.585578,0.491261,0.265806,0.071173,-1.139181,0.361921,-0.360677,0.318127,-0.225252,0.911251,0.168571,-0.309132,-0.66812,-0.526322,0.886612,0.891581,0.210447,0.445168
nœud,0.455043,-0.133313,0.359133,-0.587164,0.234624,-1.239839,-0.23544,0.626775,-0.583538,0.524421,1.237671,-0.200771,-0.449133,-0.280482,-0.470277,0.398358,-0.124537,-0.565823,0.446679,-0.303422,-0.083515,0.265454,1.18791,0.306582,0.670539,0.567604,0.270654,-0.220054,1.070964,1.009283,0.442574,-0.194471,-0.604676,-0.579678,-0.209529,0.696725,-0.989521,0.031348,-1.018886,-0.267833,-0.32418,-0.489359,0.136095,-0.490238
$\mathbb{Q}$,0.399579,0.223301,0.343618,-0.048796,-0.942816,-0.745604,1.247312,0.318577,-0.060339,0.817412,0.561333,-0.549669,-0.397565,-0.23282,-0.114067,0.571945,0.324555,-0.012482,-0.046119,0.18283,0.061053,0.79438,0.268226,-0.094129,0.864311,0.66662,0.101648,-0.32938,0.272644,0.069236,-0.518753,-0.615531,0.34765,0.525095,0.174043,-0.045716,-0.232791,-0.026732,-0.193482,-0.231845,0.702364,-0.103497,0.245057,0.017184
topologie,0.263606,0.221478,1.091056,-0.056869,0.578471,-0.826185,-0.550007,1.072149,-0.720608,2.113395,0.838714,0.582319,0.634462,-0.086596,-1.18743,1.026586,-0.142413,-0.650887,-0.90987,-0.364671,0.831215,0.775518,0.814486,-0.205022,0.59367,-0.391651,-0.003605,0.159481,0.178531,-0.163858,0.043653,-0.491512,0.054765,0.425556,0.105658,0.587254,0.529212,-0.228565,-0.378599,0.435878,0.562577,-0.228374,0.9382,0.668306
origine,0.010105,0.006494,0.054814,0.593987,-0.76149,-1.260964,-0.085167,0.212666,0.399273,-0.414193,-0.125387,-0.681178,-0.012853,-0.259757,0.027096,-0.165887,-0.219636,0.008511,0.284389,-0.236325,-0.673235,-0.655512,1.061738,0.216677,-0.929874,-0.470978,-0.816733,-0.042496,-0.711794,-0.264972,-0.827526,0.425305,0.360099,-0.320427,-0.113992,0.043544,-0.190357,0.243852,0.061127,1.058883,-0.391214,0.525299,-0.659846,-0.502972
distribution,-0.210474,-0.157021,-0.348057,-1.138299,-0.580505,-0.510799,1.536407,0.077399,1.498789,0.167514,0.383548,-0.612669,-0.098099,0.402078,-0.937845,0.159331,-0.234716,-0.155164,1.314927,0.163188,-0.602419,0.619322,1.122426,0.284123,-1.748314,-0.116015,-1.327981,0.810752,1.078623,-1.129452,0.68437,0.623174,-0.108069,0.642514,-0.633726,-1.133961,0.063769,-0.469853,0.209934,1.597143,0.028702,0.268508,-0.373171,0.210894
intervalle,-0.126847,0.664731,0.08632,-0.215953,0.200954,-1.508764,-0.503083,0.214036,-0.219085,0.90414,0.598753,-0.31151,-1.290257,-0.336615,0.053634,-0.584803,-0.060852,-1.029287,-0.347669,0.586508,-0.201373,0.104523,0.305102,0.758108,0.627576,0.104331,0.259557,0.307965,-0.202961,0.959241,0.569881,-0.483154,-0.441743,0.215145,0.348724,0.014233,-0.54881,0.553932,-0.479948,-0.32357,0.234276,-0.696895,-0.290524,0.069416
compact,0.084703,0.296748,0.040941,0.245773,-0.630186,-0.991636,0.249313,-0.032634,-0.550058,1.496677,-0.021194,0.094924,-0.35315,0.626881,-0.42824,-0.22473,0.625685,0.689258,0.321772,-1.245865,0.133647,0.002791,-0.176552,0.0324,0.488336,0.190502,0.140171,1.134406,0.200409,-0.043947,0.469734,-0.371397,-0.46326,-0.309402,-0.519063,0.857169,0.074394,-0.849028,-1.11083,0.333934,-0.414834,-0.569265,0.03858,-0.915291
reste,-0.131346,0.210342,-0.07952,0.947622,-0.418386,-0.825914,-0.927395,0.365841,0.104676,-0.304419,-0.039483,0.421309,-0.253244,-0.213053,-0.196294,-1.304185,-0.12073,0.247171,0.486963,0.35741,-0.238799,-0.669646,0.524427,0.120296,-0.400771,-0.234901,-0.954164,0.176764,-0.460736,0.176505,0.16714,-0.205185,0.134666,-0.456331,0.124666,0.093796,-0.016414,0.575288,-0.259863,-0.654307,-0.106483,0.127139,-0.095744,0.029231
test,1.284167,0.749565,0.870263,-0.165485,0.02853,-0.456438,0.113118,-0.097873,-0.182241,1.046934,-0.191669,0.845883,-1.480935,-0.658451,0.387318,-1.090997,0.800266,-0.063955,0.358141,0.677752,1.225486,0.781905,0.541151,0.442312,-0.209002,-0.118543,-0.19076,-0.12157,0.636527,-0.743684,-0.216302,-0.839274,-0.687697,-0.823387,-0.174498,0.393349,-0.225576,0.01187,-0.228933,0.07145,0.659372,0.408994,-0.189192,0.277992
proposition,0.069985,0.157615,0.038476,0.158599,0.718325,-0.808793,-0.174058,-0.342671,0.947679,-0.30842,0.215812,-0.072492,0.235776,-0.854622,0.266274,-1.099155,-0.186091,-0.85501,-0.759539,0.357898,0.615073,-0.284507,-0.240331,-0.470254,0.030836,0.835964,-1.270202,0.359693,-0.236549,0.082841,-0.077959,-0.20737,-0.539755,0.03159,0.132678,0.010503,0.517218,-0.830681,0.006318,-0.831844,0.559524,0.543379,-0.670792,0.184215
catégorie,1.008158,0.40412,0.054429,1.425766,-0.934747,-0.8493,0.461128,0.01736,0.127569,-0.240518,0.153029,0.389855,-1.120046,-0.640553,0.18156,-0.329957,0.661902,-0.426115,0.062213,-0.360624,-0.212966,-0.344018,0.214398,-0.335794,-0.04299,0.194474,0.184097,0.072572,1.119348,-0.160751,-0.471797,-0.83897,-0.331443,0.226494,-1.039934,0.081752,-0.588733,0.285696,-0.048132,0.901805,0.250582,1.030528,0.118604,0.552509
programme,0.152218,0.193091,-0.61977,0.48191,0.847529,-1.100761,0.157657,0.177167,0.358368,-0.356204,0.584034,0.501472,-1.232309,-0.556859,0.524508,-1.597059,0.316722,-0.254045,-0.649811,-0.460102,0.528037,0.624663,-0.429071,-0.48306,0.039328,-0.264035,-0.70943,0.032435,0.785388,-0.894703,-0.025507,-0.815677,0.008096,-0.000809,-0.96129,0.388119,0.10779,-0.803774,0.027744,0.498726,0.719434,0.417874,-0.663556,0.094498
intégral,0.853231,1.020987,-0.064272,-0.122948,1.202482,-0.342278,0.771839,-0.153844,-0.458431,-0.094365,-0.554841,-1.483104,-0.06533,-1.218075,0.175024,0.187471,0.279819,0.574098,-0.691608,0.589902,0.335404,1.772917,-0.319359,-0.215419,-0.089178,-0.191363,-0.259332,1.227734,1.044075,-0.13755,0.985317,0.701539,-0.572104,-0.042055,-0.912562,0.231056,0.348695,0.286889,0.771595,-0.041456,-0.233741,0.357886,0.34417,-1.476019
complexité,0.21472,0.025583,0.688043,-0.136283,0.810691,-0.872032,-1.301421,0.106289,0.598035,1.241547,0.62905,0.659091,-0.338941,0.176883,-0.890678,-0.994937,1.172006,-0.203453,-1.234992,0.376184,-0.084059,0.271035,0.591352,0.580439,0.857813,-0.296582,-0.119464,0.759532,-0.191326,-0.422398,-1.166818,0.756924,-0.882547,0.139483,-0.271617,0.013961,-0.016528,0.117113,-0.664535,0.565575,0.791121,0.434028,-0.426118,-0.259921
automate,-0.001616,0.017412,0.259823,0.314537,1.538066,-0.422504,-1.034115,0.700072,0.30841,1.383459,0.319357,-0.07682,0.801129,0.665245,0.733896,0.962885,-0.819177,-0.467046,-0.460782,-1.290247,0.296663,0.740164,0.728571,0.913835,0.423915,-0.746718,0.00284,-0.263658,1.454119,-0.060955,-0.79786,-0.788359,-0.64168,-0.090397,-0.257923,0.430854,-0.00304,-0.492294,-0.129825,0.063286,-0.548839,0.111217,-0.13234,0.361129
moyenne,0.206219,-0.467371,-0.198169,0.929159,-0.540703,-1.434314,0.527924,-0.00195,0.095369,0.080028,-0.458511,0.980961,-1.604818,0.303695,-1.32834,-1.568946,0.21473,-0.480138,-0.378576,0.454305,-0.338582,0.363769,1.492931,-0.56827,-0.863938,-0.097557,1.493601,0.269627,-0.191904,1.409152,0.707572,-0.746423,-0.42635,-0.117323,-0.545395,0.078433,-0.886258,0.890761,-0.863606,-0.625102,-0.607168,-0.381372,-0.165799,0.871365
symbole,0.223992,-0.334985,-0.703148,1.413595,-0.718253,-1.446638,0.118941,-0.133741,0.022942,0.207675,0.784057,-0.110685,0.842804,-1.133203,-0.07401,0.906445,0.83224,-0.259757,-0.717203,0.239287,-0.151556,-0.552103,0.62708,0.843487,0.910292,-0.534694,-0.617798,0.143626,-0.669313,0.464111,-0.415547,0.259047,0.650387,-0.539101,-0.030967,0.267839,-0.099015,-0.244012,-0.111962,-0.16797,0.055284,0.688587,0.166944,-1.01756
axe,-0.340922,-0.903764,0.035855,-0.289542,0.216827,-1.429625,-0.505003,0.097904,-1.453032,0.81102,0.160499,0.41759,-1.087992,-0.730192,-1.758262,-0.037126,-0.527951,-1.274427,-0.586374,-1.445214,-0.075351,-0.126589,0.955747,-1.111619,0.469959,0.790712,-1.181532,-0.32168,0.803885,0.283576,0.225861,0.511114,0.184244,-0.558161,0.024581,-0.302242,-0.112866,0.215718,-0.881726,0.340208,-0.102364,-0.443935,-0.506722,0.298443
euclidien,0.115702,-0.032618,1.02813,-0.184892,-0.501929,-0.489336,-0.657113,1.515322,-0.604674,1.516332,1.15251,0.141016,0.86096,-0.834473,-0.23434,1.063345,-0.142947,-0.207313,-0.97417,-0.349433,-0.093709,-0.299321,0.632436,0.388418,1.522235,0.860317,-0.435674,0.895228,1.065362,0.441009,-0.335605,0.378082,0.006539,-0.015688,-0.014762,0.563593,0.09114,-0.271359,-0.362476,0.244043,1.620679,-0.557526,1.500606,0.640012
inférieur,0.05298,0.107205,0.066286,0.947571,-0.644838,-1.615762,-0.599551,-0.202912,-0.373566,0.970801,0.052029,0.833666,-0.859165,-0.660525,-0.700581,-1.168817,-0.14582,-0.44023,0.341134,0.154829,-0.221674,-0.41191,1.152022,0.181131,-0.278601,0.986948,0.688823,0.520311,-0.039764,1.297985,0.823278,-0.078371,0.170322,-1.023886,-0.387418,0.216259,-0.039247,0.936119,-0.446266,-0.504796,-0.040005,-0.370638,-0.644122,-0.526771
dérivée,-0.719028,-0.29234,1.121035,-0.521707,-0.839093,-1.436359,0.305406,0.222919,0.160054,1.180518,0.340676,-0.156567,0.043998,-0.101784,-0.551101,0.751725,0.282645,-0.585596,-1.042035,1.080994,0.856211,0.683991,0.029589,0.675792,0.756583,-0.359676,0.099416,0.705882,-0.47262,0.584272,0.485651,-0.199563,-0.451394,0.815411,0.225084,0.249245,1.183699,0.309588,-0.853863,0.708019,1.911252,-0.737778,0.388289,0.453359
transformation,-0.531716,0.449652,0.220675,-0.018681,-0.327157,-1.320351,-0.099422,0.093724,-0.099302,0.372432,0.173039,-0.08878,-0.122994,0.060274,-0.396224,-1.012974,0.305114,0.354077,-1.169357,-0.075967,0.153054,-0.171714,0.35137,0.757959,-0.477777,-0.572553,-0.325223,0.028558,0.408351,-0.746524,-0.657958,1.108027,-0.240389,-1.024761,-0.298118,0.714163,0.145222,-0.169542,-0.154137,-0.400258,0.137338,0.153937,0.123356,0.645715
anneau,0.249139,0.149765,-0.023235,0.656227,-0.626568,-0.409987,0.231722,0.397389,-0.815823,1.208627,0.947408,0.744688,0.056934,-0.937686,-0.056935,1.001595,-0.186714,-0.304389,-0.297201,0.3411,-0.765087,-0.013315,0.958495,1.055277,1.134757,0.238592,-0.738561,0.769375,0.688458,-0.093338,0.307327,-0.36915,0.01919,-0.647057,-0.084392,-0.096124,0.46271,0.684467,-1.00503,0.609657,0.153139,-0.596014,-0.103651,-0.263946
facteur,-0.141881,0.922752,-0.031253,-0.246957,-0.565808,-0.615679,-1.187259,0.264782,0.357478,0.6287,0.325142,-0.967949,-0.390017,-0.53614,-1.155299,-1.28685,1.06983,-0.445636,-0.623981,0.417056,-0.150667,0.634792,1.064548,0.909187,-0.595201,-0.236,0.672878,0.08897,0.049757,-0.273389,-1.298411,0.147353,-0.597247,-0.720279,-0.009578,0.109383,0.09997,0.514358,-0.435748,0.023434,0.432059,0.080831,-1.405228,0.303265
indice,0.30168,-0.148641,0.235803,0.055334,-1.149811,-0.933682,-0.341114,-0.493503,0.761712,0.971199,-0.203243,0.652849,-0.159866,-0.230667,-0.705279,-1.336587,0.226269,0.020015,-0.486983,1.09999,-0.183483,0.937625,1.404199,-0.31771,0.774773,0.009553,0.401385,0.523997,0.263249,0.253549,-0.563519,-0.336946,0.045892,-0.394978,0.193538,0.789924,0.062345,0.388615,-0.516678,0.242075,0.368269,-0.249708,-0.067185,0.367542
zéro,0.567575,0.032353,-0.284877,0.241078,-0.872207,-0.647408,0.209879,0.289273,-0.153453,-0.060633,0.042396,0.572085,-0.341697,-0.471997,-0.831944,-0.940552,-0.26803,-0.245625,-0.367154,0.577003,0.106378,0.236605,0.628765,0.995193,0.761053,-0.139126,0.128515,-0.175259,0.77039,0.267455,-0.422804,-0.471296,-0.543855,0.425834,0.106164,-0.295485,0.265626,0.082819,-0.224314,-0.664738,0.132893,-0.38972,0.846863,0.759381
sphère,-0.418138,-0.607023,-0.453075,0.207318,-0.51084,-0.85602,-0.818892,0.258526,-0.686219,0.673918,0.923988,0.591676,-0.112134,-0.73464,-0.184447,-0.22395,0.337911,-0.107224,-1.019001,0.118652,-0.699316,-0.34387,0.615957,0.30467,0.86208,0.273405,-0.70978,0.281223,-0.022742,0.279619,-0.222127,-0.233099,0.080914,-0.157519,-0.491289,0.502092,0.599717,-0.344083,-0.685709,0.840307,-0.080456,-0.163357,-0.502855,-0.099778
strictement,-0.332447,0.102922,0.356613,0.128883,0.029509,-1.222265,-1.167493,0.63974,0.099017,0.786995,0.522592,-0.310891,-0.156313,-1.295875,-0.073575,-0.326776,0.43469,-0.095685,-0.427659,0.168645,-0.226149,-0.650011,0.456288,0.199153,0.289135,0.200486,-0.652085,1.194725,0.391076,0.817058,0.023071,-0.386784,-0.339279,-0.07236,-0.002642,1.111195,-0.30794,-0.278687,0.450369,0.543412,0.17831,1.038571,0.055331,0.456728
puissance,-0.13115,-0.656289,-0.076489,0.488969,-0.663023,-1.515338,-0.290902,0.214411,0.199233,-0.618037,0.468432,-0.027787,-1.423828,-0.216242,-1.109912,0.149835,1.065924,-0.140004,-0.365788,-0.116967,0.080453,-0.312483,0.468974,0.942647,0.758834,-0.496946,-0.850687,-0.116002,-0.394905,0.717036,-0.00024,0.131843,-0.41987,-0.577043,-0.209944,0.863334,0.302686,-0.304746,-2.312494,-0.696274,0.542602,0.333227,-1.330571,-0.046632
Euler,-0.223894,0.103895,0.088192,-1.707764,-0.155135,-0.15589,-0.799251,0.214168,-0.136465,1.089284,0.358978,-0.598343,0.82447,-0.469149,0.691969,0.800517,0.031707,0.254797,-1.47095,0.36223,1.015632,0.359307,0.449028,0.54671,0.763881,1.026483,0.872867,0.485586,0.960639,0.440172,-1.149836,-0.285518,0.196588,0.905627,-0.561407,-0.108442,0.783916,0.802529,-0.715026,0.424621,0.433621,-1.255616,-0.598598,0.087631
topologique,-0.387294,0.451155,0.792997,-0.109821,-0.047394,-0.719108,-1.043783,0.150045,-0.450167,1.487782,0.953819,0.386089,0.476285,-0.810131,-0.150851,1.025004,0.944006,0.389908,-0.166856,0.097261,0.572486,0.628383,0.430659,0.503052,1.33546,-0.180427,0.666685,0.878013,0.405877,-0.459079,-0.495551,0.537109,-0.977137,0.400562,0.826032,0.319527,0.422147,-0.509712,-0.591716,1.747577,1.383861,-0.423927,0.876009,0.592721
déduire,0.147909,-0.124673,0.620086,-0.318922,-0.309175,-0.926207,-0.681598,0.378035,0.45268,1.171927,0.3906,0.162029,0.101111,-0.48687,-0.443707,-0.473546,0.083357,-0.215707,-0.894746,1.166058,-0.176927,0.519968,1.24158,0.139218,0.773413,0.326843,-0.268805,0.468208,0.021986,0.37116,-0.371817,-0.870866,0.183615,0.143902,0.819923,0.564932,0.244627,0.947355,-1.009248,0.021768,0.526324,-0.549347,-0.423397,0.497331
composer,-0.005871,0.38917,-0.760077,0.878946,-0.487321,-1.545514,0.488891,0.446981,-0.540614,0.388746,0.848436,-0.893741,-0.301165,-0.226708,0.661984,-0.824099,-0.025057,-0.1273,0.235687,-0.353964,-0.601759,-0.739001,-0.012219,-0.098618,-0.812026,0.692146,-0.451338,0.547849,-0.272286,-0.343328,0.204979,0.013664,0.050438,-0.540326,0.398303,-0.433169,-0.768337,0.014017,-0.598431,0.467377,-0.210494,-0.15879,-0.336598,-0.171524
deuxième,0.494567,0.914739,-0.10093,0.990995,-0.669067,-0.775699,0.311021,-0.081448,-0.473859,-1.129841,-0.271695,0.422172,-1.028174,-0.528676,0.630056,-0.703376,-0.361851,-0.265525,0.31296,0.037403,0.172673,-0.883101,-0.033039,0.324072,-0.20056,0.262391,-0.708085,-0.25294,0.32334,-0.050718,0.483998,-0.273719,-0.144249,0.32135,-0.333461,-0.836235,0.091119,0.786788,-0.229371,-0.778835,0.200927,-0.402112,0.053543,0.250727
rayon,-0.058238,-0.771558,-0.483114,-0.216497,-0.978571,-1.149071,-0.309677,0.452076,-0.951226,1.1453,0.237001,0.673238,-0.570493,-0.522175,-0.321047,-0.456824,0.591552,-0.72751,-0.171378,0.389347,-0.404781,1.499209,0.946712,0.580313,0.559805,0.058236,-0.224568,0.103833,0.560907,0.807521,0.306723,-0.338862,0.695703,-1.01584,-0.355675,0.459232,0.217836,-0.313944,-1.876701,0.167564,-0.228586,-1.146213,-0.364401,-0.403085
caractéristique,-0.528757,0.085099,-0.114381,0.958197,-0.272422,-2.024535,-0.442238,0.240777,0.009381,1.465425,-0.113138,0.339677,-1.05502,-0.610923,-0.533064,-0.018575,0.914546,-0.236677,0.221822,-0.270369,0.131122,0.394264,1.29491,-0.695382,-0.032557,0.104822,-0.568672,0.686033,0.277626,-0.111636,-0.511723,0.128729,0.05697,-0.895062,-0.109353,-0.034057,-0.406839,0.296099,-1.07957,0.62218,-0.460949,0.500407,-0.225678,-0.687319
vide,-0.315219,-0.888282,-0.118693,0.045087,-0.246228,-1.153253,-0.548974,0.222496,-0.008026,0.851362,0.608998,0.081271,0.002433,-0.024802,0.00027,-0.596968,-0.458007,0.498538,-0.115711,0.368482,-0.522121,0.239315,0.250475,0.865688,0.733789,-0.426713,-0.332619,-0.111373,0.684178,0.900613,-0.167727,-0.33788,-0.492166,-1.033878,-0.115769,0.017125,0.111932,0.125648,-1.424877,-0.46172,-0.096678,-0.209712,-0.021873,-0.006445
affine,-0.563496,0.651433,0.714161,-1.174435,0.001807,-0.99248,-0.827607,0.701072,0.02233,2.042597,-0.600659,0.07158,0.363942,0.263261,-0.45379,0.418525,0.761953,0.256982,-0.768801,0.014445,0.605146,0.580002,-0.070399,0.253513,0.256333,0.896235,0.030724,0.858334,0.065579,-0.220215,0.562265,0.486998,0.713849,1.066863,0.233245,0.18706,0.541725,-0.373536,-0.17385,-0.031281,0.486617,-0.296272,1.376887,-0.061216
supposer,0.045237,-0.127887,0.443467,0.226633,-0.389062,-0.555887,-1.175746,-0.025595,0.525747,0.489686,0.499018,0.024658,0.257922,-1.008285,-0.448959,-0.358671,0.395438,-0.215192,-0.214473,0.499692,-0.401251,0.147399,1.041246,0.223834,0.217232,-0.24515,-0.893534,0.039869,-0.674637,0.004638,-0.708403,-0.921847,-0.1453,-0.605855,0.558496,0.387819,0.206402,0.845124,-0.635217,0.177385,0.270312,-0.012598,-0.356599,-0.136349
ouvert,-0.258136,-0.050359,-0.010873,0.847206,0.621227,-1.283871,-0.551931,0.315362,-0.345282,0.406787,0.427129,0.44792,0.311032,-0.642044,0.196135,-0.708228,-0.948088,-0.180304,-0.019202,-0.386448,0.082287,-0.145852,0.140697,-0.380659,0.223653,-0.496644,-0.641768,-0.192206,0.551429,0.285528,0.007907,-0.294243,0.047264,-0.645764,-0.740419,0.129709,-0.206428,-0.053738,0.442805,-0.406713,-0.444306,0.131763,-0.142439,-0.550248
partiel,-0.190854,0.748478,0.047424,-0.092828,0.144254,-1.0367,0.13123,-0.527104,0.224919,0.12252,-0.202272,0.060146,-0.286539,-1.061805,0.085467,-0.612282,-0.775876,-0.213409,0.30254,0.686891,-0.085577,0.531875,-0.346173,0.600962,-0.346199,-0.236186,0.508233,0.717231,-0.066653,0.268833,-0.209044,0.419383,-0.586248,-0.890613,-0.070361,-0.913346,0.758095,0.386644,0.208139,-0.192164,0.886261,0.026772,-0.301303,0.207453
approximation,0.083597,-0.272903,0.983862,-1.535353,-0.156772,-1.386704,-0.32768,0.61034,-0.303395,1.425171,0.081337,0.35067,-0.158033,-0.671873,-0.73475,0.014938,0.121759,-0.568407,-1.142784,0.715857,0.416621,0.655821,0.505634,0.385069,0.894492,0.54409,0.31669,1.114339,-0.247627,0.206012,-0.853077,-0.684446,-0.145255,0.513637,0.760703,0.370661,0.244947,0.932989,-1.207291,0.29314,0.525338,-0.208673,0.285301,0.595299
convergence,-0.099205,0.410102,-0.16882,0.105626,0.17064,-0.683614,-0.817738,-0.799129,-0.93568,0.667761,0.658752,-0.032065,-0.165732,-1.032747,-1.620944,-0.458158,0.577991,-0.356542,-0.667733,-0.090654,0.698458,0.531867,-0.177758,-1.089335,0.921843,-0.194029,0.399818,0.218177,-0.433801,-0.361124,-0.442496,0.400542,-0.594368,0.636781,-0.801817,0.058777,0.716414,-0.619119,-0.037004,0.250999,0.263614,-0.148325,-0.430514,-0.273246
chemin,0.161461,-0.716634,0.071921,0.635096,1.11939,-0.923298,-0.220964,0.767462,-0.354493,-0.841769,0.060872,-0.063023,0.377633,-0.293785,-0.591374,-0.215334,-1.564825,-0.043687,0.497708,-0.341597,-0.233172,-0.355123,0.184825,-0.324807,-0.132652,-0.622589,-0.649759,-0.290052,0.464097,0.220576,-0.303656,1.024231,0.396316,-0.355212,-0.068692,0.6036,-0.285438,0.854313,-0.553663,-0.918051,-0.453537,0.217038,0.401645,-0.125354
rotation,-0.182038,0.182763,-0.385975,-0.513148,0.190528,-1.910142,-0.257681,0.336046,-1.480463,1.070973,0.621725,0.165573,-0.958413,-0.327682,-0.76163,-0.290995,0.628036,-0.629246,-0.740393,0.1921,0.385086,0.80872,0.431863,0.837335,1.232457,-0.070203,-0.141524,-0.217633,0.300666,0.763862,0.823473,-0.658126,-1.178508,-0.631902,-0.238819,0.005694,0.437196,0.760098,-1.310697,0.282108,-0.227867,-0.711651,-0.424859,0.134153
différence,0.561909,0.229758,0.435055,0.655119,-0.890238,-1.405817,-0.569535,0.141042,0.072361,0.655834,0.253378,0.026703,-0.462629,-0.763472,-1.041547,-0.766758,0.495388,-0.160975,-0.644925,0.820767,-0.312873,0.10772,1.021059,0.376486,0.373775,-0.342162,-0.250565,0.562251,-0.092223,0.437124,-0.548788,-0.106074,-0.337431,0.158869,-0.323008,-0.0215,-0.2191,0.191895,-0.379258,-0.32651,0.10873,0.712272,-0.481075,-0.041682
analytique,0.715472,0.356924,1.747848,-0.554647,-0.001953,-0.462729,-0.837954,0.3463,-0.538422,1.045352,-0.300848,0.033823,0.080682,-0.647271,0.366303,-0.790501,0.222552,-0.022414,-2.22165,0.77893,0.201551,0.607608,-0.172906,0.064288,-0.486372,0.279299,0.43363,0.463951,0.403473,-0.275029,-1.423007,0.280366,0.002914,0.141216,-0.427927,0.516189,0.213076,-0.436893,-0.829258,0.630651,0.206864,0.512605,-0.05138,0.009293
formel,-0.038753,0.347975,0.948667,0.062626,0.462897,-1.460937,-1.157305,-0.038022,0.441671,0.383704,0.459983,-0.08403,-0.124305,-0.652021,0.27503,-0.001349,0.649071,-0.856409,-1.105272,0.887351,0.678871,-0.160792,-0.058659,0.275677,0.529924,0.094031,-0.917103,0.74874,0.025855,-0.357136,-0.122286,0.447363,-0.256615,0.109133,0.582087,0.019416,-0.187546,-0.581277,0.139231,0.172872,0.883706,1.303857,-0.352441,0.254941
intersection,0.001415,-1.045371,0.422376,-0.111978,0.416621,-0.897851,0.144719,0.163052,-1.072484,1.002164,0.491067,-0.062262,-0.093362,-1.008086,-0.918706,0.891758,-1.038968,-0.687996,-0.395057,-0.347582,0.171595,0.131217,0.684888,-1.284006,0.896822,-0.12448,-0.881832,-0.030564,0.560339,0.555757,-0.181369,0.822891,0.56786,-0.062184,-0.320416,-0.038096,-0.77699,0.897453,0.032567,-0.401549,0.629645,-0.955172,-0.05006,0.470816
pourcent,-0.184883,-0.394487,-0.547271,-0.105046,-1.794063,-1.594486,0.72191,-1.141843,1.725207,-0.308679,0.518124,-0.101073,-0.875563,-0.490774,-1.25973,-2.176362,-0.293308,0.429121,-0.076728,-0.549967,-0.226024,-0.556822,1.414837,-0.680926,-1.802877,0.378063,1.467446,-0.416134,0.233696,0.940357,0.19952,-0.587016,-0.205647,-0.010271,-0.965612,0.314895,-0.47044,-0.945167,-0.034627,-1.167399,-0.087792,-0.571275,-0.752221,0.411569
caractère,0.081627,0.4548,0.977006,0.960036,-0.232863,-1.590139,-0.938664,-0.048411,0.366,0.802517,0.594551,-0.142597,0.253758,-0.22502,-0.167242,-0.731098,0.793044,-0.520177,-0.356613,0.301001,-0.637387,0.073197,0.726312,0.32337,0.129437,-0.040168,-0.783154,0.817208,-0.50147,0.307201,-0.757577,-0.025017,-0.132794,-0.24731,0.244487,0.086475,-0.512755,-0.350052,0.327498,-0.087465,0.042331,1.406212,-0.050539,-0.706472
raison,0.080013,-0.119162,-0.026396,0.596152,-0.124364,-0.83857,-0.88226,-0.104606,0.597424,-0.334842,-0.353178,0.318338,-0.323324,-0.742217,-0.519079,-1.185812,-0.019915,-0.147812,0.289802,0.624548,0.306768,-0.104004,0.60857,0.594399,-0.148304,-0.249045,-0.989191,-0.02241,-0.309012,0.132885,-0.610748,-0.073682,-0.592335,-0.477001,-0.127059,0.103048,0.37812,0.552764,-0.203495,-0.552946,-0.076105,0.764547,-0.417397,0.140613
aire,-0.814527,-0.719898,-0.161509,1.791023,0.379039,-0.799345,-0.511943,0.777288,-0.778167,-0.259778,-0.701382,0.650283,-0.280926,-1.040329,-0.953051,-0.735164,-0.38897,-0.145952,0.645308,-0.801538,-0.064587,0.633657,0.742597,-0.803534,-0.73353,0.166374,1.282024,0.021307,0.104563,-0.299965,0.640858,1.148677,-0.131143,0.12508,0.41665,-0.083226,-0.690388,0.104621,0.318704,0.501975,-0.210967,0.376596,0.417338,-0.214246
section,0.614272,0.270374,0.292002,0.9447,0.370405,-1.229508,0.247306,0.229212,-1.50033,-0.06735,0.000101,0.110674,-0.31263,-0.481275,0.261709,-0.862241,-0.610921,-0.66083,0.069142,-0.406904,-0.150655,-0.230208,-0.174498,-0.568158,-0.402868,0.350414,-0.175458,0.219919,0.586847,0.291562,0.12345,0.630723,0.459606,-0.733992,-0.210942,0.347574,-0.224136,-0.26919,0.43207,0.079863,0.252325,0.231045,-0.05123,0.340389
cycle,-0.405677,0.724915,0.108282,0.469303,-0.533312,-0.924953,-0.014036,0.633241,-0.464252,0.486025,0.282564,-0.397943,-1.139767,-0.486263,0.649395,-0.850353,0.035995,-0.232343,-1.38268,0.650253,-0.499474,0.324492,-0.29823,0.822434,-0.591007,-0.512115,-0.066741,-0.258159,0.548914,-0.679356,0.086156,-0.134278,-0.58829,-0.664867,-1.170023,0.461372,0.435889,0.664967,-0.516925,0.773751,0.115441,-0.11393,-0.254486,0.564597
source,-0.028288,0.448619,0.543829,0.385038,-0.285882,-0.235037,0.672326,0.291301,0.508339,-0.726066,-0.255925,-0.445208,-0.231356,-0.747612,-0.252428,-0.702787,-0.385709,0.212598,-0.161593,0.277737,-0.38861,0.406993,0.351343,-0.663513,-0.414043,-0.301132,0.455228,0.427988,-0.020757,-0.318852,-0.857663,0.256311,0.418687,-0.589301,0.652991,0.175222,-0.209345,0.369354,-0.142079,0.137574,-0.376724,0.431433,-0.655821,-1.235762
discret,-0.400295,0.353059,0.215756,-0.237474,-0.00102,-0.489408,-1.308964,-0.043721,-0.233275,0.958041,0.334362,0.556229,0.379429,0.03242,-0.778615,-0.763246,1.298158,-0.798969,0.45294,-0.173847,-0.480148,0.259139,-0.048043,0.361429,0.437505,-0.430138,-0.406056,0.560738,-0.063374,-0.04996,0.288497,-0.579206,-0.140136,-0.043742,-0.189785,-0.142711,-0.208445,0.094051,0.047954,-0.13211,-0.012108,0.23164,0.039866,-0.305293
combinatoire,0.120551,0.60919,1.068132,-0.481396,0.463427,-0.89111,-0.831842,0.094117,-0.553769,0.90186,1.054761,0.651205,0.719264,0.448264,0.334948,0.763015,0.885434,0.19291,-1.867128,0.002767,0.555297,0.399164,0.627246,0.893552,0.66044,-0.028722,0.732633,0.301543,-0.106563,-0.591624,-1.288179,0.684605,-0.381478,0.306172,-0.226296,-0.073839,0.346599,-0.650397,-0.567703,0.661939,0.46772,0.170212,1.066727,0.595752
dynamique,-0.636543,0.434311,0.559918,0.195265,0.136737,-1.433548,-0.79812,0.606348,-0.703313,0.724669,0.81013,0.376037,-0.411341,-0.396097,-1.197104,-1.182661,1.04838,-0.294015,-0.830336,-0.064817,-0.09977,0.59106,0.067717,0.042522,0.034771,-0.931666,0.189501,0.118793,0.205063,-0.403383,-0.750251,0.270945,-0.449375,0.24453,-0.722237,0.207284,0.303649,-0.49919,-0.886101,0.539743,0.189252,0.320771,-0.704123,-0.057195
inverse,0.303232,0.002319,0.570913,-0.173608,-0.610601,-1.224822,-0.567914,0.340901,-0.553794,0.673636,0.619272,-0.165105,-0.096173,-0.539952,-1.144137,-0.41443,-0.187495,-0.343215,-0.219082,0.454066,0.405776,0.344541,0.63901,0.258859,0.348074,-0.233316,-0.408486,0.115,-0.168447,0.450297,-0.245633,-0.479996,-0.398769,-0.100509,-0.124314,-0.062664,0.103454,0.296007,-0.603144,-0.428493,0.037609,0.244319,-0.231282,0.19332
minimal,-0.42479,0.162791,0.318753,-0.202931,0.033658,-1.729102,-0.174137,-0.30678,0.467257,0.808277,0.20845,0.370928,-1.413198,-1.02327,-0.71675,-0.669675,0.035143,-0.872225,0.171245,0.449335,-0.015409,0.421285,-0.187221,-0.050194,0.417836,0.201547,1.626563,1.02597,0.610328,0.771532,0.020588,-0.474025,-0.474773,-0.114784,0.362662,0.770296,-0.624142,0.565366,-1.171254,-0.322361,0.433814,0.148861,-0.497487,0.671522
extension,-0.43837,0.505561,0.716667,0.612852,0.535714,-1.426455,-0.032308,0.231575,0.044893,0.414028,0.654585,0.347155,-0.810135,-0.475111,-0.434223,-0.455266,-0.820518,0.308055,-0.379479,-1.029413,0.1662,0.135333,0.423757,0.361279,0.613542,-0.551872,-0.41965,0.117624,0.256962,-0.836589,-0.012787,0.368271,-0.258984,-0.429105,0.050596,0.816734,0.069717,0.206413,0.419481,-0.493741,0.528343,0.116553,-0.222691,-0.560433
arc,-0.218657,-0.124073,0.030613,1.157418,-0.313327,-0.760827,0.291297,-0.056278,-1.056801,0.552342,0.174948,0.904312,-0.202582,-0.817071,-0.010781,0.311022,0.059302,-0.606901,0.237754,-0.90391,-0.27818,-0.820092,-0.145892,0.14523,0.355915,-0.531522,-0.577861,-0.047238,0.567931,0.109275,0.049413,0.302686,0.551411,-0.973842,-0.314152,-0.281273,-0.333286,0.70603,-0.400145,0.15962,-0.016275,-0.574346,0.068995,-1.024804
énoncé,0.509966,-0.121183,0.936967,-0.020003,0.305997,-0.978484,-0.754117,0.273345,0.467365,1.687103,0.497571,-0.154493,0.285593,-0.771562,0.288207,-0.139351,-0.096939,-0.560087,-1.364257,1.220237,0.476109,0.504561,0.136558,0.128056,1.055644,1.207384,-0.912449,0.748232,-0.1227,0.375766,-0.935633,-0.146074,-0.215536,0.79608,0.715437,0.030824,0.114059,0.177932,-0.345173,-0.201853,0.804073,0.561648,0.842184,0.181408
parallèle,0.485743,-0.175798,0.046838,0.492528,0.115073,-1.344266,-0.276621,0.327892,-1.077993,0.299926,0.497369,0.447098,-0.475988,-0.444379,-0.035441,-0.708626,-0.619454,-0.521124,-0.280076,-0.363551,-0.365749,-0.262782,-0.041513,0.004701,0.146122,-0.202878,-0.842912,0.07257,0.240623,-0.217516,0.293028,-0.185939,-0.240429,0.213684,-0.823224,-0.285743,0.222468,0.275274,-0.349789,0.371925,0.005615,-0.230537,-0.52321,-0.065531
négatif,0.412849,-0.434054,0.055713,-0.349776,-1.063032,-0.842301,-0.519558,-0.426584,0.71264,1.044767,0.414416,0.029453,-0.499091,-0.64385,-1.273226,-1.02578,0.04617,-0.688886,-0.60594,0.628001,0.335457,0.78941,0.928009,0.791972,0.129395,-0.009531,-0.24548,0.953751,-0.450845,0.197195,-0.688149,-0.526078,-0.686741,-0.328816,-0.281015,-0.028497,-0.328867,-0.098567,-0.175741,-0.648513,0.209807,0.501813,-0.574553,0.224248
niveau,0.122502,0.295026,0.072565,1.574694,0.152123,-1.425744,-0.217442,0.207686,-0.52761,0.743066,0.790906,0.965429,-1.288124,-0.469194,-0.778538,-1.709985,0.08339,-0.304083,-0.042979,-0.045238,0.278993,-0.570964,0.754023,0.051898,-0.26218,-0.023222,0.085552,-0.021831,0.755289,0.312102,-0.174421,0.014764,-0.303919,-0.461969,-0.489861,0.000101,-0.256919,0.324465,-0.210281,-0.347356,0.499137,0.094432,-0.65704,0.304981
fraction,-0.570418,-0.349271,0.052638,-0.068834,-1.485374,-1.061477,-0.385016,-0.204361,-0.879998,0.433932,0.760716,-0.373902,0.15368,-0.589262,-0.701979,-0.844517,-0.312271,-0.166625,-0.834031,-0.050308,-0.068085,0.122703,-0.057344,0.050033,-0.34023,0.844467,1.0183,0.384117,-1.041183,0.319592,0.074534,-0.269882,0.337011,-0.35789,0.722458,0.415869,0.320503,-0.424531,-0.654679,-0.115529,0.736928,-0.550526,0.409284,0.574121
segment,0.296316,-0.048544,0.041095,0.134235,-0.316937,-0.957095,0.512715,-0.305388,-0.573967,1.555729,1.081817,-0.338976,-0.514082,0.02439,-0.50943,-0.113273,-1.007227,0.006558,0.858518,-0.252659,-0.293939,0.388427,0.219192,0.05256,0.247013,0.708599,-0.459204,0.484093,0.752302,-0.136143,0.97519,-0.181852,-0.696867,0.138189,-0.878185,0.024927,-0.114998,0.494649,0.151656,0.812083,0.429471,-0.381894,0.269394,-0.117006
norme,0.515348,0.307819,0.92745,0.382547,-0.313358,-1.901645,-0.11922,0.159043,0.856688,0.778171,-0.110869,-0.064993,-0.743178,-0.630875,0.038971,-0.660974,0.03354,0.353018,-0.095198,0.23035,0.73102,-0.175515,0.11427,-0.274579,0.777141,-0.195361,-0.213405,0.419885,1.12704,0.310065,-0.790615,-0.045401,-0.498976,0.056221,0.496215,1.360942,-0.074695,-1.466398,-0.057449,0.289445,0.52247,1.098644,-1.073028,-0.10813
local,-0.753401,0.087252,-0.428068,1.019312,0.510195,-1.370292,-0.240117,0.176939,-0.011997,-0.653633,0.602405,0.029174,0.215704,-0.357052,-0.310476,-1.590737,0.022002,0.069908,0.125266,-0.319562,0.12309,-0.48536,0.363671,-0.613648,-0.879369,-0.620938,-0.097922,-0.313391,-0.220273,-0.300671,-0.41571,-0.408614,0.356906,-0.608257,0.480737,0.874292,-0.059395,-0.110244,0.599643,-0.212877,-0.264139,0.639642,-0.4106,0.618991
métrique,0.76539,0.052017,0.88706,-0.45825,0.523565,-2.214122,-0.609765,1.325495,-0.286072,0.833746,-0.545218,-0.496236,0.113549,-0.34943,-0.509947,0.85201,-0.783687,-1.253452,-0.364963,-0.145647,0.122419,0.06965,-0.04919,-0.239155,0.776156,-0.136933,0.273957,0.696338,-0.075065,0.512818,-0.074017,0.928924,-0.141051,0.660041,0.38074,1.336172,-0.376806,0.06645,-1.182527,0.157667,0.62115,-0.194604,0.223311,0.591922
symétrie,-0.215844,1.012246,0.107654,-0.360454,-0.506457,-1.091026,-0.934714,0.788,-0.186295,2.390679,0.581525,0.039603,0.44902,-1.347019,-0.795819,0.267402,0.451691,-0.647366,-0.760348,0.430305,-0.484504,0.207906,0.296094,0.064927,1.404461,0.387497,-0.469729,0.467257,0.585612,-0.040086,0.044396,0.771074,-0.450699,-0.712564,-0.403593,-0.203882,0.204632,-0.325346,-0.329033,-0.181382,0.820062,-0.979752,-0.178207,-0.021924
inégalité,0.009211,-0.344115,-0.398234,-0.906178,0.173421,-0.461016,-1.518901,-1.007564,0.601384,0.476412,0.127968,0.601858,-0.208295,-1.342232,-1.616744,-1.033039,0.825276,0.681936,-1.359629,0.495218,-0.684773,0.040602,1.07961,0.587639,0.596381,0.095231,0.474347,0.238928,0.054185,0.070554,-0.770123,0.75666,-0.536972,0.799458,-1.000172,0.73246,0.46594,-0.03868,0.602903,-0.318489,0.494772,-0.023219,-0.531383,0.435743
chaîne,0.334351,-0.460109,-0.768826,0.37961,-0.98758,-1.373931,0.736549,0.008097,-0.209895,-0.129634,1.125693,-0.225456,-0.227638,-0.334697,-0.370172,-1.215432,-1.159801,-0.570967,0.538237,-0.406662,0.572012,0.53095,0.420668,0.122581,0.010814,-0.508472,-0.817966,0.465951,0.245708,-0.40749,0.155142,-1.059021,0.098275,0.510878,-0.925165,0.515152,0.182697,0.022528,0.359247,0.909154,-0.023691,-0.200839,0.015052,-0.14386
prouver,1.199253,-0.179842,0.489356,0.528773,0.00964,0.252045,-1.195658,-0.422457,1.060427,0.172598,-0.180737,0.522344,0.582484,-0.590059,-0.136708,-0.58229,0.444839,0.003488,0.024275,1.047346,-0.089641,-0.182112,0.759348,0.271869,0.108345,-0.153108,-0.711214,0.071881,-0.466604,-0.508365,-0.651369,-0.56478,0.19237,-0.250274,0.805255,0.72311,0.267914,0.480108,-0.979829,-0.073548,0.439147,0.148692,-0.22702,-0.038153
Gauss,0.944377,0.039638,0.043846,-1.975326,0.525889,0.144438,-0.541395,1.303008,-0.316455,1.082514,0.182285,0.21147,-0.075842,-1.52216,-0.277371,1.141272,-0.389655,0.218261,-1.357325,0.148626,0.417794,-0.311537,0.927905,1.256995,0.301344,1.338081,0.518572,0.989329,0.314483,-0.090703,-0.163722,-0.018685,0.495824,0.884424,0.153639,0.266487,0.020128,0.262388,-0.903867,-0.033698,0.344237,-1.144671,0.499135,0.248158
symétrique,-0.290006,0.568895,0.765286,-0.597833,-0.53014,-1.807845,-0.993317,0.393017,-0.834608,2.382779,1.308165,0.145557,0.352539,-0.79177,-0.367083,0.242875,0.204003,-0.296741,-0.232725,0.021994,-0.117054,-0.627584,0.74164,0.521641,0.969482,0.17527,-0.96008,0.961232,0.630319,0.466434,0.051066,0.597192,0.005416,-0.432986,-0.376337,-0.15441,-0.583146,0.141469,0.277598,-0.075453,0.966539,-0.616172,0.046566,-0.354688
Riemann,0.336838,0.216343,-0.030015,-1.553316,-0.320772,0.398531,-1.366424,0.241224,-0.252798,1.109318,-0.568463,-0.831159,0.439898,-0.252328,-0.352131,1.072551,0.160235,0.040307,-0.380306,0.009098,0.351625,0.44172,0.4364,0.453389,0.744294,0.57417,0.767219,1.486479,0.93285,0.55406,0.22988,-0.20173,0.294226,0.980004,-0.148417,-0.190166,0.45598,0.327946,0.351515,1.040821,0.570852,-0.794955,-0.051419,0.341383
$\mathbb{Z}$,0.231805,0.563601,0.273667,0.225442,-1.082373,-0.64779,0.700907,0.257673,-0.111648,0.298914,0.199751,-0.934541,-0.796858,0.667804,0.027799,0.357096,-0.214421,0.224186,0.448666,-0.62393,-0.624756,0.992453,0.007602,-0.050655,0.718396,0.200118,0.288891,0.020067,0.512184,-0.116067,-0.522668,-0.039846,0.409475,0.011624,0.317827,-0.017516,0.140833,-0.228473,-0.625815,-0.374075,0.482964,-0.367813,0.035605,-0.177457
polyèdre,0.420171,-0.283203,-0.355092,-0.685385,-0.159957,-0.044505,-0.83891,-0.014528,-1.485394,1.752375,1.04046,-0.021759,0.632112,0.085296,-0.815273,0.437831,0.978199,-0.305211,-1.802899,-0.228869,0.455523,-0.361078,0.272147,-0.472263,0.989922,0.717953,0.337961,0.245069,0.267897,0.531897,1.011287,-0.407972,-0.344322,-0.470353,0.4313,-0.728517,-0.357872,0.441353,0.374708,1.784087,0.433437,-0.703147,1.385892,0.942199
binaire,0.249548,0.819645,0.297222,0.339947,-0.692913,-1.600458,-0.117875,0.471252,0.087275,1.841741,0.985029,0.25139,-0.197352,-0.728146,0.224435,0.699189,0.229402,-0.492569,-0.497333,-0.282555,-0.112558,1.460352,1.58343,0.346333,0.885693,0.550601,0.421064,0.49977,-0.691948,0.208565,-0.415943,-0.980296,-0.065713,0.276503,0.211131,-0.065133,0.521845,-0.704205,-0.584247,0.632188,0.646047,-0.707628,-0.080917,-0.722064
demi,0.428235,0.567803,-0.061304,0.649807,-1.248965,-0.889898,0.041635,0.420319,-0.538579,-0.183522,-0.27569,1.053614,-0.641522,-0.362156,-0.348868,0.183308,-0.041382,-0.764421,0.370628,-0.17423,-0.268778,-0.804709,0.984213,0.117451,0.015067,0.759645,-0.589993,-0.604568,0.708967,0.37936,0.937008,-0.867582,-0.214223,-0.381294,-0.224134,-1.499327,-0.044425,0.798655,-0.474028,-0.66711,-0.303332,-0.453968,0.313228,0.742026
multiplication,-0.125397,0.271043,0.175321,-0.517089,-0.198756,-1.173353,-0.980881,-0.223695,0.146346,0.688359,0.605029,-0.190273,0.241348,-0.745586,-1.00378,-0.471407,0.593763,-0.231247,-1.313712,-0.585397,0.226629,0.443867,0.68114,1.261523,-0.200191,-0.646809,0.300505,-0.153244,-0.086187,-0.532879,0.601049,-0.229427,-0.663812,-1.045753,-0.145094,0.563622,-0.222198,0.122158,0.095527,0.020916,0.369946,-0.146245,0.487802,0.044218
libre,0.634274,0.067826,0.395438,0.415576,-0.074847,-1.108117,-0.301932,0.707882,-0.513031,-0.813511,0.501212,0.337035,-0.022891,-1.051945,-0.027587,-0.677015,-0.333642,0.127322,-0.120842,-0.117164,0.033821,-0.107125,-0.253935,0.30631,-0.029527,-0.141498,0.212916,-0.18682,0.507914,0.034674,0.083504,-0.66493,-0.171267,0.200974,-0.584476,-0.054104,-0.057487,-0.611122,-0.389046,-0.483736,-0.065297,0.748497,-0.61239,-0.289598
identité,0.707389,-0.013369,0.480037,0.951801,-0.563247,-0.446831,-0.572774,-0.266419,0.109235,-0.272315,0.95603,0.05975,0.826852,-0.846555,-0.275442,-0.699555,0.272218,0.19511,0.05375,0.214473,-0.833856,0.286027,0.721352,-0.00709,0.319632,-0.488107,-1.140032,0.411189,-0.138756,-0.330025,-1.044562,-0.178446,0.008245,0.462938,0.053889,0.358028,0.098055,-1.183044,0.523281,0.141185,0.765563,0.808233,-0.153274,0.150357
Hilbert,-0.155401,-0.198938,-0.067582,-1.318733,0.192706,0.254988,-0.808154,1.073842,0.2778,1.596915,0.361262,0.211472,0.770938,-0.22882,0.152614,0.760547,0.270226,0.448129,-0.804855,-0.317393,0.024734,0.292078,0.322593,0.108694,0.834585,0.489764,0.582288,0.767666,0.197954,-0.001839,-0.970319,0.004619,0.509756,0.463693,0.230393,-1.053688,0.08609,-0.427495,-0.464407,0.193823,1.270867,-0.976565,0.241921,0.669054
scalaire,-0.331491,-0.106149,0.540606,-1.112198,-0.743654,-1.807891,0.163081,1.35929,0.033952,1.280176,1.159095,-0.479979,1.446028,-1.183407,-1.054311,0.925961,1.291627,-0.290014,-0.678517,0.160814,-0.110096,0.909446,0.702265,1.026046,0.835996,-0.091904,0.260597,0.285074,-0.08477,-0.268006,0.478642,-0.169813,-0.317776,0.218132,0.692467,0.43263,0.233258,0.271434,-0.892622,0.712357,1.742337,-0.749771,0.784339,0.444503
solide,-0.139491,-0.20397,0.359069,-0.09582,-1.429175,-1.111279,-0.708631,0.562834,-0.918533,1.108399,0.38391,0.796097,0.305156,-0.279506,-0.492937,-1.549483,0.661948,-0.055509,-0.211784,0.506046,0.322907,-0.772403,-0.330358,0.544935,-0.028729,0.80427,-0.075348,0.209982,0.062087,-0.043593,-0.149302,-0.178294,-0.293929,-1.121023,-0.1892,0.559121,0.373738,-0.085985,-1.705166,0.341062,0.006524,0.066567,-0.27648,0.069785
densité,-1.063103,-0.615867,0.153193,0.589811,-1.186209,-1.533955,-0.459288,0.288201,0.050425,1.316618,0.112037,0.428998,-0.794102,-0.509428,-1.93749,-0.926999,0.158826,0.080683,-0.247493,0.299725,-0.760846,0.858255,1.477564,-0.396371,-0.326754,-0.189704,1.789711,0.816243,0.144328,0.62987,-0.169183,0.174457,0.157536,-0.204407,0.269296,0.673233,0.062547,0.058373,-1.355216,0.034017,0.262153,-0.561807,-0.195571,0.616283
lemme,0.960488,0.08129,1.19297,-0.373916,-0.079919,0.352526,-0.290363,-0.448791,-0.241629,2.315209,0.729575,-0.084367,-0.046782,-0.035391,-0.426058,1.521978,-0.900512,-0.039658,-0.777792,-0.003032,0.543705,-0.613828,0.165227,0.289513,0.272852,1.593494,0.904517,0.935324,-0.465452,-0.302011,0.248848,0.329889,-0.123936,0.912086,0.487347,0.48994,-0.159594,-0.300191,-0.552801,0.239161,0.229673,-0.494265,0.863158,-0.130359
polynomial,-0.733344,0.909924,1.292204,-1.630331,-0.832165,-0.995823,-0.554337,-0.423299,-0.30499,1.462847,1.157817,0.00963,0.159371,-0.210517,-0.274042,0.637891,0.13045,-0.081547,-1.14239,0.869834,-0.019678,0.372504,0.618849,1.718802,0.773393,0.997948,0.357791,1.127059,-0.230571,0.176671,-0.843292,0.215582,-0.094398,0.757273,0.57818,-0.145248,1.099154,-0.396499,-0.230103,-0.028809,1.335393,-0.411169,0.624699,1.170236
cinq,0.342191,0.25103,-0.425205,1.384146,-0.093156,-1.244773,0.16165,-0.206308,-0.184059,-0.678967,0.2846,0.193285,-0.594831,-0.435834,1.014754,-0.883051,-0.22401,-0.336202,0.191375,0.188319,-0.476438,-0.761949,0.433084,0.307924,-0.641604,0.301864,-0.636585,-0.165473,0.368914,0.443313,0.981224,-0.57926,-0.083385,-0.19647,-0.242972,-0.297089,-0.351941,0.718543,-0.228121,-0.312181,-0.071045,-0.466787,-0.08315,0.18423
exponentielle,-0.113599,0.184592,0.287354,-1.496198,0.019568,-1.413698,-1.150951,0.042767,0.361878,1.172806,0.130926,0.412671,-0.789643,0.324922,-1.585949,-0.204578,0.284171,0.227885,-1.16835,-0.336414,0.150707,0.773965,0.743797,1.195416,0.731206,-0.997499,0.715717,-0.043271,-0.693159,-0.022164,0.164682,0.099794,-0.312703,0.794329,-0.870522,0.588021,0.648497,0.272825,-0.194361,-0.182467,0.954771,-0.932562,0.36932,0.569046
élémentaire,-0.310689,-0.197711,0.521865,0.112621,0.294619,-1.141661,-0.344892,1.502588,-0.728152,0.949042,1.05378,-0.24567,0.476617,-0.85096,0.460549,-0.70368,0.135335,-0.632424,-1.36619,0.262727,-0.85169,0.518154,-0.038324,0.965641,-0.860102,0.319235,0.709205,-0.191427,0.941171,0.163791,-0.244963,0.617587,0.761396,-0.021139,-0.38165,0.444904,-0.35653,0.090038,-0.310723,-0.288503,1.350447,-0.184935,0.088481,0.650693
argument,0.481921,-0.080133,0.727455,-0.358399,0.343584,-0.423821,-0.762123,-0.155267,0.672462,0.41591,-0.022154,-0.514331,0.411582,-0.838153,-0.365928,-0.3456,0.124732,-0.396621,-1.22855,0.386491,-0.086083,0.131654,0.031376,0.000643,0.608927,0.711202,-1.207156,0.516908,-0.275348,-0.261558,-0.966215,-0.183701,-0.651786,0.185385,0.182079,0.061326,-0.185212,0.456184,-0.132881,-0.64121,0.214674,0.756538,-0.366788,-0.106383
optimisation,-0.06879,0.270319,1.152279,-1.000372,0.824383,-1.257546,-0.344224,0.10444,0.425266,0.827681,0.643361,0.812441,-0.289715,0.320825,-0.862711,-1.038071,0.768841,0.158744,-0.916733,-0.377988,0.821309,0.519597,0.375065,0.736796,0.588964,-0.28121,0.523634,0.047946,1.144529,-0.860111,-0.616768,0.101044,-1.168009,0.359859,0.085451,0.889532,0.37577,-0.404928,-0.843584,0.918717,0.833526,0.047218,-0.167879,0.340284
Fourier,-0.921546,-0.306971,0.789696,-1.151987,-0.146702,-0.049948,-0.505852,1.139063,-1.202877,1.112556,-0.599509,-0.14585,0.711578,-0.592691,-0.417611,0.009543,0.474983,-1.156337,-1.994475,-0.273537,0.133665,1.000476,-0.492513,0.729233,-0.108483,-0.227437,0.672933,-0.032774,-0.11238,-0.221199,-0.332666,-0.06899,0.83858,0.644999,0.390162,0.323734,0.064121,-0.311472,-0.231425,-0.775478,0.331037,-1.50114,-0.421367,0.031276
dériver,0.312667,0.198571,0.494844,0.680829,-1.291153,-1.633379,0.59391,0.437321,0.111333,0.764931,0.608972,-0.84713,-0.423287,0.080247,0.392363,-0.049705,-0.054449,0.241147,0.242123,-0.398348,0.13345,0.065249,0.723573,0.691766,-0.37011,0.097892,-0.61028,0.148116,-0.431527,-0.406762,-0.892192,-0.339664,-0.05012,-0.127892,-0.346586,1.433657,-0.088721,0.149119,-0.578262,0.806638,-0.027745,0.24372,0.377152,-0.574315
module,-0.203303,0.390851,0.718038,-0.356858,0.352705,-1.563705,0.242661,1.256982,-0.208213,1.235108,1.756351,0.25154,-1.203263,-0.122888,0.341727,-0.886071,-0.006457,0.077535,-0.273528,0.019307,0.710767,0.530498,-0.078802,0.070843,0.574579,0.002678,0.171979,0.310431,1.229338,-0.213145,0.304922,-0.701636,-0.226732,-0.249902,-0.105817,0.462584,-0.046382,-0.066984,-1.271777,0.642001,1.255089,-0.478713,-0.249529,-0.436845
