word,1,2,3,4,5,6,7,8,9,10,11,12,13,14,15,16,17,18,19,20,21,22,23,24,25,26,27,28,29,30,31,32,33,34,35,36,37,38,39,40
un,0.066594,-0.370635,0.366402,0.088738,0.071449,-0.033969,0.063973,-0.129279,0.040001,0.019041,0.068985,-0.433407,1.057433,0.568972,-0.522677,-0.401503,-0.276306,0.029372,0.031563,-0.010935,-0.010967,0.144893,0.26445,0.328479,0.555386,0.386516,-0.327426,0.128135,0.04755,-0.16676,-0.759061,0.433547,-0.06079,0.427568,0.798283,-0.71691,-0.016598,0.553082,-2.088815,-0.165874
nombre,-0.599543,0.314725,0.44178,0.739344,0.100331,0.125172,0.252806,-0.528606,-1.282699,-0.054894,0.751272,-0.133623,1.659241,0.630864,-0.327899,0.413137,0.4215,0.149926,-0.031675,0.439272,1.059496,0.910333,0.737142,0.614154,1.257892,-0.187225,0.330632,0.345712,-0.03799,-0.160795,-0.703164,0.540529,0.039142,0.722713,0.285807,-0.558012,0.113832,0.459473,-1.370456,0.017531
$\mathbb{N}$,-0.46165,0.60871,0.402884,-0.008938,0.229408,-0.385798,0.323147,-0.779813,-0.590884,-0.039128,-0.092806,-0.047904,0.881435,0.497016,-0.440048,-0.040052,-0.043013,0.35338,-0.169212,-0.03057,-0.387801,0.781637,0.460196,0.371611,0.268398,-0.125463,-0.314934,0.230666,0.067982,0.027879,-0.507104,0.66534,-0.363676,0.403397,0.341496,-0.423323,-0.283274,0.05938,-1.973573,-0.262108
deux,-0.80323,-0.205755,0.687678,-0.166697,-0.148167,0.027582,0.397322,-0.74613,-0.145446,0.005197,0.283204,-0.331235,0.623668,0.460415,0.021698,-0.542688,-0.135049,0.332773,0.265844,-0.574157,-0.050984,-0.045953,0.455248,0.31606,0.835151,0.811664,-0.048267,0.195303,0.203241,0.040024,-0.910037,0.27568,0.325211,0.083681,0.724826,-0.518631,-0.36124,0.590904,-1.826147,0.083242
fonction,0.398342,0.257858,0.735756,0.257314,-0.747205,0.47034,-0.149859,-0.576624,-0.847892,-0.517558,0.406864,0.895193,1.91714,0.842996,-0.062111,0.234648,-0.356793,0.24404,0.365252,0.41157,-0.089399,0.096423,0.847614,-0.742663,0.510604,-0.703964,0.262159,-0.300429,0.767468,0.589117,0.165476,0.65472,0.284372,0.318528,0.920277,-1.348397,-0.421507,0.481303,-1.570694,-0.249054
premier,-0.557113,-0.26707,-0.133859,-0.56729,-0.233858,0.112492,0.310259,-0.831954,-0.392854,0.077845,-0.025391,-0.111805,0.424352,0.851305,0.045748,0.051692,0.045413,0.489144,0.393592,-0.48285,0.450078,-0.203115,-0.003004,0.543902,0.379261,0.53282,-0.323972,0.152527,0.084025,0.39982,-0.621421,-0.376049,0.886849,0.562887,0.376602,0.150014,-0.184047,0.139095,-1.909868,0.137227
ensemble,-0.044634,-0.308806,0.539005,0.1635,-0.198414,0.970036,1.100724,-0.364397,-0.290613,-0.537285,0.305121,0.106489,0.481895,0.315076,-0.325714,-0.5007,-0.415828,-0.094719,0.109186,0.038111,-0.149703,0.292691,0.722825,-0.394153,0.738217,0.27037,0.289169,0.468499,0.030996,0.212901,-0.118676,0.847437,0.104039,0.888461,0.666293,-0.278214,0.072579,0.913347,-1.477256,0.247283
point,-1.255503,-0.097354,0.155303,1.080411,0.617331,0.257877,0.28047,-1.187433,-0.330464,-0.328799,-0.414153,0.062084,0.854726,-0.280187,0.435968,-0.079923,0.942899,0.390565,-0.137484,0.24781,-0.329845,0.271538,0.482845,0.96056,1.32748,-0.140142,-0.022082,0.674827,0.450176,-0.412612,-0.538262,0.33696,0.09949,0.58213,0.475222,-0.0773,-0.643884,0.23582,-1.278271,-0.311755
théorie,-0.136727,-0.614477,-0.695667,0.870762,-0.382095,0.221618,0.257801,-0.071084,-0.432827,-0.540499,-0.982301,1.347695,2.197743,-0.168423,-0.704586,1.438895,0.80395,-0.273108,0.037445,0.230917,-0.559895,0.945192,1.475243,-1.006806,-0.753409,0.119232,-0.411438,0.126999,0.075704,-0.449491,0.257132,0.01384,-0.283982,1.04593,1.461747,0.19377,-0.141838,0.81479,-0.828679,-0.3621
exemple,-0.047859,0.160006,0.14631,0.386935,-0.041583,-0.046663,0.047183,-0.164053,-0.179164,-0.477455,0.313804,0.247353,1.769186,-0.064576,-0.895822,-0.246466,-0.222338,-0.210239,-0.302788,0.173166,-0.279971,0.387502,0.520764,-0.105714,-0.178229,-0.573345,0.035422,0.382521,0.114116,-0.180395,-0.48848,0.827858,-0.347203,0.83901,0.260071,-0.513512,0.412394,0.481439,-1.72664,0.119017
espace,-0.08789,-0.521057,0.374973,0.619574,-0.384828,1.108795,0.242678,0.322619,0.137912,-0.975464,-0.021234,0.868121,0.620342,0.364943,-0.168641,-0.807486,-0.341922,0.385922,-0.821748,0.215593,-0.431459,0.591476,0.641604,-0.574663,1.199947,0.295787,0.637128,0.467709,0.319938,-0.461047,-0.556696,1.143905,-0.365854,1.875792,1.080682,-0.402706,-0.260507,0.687854,-0.854394,-0.19943
théorème,-0.898551,0.032106,-0.714733,1.24484,0.404964,0.151265,-0.646612,0.015025,-0.716009,-1.796962,-0.821594,2.746327,1.276577,-0.805062,0.22582,1.274584,0.847255,-0.076642,-0.318601,-0.220227,0.102128,-0.299634,2.329028,-1.310978,-0.198965,-0.497895,0.15036,0.814475,-0.267162,0.676672,0.665765,1.546427,0.084307,-0.481617,0.559031,-0.168865,-0.198808,1.646604,-0.330678,-0.247852
problème,-0.048729,-0.592052,-0.498702,0.705218,-0.107827,-0.072485,-0.411047,-0.431842,-0.606412,0.309037,-0.542057,0.38412,1.693824,0.5352,-0.794978,0.557145,0.095059,0.200505,0.121794,0.260182,-0.57733,0.379512,0.745943,-0.298479,0.342416,-0.680621,-0.767374,0.098007,0.202307,-0.30647,-0.272522,0.55581,-0.760302,0.842501,0.071839,-0.161005,-0.829976,0.136192,-1.160113,-0.370634
valeur,0.032387,0.716146,0.540634,0.775016,0.886447,0.479231,-0.121235,-0.503594,-0.433182,-1.042932,0.689271,0.268788,1.810282,0.276352,-0.552596,0.236584,0.506512,-0.405523,0.088046,0.719782,0.253115,0.68187,0.766516,0.265953,0.316517,-0.487576,0.489707,0.051104,0.330546,0.168321,0.1125,1.185791,-0.444384,1.362973,0.920587,-0.156062,-0.092931,0.363774,-1.426779,-0.703896
groupe,-0.874251,0.538174,-0.35347,-0.897551,-0.536582,0.802065,0.906995,-0.871129,0.065568,0.694496,-0.205271,0.111575,0.557932,-0.103706,0.231421,-0.752149,-0.105079,0.146785,0.261219,0.173199,0.706155,0.790653,0.025715,-0.189108,0.620363,-0.082589,-0.460784,0.450964,0.060215,0.899636,-0.257768,-0.710873,-0.091146,1.00364,0.303067,-0.060453,0.911231,0.895159,-1.548343,-0.163977
graphe,-1.122073,-0.357694,0.383452,2.092333,0.160461,-0.226449,-0.425513,0.695591,-1.125322,-0.731766,0.540414,0.786753,1.541086,-1.44413,0.384582,0.462548,-0.661897,0.012665,0.045814,0.30236,0.562774,0.840587,1.697034,-1.03332,0.473088,0.362428,-0.027378,0.893439,0.847767,-0.434204,0.715225,1.447908,-0.159695,-1.101279,0.635946,-0.804603,0.207372,1.988344,0.888401,0.945618
forme,-0.306422,-0.199089,0.354246,-0.316907,-0.795316,-0.062136,0.609521,0.192393,-0.087899,-0.45407,0.115143,-0.042951,2.003493,-0.163637,-0.560373,-0.650722,-0.029966,-0.453232,-0.153083,-0.097569,-0.540562,-0.145889,0.339217,0.176778,0.097182,0.536546,0.23187,-0.461102,0.182245,0.035198,-0.860536,1.014318,-0.248853,0.491511,0.40916,-0.133763,0.270248,0.786284,-1.607396,0.130581
entier,-0.33511,0.238153,0.199234,-0.054486,0.419649,0.207934,0.439063,-0.291806,-0.927244,-0.387609,0.646489,0.144378,1.336168,0.290482,0.208825,0.164256,-0.119272,0.15455,-0.3404,0.291356,0.337604,0.648966,0.57039,-0.367657,0.48261,0.254797,0.512782,0.361768,-0.555229,0.034923,-0.556487,1.03177,-0.257919,0.920373,0.124231,-0.533443,0.15796,0.65081,-1.284748,0.11591
système,0.131455,-0.590211,-0.327399,1.136461,-0.989512,1.007513,-0.590283,-0.073618,-0.454194,-0.47472,-0.190728,0.104075,2.495491,0.482399,-0.778927,-0.439171,-0.807743,0.78437,0.469623,-0.265425,-0.629302,0.654075,0.23316,0.225957,-0.116191,-0.426449,-0.15486,-0.102267,0.993975,0.222755,-0.847051,0.339453,-0.356668,0.601063,0.966259,-0.487716,0.496672,0.199133,-0.965754,-0.294455
équation,-0.842089,-0.15371,-0.93576,0.804491,-0.195085,0.01044,-1.002454,-0.53748,0.02922,-2.192454,-0.304341,2.147455,2.266802,-0.751191,-0.287945,0.709765,0.363176,0.213331,0.061586,0.097939,0.018426,0.22736,2.289342,-1.562191,-0.231526,-0.621667,0.785337,-0.117155,0.045208,-0.185519,-0.255075,0.311152,-0.727146,-0.50041,0.894436,-0.34859,-0.725693,0.635753,-0.501419,-0.100919
suite,-0.22436,-0.145053,-0.15423,-0.681939,-0.518123,-0.024624,0.136902,-0.898791,-1.033693,0.349978,-0.696802,-0.27521,0.44366,0.968562,-0.31273,0.154506,-0.66155,0.222916,0.203629,-0.088741,0.193209,-0.115792,0.298457,0.036136,0.395491,-0.05869,-0.161151,0.184761,-0.119487,0.319676,-0.751174,0.02269,0.282113,0.561861,0.049024,-0.22574,-0.699211,-0.044917,-1.332708,-0.274208
algorithme,-0.044104,-0.962487,-1.578817,2.493869,-0.382837,0.25273,-0.169664,-0.168524,-1.252042,-0.844571,0.039032,1.645235,2.117179,-0.524094,0.079856,0.448496,-0.33002,-0.154608,0.308069,0.152566,-0.332718,0.030203,0.171791,-0.586606,-0.130773,-1.179388,0.806391,0.481219,0.137545,0.387784,0.164974,0.705096,-0.779178,-0.679853,-0.4631,-0.537017,-0.176726,0.931511,-0.782416,-0.095251
calcul,-0.19246,-0.701407,-0.902556,1.927086,0.116528,0.325176,-0.558456,-0.49219,-0.923456,-1.378385,0.343473,1.265557,2.450936,0.503858,-0.568478,0.894043,0.288944,0.41729,0.184801,0.079436,0.029453,0.413413,0.695202,-0.513391,0.063975,-0.82653,0.857212,-0.540071,0.299815,0.267891,-0.363288,0.419746,-0.158834,0.455951,0.20489,-0.523994,-0.443703,0.643238,-0.87558,-0.122624
application,0.931795,0.241861,-0.932552,1.449453,-0.922553,0.966437,-0.419206,-0.503675,-0.358006,-0.615199,0.101977,0.129949,1.976824,0.442494,-0.462093,-0.19335,-0.374088,0.866787,0.05264,0.408688,-0.649012,0.171166,0.519697,-0.773955,-0.506901,-1.385022,-0.292753,-0.201233,0.573782,0.427414,-0.773059,0.743562,0.373544,1.103446,0.291363,-1.103375,0.381732,0.347878,-0.692321,-0.391832
élément,-0.051739,-0.050703,0.637873,0.242145,-0.62373,0.079141,0.596656,-0.204483,0.179039,-0.637697,-0.029876,-0.153963,1.641094,0.32336,-0.889391,-0.036687,0.032486,-0.910579,-0.491821,-0.052786,-0.6009,0.520958,0.620402,0.011017,-0.132808,0.055331,0.878364,0.581672,0.588115,-0.196254,-0.875311,0.531209,-0.221579,1.095501,0.508518,0.201063,0.602295,1.045248,-1.375121,-0.191686
grand,-0.24574,-0.502423,0.707716,-0.418149,0.319067,0.28858,-0.142584,-0.048372,0.594627,-0.060579,0.230518,-0.446192,0.416918,0.516164,-0.088685,-0.135478,-0.18809,0.192717,0.133527,-0.230929,-0.201425,0.298697,-0.010397,0.812031,0.785093,0.674814,-0.056829,-0.020628,-0.55333,-0.183595,0.03842,0.31812,0.605626,0.645912,0.927584,0.197928,-0.144027,0.196648,-1.768262,-0.245909
propriété,0.479122,0.821569,0.755701,-0.188141,-0.205698,0.094367,-0.952398,-0.229905,0.063101,-1.182193,-0.137612,0.735604,1.293106,0.569497,-1.131478,0.231277,-0.40724,-0.388903,-0.357568,0.208665,-0.666826,0.407955,1.286067,0.029564,0.625339,0.225128,-0.050582,0.05382,-0.391599,0.714283,0.491759,0.85595,0.233885,0.805897,0.585598,-0.913586,0.299547,0.701741,-0.783837,-0.252994
ordre,0.232427,0.652984,1.130814,-0.968441,-0.171712,-0.179598,-0.525277,-0.316839,-0.254288,0.270176,0.657449,-0.218035,0.964086,0.617492,0.159441,0.829568,-0.167721,0.232586,0.402123,-0.500043,-0.255089,0.421592,0.715579,0.111225,-0.406198,-0.248574,0.599021,0.046664,0.443828,-0.206324,-0.056984,0.102776,0.874477,0.267303,1.562498,-0.61998,-0.5544,0.082207,-1.408572,0.252635
variable,-0.542263,0.465021,-0.390049,0.586671,0.154035,0.567123,-0.34986,0.209405,-0.335097,-0.947942,0.464559,0.408634,2.277528,-0.544902,-0.795059,-0.176113,0.109358,-0.187554,0.138359,0.021094,0.390983,0.378016,0.886846,-0.407909,0.783661,-1.002914,1.103161,-0.732127,0.731174,-0.076146,-0.53159,1.479322,-0.612095,0.45563,0.690102,-1.105721,0.184187,0.157263,-0.913946,0.114966
base,0.490064,0.276104,0.051321,0.639014,-0.635976,0.367606,-0.021083,-0.208585,0.009076,-0.211664,0.479725,-0.438224,1.819262,0.086114,-0.059305,-0.40978,0.076403,0.131732,-0.261035,-0.16801,-0.515725,0.245558,0.517948,0.581616,0.364553,-0.034083,0.345531,0.379647,0.431642,-0.13779,-1.102582,0.170946,-0.000111,0.533362,0.405028,-0.465257,0.558676,0.712657,-1.176581,0.271337
géométrie,-0.707364,-0.906624,-0.639337,1.417287,-0.867564,0.03621,0.036574,0.150731,0.367623,-1.797662,0.227902,1.663618,2.177648,0.032528,0.339542,0.740381,0.420433,-0.125951,-0.132666,0.457707,-0.389752,-0.040883,1.433487,-1.247286,-0.366824,0.343241,0.613021,-0.486767,0.247449,-0.702369,-0.006617,0.087739,0.316683,0.400725,0.624346,-0.112826,-0.672474,1.506817,0.006607,0.044223
analyse,0.927681,-0.561717,-0.627754,1.171161,-0.604657,0.023912,0.276326,-0.387226,-0.434188,-0.005065,-0.82182,0.483213,1.438645,-0.062856,-0.714608,0.440021,0.880731,-0.291183,-0.03314,0.430826,-0.103545,0.273955,0.541986,-1.232652,-0.193776,-0.120581,0.663293,-0.374164,0.492877,-0.665796,-0.03384,0.318993,-0.01627,1.37578,0.455341,-0.146099,0.132495,0.216655,-1.33385,-0.111967
loi,1.084909,0.859711,0.516781,0.028178,-0.297289,-0.317777,-0.463964,-0.080704,-1.714697,0.16028,-0.113749,-0.078293,0.900143,0.776973,-0.531609,0.299674,0.414173,0.904984,0.19779,0.850147,0.024826,0.200928,1.815889,-0.161911,-0.085828,-0.660152,-1.003565,0.40327,0.67807,0.759106,-0.32422,0.647784,0.172646,0.247857,1.669846,0.15653,-0.267794,-0.348848,-0.782427,-0.443311
définition,0.088282,0.075137,-0.200868,1.095479,-0.423648,0.500275,-0.169657,0.444382,-0.772102,-0.930115,-0.27625,0.870829,2.014097,0.063145,-0.638995,0.015021,0.928192,0.098371,-0.157797,0.497429,-0.103748,0.626664,0.905945,-0.375873,-0.526548,-0.631626,0.173016,0.070301,0.653288,-0.406048,-0.119201,1.164806,-0.285976,1.099785,0.807053,-0.325398,-0.051836,0.550042,-1.113727,0.127238
réel,-0.495255,0.063495,-0.520118,0.717618,-0.114399,0.274448,-0.407098,-0.453714,-0.767971,-0.547492,-0.380517,0.370132,1.159138,0.761641,-0.780907,0.032526,-0.180754,-0.384586,0.147111,0.678068,0.170825,1.092668,0.312769,-0.26286,-0.113715,-0.511207,0.325011,0.291752,0.35359,-0.726638,-0.0439,1.171006,-0.748876,1.110379,0.900345,-0.318427,-0.627196,0.559415,-1.370645,-0.790938
dimension,-0.751494,-0.340766,-0.452803,0.633657,-0.39291,0.598199,0.432446,-0.069825,0.042595,-1.144137,0.184649,-0.131427,1.082223,0.032293,-0.618576,0.02068,0.217959,-0.353452,0.025574,0.419731,-0.266834,0.901507,0.860613,0.076854,0.448794,0.309491,0.434487,0.264373,0.746126,-0.484394,-0.707914,1.313918,-0.266326,1.22244,1.14243,0.076633,-0.48702,1.144743,-0.213671,-0.488405
statistique,-0.337621,-0.685877,-0.312406,1.309093,0.223856,-0.031749,-0.705621,-0.464232,-1.102641,-0.087427,-1.044079,0.785762,0.96861,-0.432137,0.76721,0.932262,0.772362,-0.103114,0.019486,0.924602,0.186402,-0.166658,-0.021385,0.968994,1.614267,-0.702582,0.252776,1.056585,0.946476,0.613979,0.78844,-0.707416,0.54872,1.442801,0.309049,-1.113523,0.178817,-0.584671,-0.89238,0.572995
sommet,-0.551654,-0.60649,0.644878,0.092134,1.166041,1.350411,0.189968,0.591062,0.249379,0.014174,-0.146768,-0.484516,0.840813,-0.838749,0.978392,-0.654722,-0.029158,0.017312,-0.054203,-0.574799,-0.083346,0.385207,0.68637,0.065662,1.434772,0.473884,0.338442,0.567412,0.063583,-0.031214,-0.734483,0.573792,0.556763,-0.353583,0.622183,0.452787,-0.838089,1.346127,-1.066102,0.413622
logique,-0.569321,-0.50468,-0.164533,1.358821,-0.326656,0.163292,0.272603,-0.270437,-1.079597,-0.691715,-0.334479,1.729646,1.589314,0.541074,-0.295204,0.555749,0.942474,-0.071739,0.204337,0.502187,-1.619147,0.329426,0.85754,-0.556956,-0.799182,-0.603599,-0.530239,0.279222,0.574154,-0.322827,-0.02455,0.39862,-0.482394,0.832621,0.79115,0.600778,0.001684,0.417185,-0.390122,-0.058419
terme,-0.303704,-0.159294,0.377419,-0.120765,-0.26245,0.321567,-0.236465,0.04956,-0.305996,-0.172912,-0.151155,0.143599,1.720948,0.248943,-0.244065,0.062372,0.610818,-0.353281,0.074075,0.608639,-0.35928,0.27053,0.406088,0.273091,-0.062747,-0.529029,-0.392924,0.320244,-0.181575,0.200569,-0.125521,0.470041,-0.328681,0.722191,0.12137,-0.018792,-0.05178,0.119301,-1.739992,0.070573
trois,-0.702317,-0.353334,0.712268,-0.214428,-0.042981,-0.09639,0.399523,-0.619542,-0.316376,0.034151,0.38129,-0.475531,0.3924,0.596386,0.165154,-0.326686,0.021595,0.403188,0.160498,-0.356667,0.019303,-0.214624,0.270523,0.299252,0.962252,0.855991,0.134053,0.226187,0.232395,0.218744,-0.975348,0.195679,0.44977,0.287817,0.663188,-0.29296,-0.262113,0.278138,-1.670961,0.264588
plan,0.649615,-0.211315,0.076867,0.339882,-0.591891,0.903642,0.274095,0.102782,-0.040573,-0.227413,-0.418803,-0.035648,0.596217,0.727202,-0.236469,-0.291913,-0.00396,0.0339,-0.151854,0.06007,-0.885881,0.105687,0.747513,0.0166,1.144222,-0.246367,0.437571,0.50383,0.398299,-0.248023,-0.818475,0.87763,0.797216,0.649967,0.637138,0.4711,-0.681941,0.765225,-0.990904,-0.560441
formule,-1.857955,0.496563,-0.477324,0.663771,0.177523,-0.132791,-0.298437,-0.64307,0.27931,-1.000959,-0.156746,0.671138,1.632655,0.091219,0.226641,0.074293,1.054993,0.195594,0.029331,-0.126897,0.440209,0.012823,1.39501,-0.427532,-0.348758,0.344804,-0.485578,0.069893,1.003273,1.034129,-0.128575,-0.011126,-0.050452,0.597516,-0.16037,0.387323,-0.202488,0.179308,-1.541144,0.222007
droite,-0.949327,0.723608,1.840084,0.181573,0.378012,0.64078,0.906601,-0.035967,-0.221644,-0.040862,-0.435493,0.154232,1.064647,-0.575086,0.412155,-1.180536,-0.04646,0.205983,-0.084315,-0.140375,-0.690607,-0.354413,0.367457,-0.479808,0.566123,-0.244472,-0.073827,0.241786,0.243954,-0.952428,-0.702893,0.193223,1.111336,-0.565588,0.831063,0.297552,-0.513824,1.418024,-1.092799,-1.200233
$\mathbb{C}$,-0.65992,0.512798,0.353041,0.079755,-0.245266,-0.111148,0.434669,-0.994562,0.19746,-0.629436,0.207942,0.077132,0.634307,-0.079564,-0.183818,-0.155531,0.05287,0.53503,-0.624557,-0.067237,-0.436783,0.546291,0.416874,0.644397,0.177136,-0.51838,-0.083701,0.03224,0.092765,-0.15239,-0.372954,0.336673,-0.20607,0.821901,0.192143,-0.302561,0.188943,-0.429286,-0.994483,0.017498
solution,0.326145,0.281218,-0.534469,0.73303,-0.109986,0.576197,-0.74324,-1.080451,0.439832,-0.855007,-0.284735,0.295779,2.082149,0.291987,-0.617437,-0.28339,-0.206818,0.361318,0.186774,0.414489,-0.842039,0.380159,0.818013,-0.95205,-0.195618,-0.67914,-0.398643,0.152899,0.259477,0.457435,-0.359169,0.478356,-0.698946,0.980023,-0.483772,-0.263132,0.286239,0.826552,-0.907154,-0.717813
modèle,-0.788683,0.238909,-0.497366,0.999544,-0.98249,0.491456,0.206255,0.175765,0.427116,-0.829591,0.17347,-0.140686,1.564876,0.497953,-1.121107,0.199565,-0.030503,0.411387,0.311717,-0.824045,-0.064502,0.603411,0.520481,0.8753,-0.342907,0.407376,-0.674193,0.045677,0.836797,-0.275957,-0.157286,0.596689,-0.081722,0.832135,0.444041,-0.025026,0.517317,0.25871,-0.73833,-0.638422
linéaire,-0.44659,-0.490352,-0.029396,1.080732,-1.00218,0.6053,0.055795,-0.36615,-0.506287,-1.30326,0.18916,1.229155,2.406083,-0.47602,-0.401132,-0.216047,0.099116,-0.296944,-0.306078,0.167784,0.331382,0.043515,1.105912,-0.600247,0.505182,-0.411472,0.809175,0.021851,0.391399,-0.739548,-0.519626,1.055148,-0.812967,0.214878,0.060585,-0.398575,-0.543884,1.384983,-0.368821,0.078162
probabilité,-0.710978,-0.013183,-0.2356,0.983785,0.589932,-0.066146,-0.73228,-0.332744,-1.275603,-0.689948,-0.302178,1.159972,1.825106,-0.24596,-0.611826,1.212103,0.375255,-0.049474,0.058995,0.174148,0.487945,1.074229,0.820314,-0.894172,0.399931,-0.981339,0.842886,-0.27254,0.112927,-0.119144,-0.075765,0.805526,-0.882111,0.196006,0.451496,-0.915913,-0.572146,0.233493,-0.503487,-0.166012
série,-1.502463,-0.239298,-1.80966,-0.180834,-0.964468,-0.975119,-0.152889,-0.737886,-0.445447,0.259137,-0.410685,-0.362297,-0.922366,0.37407,-0.03458,-1.125672,-0.071697,0.500955,0.071368,0.295887,0.674087,0.258888,-0.031693,0.366373,0.306085,0.782431,0.025382,0.311405,0.324548,-0.236409,-0.72465,0.663819,-0.316525,0.770931,1.134685,-0.013362,0.13554,0.280325,-1.09324,0.105177
somme,-0.307015,0.915986,0.906328,0.973196,0.967426,0.295661,-0.760193,-0.995777,-1.048772,-0.575497,0.477957,0.319746,0.405124,1.20522,-0.073095,0.299127,0.583422,-0.292485,0.035711,0.141566,0.259001,0.068747,1.020794,0.283494,0.926398,-0.378167,0.967326,0.281945,-0.931779,0.414638,-0.165451,0.648547,0.357558,0.631171,0.627758,-0.480034,0.034129,0.438988,-0.833423,-0.898842
mesure,0.819619,0.281357,0.202321,0.63967,0.317004,0.440924,0.410936,-0.160353,-0.207215,0.081323,-0.120688,-0.62825,1.762371,-0.252483,-0.126867,0.475795,-0.183539,0.554558,0.108814,-0.30155,0.216803,0.39558,1.068368,0.220415,0.971588,-0.311145,0.018749,-0.028661,0.786664,-0.299268,-0.344366,0.869744,-0.188845,0.481133,0.462136,-0.382065,-0.718063,-0.205373,-1.145656,-0.237674
carré,-0.77199,0.290016,1.037287,0.581364,0.129911,-0.274615,0.449278,0.18675,-0.387344,-1.202729,0.838478,0.396162,0.665805,-0.27001,-0.146247,-0.360873,-0.203619,0.166908,-0.226701,-0.18296,-0.04999,-0.679969,0.300519,0.257278,1.402341,0.835942,1.145223,0.094708,0.021062,-0.490971,-0.744923,0.949517,0.643797,0.46511,0.566766,-0.043251,-0.294194,1.566526,-0.408681,-0.707947
vecteur,-0.619736,0.417315,0.1594,0.464923,-1.024187,0.736995,-0.666117,-0.057226,-0.199969,-1.136895,0.582023,1.15734,2.163956,-1.387772,-0.329922,-0.126021,0.153117,0.324146,-0.990345,0.163368,0.379497,1.221325,0.674428,-1.29645,-0.009623,-1.083897,1.023464,0.675828,0.039249,-0.55552,-0.402586,0.445201,-0.954606,0.705942,0.204709,-1.41052,-1.01406,0.66971,-0.480807,-0.048607
connexe,0.236212,-0.444406,0.244157,0.671702,-0.571867,0.085448,-1.102041,0.784808,-0.038869,0.555441,-0.165215,-0.098151,0.554908,-0.765979,-0.081295,-0.390062,-0.065706,0.927028,-0.934689,-0.059628,0.14925,-0.038566,0.291738,1.062721,-0.128661,-0.311098,0.053295,0.159274,0.032312,-0.163192,0.226528,-0.201785,1.411998,1.261058,1.696598,0.417576,1.076018,0.317397,-0.393722,0.43598
classe,-1.025757,0.172336,-0.061022,0.028819,-0.319601,0.346806,-0.123336,-0.680518,0.563883,0.197027,1.416675,0.359804,0.899183,0.876597,0.462173,0.619629,0.093478,0.44268,0.324174,-0.398896,-0.107655,1.055517,0.617845,0.297003,0.528437,-0.120749,-0.332043,0.061681,0.739559,-0.112584,0.047527,0.015095,0.151997,0.552821,0.720732,0.004925,0.745211,-0.280126,-0.670647,0.348977
produit,0.323617,0.417384,-0.604742,0.632333,-0.735767,-0.255845,-0.718334,-0.437414,0.53363,-0.858936,0.447716,-0.424255,1.556628,0.090544,-1.064534,-0.726421,-0.625279,0.26511,-0.163616,0.769202,0.769068,0.020039,0.91485,0.063498,0.28805,-0.087607,-0.326468,0.521234,-0.073527,1.250523,-0.207107,0.697073,-1.005439,1.331867,-0.585129,-0.462633,1.112302,0.334128,-1.545917,-0.663642
égal,-0.815931,0.832307,1.01564,0.363434,0.794592,0.458579,0.181251,-1.140837,-0.392918,-1.416619,0.751069,0.18236,1.51151,-0.100941,-0.013501,0.324534,0.515692,-0.001298,0.455376,0.67438,0.771168,0.658068,1.139059,0.178446,0.913883,-0.236879,0.539421,-0.295281,0.611096,0.061991,-0.242735,1.143813,-0.656666,-0.032104,1.032246,-0.256759,-0.49867,0.501782,-0.646329,-0.453323
cercle,-1.007085,-0.057885,0.904705,-0.235613,0.080006,0.508179,0.359269,0.010622,0.092896,-0.271672,0.209399,0.816843,0.754332,0.39042,1.238023,-0.128831,0.497467,-0.255836,-0.094246,-0.031392,0.012841,-0.232148,0.391027,-0.689419,0.200846,0.804543,-0.079128,-0.075111,-0.091677,-0.760299,-0.35361,0.29617,0.337673,0.791505,1.00756,-0.182256,-0.070095,1.418844,-0.306757,-0.124018
partie,0.07822,-0.296593,0.753737,-0.367118,-0.168687,0.661906,0.208413,-0.088116,-0.393454,0.151388,-0.436991,-0.269244,0.688166,0.470981,0.050526,-0.607876,-0.252004,-0.012868,-0.017051,-0.123466,-0.492103,0.016563,0.30987,0.623932,0.948981,0.361033,0.049183,0.276134,-0.629624,0.051575,-0.617736,0.338316,0.424728,0.320512,0.634522,-0.102337,0.289138,0.365022,-1.421331,0.318443
relation,0.722747,-0.137416,0.060465,-0.534658,-0.531987,0.629569,-0.550187,-0.780076,-0.034867,0.34054,0.009162,0.797458,0.798622,0.232964,-0.17683,0.138798,0.370782,-0.022618,-0.259723,0.63174,-0.305523,0.733449,0.44748,-0.473638,-0.241447,-0.413197,-1.118964,0.061027,-0.215161,-0.726832,0.621627,0.777356,-0.313638,0.822376,0.777593,-0.083892,-1.302358,0.481988,-1.244795,0.035681
courbe,-0.795661,-0.137738,-0.158242,1.09206,0.267049,0.398862,-0.293354,0.285357,0.116722,-1.479862,0.254193,1.124395,1.852678,-0.524751,-0.084166,-0.203164,0.317195,-0.180592,0.096142,-0.170658,-0.502714,-0.719676,0.986497,-0.482938,1.056502,-0.417324,0.562494,-0.356442,0.091723,-0.974646,-0.611149,1.324319,-0.045744,-0.630196,0.248974,-0.140416,-0.938915,1.239038,-0.32229,-0.926186
différent,0.064203,-0.364272,0.253535,0.115822,-0.588433,0.590367,0.361879,-0.065413,-0.201113,-0.154894,0.339728,-0.374477,1.595728,0.538259,-0.520147,-0.541274,0.128178,-0.291898,0.040322,0.194751,0.063026,0.384212,0.196435,0.080112,0.240007,0.23642,0.003204,0.361895,0.170031,-0.137042,-0.855819,0.710196,-0.221663,0.97727,0.447752,-0.568113,0.518425,0.419919,-2.135817,0.261875
complexe,0.118321,-0.740987,0.221359,0.271692,-0.964063,0.310545,0.225011,-0.119658,0.263978,-0.66332,-0.044388,0.654808,1.597542,0.299066,-0.561293,0.038364,-0.571456,-0.760782,-0.951922,0.094637,-0.421698,0.77331,0.63956,-0.241511,0.836856,0.099374,0.191752,0.61307,0.451726,-0.0469,-0.314088,0.909445,-0.318393,1.227744,0.15024,-0.090427,-0.053249,1.023677,-0.876206,-0.101166
matrice,-0.283007,0.345516,0.334393,1.13209,-0.925475,0.282482,0.068157,-1.013617,-0.380446,-1.503153,0.126459,0.638365,1.863436,-0.986891,-0.299123,0.264401,-0.214922,-0.655938,-0.524348,0.282859,0.510924,0.003356,1.261575,-0.705879,-0.337769,-0.31465,1.375623,0.543169,0.326587,0.055158,-0.05622,0.82791,-0.884254,0.454217,0.091515,-1.033823,-0.255192,1.760626,0.187264,-0.307678
domaine,1.057326,-0.48799,0.386039,-0.008062,-0.932496,0.804883,-0.790581,0.226319,0.139853,-0.521827,0.038243,0.593921,0.849522,1.297212,-0.796865,0.011038,0.569804,0.072892,0.106086,0.051104,-0.47882,0.591292,0.026262,0.05469,0.448821,0.424079,0.123064,-0.387384,-0.509064,0.231253,0.238041,0.337753,0.22861,0.827233,0.678643,-0.545388,0.567856,0.146386,-1.366283,0.166848
fois,-0.888073,-0.213523,-0.030688,-0.333472,0.208737,-0.180512,0.375428,-1.100791,-0.290924,0.01425,-0.337796,-0.630102,0.600152,0.680667,0.310533,0.166899,-0.022463,0.185192,0.463512,0.056933,0.16256,0.108667,0.023028,0.340058,0.375161,0.556359,-0.263325,0.155879,0.009852,0.295391,-0.619871,0.089879,-0.029178,0.351465,0.23275,-0.394298,-0.442178,-0.192248,-1.789466,0.048917
type,-0.520979,0.432087,-0.098659,0.64935,-0.912336,0.340203,-0.23077,0.228769,0.461862,-0.223284,0.400766,-0.573511,1.9338,-0.34197,-1.082068,-0.407014,0.104944,0.183687,-0.457123,-0.63799,-0.153161,0.577349,0.653705,0.901477,0.540846,-0.382296,0.230291,-0.070929,0.735901,-0.249901,-0.994464,0.846612,-0.219107,0.725925,0.300651,-0.436667,1.079672,0.355063,-0.892776,-0.021827
mot,-0.599138,0.26252,0.443613,0.15307,0.508698,-0.760254,0.764777,0.43485,-0.957382,0.046968,0.709873,0.604604,1.116057,-0.269856,-0.089956,-0.658167,0.573872,-0.391621,-0.629712,0.348458,-0.692166,0.029986,0.243618,0.320511,-1.238203,-0.670264,0.270293,0.33737,-0.662468,-0.359483,-0.629941,1.072175,-0.831886,0.390602,0.480113,0.175073,0.690343,0.495175,-1.868765,0.536119
algébrique,-1.119004,-0.258079,-0.593087,0.791855,-0.609904,-0.255586,-0.035018,0.18281,-0.274538,-1.463374,0.314929,2.30099,2.049622,0.123127,0.320918,1.186912,0.392399,-0.288763,-0.58326,0.551306,0.080538,0.605723,1.585339,-1.260035,-0.246909,-0.748551,0.657535,0.296229,0.48105,0.000959,0.090315,0.842514,0.009942,0.691904,0.324563,0.062509,-0.067027,2.034601,0.110882,0.100777
degré,-0.185042,0.163091,0.437396,0.30471,-0.057699,-1.123115,-0.098694,-0.231057,0.73523,-0.699994,0.31022,0.342767,0.403311,-0.390093,-0.723146,0.371077,0.553689,1.332638,0.609774,0.277071,1.257239,-0.263676,1.593433,0.793681,0.377068,-0.44218,0.85002,-1.056649,0.471619,-1.431489,0.317757,-0.834009,0.707205,-0.088132,1.019128,0.520258,-0.131496,0.209709,-0.684432,0.725136
langage,-0.060897,-0.093,-0.964321,1.170382,-0.591551,-0.139077,1.15992,0.61991,-0.85188,-0.833963,0.382145,1.590151,1.732947,0.141399,-0.736732,-0.078326,0.197947,-0.185628,-0.142892,0.694971,-1.242918,0.162436,-0.34471,-0.01476,-1.255077,-0.790625,-0.360393,0.128196,0.31616,-1.018478,0.275846,0.826442,-0.707261,0.86039,0.439932,-0.324661,0.891211,-0.050121,-1.045805,0.293981
nul,-1.698997,0.758843,0.593021,-0.150293,0.871183,-0.033213,-0.305007,-1.578185,-1.158646,-0.689497,-0.343884,0.754766,1.380336,-0.891017,0.936337,0.356235,0.22023,-0.125346,-0.234213,0.387647,0.410115,-0.08577,0.473851,0.127873,0.632725,-0.549092,0.39889,0.841738,0.733242,0.102157,0.061086,0.592154,-0.543718,1.242165,0.121907,-0.576333,-1.612807,-0.281364,-1.174047,0.15371
moins,-0.459164,0.189386,0.780135,0.105767,0.596713,-0.163278,0.265062,-0.424121,-0.23109,-0.086204,-0.000946,-0.789403,1.588479,0.380706,-0.395935,0.034588,0.237945,0.117625,0.266021,0.461758,0.261186,0.69187,0.235148,0.74698,1.333025,0.319786,-0.284404,-0.107574,0.151175,-0.298801,-0.61613,0.480685,-0.318457,0.441233,-0.075514,-0.348973,0.113226,-0.046327,-1.847851,-0.071509
objet,0.093856,-0.118522,-0.196852,1.037843,0.47809,-0.403501,0.104082,0.716348,-0.259729,-0.273115,-0.413594,-0.669297,1.268926,0.726269,-0.85678,0.037647,-0.396773,-0.16896,-0.555881,-0.430436,-0.261439,0.762489,0.608152,-0.128699,-0.332339,0.868308,0.663109,-0.119607,0.480737,0.21915,-0.627197,0.901201,0.390635,1.256893,1.123725,-0.481999,0.277771,0.930037,-1.553847,-0.111522
triangle,-0.590323,0.423209,0.025465,0.08203,-0.299459,0.310182,0.072795,-0.018291,-0.233864,-1.244074,0.033177,0.609732,0.682254,-0.83877,1.067258,-0.75964,0.257382,-0.495136,-0.447711,0.199995,0.135325,-0.220983,0.688445,-0.1812,0.569371,0.687215,0.534198,0.342637,0.512633,-0.125123,-0.98375,0.540522,-0.387272,-0.103517,1.405277,-0.244894,-0.516806,1.675369,0.594774,-0.003456
structure,0.332824,-0.402353,0.328474,0.252509,-1.107084,1.041854,0.662825,-0.162889,0.270529,-0.178709,0.099333,0.077211,1.746283,0.057352,-0.556299,-0.076138,-0.225011,-0.446924,0.124303,-0.160846,-0.813072,0.331303,0.797759,-0.423681,0.891536,0.034083,0.492842,-0.369201,0.854938,0.438365,-0.352376,0.577584,-0.005919,1.371239,0.590251,-0.282044,0.537409,1.172679,-0.457252,-0.156341
corps,-0.050053,0.001175,0.928847,-0.420022,-0.559838,-0.583322,-0.017585,-0.664341,0.692416,0.307182,0.60699,-0.648758,1.113021,0.334091,0.253069,0.519793,-0.468107,-0.158744,-0.061515,-0.381192,-1.101345,0.527999,0.732497,-0.517086,0.394153,0.355733,0.582031,0.00464,0.519933,-0.78773,-1.324158,0.308922,-0.063754,-0.03922,1.600345,-0.881243,-0.227731,0.51197,-0.740318,-0.741601
rapport,0.655042,0.415348,0.335807,0.781585,0.357138,0.231444,-0.18216,-0.473124,-0.348725,-0.028853,-0.385974,-0.224504,1.505044,0.175638,-0.685376,-0.068035,0.772629,0.693856,0.24381,0.372231,0.173434,0.576112,0.753784,-0.006705,0.585163,-0.372601,-0.325836,-0.529332,0.85027,-0.325012,-0.424124,0.595564,0.041547,0.925415,0.609773,0.21439,-0.491975,0.37748,-1.071691,-0.342186
longueur,-0.663863,-0.036798,0.684573,1.544761,0.748625,0.572791,-0.019432,-0.278414,0.288596,-0.636314,0.562369,0.20956,1.605127,-0.7356,0.356277,-0.474708,0.520331,0.40406,-0.234753,-1.161515,0.481866,-0.575717,0.937903,1.362543,1.849806,-0.000568,0.696131,-0.465292,0.570824,-0.751126,-0.883352,1.166505,-0.311209,-0.720504,0.769162,-0.087101,-0.204479,0.629373,-1.002076,-0.090242
informatique,1.131871,-1.182201,-0.983711,2.131435,-1.139174,0.381212,-0.177794,-0.267063,-0.353012,-0.59954,0.033282,1.212997,1.563169,0.911145,0.039797,-0.248571,-0.23416,0.596679,-0.10968,0.433843,-0.336715,0.023274,-1.153288,-0.085601,-0.626046,-0.652631,-0.431619,-0.200847,0.518473,0.085465,-0.272503,-0.336129,-0.328327,0.960843,0.362101,-1.477878,1.238773,0.624868,-0.832993,-0.033191
infini,-1.285497,-0.345656,-0.054817,0.904864,0.830821,0.11461,-0.1378,-0.328128,-0.813694,-1.525721,-0.064412,0.990184,1.01231,-0.405496,-0.062134,0.197405,0.007001,0.00581,-0.427778,0.31088,-0.37041,0.347302,0.890854,-0.891028,-0.355756,0.034662,1.002335,-0.345767,-0.27363,-0.101062,-0.280414,1.407785,-1.228831,0.974695,1.326777,0.129601,-0.727615,0.267319,-0.184328,-0.652504
variété,-0.099732,0.731049,-0.822573,-0.443124,-0.674921,-0.238922,0.153031,0.748535,0.486735,-0.504608,1.217656,0.402916,1.582294,-1.202307,0.049696,-0.150417,-0.007722,-0.607226,-0.645255,0.291718,0.825812,-0.07872,0.924971,-0.614085,0.754375,0.502607,0.20001,0.499577,-0.461274,-0.052796,0.55886,1.339092,-0.105585,0.481389,-0.504523,-0.086252,0.727554,-0.186585,-1.423012,0.119854
ligne,-0.577431,-0.028101,0.439984,1.195264,-0.492927,0.859674,-0.139293,-0.828741,0.057874,-0.002776,-0.394271,0.363122,0.325418,0.901389,0.166806,-1.268784,0.326299,1.024423,-0.844109,-0.69916,-0.501663,-0.855541,0.797585,1.081321,0.696043,-0.435825,-0.512972,0.200822,-0.339848,-1.522688,-0.843249,0.379998,0.942063,0.520114,-0.083905,0.342708,0.168107,0.022795,-0.60007,0.266795
positif,-0.55154,0.577957,-0.120672,0.378125,0.255384,0.200307,0.282471,-0.943662,-0.535605,-0.422706,-0.545837,0.091582,1.364111,-0.673545,-0.967105,0.144347,0.707892,-0.068102,0.177891,0.942278,0.895819,0.681524,0.320093,-0.782949,0.448131,-0.843944,-0.094759,-0.24507,0.465868,-0.669279,-0.056293,0.675971,-0.269034,0.99357,0.063352,-0.42717,-0.400199,-0.067978,-0.902628,-0.596935
angle,-0.808389,0.186167,0.325296,0.269563,-0.037077,0.382016,0.578732,-0.416845,0.173295,-1.448088,0.059483,0.565776,0.949182,-0.516655,-0.503235,-0.627175,0.055939,-0.520026,-0.293709,-0.307741,-0.756308,-0.207106,0.190838,0.169094,1.397254,0.231028,0.775148,-0.17785,0.631967,-0.976926,-1.263847,0.780058,0.776293,-0.071034,0.776502,-0.434179,-1.013579,1.897767,-0.06201,-0.612439
polynôme,-1.350313,0.959193,-0.05354,0.021271,-0.922479,-0.506662,-1.097377,-0.899174,-1.150689,-2.23872,0.777986,2.429485,1.332005,-1.04293,-0.124232,0.847014,0.467757,-0.036423,-0.277747,0.658379,0.633047,1.217397,1.455833,-1.310749,0.372233,-0.852271,1.272162,1.449979,0.102601,0.038312,0.048406,1.039624,-0.538774,-1.134763,0.412628,-0.6199,-0.404604,1.526823,0.211452,-0.005386
centre,0.825674,-0.803439,1.06388,0.103551,-0.552116,1.116432,0.393574,0.011193,0.594801,0.083965,-0.110014,0.221504,0.181831,0.103896,0.493634,-0.648092,-0.071369,0.322592,-1.154687,0.046208,-0.445754,0.110045,-0.337652,0.363723,1.625232,0.193752,-0.688224,0.268372,0.043596,-0.085416,-0.436382,-0.381065,0.926089,1.322859,0.931819,-0.678977,0.159099,0.432524,-0.493883,-0.087577
démonstration,-0.884921,-0.454637,-1.037765,0.812853,0.372115,0.484764,-0.05939,0.075672,0.121788,-0.985412,0.338306,1.021995,1.036844,0.648681,-0.052555,0.941251,0.600651,-0.43063,-0.112007,-0.268023,-0.066495,0.439172,0.446621,-0.798499,-0.437937,-0.413925,-0.015729,0.989649,0.557164,-0.009705,-0.884316,0.359164,0.137772,0.55672,-0.252358,-0.084121,-0.45908,0.197008,-0.837298,-0.255138
vectoriel,-0.825776,0.5379,-0.448194,1.28061,-1.840334,0.220199,-0.115465,0.418223,-0.181803,-2.018563,0.380688,1.301095,1.950654,-0.533932,0.062006,-0.186874,-0.961342,0.070992,-1.218368,0.783409,0.191762,0.501876,0.934392,-0.781027,-0.694249,-1.348415,0.885051,0.638499,0.545171,-0.391317,-0.097779,1.234209,-0.552856,0.637554,0.075166,-1.356958,-1.104416,1.606533,0.050344,-0.338415
limite,0.068741,-0.159294,0.883492,0.473454,0.17791,0.878109,-0.334724,0.139932,-0.5097,-0.559686,-0.8672,0.412358,1.076222,0.178888,-0.086694,-0.369972,0.439692,-0.203792,-0.208571,0.069067,-0.639438,0.048859,1.203806,0.459697,1.296158,-0.592628,0.241513,-0.013216,-0.122537,-0.026393,-0.387174,1.120589,-0.278001,0.074009,1.031256,-0.17128,-0.199058,-0.087294,-1.109864,-0.330511
représentation,0.098778,-0.223142,0.593993,0.081489,-0.092351,0.127855,0.885756,0.102419,-0.780723,-0.79285,0.303288,-0.061587,0.74403,0.218257,-0.092334,0.185082,-0.118479,-0.703563,-0.739223,0.48788,0.540978,0.178208,0.095832,-0.193372,-0.410503,0.449082,-0.001124,0.473588,0.419277,-0.882946,0.004882,1.275376,0.610756,0.967282,1.029412,-0.019187,-0.28033,0.439246,-0.957452,0.07262
famille,0.324138,0.912332,0.586398,-1.174772,-0.586103,-0.826247,-0.426027,0.420463,-0.162783,0.34144,0.514299,0.210138,0.297427,0.346256,-0.559017,0.439701,-0.41574,0.443527,-0.062864,-0.14022,-0.015924,0.783912,0.382233,0.257859,0.471328,0.870496,-0.2749,-0.181084,-1.107094,-0.39892,1.083562,0.236947,0.735322,-0.109798,0.276317,-0.510459,0.032935,0.432731,-1.483369,0.414506
arête,-1.621843,0.065791,0.522978,0.915572,0.254475,0.459854,0.517113,0.291309,-0.227242,-0.245132,0.250543,0.024526,1.424547,-1.352951,0.281202,-0.527057,-0.108486,-0.598426,0.033148,-0.479971,-0.56053,-0.39404,1.486143,-0.320213,1.237387,0.186076,0.573239,0.372438,-0.117069,-0.753244,-0.574632,1.157244,0.261189,-1.318373,0.049964,-0.151078,-0.616778,1.864009,0.305051,0.41496
distance,-1.189306,-0.452294,0.095039,1.322452,1.122423,1.161101,-0.333046,-0.416634,0.457522,-0.26631,-0.092952,0.2188,1.129096,-0.084047,0.001881,-0.306391,0.26716,0.583059,0.08954,-0.870494,0.183735,0.914757,0.412647,0.4477,0.997831,-0.640864,0.082434,-0.347756,0.612275,-0.676402,-0.705636,0.440587,-0.3541,0.071568,0.724644,-0.877778,-0.634089,0.418826,-1.102024,-0.051783
surface,0.073996,-0.199955,0.446531,1.083519,0.39437,0.748233,-0.235114,-0.316978,0.826182,-0.796822,-0.256865,-0.800715,1.997416,-0.532711,-0.281402,-0.297056,-0.467708,0.137107,-0.203033,-0.390853,-0.146463,0.371294,1.145153,0.277114,1.986626,0.397832,0.872341,-0.511397,0.024702,-0.344699,-1.29815,0.478767,-0.638911,0.491008,0.278956,-0.51973,0.068338,0.444725,-0.310522,-0.49962
aléatoire,-0.846946,-0.285777,-0.500962,1.095629,0.036728,0.481929,-0.393002,0.044321,-1.406764,-0.535,-0.169345,0.725623,1.765522,0.094075,-0.360664,0.370506,-0.471187,-0.761537,0.264021,0.236243,0.545641,0.545625,0.525688,-1.079246,0.065842,-0.849963,1.44089,0.431907,0.301896,-0.138401,-0.163644,0.987374,-1.175244,0.40091,0.141969,-1.01812,-0.212482,0.213959,-0.570133,-0.102258
naturel,0.850398,-0.567498,0.840207,0.320367,0.262082,0.45002,-0.595527,0.487269,0.483333,-0.131726,-0.346275,-0.188963,1.524949,-0.368213,-0.484534,0.288189,0.002274,-0.065096,-0.653454,0.331519,-1.029029,0.694382,1.000637,-0.145202,1.595954,0.337798,0.543568,-0.199717,-0.524249,-0.001159,0.354531,0.960135,0.384347,0.988034,0.757249,0.055908,0.884784,-1.069915,-1.317484,0.108824
normal,-0.364929,-0.694548,-0.004217,0.221831,-0.396153,-0.201961,-0.140108,-0.377783,0.539822,-0.170639,0.369726,0.764092,1.418693,0.514633,0.173866,0.437796,0.164667,0.360984,-0.637324,0.005382,0.15229,-0.072956,0.835936,-0.411228,0.724601,-0.898792,-0.430484,-1.452161,0.286794,-0.33269,-0.525209,0.80109,-0.471737,0.128744,0.720922,-1.153426,-0.098584,0.093916,-0.419954,-0.267266
arbre,-0.333251,-0.053633,0.272262,0.070671,0.344308,-0.289428,-0.03242,0.983471,0.274668,-0.206004,0.811019,-0.362896,1.532124,-1.320531,-0.623668,-0.131308,-0.284152,0.736936,-0.371964,-0.62035,-0.887663,0.253311,0.254817,-0.08133,1.040711,0.893016,0.311298,0.218038,-0.574655,-0.243431,-0.503252,1.176205,-0.428925,0.392369,0.001139,-0.072763,-0.080072,-0.084042,-1.020547,-0.120662
démontrer,0.228278,-0.017691,-0.285315,0.565589,0.436324,-0.029766,-0.157997,-0.33438,-0.229295,-0.104242,-0.533781,0.557665,1.559099,0.020993,-0.830786,1.404444,0.726595,-0.659838,-0.096817,-0.337285,-0.332208,1.013357,0.643017,-0.595796,-0.096771,-0.135483,0.204409,0.22797,0.183043,0.152712,0.164457,0.383866,-0.505084,0.545769,-0.069906,-0.52967,-0.57609,0.403849,-1.208823,-0.553242
algèbre,-0.935952,-0.203063,-0.073781,0.68582,-1.293966,-0.401571,-0.768546,-0.246771,-0.19087,-1.42185,0.813008,1.979559,1.735879,0.149915,0.059816,0.840512,0.28473,-0.465014,-0.467999,0.567542,-0.039181,0.310302,1.064306,-1.205028,-1.001333,-0.119706,0.525033,0.021427,0.208503,0.342752,-0.129293,0.512384,0.088864,0.459666,0.117222,-0.469303,-0.163143,3.143465,0.790325,0.33564
règle,-0.303602,-0.087988,0.337355,0.527578,-0.085776,0.018207,0.127331,0.312003,-1.11237,-0.557509,0.350971,0.017393,1.461206,0.714092,-0.538913,0.408563,1.229963,0.115891,0.570324,0.708541,-0.766486,-0.293708,0.737407,-0.072344,-0.635005,-0.719043,-0.611548,0.48482,0.898349,0.761783,-0.581456,1.098886,-0.015457,0.464551,0.563048,-0.687275,-0.497006,-0.162747,-1.431593,0.310442
volume,0.021394,-0.04817,-1.380584,0.709585,-0.346445,-0.205788,0.537915,-1.298092,-0.191057,0.148964,0.376573,-1.130417,0.536627,-0.286085,-0.127382,0.182273,0.118868,0.361839,-0.1019,0.181575,-0.161269,-0.565874,1.341761,0.184701,-0.309093,-0.030094,0.884075,-1.256204,-1.06152,-0.536641,-0.299833,0.330292,0.645368,1.267981,0.668033,0.492247,0.681804,0.142118,0.362166,0.366666
calculer,-0.650145,-0.030896,-0.416125,1.966056,1.237809,0.439083,-0.658246,-0.674484,-0.703911,-1.433563,0.036447,0.511337,1.921887,0.176541,-0.123739,0.560005,0.407946,0.128665,0.249345,0.180795,0.790669,0.722127,0.952383,-0.300314,0.658701,-0.690767,1.112479,-0.398226,0.182823,0.453938,-0.399477,0.661137,-0.378573,-0.053788,0.231653,-0.87645,-0.662902,0.53452,-1.043222,-0.248686
constant,-0.225008,0.236871,0.254402,0.276164,0.314653,0.421381,-0.403752,-0.592748,0.13714,-0.841954,0.475123,1.116719,1.12338,-0.244784,-1.088319,0.702631,-0.038266,0.020535,0.113045,-0.136113,0.591484,0.032402,1.172974,-0.716706,0.476901,-0.869185,0.820757,-0.438855,-0.345032,-0.60779,0.531546,0.366121,-0.202212,0.442176,0.759101,0.233205,-0.681054,0.024046,-0.763051,-1.372217
quatre,-0.921622,-0.420656,0.738611,-0.0458,0.115729,-0.163028,0.517801,-0.658243,-0.208575,-0.025709,0.644442,-0.654957,0.382996,0.674871,0.217591,-0.327039,0.091537,0.657179,0.408326,-0.34362,0.140988,-0.235038,0.335092,0.525542,1.123176,0.95816,0.039369,0.242325,0.452773,0.253535,-1.002355,0.104118,0.516162,0.198019,0.629935,-0.276013,-0.155088,0.416396,-1.382237,0.390511
différentiel,-1.039319,-0.659948,-0.372257,1.311823,-1.047213,0.195012,-0.584054,-0.02575,-0.254905,-0.794568,0.121418,1.308548,2.32267,-0.634013,-0.770336,0.558985,0.394108,0.21102,0.351201,-0.316457,0.142356,-0.460813,1.168053,-1.034541,0.316865,-0.943307,0.329037,-0.632706,0.901769,-0.222049,-0.003068,0.498121,-0.590484,-0.089588,-0.00239,-0.836096,-0.739546,0.751233,-0.02943,-0.289146
hypothèse,0.143764,0.060568,-0.026364,0.446264,0.292591,-0.152743,-0.342145,0.208099,-0.739273,-0.002864,-1.439495,0.696931,1.706223,-0.372555,-1.115532,0.571026,1.053439,-0.655263,-0.601705,-0.69035,-0.488334,1.167347,0.795313,-0.332713,-0.486027,0.205279,0.496477,-0.114964,-0.16963,0.136943,0.147258,0.277259,-0.208231,0.288735,0.143501,-0.145173,-0.782139,0.574246,-1.629199,0.064256
image,0.124805,-0.012632,-0.719973,0.599371,-0.217068,0.384571,0.586014,-0.124657,0.174209,-0.725627,-0.540708,-0.433894,0.250731,-0.157622,-0.655146,-0.859839,-0.329643,-0.355905,-0.511404,0.006824,0.253514,0.195426,-0.405179,0.068912,-0.641095,0.234991,0.31114,0.099471,0.288537,-1.245851,-0.217776,1.005145,0.187942,1.167974,0.787655,-0.423925,-0.146122,0.431684,-1.216208,-0.54671
régulier,-1.024138,-0.174926,0.133118,0.082855,-0.103548,0.463607,0.308152,-0.663685,-0.675136,-0.406004,0.656291,-0.006474,0.605497,0.368553,-0.038452,-0.1625,0.676075,-0.620621,0.076785,0.6702,0.31268,-0.253644,0.428054,0.175818,1.617024,-0.061449,0.045758,0.773454,0.369518,-0.087325,-1.023811,-0.275769,0.115958,0.63657,-0.044069,-1.143824,-0.829254,-0.180072,-0.599877,0.335144
complet,-0.226366,-0.798225,-0.462696,0.652074,-0.346038,-0.121354,0.364401,-0.410651,-0.65724,0.154775,0.343478,0.055483,0.868605,0.415574,-0.349631,0.205974,-0.171817,0.140108,-0.037752,-0.343017,-0.227729,-0.643843,0.463246,0.067274,0.006172,-0.08219,0.378307,0.137654,0.572354,0.248699,-0.011934,0.442499,0.418235,1.040108,-0.160676,0.207458,-0.257351,-0.038419,-1.128398,0.589322
racine,-0.481176,0.11965,0.544651,-0.578144,-0.183119,-0.90197,0.087349,-0.248283,-0.506518,-0.422002,0.899133,1.194134,1.731263,-0.931295,-0.467382,-0.270736,-0.093223,-0.412542,-0.422497,0.484286,-0.659305,-0.301394,0.4702,-0.572343,0.190441,0.307733,0.533359,-0.320783,-1.04802,-0.845629,0.005379,0.421147,-0.531677,0.647107,0.327016,0.160393,0.539489,0.159044,-0.883979,0.47875
coefficient,-1.017269,0.039494,0.146321,0.413534,0.021199,0.519172,-1.410362,-1.174769,0.07168,-1.673181,0.517174,0.923492,2.056653,-1.241699,-0.032298,0.580115,1.244587,-0.190374,0.098053,0.752418,1.16951,-0.306619,1.069822,-0.635586,0.247212,-1.28567,0.923848,-0.056927,0.646595,0.447796,-0.171036,1.105172,-0.60357,0.333342,0.337285,-0.417135,-0.49241,0.421886,-0.27875,-0.170318
côté,-0.365747,-0.067202,0.692781,-0.349331,-0.002986,0.203462,0.650926,-0.312783,0.307877,-0.046354,0.054173,0.109158,-0.140012,0.122863,-0.226839,-0.985779,-0.312602,-0.136211,0.090983,-0.173395,-0.654518,-0.024798,-0.299637,0.155059,0.930718,0.819318,-0.175967,0.566362,-0.061088,-0.714606,-0.450122,0.208599,0.294156,-0.320563,0.627054,0.015566,-0.634175,1.055057,-1.439224,-0.662293
preuve,0.284689,0.201078,-0.096542,0.557014,0.720456,-0.628811,-0.414199,-0.227087,-0.531304,0.289333,-0.472242,-0.091952,0.867778,0.792737,-0.853804,0.929612,1.014044,-1.041189,0.010939,0.412821,-0.781356,0.810552,0.151415,-0.280626,-0.538067,-0.23968,0.232077,0.375259,0.293313,0.067203,0.063912,0.503128,-0.247589,0.700347,0.137252,-0.523733,-0.97588,0.46706,-1.516443,-0.489163
axiome,-1.131553,0.5285,-0.046919,0.891046,0.428707,0.881812,-0.413193,-0.316636,-0.783312,-1.708495,-0.418384,1.945391,0.949089,-0.044605,-0.703117,0.512869,0.991053,-0.112166,0.097109,-0.407987,-1.183755,0.716362,1.575655,-1.040823,-1.237304,-0.493683,-0.063376,0.692792,0.999197,0.954956,0.513738,0.911943,-0.06154,-0.234636,0.120839,-0.161038,-0.829132,0.860741,0.171279,0.865382
$\mathbb{R}$,-1.275461,0.768523,-0.882754,0.379891,-0.66998,0.067685,0.252633,-1.198597,0.288588,-0.621065,0.190324,0.200167,0.047559,-1.191902,-0.335535,-0.514713,0.071476,0.898099,-0.285333,-0.183299,0.192703,0.311278,0.880538,1.228918,-0.037565,-1.395387,0.072535,-0.117573,0.54232,0.579818,-0.145332,0.18674,-0.152168,-0.062556,0.438434,0.082992,0.502985,0.151961,-0.116773,0.144133
continue,-0.165402,-0.593861,-0.083642,-0.604015,-0.371173,0.62675,0.4764,-0.606316,-0.245221,-0.343219,0.164826,0.286632,0.53884,0.679433,-0.135556,-0.032843,-0.351329,0.340172,0.396004,0.177379,0.021964,0.047688,0.443894,-0.351519,0.685481,-0.095162,-0.390733,-0.21594,-0.542152,-0.074377,-0.288189,0.099622,-0.464401,0.212245,0.079334,-0.220588,-0.823895,0.135802,-0.895431,-0.173295
résoudre,-0.015251,-0.124475,-0.07401,0.636936,-0.067585,0.021724,-0.594221,-0.450207,-1.04641,-0.105401,-0.482084,0.474913,1.350843,1.062935,-0.238129,0.556214,-0.254657,0.216979,0.488434,0.001829,-0.899277,0.817953,0.662934,-0.779216,-0.512374,-0.136617,-0.200197,0.451339,-0.017786,-0.272298,-0.237328,0.294599,-0.8847,-0.106925,0.169222,-0.240793,-1.257783,0.465735,-1.051104,-0.468939
arithmétique,-0.376191,-0.595251,-0.606086,1.407874,-0.145002,-0.344425,-0.278064,-0.311709,-1.198217,-2.036569,0.727564,1.941128,1.79924,0.685271,0.210061,1.421173,0.876331,-0.243849,0.173232,0.78573,-0.173786,0.071436,0.954662,-0.676682,-0.806421,-0.549953,0.81533,-0.104066,-0.262807,0.178943,-0.198046,0.877131,-0.164041,-0.04395,0.161118,0.012091,0.22011,0.872066,0.051211,0.342435
conjecture,-0.376335,0.341446,-1.336382,0.984375,0.899033,-0.380202,-0.577264,0.159163,-0.711042,-1.335013,-0.974541,1.205458,1.082603,-0.471499,0.432611,1.375309,0.940936,-0.614606,-0.297906,0.286652,0.393578,0.409141,1.158659,-1.05184,-0.512255,0.104421,0.152803,0.202057,-0.444675,0.345685,0.367823,0.972458,0.382673,-0.540638,-0.279626,0.366986,-0.138155,1.511422,0.45967,-0.266932
réseau,0.581869,-0.108552,0.558146,1.362765,-0.728965,1.689986,-0.757364,-0.344555,-0.037209,0.308175,-0.279582,0.805946,0.641848,1.022813,-0.451012,-2.044321,-0.243375,0.836905,-0.688331,-0.100451,-0.00877,0.526389,0.354912,-0.140229,1.312242,-0.692058,-0.577819,0.132332,-0.130843,-0.388458,-0.521149,0.139731,-0.270656,1.196932,0.212626,-0.616977,0.800469,0.707777,-0.661214,-0.112795
opération,0.933111,-0.204097,-0.167014,-0.027319,-0.511233,0.230484,-0.938249,-0.799459,-0.099715,1.030507,0.274407,-0.424913,0.555937,0.864644,0.216745,-0.227123,-0.485636,0.189364,-0.089783,-0.647478,-0.267102,0.089379,0.108311,0.188804,0.469371,-0.797333,0.716978,1.084181,0.517495,0.273538,-1.327098,-0.451976,-0.80971,0.836578,0.251148,-0.177267,-0.755219,0.085722,-0.867219,-0.45552
chiffre,0.074248,0.840585,0.387692,1.453172,0.555566,-0.124004,-0.119042,-0.151509,-1.319233,-0.360605,0.311711,-0.06635,1.20814,0.695264,-0.096101,-0.106432,0.540309,0.432654,-0.1992,0.2406,1.41787,0.197197,0.183711,1.022433,0.883799,-0.499766,0.649355,-0.194775,-0.087882,0.351722,-0.640639,0.8287,-0.184731,0.813386,-0.419788,-0.160133,0.228288,0.825508,-1.078731,-0.325449
expression,-0.065632,0.133939,0.013298,-0.315297,0.126447,-0.050129,0.462538,0.282257,-0.184421,-0.162937,0.327521,0.628598,1.510387,-0.29679,-0.491749,-0.223416,0.475601,-0.938772,-0.260859,0.814035,-0.209471,0.079977,0.061377,-0.247972,-1.055759,-0.927891,-0.380351,-0.147372,-0.047845,-0.845777,-0.221569,0.69751,-0.491573,1.110505,0.849092,-0.077003,0.368215,0.480387,-1.319982,-0.085201
propre,0.087702,-0.121446,0.109543,0.035706,-0.278149,0.323258,0.405725,-0.297034,-0.165809,-0.207488,0.26098,-0.151349,0.711956,1.038488,-0.591654,-0.266618,-0.15324,-0.208036,0.259576,0.3142,-0.497179,0.635138,0.203077,-0.096727,-0.385065,0.209676,-0.6226,0.411201,-0.256651,0.199837,-0.209884,0.774576,-0.53155,0.590509,0.819958,-0.430964,0.170085,0.193252,-1.85376,-0.524886
principal,0.320218,-0.617453,-0.050862,0.181915,-0.522776,0.162213,-0.106905,-0.148522,0.194973,-0.026376,-0.104048,-0.062632,0.376494,0.344919,-0.461416,-0.516053,-0.245915,0.328552,-0.120505,0.106017,0.105671,0.721582,0.298834,0.462514,1.070252,0.379162,-0.254862,0.424585,0.160724,0.055468,-0.086301,-0.047013,0.432926,0.193928,0.891786,0.001487,0.057329,0.953533,-1.584451,0.351935
paramètre,-0.176949,-0.213525,-0.420423,1.213985,0.038808,1.048057,-1.075471,-0.300144,0.213985,-1.537834,-0.227265,0.475938,1.927209,-0.169869,-0.704335,-0.013725,-0.064231,-0.18041,0.328687,0.268461,0.501127,0.511961,1.024252,-0.652854,0.525152,-1.653886,1.495837,-0.858709,0.830592,-0.187553,-0.240005,1.135068,-0.681911,-0.403556,0.18787,-0.93026,-0.095981,0.007358,-1.173673,0.447081
coordonnée,-0.167742,0.467422,0.12567,1.425609,0.714307,0.999913,-0.627777,0.216026,-0.782403,-1.775255,-0.040424,1.177711,1.277619,-0.709214,0.242613,-0.810272,0.417153,0.197225,-0.854551,0.202628,0.471912,1.072484,1.278206,-0.107055,0.229788,-1.195195,1.403844,0.697818,0.543422,-0.940376,-0.735489,-0.09578,-0.078867,-0.471962,1.186803,-0.74153,-1.02325,0.516025,-0.170376,0.805946
opérateur,0.318535,0.840301,-0.66903,1.236573,-1.067844,0.961485,-0.970587,-0.409369,0.000785,-0.24317,0.841839,1.55437,0.342427,0.446558,-0.287338,-1.2299,-0.292434,0.461259,-0.002009,-0.945499,1.050827,-0.061241,0.708994,-0.212826,-0.013979,-0.657409,0.271577,0.58328,0.595651,0.075765,0.545314,-0.010019,-1.198362,0.500843,0.272979,-1.201326,-0.433084,0.826732,-1.046663,-0.400488
numérique,0.713203,-0.439688,-0.693373,1.803232,-0.808824,1.299982,-0.080987,-0.672818,-0.356571,-0.898609,-0.178118,0.226612,1.097475,0.671601,-0.452536,-1.030917,0.130945,0.442084,0.275486,0.283561,0.347218,-0.278616,-0.729059,-0.2331,-0.582878,-0.329339,0.41146,-0.144919,0.291777,-0.655523,-0.364964,0.262697,-0.189701,1.416793,0.323571,-0.510232,0.826554,-0.078134,-0.954675,-0.319292
unité,0.286666,0.307737,1.071966,0.171018,-1.230545,0.842754,-0.31415,-0.694643,0.087283,0.203264,0.464486,-0.079067,0.92366,1.036362,0.472684,0.003388,0.366427,0.239931,-0.19225,-0.287973,0.055494,1.078527,0.741335,0.590496,0.746869,-0.820025,0.712366,0.582477,0.569278,-0.094398,-1.358595,-0.366039,-0.424292,0.496699,1.336776,-0.43544,0.797991,-0.051282,-0.579942,-0.18572
liste,0.26639,0.510404,0.120667,0.203597,0.000844,0.364444,-0.252341,0.487263,-0.935925,0.858852,-0.518174,-0.289672,0.454333,-0.331957,0.332345,-0.694805,-0.139205,0.716472,-0.292528,-0.155608,0.297617,0.307078,0.34555,0.95722,0.560369,-0.288995,0.428681,-0.025629,-0.063751,0.571715,0.140745,0.218024,2.031842,0.411307,1.031997,0.115092,1.43744,-0.03284,-1.619994,0.728114
convexe,-1.036515,0.631831,-0.092747,1.206046,-0.160261,0.000637,0.187645,0.883895,-0.308451,-1.107542,-0.062586,0.900557,2.04232,-0.888417,1.564578,-0.090463,-0.245804,-0.282394,0.170037,0.906352,-0.469549,-0.544096,1.535916,-0.834468,0.821163,-0.183902,0.557385,-0.153059,0.593507,-0.849708,-0.015651,1.490323,-0.490591,-0.426703,-0.046937,-1.101553,-1.11897,2.116473,0.833604,0.237969
rationnel,-0.504887,0.18954,-0.137187,0.901399,-0.270902,-0.126975,0.152316,0.09986,-0.71352,-1.111457,0.345314,1.487993,1.784299,0.414739,-0.36665,1.141162,0.515864,-0.362901,-0.301566,1.098692,-1.04795,1.193091,0.919094,-1.095228,-0.318592,-0.629949,-0.105735,0.503662,0.41846,-0.261664,0.020577,0.842696,-0.627467,0.788364,0.335256,0.119629,-0.045933,0.368346,-0.094385,-0.561667
nœud,-1.031119,0.059866,0.616316,1.382706,0.319662,0.053226,-0.803338,-0.45578,-0.014941,-0.34839,1.563726,0.321819,1.286489,-0.322349,-0.286862,-0.752733,0.067672,0.736662,0.009319,-0.632819,-0.376063,0.178852,0.492603,0.003441,0.744829,-0.247428,0.496239,-0.007688,0.581761,-1.181204,-0.720806,0.690342,-0.740563,-0.508286,0.036652,-0.47366,-0.098497,0.674635,0.147928,0.571223
$\mathbb{Q}$,-1.201961,0.625661,-0.583506,0.344453,0.203542,-0.164982,-0.024057,-0.902228,-0.258016,-1.031938,0.435967,0.992242,0.455855,-1.162187,-0.013466,-0.412646,0.282695,0.349229,-0.347255,0.309459,0.341538,0.915474,0.309046,0.026956,-0.193748,-1.168229,0.561387,-0.003387,0.531106,0.376252,-0.317441,0.289792,-0.178982,-0.145854,0.551047,-0.179108,-0.019189,0.75091,-0.169296,0.587485
topologie,-1.022001,-0.089723,-0.772828,0.866323,-0.753512,0.361888,-0.285933,0.323197,0.164031,-1.160367,0.15812,2.082839,1.591913,-0.15399,0.801871,0.209024,-0.038356,-0.479554,-0.704865,0.115355,-0.005529,0.365381,1.257558,-0.979493,-0.013602,-0.816323,0.372966,-0.460119,0.447757,0.138648,0.400398,1.136756,-0.818523,0.071541,-0.257752,-0.512056,-0.336845,1.730851,0.113416,0.287543
origine,0.471156,-0.125926,0.474346,-0.623417,-1.014851,-0.362659,0.200918,0.666757,0.032768,-0.120214,-0.103109,0.242548,0.876578,-0.079901,-0.967423,-0.216421,0.147341,-0.08486,-0.252766,-0.010569,0.441881,0.162004,0.307187,1.116855,0.014211,0.457345,-0.142608,0.360692,-0.548041,-0.504612,0.141526,0.020098,0.002623,0.625309,0.568037,0.182343,0.27681,0.718266,-1.687064,0.40003
distribution,1.314744,0.360794,-1.389791,0.062404,-1.785674,-0.458838,-0.696513,-0.277516,0.272832,-0.343563,0.165328,0.169833,-0.953554,-1.109621,-0.520585,-1.280145,-0.524065,1.052138,0.262265,0.462769,1.572036,0.187367,0.286269,-0.119835,0.846985,0.797678,0.172108,0.664521,0.688332,-0.213491,1.522716,1.061295,-0.762814,-0.401459,0.333132,-0.091486,-0.363073,-0.022019,-1.387797,0.008811
intervalle,-0.562979,-0.013139,0.134713,0.255294,0.441917,0.524331,0.489123,-0.507639,-1.018661,-0.87795,0.674482,0.551018,1.429946,0.113239,-0.40437,0.105977,0.112363,0.109758,0.346863,-0.190154,0.535504,0.007433,0.838795,-0.38481,0.606878,-0.732018,1.168876,-0.554746,0.369299,-0.333665,-1.196873,1.036925,-0.629556,-0.372206,0.384176,-0.253713,-0.671758,0.268974,-0.539624,0.463839
compact,-1.414029,1.157729,-0.734184,0.789714,-0.36512,0.714652,0.581104,0.219487,0.327648,-1.255347,0.191486,0.16516,1.610573,-0.353698,0.113605,-0.776027,-0.553015,0.364469,0.519756,-0.258123,-0.033078,0.054147,0.725708,-0.169489,0.061317,0.37355,0.794523,-0.563191,0.419099,-0.025206,-0.363814,0.988578,-0.826154,0.761399,-0.02331,-0.458468,0.710687,0.827588,0.17582,-0.348858
reste,-0.053653,-0.059227,0.710071,-0.565507,0.027316,0.035566,0.40263,-0.404412,-0.263692,0.028681,-0.375275,-0.220854,0.834646,0.886146,-0.19731,0.1598,-0.211867,-0.26956,0.195198,-0.098317,-0.472439,0.297705,0.243693,0.497857,0.875917,0.57391,-0.272452,0.171113,-0.274873,0.024852,-0.377805,0.434618,-0.114128,0.316325,-0.118233,-0.252306,-0.185849,0.112168,-1.620465,-0.154222
test,-0.175643,-0.30201,-1.587481,0.53757,-0.300315,-0.045952,-0.358198,-0.65452,-0.013485,0.104054,-0.284598,-0.208768,1.448996,-0.243999,-0.651842,0.640381,0.786413,0.218695,0.193268,-0.214292,-0.175034,0.208428,-0.237185,-0.122319,0.413686,-0.952924,-0.392414,-0.090417,1.627516,0.446565,-1.004601,0.283431,-0.393399,0.519768,-0.398432,-1.441081,-0.166925,-0.083963,-0.818953,0.150254
proposition,0.991683,1.047825,0.101874,0.164923,0.195825,0.528472,0.377186,-0.657393,-0.842122,-0.241794,-0.189811,0.309027,0.758058,1.01469,0.050166,-0.165657,0.57207,0.103653,0.122558,0.53346,-0.367887,0.440769,0.835296,-0.885075,-0.537196,-0.287572,-0.569994,0.384589,1.049652,0.402863,-0.02892,0.305263,0.381531,0.163294,0.412554,0.366203,-0.545242,-0.256209,-1.23118,-0.224568
catégorie,-1.450547,-0.514676,-0.15867,0.51149,-0.199509,0.160084,-0.313948,-0.099991,0.468664,0.223154,0.341214,-0.284036,0.425049,0.140509,0.546733,-0.130966,0.965832,0.248838,0.1392,0.716049,0.626709,0.507528,-0.110879,0.475967,0.454414,-0.234429,-0.442331,0.345083,1.234675,0.307338,0.138296,0.607183,0.073191,1.34063,0.47858,-0.034728,0.73401,0.273985,-1.452974,0.627096
programme,0.711637,-0.556043,-1.134522,0.53881,-0.240755,1.488611,0.296846,-0.273738,-0.097726,0.148786,0.086407,-0.083553,0.598937,1.026811,-0.032458,-0.516946,-0.036262,1.038868,0.262518,0.128038,0.288307,0.854583,-0.405118,-0.674356,0.239587,-0.121736,-0.634094,-0.109197,1.190041,0.586724,-0.538386,-0.12497,0.110231,1.686739,0.411593,-0.320408,-0.014613,-0.097864,-1.085894,0.22998
intégral,0.158566,0.714544,-2.062485,0.396372,-0.689852,0.542595,1.001135,0.172665,-0.694592,0.671183,0.597705,0.06072,0.923459,-1.072992,0.862914,0.089376,-0.266888,0.556523,-0.392112,-0.877259,-0.406469,-0.776475,1.684293,-0.853488,-0.47855,0.358002,0.262728,-0.668434,0.198976,-0.457341,0.64187,0.921242,0.672976,1.052383,0.361014,-0.155618,-0.169199,-1.061921,0.162893,0.944231
complexité,-0.149421,-0.951189,-0.651325,1.504026,-0.246961,0.446695,0.022262,0.134947,-0.819306,-0.581148,0.081469,1.043917,1.742303,0.263136,-0.664176,0.757305,0.070231,-1.101875,0.220082,0.563686,-0.27128,0.733551,0.224153,-0.624729,0.141726,-0.941774,0.887588,0.277253,0.341945,-0.376275,0.338351,1.229766,-0.825801,0.534155,0.275949,0.353376,-0.030175,0.521078,-0.712356,-0.777239
automate,-1.078787,-0.894052,-0.144398,1.735815,-0.101989,0.217352,-0.336606,0.86731,-0.837411,-0.794171,0.783871,1.474861,0.402243,0.59577,-0.605641,0.219295,-0.811777,0.058903,-0.509911,-0.463659,0.18441,-0.258079,0.536678,-1.013477,-0.692691,-0.406205,-0.571097,1.192897,0.201679,-0.279731,0.13405,1.267984,-0.328113,-0.089206,-0.345903,-0.784683,0.402222,0.709456,0.348849,-0.041875
moyenne,-0.684677,0.115404,0.543324,0.976064,0.936066,0.299734,0.122565,-0.558863,-0.342326,-0.535004,0.025245,-0.584512,1.485775,-0.278265,0.45714,0.288192,0.9416,0.435203,0.138584,0.666075,1.569816,0.461832,0.592965,1.24838,3.135395,-0.29295,0.236169,-0.780329,-0.214825,-0.305484,-0.592686,0.55041,-0.246176,0.126645,0.164147,-0.705121,0.127232,-0.620476,-0.984177,-0.52563
symbole,-0.376869,0.78231,1.108048,-0.4755,0.621736,0.192933,0.197878,0.714884,-0.293408,-0.742082,0.903674,0.075825,1.45982,-0.881159,-0.02871,0.012102,-0.071998,-0.740963,-0.73772,-0.113812,-0.118992,0.269176,-0.226178,0.415515,-1.261111,0.289544,-0.009572,0.875116,0.552209,0.03335,-0.436009,0.839312,-0.043553,0.870781,1.270232,0.081997,-0.003444,0.747646,-0.87405,-0.138903
axe,-0.111388,-0.522237,1.024571,0.275967,-0.567123,1.412898,-0.312049,-0.250337,1.218865,-1.033697,-0.884539,0.612201,0.635004,-0.214641,0.147757,-1.027458,0.811116,0.495584,-0.381071,-0.478979,-0.487442,0.554527,0.784962,0.079204,1.478737,-0.013821,0.173166,-0.561485,0.980332,-0.855252,-1.022075,0.450514,-0.166935,-0.035757,0.876276,0.22127,-1.262525,1.734947,-0.104878,0.048221
euclidien,-1.025403,0.386832,-0.011117,1.252963,-0.759917,0.347569,-0.064891,0.235541,-0.360149,-1.950279,0.283178,1.584952,1.462485,-0.298492,0.834094,-0.002701,0.439653,-0.178557,-0.839203,0.56699,-0.03232,0.51833,1.756493,-1.169832,-0.330421,-0.175861,0.53448,1.096202,0.31869,-0.337578,-0.055839,0.972644,-0.395457,0.171431,0.093885,-0.313028,-1.106353,1.766697,0.457009,0.26318
inférieur,-0.287983,0.197952,1.471462,0.34665,0.303777,0.070014,-0.134884,-0.400924,-0.180846,-0.192286,0.115044,-0.452652,2.05466,-0.092348,0.188763,0.183019,0.007053,0.053078,0.156221,-0.172269,-0.087949,0.029459,0.747758,0.700102,1.883753,0.149467,0.495612,-1.151043,0.388152,-0.426742,-0.751044,1.148182,0.190973,-0.330471,0.442342,-0.620874,0.139396,0.701197,-0.702872,-0.23343
dérivée,-0.789751,0.361639,-0.716417,0.647182,-0.424834,0.808683,-0.818391,-0.146701,-1.071735,-2.069795,-0.199344,2.006011,2.103705,-0.370197,0.352375,-0.013422,0.168434,-0.0798,-0.042444,0.166666,0.40509,-0.106784,1.100314,-0.797327,-0.286583,-0.915913,0.780139,-0.775873,0.325452,0.443427,0.273451,1.059276,-1.131245,-0.364486,0.557366,-0.364373,-1.196083,0.611232,0.055564,-0.179806
transformation,0.018635,-0.290393,-0.09703,0.079008,-1.358737,0.373932,-0.179104,-0.35607,-0.116394,-0.780487,0.302245,0.413917,1.361868,-0.050533,-0.849754,0.418349,0.072236,-0.21705,-0.287023,0.401947,-0.416675,-0.208811,0.869695,-0.321307,0.630234,-0.069589,0.100205,0.747057,-0.147087,0.387054,-0.582342,0.545091,-0.066689,1.25129,0.011764,0.063167,-0.002169,0.21467,-0.040284,-0.589149
anneau,-1.251149,-0.392672,0.144432,0.214272,0.026633,-0.227839,-0.961813,-0.58566,-0.063511,-0.786018,0.315465,0.082643,1.021581,-0.704727,0.381231,-0.055331,-0.387757,-0.367033,0.00771,-0.665346,-0.040146,0.219126,0.488339,-0.512634,-0.368017,1.129977,1.019761,0.397461,0.395754,0.224335,-0.698982,1.225334,-0.789658,0.137554,1.249918,-0.853018,-0.444457,1.734305,-0.15118,0.237825
facteur,0.065573,-0.372171,0.533526,0.087195,-0.659629,0.243084,-0.567765,-0.317158,0.090056,-0.22057,-0.094598,0.275418,1.569161,-0.523054,-2.167163,1.009838,0.286597,-0.341299,0.353592,0.273797,0.511799,0.585787,0.773475,-0.826589,0.662894,-1.064808,0.649198,-0.295371,-0.061226,-0.369344,0.457171,0.232703,-0.481579,0.935054,0.078898,-0.665864,0.116101,-0.133679,-0.919963,-0.540419
indice,0.09076,0.292172,0.130452,1.233672,0.709839,-0.146525,-0.782102,-0.728983,-0.175042,-0.469253,-0.456978,-0.042332,1.240702,-0.2184,-0.337498,0.271548,0.605002,-0.713713,-0.648,0.55549,0.837974,0.752737,0.90307,0.134058,0.442991,-0.620236,0.395175,-0.590339,0.164799,0.391744,0.189085,0.913717,-0.65926,0.725183,0.074922,-0.488695,-0.012642,0.817655,-0.386661,-0.083072
zéro,-1.328242,0.211002,0.134273,0.332817,0.443005,-0.306834,-0.463473,-0.903231,-0.868378,-0.849402,-0.598585,0.806931,0.905082,-0.276157,0.372447,0.058773,0.313063,0.385965,0.090705,0.42591,0.41352,0.045193,0.236017,-0.339052,0.42705,-0.460208,0.633507,0.334543,0.445737,0.184389,-0.455558,0.427556,-0.756349,0.878507,0.09943,-0.293161,-0.604477,0.042542,-0.558635,-0.2097
sphère,-0.118165,-0.456757,0.718216,0.42459,0.115196,0.687864,-0.326306,0.311356,-0.005112,-0.919458,0.096698,0.233262,1.786858,-0.015458,0.49043,-0.169222,-0.097451,-0.240431,0.039733,0.466816,0.088188,0.893062,0.471347,-0.784583,-0.360044,1.049142,0.218932,-0.14541,0.458361,-0.304826,-0.450717,0.412475,-0.864387,0.689594,1.203789,0.127495,-0.548378,1.390514,0.158356,-0.098196
strictement,-0.204489,0.694662,0.578481,-0.005568,-0.124137,0.657039,0.263105,0.866002,-0.449224,-0.808927,0.929919,0.456928,1.627919,0.135511,-0.193318,0.158625,0.607207,0.146099,0.317271,0.592443,-0.132596,0.751012,1.119439,-0.43527,0.136167,-0.506824,0.031422,0.216916,0.823451,-0.159541,-0.17215,1.506452,-0.710934,0.635868,0.280485,-0.558926,-0.540329,0.559604,-0.548167,0.557967
puissance,-0.556011,0.119048,0.907851,0.36509,-0.107703,1.048345,-0.40243,-1.057483,0.071913,-1.040666,0.514405,-0.502717,1.691889,0.458202,-0.729442,0.407325,-0.17607,0.543645,0.428801,-0.404778,0.283635,1.286625,0.26067,1.363935,-0.37441,-0.161277,-0.232789,0.164001,0.073182,-0.064139,-0.686079,0.399865,-1.213695,0.41318,0.980467,0.791523,-0.37942,-0.232702,-0.698903,-1.47828
Euler,-0.937001,0.564296,-0.730356,0.794901,0.846695,0.469324,-0.918276,-0.129625,-0.299076,-1.958977,-0.140111,1.652332,1.258497,-0.205327,-0.054172,1.000306,0.328849,0.020412,0.772782,0.17932,-0.262473,0.195705,1.415986,-1.604564,-0.556205,-0.065084,1.018973,0.021689,-0.335832,-0.122163,0.489324,0.019384,0.438128,-0.027791,-0.046454,-0.500951,-0.274569,1.169078,0.575828,0.675923
topologique,-1.346729,-0.057117,-0.346069,0.811795,-0.634607,0.359504,-0.335989,0.943685,0.17301,-0.951957,0.449195,1.516229,1.359989,-0.429481,1.094424,-0.083143,-0.840611,-0.579441,-0.880555,0.099184,-0.443324,0.584544,1.75231,-1.141792,-0.022511,-1.108515,0.588353,0.024908,0.807136,0.784303,0.420338,1.846542,-1.009718,0.546013,0.37116,-0.48713,-0.463004,1.932399,0.464561,0.074318
déduire,-0.30591,0.346787,0.018966,0.990266,0.849853,0.101452,-0.485408,-0.647475,-0.799526,-1.177199,-0.282815,0.910679,1.423938,-0.228277,-0.852994,0.637195,0.926509,-0.480243,-0.265747,0.153769,0.013461,1.016321,1.290671,-0.554761,-0.086344,-0.57628,0.683011,-0.226171,-0.196946,0.403666,-0.026139,0.911173,-0.690163,-0.096354,0.192012,-0.683172,-0.902286,0.909391,-0.792969,0.039767
composer,0.124735,-0.179439,0.504844,-0.328622,-0.720981,0.134674,1.133209,-0.472077,0.286608,-0.189672,0.739971,-0.334329,0.590113,-0.005322,-0.220378,-0.96787,-0.332943,-0.187707,0.221729,0.113121,0.328959,-0.013271,0.605475,0.068562,0.641079,0.428602,0.775883,0.280915,0.245858,0.384634,-0.674867,-0.12278,0.145496,0.089748,0.620029,0.125353,1.204532,0.568957,-1.606381,0.607007
deuxième,-1.273682,-0.501961,0.192875,-0.593776,-0.074905,0.013211,0.019589,-1.439093,-0.533961,0.321153,-0.289607,-0.210694,0.269144,0.565001,0.507824,0.049663,0.14604,0.615878,0.646772,-0.278404,0.055295,-0.4847,0.089513,0.388163,0.811217,0.425459,-0.127608,0.198243,0.404671,0.34669,-0.596626,-0.075087,0.822953,0.181748,0.316907,0.403846,-0.283906,-0.080357,-1.444481,0.394533
rayon,-0.41536,0.282048,0.282841,0.712512,0.620001,0.105509,-0.469366,-0.537812,1.057788,-1.131465,-0.053411,0.212979,1.68169,-0.43016,-0.183287,-0.368639,-0.266912,0.389223,-0.772152,-0.921023,0.56301,0.900114,0.667142,-0.554201,0.587156,0.660281,0.85439,-1.005285,0.715296,-0.898591,-1.56385,0.330474,-0.972182,0.380948,1.255421,-0.776961,-0.252519,0.555188,-0.039925,-0.687727
caractéristique,-0.234269,0.001268,0.028828,0.339243,-0.281486,0.426199,-0.050132,0.601929,0.962303,-0.911699,-0.30229,-0.22068,1.820659,-0.417465,-0.785626,-0.169064,0.022318,-0.247134,-0.209534,-0.4017,-0.020167,1.023309,0.485333,0.920431,0.850742,0.21759,0.401196,-0.349713,1.198394,-0.498233,-0.386605,1.323496,0.056349,0.362664,0.661395,0.019067,0.405235,0.479943,-1.271018,0.291566
vide,-0.713754,-0.200034,0.755791,0.894544,0.75893,-0.57336,0.117594,-0.239097,0.184955,-0.752905,0.041639,-0.202505,1.076414,0.238462,-0.679257,-0.210558,-0.835918,0.418992,-0.286719,-0.059021,-0.352319,0.16124,0.868133,-0.327633,0.30853,0.07883,0.248645,-0.185067,0.242611,0.032594,-0.968807,0.752041,-1.147717,0.315301,0.376242,-0.206924,-0.391312,0.776367,-0.295507,-0.570464
affine,-0.880183,0.296324,-0.584969,0.863052,-1.055929,0.840695,0.064984,0.598352,-0.018797,-1.56506,0.460326,1.386048,1.426019,-0.70254,0.587403,0.00545,-0.265064,-0.484435,-0.797148,0.374105,-0.257592,0.304044,1.960378,-1.397548,0.047048,-0.917558,0.430343,0.32386,0.152104,0.055079,0.271657,1.595447,0.020309,-0.466528,-0.408377,-0.373694,-1.510778,1.106125,0.397836,-0.014932
supposer,-0.205668,0.356951,0.424808,-0.011604,0.339663,-0.382306,-0.402103,0.152688,-0.463426,-0.177046,-0.323669,0.203866,1.290196,0.053679,-1.068537,0.391392,0.202696,-0.652176,-0.355157,-0.016887,-0.225456,1.280335,0.652228,-0.17047,-0.337176,-0.086368,0.373093,0.120161,-0.204741,-0.112027,-0.140584,0.530841,-0.529933,0.34829,0.213957,-0.463254,-0.848304,1.053408,-1.279514,-0.126154
ouvert,-0.100085,-0.30089,0.381516,0.380988,0.319029,0.597798,0.365409,0.305362,-0.25644,-0.079396,0.245425,0.367681,0.839715,0.49504,0.068708,-0.767128,-0.566828,0.374704,-0.564917,-0.046243,-0.796708,-0.294854,0.287047,-0.277354,0.563673,0.127762,-0.79434,0.065973,0.159657,-0.328459,-0.773822,0.831912,0.497177,0.797943,0.19355,-0.14307,-0.083443,0.675221,-0.560083,0.010266
partiel,0.251241,-0.534774,-0.04271,-0.106827,-0.232205,-0.233972,-0.154507,-0.56653,-1.005104,0.540155,-0.627858,0.219488,0.759194,0.125142,-0.366853,0.316108,-0.519063,-0.339104,0.164219,-0.16654,0.606134,-0.94002,1.214451,-0.284551,0.492413,-0.448184,0.027293,-0.657058,0.81313,0.474662,0.055477,0.751647,0.281872,0.145436,0.921481,0.090933,-0.055415,0.088831,-0.386371,-0.249207
approximation,-0.151173,0.060309,-1.268014,1.058491,0.569493,0.489299,-0.580841,-0.480207,-0.331976,-1.710406,-0.269217,1.377873,1.835916,-0.274718,0.019883,0.88715,0.688015,-0.485285,0.382582,0.341407,0.08249,0.406504,1.269453,-0.718584,0.053643,-1.104033,1.206351,-0.401662,-0.224368,-0.211584,-0.431531,0.705356,-0.801471,-0.28656,0.284171,-0.107378,-0.363276,0.864489,-0.089787,-0.199797
convergence,-0.342501,0.267672,-0.043126,0.469243,0.205318,1.6532,-0.189015,-0.007839,-0.576702,-0.200024,-0.395121,1.1554,1.729198,-0.687163,0.297841,-0.316844,0.394412,-0.574471,0.253682,0.283892,-0.212725,0.432387,0.638991,-1.14376,0.293364,-0.839684,0.152454,-0.777302,0.403038,-0.255817,0.478556,0.481613,-0.238081,0.655721,0.590708,0.259102,-0.359934,0.428083,0.026947,-0.597392
chemin,-0.157716,-0.261428,0.752976,0.189673,0.27093,0.34502,-0.019119,0.276785,0.145164,0.161537,0.144909,0.724893,-0.275519,0.835295,-0.029154,-0.693416,-0.274899,0.391953,-1.027594,-1.013785,-1.023983,-0.509973,1.093959,0.717975,0.973291,0.061282,-0.479924,0.865754,-1.048375,-0.479727,-0.614997,0.496235,0.099845,0.42035,0.387558,0.213616,-0.123725,0.032308,-0.750929,-0.338762
rotation,-1.471615,-0.441989,-0.161798,0.651832,0.044521,1.032068,-0.394863,-0.359514,0.479343,-1.165225,0.501145,0.032221,2.0685,-0.697916,-0.339005,-0.301273,-0.214685,0.201592,0.238071,-0.313299,0.344187,0.239458,1.125867,-0.720251,0.413718,-0.325091,0.568498,-0.619368,0.727064,-0.254579,-1.358332,-0.017169,-0.893383,0.031873,0.765978,-0.535988,-1.656982,0.495885,0.167802,-0.33343
différence,-0.465587,-0.105819,0.448219,0.361125,0.224607,0.108237,0.329236,-0.635959,-0.506917,-0.599454,-0.188826,0.18063,1.862918,-0.397353,-0.627953,0.119286,0.852655,-0.359797,0.119214,0.48486,-0.01376,0.515895,0.304202,0.280851,0.304953,-0.155956,-0.074979,-0.218314,0.391562,-0.553496,0.031239,1.148079,-0.690825,0.919835,0.571535,-0.15947,-0.208787,0.007461,-1.340035,-0.223384
analytique,0.082236,-0.505435,-0.624,1.471787,-0.476303,-0.006243,0.016995,-0.011959,0.063448,-0.946473,-0.432581,1.743194,1.927591,0.186317,-0.36678,0.940348,0.932638,-0.373725,-0.32633,0.297992,-0.393236,0.055292,1.293224,-1.347718,-0.629266,-0.323658,0.051842,-0.424037,0.297988,-0.532977,0.028433,0.173257,0.091585,0.88142,0.211506,-0.086184,0.575786,0.422454,-0.156547,-0.095507
formel,0.593015,-0.063138,-0.118272,0.249713,-0.354929,0.604807,0.253561,0.07156,-0.634195,-0.775498,0.325555,0.758688,1.429225,0.756154,-0.240324,0.612806,0.577187,-0.853939,0.050534,0.529553,-0.529307,0.233975,0.535807,-0.780971,-1.050549,-0.82833,-0.436848,0.548824,1.12799,0.008064,-0.03294,1.306429,0.001864,0.371265,0.165217,0.122408,-0.531388,0.27807,-0.911348,0.303381
intersection,-0.706948,0.165491,0.42691,0.810735,0.225544,1.049956,0.168295,-0.212958,-0.232276,-0.959834,-0.251493,1.440071,0.118767,-0.531272,0.317369,-0.803827,0.37708,0.065559,-1.29947,-0.595046,-0.659452,0.358263,1.270957,0.207328,1.105833,-0.405667,-0.037549,0.377683,0.436369,-0.625982,-0.532467,0.90556,0.077934,-0.415754,0.781748,-0.100079,-0.993735,1.648603,0.770736,0.535978
pourcent,0.870233,1.223517,1.646328,0.744956,0.536667,0.058459,-0.141578,-1.235092,-0.766825,-0.018819,-0.18898,-0.818557,1.068427,-0.89766,-0.856903,-0.775509,0.54712,2.260188,0.634162,1.679313,1.556909,0.729331,0.0562,0.720115,2.7913,-0.046383,-0.675124,-0.417803,0.176864,0.271934,0.209534,0.105679,0.211216,0.790237,-0.327916,0.292498,1.21085,-0.144906,-0.695036,-0.660764
caractère,0.259141,0.352482,0.470541,0.052462,-0.397621,-0.251766,0.748409,0.620324,-0.698708,-0.463605,0.3448,0.078999,1.573989,0.456705,-0.536599,-0.001486,0.224203,-0.870851,-0.121875,0.781494,-0.203118,0.602274,-0.16573,0.239373,-0.334131,-0.431676,0.061802,0.083949,0.649216,-0.948716,-0.164413,1.561572,-0.326609,0.731606,0.178581,0.076475,0.336485,0.185006,-1.553084,0.0074
raison,0.182901,-0.069452,0.370687,-0.336128,0.235294,-0.131609,-0.215987,-0.259873,-0.267739,0.263661,-0.834505,-0.269674,1.184066,0.61985,-0.843402,0.328089,0.006579,-0.126197,0.082154,0.260091,-0.378124,0.267509,0.433891,0.192258,0.475348,-0.203725,-0.810073,0.132556,0.038792,-0.1875,-0.32021,0.479977,-0.432487,0.714918,0.034234,-0.088306,-0.813505,-0.275317,-1.645635,-0.48172
aire,0.059796,-0.150017,1.053751,-0.211354,-0.228443,0.698247,-0.136814,0.959963,0.389636,0.116711,-0.739249,0.139361,0.634922,0.176181,1.066389,-0.739277,-0.47287,-0.56863,-1.069353,0.507882,-0.10212,-0.012454,0.958684,0.665466,1.989196,-0.434327,0.20799,-0.341823,-0.003326,-0.22423,0.30907,0.040052,0.685404,0.586231,0.450823,-0.705529,0.265408,-0.784683,-0.715531,0.91229
section,-0.091735,-0.357916,0.471739,0.182345,-0.781108,0.632573,0.456433,-0.216897,0.054385,0.446136,0.343079,0.321092,0.589888,0.656511,0.83667,-0.4351,0.559271,0.082271,-0.571063,-0.216682,-0.204028,-0.685452,0.642894,0.184618,0.902397,-0.387356,-0.144771,-0.076753,0.521917,-0.184473,-0.859716,0.224775,0.765463,0.749714,0.768511,-0.457967,0.752728,0.380785,-0.489312,0.179391
cycle,-0.490058,-1.667746,-0.444456,-0.028055,-0.857641,0.219099,0.050181,-0.535178,-0.063711,-0.446064,0.578393,-0.057553,1.238677,0.007223,-0.794092,0.412081,0.330014,0.231273,-0.026728,0.138729,0.570739,0.276839,0.814461,-0.993136,0.453063,0.7399,-0.012651,-0.769916,0.054612,0.562635,-0.807844,0.327093,-0.267459,1.054056,0.576576,0.10219,0.07669,-0.32493,-0.285796,0.53823
source,0.667816,-0.286462,0.05943,0.573542,0.052797,0.085145,-0.258026,-0.268153,-0.17179,0.521847,-0.372666,-0.459953,0.466831,-0.384063,-0.684641,0.000164,-0.010707,0.227806,-0.540822,-0.199111,-0.19238,0.007906,0.56454,0.839549,-0.297048,-0.586827,0.471705,-0.059274,-0.893731,-0.453607,0.349152,-0.044627,1.097521,0.561244,0.950322,0.104799,0.874212,0.137883,-1.269137,0.496818
discret,-0.528142,0.355929,-0.616612,0.074803,-0.037281,0.564509,-0.038254,-0.035151,-0.025248,-0.385182,0.533783,0.454159,1.316994,0.058583,-0.047924,0.10169,-0.248696,-0.833408,0.280177,0.320859,-0.144013,0.548974,-0.219061,-1.233062,0.275849,-0.157523,0.582807,-0.309169,0.224983,-0.924692,-0.050967,1.145437,-0.064897,0.289516,0.119409,-0.737553,-0.627504,0.783721,-0.385924,-0.818144
combinatoire,-0.476876,-0.867485,-1.103715,1.767736,-0.249652,-0.137275,-0.580447,0.916337,-0.588531,-0.864449,0.001327,1.553519,1.544183,0.375626,0.518896,1.091249,0.339593,-1.252009,0.096119,0.859894,0.338469,-0.097093,0.446451,-0.750766,-0.477993,-0.504007,0.411557,0.656797,0.248885,-0.211699,0.29815,0.105003,-0.044266,0.387793,0.24214,-0.446811,0.546226,1.780516,0.442524,-0.00311
dynamique,-0.087654,-0.786855,-0.209436,0.914242,-0.866423,1.424905,1.6e-05,0.397883,0.023009,-0.746489,-0.218497,0.686512,1.753197,-0.051487,-0.831261,-0.118633,-0.005012,-0.212473,0.31325,0.432628,-0.3011,0.550329,0.043383,-0.701298,0.402728,-0.326412,0.140888,-0.390131,0.422931,-0.691477,0.182023,0.421191,-0.5243,1.073487,0.682811,-0.152327,-0.003931,-0.342967,-0.537659,-0.771341
inverse,-0.591297,0.327872,0.358603,0.33247,0.117544,0.484084,-0.178079,-0.776701,-0.418081,-0.647713,-0.308262,0.689163,1.779418,-0.563769,-0.330905,-0.01595,0.388549,-0.090394,-0.019996,0.241963,0.229045,0.253304,0.652628,-0.301802,0.315274,-0.737374,-0.303607,0.040488,0.029947,-0.497041,-0.463573,0.670055,-0.829112,0.01145,0.082216,-0.37836,-0.470376,0.458544,-0.75087,-0.45895
minimal,-0.23193,0.101696,0.246323,0.9475,0.932421,0.964508,-0.211772,-0.038428,-0.066473,-0.624789,0.300753,0.132701,1.215139,-0.047676,-0.574816,0.034082,0.810153,0.493454,0.468474,0.151648,0.522486,0.325751,1.432433,-0.237725,1.096172,-1.695221,0.54251,-0.855901,0.875776,0.079217,-0.574615,1.304586,-0.299004,-0.234348,0.656084,-0.255698,0.340525,0.030126,-0.30322,-0.029478
extension,-0.14886,-0.180046,-0.20012,0.291605,-0.824528,1.041492,-0.096223,-0.141454,-1.00208,-0.332946,-0.088008,0.327649,1.206367,0.313684,-0.667909,-0.382662,-0.588904,0.253664,-0.269869,-0.077598,-0.915459,0.104054,0.078818,0.405932,0.544535,-0.651137,-0.147304,0.145722,-0.056588,0.310542,-0.77922,1.104558,0.256151,0.763616,0.099085,-0.05611,0.078246,0.71,-0.232235,0.139191
arc,-0.885435,-0.601073,0.59699,-0.155402,-0.111482,0.431776,-0.024307,0.166086,0.188988,-0.518169,0.446538,-0.213477,0.596546,-0.240589,0.073108,-0.525274,-0.258596,-0.181588,-0.508776,-0.65339,-0.652511,-0.272851,-0.427307,0.504303,0.537879,0.5316,0.553593,-0.115725,0.465606,-0.236601,-0.953973,0.602597,1.025255,0.316786,1.177022,0.151101,-0.320749,1.089832,-0.294774,-0.427453
énoncé,-0.518238,0.523164,-0.412792,0.920973,0.713908,-0.337604,0.439167,-0.191982,-0.95164,-1.203252,-0.386828,1.887409,1.379043,0.277831,0.179555,0.615864,0.975019,-0.566676,-0.307706,0.366069,-0.98224,0.512233,1.375266,-1.002452,-1.036589,-0.761892,0.209587,0.09374,0.916871,0.223981,0.011121,1.432993,-0.486621,-0.344507,-0.016534,0.216648,-0.224002,0.693131,-0.646631,0.659933
parallèle,-0.649706,-0.898056,-0.001547,0.407226,-0.370923,0.795813,0.543752,-0.365133,-0.26832,-0.356492,0.005584,0.539486,0.903223,0.425355,0.240502,-0.806017,0.159854,0.01333,0.001074,-0.228622,-0.046428,-0.160111,0.114415,-0.226746,0.529582,0.485805,-0.298911,-0.150823,0.08602,-0.521532,-0.839058,0.285461,-0.186726,0.255424,0.582472,0.115928,-0.356712,0.918065,-0.85158,0.032549
négatif,0.002895,0.585372,0.153245,0.316917,0.484861,0.012959,-0.035012,-0.803821,-0.433807,-0.653297,-0.780328,-0.126133,1.64369,-0.596223,-1.247239,0.115555,0.5221,-0.533219,-0.093105,0.867924,0.792408,0.565107,0.544521,-0.724599,0.046373,-0.66372,-0.119555,-0.021605,0.538425,-0.858783,-0.32449,1.01954,-0.918925,0.623651,-0.049961,-0.469335,-0.358468,-0.005983,-0.791207,-0.553781
niveau,-0.472777,-1.144934,0.991135,0.768907,-0.222525,0.87486,-0.008533,-0.627242,-0.296639,-0.05269,-0.180193,-0.318121,1.572712,0.150346,0.013155,-0.124084,0.192838,0.260018,0.266585,0.304861,-0.416747,0.202002,-0.099458,0.361356,1.873492,-0.176287,-0.248582,-0.128581,0.860891,0.332319,-0.657752,0.816461,0.12073,0.665047,0.615783,-0.558137,0.377527,0.107029,-1.161016,-0.32231
fraction,-0.286278,0.645115,1.358494,-0.21965,-0.059591,0.301479,-0.096244,-0.766278,-0.532003,-0.671784,-0.153499,0.659745,1.504061,-0.196316,0.384407,-0.057811,0.039005,-0.405269,-0.099886,1.070621,0.756854,0.559671,1.316244,-0.855952,0.424293,-0.885025,0.847367,-0.05374,-0.581879,0.568535,-0.791664,-0.348573,-0.302699,-0.335192,0.272749,0.122823,0.930776,0.818964,0.213309,-0.520047
segment,-0.69991,-0.08645,-0.397922,0.392783,-0.689452,0.160113,0.206582,-0.2516,-0.144424,-0.037646,0.11504,0.083885,0.341632,-0.80339,0.166349,-1.518248,-0.047668,0.21192,0.025679,0.070649,0.081924,-0.152752,0.649398,-0.212751,0.9855,0.052611,0.328102,-0.858253,0.413347,0.019056,-0.42447,1.110735,-1.000757,-0.180554,0.197584,-0.501221,-0.421947,1.22132,0.003321,0.517291
norme,0.499591,0.260775,0.176603,1.319948,-0.524761,0.820872,-0.043918,0.129237,-0.170672,-1.039104,-0.017923,0.160413,1.586452,0.370111,-0.691064,-0.304118,0.686335,0.800152,-0.043685,0.430076,-0.160467,0.024136,0.413899,0.649211,-0.910385,-1.35261,-0.606401,0.149244,1.409972,0.747052,-0.050784,1.113572,-0.317204,0.956849,0.202248,-0.162325,0.244331,0.197951,-0.944639,0.073113
local,0.651765,0.059563,0.712129,-0.240483,-0.264807,1.071973,0.009815,0.392837,-0.160178,0.510713,0.352533,-0.118783,0.587447,0.830521,-0.467545,-0.532337,0.00847,-0.104158,-0.197316,0.436588,-0.01004,0.372315,0.321668,0.258666,1.01792,-0.53343,-0.632459,0.690324,-0.733884,0.545009,-0.303899,0.052544,0.370744,0.801346,0.259579,-0.476958,0.543628,0.42157,-1.435918,-0.370971
métrique,-0.461104,0.137255,0.202286,1.165276,-0.137159,1.030356,-0.219825,0.449515,-0.151059,-1.355505,0.85005,2.063302,1.459097,0.41959,-0.082341,-0.20796,0.812617,-0.322025,-0.959684,-0.866522,0.525517,-0.536499,1.79246,0.281913,-0.192778,-0.765106,-0.055957,-0.074235,0.209656,-0.315696,-0.129094,0.867107,-0.654938,-0.278599,0.148592,0.682521,-0.148789,0.055235,0.073653,0.280013
symétrie,-0.594893,0.031648,0.702,0.517139,-0.363425,0.550661,-0.1711,-0.762956,-0.197399,-1.19318,0.124104,0.828561,1.727779,-1.038233,-0.410469,0.062867,0.076436,-0.89018,-0.174183,0.141011,-0.335769,0.296099,1.060571,-1.342461,-0.096922,0.486367,0.721849,-0.217675,1.523655,-0.291631,0.147334,0.98988,-0.089394,0.506525,0.796926,0.022105,-0.852601,1.123292,0.718462,0.002817
inégalité,0.177738,-0.013284,0.144005,0.621597,0.332759,0.5031,-0.609217,0.380994,-1.254485,-0.231195,-0.224805,1.038348,1.537019,-0.8227,-0.801706,1.125896,0.536178,0.328079,0.478739,1.167975,-0.085636,0.654852,0.533806,-1.004744,0.672078,-0.638419,-0.40702,0.049392,-0.063092,-0.422852,0.977939,1.152845,-0.477015,0.849968,0.161758,0.38591,-0.923402,0.969134,0.518138,-0.803001
chaîne,-0.293749,0.133105,-0.301617,0.084911,-0.219186,1.251172,-0.551472,-0.348432,-0.32227,0.285416,-0.197613,0.060664,0.743454,-0.110111,0.22711,-2.318653,-0.298358,0.18731,-0.365328,-0.023652,1.201629,0.03198,0.235149,-0.366149,0.401397,0.342383,-0.436384,0.109659,-0.069249,0.142222,-0.687108,0.190753,-0.650582,0.691748,0.08402,-0.360068,0.177583,0.971927,-1.331411,0.608617
prouver,0.203824,0.36878,0.077649,0.346501,0.754723,-0.648905,-0.473964,-0.173964,-0.360255,-0.009925,-0.708824,0.463857,0.73029,0.549572,-0.710392,1.106323,0.708948,-0.615715,-0.289386,-0.354538,-0.554659,0.981601,0.337653,-0.077933,-0.419577,0.168483,0.263172,0.222168,-0.138514,0.4911,0.112411,0.448841,-0.62179,0.521928,-0.20252,-0.617641,-0.573763,0.691465,-1.332399,-0.387213
Gauss,-0.20695,0.008434,-0.61641,0.869119,0.817302,0.371056,-1.033311,-0.247548,-0.715579,-1.643305,-0.032374,1.761717,1.34139,-0.505956,0.290185,1.396789,-0.055238,0.057484,0.332454,-0.169246,0.324405,-0.027726,1.545,-1.819744,-0.321404,-0.214097,1.055692,1.288688,-0.542298,-0.57662,0.040102,0.121826,0.170714,-0.73423,0.182503,-0.328235,0.136701,0.494652,0.452447,0.541986
symétrique,-0.737761,0.038239,0.582145,0.304524,-0.766678,0.44527,0.244602,-0.153851,-0.344151,-1.186594,0.553169,0.912054,1.617359,-0.574426,-0.265622,-0.14728,-0.269478,-0.651968,-0.040804,0.06317,-0.475091,0.082257,0.732396,-0.617074,0.348461,-0.288565,0.384555,0.409869,1.215427,-0.937129,-0.504581,1.68592,-0.044428,-0.100916,0.05841,-0.198866,-0.626487,2.16344,0.205478,0.275244
Riemann,-0.63726,0.67556,-0.680725,0.190361,0.100565,0.391346,-0.311552,0.297671,-0.753058,-0.921016,-1.056122,1.769164,0.939355,-0.671956,-0.138457,1.042909,0.095586,0.015504,0.096761,-0.439138,0.58685,-0.083146,1.484119,-1.534059,-0.531972,0.044999,0.593045,-0.365776,-0.316438,0.002368,1.062496,1.160128,-0.387465,0.162494,-0.32138,-0.878552,-0.31191,1.417472,0.684681,0.606524
$\mathbb{Z}$,-0.976688,0.455901,-0.434848,0.062957,-0.49574,-0.055482,0.162479,-0.705488,0.100946,-0.937512,0.087241,0.705707,-0.257069,-0.439267,0.075042,-0.50113,-0.132544,0.89349,-0.234631,-0.279491,0.221162,0.412411,0.154236,0.664876,-0.587957,-1.173925,1.298556,-0.428198,-0.023755,0.000255,-0.365544,0.563184,-0.290364,0.434333,0.22057,-0.009552,0.890775,0.600061,-0.15115,0.282987
polyèdre,-1.502815,0.796959,-0.026222,1.395929,0.154746,0.039145,0.040117,1.277075,-0.096771,-1.125248,0.448223,-0.058231,1.50054,-0.659268,0.725035,-0.263744,-0.30508,-1.31958,0.378194,1.576068,-0.220429,0.630979,1.570123,-0.719242,-0.081302,0.760822,0.424103,0.794231,0.538168,-0.44014,0.690663,-0.478911,-0.106286,-0.321883,0.175479,-0.820959,-0.982876,2.042663,1.804433,0.847121
binaire,-0.537677,0.408959,-0.138957,0.797661,0.29713,-0.127122,-0.545739,-0.183329,-1.312122,-1.141883,0.159312,1.043803,2.171726,-0.542749,-0.214487,-0.281944,-0.603441,-0.096898,-0.387117,-0.24018,0.672592,0.914662,-0.215882,-0.362616,-0.819787,-0.218737,1.124709,-0.558915,1.312052,-0.004879,-0.422012,0.617802,-0.630424,-0.154731,0.603769,-0.370498,0.776665,0.935534,-0.295847,0.802958
demi,-1.637993,-0.229686,0.867246,-0.490482,0.404146,-0.749814,-0.393526,-1.56593,0.198867,-0.454024,-0.088385,0.01549,0.487365,-0.165998,0.879779,0.031386,0.241341,0.278907,0.331023,-0.039426,0.464563,-0.241562,-0.182673,0.544635,1.387092,0.802858,0.237181,0.150329,0.825808,-0.040055,-0.205511,0.317825,0.390638,0.033374,0.108426,-0.138774,-0.845705,0.708131,-1.150851,0.35609
multiplication,-0.29415,0.089598,0.15214,-0.025637,-0.646447,0.327391,-0.49987,-0.190124,-0.701495,-0.619132,1.003089,0.099578,1.97624,-0.466279,-0.833435,0.498681,-0.20297,-0.062892,-0.477768,0.759193,0.504529,0.229043,0.326477,-1.226601,0.289726,-0.736548,0.584813,0.547559,-0.473115,0.208116,-0.72586,0.821286,-0.187331,1.065747,-0.94081,-0.275176,-0.667785,0.645225,0.085491,-0.425182
libre,-0.476314,-0.093421,0.368866,0.349807,0.278483,0.471754,0.098878,-0.347658,-0.099483,0.081672,0.209257,0.376847,0.979423,0.463663,0.202524,-0.518723,-0.534239,0.830254,0.555,0.265127,-0.613207,-0.307934,0.098385,-0.152683,-0.287352,-0.183033,-0.966221,0.195561,0.144507,-0.231667,-0.110002,-0.408425,-0.092449,1.13897,0.642731,-0.400526,0.374108,-0.257925,-1.049834,0.156603
identité,0.043968,0.292726,0.53551,0.219029,-0.413038,-0.074625,-0.097034,-0.109602,-0.974023,0.388893,-0.357623,0.648362,0.487743,0.358469,-0.147274,-0.543361,0.444672,-0.617528,-0.381133,0.560424,-0.202569,0.928328,-0.155082,-0.192832,-0.718824,0.009166,-0.458499,0.587648,0.269788,-0.36459,0.442236,0.427582,-0.638676,1.311019,0.778738,-0.363935,-0.101321,0.756697,-1.132627,-0.018702
Hilbert,-0.836293,0.399776,-1.030287,1.001169,0.299757,0.328668,0.27361,0.26203,-0.077885,-1.385543,-0.483066,1.864102,0.4226,0.146663,0.208459,1.376773,0.130001,0.292662,0.061136,-0.18559,0.182567,0.496496,1.342297,-1.611196,-0.504863,-0.096864,0.339125,0.429648,0.687386,0.16266,0.193772,0.294904,0.02843,0.019778,-0.241679,-0.348544,-0.523947,1.825283,1.04341,0.208923
scalaire,-1.031989,0.737925,0.10846,0.632219,-0.704802,0.751946,-0.634738,0.188402,0.159587,-2.092277,1.145284,1.161678,1.532303,-1.179062,-0.412849,-0.056752,-0.32502,-0.547586,-0.833186,0.734373,0.896081,0.588823,1.393892,-1.067564,-0.512358,-1.268534,1.202154,1.0839,0.253049,0.430132,0.583285,0.855793,-0.93456,0.173959,0.534369,-1.077905,-1.57954,1.184794,-0.008819,-0.377548
solide,-0.479451,-0.093779,0.732762,0.49444,-0.02277,-0.053151,-0.081976,-0.861034,1.272884,-1.166015,0.158296,-0.164393,2.137016,0.287712,-0.085754,0.23082,0.014279,-0.993699,0.46095,0.517304,-1.00695,0.331252,0.648517,-0.748346,0.60913,0.761695,0.418355,-0.203048,0.695729,0.217757,-0.577873,-0.337785,-0.808132,0.40734,0.056804,-0.067937,0.081738,0.59127,-0.50213,-0.677923
densité,0.090428,0.155083,1.254897,1.003115,0.077788,0.595411,-0.560489,0.267707,-0.058415,-1.389769,-0.91488,0.136467,1.799724,-0.666921,-0.263714,-0.009896,-0.151763,-0.09048,-0.400084,0.868842,0.979215,0.929979,1.198752,0.406076,1.994686,-0.54878,0.937771,-0.9095,-0.454233,-0.094021,-0.006201,1.320171,-0.954093,0.184792,0.63973,-0.72634,0.945515,0.035973,-0.167724,-0.430428
lemme,-0.363263,0.314584,-0.090619,0.988181,0.472621,-0.17699,-0.499071,0.079229,-0.741261,-1.035247,0.011005,1.864048,1.050993,-1.331549,0.460732,0.734536,0.56387,-0.104738,-0.168192,-0.513778,-0.437564,-0.418021,0.779136,-0.896924,-0.389963,-0.658219,0.742293,0.602648,-0.151264,1.039272,0.651419,1.537857,-0.566379,-0.950864,-0.925843,0.376326,0.427176,1.562734,0.226024,0.097351
polynomial,-0.967939,0.167948,-0.911865,0.89308,-0.325784,0.187648,-0.540174,-0.164949,-1.358367,-0.798398,0.147349,1.208992,1.719461,-0.573181,0.087155,1.270236,-0.186842,-0.280646,0.786503,1.042439,-0.792651,0.864854,0.841526,-1.037111,0.103926,-1.526162,0.683465,0.210318,-0.219857,0.620065,0.34806,0.83753,-0.54705,-0.729886,0.014526,-0.63817,-0.226815,0.956347,0.642116,-0.368549
cinq,-0.670476,-0.303481,0.615645,-0.19509,0.182213,-0.245837,0.481286,-0.586627,-0.476387,0.301783,0.457339,-0.734594,0.417724,0.899437,0.347037,-0.296998,0.111095,0.601667,0.275657,-0.138718,0.337095,-0.18345,0.277063,0.317997,1.152319,0.817008,0.101833,-0.01239,0.292965,0.330814,-0.986829,0.090366,0.588684,0.176121,0.459213,-0.151721,-0.267959,0.234217,-1.442631,0.278414
exponentielle,-0.761171,-0.230849,-0.82304,0.536975,-0.390128,0.38013,-1.067667,0.039547,-1.096268,-1.420927,0.208704,1.720055,2.390221,-0.40446,-0.34895,0.705996,-0.451516,-0.095473,-0.190911,0.494228,0.885174,0.55244,0.519501,-0.416971,0.700245,-0.941667,0.604913,-0.547017,-0.752435,-0.075894,0.214246,1.24373,-0.856237,0.019736,-0.426734,0.133067,-0.98917,0.812182,0.337516,-0.923482
élémentaire,-0.188283,-0.703773,0.577181,0.642128,-0.522498,-0.306887,0.002938,-0.196359,-0.162186,-0.961073,1.21311,1.793489,0.793423,0.649148,-0.442383,0.651456,0.089258,0.044236,-0.782417,0.272132,-0.349032,0.331717,1.057832,-1.415354,0.594045,-0.254485,0.328862,0.083097,0.561477,-0.056371,-0.356483,0.320169,0.010002,0.445062,1.112747,-0.538193,0.747416,-0.131505,-0.010192,0.138857
argument,0.097,0.567114,-0.534362,0.444704,0.509428,-0.045113,0.37591,-0.346778,-0.61459,-0.321144,-0.323227,0.480168,0.93902,0.217819,-0.73109,0.476163,0.705995,-0.735572,0.197073,0.598582,-0.953561,0.47894,0.839939,-0.784911,-0.901327,-0.433279,-0.205268,0.360471,0.234429,-0.520988,0.106681,0.3959,-0.061809,0.607649,0.132489,0.331352,-0.685014,0.460275,-0.691174,-0.165852
optimisation,0.085193,-0.967265,-1.352309,2.310063,-0.69227,0.806679,-1.072063,0.350984,-0.401601,-0.744464,0.442288,0.987209,1.73052,0.383085,-0.258999,0.429439,-0.017077,0.460204,0.779814,0.90387,-0.463573,0.196852,0.357518,-0.925793,0.189198,-1.191474,0.563808,0.273747,0.35894,0.117003,0.289029,0.599347,-0.778671,0.400311,-0.488004,-0.053366,-0.370658,0.768103,0.097893,-0.598277
Fourier,-0.235782,0.270023,-0.644058,-0.021203,-0.465554,0.732342,-0.122531,-0.14112,-0.577347,-1.847419,-0.3605,1.891156,1.197249,-0.507091,-0.26252,0.875293,0.197329,-0.04165,-0.631455,0.159331,0.298449,0.15598,0.258224,-1.72131,-0.386671,-0.667149,0.748411,-0.446685,-0.583268,-0.494679,-0.303401,-0.09218,0.689686,0.059679,0.458717,-0.977415,-0.061238,-0.032402,0.773263,-0.473879
dériver,-0.796643,0.448924,-0.348968,0.078431,-1.161898,-0.271218,-0.40349,0.348935,0.05355,-0.691124,0.296659,0.315258,1.571482,-0.086606,-0.690312,-0.860029,0.219118,0.057402,-0.354698,-0.057995,0.064381,0.725829,0.36376,0.75512,-0.667994,0.190069,0.194265,0.137859,0.020197,0.383351,-0.896053,0.206232,-1.010264,0.450818,0.138434,0.126815,1.194576,0.362881,-1.180472,0.731916
module,-0.219759,-0.8172,-0.704719,1.486464,-0.474578,1.016676,-0.006274,-0.381945,0.209041,-1.084258,0.798646,0.482467,1.35619,0.203088,-0.230191,-0.429821,-0.56319,0.78004,0.176903,-0.385164,-0.404942,0.67328,0.518028,-0.606574,0.223607,-0.941891,0.797779,-0.176143,0.838261,0.541827,-1.036619,0.486274,-0.474644,-0.027469,0.135158,-0.642678,0.209568,0.873339,-0.246907,0.469261
maximal,-0.600001,0.297259,0.143352,1.476814,1.124419,0.70763,-0.340468,-0.212384,0.23077,-0.619495,0.591727,-0.390144,1.5911,-0.134914,-0.717706,0.006251,0.240019,1.031407,0.220794,-0.516028,0.960205,0.536125,1.467863,0.655453,1.599267,-1.28419,0.312199,-0.925988,0.786233,-0.090445,-1.021055,1.278206,-0.783497,-0.296936,0.451885,-0.067076,-0.661276,-0.15058,-0.30331,-0.466978
paire,-1.581218,0.137983,0.503433,0.561802,-0.090337,-0.31148,0.062202,-0.947935,-0.092834,-0.303844,0.829201,-0.06446,1.322144,-0.966702,0.020288,-0.410775,-0.064588,-0.29637,0.414956,-0.739248,0.385153,0.156415,0.039374,-0.158842,0.434201,1.003196,0.564411,0.259318,1.180987,-0.426832,-0.112874,0.56253,-0.214915,-0.753007,0.080474,-0.985748,-0.043546,1.060065,-0.734946,0.41286
uniforme,-0.145015,1.000309,0.369412,-0.153313,-0.225113,0.331408,-0.227482,0.727843,0.182888,-0.443571,1.106752,-0.426378,1.056217,0.642023,0.674882,0.311701,0.019838,-0.985232,0.627431,0.188163,0.19712,-0.496132,1.068523,-0.081422,-0.049202,-0.240193,0.449641,0.891701,1.061629,-0.734552,-0.890007,0.976144,-0.699423,0.00959,1.07067,-1.049762,-0.400524,0.495664,-0.304633,-0.326689
action,0.446384,0.322871,-0.196294,-0.014197,-0.667541,0.5456,-0.09089,-0.451808,-0.151866,0.681973,0.190516,-0.638315,0.629607,0.821372,-0.360432,-0.420082,-0.07691,0.161756,0.234861,0.820394,-0.023474,0.655197,0.191952,-0.40069,0.078018,-0.91145,-0.413269,0.359717,0.471195,-0.058956,-0.69095,0.029408,-0.444586,1.114615,0.737392,0.026806,-0.100763,-0.040577,-0.886377,-1.020785
total,-0.362373,0.163273,0.739171,0.803909,0.618794,0.438903,0.097232,-1.137914,-0.801595,0.144765,0.217686,-1.030366,0.85515,0.106726,-0.278592,0.033201,0.235223,0.822805,0.027538,0.180714,0.84676,0.72613,0.408591,1.395584,1.735528,-0.378221,0.182665,0.058401,0.551111,0.633563,-0.642405,0.198984,-0.326243,0.978613,0.247269,0.153132,-0.237649,-0.330858,-0.432165,-0.422274
polygone,-0.533241,0.682808,-0.29683,0.949572,0.111754,0.245666,-0.268733,0.836964,-0.419955,-1.347868,-0.03128,1.098029,0.939883,0.162955,1.436723,-0.056286,-0.300297,-0.445552,-0.551455,0.131,0.281849,0.296485,0.403545,-0.414288,1.002484,-0.074044,1.435467,0.804029,0.536919,-0.6679,-1.176339,-0.046337,-0.300432,-0.009817,0.129408,-0.889491,-0.271451,1.25247,1.042334,0.083208
division,-0.808583,0.507679,0.517171,-0.3075,-1.395813,0.732533,-0.176372,-1.372121,-0.554071,0.562429,-0.011187,-0.12093,0.651461,0.570565,1.958376,0.695103,0.238956,0.362997,0.328577,-0.384631,-0.338431,0.293673,0.234362,1.455672,1.202812,-0.386185,0.461172,1.005034,0.271873,-0.04209,-0.711807,-0.80946,0.477822,0.835316,0.465857,-0.420419,0.320388,-0.546333,0.015525,-0.115441
signe,-0.675685,-0.135342,0.110835,-0.733273,-0.001938,-0.427695,0.413645,-0.861169,-0.441955,-0.305591,-0.453226,0.186387,0.590266,-0.24295,-0.014887,0.149524,0.043729,-0.722863,-0.146165,0.173364,0.255881,-0.590775,-0.576028,0.462895,-0.078105,0.024117,-0.30008,0.138609,0.564762,0.325398,-0.168255,-0.123857,-0.058752,0.881563,0.095897,-0.651064,-0.710636,-0.274987,-1.103648,-0.124479
troisième,-1.466826,-0.525516,0.234647,-0.563491,-0.100072,-0.012265,0.048226,-1.305073,-0.553623,0.374335,-0.315261,-0.382182,0.23866,0.503588,0.574974,0.048771,0.327735,0.581366,0.694038,-0.291974,0.040917,-0.210794,0.048558,0.319114,0.673154,0.569031,-0.074342,0.154296,0.403524,0.350811,-0.602106,-0.015249,0.990275,0.204967,0.37969,0.578701,-0.180414,0.041216,-1.411747,0.393656
composante,0.275239,0.119006,0.847106,-0.032561,-0.960769,1.626673,-0.291577,-0.05657,-0.165943,-0.653336,0.541405,0.647141,1.96857,0.004129,0.130978,-0.379821,0.314769,-0.601825,-0.150484,0.336423,0.274477,0.991722,0.09886,-0.362148,0.268374,-0.628655,0.611481,0.042799,0.847771,-0.41025,-0.68158,-0.162413,-0.653958,0.646224,1.362342,-0.29772,0.194901,0.230583,-0.138269,-0.110134
paradoxe,-0.814651,-0.32955,-0.696803,1.003237,0.798721,-0.352578,-0.642261,0.495552,-1.141066,-0.468214,-0.654433,1.019475,0.97298,-0.46265,-0.379843,0.701281,0.552326,-0.670556,-0.371877,0.526587,-0.441003,0.580215,0.614533,-1.097737,-0.839567,0.269211,-0.168009,0.241227,-0.395723,-0.409933,0.372784,0.460148,-0.479436,0.399055,0.759135,0.387604,-0.427103,0.183078,0.214748,-0.536988
égalité,-0.744522,0.674394,0.834403,-0.194655,0.369678,0.404275,-0.164307,-0.73496,-1.235663,-0.153754,0.248552,0.451852,0.874299,-0.034913,0.295688,0.676356,0.918851,0.221327,0.833124,1.466766,-0.283517,0.080594,0.371397,-0.688706,0.468708,-0.488958,-0.72581,1.139402,1.304862,0.179248,0.438702,0.57821,0.350218,0.955143,0.650239,0.302851,-0.947553,0.132184,-0.613754,-0.154853
critère,0.176409,-0.098212,0.243351,0.864559,0.184244,0.555273,-0.281923,0.006831,-0.500034,-0.144201,-0.179665,-0.052663,1.453709,0.254006,-0.034762,0.933524,1.891862,-0.601374,0.404878,0.669169,-0.016578,0.518408,0.575152,-0.275617,0.465817,-0.784858,-0.215044,0.496589,1.544958,0.425014,0.396598,1.836638,-0.135635,0.64994,0.015939,-0.606728,0.255237,-0.044107,-1.240449,0.364674
orthogonal,-0.816485,0.339276,0.477744,0.469647,-1.113156,1.331395,0.317944,-0.358021,-0.002178,-1.585993,0.307266,1.3779,0.805141,-0.855053,0.261994,-0.692623,0.359921,-0.148561,-0.439042,0.164744,0.12053,0.660087,0.81567,-1.017252,0.089126,-0.752119,1.342512,1.155891,0.697876,-0.63596,-0.339878,0.709322,-0.624559,-0.279081,-0.045319,-0.430517,-1.498773,2.252723,0.538638,0.227343
moment,-0.475317,-0.116199,-0.120616,-0.788477,0.279436,0.155187,0.169384,-0.87187,-0.271641,0.115144,-0.277504,-0.296713,0.389339,0.767296,-0.481113,0.024149,-0.550999,-0.090324,0.116307,-0.236744,-0.005961,0.446539,0.392663,-0.289582,0.072834,-0.215384,-0.281988,0.10399,-0.333777,-0.051341,-0.877414,0.401079,-0.408142,0.276649,0.47725,-0.094441,-0.8567,0.024921,-1.485031,-0.565817
conséquence,0.51448,-0.237377,0.488066,-0.219812,0.046338,0.178622,-0.690727,-0.485462,-0.551036,0.56854,-1.021529,-0.356913,1.391303,0.520544,-0.864176,0.69623,-0.132354,-0.066176,0.147471,0.231589,-0.314199,0.617284,0.588451,-0.078905,0.470569,-0.807648,-0.392195,0.290183,0.195554,-0.232571,-0.424597,0.332359,-0.578215,0.351831,0.08714,0.242062,-0.923187,-0.13069,-1.085624,-0.730027
orienter,-0.168025,-0.515474,-0.091921,0.507766,-0.291224,1.533775,1.121458,0.633202,0.282836,-0.614762,-0.013547,0.363977,1.319138,0.324048,-0.290104,-0.886581,-0.00479,-0.138071,0.210302,0.157905,-0.852144,0.361098,-0.163821,-0.243396,1.01711,0.12318,-0.258982,-0.376339,-0.010587,-0.541912,-0.877558,0.477982,-0.164992,0.282058,0.065015,-0.206011,0.050314,1.230558,-0.689272,0.030947
courbure,-1.026115,0.204305,-0.012548,0.838826,0.161783,0.587126,-0.608667,0.305849,0.333248,-1.491077,0.102254,1.01701,1.967085,-1.147785,0.121351,-0.063465,0.471428,-0.76654,-0.238824,-0.248773,-0.012142,-0.3338,1.364425,-0.822147,0.214563,-0.371369,0.433315,-0.538611,0.266274,-0.72815,-0.110381,1.14114,-0.781224,-0.551272,0.612196,-0.616086,-1.684494,1.19951,0.393535,-0.683621
couple,-0.794904,-0.079507,0.231541,-0.534131,0.354858,-0.452482,-0.089125,-0.644518,0.150524,0.087201,0.487533,0.189369,-0.185701,0.182832,-0.752032,0.171566,-0.519426,0.699483,0.482258,-0.007833,0.728483,0.648905,0.152628,-0.234337,0.324113,0.683736,-1.09567,-0.276691,0.058589,-0.433162,0.529296,1.023603,-0.379689,-0.155072,0.615698,-0.478458,-0.636691,0.425348,-0.973961,-0.208845
relatif,1.064829,0.038999,0.429512,0.407312,0.242111,0.561648,-0.549733,-0.144042,-1.023437,0.262967,0.168744,-0.362277,1.337407,0.643493,-0.742756,0.356329,0.830578,-0.015947,-0.254448,0.598934,0.052492,0.112358,0.926376,0.018806,-0.024299,-1.235581,0.111572,-0.472339,1.057837,0.462973,-0.288488,1.133192,0.298921,1.202436,0.86042,0.430114,-0.125754,-0.377542,-0.907499,-0.129713
morphisme,-1.710227,0.054524,1.207541,0.346369,-0.997872,0.448962,0.343479,0.218619,-0.160177,-1.135121,0.898181,1.096187,0.604226,-1.00212,0.159255,-0.062238,-0.716835,-0.978591,-1.954635,-0.239404,0.523063,0.6266,0.944564,-1.382256,-1.235803,-1.182922,0.441463,0.317989,0.706148,1.707778,0.056359,1.726891,-0.972915,-0.086377,0.514222,-1.564078,-0.168492,0.589128,0.582277,0.024466
central,0.641212,-0.275851,0.595054,-0.031122,-0.510599,1.243995,0.313061,-0.151353,0.209114,0.334811,0.17622,-0.170068,1.233324,-0.465027,0.63374,-0.40392,-0.842637,0.149304,-0.555388,-0.469284,-0.33111,-0.250861,0.333007,0.850896,1.071034,0.155513,-0.689632,0.29888,0.091907,0.016078,-0.312197,0.154533,0.670529,0.82223,0.704008,-0.359916,-0.368388,1.06325,-0.551695,0.132508
observation,0.664113,-0.149848,-1.346335,0.752768,0.946369,0.718869,-0.457514,0.089508,0.216302,-0.153861,-0.291436,-0.388948,1.483843,0.094172,-0.516017,0.842683,0.446911,-0.137451,-0.302558,-0.929966,-0.45979,1.064401,0.770273,-0.833214,0.483652,-0.088467,1.092372,-0.762058,0.302839,-0.808086,-1.166688,0.060547,0.681483,0.530879,0.669463,-0.444346,-0.481812,-0.55368,-0.996159,0.52688
fixe,-0.191591,0.104193,0.745997,1.098668,0.273262,0.814215,-0.343909,-0.171498,-0.166488,-0.701433,0.835571,-0.060275,1.222552,0.548696,-0.351848,-0.637453,-0.213245,0.53938,0.384287,-0.520272,0.237757,-0.571732,0.721282,-0.115562,0.103635,-0.092116,0.00605,-0.091677,0.950292,0.058147,-0.701014,0.649952,-0.305543,0.210185,0.642394,-0.596416,-0.497316,0.350916,-0.6132,-0.214774
raisonnement,-0.387063,-0.49404,-0.507255,1.607858,0.26679,-0.424232,0.336713,0.311361,-0.537027,-0.768066,-0.722524,0.992544,1.472732,0.336566,-0.349624,1.086149,1.345839,-0.947391,-0.240484,1.019528,-1.68368,0.711007,0.866623,-1.161453,-0.888165,-0.942151,-0.218828,0.320198,0.482072,-0.235296,-0.223347,0.446496,-0.373894,0.059152,0.007731,-0.152487,-0.592802,0.311706,-0.243802,-0.143348
