word,1,2,3,4,5,6,7,8,9,10,11,12,13,14,15,16,17,18,19,20,21,22,23,24,25,26
un,0.62662,-0.403919,0.522676,-0.64995,-0.088815,-1.268479,-0.711507,0.761011,-0.237367,0.510158,-0.793969,-1.114441,0.19571,1.045999,0.900603,-0.647412,-0.058855,0.035843,-0.239687,0.074426,-0.219494,0.212164,-0.392091,-0.39202,-1.149025,0.783131
nombre,0.426792,1.03502,0.302803,0.324222,0.307693,-0.600403,-0.764121,1.294937,-0.846224,1.287841,-1.084031,-0.536213,0.366883,1.452252,0.512854,-0.439918,-0.253656,0.903078,0.293984,0.104567,-0.821237,0.838443,-0.52215,-0.108225,-0.627649,0.198639
$\mathbb{N}$,-0.034119,0.171995,-0.128239,-0.544013,0.296871,-0.831155,-0.479409,0.57288,-1.014266,0.582206,-0.696127,-0.980398,0.182946,0.908021,0.710089,-0.36535,-0.136189,0.376329,-0.357601,0.248272,-0.709431,0.116138,-0.226115,0.406981,-1.309801,0.674619
deux,0.685956,-0.083936,1.02338,-0.349738,0.266397,-0.579594,-0.510822,0.791871,-0.333787,0.08557,-1.025504,-0.841208,0.344825,0.561646,0.866379,-0.669937,0.113432,-0.040077,-0.136658,-0.12688,-0.53389,0.025484,-0.656715,-0.036204,-1.629428,0.502686
fonction,0.189226,0.36305,-0.976739,-0.345054,0.907994,-0.93084,-0.780756,1.326792,-0.570461,-0.891218,-0.893052,-0.861793,0.045624,1.312662,-0.171461,-0.132733,0.539595,0.737207,0.407022,-0.278945,-0.030961,0.852297,-1.083492,-0.066724,-0.479224,1.563418
premier,0.88096,0.069886,0.59532,0.158141,0.655876,-0.710731,-0.501128,-0.351641,-0.425039,-0.094507,-1.01335,-0.9108,0.084975,0.511223,0.987751,-0.651226,0.321117,0.028593,-0.493923,-0.293337,-0.160681,0.250243,-0.336932,0.001877,-1.435579,-0.444186
ensemble,0.743488,0.057537,0.086593,-0.488382,-0.185296,-0.669218,-1.023011,1.255512,0.062275,-0.172919,-0.787456,-1.081602,0.133645,0.422037,0.239953,-0.683109,-0.282131,0.146799,0.24694,-0.575693,-0.040792,0.341746,0.062451,0.426525,-0.959159,0.762913
point,0.639032,0.283504,0.552439,0.543876,0.765754,-0.549331,0.208091,1.630058,-1.103222,0.693763,-0.913023,-0.583123,-0.285736,0.498657,0.321616,-1.07435,-0.528174,0.307279,0.263898,-0.550392,-1.023167,0.26773,-0.078016,0.151082,-0.977397,0.043979
théorie,-0.337675,0.958221,-1.737327,-0.498637,0.908488,-1.18876,-1.331566,1.006039,-0.604407,-0.278903,1.093585,-1.909215,-0.032521,0.804433,-0.657125,-0.904828,-1.025074,-0.656454,-0.015705,-0.38663,-0.757341,1.610233,0.150626,-0.342753,0.307234,0.254846
exemple,-0.338177,0.388062,-0.61578,-0.698956,-0.185334,-1.023802,-0.703636,1.61968,-0.138157,0.539206,-0.450426,-1.002851,0.373924,0.946126,0.662009,0.017233,-0.30092,0.284527,-0.409724,-0.11877,0.168035,0.662331,-0.159664,0.14086,-0.648075,0.912808
espace,0.732069,-0.075264,0.010158,-0.387873,-0.678605,-0.794304,-0.682182,2.505057,-0.115877,-0.606902,-0.631408,-1.732175,-0.046125,0.373802,-0.32419,-0.883303,-0.811764,-0.013901,0.415404,-0.259548,-0.137602,-0.491863,0.128598,-0.200979,0.225207,0.759448
théorème,-0.311796,1.788999,-2.037327,-1.005735,0.475749,-0.430105,-0.051171,1.734853,-0.08022,-1.549468,-0.899014,-0.598059,-0.083215,0.088984,-1.433332,-0.269947,-1.074308,-0.656953,0.90187,-1.633596,-1.705996,1.543901,-0.617131,0.837895,0.674962,0.500724
problème,-0.201756,0.128216,-0.68573,-0.555594,0.383222,-1.49129,0.293333,0.855941,-0.891104,0.15576,0.213323,-1.222103,-0.525122,1.376942,0.061226,-0.865658,-0.163612,0.261446,-0.171664,0.270911,-0.50734,1.030132,0.289768,-0.140137,-0.251182,0.702225
valeur,-0.079005,0.751655,-0.629455,-0.318835,-0.112337,-1.230255,-1.253671,1.834078,-0.885849,0.958046,-1.022181,-0.997929,-0.547545,0.717596,0.107055,-0.665671,-0.211453,0.782243,0.015974,0.006133,-0.07972,0.833868,-1.011693,0.345423,0.068007,0.575625
groupe,1.15763,-0.008319,-0.912166,-0.025148,0.762352,-0.111296,-0.463621,0.361994,0.390014,0.152468,-0.20428,-0.416621,0.364483,0.449717,1.612571,-1.319751,-0.121018,0.529087,-0.746357,-0.115831,0.049259,-0.335668,0.390538,0.154955,-1.546605,0.09039
graphe,-0.105377,1.652453,-0.88027,-0.523091,-0.594983,-0.045242,0.836687,2.241568,0.468682,-0.14305,-0.301451,0.228299,1.186493,0.021671,-0.886098,0.131947,-1.62855,-0.472186,2.40765,-0.964839,-0.921247,1.343486,-1.02364,-0.233855,0.122642,0.892595
forme,-0.321644,-0.163714,0.132707,-0.715407,0.160496,-0.813604,-1.291067,1.961068,0.305025,0.539961,-0.554407,-0.757928,0.46051,0.722205,0.921251,-0.082519,-0.458894,-0.531697,-0.190322,-0.489851,0.433017,0.604481,-0.350529,0.315355,-0.89903,0.84419
entier,0.014055,1.09039,-0.243134,-0.281082,-0.068443,-0.482067,-0.840412,1.316784,-0.049953,0.502687,-0.944872,-0.701876,0.359304,0.761165,0.748558,0.1078,-0.588523,0.392136,0.229385,0.332765,-0.368452,0.229442,-0.408188,0.598538,-0.667458,0.472194
système,-0.251889,-0.245069,-0.899918,-0.682291,0.340351,-1.049926,-0.321318,2.152581,-0.830423,-0.423063,-0.619263,-0.676554,0.451284,1.404895,1.14998,-0.873502,0.332846,0.218368,-0.16916,-0.292887,0.479547,1.039369,0.235034,-1.223603,0.117164,0.622994
équation,-1.288722,1.018882,-2.240514,-0.3101,1.021316,-1.129609,-0.187817,2.381647,-0.441706,-1.757321,-0.654927,-0.628414,0.395667,0.398859,-1.068966,-0.452167,-0.284433,-0.941674,0.196968,-0.421215,-1.868327,1.813005,-0.799217,0.429417,0.432627,0.253049
suite,0.277545,-0.148898,0.342012,-0.368699,0.755392,-0.878946,-0.083891,-0.374678,-0.626051,-0.048834,-0.71359,-0.851829,0.000366,0.833667,0.502448,-0.757006,0.602904,0.23895,-0.203222,0.055809,-0.196672,0.014176,0.330839,0.451031,-1.231841,-0.013242
algorithme,-1.207143,0.935387,-1.602609,-0.406701,-0.044255,-0.360384,1.028109,1.642822,-0.48884,-0.90933,-0.757349,-0.41863,0.068446,0.468425,0.36028,-0.165945,-0.58283,-0.464461,0.472543,-0.997974,-0.899238,1.947561,0.63077,-0.483043,0.555752,0.867775
calcul,-1.318296,0.873473,-0.938685,0.210456,0.17441,-1.097568,-0.248065,1.784642,-0.72484,-0.650724,-1.041101,-1.17444,-0.259139,1.055238,-0.06024,-0.180014,-0.127354,0.448335,0.187964,-0.752773,-0.640161,2.08642,-0.547863,-0.383861,0.6922,0.293485
application,-0.46832,0.458455,-1.327471,-0.442851,0.360255,-1.044238,-0.612379,1.943837,-0.605035,-1.038693,-0.583226,-0.892467,-0.341979,0.832343,0.930625,-0.172171,0.84203,1.126121,0.11123,-0.291077,0.71967,1.055559,0.728041,-0.749958,0.157037,0.857191
élément,-0.603637,0.10968,0.104742,-1.110288,0.045102,-0.571994,-1.410158,1.959112,-0.252589,0.593073,-0.086963,-1.108607,0.519024,0.684821,0.421393,-0.695427,-0.351866,-0.08573,-0.04909,-0.675213,0.231197,0.723088,-0.092737,-0.221828,-0.756324,0.597934
grand,1.186867,-0.54563,1.01189,-0.509187,0.076203,-1.111544,-0.985152,0.313664,-0.295771,0.208367,-0.766292,-0.790489,-0.30997,0.450728,0.255242,-0.40055,-0.301584,-0.365944,-0.464683,-0.156949,-0.010297,-0.588813,-0.847397,-0.211638,-0.908393,-0.135209
propriété,0.166757,0.130831,-0.481815,-1.739305,0.020987,-1.259955,-1.519628,1.141015,0.063634,-0.510739,-0.700143,-0.066651,-0.540645,0.799313,-0.149011,0.481964,-0.070068,0.656115,0.39987,-0.568932,-0.578084,0.531625,-0.765522,-0.14162,-0.095801,0.752632
ordre,0.031844,0.567064,0.056153,-0.81934,1.254468,-0.868106,-0.997563,0.119823,-1.345632,-0.115629,-0.410515,-0.560624,0.525612,0.779714,-0.294471,0.3796,0.495788,0.003524,0.143409,0.002933,0.318963,-0.201184,-1.503241,-0.29084,-1.241894,0.207721
variable,-0.614633,0.906907,-0.79546,-0.208673,0.495677,-1.565266,0.082899,2.811309,0.20758,0.455937,-1.180706,-0.376018,0.00618,0.545146,0.185789,0.163765,0.059404,0.209099,0.115318,0.217991,-0.297902,1.322088,-0.679137,-0.163618,0.300333,0.694608
base,0.214383,0.485828,-0.083862,-0.412813,0.045354,-0.608167,-0.93653,1.783492,-0.376345,0.226454,-0.352265,-0.091228,0.505377,0.997701,1.271471,0.010104,0.186304,-0.022935,0.313278,-0.330211,0.260835,0.592668,0.067683,-0.879284,-0.656101,0.450825
géométrie,-0.645993,0.888574,-0.900767,0.070804,0.398387,-0.001199,-1.051271,2.131461,-0.02562,-1.737958,-0.023722,-1.342909,0.073759,-0.082648,-0.791835,-0.323286,-1.148884,-1.017065,0.574756,-1.097496,-0.193028,1.980475,-0.807695,-0.289503,0.530722,0.382195
analyse,-0.295791,0.764092,-1.082112,0.502798,0.006861,-1.538175,-0.726087,1.182967,-0.274333,-0.120615,0.851377,-1.689231,-0.166063,1.065105,-0.261207,-0.374107,0.043554,-0.106972,-0.202475,-0.856066,-0.08767,1.136291,0.642398,-0.224012,-0.053455,0.476881
loi,0.504067,1.307936,-1.245929,-0.57866,0.769706,-1.170093,-0.966461,0.344399,-1.664784,0.256526,-0.164881,-0.442737,-0.422469,0.985747,-0.564886,-0.303192,1.111841,1.022782,0.586149,0.532132,-0.020002,-0.11647,0.096432,0.347411,-0.193047,1.169238
définition,-0.287045,1.056699,-1.614745,-0.264133,0.10186,-1.066534,-0.757795,2.067419,-0.678381,0.272656,-0.633864,-1.281729,0.305776,0.922149,-0.195708,-0.177119,-0.458217,0.423988,-0.016828,-0.613818,0.213814,0.793932,0.020174,-0.111886,0.370176,0.836523
réel,-0.575562,0.141067,-1.124686,-0.569146,-0.006647,-1.364544,-0.353857,1.198649,-0.910113,0.775133,-0.762637,-1.74342,-0.094475,0.278494,-0.015989,-1.163695,-0.341099,0.437317,-0.276665,-0.080802,-0.402144,0.479792,-0.039382,-0.123784,0.209419,0.722805
dimension,-0.342387,0.157234,-0.099896,-0.500527,0.104307,-0.840529,-0.973793,2.276972,-0.5276,0.599987,-0.486142,-1.361752,-0.051605,-0.676961,-0.009186,-1.19889,-0.782615,0.018713,0.653719,-0.389093,-0.061132,0.824858,0.004656,-0.352753,0.001489,0.441921
statistique,1.37173,1.067327,-0.570598,1.13819,1.112435,-1.032652,1.311645,0.608775,-0.312131,0.354778,-0.090025,-0.185186,-0.796704,1.128696,-0.268548,-0.254144,-0.90935,1.017707,0.709838,-1.638178,-0.135659,0.331301,-0.259554,-0.788903,-0.501097,-0.463103
sommet,0.99744,0.041071,0.948163,-0.248481,0.068788,-0.643034,0.002442,1.731817,0.088691,0.23212,-0.898233,0.0101,0.519467,0.631232,0.003522,-0.991707,-0.656611,-1.485838,1.457802,-0.416494,-0.00124,-0.476739,-0.170463,0.664878,-0.88728,0.092239
logique,-0.908611,1.040068,-1.316412,-0.491758,1.114561,0.210142,-0.53804,1.204448,-1.109017,-0.322437,0.103671,-1.856565,-0.12598,0.720668,-0.303409,-0.792394,-1.046381,0.065315,-0.422996,-0.925579,-0.19398,1.234616,0.520169,0.042209,0.723525,0.911062
terme,0.121567,0.211211,-0.645717,-0.569548,0.694359,-0.852308,-0.448501,0.860827,-0.480478,0.653475,-0.398419,-0.770926,0.02994,1.561759,0.46446,-0.290677,-0.735281,0.08055,-0.545059,-0.321692,0.41832,0.468839,-0.157196,0.290911,-0.508695,0.73431
trois,0.789702,0.046344,1.25248,-0.080224,0.319021,-0.439172,-0.362491,0.509547,-0.316687,0.218713,-0.912671,-0.922046,0.156008,0.497602,0.863318,-0.500764,0.148519,-0.017323,-0.059749,-0.165862,-0.338306,-0.169037,-0.609211,-0.00482,-1.681924,0.264023
plan,0.571803,-0.056998,0.43898,-0.726707,0.243392,-0.914969,-0.979065,1.223476,-0.730533,-0.345189,-0.525182,-0.876172,-0.442911,0.461724,-0.123907,-1.019143,0.51535,-0.402543,0.612777,-0.502176,0.05192,0.04573,0.59012,-0.134258,-0.269486,0.834847
formule,-0.363515,1.23984,-0.937589,0.0494,0.301571,-0.350374,0.329124,1.145062,-0.442989,-0.417302,-0.497644,-0.635669,-0.420368,0.456565,0.561678,-0.840937,-0.495769,0.119835,-0.76621,-1.048161,-0.544507,1.268746,-0.942871,0.815763,-0.807208,-0.310924
droite,0.454553,0.147092,0.874097,-0.135053,0.927904,0.553065,-0.806446,1.675117,-0.208753,0.280208,-0.255556,-0.42017,0.882449,0.555224,-0.459854,-1.38272,0.606929,-1.00236,0.260433,-0.703804,-0.057732,-0.963414,-0.528998,0.993312,-0.997696,1.287192
$\mathbb{C}$,0.103563,-0.01535,0.105048,0.040114,0.625347,-0.212514,-0.303634,1.385738,-0.869885,-0.000837,-0.515656,-0.335001,-0.006358,0.27879,0.631313,0.299509,-0.309334,0.717055,-0.69792,0.181113,-0.384055,0.264812,-0.010122,0.053738,-0.880143,0.168832
solution,-0.741492,0.045041,-1.449169,-1.015295,-0.084216,-0.969545,-0.560478,1.545415,-0.464877,-0.846011,-0.20245,-0.437047,-0.622831,1.072361,0.831089,-0.955003,0.280979,0.794562,-0.180588,-0.012341,-0.220637,1.092696,0.382111,0.179943,0.072602,0.551559
modèle,-0.0114,0.098599,-0.265322,-0.704082,-0.105999,-0.299043,-0.852661,1.532199,-0.810276,0.156661,-0.40986,-0.6481,-0.071772,0.127756,0.689539,-0.916667,-0.284499,0.386025,-0.848185,-0.405643,-0.182293,1.600753,-0.419539,-1.092636,0.146287,0.088311
linéaire,-0.615132,0.424642,-0.94634,-0.103346,0.237574,-0.612724,-0.534936,3.105854,0.136351,-0.400391,-0.74012,-0.642759,0.621985,0.506996,-0.305879,-0.704049,-0.295973,-0.385535,0.483201,-0.398316,-0.625512,1.631142,-0.252933,0.075649,0.285561,0.697529
probabilité,-1.338432,1.12688,-1.303211,0.105695,0.517595,-1.412041,0.418088,1.560957,-0.308967,0.202514,-0.461781,-0.944863,0.038974,1.166062,-0.691453,-0.24575,-0.388556,0.431026,0.420349,0.048135,-1.554742,1.168116,-0.577085,0.127815,0.600972,0.186982
série,0.325606,0.140399,-0.262794,0.314733,-0.049739,-0.898207,0.93026,0.307818,-0.096898,0.845663,-0.678527,-1.216689,0.08957,-1.670158,1.090933,-0.769822,0.013961,0.320635,-0.961954,-0.154991,-0.662694,-0.632036,0.590187,-0.578658,-1.373712,-0.222709
somme,-0.075818,1.155025,0.424179,-0.726262,0.503171,-0.437888,-0.776342,0.899594,-0.744898,0.378885,-1.324027,-0.611229,-0.469298,0.76095,-0.26281,-0.219696,0.381064,1.142911,0.31349,-0.297128,-1.230986,-0.291128,-0.783086,0.251531,0.377683,0.098223
mesure,0.46336,0.598149,0.074404,-0.048169,-0.024941,-1.48526,-0.275693,1.713836,-1.11103,0.400683,-0.140647,-0.21426,-0.053543,1.236247,-0.101134,-0.565519,0.471176,-0.251144,0.497755,0.52083,-0.057992,1.118183,-0.105127,0.202337,-0.545065,0.455849
carré,0.251921,0.731437,1.34437,-0.223606,-0.352499,0.157347,-1.295407,2.180776,0.050023,0.382169,-0.788655,-0.505725,0.161472,-0.479359,-0.211851,-0.58584,0.055466,-0.357389,0.512007,-0.725025,-0.631557,-0.186626,-1.124561,0.07029,-0.38244,0.55962
vecteur,-1.501531,0.326432,-1.905358,-0.097373,0.46397,-0.712264,0.238016,2.903042,-0.107849,-0.721034,-0.052391,-0.444869,0.875023,1.183599,0.011184,-0.01749,-0.463816,-0.05954,0.651017,0.396371,-0.688689,0.352664,-0.56904,0.011289,0.193138,0.745011
connexe,1.419153,0.474496,-0.108297,0.1573,0.114982,-0.718389,-0.601929,1.352606,-0.416148,0.102464,0.03315,-0.248618,0.394593,-0.016606,-0.443354,0.747986,-0.149247,0.25939,-0.121333,-0.717929,1.020483,-0.997756,0.197855,-1.268597,-0.093,-0.824394
classe,0.641566,0.74022,-0.204227,-0.324165,0.828027,-0.124456,-0.140305,0.800614,-0.757489,-0.284301,-0.398994,-0.316513,0.140555,0.331103,0.634255,-0.12346,-0.43376,0.479923,-0.430466,0.474706,-0.16184,0.769021,-1.051954,-0.934109,-0.527641,-0.020055
produit,0.349452,-0.018611,-1.093978,-0.849405,-1.232483,-1.195111,-0.660034,1.610939,0.562954,0.051901,-0.250788,0.135797,-0.721632,0.894211,1.815804,-0.339377,0.457903,1.32733,-1.017838,0.038561,-0.078333,0.949342,-0.058035,-0.161497,-0.326688,0.450612
égal,-0.113399,0.654804,-0.462201,0.134494,0.586005,-0.602357,-0.699126,1.911532,-0.767964,0.760475,-1.225825,0.035653,-0.067896,0.288775,-0.340407,-1.077103,-0.104201,0.724735,0.465751,0.456109,-1.014593,0.883599,-1.572924,0.811783,-0.241529,0.465436
cercle,0.538253,0.930493,0.50678,-0.0562,0.890967,0.400834,-0.879897,0.833399,0.381207,-0.334428,-0.277526,-1.401707,0.580939,0.153025,-0.124841,-0.825853,-0.871337,-0.643315,0.256286,0.001691,0.217109,-0.222018,-0.99286,-0.024042,-0.059636,0.274801
partie,1.060736,-0.254071,0.814253,-0.849677,0.527473,-0.707969,-0.964577,0.73201,-0.105747,0.337624,-0.968667,-0.467446,0.321055,1.041397,0.538091,-0.167638,-0.165206,-0.239091,-0.000772,-0.26213,-0.133151,-0.465953,0.278969,0.129606,-0.954415,0.251526
relation,0.521008,-0.190979,-1.614197,-0.357962,0.50893,-1.409085,-0.831796,-0.111798,-0.842465,-0.250934,-0.216548,-1.142517,-0.21094,0.886111,-0.460389,-0.341961,-0.515954,0.14178,0.044279,0.330352,0.203254,-0.224649,-0.149631,0.19721,-0.3883,0.600189
courbe,-0.633876,0.720616,0.332691,-0.559657,0.581354,-0.336548,-0.01324,2.720756,0.227564,-0.272333,-0.885504,-0.293862,-0.120217,-0.054512,-0.687001,-0.815447,-0.216456,-1.34661,0.420755,-0.596419,-1.180187,1.173657,-0.489402,0.172756,0.632679,1.274068
différent,0.318709,0.169242,-0.194658,-0.222246,-0.054913,-0.95597,-0.990036,1.418879,0.017028,0.571906,-0.759381,-1.19678,0.311837,1.303707,1.25335,-0.517885,-0.300652,0.018104,-0.35861,-0.237806,0.556738,0.512313,-0.115898,-0.326719,-0.740915,0.769563
complexe,0.220122,-0.551432,-0.276851,-0.885756,-0.252348,-0.747982,-0.924407,1.953104,0.155601,-0.400937,-0.036222,-1.036857,0.020865,0.685535,0.176527,-0.542387,-0.970811,-0.012793,0.409068,-0.326377,0.169095,0.718341,-0.048448,-0.29959,-0.302622,0.833308
matrice,-1.31057,0.615482,-1.210331,-0.78142,0.018824,-0.345775,-0.741483,2.522016,0.243945,-0.484014,0.02061,-0.105334,0.604397,0.083846,-0.045944,-0.49174,-0.047843,0.7422,0.779852,-0.957803,-0.73431,1.518085,-0.745745,0.31564,-0.14919,0.261262
domaine,0.628231,-0.466555,-0.465161,-0.676354,-0.025014,-1.262553,-1.897968,0.398965,-0.007935,-0.572144,-0.787589,-0.939182,-0.169578,1.395354,0.197495,0.324661,-0.10129,0.520957,-0.177988,-0.63824,0.044492,0.043751,-0.353589,-0.908692,0.454716,0.526802
fois,0.264304,-0.23586,0.603116,-0.025892,0.482902,-0.810492,-0.050469,-0.109183,-0.580714,0.40455,-0.938713,-0.825783,-0.009279,0.684376,0.947567,-0.735125,-0.055062,0.121092,-0.470957,0.123741,-0.60651,0.426142,-0.466405,0.38381,-1.541461,-0.125337
type,-0.086364,0.163827,0.057262,-0.62879,0.117598,-0.713843,-0.452465,2.794426,-0.191013,0.577942,-0.299269,-0.090936,0.378914,0.644859,1.048692,-0.035555,-0.174686,0.530374,-0.589779,-0.081466,0.264769,0.681507,0.000425,-1.159338,-0.225598,0.294375
mot,-0.458683,1.004542,-0.758875,-0.626758,-0.143507,0.02207,-0.723895,1.146069,-0.308543,1.230525,-0.411984,-1.183882,1.076478,0.392676,0.845461,0.652866,-0.944644,-0.218247,-0.987655,0.121733,0.345345,-0.19594,0.02851,0.670396,-0.942493,1.122114
algébrique,-0.788769,1.588995,-1.599235,-0.698774,0.976117,0.136303,-0.786578,2.08164,-0.060617,-1.017,-0.17401,-1.228288,0.131894,-0.00677,-0.885811,-0.202678,-1.572575,-0.052437,0.528984,-1.154908,-0.508548,1.871751,-0.767426,0.163434,0.483688,0.886109
degré,0.727658,-0.078606,0.331699,1.121562,0.18386,-0.708784,-0.686039,0.910428,-0.688817,0.496552,-0.026412,0.243357,1.114351,-0.198617,-1.81718,0.741758,1.075715,0.070469,-1.311996,-0.343171,-0.649559,1.250827,-1.140315,-0.683253,-0.684677,-0.608952
langage,-0.627965,0.677846,-1.460054,-0.150541,0.262045,-0.029442,-0.518315,1.171277,-0.386773,0.224825,-0.406728,-1.853066,0.493272,0.321775,0.459964,0.498057,-1.344423,0.007289,-1.157879,-0.75866,0.480503,1.310613,0.686718,-0.529015,0.511237,1.554367
nul,-0.321849,0.881869,-0.649997,0.382349,1.375036,-0.755368,1.048582,1.369088,-0.902698,0.093534,-0.938368,-0.396489,-0.102358,0.837166,-0.287819,-0.789423,-0.894112,0.41482,0.350159,-0.143065,-0.703376,0.173111,-1.101153,1.652744,-1.02708,-0.305893
moins,0.51731,0.048794,0.753285,0.040607,0.151561,-1.198908,-0.470732,1.057333,-0.434426,1.646135,-0.793622,-0.306378,-0.065775,1.629406,0.825009,-0.633405,-0.381508,0.275401,-0.485494,0.342214,-0.613993,0.665797,-0.759971,0.310198,-0.887252,0.46788
objet,-0.345562,0.637718,0.267425,-0.964478,-1.019617,-1.620927,-1.008238,1.327958,-0.455195,0.54411,-0.342518,-1.776453,0.130854,0.432882,0.328252,-0.14308,-0.109647,-0.051301,0.494392,-0.464747,0.427361,0.300575,-0.327353,-0.695046,-0.387373,0.190401
triangle,-0.095338,0.563519,-0.316616,-0.090313,0.534135,0.23211,-0.243584,2.015534,0.489194,-0.139203,-0.601979,-0.185909,0.797557,-1.020188,-0.061546,-1.053714,-0.495494,-0.761243,1.57979,-0.170847,-0.197301,-0.13101,-0.408983,-0.101626,0.052459,0.587741
structure,0.360754,-0.094982,0.004366,-0.71048,0.472826,-0.812741,-1.566606,2.348119,0.321704,-0.285722,0.311232,-0.700649,-0.201324,0.735441,0.383219,-0.840351,-0.338647,0.16141,0.659422,-0.572204,0.623348,0.896413,0.252168,-0.439724,-0.357427,0.711808
corps,-0.607567,0.023062,0.81239,-1.056428,1.051051,-0.62621,-0.874563,1.272169,-0.725052,-0.103579,0.719482,-0.931919,0.262782,0.221662,0.477182,-0.344208,0.306687,-0.38733,0.666921,0.704747,-0.336632,-0.012903,-1.258011,-0.904943,-1.133356,0.790397
rapport,0.393785,0.368006,-0.353816,0.360389,0.005765,-1.532425,-0.789747,1.44723,-1.071864,0.740619,-0.129068,-0.68789,-0.211249,1.094786,-0.281332,-0.862592,0.758247,0.533118,0.124605,0.058067,-0.087763,0.512747,-0.120163,-0.148518,-0.115472,0.360395
longueur,0.534362,0.472097,1.281918,0.163822,-0.02965,-0.468329,0.143421,3.305406,-0.33354,0.338434,-1.211124,0.409243,0.67534,0.393183,-0.099591,-0.605544,-0.229766,-0.66651,0.359343,0.13711,-1.068027,0.667624,-0.759182,-0.378186,-0.261461,0.240315
informatique,0.127601,-0.154174,-1.537665,0.268195,-0.256207,-0.355418,-0.301593,0.834286,-0.038044,-0.995056,-0.331667,-1.449208,0.468348,1.01437,1.031022,-0.07397,-0.182902,1.157841,-0.325109,-0.824387,0.775829,1.075132,0.502634,-2.139109,0.628821,1.009579
infini,-1.412461,0.686716,-0.599744,-0.409655,0.241896,-0.685596,-0.176461,2.212551,-0.471427,-0.309632,-0.514648,-1.726788,-0.214569,-0.570329,-0.614673,-0.399903,-1.078813,-0.060638,0.45652,0.370826,-0.882936,0.1196,-0.55853,0.994622,0.427328,0.19584
variété,0.79241,1.244235,-1.002761,-0.178374,-0.7905,-0.798173,-0.657477,1.693851,0.892563,0.152666,-0.011681,0.400289,-0.690202,0.19674,0.798779,1.058849,-0.729535,-1.116982,-0.823559,0.075535,-0.231272,0.611626,-0.772691,0.333312,-0.185376,0.705448
ligne,1.239371,0.394717,1.454649,-0.100536,0.413236,0.270633,-0.149543,1.600094,-0.920458,-0.469881,-1.421752,-0.803599,0.368536,0.57504,0.068939,-0.074823,0.300385,0.174172,-0.629539,-0.240551,-0.467504,-0.200343,0.924042,-0.411739,-0.03384,-0.10223
positif,-0.511986,0.440851,-1.105488,0.851763,0.712042,-1.265358,-0.218627,1.361371,0.116419,0.959406,-0.118537,-0.888852,0.068871,0.680103,-0.238231,-0.86793,0.133386,0.726524,-0.217247,0.01369,-0.671624,0.997611,-0.051905,0.698869,-0.085325,0.519015
angle,-0.496271,-0.271376,1.230896,0.033672,0.744706,-0.168782,-0.933967,2.272675,0.061764,0.123061,-1.00168,-0.662233,0.47082,-0.505678,-0.522851,-0.942829,0.023319,-0.981615,1.241439,-0.542105,-0.515065,0.450717,-0.409324,-0.277674,-0.185935,1.167946
polynôme,-1.39459,1.258358,-2.337896,-0.393304,1.201541,0.123422,-0.4308,1.876587,0.004937,-0.606376,-0.858428,0.414839,0.956626,-0.056255,-1.161297,0.317376,-0.957068,0.384292,0.706625,-1.038626,-2.49114,1.229657,-1.617637,0.629639,0.276384,0.859956
centre,2.044798,-0.629012,0.959095,0.433139,0.340356,-0.270681,-0.892708,1.093992,0.217221,-0.735454,-0.161026,-0.802829,-0.091473,1.089628,0.21918,-0.428861,-0.448835,0.239007,0.718327,-0.293625,0.547758,-1.034961,0.482988,-0.872127,-0.4162,0.316577
démonstration,-0.854018,1.049816,-0.289693,-0.218893,0.172788,-0.055811,0.362074,0.600642,-0.345542,-0.568423,-0.592101,-1.573001,-0.441165,0.410746,0.406452,-0.798329,-0.891286,-0.282079,0.227923,-0.325584,-0.309952,1.452041,-0.342449,-0.028367,0.269695,0.131727
vectoriel,-1.229628,0.540035,-1.8419,-1.066016,-0.218053,0.070257,-0.198274,2.99396,-0.213158,-1.024518,-0.714918,-0.851187,0.56046,-0.590296,-0.647562,-0.239131,-0.79894,0.44097,0.356956,-0.653887,-0.11953,1.115744,-0.657186,-0.096605,0.243919,1.222654
limite,0.55008,0.191784,0.000575,-0.80851,0.743825,-1.11163,-0.35799,1.945269,-0.443454,0.29275,-0.97002,-0.313137,-0.058783,1.314217,-0.596151,-0.446129,-0.165488,-0.052427,0.347974,-0.331113,-0.687423,-0.389738,0.188888,0.378304,0.314301,0.804543
représentation,0.134906,0.790557,0.036599,-0.024615,-0.122223,-0.782567,-1.19915,0.864358,-0.266004,0.658024,-0.796597,-1.661389,0.324536,-0.037327,-0.488612,-0.305439,-0.457142,-0.19131,0.334129,-0.352807,0.920234,0.38116,-0.688516,0.392019,-0.33992,0.485804
famille,0.929396,-0.023736,-0.137348,-0.949789,-0.266975,-0.974449,-1.36762,-0.764398,-0.417028,0.178843,-0.325883,-0.038973,0.278118,0.438126,0.015563,1.425526,-0.02604,-0.270915,-0.499228,0.080989,-0.695453,-0.402707,-1.28962,-0.373565,-1.067845,0.387681
arête,-0.301694,0.684418,0.987631,-0.712882,0.403834,0.463998,0.282524,2.463078,0.340624,0.26884,-0.600432,0.422735,0.792157,-0.11525,-0.508245,-0.331622,-0.803909,-1.449603,1.496753,-0.962676,-0.822649,0.699325,-0.308779,0.631795,-0.447223,1.007815
distance,-0.034682,-0.089014,0.338482,0.087251,0.18751,-0.849107,0.867396,2.16556,-0.661522,0.007043,-1.280616,-0.782162,0.465555,0.893438,0.046304,-1.000213,-0.445024,-0.19258,0.430922,0.303438,-0.822442,0.511525,-0.355315,-0.514885,0.014465,-0.074007
surface,-0.021096,-0.430858,1.003568,-0.367246,-0.42809,-1.391633,-0.438139,3.130826,0.088715,-0.002436,-0.311168,0.315852,-0.185619,0.980637,0.560081,-0.632841,0.175754,-0.488672,0.615453,0.441593,-0.879578,0.665272,0.034171,-0.277093,-0.067235,-0.092611
aléatoire,-1.459451,1.088306,-1.139282,-0.741551,0.235572,-1.005771,0.714336,1.603357,0.123275,0.263058,-0.943827,-1.117509,0.354146,0.984855,0.041177,-0.63738,-0.356047,0.075188,0.478527,-0.215162,-0.679434,0.955003,-0.286474,0.194864,0.818588,0.537194
naturel,1.003464,-0.005075,0.184572,-0.645868,0.026955,-1.96057,-1.030201,1.978328,0.015688,0.136077,0.230309,-0.262009,-1.001831,1.717642,-0.314383,0.907673,-0.786945,-0.213659,-0.178608,-0.26489,-0.32075,-0.392829,-0.193297,-0.04362,0.094019,0.266438
normal,0.160485,0.135048,0.079886,0.015107,1.043126,-0.821368,0.154103,1.575916,0.210989,-0.653033,-0.16202,-1.067977,-0.128133,0.432734,-0.221357,0.310224,-0.444753,0.590653,-0.203076,1.228043,-0.318446,0.82712,-0.646864,-0.474505,0.067995,0.931996
arbre,-0.147637,0.13502,0.821571,-0.416604,-0.716993,-1.137844,-0.682255,1.90382,0.153058,0.451805,0.067675,-0.028516,-0.570266,0.533497,0.824977,0.702635,-0.778417,-1.005875,0.109691,0.436012,-0.392915,-0.273999,-0.613739,0.082941,-0.5063,0.548438
démontrer,-0.869971,0.512876,-0.905684,-0.588557,0.031814,-1.148417,-0.138792,0.433419,-0.678368,0.152297,0.6049,-0.937541,-0.446237,1.24805,-0.10968,-0.56497,-0.838139,-0.097845,0.351269,-0.201481,-0.871773,1.279009,-0.367149,-0.103945,0.024467,0.342917
algèbre,-1.434595,0.636975,-1.750531,-0.880539,1.128275,0.852152,-1.422206,1.712656,0.308912,-1.29149,-0.071204,-0.6599,0.760695,-0.496254,-0.325033,-0.211043,-1.385913,0.152975,0.918223,-1.385654,-0.227146,1.474563,-1.210642,-0.240496,0.494674,0.68704
règle,-0.577062,0.998613,-0.5395,-0.436789,0.652709,-0.432942,-0.168315,0.763238,-1.156271,0.495485,-0.867438,-1.041686,-0.510553,0.983186,0.365684,-0.322322,-0.182189,0.730868,0.268426,-0.682533,0.625844,0.956363,-0.340149,0.416265,-0.55551,1.439387
volume,-0.103903,0.842079,0.456926,0.341845,0.523965,-1.005373,-1.111489,1.374778,-0.457563,0.090738,0.019198,-0.367874,-0.485919,-1.296618,0.056458,1.066456,0.424162,0.151295,-0.7483,0.30378,0.221915,1.088614,1.289878,-0.172379,-0.446366,-1.331865
calculer,-0.995989,0.875328,-0.746562,0.396349,-0.12368,-1.393908,0.336908,1.964425,-0.456648,-0.093135,-1.41616,-0.558136,0.1109,1.005122,-0.242452,-0.77726,0.193779,0.439793,0.833961,-0.156457,-1.447494,1.425271,-0.736106,0.195386,0.508481,-0.256041
constant,-0.327685,0.2207,-0.56525,-0.264566,0.620289,-1.023117,-0.928896,1.449837,-0.311066,-0.4748,-0.049514,-0.534258,-0.23573,0.419941,-1.159481,-0.573621,0.547069,0.054541,-0.784211,0.180506,-1.27428,0.613709,-0.894108,0.304804,0.561945,0.11445
quatre,0.72645,0.066194,1.584948,0.256401,0.179824,-0.333983,-0.369457,0.764966,-0.310664,0.290253,-1.10231,-0.532219,0.274792,0.387497,0.821055,-0.627941,0.226783,0.163518,0.162104,-0.196443,-0.423132,0.221839,-0.79641,-0.006482,-1.657239,0.071998
différentiel,-0.745515,0.483774,-1.137248,-0.134208,0.97206,-0.716736,0.505593,2.31461,-0.077893,-1.088685,0.068846,-0.446379,-0.049792,0.627756,-0.977049,-0.390396,-0.154376,-0.045063,-0.164319,-0.771774,-0.618072,2.030467,-0.444089,-0.273133,0.410541,1.066319
hypothèse,-1.020709,0.566447,-1.026433,-0.833357,0.038175,-1.39559,-0.658962,0.666343,-0.86433,0.484692,0.283562,-1.097096,0.161359,1.579236,-0.49787,0.035095,-0.67743,-0.721316,0.389504,-1.189778,-1.044434,0.660235,0.174337,0.411579,-0.156788,0.251271
image,-0.318863,-0.084688,-0.234197,-0.074184,-0.643941,-1.117841,-0.660103,0.906021,0.061187,0.548787,-0.608426,-1.783803,0.29062,-0.587782,0.309424,-0.616124,0.068547,-0.113004,-0.359678,-0.40796,0.44415,0.118772,0.570926,-0.422278,-0.266025,0.300775
régulier,0.343792,0.394526,0.906551,0.792016,0.940051,-0.223473,0.370191,0.854934,0.051637,0.563261,-0.96453,-0.593001,-0.079364,0.744154,0.382352,-0.699581,-0.266074,0.54196,0.803829,-0.327633,-0.642153,0.618793,-0.261736,-0.043752,-0.683913,0.628491
complet,0.245384,0.627544,0.29661,0.146525,0.164261,-0.780593,0.094852,0.859733,-0.669379,-0.308346,-0.367186,-0.990242,-0.321569,0.329958,0.372864,-0.09675,0.001132,-0.114178,-0.317056,-0.585797,0.560232,1.107756,0.290418,0.02255,-0.877113,0.028454
racine,-0.510665,0.586634,-0.303405,-0.138284,0.442116,-0.354029,-0.970484,1.351495,0.608987,0.284748,0.324507,-0.397843,0.323837,0.500904,0.157427,1.006092,-0.707816,-0.836424,-0.916139,0.191006,-0.47853,0.187113,-0.643063,0.582983,-0.418761,0.590474
coefficient,-0.857403,0.897589,-1.344554,0.290834,1.329371,-0.942172,0.203038,2.581072,0.275466,-0.288623,-0.832159,0.103754,-0.488046,0.546865,-0.603356,-0.779403,-0.19312,0.817257,0.0702,-0.527162,-0.95218,1.310006,-1.552258,0.789637,0.579329,-0.182052
côté,0.668427,-0.758662,0.956792,-0.441998,-0.183686,-0.084142,-0.697189,0.329506,0.039771,0.331356,-0.520569,-0.665795,0.455688,-0.080196,0.344939,-1.134064,-0.043591,-0.947183,0.143489,-0.455304,-0.623065,-0.555282,-0.31018,0.039591,-1.268166,1.070164
preuve,-1.17486,0.479108,-0.553646,-0.770193,0.030312,-1.313068,-0.308703,-0.37937,-1.307658,1.049134,0.265821,-1.39296,-0.485058,0.946949,-0.015451,-0.366857,-0.33318,0.227925,0.381197,-0.62871,-0.369518,0.476348,-0.173672,-0.198908,-0.265467,0.722458
axiome,-1.437403,0.831314,-1.697736,-0.917898,0.439944,0.437368,0.16125,1.049085,-1.228845,-1.06082,-1.051188,-0.509152,0.021132,0.236872,-1.110544,-0.071324,-1.06712,0.121304,1.094806,-1.755031,-0.539483,1.664574,0.008495,1.150826,0.476937,0.527571
$\mathbb{R}$,0.050951,-0.118284,-0.78911,0.12827,0.912589,0.160123,0.221274,2.042978,-0.664276,-0.092413,-0.61346,0.758722,0.567053,-1.299612,0.231365,0.126311,-0.074975,0.967233,-0.75299,-0.115746,-0.758452,0.469791,0.732505,-0.220875,-0.809405,-0.363273
continue,0.453926,-0.565075,-0.03935,-0.089533,0.55176,-0.509198,-0.516781,0.113935,-0.187344,-0.635419,-0.598768,-0.668838,-0.11641,0.610842,0.071293,-0.59019,0.025564,0.013637,-0.223916,0.635976,-0.431176,0.75349,0.231297,0.433904,-0.586641,0.441356
résoudre,-0.977863,0.230607,-0.890931,-1.054672,-0.047175,-0.674219,0.03253,0.123169,-1.358207,-0.284365,-0.300645,-0.97095,-0.015242,0.989906,0.170713,-0.793904,-0.066948,-0.259944,0.22683,-0.013477,-0.785394,0.683259,-0.227038,0.090913,-0.185266,0.78048
arithmétique,-1.483845,1.506406,-1.097798,-0.127533,0.512317,0.201663,-0.64988,1.26775,-0.310102,-0.845981,-0.675461,-0.982931,0.172903,0.582872,-0.306773,0.434122,-1.012345,0.170178,0.404658,-0.782108,-0.638594,2.136081,-0.798826,0.110049,0.978091,0.094241
conjecture,-1.00325,1.668314,-1.571691,-0.302776,0.264619,-0.545063,0.020086,0.43594,0.020421,-0.403589,-0.275754,-0.415531,-0.08475,-0.311145,-0.787912,-0.093575,-1.119435,-0.6699,1.405001,-0.915984,-1.461284,1.316034,-0.090047,0.604833,0.879116,-0.304089
réseau,1.294427,-0.506757,-0.304362,-0.134621,-0.387802,-0.404504,-0.217555,1.856451,-0.083675,-0.748561,-1.122369,-0.857117,0.408854,1.5466,0.575745,-0.746535,0.43901,1.158301,-0.045123,0.019587,-0.019158,-0.715713,1.241913,-1.023794,0.70174,0.80497
opération,-0.046358,-0.19392,0.088855,-0.92917,0.154323,-0.682793,0.542345,0.433022,-1.303728,-0.496202,0.235723,-0.333769,0.120545,1.171267,0.86578,-1.095271,1.149148,0.004037,0.39113,0.626244,0.429362,-0.28805,0.594593,-0.905508,-0.570359,0.085536
chiffre,0.263349,1.199989,0.13165,0.50706,-0.890448,-0.527647,-0.40258,1.350025,-0.681502,1.395632,-1.15094,-0.102228,0.3967,0.98027,0.489283,-0.410593,0.521157,1.230356,0.118939,-0.002172,-0.254621,0.411741,-0.139241,0.057132,0.212646,-0.308878
expression,-0.346923,0.585165,-1.123715,-0.350982,0.741284,-0.675859,-0.934788,1.022207,0.022213,0.911114,0.065573,-1.446952,0.528563,0.544434,0.253624,0.001453,-0.784228,-0.136503,-0.849985,0.296269,0.91149,0.370838,-0.128503,0.345019,-0.168772,1.134891
propre,0.140865,-0.115891,-0.647622,-0.850943,-0.124956,-0.728704,-1.003844,0.351108,-0.434674,0.135436,-0.613738,-1.40632,0.037154,0.578081,0.851766,-0.644627,-0.210467,0.353814,-0.429413,0.086601,0.060663,0.140969,-0.205715,0.023676,-0.638776,1.097613
principal,1.239508,-0.585241,-0.105719,-0.166906,-0.315682,-0.987554,-0.674935,0.572043,-0.210639,0.032245,-0.544088,-0.41899,0.435092,0.338916,0.323792,-0.557054,-0.007901,0.011652,0.191666,-0.512583,-0.264786,-0.073206,0.10082,-0.709212,-1.011603,0.439708
paramètre,-1.077338,0.207474,-1.510515,-0.109698,0.419122,-1.886128,0.517142,2.654684,0.005604,-0.397658,-1.54362,-0.259504,0.21337,1.077554,-0.492147,0.072142,0.256299,0.106956,-0.107369,-0.57234,-0.69026,1.362935,-0.280724,-0.077426,0.896163,0.34357
coordonnée,-0.598833,1.070986,-0.942794,0.606105,0.443132,-0.444506,0.204041,2.708387,-0.80941,-0.456685,-1.445128,-0.3192,1.894586,0.595846,-1.048392,-0.234595,-0.087335,-0.649312,1.587317,-0.345713,-0.800781,0.16512,-0.272725,-0.201064,0.401494,0.310741
opérateur,0.439742,0.615379,-1.722953,-0.551866,-0.777976,-0.174168,0.550428,1.152526,-0.464727,-1.406667,-1.00522,-0.40345,0.746011,0.370066,0.334275,-0.979411,0.950024,0.444251,-0.341987,-0.230049,-0.462019,0.266926,-0.250265,-0.923694,0.418771,0.799693
numérique,-0.302618,0.154925,-0.988057,0.687949,-0.374832,-0.674945,-0.472706,1.415866,-0.041572,-0.291053,-0.890352,-1.448154,0.39059,0.70107,0.901196,-0.821115,0.827433,0.675794,-0.874064,-0.754336,0.821932,0.497292,0.664954,-0.947322,0.73763,-0.017594
unité,0.489878,0.266418,-0.060176,-0.770221,1.16628,0.160621,-0.744223,1.677613,-1.107397,0.073712,0.020816,-0.259217,0.756862,1.284793,0.692772,-0.695258,0.272429,0.810577,-0.026827,0.418324,0.044528,-0.420205,-0.269837,-1.374923,-0.195413,0.14087
liste,1.694863,1.134014,-0.342178,0.108168,0.391452,-0.868335,-0.583325,0.975646,-0.274225,0.392452,-1.041326,0.184818,0.597573,0.285162,0.364471,0.851267,0.441654,0.057116,0.005281,-0.897996,0.567763,-1.378177,0.213348,-0.357458,-0.957901,-0.414733
convexe,-0.434803,1.532395,-0.349304,-0.340589,0.203916,0.286758,0.280917,2.696956,0.422691,-0.304266,-0.265638,0.133786,-0.040488,-0.307436,-0.521318,-0.451006,-0.884251,-1.323962,1.790803,0.087732,-0.707386,1.340688,-1.085987,0.690693,0.129058,1.636175
rationnel,-1.04574,0.986521,-1.50136,-0.513053,0.724237,-0.009828,-0.865138,1.575995,-0.734332,-0.052637,0.2088,-1.342965,-0.320267,0.628476,-0.458646,-0.453228,-1.357845,0.214709,0.261188,-0.163764,-0.822916,1.194109,-0.380336,0.21062,0.811969,1.307292
nœud,-0.713766,0.271813,0.515909,0.180586,-0.21511,0.13348,0.681267,2.539665,-0.634983,0.035625,-0.788406,0.247914,0.719179,0.258778,0.208549,-0.008269,0.041465,-0.09578,0.281773,0.480449,-0.835853,0.505562,-0.868175,-0.537701,0.148646,0.616447
$\mathbb{Q}$,-0.841273,0.271811,-1.202455,0.593345,0.712577,0.115683,0.449817,1.584082,-0.153196,-0.096113,-0.741887,0.123038,0.91609,-0.838427,0.16773,0.19097,-0.584744,0.611275,0.343397,-0.063335,-0.440777,0.171914,-0.240109,0.21794,-0.646116,0.105886
topologie,-0.459271,0.504296,-1.546144,-0.659941,0.539341,0.265497,-0.067828,2.227552,0.298291,-1.355174,-0.940125,-0.463944,0.295551,-0.139839,-0.755968,0.093932,-1.438917,-0.406307,0.779579,-0.106086,-0.519535,1.693506,-0.359249,0.291754,0.742409,1.255115
origine,1.10587,-0.214962,-0.158312,-0.579307,-0.58777,-0.722717,-1.486888,0.257113,-0.151396,0.803037,-0.253294,-0.441448,0.934299,0.597814,0.156813,0.139196,-0.268625,-0.327615,-0.803703,-0.54719,0.04673,0.034392,-0.160249,-0.520677,-0.847206,0.259335
distribution,1.258535,-0.253592,-1.881958,0.414029,-2.098777,-1.431748,0.419798,0.461072,0.190181,-0.270858,-0.215791,0.450308,0.152472,-1.36193,-0.088385,-0.161105,1.097501,-0.203798,-0.514794,-0.49825,-1.142841,-0.237596,-0.195589,-0.573623,-1.120411,0.555324
intervalle,-0.792176,0.588952,0.04688,0.260011,0.678648,-0.504142,-0.072256,1.883751,-0.288191,0.136583,-1.372996,-0.408192,0.702171,0.44378,-0.45355,-0.350413,0.191122,-0.305994,0.520475,0.670697,-0.667052,1.272122,-0.377532,0.892613,0.077405,0.561778
compact,-0.624953,0.62312,-0.619052,-0.492769,-0.255978,0.210259,-0.207201,2.598622,0.328158,-0.086971,-0.68335,0.276797,0.175982,-0.683676,0.858674,-0.644029,-0.425096,-0.266739,-0.090949,-0.087942,-0.136811,0.976975,-0.22092,-0.016921,0.396994,0.101982
reste,0.462632,-0.256105,0.697799,-0.849021,0.203797,-0.735916,-0.519383,0.19651,-0.513199,0.537375,-0.669434,-0.604169,-0.051287,1.334853,0.586197,-0.575004,-0.384938,-0.092205,-0.108639,0.103065,-0.607106,0.271145,-0.279599,0.481816,-0.947549,0.448324
test,-0.754552,0.437238,-0.632347,0.297893,0.754703,-1.330368,1.266706,0.963766,-0.171333,0.035012,0.035948,-0.519383,-0.632686,0.775657,1.083821,-0.473515,0.129346,0.700326,0.33289,-0.133116,-0.146712,1.626765,0.335463,-0.959859,-0.522213,0.281891
proposition,0.086791,1.101018,-1.076167,0.074646,0.417324,-0.395912,-0.636602,-0.062305,-1.390796,-0.241397,-0.624321,-0.851184,-0.338617,0.82775,0.056399,-0.893357,0.831031,0.239379,0.462092,-0.233795,0.182949,0.33962,0.276908,0.630781,-0.326532,1.007732
catégorie,0.861689,0.548852,-0.650558,0.497916,0.131732,-0.596626,0.529758,1.186043,0.119711,0.827511,-0.502106,-0.762717,-0.233291,0.083755,0.754421,-0.698197,-0.94119,1.061287,-0.377344,-0.621157,0.590014,0.104484,-0.835344,-0.423052,-0.603757,-0.04335
programme,0.788837,-0.122413,-0.891506,0.706954,-0.103574,-0.964949,-0.048672,0.498887,-0.255764,-0.850327,-0.667893,-1.317436,-0.333105,0.915273,1.080839,-1.177683,0.311207,0.818843,0.262458,0.0763,1.12368,0.601389,0.92938,-0.568437,-0.104583,0.204966
intégral,0.365877,2.221464,-0.650216,0.216205,0.214088,-0.793375,0.396868,1.310255,-0.341341,-1.22738,0.359632,-0.446504,-0.841936,-0.808706,0.072801,1.363774,0.130663,-1.023403,-0.081198,0.250644,0.685538,1.028514,1.343595,0.230855,-0.577324,-0.406098
complexité,-0.951518,0.276926,-1.228112,-0.357893,0.111816,-0.938534,-0.246867,1.5551,-0.471793,0.465839,-0.157445,-1.137734,-0.474924,0.804517,-0.551298,-0.921363,-0.966085,-0.060891,0.008986,-0.654123,-0.316913,1.487387,0.166784,-0.005298,1.204034,0.903849
automate,-0.607814,1.096515,-0.237014,-1.147248,-0.994669,0.920672,1.015995,0.968406,0.506346,-1.22393,-0.866605,-1.478718,0.369707,0.024499,-0.36267,-0.18591,-0.846113,0.739248,0.37477,-0.315117,-0.190509,1.145601,-0.212297,-0.270397,1.202237,0.928056
moyenne,1.258128,0.343772,1.116904,1.521403,0.491435,-1.151991,0.036735,2.109594,-0.081349,1.514419,-0.991066,0.611213,-0.543057,1.441786,0.070877,-0.485407,-0.249571,0.728389,0.046445,0.425417,-1.748583,0.447124,-0.628413,0.001354,0.198302,-0.254177
symbole,-0.537299,0.692061,-0.302954,-0.660486,0.039798,-0.226037,-1.027701,1.276009,-0.272656,0.991105,-0.292014,-0.841379,0.602409,-0.023024,0.411576,-0.236941,-0.845864,-0.433657,0.425889,-0.039152,1.5748,-0.520155,-1.395073,0.345454,-0.575142,0.273105
axe,0.566626,-1.326244,0.384705,0.047531,0.429257,-0.330969,-0.267923,2.619578,-0.603308,-0.639038,-0.711384,-0.238752,1.006234,0.422013,-0.988677,-1.578835,-0.260614,-0.623094,0.983621,-0.25063,-0.286451,-0.194816,-0.114369,-0.432963,0.147986,0.475875
euclidien,-0.665096,1.10301,-1.109023,-0.503791,0.036048,0.796958,-0.495574,2.78318,-0.629888,-1.277385,-0.561991,-0.66099,0.54437,-0.089883,-0.896376,-0.60374,-1.384272,-0.444546,1.443669,-0.785032,-0.3162,1.008408,-0.55938,0.801142,0.21514,0.72502
inférieur,0.520392,0.268059,1.131741,-0.089006,0.70352,-0.974038,-0.55361,2.346109,-0.112355,0.929326,-0.614258,0.407817,0.034579,1.186019,-0.132674,-0.152404,0.036959,0.049146,0.666647,0.303419,-0.630597,0.630911,-1.28061,-0.019507,-0.403821,0.605776
dérivée,-1.0159,0.797896,-2.297349,-0.338153,0.989996,-0.413161,0.231784,2.078347,-0.430565,-1.305343,-1.761055,-0.093849,0.12765,0.28687,-0.908753,-0.357108,-0.404295,-0.351406,0.47146,-0.309665,-0.790397,1.147495,-0.935804,0.983142,0.869094,0.587206
transformation,0.000217,0.062129,-0.159592,-0.743416,0.561548,-0.561163,-1.064625,1.505623,-0.127664,-0.579974,0.230515,-0.2657,-1.065483,0.537998,0.245021,-0.583076,-0.175269,0.437852,-0.040541,-0.267317,-0.118404,0.798683,0.287237,0.039571,0.092361,0.251559
anneau,-1.252406,0.328096,-0.281266,-1.262374,0.152498,-0.528627,0.128564,1.901842,0.420835,-0.386265,-0.370164,-0.822974,0.728115,-0.758015,0.243327,-0.618913,-0.665614,-0.407054,1.061694,-0.390433,-0.440814,0.144956,-1.43468,-0.105055,-0.784841,-0.093268
facteur,-0.542336,-0.201181,-0.762349,-0.284578,0.708109,-1.585403,-0.661008,1.343605,0.30538,0.465165,0.75789,-0.462351,-0.167484,1.584443,-0.778796,-0.143904,0.125071,0.796441,-0.797526,-0.334727,-0.836445,1.050809,-0.362623,-0.110163,0.323176,0.519234
indice,-0.403076,0.530589,-0.586465,-0.229929,-0.375089,-1.336812,0.085196,1.597103,-0.247876,0.731601,-0.30156,-0.209964,-0.153809,0.829713,-0.439425,-0.196618,-0.20628,0.815332,0.476288,-0.103786,-0.489218,0.96504,-0.211146,0.161429,0.410728,-0.172746
zéro,-0.505288,0.625586,-0.272432,0.385206,0.538473,-0.267006,0.957797,1.239451,-0.162047,0.14161,-0.572481,-0.663615,-0.125496,0.554942,0.031353,-0.879003,-0.294633,0.5797,-0.074759,-0.229262,-0.949324,0.014032,-0.58262,0.885185,-0.416505,-0.146251
sphère,-0.675502,0.119644,-0.694057,-0.341352,-0.068749,-0.28875,-0.937798,1.646075,-0.121878,-0.224644,-0.038834,-1.036206,0.661748,0.268816,-0.300337,-1.367569,-0.749197,-0.646616,1.13792,0.076148,0.36036,0.156741,-0.956647,0.105604,0.391498,0.062039
strictement,-0.018068,1.022293,-0.907602,-0.59086,0.243732,-0.313121,-0.450105,1.561202,-0.586811,0.516887,-0.527959,-0.520172,0.030712,0.785534,-0.114214,-0.086046,-1.034884,0.209106,0.610772,0.56177,0.405301,0.95662,-0.709226,0.527925,0.122381,1.383734
puissance,-0.678035,-0.855429,-0.184958,-0.763611,0.403484,-0.498755,-1.045814,1.606938,-1.977392,0.326113,-0.478743,-0.137355,-0.026446,0.795078,0.59506,-1.690368,-0.180187,0.393092,-0.810203,0.787925,-0.303322,0.709106,-0.895323,-0.083944,0.254839,-0.671358
Euler,-1.236024,1.279593,-0.986111,-0.396739,0.677146,-0.360433,-0.264475,0.795563,0.481434,-1.272692,-0.726774,-0.498826,0.206071,-0.106726,-1.274848,0.348175,-0.303056,-0.464039,0.924383,-1.009351,-0.783366,1.766886,-0.823176,0.410332,0.732985,-0.217499
topologique,-0.518052,0.779378,-1.549346,-1.520773,0.158404,-0.065608,0.393338,2.768005,-0.058872,-1.118245,-0.573248,-0.349551,-0.00242,-0.538434,-0.972932,-0.214655,-1.530131,0.010947,1.317082,-0.139644,0.126733,1.221025,-0.737596,0.4256,0.465419,1.157884
déduire,-1.246785,0.739329,-1.126748,-0.36498,-0.096116,-1.045481,-0.413091,1.324451,-0.693726,0.047709,-0.767333,-0.814059,0.373277,0.725151,-0.68827,-0.199417,-0.594808,0.175164,0.826929,-0.276885,-1.370603,0.990611,-0.508981,0.648345,0.074165,0.263353
composer,0.771216,0.049744,0.198838,-0.142569,-0.087706,-0.127341,-1.223762,1.352994,0.585356,0.210325,-0.370229,-0.09665,0.986643,0.068655,0.688379,-0.252793,0.422257,-0.219409,-0.491834,-0.44257,0.051693,0.398966,-0.226901,0.068727,-1.547604,0.550902
deuxième,0.747461,0.121865,0.780914,0.299383,1.180081,-0.506633,0.129365,0.035799,-0.351682,-0.210137,-1.125873,-0.424578,-0.13148,0.236102,0.641544,-0.900558,0.210829,0.054101,-0.312643,-0.391154,-0.426346,0.046698,-0.534031,0.47156,-1.609735,-0.695568
rayon,-0.911986,-0.040672,0.391377,0.075607,-0.158366,-1.131705,-0.327616,2.745239,0.139428,-0.493117,-0.188921,-0.850516,0.947882,0.163807,0.051494,-0.830816,0.158453,-0.392629,0.481918,1.096854,-0.976458,0.362827,-1.115811,-0.771478,0.068979,-0.358441
caractéristique,0.258535,-0.342192,-0.013696,-0.495555,-0.293586,-1.559399,-0.541234,2.551239,-0.188132,0.752798,-0.506474,-0.077438,0.348741,0.282677,0.164625,-0.291803,-0.575853,-0.580618,-0.022461,-0.479111,0.321954,0.981048,-0.587231,-0.791601,-0.219951,0.273233
vide,-0.653078,-0.329281,0.77312,-0.794793,-0.882131,-0.432123,-0.17652,1.979314,-0.390019,-0.104578,-0.096701,-0.730144,0.036467,0.0909,-0.167093,-0.902133,-0.072819,0.317551,0.112551,0.848249,-0.655008,0.491294,-0.635798,0.402798,-0.342605,0.307499
affine,-0.571287,0.521804,-1.582238,-0.595051,0.122127,0.23776,-0.028356,2.442997,-0.225073,-1.564566,-0.625603,0.202505,-0.421447,-0.545377,-1.056039,0.016333,-0.964151,-0.67629,1.044348,-0.587412,-0.264984,1.342937,-0.06579,1.173851,0.281642,1.519171
supposer,-0.947402,0.013898,-0.612064,-1.080004,-0.25742,-1.220123,-0.690341,0.602909,-0.780937,0.952255,-0.22986,-0.979949,0.566791,1.116562,-0.189206,-0.174516,-0.464625,-0.103049,0.40948,-0.1585,-0.566451,0.360537,-0.522149,0.162353,-0.408562,0.578404
ouvert,0.632791,0.397802,0.828766,-0.270756,-0.088904,-0.344556,-0.345677,1.142236,0.156966,-0.283619,-0.765934,-1.031507,-0.042358,0.515774,0.356705,-0.38207,-0.102377,-0.040458,0.550963,0.105217,0.47145,-0.022314,0.247496,0.03305,-0.14119,0.856209
partiel,0.617006,0.880425,-0.2402,-0.382943,0.904456,-1.231669,0.151667,0.768551,0.095597,-0.102115,-0.113697,-0.354126,-0.329568,-0.128277,-0.984302,-0.387982,0.928998,0.365849,0.164309,0.189999,-0.060986,0.462101,0.140495,0.352454,-0.315386,0.309774
approximation,-1.453389,1.009753,-1.554945,-0.412528,0.649232,-0.838099,-0.241137,1.758465,-0.144118,-0.366934,-0.753111,-0.241638,-0.076175,0.219051,-0.693121,-0.251339,-0.368804,-0.507721,0.564501,-0.052282,-1.194801,1.837363,-0.020672,0.499784,1.047259,0.10857
convergence,-0.07068,0.561117,-1.55319,0.214815,1.315163,-0.589412,-0.110379,1.647561,0.17071,-0.300228,-0.357481,-0.229544,-0.228167,0.807689,-0.712159,-0.898276,-0.240193,-0.584932,0.353525,-0.26203,0.139972,0.146622,0.238284,0.747807,1.090521,0.676764
chemin,1.323774,0.007974,1.484755,-1.189705,-0.03944,0.178786,-0.334765,0.810661,-0.691628,-0.617861,-0.812674,-0.793527,-0.154942,0.456691,0.006523,-0.021591,-0.521337,-0.459541,-0.224623,0.339469,-0.673501,-0.915587,0.839482,-0.080125,-0.139121,0.541505
rotation,-1.048292,-0.307732,-0.030211,0.25992,0.886549,-0.618803,0.275313,2.68349,-0.087836,-0.883098,-0.55055,-0.331507,0.197735,0.485747,-0.024902,-1.55202,0.03158,-0.766961,0.381105,0.885467,-0.26066,1.228563,-0.66655,0.308221,0.283421,0.027115
différence,-0.314527,0.325645,-0.623579,0.068076,0.469937,-1.161169,-0.52779,1.662175,-0.484109,1.145263,-0.394953,-0.813227,-0.048146,0.935253,0.034177,-0.670611,-0.792464,0.054277,-0.309447,-0.214032,-0.384764,0.922646,-0.497692,0.495526,-0.294215,0.564996
analytique,-0.724466,1.468447,-1.154872,0.257843,0.599439,-0.374718,-0.938544,1.281945,0.053585,-0.926341,0.801419,-1.780968,-0.416664,0.604399,-0.739267,0.170854,-0.789612,-0.054119,-0.222278,-0.688217,-0.358539,1.888487,0.273792,-0.324404,0.809502,0.461469
formel,-0.715084,0.829733,-1.38452,-0.465343,0.469653,-0.512866,-0.576526,0.368646,-0.83398,-0.038675,-0.677686,-1.404502,-0.132736,0.656338,-0.077371,-0.527988,-0.382894,0.082264,0.347752,-0.533449,1.143442,1.365861,-0.102727,0.492884,0.207321,1.27521
intersection,0.388574,-0.016207,0.331451,-0.237004,0.635261,0.475031,0.102562,2.301603,-0.412719,-0.748338,-1.186739,-0.429499,0.561856,-0.440125,-1.00777,-0.509513,-0.980973,-0.396573,1.903405,-0.033705,-0.848512,-0.018461,0.864264,0.328377,0.20107,0.970793
pourcent,2.04819,-0.018185,-0.135313,1.850379,-0.628337,-1.087834,-1.136361,1.823333,-0.179338,1.54071,-0.175231,1.526217,-0.29956,1.779004,0.186256,-0.604966,1.497531,2.225093,-0.351539,0.052806,-0.950063,-0.347272,-0.397423,0.417167,-0.480921,-0.212101
caractère,-0.375669,0.631171,-0.554068,-0.630078,-0.130498,-0.619508,-0.990953,1.149168,-0.528454,1.473024,-0.417014,-1.091417,0.309997,0.803516,0.315213,0.020167,-0.651958,-0.076049,-0.518165,-0.006367,0.80827,0.796401,-0.558279,0.131657,-0.060307,1.469015
raison,0.270277,-0.208404,0.064974,-0.886574,0.368211,-1.446787,-0.241726,0.072316,-0.785604,0.716283,-0.201897,-0.796766,-0.583539,1.579762,0.14179,-0.858117,0.059831,0.079167,-0.27233,0.326268,-0.284035,0.462954,-0.016989,0.381834,-0.588938,0.491722
aire,2.114585,-0.172573,0.946026,0.115483,0.74108,-0.547759,0.404915,1.44367,0.338138,0.017594,-0.646843,0.046496,-0.258333,1.196337,-0.660362,0.997026,-0.858908,-0.328457,0.115013,-0.328453,0.683751,-0.834002,0.289,-0.266943,-0.041321,0.869882
section,1.377435,0.791547,0.610495,-0.025404,1.055019,0.300258,-0.457535,1.318248,0.001927,-0.591086,-0.270244,-0.751216,0.116586,0.564683,0.346559,-0.300749,-0.073704,0.409931,0.146535,-0.041094,0.461257,-0.291215,0.195028,-0.606839,-0.421509,0.60474
cycle,-0.323391,-0.322982,-0.050069,0.563092,0.412089,-1.36235,-0.613032,1.361517,0.645852,-0.657384,0.055281,-1.1893,-0.539253,0.509658,0.501643,-0.154005,-0.600388,0.162549,-0.186749,0.335842,-0.038332,1.086606,-0.15463,0.143131,-0.333468,-0.365995
source,0.694784,0.339833,-0.130294,-0.470852,0.135923,-1.080519,-1.021527,0.594392,-0.509418,0.271799,-0.145711,-0.2919,0.553388,0.283999,-0.245995,0.910692,0.102657,0.005957,-0.365533,-0.663423,0.252083,-0.298083,0.705506,-0.452555,-0.483686,-0.665928
discret,-1.05645,0.222796,-0.404808,-0.087338,0.504429,-0.709114,-0.156782,0.741184,0.294028,0.115605,-0.393832,-0.95005,-0.497284,-0.041417,0.048512,-0.504838,-0.125338,-0.547236,0.252479,0.14656,9.2e-05,0.480489,-0.454928,0.026245,0.605159,1.116896
combinatoire,-0.625036,1.550691,-1.469423,-0.375839,0.207526,0.130218,-0.060393,0.793958,0.669718,-0.28393,-0.054595,-0.959992,0.263737,0.048685,-0.614758,-0.416086,-1.358374,-0.077684,0.695848,-1.194681,-0.015637,1.895361,-0.575679,-1.044633,1.400796,0.377485
dynamique,-0.315198,-0.445867,-0.960928,0.084206,0.519008,-1.043657,-0.650403,1.824371,0.160128,-0.424397,-0.066118,-1.112088,-0.344,1.073022,-0.012008,-0.914016,-0.520165,-0.230667,-0.627111,-0.377846,0.076955,0.558655,-0.051794,-0.437214,1.046629,0.593039
inverse,-0.523778,0.084825,-0.722451,-0.184184,0.73559,-0.508687,-0.091086,1.492177,-0.187342,0.131834,-0.396555,-0.36526,0.372104,1.076219,-0.06726,-0.607706,-0.234116,0.064994,-0.054921,0.125392,-0.841694,0.756077,-0.435482,0.505746,-0.109663,0.465116
minimal,0.036558,0.687966,-0.333249,-0.019649,0.65239,-1.034575,0.264175,2.534099,-0.168603,0.526298,-1.083975,0.316574,-0.18749,0.598645,-0.700652,-0.418912,0.361014,0.74588,0.444124,0.267535,-0.596691,0.92097,-0.105294,0.263772,0.770294,0.492342
extension,-0.106337,-0.146108,-0.182645,-0.987532,0.665885,-0.515702,-0.395788,1.705267,-0.275273,-0.205487,-1.277783,-0.433662,-0.113052,0.312095,0.617188,-0.141229,-0.405942,0.481502,0.348368,-0.472745,0.595304,0.228935,0.993269,-0.174499,0.086651,0.456654
arc,-0.042467,-0.329705,1.456758,-0.510089,0.669411,-0.057955,-0.59097,1.584266,-0.027125,-0.010944,-0.683459,-0.724497,0.133755,-0.70617,0.222888,-0.522893,-0.316464,-0.84314,0.661433,-0.577295,0.613767,-0.706466,-0.762882,-0.397659,-0.434641,0.177729
énoncé,-1.458739,1.902969,-1.60418,-0.518358,0.184514,-0.030219,0.140251,1.00333,-1.094266,0.016231,-0.591349,-1.153536,0.323093,0.509486,-0.571961,0.08364,-0.991481,-0.184041,0.533972,-0.648104,-0.580047,1.484556,0.072989,1.267115,0.208204,1.236128
parallèle,0.448339,-0.063123,0.192886,0.305327,0.370071,-0.322942,-0.27677,1.170545,0.201633,-0.271244,-0.610811,-1.183897,0.380911,0.415315,0.412736,-1.139314,-0.480808,-0.558714,0.248798,-0.101686,-0.047264,0.183328,0.045223,-0.045793,-0.2688,0.545392
négatif,-0.748695,0.350498,-1.137599,0.17069,0.256567,-1.459496,-0.328061,1.419626,0.103374,1.315351,0.010929,-0.689009,0.150898,0.999887,-0.250132,-0.943027,0.348758,0.481216,-0.142159,0.417953,-0.624768,0.985821,-0.134794,0.732885,0.093588,0.647196
niveau,0.722907,-0.390673,0.608922,0.243213,0.72561,-0.940994,-0.023576,2.100221,-0.091535,0.39698,-0.629235,-0.594001,-0.464512,1.511791,0.686708,-1.160361,-0.462457,0.727651,0.326947,-0.44882,-0.155802,0.150724,-0.321743,-0.337322,-0.405902,0.824871
fraction,-0.417293,0.57295,-0.718511,-0.392468,0.974553,0.594586,-1.114848,1.648759,0.368443,-0.041288,0.213032,0.480447,0.82086,1.249213,-0.307591,-0.435551,0.232932,0.649354,0.295202,0.280888,-0.691907,-0.019894,-0.581891,0.966333,0.230145,0.046151
segment,0.022813,-0.296791,-0.11651,0.038178,-0.124385,-0.21798,0.706088,2.081151,0.65642,0.028655,-0.754689,0.244686,0.499865,-0.749423,0.163797,-0.337761,0.057132,-0.327073,0.436214,0.143572,-0.273419,0.0949,0.384142,0.238158,-0.502983,1.127496
norme,-0.003112,0.539228,-1.239291,-0.439819,-0.257803,-0.302758,-0.136429,2.040323,-1.326103,0.099873,-0.814666,-0.504075,-0.169631,0.872633,0.223044,-0.457344,0.18248,1.481272,-0.201201,-0.517925,1.252291,1.159999,0.25865,-0.09416,0.39038,0.846549
local,1.593553,-0.079144,0.029492,-0.583004,0.074656,-0.538536,-1.232123,0.399453,0.00112,0.234081,-0.641088,-0.326544,-0.428908,1.519399,0.844064,-0.378254,0.034906,0.715701,0.144009,0.000828,0.394065,-0.598013,0.317676,-0.178655,-0.23996,0.985574
métrique,0.081061,1.063084,-0.616336,-0.469952,0.015783,0.704868,-0.385398,2.239594,-0.535146,-0.896434,-1.326383,-0.251075,0.432165,0.574114,-0.866816,0.067715,-0.770976,-0.712624,-0.398659,0.088051,-0.307973,1.175076,-0.114209,0.336509,1.354707,0.346169
symétrie,-1.336303,0.448858,-0.516779,-0.106908,0.715113,-0.320776,-0.876643,2.575599,0.256823,-0.739468,0.316482,-0.587517,0.176279,-0.223447,-0.796914,-0.834369,-0.33949,-0.530903,1.315122,-0.514742,-0.079772,0.896536,-0.921803,0.585957,0.098332,0.451904
inégalité,0.068523,0.93993,-1.607142,-0.330464,0.23627,-1.112284,-0.411368,0.862785,-0.273428,0.727639,0.759729,-0.240504,-0.966495,0.860541,-1.53223,-0.959496,-0.324809,0.281713,0.551509,0.034422,-0.638073,0.600862,-0.329071,0.776792,1.271173,0.601311
chaîne,0.793091,-0.056932,-0.639106,0.213918,-0.649054,-0.755674,0.389684,1.170738,0.905806,-0.138949,-1.210634,-0.476017,0.896081,0.821612,1.417173,-0.893313,0.423632,-0.010695,-0.125405,-0.118875,0.293125,-0.475769,0.711495,0.13388,-0.634002,0.056415
prouver,-1.107672,0.508785,-0.505265,-1.212118,-0.60926,-0.867552,-0.368427,-0.174132,-0.890507,0.423144,0.205919,-0.921582,-0.320337,1.125608,0.045421,-0.319901,-0.518963,0.176712,0.568687,-0.57882,-0.81548,0.448909,-0.438828,0.106141,-0.140478,0.30127
Gauss,-1.152623,1.899291,-1.331078,-0.432095,0.510383,-0.128475,0.403628,0.847662,0.536332,-1.496647,-0.228296,-0.593878,0.525639,0.536902,-1.168015,0.042929,-0.373143,-0.68493,1.076549,-0.782596,-1.245207,1.670095,-0.702103,0.336524,0.791987,-0.287698
symétrique,-0.741941,0.446679,-0.232402,-0.972606,0.655626,0.059747,-0.480485,2.447011,0.264984,0.115494,-0.801654,-0.255291,0.90933,-0.311498,-0.70573,-0.710643,-0.52057,-0.364405,1.372084,-0.84585,0.013436,1.221049,-0.92665,0.325311,-0.204047,1.707984
Riemann,-0.644662,1.616069,-1.772943,-0.912815,-0.038973,-0.493823,0.348863,1.225988,0.747133,-1.322915,-0.356038,-0.472205,0.518062,-0.051312,-1.512702,0.583845,-0.656079,-0.455468,1.024241,-0.788131,-0.90146,1.393733,-0.302575,1.258921,0.654562,-0.304983
$\mathbb{Z}$,-0.330683,-0.163526,-0.764288,0.077556,0.440388,0.317368,0.124384,1.657656,-0.197989,-0.377532,-0.593853,-0.112654,1.27298,-1.266344,0.014651,0.232306,-0.136422,0.792452,-0.798928,0.057904,-0.305649,-0.066374,0.067713,-0.030684,-0.517169,-0.638149
polyèdre,-0.876079,1.115469,-0.922197,0.130167,-0.516141,0.939365,0.053818,1.563084,0.427919,-0.169541,0.306615,0.227438,0.62214,-0.800569,-0.582731,-0.324732,-1.726891,-0.729396,2.623865,-0.709769,0.328345,1.30672,-1.351662,-0.063452,0.181284,0.785752
binaire,-1.435374,0.89466,-1.450098,0.044733,-0.053346,-0.520939,0.286849,2.107696,0.340205,0.077229,-0.944335,-0.320118,1.974247,0.421019,0.111889,0.186213,-0.317481,-0.05632,0.603639,-0.213455,0.045234,0.869048,-0.978451,-0.235935,0.14381,-0.298854
demi,0.459991,-0.239566,0.991442,0.564713,0.66164,-0.549865,0.719379,0.77772,-0.223428,0.180065,-0.971435,-0.017212,-0.011703,-0.020174,0.128217,-1.036265,-0.310152,0.039319,0.294493,-0.439818,-1.028237,0.059735,-2.00005,0.520234,-1.663039,-0.51529
multiplication,-1.149638,0.316087,-0.505842,-0.175925,0.230932,-0.615507,-0.482739,1.563073,0.152998,0.062609,0.119535,-0.288492,-0.370504,0.974954,0.315972,-0.08758,-0.057259,0.447028,0.404449,0.505152,0.055914,0.80432,-0.29189,0.668911,0.349533,0.172103
libre,0.650759,0.532061,-0.171834,0.012757,0.631834,-0.243875,-0.140598,0.448403,-0.195874,-0.323404,-0.367493,-1.015566,0.048459,0.781253,0.772763,-0.399143,-0.117512,0.499348,-0.677549,0.101736,0.541609,0.05959,-0.32991,-0.118417,-0.492313,0.31823
identité,0.009768,0.541902,-1.480144,-0.391605,-0.027772,-0.544641,-0.3534,0.129766,-0.612427,0.77844,-0.005384,-1.464652,0.511262,0.649848,0.156955,-0.725008,-0.732645,0.508315,0.064237,-0.51614,0.263963,-0.698932,-0.033894,-0.19272,-0.268595,0.884485
Hilbert,-0.726452,1.392402,-1.330154,-0.627136,0.071884,0.251384,-0.022872,0.837569,-0.122969,-1.475353,-0.105077,-0.79212,0.156445,-0.69763,-0.9018,-0.443681,-0.8886,-0.164017,1.25766,-0.770644,-0.718497,1.763301,-0.146693,0.376033,0.567381,0.222866
scalaire,-1.392386,0.298569,-2.360941,-0.965748,-0.136897,-0.214186,-0.203019,2.750726,-0.357127,-1.047186,-0.746373,0.185667,0.402572,-0.404712,-1.162777,-0.394708,-0.469272,0.299023,0.570708,-0.282229,-0.453346,0.744081,-1.516917,0.6541,0.302598,0.878601
solide,-0.684467,-0.347953,0.08174,-0.521115,0.257049,-0.503381,-0.909604,1.914435,0.388769,-0.371551,0.851948,-0.018045,-0.534142,0.875069,0.740089,-1.342152,-0.217818,-0.403094,0.094037,-0.391991,-0.281933,1.115796,-1.322431,-0.033135,-0.34033,0.453172
densité,0.308273,-0.00612,-0.450483,-0.189952,0.121044,-1.249604,-0.862024,3.2931,0.38058,0.731512,-0.616781,0.477692,0.224605,1.50484,-1.019694,0.157917,-0.59613,0.946638,0.212851,0.090212,-1.427009,0.152336,-0.662057,0.232003,0.953383,0.079427
lemme,-0.929209,1.466474,-1.609668,-0.574902,-0.324258,0.578724,0.211736,1.317845,0.209162,-0.940211,-0.066637,0.767697,-0.017431,0.011198,-0.680185,0.413518,-0.985016,-0.600693,0.722663,-1.171761,-1.109051,1.122841,-0.553779,1.370276,0.651379,0.352217
polynomial,-1.710569,0.901395,-2.053486,-0.844336,1.586808,-0.351485,0.281845,1.405015,-0.398707,-0.39212,-0.335089,0.480862,-0.39228,0.021974,-0.515464,0.052718,-0.757388,0.132349,1.056859,-0.367072,-1.083019,1.586467,0.124161,0.320109,0.922863,0.600617
cinq,0.8604,0.262097,1.230507,0.354063,0.221023,-0.509957,-0.309693,0.384227,-0.405136,0.241602,-1.035819,-0.620928,0.043086,0.518128,0.886788,-0.51997,0.397597,0.180132,0.157002,0.084671,-0.331295,0.02874,-0.610266,0.230464,-1.491224,0.101195
exponentielle,-0.936234,0.246938,-1.737466,-0.443845,0.748553,-0.654591,-0.14871,1.718378,0.310078,-0.336618,-1.269124,0.344616,-0.456346,0.75086,-0.780139,-0.285042,-0.78667,0.029271,0.149214,0.192578,-1.086444,1.588697,-0.496327,0.753728,1.759397,0.156389
élémentaire,0.00906,0.850304,-0.276757,0.200281,0.52698,0.087127,-0.960005,1.58016,0.361737,-1.462244,0.100421,-1.492873,0.052444,0.469632,-0.240584,0.319852,-0.68959,0.812602,0.558383,0.347675,-0.667901,0.463326,-0.98566,-0.41485,0.468543,1.001921
argument,-0.984832,0.876142,-1.08788,-0.558224,0.486772,-0.483315,-0.53279,-0.000755,-1.017755,0.504511,0.11789,-1.049918,-0.312903,0.301374,-0.369503,-0.168937,-0.174277,-0.521087,0.183569,-0.412785,-0.000121,0.921792,0.494229,0.913932,0.050332,0.943179
optimisation,-0.521478,0.65516,-1.673992,-0.101789,-0.194017,-0.498358,0.263221,1.638852,-0.354529,-0.95137,-0.226432,-0.335714,-0.993659,0.675916,0.04152,-0.833677,-0.088658,0.292777,0.153016,-0.859721,-0.211168,1.59949,0.263851,-0.654927,1.619532,0.861468
Fourier,-1.206872,0.760346,-1.022956,0.432747,1.532676,0.039491,-0.865322,0.906937,0.902262,-1.665335,-0.296175,-0.853703,0.014665,0.244987,-0.91206,0.71034,0.076165,-0.460691,0.270182,-0.224622,-0.984337,0.755024,0.019776,0.366238,1.360115,0.345221
dériver,-0.405916,0.070169,-1.019588,-0.840353,-0.415922,-0.177645,-0.443498,1.773231,-0.019133,0.575389,-0.496584,-0.049819,0.840526,0.402056,1.360045,0.152973,-0.651891,0.068974,-1.029469,-0.220153,0.059597,0.564791,-0.022452,-0.496361,-0.44023,0.052364
module,-0.831373,-0.306429,-0.484202,-0.159786,-0.118914,-0.335825,0.378975,2.465584,-0.142254,-1.392143,-1.056602,-0.375383,0.399495,0.167983,0.791507,-0.463505,-0.041728,0.356417,0.588672,-0.194287,-0.0646,1.335476,0.520938,-0.860021,0.383586,0.546822
maximal,0.030513,0.308227,0.439507,-0.023429,0.221522,-1.20453,0.416549,3.011639,-1.129686,0.541526,-1.238665,0.537537,-0.079119,0.876953,-0.434517,-0.653522,0.43024,0.428667,0.061222,1.073814,-1.138303,1.252433,-0.406108,0.081205,0.569996,0.05892
paire,-0.837372,0.372504,0.225091,0.216033,0.01296,-0.196556,0.650929,1.643446,0.58752,0.167212,-0.523657,0.156162,0.941399,0.053863,0.66842,-0.541323,-0.118926,-0.284641,0.614181,-0.748155,-0.711132,1.034209,-1.707841,-0.191209,-1.351215,0.470794
uniforme,-0.260959,1.247582,0.106962,-1.2947,0.586839,-0.039444,0.045278,1.144987,-0.08481,0.677465,-0.447219,-0.142535,0.348405,-0.142246,0.374121,-0.853677,0.401657,-0.408774,0.562792,0.832958,0.504789,0.525658,-1.686966,-0.568211,-0.036785,1.153265
action,0.180399,-0.084716,-0.596671,-0.181826,0.533912,-0.792705,-0.619316,0.39544,-0.805802,0.553278,0.098102,-0.947516,-0.289028,0.631223,0.748935,-1.27837,0.827663,0.753762,-0.421178,0.488792,0.658829,-0.264788,0.545914,-0.440984,-0.240016,0.819691
total,0.801277,0.149332,0.628747,0.647968,0.171216,-0.955151,-0.053017,1.594914,-1.245956,1.121315,-0.555997,0.529113,-0.364848,1.077614,0.418615,-0.976221,0.303585,1.240159,0.32199,0.453283,-0.553619,0.211306,0.160959,0.207456,-0.641191,-0.890376
polygone,-0.621617,1.175403,0.155694,0.020843,0.025449,0.723478,0.26874,1.824167,0.366426,-0.396849,-0.674426,-0.350614,1.049143,0.057157,-0.258817,-0.750801,-0.775128,-0.562688,1.978298,0.044372,-0.574336,0.471407,-0.69448,-0.50004,0.996722,0.406714
division,1.060208,0.571909,0.703704,0.020008,2.280285,0.696113,0.258028,0.603086,-1.339524,-0.313793,-0.037142,0.395344,0.146505,0.932266,1.057146,-0.712957,-0.149072,0.567133,0.11694,-0.292126,-0.116028,-0.404534,0.003131,-0.96112,-0.993764,-1.138753
signe,-0.005847,-0.16589,0.137732,0.49584,1.076957,-0.595501,0.513093,-0.239735,0.012536,0.530668,-0.274872,-0.811393,-0.132355,0.481319,0.44318,-0.5164,-0.422894,0.109377,-0.328632,-0.490975,0.201899,0.376027,-0.429545,0.41778,-1.140993,0.114649
troisième,0.6482,0.160528,0.794388,0.284793,1.234302,-0.464651,0.114617,-0.042844,-0.414049,-0.048349,-0.990067,-0.55757,-0.108315,0.227615,0.578861,-0.840476,0.201838,0.039133,-0.271875,-0.520568,-0.357326,-0.19477,-0.598308,0.469594,-1.550695,-0.699114
composante,-0.206669,-0.080337,-1.166364,-0.02298,1.225577,-0.484798,-0.923541,2.077812,0.017206,-0.249764,-0.242273,-0.361994,0.826755,1.127223,0.074302,-0.964127,-0.250215,-0.13139,0.436738,0.202236,0.591209,0.206083,-0.715227,-0.729072,0.603057,0.493687
paradoxe,-1.396014,1.163577,-1.185716,-0.363906,0.042221,-0.642517,0.216031,0.300663,-0.20958,0.226349,0.639368,-1.278879,-0.38556,-0.023947,-0.761832,-0.218741,-0.966752,-0.948201,0.191211,-0.442941,-0.754726,0.181652,-0.044509,0.427355,1.113572,0.126582
égalité,0.14548,0.924209,-0.939487,0.535882,1.433265,-0.398488,-0.148848,0.140902,-0.835892,0.652715,-0.245819,-0.545342,-0.989274,0.621938,-0.226275,-1.208565,-0.378862,0.897837,0.603186,-0.35677,0.110667,-0.011593,-1.113404,1.200552,-0.455869,0.599295
critère,0.114779,1.362655,-1.074477,0.083033,0.369429,-1.273643,0.079907,1.310531,-0.624143,0.900102,-0.497802,-0.653799,-1.119534,1.589209,-0.021746,-0.32501,-0.742606,1.086234,0.775657,-1.052535,0.285629,1.176607,-0.702014,0.296061,0.15488,0.93267
orthogonal,-0.931495,-0.005383,-1.074226,-0.266278,0.502877,0.871893,-0.449132,2.666753,-0.181495,-0.757745,-0.780419,-0.315422,1.224516,-0.426093,-1.023361,-1.329365,-0.684773,-0.220606,1.526281,-0.777834,-0.481527,0.532822,-0.173208,0.521082,0.165655,1.143053
moment,-0.290643,-0.403291,0.193249,-0.69036,0.479243,-1.104393,-0.221604,-0.047905,-0.581945,0.171767,-0.635832,-1.201163,0.070875,0.424019,0.462501,-0.945274,0.24854,-0.148866,-0.180804,0.806235,-0.493536,0.106028,0.01203,0.65221,-1.005803,0.342052
conséquence,-0.130813,-0.401543,-0.202184,-0.904358,0.664213,-1.68645,-0.074295,0.253614,-1.168044,0.575001,0.234403,-0.439731,-0.297697,2.015572,-0.32526,-0.993758,0.393331,0.185377,0.01681,0.469129,-0.300021,0.279728,0.341565,0.490933,-0.258971,0.249514
orienter,0.359888,-0.601615,0.143673,0.009489,0.00615,0.134807,-0.994219,1.723225,0.433576,-0.052874,-0.660129,-0.742554,0.325517,0.685418,0.539042,-0.893982,-0.697988,-0.544365,0.41272,-0.220315,0.214304,0.725632,0.669992,-0.321578,0.178145,1.529175
courbure,-0.973272,0.341595,-0.656591,-0.556872,0.644695,-0.501471,0.27002,2.743183,0.004836,-0.619876,-0.620176,-0.098328,0.148196,-0.167615,-1.448307,-0.654003,-0.433493,-1.283509,0.826927,-0.00505,-0.83014,1.26591,-1.166233,0.424237,0.772883,1.043274
couple,0.295463,-0.343282,-0.157493,-0.210163,-0.50891,-1.011682,0.082058,-0.197231,-0.067416,0.241695,-0.477413,-0.569012,-0.062713,-0.37449,-0.188934,-0.275758,-0.21865,0.595732,-0.368623,0.785742,-1.083414,0.313649,-1.472499,0.335916,-0.798132,0.475851
relatif,0.060993,0.966787,-0.632287,0.059927,0.428711,-1.581905,-0.679131,1.264263,-1.174281,0.666476,-0.239801,-0.800098,-0.594062,1.129037,-0.543503,-0.021186,0.754602,1.054349,0.254529,0.160954,0.838414,0.189187,0.219515,0.226821,0.349924,0.339101
morphisme,-1.324818,-0.145394,-1.192886,-1.161066,0.172893,0.682729,0.023774,1.913994,0.792205,-1.255619,-0.511214,-0.411557,0.959778,-0.505964,-0.937933,0.506846,-1.401172,1.754798,1.293713,0.124548,0.226084,0.550171,-0.983459,1.239765,-0.095775,0.875168
central,1.67543,-0.441377,0.549274,-0.555911,0.430828,-0.72623,-0.587431,1.284837,-0.13919,-0.491309,-0.408608,-0.003013,-0.022318,0.577206,0.433835,-0.481836,-0.28332,-0.322867,1.058465,0.03001,1.065461,0.011531,0.319021,-0.551192,-0.860269,0.149672
observation,-0.71732,0.51094,0.177209,0.244019,0.372818,-2.136929,-0.091858,1.092128,-0.502151,-0.399203,-0.256501,-1.278476,0.176602,0.994916,0.114296,0.378703,0.261211,-1.258634,0.877639,0.289624,-0.116346,0.958159,0.595686,-1.046922,0.423213,-0.464637
fixe,-0.072108,0.280036,0.22916,-0.330008,-0.18305,-0.397763,-0.116127,1.817413,-0.422609,-0.615891,-1.307874,-0.458497,0.052339,0.490622,0.234981,-0.867841,0.852057,0.308312,0.029547,0.262392,0.41129,0.709863,-0.858876,-0.04967,0.006446,0.640469
raisonnement,-1.712734,0.861079,-0.923375,-0.334121,0.523825,-0.080549,-0.03836,0.600303,-1.067498,0.036504,0.63831,-1.581445,-0.321109,0.966996,-0.472572,-0.286041,-1.14576,-0.184447,0.402314,-0.788118,-0.521944,1.596675,0.614575,0.244114,0.640651,1.452449
cardinal,-0.07956,-0.820933,0.762662,0.034735,1.034064,0.224564,-0.39329,-1.550879,-1.287719,-0.056976,-0.6917,-0.209791,0.431841,-0.314739,-1.342376,1.183869,0.187669,0.431212,0.101981,-1.588486,0.603696,0.452387,-1.1211,-0.191644,-1.093691,0.830088
quadratique,-1.404778,1.207996,-1.410731,-0.901962,1.118978,0.348909,-0.106569,2.394433,0.282859,-0.5021,-0.402612,-0.058815,0.231641,0.21435,-0.979494,-0.330779,-0.916259,0.426608,1.033108,-0.793635,-1.473076,0.998192,-0.904257,0.541311,0.929094,0.590908
dual,-1.093878,0.288985,-1.403968,-0.239746,0.629216,0.428896,0.478262,1.987717,0.26092,-0.409632,-0.46022,0.297867,-0.115422,-0.900826,0.234393,-0.42428,-1.231904,0.384634,0.897813,-0.660522,0.439325,1.121366,-0.585206,-0.230641,0.397494,0.104424
multiple,-0.349778,-0.058871,-0.031382,-0.306117,0.237397,-1.193869,-0.028152,0.930702,0.121836,0.93347,-0.083636,-1.013606,-0.119774,0.508406,0.328171,-0.678853,-0.05195,0.284951,0.258685,-0.363319,0.291749,0.294418,0.236178,-0.363652,-0.202224,0.558253
dénombrable,-0.559229,1.041251,-1.183093,-1.942706,-0.6553,-0.090946,0.150844,1.426078,0.088676,-0.936111,-1.825386,0.209676,-0.131654,-0.615005,-0.837584,0.491308,-1.798829,0.871478,2.527929,0.365201,-0.175155,0.624543,-0.717435,1.613255,0.174166,0.56871
cube,-0.903541,0.029041,0.14692,0.02319,-0.889111,-0.068665,-0.233154,1.830497,0.517645,0.190499,-0.290511,0.309136,0.066903,-0.751244,0.740203,-0.992427,-0.171111,0.516084,0.940027,0.250349,-0.867287,0.523533,-0.106867,0.263333,-0.069983,-0.528922
récurrence,-1.850852,0.648676,-1.156032,-0.268907,0.434922,-0.750314,0.519732,0.998388,0.029605,-0.166909,-0.728694,-0.426947,-0.055071,0.318004,-1.209863,0.208886,-0.713247,0.277078,1.030467,-1.013647,-1.451542,1.330255,-0.049257,1.2113,0.230893,0.585097
ordonner,-0.546916,-0.127739,0.647983,-0.907562,0.851523,0.117954,-0.567701,-0.58998,-1.509564,-0.946582,-0.119802,-0.498212,0.485901,0.9083,-0.503314,0.46594,0.432204,0.216775,1.113046,0.487323,0.033516,0.399875,-0.236578,0.26018,-1.062275,1.106524
maximum,-0.138049,0.411783,0.328088,0.167324,0.203663,-0.9963,0.533251,1.852018,-0.689742,0.555531,-1.045756,0.330645,-0.64517,0.585497,0.492078,-0.465809,0.530787,0.4292,-0.196215,0.794577,-0.624474,0.983589,-0.332628,0.151466,-0.039966,-0.056633
variation,-0.057625,0.14946,-0.332643,0.472368,0.7115,-1.692426,-0.580076,2.316413,0.549044,0.549719,-0.334933,-0.287684,-0.146056,0.075058,-0.92522,0.043004,0.080053,-0.604886,-0.978702,0.585756,-0.461592,1.693038,0.423343,1.099625,0.186107,-0.297002
pair,-0.626505,0.484599,-0.196949,-0.264408,1.843561,-0.641015,-1.073019,-0.497539,0.026784,-0.124416,-1.558547,-0.238277,0.2086,0.046772,-0.245858,0.960171,1.165857,0.356563,0.014343,-0.301242,-0.217563,0.338039,-1.210717,-0.558522,0.310911,0.564847
projection,-0.452262,0.097466,0.26151,0.492723,-0.596057,-0.784925,0.10026,1.420227,0.599825,-0.212581,-0.44687,-1.508774,0.370728,-0.094677,-0.150723,-1.490741,0.587435,-0.46019,0.771508,0.135945,0.806642,0.605164,0.164516,-0.248035,0.409584,0.186551
ajouter,-0.135228,0.29007,0.500153,-0.627415,-0.253965,-0.54807,-0.747996,0.907785,-0.238066,0.600567,-1.110958,-0.489314,0.00642,0.471181,0.938651,-0.206911,0.530701,0.344442,-0.274779,-0.23776,0.148986,0.769273,-0.024644,0.296345,-0.696452,0.611996
Fermat,-1.616175,0.473687,-0.342103,0.835409,0.980684,0.08296,0.200541,-0.112566,0.708767,-1.062714,-0.628418,-1.180009,0.428054,0.114295,-1.219736,0.586541,-0.747986,-0.420156,1.130898,-1.153768,-1.16929,1.186833,-0.551974,0.004896,1.132779,0.105483
fonctionnel,-0.343609,-0.332202,-0.551678,-0.656757,0.336555,-0.724128,-0.218177,1.838779,0.199424,-0.331566,0.436244,-0.65489,-0.298573,1.18824,-0.263458,-0.037213,-0.567192,0.728206,0.320056,-0.719232,0.353629,1.598403,0.022182,-0.889463,0.201431,1.760779
intérieur,0.742342,-0.594727,1.162981,-0.848842,-0.479306,-0.788897,-1.078527,1.183462,-0.344478,-0.010766,-0.175764,-0.437194,0.012094,0.488896,-0.019079,-1.141517,0.673127,-0.579961,0.519455,-0.073749,0.407458,-0.047773,-0.411307,-0.01639,-0.852357,0.767543
milieu,1.084123,-1.219183,0.656018,-0.082128,-0.047736,-0.912397,-1.111884,0.892837,0.284713,0.652439,0.069718,-0.485432,-0.112791,1.331157,0.144555,-0.743265,-0.64452,-0.191897,-0.385324,-0.030771,-0.141388,0.149246,-0.538825,-0.092298,-0.573425,0.370204
tendre,-0.332834,-0.110605,0.061087,-0.42226,0.127856,-0.708259,-0.688883,0.985558,-0.174914,0.808949,0.167467,-0.46836,-0.575123,0.765165,0.123296,-0.752467,0.041747,-0.586059,-0.674782,0.409002,-0.202342,0.168549,-0.658587,0.895573,-0.288223,1.156557
expérience,-0.33965,-0.118603,-0.35309,0.064062,0.241218,-1.242076,-0.174764,0.054241,-0.233655,-0.218202,0.402062,-2.129844,-0.261993,1.021863,0.44705,-0.959635,-0.461168,-0.006185,-0.516013,0.491687,-0.412821,0.862746,0.128228,-0.628645,-0.102914,0.294445
voisinage,-0.272805,-0.349166,-0.293441,-1.117277,-0.341671,-0.615144,-0.152585,1.160373,-0.050224,-0.294832,-0.632586,-0.459656,0.400216,0.74219,-0.922048,-0.074337,-0.758684,0.107407,1.143561,0.664759,-0.703231,-0.309251,-0.147014,0.617946,0.366386,0.959276
commutatif,-1.111818,1.241212,-1.911455,-1.372068,1.322318,0.874675,-0.694175,2.26262,0.366744,-1.054849,0.225184,-0.405281,0.130041,-0.806177,-0.386028,-0.527639,-1.164288,0.838027,1.313179,-0.826568,-0.345474,0.170516,-1.391002,0.553184,-0.042782,1.026586
estimation,0.476224,0.69283,-0.537963,-0.062914,-0.88345,-1.439355,-0.070176,0.988319,-0.941782,1.197799,-0.717527,0.113615,0.348331,1.351203,-0.808728,-0.405673,0.103129,0.535438,0.757034,0.142394,-0.481562,0.896584,0.385951,-0.154905,0.703829,-0.589349
projectif,-1.221126,0.333111,-0.976231,-0.29329,-0.113801,0.439504,0.445939,2.804064,-0.882908,-1.348688,0.501339,-0.087921,-0.112532,-0.372086,-1.252317,-0.173876,-1.29213,-0.500195,1.707243,-0.884178,0.047248,0.829403,-0.253028,0.433337,0.061068,1.475281
quotient,-0.770407,1.183209,-1.236968,0.143251,1.379067,0.318779,-0.439918,1.783495,-0.108701,-0.043724,-0.260391,0.359073,-0.172418,-0.006829,-0.587302,-0.606825,-0.714258,0.978799,1.434561,-0.156328,-1.07869,0.808873,-0.851551,0.848441,0.196847,0.63518
Newton,-0.39057,-0.378178,-1.0713,0.189295,0.789552,-1.012798,0.029765,0.005169,-0.011137,-0.63952,-0.341813,-0.183814,0.080869,-0.909912,-0.987198,0.079709,-0.474846,-0.722438,0.372542,-0.516352,-1.283509,1.413786,0.347115,-0.668086,0.044661,0.032188
dix,0.762498,0.501722,1.340578,0.29287,-0.014216,-0.502045,-0.09472,-0.070189,-0.504726,0.46896,-0.899828,-0.714259,0.047978,0.614345,0.740131,-0.467912,0.36551,0.333205,0.100223,0.240757,-0.389828,0.093534,-0.600656,0.394543,-1.300591,-0.191055
localement,0.472291,0.443043,-0.367479,-0.853475,-0.440438,-0.132832,-0.312528,1.546105,0.499477,0.185573,-0.53943,0.852722,0.133148,1.550982,0.478167,0.15462,-0.514906,-0.494965,0.236288,0.361903,-0.281845,0.166705,-0.232288,0.730211,0.2066,0.817861
borne,-0.346194,0.143436,0.290523,-0.741911,-0.642225,0.134002,-0.007136,1.592641,-0.083695,-0.166424,-1.33495,-0.43044,0.465127,-0.187846,-0.219279,-0.218159,0.189691,0.347802,0.320642,-0.922918,-0.304088,-0.492839,0.191011,-0.297568,0.71807,0.45109
exact,-0.853801,0.984664,-0.433834,-0.563814,-0.219066,-1.151384,-0.353481,0.927117,-0.875917,0.685137,-0.880398,-0.98591,0.375252,0.869512,-0.328687,0.303526,-0.403243,-0.204063,0.749651,-0.40587,-0.238051,1.086552,0.125304,0.182071,0.109221,0.305091
six,0.745415,0.261765,1.345833,0.044634,0.458378,-0.433722,-0.079734,0.381963,-0.174919,0.256627,-0.876352,-0.379492,0.062294,0.181733,0.989906,-0.46679,0.502022,0.379539,0.177607,0.232657,-0.302706,0.07587,-0.306321,0.122798,-1.503452,-0.141238
impair,-0.62311,1.23441,0.490543,0.092258,1.080168,0.351324,0.270429,2.043703,0.664368,0.242472,-1.386921,-0.543664,0.549757,0.020008,-0.590419,0.122085,-0.286138,0.794113,0.892448,0.246071,-1.064569,0.191325,-0.930877,1.015052,0.174164,0.759278
équivalence,-0.915091,0.86814,-1.479293,-0.103305,0.427849,0.069775,-0.23855,1.731261,-0.846524,-0.457199,-0.428466,-0.256027,0.131205,0.439167,-0.527656,-0.230121,-0.704866,0.786445,0.709763,0.102497,-0.08595,1.325844,-1.123587,-0.050044,0.488505,0.284481
Cauchy,-0.645244,1.370284,-1.336311,-0.350093,0.293789,-0.149877,0.385902,0.962386,0.274183,-1.661364,-0.437965,-0.072488,-0.338312,0.578448,-1.434008,0.58196,0.096876,-0.491565,0.499996,-0.916662,-1.571087,0.658562,-0.025519,1.070618,1.305497,0.899786
échelle,0.218385,0.171637,-0.182951,0.134137,-0.065693,-1.243301,-0.588707,1.901295,-0.087558,0.365674,-0.317018,-0.357344,-0.158389,1.221474,-0.035964,-0.860968,0.093491,-0.19176,0.286159,-0.043446,-0.303619,0.396726,-0.04581,-0.249779,0.606742,0.038858
rectangle,-0.553359,0.944569,0.422218,0.189478,0.051608,0.897369,-0.554691,2.300259,0.622628,0.221855,-1.049479,0.057074,0.390011,-1.214613,0.201299,-0.860618,-0.574241,-0.813025,1.563142,-0.502931,-0.384656,0.295814,-0.458762,0.785689,0.179643,0.972412
ordinal,-1.322721,1.024507,-1.401319,-1.015113,0.405581,-0.035891,0.446296,0.416612,1.06827,-0.422056,-0.944709,0.312247,0.563578,0.098715,-1.234391,0.62243,-0.964056,1.442535,1.852045,-0.837083,-0.55375,1.188598,-1.078232,0.941481,0.468732,0.245275
échantillon,-1.077831,0.607867,-0.35348,0.243783,-1.055312,-1.516582,-0.103187,1.601715,0.931885,-0.248996,0.183083,-0.34209,0.258517,1.396167,0.759572,-0.044275,0.401225,0.05304,0.7417,0.169185,-0.686335,1.403038,-0.377,0.024191,-0.464934,-0.369619
réciproque,-1.207887,-0.118864,-1.575666,-0.532092,0.489215,-0.730309,-0.003966,0.818415,-0.477785,-0.254517,-0.551835,-0.83343,-0.19007,0.256574,-0.730343,-0.619111,-0.659084,0.307341,0.751783,0.484393,-0.1084,0.165016,-0.774216,0.750671,0.670433,1.249175
minimum,0.269548,0.742018,0.250346,0.511132,0.112749,-0.806495,0.274239,1.723333,-0.538445,0.687236,-1.029673,0.282328,-1.072259,0.922302,0.23936,-0.507445,0.606001,1.506935,0.210365,0.61482,-0.14339,0.993566,-0.796137,0.324045,0.055771,0.67322
engendrer,-0.893375,-0.74932,-0.882541,-0.917687,0.3126,-1.227875,-0.268789,1.411833,-0.223692,0.593363,0.065771,-0.241785,-0.119777,0.956523,-0.464738,-0.916287,-0.573339,0.242616,-0.040294,0.79363,-0.594863,0.210162,-0.285446,0.799328,0.541692,0.14548
stable,-0.326895,-0.217088,-1.217088,-0.439128,0.316212,-0.823812,-0.792179,1.889583,0.134258,0.107702,-0.265922,0.685421,-0.302462,1.026503,0.366361,-0.812394,-0.37543,0.617823,0.171761,0.457761,-0.893826,0.915498,-0.163302,0.688553,0.247672,0.174095
algorithmique,-0.9195,1.330486,-1.313987,-0.128919,-0.255054,-0.208156,0.538482,0.956068,0.133279,-0.651135,0.107956,-1.119593,-0.36638,0.66407,-0.285926,-0.548067,-0.945892,-0.600323,0.843258,-1.264277,0.261712,1.941901,0.458861,-0.942974,1.510967,0.703355
fibré,-0.040742,0.074047,-1.775533,-0.354999,0.453857,1.08602,0.881734,2.32327,0.517195,-1.534757,0.010306,0.713797,0.194099,-0.768966,-0.67719,-0.144011,-1.630633,-0.108048,1.617565,-0.317869,-0.069233,0.762945,-1.012188,-0.511296,0.625061,2.257208
universel,-0.099172,1.536526,-0.332594,-0.089151,0.480849,-0.392614,-1.395083,0.352373,-1.044158,-0.241396,-0.360636,-1.617477,-0.619166,0.261348,-0.132449,0.264157,0.09152,0.094473,-0.180458,0.316316,0.839592,0.431106,-0.627122,0.19715,0.331095,0.175567
union,1.465376,0.504562,-0.67713,-0.259155,1.19494,-0.351176,-0.907349,-0.54593,-0.469991,-0.451271,-0.000408,-0.055554,-0.208071,0.963546,0.329044,-0.798337,0.487129,0.36198,0.187366,0.086893,0.85311,-0.892577,-0.626348,-0.044777,-0.583147,-0.403298
diagramme,-1.029669,1.125024,-0.586204,0.529078,0.307825,0.161282,0.393101,2.237184,0.388575,-0.167413,-0.140536,-0.191988,0.766114,0.48329,-0.419027,-0.413188,-0.118688,-0.753603,0.270948,-1.027778,-0.370539,1.141708,-0.050384,-0.054303,0.802744,0.46911
événement,0.357823,-0.164737,0.509798,0.192104,0.483367,-1.352506,-0.00529,-0.664277,-0.372149,0.778383,-0.96359,-1.379446,0.085107,1.078856,0.259405,-0.68874,-0.076348,-0.063243,0.052294,0.209792,0.419185,-0.05426,0.548469,0.25979,-0.313704,-0.619292
Turing,-1.292949,1.131561,-1.104752,-0.590146,0.274327,0.12275,0.984562,-0.291976,0.08073,-0.751608,-0.089934,-1.336378,0.111228,-0.695318,-0.392241,-0.396527,-0.927301,0.109701,0.78245,-0.152337,-0.027812,1.750823,-0.293317,-1.092827,1.115501,0.36386
addition,-1.359856,1.269205,-0.697084,-0.466026,0.661183,-0.5072,-0.459353,1.574333,0.183655,-0.54426,-0.110032,0.230777,-0.475052,0.008629,0.287379,0.289651,0.33405,0.254711,0.352542,-0.335773,-0.039137,1.524179,-0.095912,1.132556,-0.14803,-0.340686
stratégie,-0.344953,-0.350604,-1.417928,0.238923,0.531945,-0.745185,-0.401493,0.626278,-1.279199,-0.142355,0.401971,-0.705508,-1.089486,1.31023,1.269445,-1.559947,0.067557,-0.117776,-0.396483,-0.354866,0.541927,-0.063623,0.744606,-0.543328,0.591975,0.534926
optimal,-0.737457,0.155218,-0.803745,0.061896,0.135703,-1.28617,0.424701,1.941972,-0.289769,-0.255668,-0.305035,0.250681,-1.457529,0.59231,0.110435,-0.558043,0.022358,0.20575,0.461296,0.406688,-0.52139,1.461334,0.140103,0.045386,0.933088,0.914415
variance,-1.448916,1.102457,-1.934077,-0.12354,0.774589,-0.982415,0.22821,1.30662,0.421637,0.751258,-0.448085,0.466797,-0.151217,0.305071,-0.852644,-0.12772,-0.530569,0.758937,1.165231,0.145673,-1.423556,1.161877,-0.385827,0.300843,1.400097,0.239129
permutation,-1.978542,0.784909,-0.723935,-0.182756,0.812625,0.179789,0.26249,1.640655,0.469435,-0.434223,-1.077941,-0.149964,0.742562,-0.205031,-0.41643,0.01918,-0.282179,0.537616,1.581397,-0.476351,-0.56947,1.29572,-0.543156,1.013751,0.064789,0.216332
disque,-0.088227,-0.272469,-0.009498,0.548189,-0.399549,-0.427474,-0.140031,1.06912,1.2172,0.079924,-1.177444,-0.656197,0.531832,-0.974689,1.318026,-1.004593,0.673785,-0.2472,-1.129625,0.063847,0.175286,1.089631,0.30982,0.66672,-0.964647,-0.308487
tenseur,-1.207447,-0.555702,-2.345969,-1.269794,0.037043,-0.492775,0.453234,1.755587,0.014118,-1.000376,-0.412634,0.751147,1.124345,-0.280356,-1.858347,-0.367651,-0.52389,-0.071675,0.985586,-0.802243,0.049384,0.873295,-1.838544,0.6049,0.557273,0.626844
hyperbolique,-0.977238,0.427735,-1.38037,0.530561,0.727848,0.429871,-0.180548,2.11983,-0.06775,-1.341972,-0.670662,0.014038,0.25993,-0.380868,-1.111751,-0.127411,-1.060656,-1.796017,1.483063,0.443393,0.207784,1.003827,-1.128812,0.687381,0.983771,1.336571
décomposition,-1.332859,0.56438,-0.947985,-0.629861,-0.008809,-0.579703,-0.702145,2.056799,0.471598,-0.365691,1.076956,0.16593,0.027393,1.092828,0.007142,-0.038456,-0.422956,-0.079192,0.720857,0.224165,-1.022379,0.822397,-0.64261,0.933226,-0.02256,-0.054754
elliptique,-1.055352,0.910788,0.49765,0.39757,-0.271775,-0.417322,-0.327974,2.301259,0.527958,-0.264172,-0.72608,0.37248,0.582544,-0.125418,-0.219486,0.106679,-0.076141,-1.890599,1.497278,-0.133101,-0.74683,1.668331,-1.124502,-0.276639,0.346478,0.228604
mesurer,0.047399,0.202569,0.716791,0.699943,-0.562922,-1.583352,-0.170103,2.501703,-0.079927,0.376322,-0.359361,0.138639,0.004624,0.678028,-0.003097,-0.226542,-0.302512,-0.758872,1.012657,0.737656,-0.727302,1.486942,-0.80008,-0.44526,-0.380602,0.01424
rang,0.380504,0.248314,0.515261,-0.217602,1.038848,0.169062,-0.606466,0.21472,-0.906351,0.121773,-0.685396,0.379187,0.060833,0.578587,0.584041,-0.360946,0.0002,-0.012151,0.62696,-0.0295,-0.393735,-0.023531,-1.466598,0.082369,-1.033165,0.318558
Leibniz,-1.875319,0.648818,-0.955829,-0.25119,0.442444,0.127128,-1.056623,-0.112245,0.414945,-1.499073,0.65679,-1.399194,0.124749,0.476862,-0.776981,0.568189,-0.437815,-0.005123,0.278985,-0.316771,-0.071724,1.662931,0.098467,0.686212,0.845783,-0.859439
boule,-0.7691,0.763721,0.768259,-0.464383,-0.343179,0.2616,0.518715,1.628908,0.876649,-0.015415,0.01411,-0.565429,-0.208708,-0.205668,1.155666,-0.62448,-0.299372,-0.373726,-0.023286,0.272418,-0.523867,-0.684471,-1.24873,0.184829,-0.247984,0.377116
branche,0.070635,-0.698051,0.055264,-0.593236,0.775739,-0.064656,-1.492171,0.832601,0.22107,-0.474438,-0.528205,0.459172,0.554705,0.802547,0.517556,0.442607,0.045171,-0.298454,0.077652,-0.15286,0.358313,-0.434565,-1.013256,-0.289383,-0.236423,0.445048
partition,-0.250656,0.764365,-0.225567,-0.017197,-0.380006,0.147287,-0.777057,0.60928,0.031055,-0.161339,-1.131188,-0.705229,0.990615,-0.386273,-0.125088,0.118255,0.449908,-0.429849,-0.520408,0.038109,0.656344,1.76466,0.626408,1.206973,-0.391422,-0.085256
fermé,0.391969,0.427196,1.013906,-1.112335,0.367802,0.508449,0.442106,1.49273,0.426565,-0.736302,-0.965689,-0.253856,-0.016916,0.096164,0.077933,-0.174273,-0.306515,0.205734,0.548166,0.477525,0.253188,0.51943,-0.013314,0.472523,-0.056849,0.923493
invariant,-1.094118,0.580115,-1.684774,-0.615234,0.579918,0.040894,-0.401528,1.901613,0.038134,-0.753926,-0.070775,0.297752,0.135648,-0.365457,-0.742767,-0.453262,-1.357668,-0.633228,1.389103,-0.434021,-0.302671,1.240363,-0.273783,0.496983,0.641895,0.204556
diviser,0.702483,0.101612,0.395366,-0.209353,0.790785,-0.126636,-1.225443,1.083087,-0.49525,0.407198,-1.03099,0.298104,0.652816,1.016464,0.317522,-0.165011,-0.171068,-0.376698,0.795301,0.021016,0.24361,0.166076,-0.196125,0.594282,-0.786378,0.397574
diviseur,-0.98659,1.251355,-1.224892,-0.360196,0.54386,1.020567,-0.145897,1.849916,0.630686,-0.451473,-0.335896,0.521787,0.409354,0.139457,-0.494163,0.19372,-0.89724,1.190103,0.998292,-0.391071,-1.777723,0.163254,-1.32298,0.849467,0.458365,0.8891
Banach,-0.631883,0.820948,-1.172842,-1.289128,0.217379,0.600791,0.763063,1.359896,0.273636,-1.615857,-0.044457,-0.498808,0.063664,-1.259841,-1.571288,-0.377796,-1.472936,0.598741,1.363409,-0.34717,0.134342,1.585967,-0.655346,-0.112421,1.229709,0.475865
logarithme,-2.301542,1.016822,-1.743287,0.552862,0.717119,0.31802,-0.799795,1.19604,-0.214486,-0.464592,-1.459201,0.510503,0.078079,0.139144,-0.061743,0.728159,-0.473378,-0.295876,0.670994,-0.355235,-1.610961,1.300847,-1.120618,0.231291,1.621591,-0.168296
cent,0.299773,0.506516,1.69977,0.093167,-0.128694,-0.176395,-0.78553,-0.094257,-0.723152,1.269976,-0.91008,-0.244737,0.146845,0.395213,0.496276,0.105149,0.887364,0.406911,-0.209686,0.553999,-0.356403,-0.451434,-0.479214,0.237623,-0.4776,-0.258963
décimal,-1.51975,2.237178,-1.030535,0.796889,0.234088,1.049458,-0.679231,1.374246,-0.397249,0.335164,-1.616114,0.171665,1.335441,0.477402,0.657552,0.170857,0.078024,0.168462,0.403676,-0.00097,-0.288491,1.450873,-0.917345,0.536609,0.84403,-0.794593
espérance,-0.192848,0.046662,0.171066,0.442435,0.808321,-0.428955,0.199306,0.314303,-0.437656,-0.07013,-0.063935,-0.266981,-1.019293,0.372077,-0.454679,0.479806,-0.968989,0.150561,-0.03276,0.378804,-0.601673,-0.475347,-0.866119,0.785573,0.213629,-0.121503
estimer,0.525399,0.261406,-0.280367,0.460643,-0.750113,-1.406355,-0.631243,0.170231,-1.15105,1.37414,-0.385109,-0.009095,0.073372,1.503061,-0.110743,-0.612679,0.318785,0.512049,0.668873,0.270111,-1.034453,0.423625,0.11026,-0.202072,-0.148958,0.015298
périodique,-0.013014,1.279988,-0.404192,0.379457,-0.076229,-0.71837,-0.413002,0.848466,0.546255,-0.089608,-0.126003,-1.173657,0.505036,0.744818,-0.170844,-0.090823,0.73947,-0.372685,-0.279318,0.926982,0.786069,0.809943,0.566518,0.111252,0.8185,-0.093531
harmonique,-1.115453,-0.079856,-0.603418,0.43056,1.031102,-0.155728,-0.793326,2.161914,1.059526,-0.099205,-0.367947,-0.310178,0.228073,-0.040574,-0.786171,-0.44181,0.248049,-0.689589,-1.202606,-0.180907,-0.012148,1.798271,-0.533107,1.233034,0.642992,0.854642
déterministe,-1.010537,1.31774,-1.486878,-1.5074,0.517561,0.333421,1.240337,1.133698,-0.011251,-0.164329,-0.394605,-0.409714,0.773758,0.812591,-0.699037,-0.467597,-1.378517,-0.242711,0.597471,-0.557059,-0.371858,1.352097,0.219814,0.152327,1.313131,0.563102
intégrer,0.914244,-0.320372,-0.235171,-0.257918,0.560794,-0.019739,-0.640075,0.558103,-0.035295,-0.959015,-0.957741,-0.87299,0.074362,1.04224,1.105007,-0.608263,-0.196001,0.437764,-0.476513,-0.723373,0.406261,0.138801,-0.004905,-0.671898,-0.366114,0.651433
extérieur,0.540483,-0.469175,1.171831,-0.75732,0.091784,-0.79902,-0.494475,1.190138,-0.279528,0.069863,-0.353546,-0.5756,-0.349909,0.59153,0.384239,-1.341022,0.123926,-0.178484,0.796832,-0.319353,0.523269,0.227716,-0.618986,-0.135161,-0.821389,0.77178
interne,0.592131,-0.185051,-0.260594,-0.315617,0.645959,-0.929686,-0.225492,1.459817,-0.275909,-0.150084,0.09107,-0.27353,0.442555,1.032354,0.03713,-0.342693,0.066167,0.099385,0.436615,-0.281246,0.94783,-0.160627,-0.262503,-0.489304,-0.50036,0.166559
absolu,-0.710571,0.473016,-0.811686,0.343135,0.924363,-1.062571,-0.674304,1.141163,-1.555339,0.744736,-0.191873,-0.605545,-0.365366,0.399075,-0.977101,-1.319781,-0.021923,0.311882,0.355211,0.097358,-0.32818,0.121658,-1.221496,1.223945,0.047852,0.057051
converge,-0.961101,1.048052,-1.693666,-0.378025,0.793415,0.415819,0.518786,1.138071,0.432187,-0.731377,-1.012569,0.335435,0.121749,0.148781,-0.438511,0.064647,-0.913967,-0.470602,0.622134,0.712461,-1.497886,0.590322,0.735113,2.079828,0.883059,0.370182
unitaire,0.404157,0.570676,-1.423695,-0.210958,0.857155,0.586629,-0.445636,1.390208,-0.14897,0.045313,-0.454844,0.74846,0.539869,0.40391,-0.250763,-1.104168,-0.023491,0.227737,0.435109,0.391112,0.42794,0.346834,-0.520572,0.235245,0.411253,0.753374
multiplier,-0.217444,-0.12347,0.06047,-0.043842,-0.169601,-0.617759,-0.543546,0.341332,-0.317999,0.538088,-0.188726,-0.510439,-0.170416,1.137113,0.274351,-0.865824,0.263261,0.301971,-0.157067,0.763568,-0.288314,0.548404,-0.375715,0.59793,0.146438,0.154695
global,0.309559,-0.23142,-1.451452,0.548916,0.628968,-1.764195,-0.350762,1.340648,-0.268441,0.250826,-0.184714,-0.092634,-1.217745,0.292058,0.713184,-1.060123,0.139928,0.965418,0.67944,-0.270125,0.451432,0.440109,1.262739,-0.520377,0.456983,-0.408521
modulo,-1.664785,1.665737,-0.770042,-0.293463,1.081612,1.190898,-0.022882,1.772409,-0.570071,0.03138,-0.218711,0.792525,0.064067,-0.141458,-0.231585,0.427837,-0.348956,1.595883,0.610408,0.126528,-1.929777,1.495095,-0.553188,0.896348,0.172319,0.075441
trivial,-1.206894,1.321504,-1.509995,-1.289497,0.461993,0.306426,0.311277,1.599723,0.165553,0.311042,-0.51439,-0.210716,0.056894,-0.670277,-0.070293,-0.196013,-1.26981,0.337114,0.457911,-0.117811,-0.195375,0.564998,-0.569695,0.799221,0.566357,0.778807
abélien,-0.797248,1.443648,-1.281073,-1.250884,0.689158,0.863388,0.087697,2.319957,0.736614,-0.658464,0.15766,0.416637,0.160055,-0.208584,-0.086815,0.145289,-1.640543,1.046149,0.796333,0.219486,-0.504622,1.034014,-1.22727,0.921901,0.371411,0.541455
Bernoulli,-1.687952,0.687157,-1.330848,-0.289972,0.741293,-0.532769,0.130124,0.208133,0.891699,-1.286684,-0.575786,-0.24001,0.344693,0.724635,-1.440974,0.966735,0.386086,0.003528,-0.085113,-1.408072,-1.013963,1.349318,-0.756316,0.582071,1.178721,-0.445336
borné,-0.029333,1.248291,-1.22319,-1.290248,0.552472,0.830362,0.305753,1.616679,-0.135983,-0.412239,-0.888066,0.140144,0.334574,-0.071725,-0.985177,-0.199768,-1.237328,-0.136297,0.743752,0.929669,-0.562919,0.889157,-0.288484,0.840324,1.172453,1.420692
remarquable,0.690326,0.002211,1.218436,-0.574249,-0.173455,-1.020766,-1.183415,0.817291,0.294604,0.653048,-0.447044,-0.936538,-0.760528,0.245915,-0.380777,-0.020182,-0.866105,-0.847867,0.433876,-0.784153,0.174913,0.226704,-0.54093,-0.199333,0.140975,0.376218
hauteur,0.859187,-0.211964,2.031165,-0.297478,-0.3683,-0.592209,-0.309107,2.405683,-0.330335,0.851439,-0.929885,0.294123,-0.092518,0.417619,-0.148965,-1.02675,-0.108844,-0.672565,0.610267,-0.08047,-0.593231,0.379231,-0.612989,0.023353,-0.423541,0.079466
supplémentaire,-0.259812,0.040035,0.500947,-0.20752,-0.010662,-0.705259,0.097811,1.236945,-0.588999,0.265954,-1.091617,-0.531523,-0.253831,0.563917,1.019666,-0.967013,0.927679,1.085976,0.254777,-0.135667,-0.276446,0.899276,0.210848,-0.200912,-0.66803,0.611984
Pascal,0.177471,0.074332,-0.191026,1.604213,-0.387255,0.216695,-0.42408,-0.107409,0.106685,-0.722683,0.582,-1.302499,-0.257459,-0.595138,-0.501379,-0.065596,0.87983,-0.13678,-1.152973,-1.436804,-0.871528,-1.239204,-0.330191,0.251641,-0.641429,0.589818
NP,-0.505882,1.045198,-1.192003,-0.112126,0.135337,0.957961,0.563257,0.795196,-0.329539,-0.242587,-0.014522,1.145706,-0.05697,0.657677,0.150977,-0.226697,-0.535492,0.292749,0.439044,-0.853933,-0.485062,0.941111,0.366316,0.617173,0.605714,-0.009719
univers,-0.671341,-0.13054,-0.907683,-0.153516,-0.182259,-1.233258,-0.264456,0.578954,0.203817,0.498802,-0.522349,-2.041815,0.410921,-0.51436,0.586686,-0.886335,-1.46907,-0.950158,-0.487278,0.00863,-0.197012,-0.555335,0.101853,-0.522979,0.208756,-0.39611
cartésien,-1.642401,0.274952,-0.866372,0.203425,1.116259,0.814425,-0.897699,1.79103,-0.590248,-1.098982,0.410994,-1.404557,0.864671,0.181816,-1.057667,-0.371371,-1.212756,-0.879744,0.646701,-0.286283,-0.422443,0.492798,-0.051677,0.361897,0.989046,0.49379
sept,0.769406,0.196516,1.395037,0.278643,0.245397,-0.462204,-0.161545,0.186409,-0.307481,0.356107,-0.911189,-0.688288,0.282432,0.491455,0.649194,-0.174774,0.139976,0.14567,0.167226,0.104874,-0.390531,-0.315901,-0.70531,0.070879,-1.451062,-0.186042
noyau,-0.863923,-0.780039,-0.353023,-0.705971,0.259399,-0.530819,-0.924163,2.13822,0.740225,-0.287869,-0.09603,0.020765,1.209177,1.376212,0.536102,-0.132731,-0.231409,0.135496,0.392616,-0.278156,-0.248816,0.641294,-0.158308,-0.204336,-0.157261,0.373751
canonique,-1.095381,0.584571,-0.720386,0.37341,0.772324,0.296141,-0.978146,0.642595,-0.877097,-0.726085,-0.46777,-1.251018,0.382313,0.343642,-0.838818,0.982827,-0.780966,0.797611,1.224246,-0.535513,0.64004,1.125268,-0.20688,0.817362,-0.439889,1.332548
isomorphe,-1.001234,0.533295,-1.133537,-1.39781,0.94735,1.324547,-0.070904,2.145211,0.168524,-1.23871,0.115459,0.455725,0.394289,-0.865538,-0.444478,-0.195616,-1.84608,1.589165,1.844997,-0.109271,-0.714213,0.590494,-0.969722,0.742356,-0.220829,0.81155
évaluation,-0.21146,0.387905,-0.945667,1.136055,0.048922,-1.551628,0.175509,1.069109,-0.962346,-0.065062,0.123424,-0.747564,-1.123096,1.763992,0.099156,-0.470813,0.486255,1.115297,0.721916,-0.733424,0.203744,0.986579,0.626377,-0.694142,0.351918,0.792339
intégration,0.365919,-0.309686,-1.289982,0.054348,0.396554,-0.266848,-0.676735,0.83064,-0.547178,-0.513268,-0.429058,-0.612587,-0.166277,1.410729,0.04998,-0.979205,-0.117608,0.548075,-0.136601,-0.416147,0.987615,0.362146,0.330479,-0.077369,0.636855,0.523006
combinaison,-0.988529,0.231732,-0.392396,-0.454914,-0.077119,-0.588413,0.102713,1.951122,0.147011,0.400326,-0.249823,-0.34079,0.301981,0.409393,0.997831,-0.569855,-0.273962,-0.00276,-0.411307,-0.138966,0.173936,1.188899,-0.881462,-0.42543,-0.259883,0.584722
précision,-1.21586,0.07319,0.22848,0.061216,0.089073,-1.216503,0.389335,1.436379,-0.426349,0.818007,-0.047776,-0.883549,0.064606,1.132528,-0.11122,-0.418311,0.187194,-0.075798,-0.171086,-0.39944,0.0962,1.43831,-0.89637,-0.986192,0.444092,0.249036
spécial,0.410553,0.287628,-0.239494,0.236949,-0.408335,-0.632392,0.44286,0.454355,-0.456748,-0.090845,-0.114438,-0.725994,-0.144122,-0.499873,0.920283,-0.700669,0.932623,0.745404,-0.087343,-0.081927,0.42084,-0.614619,-0.091694,-0.90903,-1.163874,0.708142
isomorphisme,-0.895893,-0.404625,-1.538783,-1.05356,0.02301,0.492161,-0.28656,1.977223,-0.210937,-1.082349,-0.604208,0.263203,0.328748,-0.494224,-1.10511,0.485193,-2.035656,1.481327,2.213111,-0.426138,-0.618524,1.012641,-0.62497,0.681061,0.075694,0.927446
idéal,-0.300726,0.101759,-0.600431,-0.42639,-0.062618,-0.412169,-0.89956,1.104796,-0.44857,0.42611,0.158986,-1.025032,-0.390842,-0.119737,-0.11788,-0.801683,-0.910667,-0.069425,-0.455969,0.58277,-0.30098,0.009967,-0.837489,0.49919,0.150955,0.797768
complémentaire,0.109791,0.987923,-0.651755,0.06236,-0.074998,-0.816288,-0.213874,1.110411,-0.151637,-0.295539,-0.094391,-0.757574,-0.310505,0.610351,0.172726,0.216456,0.586918,0.921646,0.541891,-0.154535,0.163885,0.770235,0.120773,-0.416693,0.017576,0.996115
riemannien,0.162496,0.639115,-1.710087,-0.275735,-0.245389,0.805916,0.357893,2.724902,0.168418,-1.153561,-0.197918,0.796076,0.341251,-0.260533,-1.106695,-0.035981,-1.263534,-1.424082,0.943104,-0.58097,0.160594,1.552049,0.041888,0.345897,0.994416,1.683396
Dirichlet,-1.338042,1.896121,-1.755437,-1.16398,0.745999,-0.119169,0.51886,0.700439,1.043128,-1.289624,-0.016514,-0.16494,0.258741,0.450751,-0.470918,0.413344,-0.421255,0.110004,0.670635,0.05939,-1.031372,1.064564,-0.531387,0.595638,1.332452,0.081091
Gödel,-1.144338,1.155777,-1.439681,-0.602317,0.304548,0.166059,0.725265,-0.681432,0.225796,-0.487537,-0.359785,-1.03049,-0.101182,-1.201777,-1.27433,-0.137508,-1.339317,0.456875,0.958302,-0.825364,-0.034266,2.056651,-0.378096,-0.07151,1.383414,-0.173808
Neumann,0.070826,1.012834,-1.033368,-0.954143,-0.236395,0.23831,0.243941,-0.470218,0.414626,-1.182743,1.346101,-0.297658,0.392796,-0.885576,-1.316886,-0.300889,-0.230191,0.288205,0.44003,-0.401956,-0.468224,1.153698,-0.316392,-0.04733,-0.191076,-0.564717
transformée,-1.762467,0.703443,-1.692299,0.099787,0.648602,-0.226162,0.507395,1.057545,1.387204,-1.787709,-1.218701,0.036846,-0.066959,-0.14933,-0.460394,0.432693,0.202326,-0.704418,0.836531,-0.28278,-1.852248,0.81742,-0.424993,0.166785,1.727171,0.890417
régression,-0.754808,0.295536,-0.757984,-0.115767,0.597101,-1.099724,0.399304,1.246201,0.239028,0.659588,0.815841,0.450645,-1.028696,1.476279,-0.589172,-0.205922,-0.647263,-0.354838,0.199718,-0.243538,-0.764615,0.480748,0.178401,0.219653,1.45643,0.388416
infinité,-2.038672,0.791465,-0.670962,-0.433444,-0.149413,0.08698,-0.074085,1.198053,0.111227,0.234751,-0.677837,-0.809117,0.34464,0.135991,-0.194628,-0.182697,-1.281251,0.342975,1.256571,-0.198029,-1.136708,0.620008,-0.653882,0.972164,0.455535,0.286261
Cantor,-0.256604,0.993559,-0.953114,-0.390417,-0.352048,0.218292,-0.009589,-0.262667,0.384536,-0.998649,0.133901,-0.08377,0.220228,-0.945894,-1.303108,0.415667,-0.776991,-0.477399,1.082821,-0.633401,-0.263511,1.665014,0.16029,0.816,-0.050171,0.561056
modélisation,-0.898956,-0.398461,-1.261266,0.227975,-0.212503,-1.123939,0.038637,1.641813,0.126942,-0.992733,0.466424,-0.949183,-0.420473,1.227951,-0.053266,-0.650694,-0.513229,-0.152686,0.014311,-1.552799,-0.033971,1.246301,0.792091,-1.229951,1.308296,0.168923
tracer,-0.351955,0.624853,0.751712,-0.216236,-0.449863,0.312901,-0.244519,1.4727,-0.195704,-0.302863,-0.92611,-0.454861,0.480586,0.253936,-0.010186,-0.311521,-0.337322,-1.04496,0.550882,-0.306529,-0.348785,0.291932,0.185429,0.217979,0.419758,0.507344
cône,-0.679616,-0.070364,0.541896,-0.159363,-0.183838,-0.467833,-0.130152,2.530136,1.017052,-0.273699,0.253764,0.608184,0.573777,0.38185,0.113896,-0.42742,-0.437865,-1.529549,1.439707,0.548266,-0.406479,0.781189,-0.587313,0.31874,-0.139871,0.558613
cubique,-1.219093,0.52806,-0.471094,-1.183579,0.201881,0.369304,-0.799553,2.513944,1.401685,-0.191178,-0.136308,0.695426,0.638142,-0.114985,-0.230892,-0.582829,-0.550059,-0.314836,1.226201,-1.554787,-0.373585,0.884095,-1.186416,0.523431,0.384033,-0.058788
simplifier,-0.316196,0.393527,-1.121409,-0.373406,-0.544657,0.020584,-0.699804,1.450695,-1.033856,-0.492194,-1.01479,-0.168469,0.093263,0.380782,0.480788,0.034103,-0.351822,-0.334993,0.003564,-0.356895,0.855255,1.244056,-0.118047,0.135014,0.290388,0.968414
composition,0.714552,0.388456,-0.001253,0.113414,0.616116,-0.501258,-1.469086,1.106736,1.030696,-0.014071,-0.398932,-0.657764,0.116606,-0.078461,-0.007969,-0.400262,0.281622,-0.164279,-0.577439,-0.706576,0.419014,0.83173,-0.067068,0.743052,-0.933152,0.245738
triangulaire,-0.471765,0.399136,1.175281,0.294577,0.599193,0.394569,-0.885045,2.187649,0.544164,0.668667,-0.774416,0.591392,-0.055465,-0.134642,0.375997,-0.953315,0.188666,-1.518011,1.652203,-0.70468,0.153117,0.198631,-1.161401,0.182446,-0.197673,1.17444
Poincaré,-0.322881,1.363616,-0.534981,-0.20235,0.623158,0.659605,-0.656957,0.333327,-0.128337,-2.015998,-0.01872,-0.884904,-0.307446,-0.286796,-1.44767,-0.303209,0.039344,-0.645857,1.150388,0.018163,-0.578077,0.316603,-0.454525,0.419853,1.190017,0.351167
réflexion,-0.650964,0.129953,-0.375402,0.749135,0.487912,-0.877419,-1.300658,0.683069,-0.471365,-0.278228,0.446954,-2.223783,-0.340744,0.433729,-0.337587,-0.732669,0.040369,-0.486706,-0.253182,0.31328,0.510875,0.35895,0.651827,0.32159,0.582476,0.472346
huit,0.919492,0.379911,1.502529,0.285954,0.102564,-0.345028,-0.082407,0.4274,-0.316972,0.460716,-1.093528,-0.593943,0.282835,0.641908,0.827261,-0.495368,0.382187,0.328369,0.35271,0.15897,-0.381043,-0.018262,-0.758395,0.017884,-1.514052,0.099812
stochastique,-0.836687,0.64295,-1.770016,-0.471967,0.266472,-0.675126,1.069184,1.280809,0.533235,-0.871484,0.044103,-0.275163,-0.124107,0.707507,-1.433356,-0.493537,-0.301997,-0.393907,-0.011415,-0.704225,-0.126972,1.602292,-0.039781,0.192813,1.617203,0.176745
coloration,-0.798384,0.958757,-0.502499,-0.071747,0.046976,-0.973069,0.216699,2.049762,1.269233,1.070321,0.548935,0.699888,-0.130569,0.374457,0.30209,0.222043,0.001748,-1.289811,0.076127,0.078437,0.028819,1.31186,-1.247812,0.169955,0.078899,1.558889
diamètre,-0.296841,-0.186731,1.488547,0.335425,-0.82189,-1.230096,-0.171411,3.396816,0.247493,0.017039,-0.376484,0.812588,0.162418,-0.154461,-0.011407,-0.539216,0.180142,-0.94742,1.290247,0.346081,-0.517041,1.189845,-1.548933,-0.52953,-0.57192,-0.373557
négation,-1.736539,1.33007,-1.71272,-0.727186,0.791699,0.384247,0.474095,0.927082,-0.74157,0.926928,0.860151,-0.949795,1.131393,0.678851,-1.199015,-0.0744,-1.084262,0.879028,0.183882,0.371602,0.747398,0.173467,-0.184364,1.347977,0.296563,0.419125
réduction,-0.037177,-0.071492,-0.276606,-0.418101,0.197424,-1.186314,-0.592135,1.63109,-0.321004,0.10934,0.205722,0.114072,-0.907269,1.572503,-0.287666,-0.771549,1.072988,1.285565,-0.227563,0.193812,-0.063994,1.247182,0.01395,0.546326,0.396373,0.393329
Markov,-1.088516,0.541075,-1.514267,-0.368167,0.502183,-0.11806,0.835971,0.682796,0.069536,-0.934559,0.444486,0.113842,0.544747,-0.37797,-1.718902,-1.257974,0.164962,-0.693151,1.052854,-0.346475,0.090925,0.89356,-1.232792,-0.276014,1.048742,-0.535511
