word,1,2,3,4,5,6,7,8,9,10,11,12,13,14,15,16,17,18,19,20,21,22,23,24,25,26,27,28,29,30,31,32,33,34,35,36,37,38,39,40,41,42,43,44,45,46,47,48,49,50,51,52,53,54,55,56,57,58,59,60,61,62,63,64,65,66,67,68,69,70,71,72,73,74,75,76,77,78,79,80,81,82,83,84,85,86,87,88,89,90,91,92,93,94,95,96,97,98,99,100,101,102,103,104,105,106,107,108,109,110,111,112,113,114,115,116,117,118,119,120,121,122,123,124,125,126,127,128,129,130,131,132,133,134,135,136,137,138,139,140,141,142,143,144,145,146,147,148,149,150,151,152,153,154,155,156,157,158,159,160,161,162,163,164,165,166,167,168,169,170,171,172,173,174,175,176,177,178,179,180,181,182,183,184,185,186,187,188,189,190,191,192,193,194,195,196,197,198,199,200,201,202,203,204,205,206,207,208,209,210,211,212,213,214,215,216,217,218,219,220,221,222,223,224,225,226,227,228,229,230,231,232,233,234,235,236,237,238,239,240,241,242,243,244,245,246,247,248,249,250,251,252,253,254,255,256,257,258,259,260,261,262,263,264,265,266,267,268,269,270,271,272,273,274,275,276,277,278,279,280,281,282,283,284,285,286,287,288,289,290,291,292,293,294,295,296,297,298,299,300,301,302,303,304,305,306,307,308,309,310,311,312,313,314,315,316,317,318,319,320,321,322,323,324,325,326,327,328,329,330,331,332,333,334,335,336,337,338,339,340,341,342,343,344,345,346,347,348,349,350,351,352,353,354,355,356,357,358,359,360,361,362,363,364,365,366,367,368,369,370,371,372,373,374,375,376,377,378,379,380,381,382,383,384,385,386,387,388,389,390,391,392,393,394,395,396,397,398,399,400
number,-0.107968,0.162447,-0.198906,-0.053825,0.845012,0.528839,0.053109,-0.175993,-0.406557,-0.551211,-0.100937,0.116072,-0.075234,0.126336,-0.005593,0.20245,0.166459,0.082062,0.29532,0.298446,-0.510425,0.068816,0.629927,0.007562,0.134333,0.21074,0.269168,0.183347,0.306879,-0.603011,0.136671,-0.021697,0.425421,0.232314,0.194967,0.179814,-0.044158,0.201995,-0.041101,-0.751842,0.061803,-0.383276,-0.188525,-0.349969,-0.465994,-0.035654,-0.037266,-0.009163,0.068266,-0.217023,0.224101,0.097423,-0.136355,0.164096,-0.143763,-0.665405,-0.22186,-0.260874,0.067983,0.095055,0.078454,0.151607,0.111622,-0.015763,0.239415,0.31589,0.374219,-0.09076,-0.332881,-0.195827,-0.200911,0.0847,-0.039627,-0.305524,-0.142116,-0.353537,-0.266825,-0.411176,-0.187786,0.513581,-0.152983,-0.096333,-0.233383,-0.271885,0.456625,-0.197364,-0.455792,-0.047142,-0.050664,0.224958,-0.392962,-0.401292,-0.096857,-0.000823,-0.152771,-0.095745,-0.242529,-0.436729,0.187948,-0.111219,-0.084686,0.269846,0.170424,0.579589,-0.098509,0.350406,-0.331233,-0.216815,-0.032247,0.100464,0.072645,0.30053,0.325631,-0.153862,0.469985,-0.031451,-0.356664,0.263026,-0.298765,-0.182352,0.021389,0.031642,0.107833,-0.358063,-0.246582,-0.101446,0.219316,0.201443,-0.259867,8e-05,-0.468008,0.081149,-0.457822,-0.215482,-0.080423,-0.481196,0.13025,-0.494394,-0.209665,-0.004877,-0.103339,0.310178,0.35457,-0.122033,-0.049081,-0.209146,0.161738,-0.113764,-0.09395,0.026024,0.173009,0.18147,-0.040212,0.384789,-0.065962,-0.077285,-0.23816,0.162593,-0.060161,-0.249951,-0.271064,-0.208593,-0.251943,0.157999,-0.246584,-0.155475,0.126521,-0.182883,0.023385,0.054415,0.16252,0.053882,0.008249,0.374292,0.237066,-0.099928,0.191545,0.116338,-0.204201,-0.061994,-0.017257,-0.221958,0.066451,0.023636,-0.559206,-0.152989,0.113043,-0.187715,-0.053702,-0.119773,0.272175,-0.301932,-0.037288,0.335983,-0.234337,0.383225,-0.064271,0.198087,0.212414,0.139691,0.293911,-0.339263,-0.437886,-0.134152,0.182639,-0.257874,-0.309345,-0.082247,0.29401,-0.152454,-0.078662,-0.0477,0.11792,0.008504,-0.093972,-0.001238,-0.127704,0.357686,-0.009825,-0.259384,0.094246,0.200168,-0.113256,-0.218223,0.448317,-0.249806,0.313382,0.153507,-0.256289,0.412624,-0.058335,0.109921,0.210685,-0.011088,-0.151341,0.068064,-0.045561,0.114176,0.058138,0.053272,0.356525,-0.032449,-0.217224,-0.111793,0.172422,-0.302375,0.117168,0.11206,-0.138408,-0.024988,0.113246,0.169233,-0.615599,0.032326,-0.308225,-0.009133,0.157795,-0.139678,-0.121712,0.492792,0.052009,-0.12217,-0.161187,0.131658,-0.037386,0.299962,-0.232713,-0.062492,0.260686,-0.492839,0.194489,0.344217,0.256941,0.106007,-0.638907,0.230733,0.12466,0.025682,-0.177535,0.382811,0.327489,-0.206745,0.097832,-0.052176,-0.262601,-0.29508,-0.224943,-0.046731,-0.051738,-0.212285,-0.115326,-0.346554,0.087006,-0.026138,0.233181,-0.363947,-0.006594,0.039657,-0.036596,-0.435793,-0.029831,0.604993,0.3864,-0.327742,0.131543,-0.657736,0.187246,0.057093,0.163528,-0.110785,0.047297,0.277145,0.332051,-0.460551,0.26089,-0.01843,0.006995,-0.338062,0.255583,0.335096,0.017396,0.081191,0.227349,-0.380216,0.051292,0.336469,-0.349242,0.224839,-0.203085,0.072678,-0.016786,0.022281,0.219861,-0.083414,0.143448,-0.059836,-0.074687,-0.621,-0.019162,-0.13575,0.156344,0.260104,-0.374344,0.074743,-0.232396,0.306085,0.040322,-0.044149,0.048692,0.288602,0.008943,0.033641,-0.003066,-0.32932,-0.292801,-0.273893,0.010055,0.232532,0.36684,-0.27727,0.006944,-0.454755,0.106859,-0.306403,-0.042185,-0.248785,-0.00849,-0.12133,0.595711,0.217405,0.328547,0.055247,-0.287248,0.26743,0.288858,-0.385343,0.022598,-0.094487,-0.063189,-0.341842,0.065752,-0.077323,-0.425997,0.335846,-0.02549,-0.010877,0.205402,-0.120101,0.039014,0.19529,0.116305,0.435461,0.092208,0.214719,0.183647,-0.297389,0.104937,-0.008287,-0.142837,0.358252
function,-0.144277,0.138918,-0.023141,0.066299,0.351306,0.864367,-0.280835,0.131707,-0.066746,-0.475599,0.229008,0.09356,-0.266785,-0.489574,-0.248391,-0.0637,0.378762,-0.31749,0.089152,0.182341,-0.095696,-0.360108,0.326324,-0.057029,-0.213281,-0.052676,-0.314611,0.262702,0.072762,0.287089,0.055053,-0.157127,0.563021,0.254496,0.017705,0.498352,-0.063059,0.001026,0.116213,-0.399243,0.125719,-0.782814,-0.542778,0.002755,0.051944,0.177122,-0.383622,0.445619,-0.496655,-0.295501,0.235209,-0.052313,-0.198391,0.189176,-0.531837,-1.418323,-0.187472,-0.126242,-0.158722,0.103433,-0.096914,-0.081917,-0.080201,-0.618262,-0.056832,0.085989,0.337509,-0.138658,-0.354555,0.335104,-0.219052,0.380423,0.112888,0.119993,0.20086,0.478075,0.178765,-0.851876,-0.299513,-0.319753,0.08554,-0.077693,-0.106702,-0.033,-0.396845,0.53471,-0.058239,0.288641,-0.25028,0.130874,0.324034,0.012407,-0.422772,-0.103921,-0.287099,0.192429,0.029037,0.066045,0.034327,-0.281503,-0.284325,-0.16312,0.281624,-0.000896,0.260862,-0.172525,-0.068707,-0.196974,-0.062047,1.115136,0.260793,0.192317,-0.083044,-0.163415,0.520076,-0.266291,0.433393,0.080631,-0.179766,-0.358101,0.708619,0.244579,0.298821,-0.617685,-0.266765,0.323373,-0.390708,-0.230404,-0.387449,0.290051,-0.213036,0.18802,0.228427,-0.043495,-0.079211,-0.220098,0.540604,0.227096,0.201342,0.094044,-0.277145,-0.139161,-0.378704,-0.640052,-0.241586,0.710863,-0.380388,-0.245968,-0.120229,0.333635,0.054476,0.051284,-0.661855,-0.14086,-0.369364,0.192972,0.42356,0.110666,-0.345976,-1.214949,-0.333207,-0.58982,-0.369951,-0.398054,0.336784,0.162975,-0.113313,0.006641,-0.229054,-0.259726,0.171275,0.64046,-0.218073,0.477242,0.063276,-0.089459,0.444089,0.073599,0.185783,0.184537,0.443679,-0.037089,0.246988,0.528661,-0.696767,0.088435,0.170008,-0.590023,-0.515243,0.310402,-0.281066,-0.767327,-0.234724,-0.118047,-0.134323,-0.058171,0.014172,-0.030917,-0.357443,-0.099698,0.295557,0.20826,0.237323,0.194122,-0.360929,-0.399846,0.022702,0.090787,-0.054027,-0.411232,-0.093494,0.610149,0.284356,-0.400722,0.642925,0.262072,-0.366997,-0.172735,-0.036459,-0.131053,0.05983,0.243284,0.264982,-0.016166,0.437939,0.510373,0.035618,-0.628415,0.520091,0.303559,0.103877,-0.206608,-0.335951,-0.06521,0.165102,0.060509,0.067017,-0.029383,0.045502,-0.24401,0.097258,0.069536,0.126426,0.474087,-0.013642,0.09684,-0.165488,0.221401,0.093379,0.256476,-0.843115,0.343403,-0.124544,0.50097,-0.589819,-0.1073,-0.074984,-0.001409,-0.084997,-0.118271,0.013343,-0.018179,0.570961,-0.368846,-0.295061,-0.580334,0.020462,-0.268356,0.136178,-0.071593,-0.220316,-0.270589,0.067175,-0.105067,-0.592474,-0.168688,-0.348109,-0.152202,0.131662,0.283476,-0.178568,0.024883,0.168163,-0.285491,-0.24186,-0.292997,0.034971,0.447944,-0.32782,0.321215,0.092689,-0.106051,0.100695,0.134768,-0.272437,-0.080616,-0.073052,0.350142,0.124155,-0.568764,-0.36747,0.467063,0.448765,-0.588825,0.262465,-0.835063,0.478787,0.040427,0.341718,-0.183789,0.353526,0.539195,0.430165,-0.174075,0.101066,-0.312886,0.243277,-0.501977,-0.646605,0.487125,0.138946,0.135568,0.503359,0.223215,0.380462,0.008501,0.007139,-0.157032,0.566253,0.007344,-0.066461,0.197531,0.164736,-0.071006,-0.348003,0.116852,-0.157974,-0.694254,-0.126488,0.002745,0.053955,0.038687,0.010346,0.085449,0.604888,-0.241568,-0.435288,-0.396948,-0.103107,-0.374454,0.837094,0.618509,0.593496,-0.146108,-0.544354,0.218371,-0.031678,-0.093587,0.418354,-0.347758,-0.281104,-0.026766,0.094813,-0.037427,0.576532,0.229366,-0.276744,0.007825,0.115521,0.190962,-0.059968,-0.110647,-0.018546,0.564723,0.184998,-0.557325,0.231748,-0.070376,-0.133444,-0.183611,-0.365462,0.316698,-0.046431,0.218562,-0.197146,-0.109414,-0.319944,0.494812,-0.367587,0.312188,-0.264038,0.118572,0.05207,-0.148109,0.285386,0.009461,0.306273,0.013975,-0.334681,-0.256222
one,0.077258,0.161949,-0.116945,0.053036,0.405725,0.308267,-0.034212,-0.220631,-0.182644,-0.236143,0.047536,0.425571,-0.233721,-0.14197,-0.124638,-0.03076,-0.155149,-0.063277,-0.010035,0.25852,-0.283333,0.101107,0.27737,-0.087655,0.096983,0.054415,-0.036696,0.359521,0.157827,0.072837,-0.110583,-0.203118,0.061767,-0.080375,-0.28972,-0.012564,-0.13661,-0.051387,0.118636,-0.304315,0.073916,-0.350613,0.082257,-0.124164,-0.282525,-0.054003,0.040696,0.035054,-0.088041,-0.057749,0.125815,0.02053,0.168489,-0.02736,-0.182504,-0.195208,0.000821,-0.117142,-0.035789,0.005981,0.100796,-0.064235,-0.39564,-0.191956,0.141141,0.013627,0.378148,-0.299468,0.288939,0.124026,-0.259254,-0.228858,-0.043543,-0.375158,0.188998,-0.146547,-0.239406,-0.100146,0.110977,0.420236,-0.204875,-0.144917,-0.049555,0.03171,0.349665,-0.007242,-0.040425,-0.008427,0.059616,-0.034284,-0.324908,-0.029372,-0.080301,-0.173959,-0.357799,-0.088859,-0.033449,0.090686,0.00971,-0.147632,-0.146473,0.213186,-0.063547,0.088525,-0.12274,0.023801,-0.231042,-0.090791,0.096124,-0.352106,0.189314,0.109802,0.196043,-0.015456,0.292859,0.108685,-0.056962,4e-06,-0.189474,-0.345963,0.198912,0.122607,-0.036689,-0.05595,-0.063528,-0.180228,0.342309,0.272521,0.032225,-0.067496,-0.189828,-0.160086,-0.409433,0.057508,-0.0035,-0.394435,-0.072753,0.055805,-0.149814,-0.05152,-0.086956,0.250273,0.193629,-0.306137,-0.229089,-0.026501,0.200931,-0.067723,0.054883,0.167075,0.120666,-0.097004,-0.180983,-0.13186,-0.070113,-0.047375,0.086408,0.235626,-0.275694,-0.124629,-0.100449,0.031087,-0.115979,0.05118,0.232807,-0.066568,-0.12168,-0.165638,-0.134403,0.090444,0.117881,0.306359,0.226018,0.083937,-0.093259,-0.166521,0.109997,-0.336149,0.074764,0.060018,-0.33932,-0.033827,0.166551,-0.015996,-0.093372,0.026177,0.165759,0.005584,-0.253565,-0.208689,0.105888,-0.365156,-0.06011,0.284857,-0.120461,0.022174,-0.000486,-0.001734,0.088396,-0.068179,0.111319,0.113102,-0.149488,-0.267618,0.489147,-0.152817,-0.027557,-0.051761,0.122905,0.187053,-0.200719,0.025973,-0.067443,0.052441,0.219584,-0.007791,0.199539,-0.029213,0.068231,-0.014077,-0.040541,0.115082,-0.116482,-0.077082,0.011522,0.175642,0.19781,0.123459,0.124023,0.375581,0.007569,-0.021003,0.021029,0.013905,-0.038224,0.204975,-0.192014,0.14552,0.274645,0.100609,-0.070794,0.076038,0.326688,-0.181897,0.249521,-0.071297,0.034325,-0.306567,0.039311,-0.035217,0.183612,0.098848,-0.268074,0.156871,-0.100717,-0.096802,-0.045427,0.089242,0.133683,0.111221,-0.038409,0.141352,-0.132875,-0.134911,0.08454,0.152701,-0.325341,-0.067012,0.37029,-0.044988,0.098547,0.087868,0.123232,-0.075269,-0.108106,-0.095181,-0.023983,0.000788,-0.265369,0.317818,0.160127,-0.012431,-0.292657,0.192857,-0.212346,-0.057935,-0.295684,0.125954,0.118296,-0.03102,0.313193,-0.532832,0.042426,0.164873,0.015023,-0.006033,0.209223,-0.045848,-0.015547,-0.040779,-0.132406,0.292776,0.15593,-0.109138,0.127832,-0.009007,0.054281,0.190851,0.10018,0.183015,-0.030443,-0.064225,-0.103327,-0.226289,0.392384,-0.187146,0.240125,-0.100884,0.019369,0.178514,0.143703,-0.01572,0.047408,-0.157153,0.022381,0.138518,-0.087597,0.182062,0.121708,-0.026562,0.205806,0.096402,0.119341,-0.025172,-0.148033,-0.147909,-0.105891,-0.03333,0.114382,-0.002574,0.089557,-0.010311,-0.215218,-0.013217,-0.097932,-0.025297,-0.077714,0.136438,-0.102994,0.286845,0.21711,0.24299,-0.123229,-0.093977,-0.134338,-0.110152,-0.1345,0.051286,0.044554,0.078978,-0.218057,0.050071,-0.088988,-0.076178,-0.006777,0.146866,0.092744,-0.139011,0.041673,0.199241,0.093859,-0.084027,-0.009899,0.153513,0.109658,0.004596,0.10296,-0.064866,0.19747,-0.038179,0.129622,-0.177095,0.011995,-0.248281,0.095835,-0.064321,0.005863,-0.200739,0.016071,0.028758,-0.033091,0.119447,0.115705,0.008747,0.201264,-0.05792,-0.044978,0.226602,-0.107491,-0.094581
set,-0.191049,-0.119435,-0.375551,-0.247807,0.578303,0.438266,0.201063,-0.122412,-0.145157,-0.314261,-0.018851,0.163373,-0.05103,-0.240476,0.185793,0.043872,0.264572,0.063697,0.346249,-0.065855,0.098489,0.001588,0.600529,-0.138663,0.014883,-0.21797,0.070472,0.35259,-0.181382,-0.248239,-0.022758,-0.297344,0.585786,-0.044132,-0.117325,0.3237,0.169453,0.08638,-0.27176,-0.175386,0.011752,-0.095534,-0.444661,-0.003261,-0.255115,0.092907,0.004501,-0.055653,-0.440921,-0.414929,0.226149,-0.005232,0.147618,0.164355,-0.080516,-0.012585,-0.28993,0.033821,-0.084465,0.101443,0.13806,0.129105,-0.612217,-0.043086,0.000987,-0.201424,0.378786,0.216873,-0.167321,0.229576,-0.306066,0.24705,0.03892,-0.069212,0.125967,-0.26889,-0.147525,-0.220707,-0.127062,0.342367,-0.137403,-0.334748,0.217031,-0.130343,-0.088903,0.400696,0.183638,-0.102137,-0.066793,0.225851,0.04124,-0.288631,-0.369919,0.392686,-0.370015,-0.172689,-0.374993,0.274962,0.000999,-0.166903,-0.206197,-0.157086,0.122592,-0.119908,-0.527078,-0.032092,-0.089255,-0.281969,0.069151,-0.0968,0.238758,0.450357,-0.240215,-0.070774,0.121671,0.32705,0.220519,-0.018301,-0.609936,-0.392875,-0.131677,0.177323,0.43519,-0.06615,-0.294142,-0.118976,0.048769,-0.005876,-0.018778,0.121842,-0.399902,-0.13859,-0.102654,-0.187066,0.302748,-0.256049,-0.107614,0.211694,-0.124171,-0.324974,-0.388396,0.110181,0.07128,-0.038278,-0.710139,0.230389,-0.071354,0.300117,0.16242,-0.279038,-0.005172,0.164751,-0.041219,0.060961,-0.269113,0.30812,-0.162812,0.420335,-0.305736,0.049784,0.087001,-0.229976,-0.001448,0.085007,0.088394,-0.051406,-0.051348,-0.107309,-0.180838,0.350784,-0.151568,0.211308,-0.010962,-0.113309,0.175292,-0.13052,-0.031093,0.344059,0.230264,-0.120065,-0.027803,-0.166835,0.204727,0.134047,-0.274841,-0.267548,-0.054402,-0.104956,-0.29259,0.251385,0.054737,0.172964,-0.17443,0.079893,-0.124299,0.112925,-0.021894,0.205623,-0.213149,0.033187,-0.246338,0.038079,0.073778,-0.342992,0.059662,-0.120887,0.26133,0.437575,0.174013,0.116037,0.236436,0.546485,0.215105,0.099989,0.115277,0.247055,-0.068217,-0.067975,-0.06457,0.136563,0.120403,0.133005,0.226175,-0.267952,-0.172278,0.293328,0.122274,0.284827,-0.012635,0.211635,0.085142,0.170125,0.038644,0.187984,-0.170533,0.058694,-0.204174,-0.013937,-0.034336,-0.081442,0.1306,-0.304998,0.268867,0.062237,0.04787,-0.113184,0.018616,0.177752,0.201842,0.245723,-0.336865,0.077188,-0.195505,0.505462,0.125807,0.037649,0.154987,0.242296,0.070538,0.160889,-0.066704,-0.126024,-0.075563,0.127455,-0.131848,-0.025477,0.028657,0.123734,0.326663,0.201007,-0.380363,-0.018735,0.151979,-0.294491,-0.209256,-0.000362,-0.188817,0.004202,-0.369235,-0.045731,-0.001559,-0.048324,-0.493027,0.160976,-0.294705,-0.51568,-0.242498,0.380236,-0.131031,-0.069872,0.023732,-0.344694,0.048708,-0.09788,0.076024,-0.155665,0.061836,-0.114724,0.180976,0.079479,-0.030637,0.14481,0.032323,0.022419,0.084538,-0.101699,0.009507,-0.023936,0.273669,-0.02446,0.217301,0.101107,0.450861,0.090802,0.27692,-0.272961,0.300084,-0.083359,0.245475,0.214387,-0.216851,-0.075871,0.12849,-0.144994,-0.054665,0.132844,0.016976,-0.120373,0.237618,-0.006297,-0.254836,-0.262267,-0.237268,0.10796,0.021379,-0.111129,0.278248,-0.502875,-0.122399,-0.047963,0.070982,-0.193516,-0.115601,0.045756,-0.124746,0.149311,-0.129445,-0.165729,-0.354796,-0.023276,0.05118,0.074799,0.124339,-0.086768,-0.478885,-0.013492,-0.007906,-0.143112,-0.187922,0.00907,0.023773,-0.211368,0.031674,-0.0652,-0.002268,0.325987,0.145455,0.252352,-0.06409,0.1809,0.357408,-0.170147,-0.207938,0.352738,-0.045962,0.110784,0.213446,0.183301,-0.062066,-0.175426,0.407143,0.114723,-0.736516,-0.114716,0.126587,-0.237113,-0.187297,-0.132938,-0.084189,-0.090182,0.265523,0.105246,-0.213839,0.135432,0.289252,-0.053224,-0.369765,-0.002445,0.100598,-0.017091
group,-0.186183,0.250854,-0.277832,-0.026586,0.404113,0.50026,-0.320807,0.165204,-0.032007,-0.184643,0.436102,-0.04922,0.179449,-0.182548,-0.080647,-0.099287,0.031271,0.345457,0.174059,0.105621,0.117137,-0.119057,0.526718,-0.137212,-0.233229,0.28295,-0.047228,0.240891,0.150558,0.073226,0.342495,-0.29029,0.018424,0.218168,-0.12374,-0.542244,0.651357,0.28304,-0.007812,-0.215112,-0.032136,0.04842,0.236738,-0.20697,-0.800366,-0.180451,0.04215,-0.016898,0.422258,0.19083,-0.231636,0.239552,-0.131586,-0.153451,-0.051806,-0.432162,-0.053422,-0.412005,-0.16877,-0.039406,0.002794,0.444617,-0.504541,-0.6047,0.231132,0.478653,0.232189,-0.035445,-0.11942,-0.08964,-0.038884,-0.069453,0.045433,-0.129793,-0.261064,0.240891,0.14794,0.050913,-0.071637,0.336424,-0.309003,0.148481,0.205588,-0.097029,0.151531,0.345467,0.07794,-0.081128,0.214355,0.574426,0.195552,0.174519,0.046061,0.07499,-0.128583,0.087835,-0.06105,0.166389,0.101154,0.223907,-0.249334,0.162547,-0.261794,-0.35799,-0.247583,-0.19946,-0.213724,0.067314,-0.12666,-0.323976,-0.093842,0.012783,-0.163447,0.379674,0.186883,0.310411,0.107458,0.353466,0.13862,-0.120712,-0.48147,-0.305625,-0.0103,0.098307,0.404847,0.127618,0.256627,0.191574,-0.211169,-0.328239,-0.035792,0.003932,-0.17812,-0.19399,0.026741,-0.608915,0.083568,-0.001048,0.252087,0.080867,-0.429186,0.078332,-0.02621,-0.518329,0.592408,-0.15494,0.804702,-0.054999,-0.484127,-0.351337,0.128132,-0.424676,-0.031694,0.079294,-0.059331,0.117199,0.147908,0.123583,0.034182,-0.044509,0.007493,-0.443205,-0.136449,-0.268884,-0.175414,-0.456538,0.126,0.066972,-0.433552,-0.275685,-0.26661,0.468517,-0.21312,0.08812,0.246958,0.09653,0.340219,-0.331564,0.185571,-0.465125,-0.282191,0.076958,0.080451,0.38624,0.071539,0.061946,0.125323,-0.284134,0.391111,-0.186117,-0.024405,0.380993,0.19218,-0.045188,-0.322684,0.386381,-0.169818,0.39989,0.384258,-0.037347,-0.013887,-0.600773,0.026589,0.35099,-0.115336,-0.153139,-0.186519,0.022413,-0.1379,-0.257269,-0.045396,0.659753,0.182967,0.301528,-0.029232,0.366026,0.441181,-0.254192,0.370655,0.07029,-0.229669,0.097652,-0.619161,0.023843,0.446658,0.157206,-0.000538,-0.069368,0.178873,-0.041771,0.041506,-0.195224,-0.11647,0.061791,-0.440447,0.238454,-0.240927,-0.077668,0.142255,0.272992,-0.29187,-0.231401,-0.051669,-0.137333,0.00841,-0.28703,0.122814,-0.43008,0.206522,0.082176,0.055139,-0.286327,-0.03943,-0.130119,-0.136356,-0.488317,-0.01487,-0.366894,0.068295,0.141768,0.179769,0.286387,-0.062302,0.06131,-0.471708,-0.185502,-0.235061,0.183329,0.256881,-0.23337,-0.27181,-0.06717,0.174688,0.118149,0.266091,0.055393,-0.254914,-0.004972,0.254036,0.033245,-0.15461,0.096359,-0.077449,0.057971,-0.051739,-0.008745,-0.138862,-0.179272,-0.604457,-0.381216,-0.24174,-0.731264,-0.418919,-0.157496,0.139866,-0.140045,0.035122,0.167684,0.640191,-0.272236,-0.298939,-0.229253,0.096309,-0.032441,0.267182,0.180668,-0.357598,0.610143,0.268701,-0.038193,-0.026177,0.328891,0.405492,-0.257319,0.398037,0.136607,0.181503,-0.666548,-0.244846,0.609345,0.277269,-0.182974,0.120088,0.3386,0.185261,0.103174,0.026772,0.056899,0.0026,-0.147234,-0.00851,-0.096339,0.174235,-0.129132,0.090049,-0.13844,0.325247,-0.37596,0.079757,-0.030842,-0.084062,0.733894,-0.516119,0.090634,-0.380164,-0.151927,0.644556,0.252657,-0.213737,0.221126,0.163319,0.155658,-0.209683,-0.264127,-0.598304,-0.341182,0.313003,0.374267,-0.10124,0.163964,0.023332,0.271084,-0.361361,0.28946,0.14517,-0.188446,0.010781,0.02375,0.040683,0.304148,-0.047777,-0.219654,-0.585496,0.570665,0.19972,0.242705,-0.119101,0.138328,0.0178,0.195121,0.171449,-0.350549,-0.236563,-0.119511,0.061321,0.123832,0.003223,-0.032559,-0.17179,-0.671417,-0.279348,0.371701,0.054048,0.751701,0.217553,-0.097152,-0.250024,0.397628,0.111334,-0.041772
space,0.202229,0.194356,-0.513766,0.16923,0.62646,0.817302,-0.339662,-0.379827,0.238533,-0.304632,-0.047709,0.332957,0.159194,-0.290455,-0.218748,-0.059516,0.427921,-0.184713,0.257942,-0.106198,0.319781,-0.081638,0.211758,0.160842,0.105904,-0.612897,-0.272106,-0.04796,-0.21764,0.18022,0.368978,-0.215943,0.519686,0.496747,-0.008884,0.30156,0.35902,0.200694,0.523629,-0.136176,0.187888,-0.102429,-0.521683,0.152534,-0.398031,-0.099423,-0.27871,-0.104451,0.119294,-0.704638,-0.094477,0.099617,-0.085607,-0.366547,-0.190848,-0.471898,0.089248,-0.387777,-0.158502,0.349276,0.419254,0.167076,0.018461,0.144376,-0.260468,0.119888,0.222234,0.203545,-0.283544,0.475378,0.094567,0.169774,0.131808,-0.042433,0.102508,0.014806,0.029924,-0.260719,0.451656,-0.003315,0.025736,0.251568,-0.070116,0.184272,-0.633024,-0.084589,0.256682,-0.341101,0.168646,0.977639,0.221335,0.031398,-0.319264,-0.138464,-0.485276,-0.477583,-0.015192,0.100196,-0.074323,0.130374,-0.399387,-0.150414,-0.280058,-0.231545,-0.262822,-0.597229,-0.064779,-0.264421,-0.21713,-0.472683,-0.266487,0.135538,-0.252077,0.482868,0.618451,0.409199,-0.074132,0.29057,-0.31896,-0.240951,-0.016244,-0.135771,0.472179,-0.321259,-0.175513,0.170114,-0.259979,0.057898,-0.211213,-0.375023,-0.141101,-0.188122,-0.117468,-0.079244,-0.125381,-0.51467,-0.183924,-0.354295,-0.183352,-0.403736,-0.532473,-0.290063,-0.118807,0.221723,-0.274792,-0.294592,0.268841,-0.126609,0.490881,0.096014,0.271796,-0.291956,-0.126881,0.00664,-0.277481,0.054398,0.037089,0.038328,-0.104946,0.073708,-0.001996,-0.079238,0.206108,0.27112,0.355461,-0.184191,-0.071497,-0.410798,-0.299492,0.311258,-0.35101,0.742101,-0.255984,-0.009562,-0.232981,0.046501,-0.577615,0.394885,0.228673,-0.197585,-0.038632,-0.065039,0.403225,-0.13471,-0.103635,0.296571,0.583606,-0.119979,-0.477986,-0.414791,-0.087262,-0.306366,-0.060087,-0.113708,0.017313,0.094127,0.284676,0.195866,-0.148823,-0.828446,-0.15975,0.37966,-0.346585,-0.236287,-0.324175,-0.342029,0.320196,0.248581,0.058478,-0.055122,0.031432,0.466774,0.560532,0.155097,0.325439,0.138731,0.175099,-0.301418,-0.039997,-2.7e-05,0.463607,-0.079893,0.372049,0.533991,0.39163,0.118074,-0.144956,-0.009007,-0.346283,0.127291,0.29125,-0.087385,0.031801,0.34315,0.183736,-0.206261,-0.111743,-0.007516,0.080916,-0.002073,-0.139423,-0.109872,0.11318,0.046154,-0.243303,0.022236,-0.040611,-0.139666,0.305483,0.518564,-0.038834,0.211625,-0.599673,0.386542,0.011501,-0.011519,0.108313,-0.506392,-0.176281,0.660883,0.787498,-0.518261,0.320224,-0.35377,-0.046862,0.235416,-0.372017,0.225279,-0.146303,0.0127,-0.342548,-0.058032,-0.148448,0.289945,-0.304449,-0.135237,0.253718,-0.000747,-0.064398,-0.190322,0.10281,-0.244293,-0.386977,0.48454,-0.217502,-0.312551,0.017787,0.487395,-0.347926,0.541041,0.616723,0.363679,-0.401567,-0.323696,0.239754,-0.332945,-0.029902,-0.047228,0.046915,-0.174501,0.009807,-0.245161,-0.320453,-0.352911,-0.039203,-0.42727,0.547216,-0.017382,-0.01393,0.097394,0.101469,0.413449,0.986473,-0.635684,0.145446,0.257388,0.04054,-0.221806,0.237903,0.463215,0.402823,0.247745,0.33015,0.187371,0.246802,-0.024623,0.118433,0.022211,0.935823,-0.121799,-0.115903,0.25547,0.188578,-0.334956,-0.194185,-0.462391,0.353863,-0.264587,-0.349468,0.073002,0.047011,-0.108668,-0.416159,0.11966,0.141531,0.276964,0.583665,0.038588,-0.41882,0.609658,-0.279188,0.316717,0.001321,-0.255768,-0.480546,-0.026202,0.403586,0.099409,0.285604,0.229322,-0.166484,-0.391225,0.280382,-0.068074,0.013632,0.802814,0.259191,-0.255045,-0.274136,0.21961,-0.241626,-0.014345,0.624785,0.153897,0.285943,0.020503,0.294389,-0.715974,-0.052624,0.352366,0.305237,-0.012585,0.009827,0.215062,-0.531612,-0.095893,0.018506,0.179499,-0.576971,-0.887245,-0.638949,-0.350476,0.380796,0.378713,0.269288,-0.132849,-0.170955,0.032741,-0.166223,0.256661
two,-0.093204,0.052907,-0.102794,0.029237,0.665323,0.139413,-0.083601,0.052095,-0.067256,-0.02015,0.092411,0.284748,-0.163986,-0.151847,-0.137027,-0.206525,-0.127655,-0.134817,0.061097,0.334142,-0.376395,0.325326,0.402941,0.214724,-0.021717,0.144295,0.076366,0.303211,0.258423,0.114345,-0.135499,-0.148781,0.322417,-0.213847,-0.278822,0.042348,-0.118828,0.087977,-0.068399,-0.199419,0.085459,-0.06863,-0.00596,-0.21661,-0.062445,0.014102,0.175987,-0.090079,0.019162,-0.037285,0.186396,0.036166,0.229376,-0.089175,-0.210433,-0.290355,-0.011967,-0.139661,0.030395,0.001862,0.119282,0.038949,-0.515162,-0.226746,-0.007701,0.187045,0.122067,-0.356751,0.205685,0.211283,-0.383428,-0.354922,-0.098266,-0.530545,0.236196,-0.1119,0.134312,0.011314,-0.040772,0.43586,-0.163596,-0.237113,-0.162957,-0.16062,0.183353,0.027181,0.054925,0.09359,0.205174,0.040696,-0.466384,0.019248,-0.266084,-0.142419,-0.533521,0.017154,-0.229442,0.071928,0.042338,-0.067492,-0.21172,0.280323,-0.174563,0.005222,-0.41667,0.229069,-0.171978,-0.138619,0.06692,-0.438669,0.026413,0.002869,0.14402,-0.031193,0.227255,0.194556,0.176987,-0.045282,-0.103054,-0.36661,-0.164335,0.235251,0.075775,0.10219,-0.040272,-0.170518,0.282275,0.378871,0.100025,-0.162166,-0.153503,-0.244821,-0.377774,0.074743,-0.159265,-0.516541,-0.295759,0.050845,-0.047351,-0.054537,-0.121772,0.046233,0.245015,-0.081239,-0.321782,0.085392,0.081272,-0.168666,0.183345,0.076975,0.028379,0.03776,-0.176472,-0.073125,-0.059405,0.271745,-0.125898,0.260969,-0.163231,-0.076191,-0.107046,-0.028229,-0.030092,0.082226,0.390738,-0.039055,-0.11562,-0.186871,0.046236,-0.052906,0.116262,0.387058,-0.076401,-0.076273,-0.107608,-0.215865,0.087358,-0.257745,-0.196834,0.158258,-0.093825,0.0942,0.253973,0.092759,-0.131974,-0.156761,-0.149625,-0.05232,0.011737,-0.220458,-0.013636,-0.300432,-0.181879,0.013584,-0.068824,-0.274477,-0.001509,0.108782,0.124718,-0.248982,0.244917,0.139146,-0.318832,-0.229539,0.459794,-0.269268,0.17193,0.150005,0.072193,0.369242,-0.15021,0.085732,0.010731,0.281819,0.220905,-0.037733,0.162839,0.015509,0.155836,-0.031945,-0.01556,0.210002,-0.522188,0.052432,-0.035561,0.142471,0.073698,-0.02477,0.358169,0.300988,-0.020195,0.187745,-0.194924,-0.149769,-0.073084,0.083341,-0.293337,-0.088123,0.354054,0.145973,0.00519,0.193998,0.434785,-0.021006,0.272009,0.038625,-0.169062,-0.445415,0.060864,0.03194,0.190379,-0.25585,-0.474217,0.203168,-0.144968,-0.156767,0.067199,0.129604,0.262846,0.103595,-0.189978,0.225622,-0.150818,-0.098958,0.10559,0.276781,-0.334234,0.240794,0.296808,0.052881,0.085155,0.086948,0.086724,-0.185569,0.03158,0.145116,-0.004193,0.02065,-0.400604,0.331559,0.360924,-0.037517,-0.407175,0.176027,-0.40023,-0.194766,-0.285273,0.207077,-0.002013,-0.163995,0.12038,-0.135486,0.045799,0.207446,0.074576,-0.007957,0.273098,0.000659,0.051463,0.059677,0.06035,0.193354,0.159066,-0.179488,-0.156412,0.064784,0.238932,0.064289,0.407618,0.064095,0.178012,0.241156,-0.13605,-0.103866,0.351214,-0.264352,-0.08658,-0.45487,0.142664,0.187393,0.05263,-0.155292,-0.072318,0.030679,-0.176623,0.163923,-0.156442,0.155708,0.383349,-0.073785,0.398857,-0.080269,-0.072111,-0.115918,-0.160495,-0.088156,-0.119308,0.018312,-0.234326,0.051362,0.101605,0.026088,-0.238592,-0.11226,-0.251461,-0.025792,0.037141,0.068168,0.085148,0.303594,0.251996,0.28344,-0.127334,-0.042933,-0.518997,-0.426741,-0.110037,0.20439,-0.164425,0.119692,-0.082649,-0.069281,-0.036669,-0.128676,0.053282,0.21033,0.109063,0.118554,0.005215,0.236269,0.280207,-0.241141,0.094707,0.411012,0.029742,-0.08798,-0.054327,-0.079874,0.409001,-0.218995,0.387906,-0.357638,-0.054851,-0.371889,0.197668,-0.103523,-0.057713,-0.195159,0.151403,0.012458,-0.172567,0.032261,-0.181916,0.144228,0.141113,0.089318,0.093571,0.225498,-0.011289,-0.034898
theory,-0.308689,0.315855,0.037701,-0.296376,0.76131,1.40923,-0.240592,0.42624,0.238345,-0.123427,0.44705,-0.076824,0.002859,-0.313778,-0.317842,-0.135455,-0.083132,-0.699107,0.158509,0.38426,0.476248,0.027534,0.310467,-0.057545,-0.244775,-0.247733,-0.000782,0.374167,0.146163,0.270116,0.145606,-0.110294,0.295865,-0.097454,-0.139173,0.466231,0.377267,-0.794419,-0.091209,-0.034109,0.364027,-0.239935,-0.15705,0.227786,-0.052485,-0.379129,-0.118538,-0.170953,-0.223911,-0.141527,0.227411,0.273536,-0.031119,-0.028344,0.342238,-0.405652,-0.186556,-0.226428,-0.039868,0.230723,-0.158384,0.652303,-0.565845,0.046313,-0.280771,-0.193737,0.312332,0.478274,-0.151134,0.436011,-0.210281,0.077678,-0.299044,0.189564,-0.0965,0.453088,-0.062421,-0.408744,-0.112296,-0.27073,0.22186,0.157768,0.203949,-0.124999,-0.571272,-0.196165,0.268227,-0.466008,-0.197488,0.645189,-0.205326,0.321484,-0.157093,-0.159452,0.28616,-0.293063,0.285344,0.136291,-0.120684,-0.128702,-0.182018,0.262227,-0.34077,0.467508,0.345151,-0.425673,0.613889,-0.477346,0.105244,1.11421,0.522738,-0.20818,0.131798,0.103247,0.383889,0.230735,-0.062501,-0.339246,-0.100241,0.458549,0.184,0.399006,-0.490594,0.033493,-0.374482,-0.062668,-0.138382,-0.004602,-0.076754,0.117992,-0.298728,0.304852,0.238416,0.237078,-0.310471,-0.348215,-0.193393,-0.57483,-0.114471,0.040282,0.230782,-0.419099,-0.323333,-0.28857,-0.116047,0.139695,0.310783,0.217209,0.045953,-0.116097,0.438101,-0.549976,-0.104569,0.123362,0.221782,-0.409786,0.172782,-0.071726,0.088557,0.041206,-0.084987,0.00959,0.163646,-0.040112,-0.201909,-0.193487,-0.456448,-0.158613,0.184221,-0.234623,-0.19885,0.617038,-0.314327,0.046003,0.03269,-0.088831,0.439582,-0.348101,0.736946,-0.038906,-0.507194,0.063836,-0.173909,0.179658,-0.32347,-0.006764,-0.447957,-0.927339,-0.38169,-0.042196,-0.187685,-0.202863,0.0044,0.052275,0.069775,0.209642,-0.361155,0.451597,-0.190909,0.31015,0.44915,-0.307973,-0.576376,-0.092413,0.119165,-0.503395,-0.159894,-0.109983,0.247244,0.203858,-0.092598,0.579202,-0.247462,-0.111082,-0.375811,0.03529,0.311283,-0.362472,-0.266059,-0.016299,0.489985,0.028232,0.390433,0.647985,-0.083657,0.056209,-0.108986,0.470413,-0.388242,0.257099,-0.00533,0.168899,0.116579,-0.071407,0.496763,0.111925,-0.077875,-0.453259,-0.06441,-0.173163,-0.057928,-0.139272,0.214413,-0.006941,0.266099,0.153176,0.380185,0.122856,-0.248057,-0.178586,-0.568363,0.166002,-0.109345,-0.349603,0.03434,-0.077714,-0.426002,0.107151,0.417155,-0.016917,0.057906,-0.22862,0.173369,-0.368226,-0.040304,-0.718265,-0.108679,-0.171421,-0.149356,-0.135069,-0.212991,0.161568,0.105488,0.208859,-0.451879,-0.13311,-0.357244,0.036323,0.283272,-0.205739,-0.006001,0.076804,-0.103033,-0.227644,-0.034845,-0.239078,-0.075885,0.147652,-0.360324,0.090228,0.382788,-0.099538,-0.516737,0.034621,-0.568077,0.2309,-0.087984,-0.024399,0.132581,-0.180551,0.053929,-0.194067,-0.029646,-0.048879,0.137955,-0.209763,0.174487,0.043131,-0.37856,-0.535961,-0.016592,0.042835,0.675978,0.048415,0.566796,0.412775,0.253352,-0.304017,-0.147115,0.400463,0.60183,-0.120925,-0.045827,-0.097609,-0.030886,-0.25964,0.133065,-0.37097,0.052489,0.12157,-0.258198,-0.043218,0.015703,0.168822,0.308162,0.066226,-0.215639,-1.009325,-0.365149,-0.431457,0.179883,0.33969,-0.118109,0.182488,0.131225,-0.058662,-0.103386,0.10721,0.092503,0.20319,-0.093724,-0.313379,-0.087286,-0.397673,-0.082884,0.002887,0.327165,0.437236,0.382933,0.005784,-0.22752,0.334187,0.313699,-0.046678,-0.628406,0.003063,0.073935,0.356141,-0.227862,-0.186574,0.068422,-0.382535,-0.135661,0.312528,-0.690943,-0.276828,-0.137292,0.110146,0.035578,0.118273,0.170495,-0.489034,0.241651,0.210664,-0.071644,-0.093266,0.321996,0.299087,-0.579253,0.161291,0.275485,0.451072,-0.162089,-0.093171,0.387727,-0.173527,0.247018,-0.245071,0.063118,-0.063446
point,0.024112,-0.255721,-0.148365,-0.03717,0.315815,0.23304,0.28911,0.147681,0.235387,-0.043689,-0.039831,0.323082,-0.159178,-0.109979,0.038002,0.166983,0.199697,-0.412661,0.031155,0.658659,-0.130804,0.008257,0.356131,-0.451816,-0.181104,-0.376032,0.03352,0.045131,0.02212,0.313816,0.166577,-0.188446,0.204893,0.13358,-0.497742,-0.155175,-0.12981,-0.179948,0.124283,-0.580352,0.61044,0.035922,-0.582374,-0.441277,-0.619036,0.077081,0.23264,-0.071423,-0.248739,0.158588,0.37828,0.370376,0.380838,0.133843,-0.079095,-0.660651,-0.015075,-0.506919,-0.10462,0.170705,-0.111769,-0.20529,0.16089,-0.454904,-0.230682,0.064349,0.132298,-0.097951,0.384369,-0.002181,0.051599,-0.242504,-0.042606,-0.142513,0.096851,-0.237693,0.129876,-0.663167,-0.051162,0.171925,-0.387788,0.285009,-0.582025,-0.191459,0.122748,-0.160634,-0.566231,-0.173517,0.171686,0.238663,-0.302692,-0.554523,0.094104,0.004847,-0.731966,-0.126395,-0.217963,-0.109013,-0.165257,-0.251819,0.434652,0.164463,-0.156089,0.108353,-0.239072,-0.165628,0.044769,-0.04657,-0.184015,-0.42933,0.156593,-0.17931,0.366311,-0.07166,0.186596,0.222783,0.32255,-0.169818,-0.333986,-0.634617,0.144013,0.254138,-0.008642,-0.571644,-0.223501,0.134806,0.202117,0.007949,0.019871,-0.100296,-0.487406,-0.037583,-0.053434,0.036208,0.040122,-0.374662,-0.030716,0.228268,-0.058289,0.033302,-0.369814,0.364005,0.302478,-0.45195,-0.562697,0.341027,-0.22131,0.269383,0.512339,0.079146,0.514117,0.298028,0.187754,0.100075,0.421223,-0.235595,0.065242,0.071193,0.345325,-0.042271,0.229469,-0.011273,-0.259023,0.306309,-0.17462,0.243462,-0.287511,-0.13099,-0.309746,0.502384,0.256736,0.229186,-0.118536,0.165358,-0.181705,0.355935,0.550189,-0.164264,-0.243136,-0.55776,-0.369837,-0.146433,-0.017964,0.147218,-0.25345,-0.268898,0.050049,0.144547,0.053469,-0.30376,-0.008358,-0.091395,-0.136669,-0.017909,-0.085837,0.341858,0.34677,-0.354976,-0.605271,-0.241873,-0.040196,0.104751,-0.623833,0.221944,0.12382,-0.375533,0.037886,-0.118603,-0.058751,0.178444,0.008814,0.443109,0.030567,0.079034,0.132692,0.058376,0.262876,-0.108763,-0.277076,-0.044865,0.42592,-0.063575,0.144376,-0.285129,-0.020602,-0.150088,0.207834,0.225133,0.032007,0.144767,-0.119645,0.126362,0.157336,-0.017144,0.211792,0.398791,-0.049786,-0.212103,-0.062447,-0.113957,-0.430467,-0.322091,-0.103507,-0.153308,0.038208,-0.056072,-0.139824,0.050345,-0.157511,0.22127,0.047553,0.004432,-0.512486,-0.286255,0.079118,-0.190635,0.107187,0.281382,-0.301778,-0.124735,-0.283618,0.034219,0.313362,0.245493,0.199191,0.112971,-0.424944,0.241447,0.303117,0.19111,-0.146953,0.052776,-0.168687,-0.125117,0.16808,0.146271,0.033036,-0.470881,0.014632,-0.28203,0.271972,-0.245951,-0.208603,0.120977,0.017611,-0.134701,-0.31748,-0.493487,-0.251929,-0.320381,0.226387,0.108201,-9e-06,0.486119,0.133285,0.138598,-0.034918,0.184237,0.470793,0.098825,-0.252443,-0.109107,-0.222284,-0.146707,0.173272,0.265215,0.052643,0.138319,0.167795,0.189646,-0.129443,-0.603421,0.100177,-0.124771,0.362098,-0.202971,0.213772,0.079079,0.385136,0.147937,0.141525,-0.387861,-0.06267,-0.070288,0.120804,0.007194,0.120173,-0.024848,0.05422,-0.087426,0.140061,-0.115873,-0.103425,-0.099603,-0.294083,-0.412765,-0.000764,-0.288537,0.44516,0.343169,-0.140743,0.366266,-0.40795,0.112593,-0.442511,-0.0709,-0.238145,0.078075,-0.222084,0.323882,0.249562,0.079209,0.279375,-0.366436,-0.362637,-0.175682,0.007095,0.156958,0.013029,-0.271803,-0.097493,0.087636,0.005974,-0.499143,-0.004198,0.2404,-0.105973,0.199697,0.340582,-0.042347,0.075327,0.050519,-0.046566,0.550872,-0.181069,-0.219858,0.31909,0.024477,-0.068038,0.040545,0.139614,-0.020621,0.193284,-0.139117,-0.119013,0.105883,-0.307687,0.10029,0.325953,0.429615,0.199851,0.303819,-0.144117,-0.095354,0.110849,-0.001205,0.07679,-0.193084,0.070914,-0.177657
theorem,-0.278264,0.403282,-0.361267,-0.544992,-0.072584,0.734239,-0.958881,2e-06,0.342624,-0.004592,-0.057839,0.303393,0.346995,-0.286587,-0.021676,0.587807,-0.262325,-0.493511,-0.09349,-0.103734,0.285672,0.288242,0.152944,-0.076731,-0.252558,-0.485262,-0.44099,0.239015,-0.214236,0.218089,-0.102015,-0.203367,1.155892,0.746462,-0.472546,0.488932,0.523763,0.283793,0.519368,-0.131785,0.198406,-0.234804,-0.462815,0.497693,-0.473457,-0.859312,-0.038633,-0.159854,-0.200146,0.436796,-0.350983,0.320902,-0.001019,-0.687431,0.05365,-0.396724,-0.514441,0.0707,0.157107,0.256906,-0.186315,0.534308,0.143859,-0.786645,-0.665033,0.15703,0.812397,0.004748,-0.673172,0.43532,-0.350429,-0.414057,0.637165,0.404519,0.136888,-0.523297,0.417925,-0.094048,0.214051,-0.318698,0.632332,0.455409,-0.798342,-0.578585,-0.58495,0.058688,-0.006556,0.203914,0.552083,0.095485,0.247218,-0.589869,-0.072793,0.297289,0.150723,-0.994298,-0.139388,0.978514,0.153387,-0.757241,-0.189368,-0.544759,0.025711,0.485736,-0.142865,-0.106781,0.238422,-0.133753,-0.341471,2.200065,-0.089821,0.279819,0.09051,0.088981,1.095157,0.185678,0.232647,-0.105955,-0.472071,-0.492438,0.330716,-0.006109,-0.072406,0.045844,-0.134052,0.003185,-0.136948,0.125895,-0.586024,-0.029851,-0.297389,0.940151,0.280551,0.143868,-0.106851,0.138162,-0.703815,-0.58228,-0.12115,-0.163241,0.285019,-0.761392,0.253138,-0.545448,-0.071887,0.534561,-0.349284,0.11269,0.010056,0.13544,-0.121048,-0.094746,0.302559,-0.092471,0.36313,-1.011733,-0.146425,0.027664,-0.365597,0.152591,-0.134603,-0.68251,0.390518,0.008375,-0.009279,0.101801,-0.435949,0.266615,-0.107417,0.071618,-0.119009,0.471405,-0.258462,0.256065,0.461779,0.470744,0.107965,-0.013886,0.237789,-0.030416,-0.31082,-0.358653,-0.302495,-0.459445,-0.879691,-0.377985,-0.236293,-1.168134,-0.340134,-0.371807,-0.356071,-0.389854,-0.253373,0.113386,0.101274,0.33137,1.283371,0.107083,-0.743698,-0.344295,0.035473,-0.369551,-0.386097,0.495689,0.621964,-0.492325,0.108494,0.136834,0.02391,0.140955,-0.275574,0.964813,-0.485054,-0.404907,-0.484104,0.653284,0.20747,0.065601,-0.273213,-0.478944,0.538238,0.384712,0.710547,0.645173,-0.277404,0.130295,0.380074,-0.111815,-0.370305,0.529473,0.377078,-0.185461,-0.345384,-0.1538,0.311539,0.275496,0.122493,-0.400814,-0.383492,-0.800841,-0.356334,0.040969,0.543525,0.156951,0.336096,0.28034,0.179469,0.687669,0.059968,0.036568,-0.588322,0.171568,-0.177424,-0.309252,0.157457,0.148476,-0.889877,0.239681,0.12072,0.365499,-0.083757,0.312345,0.53364,-0.09445,-0.08159,-0.425168,0.107186,-0.534547,0.06345,0.008384,-0.332198,-0.499065,-0.110595,-0.330244,-0.2598,-0.337474,-0.435797,-0.005075,0.127572,0.110388,-0.124497,-0.243795,-0.225606,0.447092,-0.134757,-0.057635,-0.144376,0.452685,-0.484094,0.174845,0.514277,0.064414,0.117035,-0.08756,-0.364205,-0.217003,0.341885,0.652504,-0.076268,-0.45935,-0.962047,-0.345729,0.028647,-0.512749,0.594913,0.277457,0.329474,0.574676,-0.168461,-0.057003,0.759246,0.294991,1.1009,0.075634,0.197689,0.217421,-0.085449,0.114837,-0.374784,0.285155,0.316603,0.126452,0.04614,0.262827,-0.513873,-0.053798,-0.44025,-0.639422,-0.012824,-0.138284,0.4791,0.2888,0.918781,0.22904,-0.091432,0.172299,-0.09583,-0.824067,-1.018247,0.081713,0.356169,0.194837,0.024458,0.501637,0.191995,-0.302609,-0.644332,-0.117664,-0.368215,0.36929,-0.070631,-0.574271,0.173305,-0.785941,0.021185,-0.265499,0.074634,0.324748,0.18569,-0.085102,-0.30688,-0.247208,0.305691,0.045916,-0.453273,0.46972,-0.610845,0.138376,0.164632,0.083173,0.261524,0.043979,-0.466562,0.524825,-0.397688,-0.279372,-0.024504,-0.035699,0.514071,0.457201,0.591593,-0.142465,-0.126577,0.395062,-0.192277,-0.180063,0.279457,0.276643,-0.074694,0.362932,-0.543333,0.231548,0.565372,0.159941,0.290795,-0.992669,-0.478194,0.106378,-0.267179,-0.034431
example,-0.068009,0.321126,-0.030204,-0.055368,0.264371,1.010342,-0.062026,0.29146,0.041331,-0.403015,-0.181554,0.276134,0.00355,-0.086537,-0.098363,0.010359,0.058658,-0.126653,-0.039917,-0.037396,-0.232168,0.057777,0.180721,-0.007059,-0.076461,0.181039,-0.010888,0.31328,-0.038711,0.182679,0.027598,-0.172063,0.228532,0.118931,-0.171664,0.394098,-0.010094,-0.144514,-0.093794,-0.20922,0.278529,-0.305816,-0.10518,-0.146618,-0.34147,-0.330437,0.012031,0.182592,0.029527,-0.334266,0.112045,0.22563,0.153509,-0.036965,-0.067487,-0.344982,-0.062971,0.174782,0.236391,0.023338,-0.137836,-0.282862,-0.604177,0.034964,-0.129156,0.026923,0.477456,-0.025001,-0.17545,0.289831,-0.281188,-0.141355,0.284772,-0.119467,0.134317,-0.044171,-0.389133,-0.339252,-0.216402,0.368819,0.178734,-0.119922,0.089411,-0.184055,-0.134868,0.215516,-0.274519,-0.102716,0.223896,0.181277,-0.217185,0.166153,-0.006551,-0.128379,-0.028333,-0.184176,0.155696,0.07131,-0.172778,-0.095057,-0.211755,-0.189067,0.56385,0.060037,0.156696,-0.377892,-0.06899,-0.09508,-0.173479,0.451955,0.407283,0.05415,0.27415,-0.140905,0.310097,-0.120727,-0.212521,-0.101906,-0.380956,-0.200582,0.270301,0.097576,-0.220636,0.103381,0.197099,0.101297,0.196851,-0.054145,-0.089579,0.168694,-0.078302,0.028651,-0.043558,0.00407,-0.13942,-0.325507,-0.041306,0.220793,0.152705,-0.249699,-0.31339,0.220501,0.17606,-0.03814,-0.266328,0.079775,0.100631,-0.01105,0.01617,0.139538,-0.457795,-0.18506,-0.191561,0.186676,-0.1231,-0.181768,0.141899,0.057802,0.134589,-0.20823,-0.070568,-0.373243,-0.034101,0.077135,-0.044359,-0.364068,-0.062816,-0.189866,-0.030179,-0.166731,0.12688,0.079523,0.335196,-0.103855,0.021834,-0.18864,-0.099018,-0.226752,0.25351,0.107241,0.117617,-0.007519,0.223555,0.150125,-0.04205,-0.084656,0.025523,-0.168132,-0.124726,0.124378,-0.06704,-0.325138,-0.093646,0.071345,-0.287889,0.129589,-0.104577,-0.048866,0.114771,-0.090373,0.01299,-0.408926,-0.199868,0.216613,0.076691,-0.268305,0.402368,0.136,0.0517,-0.213927,-0.146517,0.120297,-0.088573,0.087396,-0.037224,0.35656,0.188039,-0.034915,-0.19816,-0.055629,0.266749,0.078994,0.157806,0.006178,0.289613,0.093983,0.355886,-0.08655,-0.203532,0.03027,0.081626,0.140419,0.197572,0.186658,0.001006,-0.059094,-0.072517,-0.1735,0.024415,0.041434,-0.05939,-0.095093,0.0862,0.122615,-0.010151,-0.200626,0.014176,0.193267,-0.389666,-0.053637,-0.023578,0.139215,-0.290332,0.224889,-0.283236,0.093734,-0.298248,0.048467,-0.008678,-0.000156,0.093378,-0.119729,0.260524,-0.028579,0.033446,0.154712,-0.447572,-0.224327,-0.013203,-0.111956,-0.032618,0.055516,-0.163461,-0.120613,-0.432309,0.032112,-0.047167,-0.133142,-0.128238,0.158139,0.162193,-0.241472,-0.127503,-0.059712,-0.132322,-0.067077,0.051737,0.42305,-0.217258,-0.016455,0.303386,-0.540821,-0.309703,-0.067712,-0.378995,-0.243798,0.063909,-0.21622,0.036275,-0.101375,-0.106712,0.214627,-0.03783,-0.06819,0.035985,-0.501314,-0.055974,0.067448,0.396709,-0.063246,-0.013901,0.001103,0.368539,-0.254574,0.197371,0.243497,0.217274,-0.32517,-0.55489,0.225563,-0.327663,0.262192,0.145645,-0.290122,0.060691,0.06334,-0.116368,0.193243,0.040617,-0.136418,0.255749,0.089196,0.004038,0.118503,-0.0618,0.018744,-0.00399,-0.303458,0.074194,-0.16637,0.094725,0.058797,-0.248242,0.047305,0.10564,-0.196759,-0.365582,-0.00173,-0.150835,0.20103,0.259334,0.194445,0.079501,0.232489,-0.570101,0.289492,0.147519,0.091331,0.106798,-0.158249,-0.24033,0.234622,0.032858,-0.096164,0.001434,0.270103,-0.239422,0.057038,-0.148881,-0.027838,-0.099208,0.119455,-0.235707,0.04307,0.055825,-0.213131,0.208469,-0.012827,0.025369,-0.19047,-0.072945,-0.071145,0.07172,-0.102274,0.100359,0.08994,-0.107473,0.131516,-0.212203,0.336727,-0.260932,0.104889,0.150136,0.073634,-0.00687,-0.120581,0.151971,0.193277,-0.005024,-0.101083
form,-0.341554,-0.159398,-0.236203,0.074724,0.274009,0.921486,-0.406075,-0.048677,-0.115853,0.185369,-0.1165,0.036511,0.070708,-0.061584,-0.29084,-0.452083,0.049294,0.117351,0.114293,0.29995,0.125618,0.099171,-0.24785,0.283358,-0.083697,0.392953,-0.165321,0.127906,0.084888,-0.187163,-0.00639,0.091507,0.071727,-0.288396,-0.284198,-0.151172,0.053373,-0.349935,0.1069,-0.063191,0.249021,-0.098786,-0.114248,-0.288346,-0.039983,0.281004,0.164312,0.011759,0.043833,-0.17099,-0.082971,0.11366,-0.033354,-0.392142,-0.267591,-0.407527,-0.007529,-0.055497,-0.038732,-0.2188,-0.002557,0.02742,-0.515183,-0.383631,0.367891,0.297283,0.111555,-0.112997,0.275729,-0.125173,-0.320353,0.025743,-0.122688,-0.299352,-0.105745,-0.165513,-0.117658,-0.241069,-0.206535,0.426988,0.071088,0.117622,0.280914,-0.098115,0.01263,0.132365,-0.093975,-0.014377,0.198563,0.103726,-0.071342,0.28579,0.284898,0.090072,-0.244971,0.097804,-0.049913,-0.345819,0.106617,0.068293,-0.174526,0.079217,-0.119878,0.085274,0.172471,-0.233524,-0.193637,0.170915,0.126074,-0.102387,0.066426,-0.134772,0.030631,-0.054389,0.340843,-0.145665,-0.11978,-0.008805,-0.107567,-0.079369,-0.21616,-0.091158,0.197032,-0.033487,0.561022,-0.094654,-0.1149,0.113196,-0.21731,-0.142373,-0.196782,0.186931,0.100823,0.212605,-0.41145,-0.485782,0.099912,0.001758,-0.045914,0.149065,-0.216397,0.149327,-0.019024,-0.393581,-0.404428,-0.137642,0.053286,-0.315408,-0.061057,-0.121063,-0.186981,-0.215902,0.178075,-0.1414,-0.106018,0.230851,0.03092,0.287836,-0.034849,-0.376713,-0.223819,-0.395959,-0.054639,0.254345,-0.095968,-0.020053,-0.035566,0.00269,0.154517,-0.05996,-0.126554,0.322528,0.518044,0.251945,-0.038582,-0.195794,-0.020623,-0.107097,0.280977,0.011112,-0.027666,0.121666,0.198431,0.34722,-0.177801,-0.139285,-0.189258,0.140282,0.164831,-0.086393,-0.28954,-0.108831,-0.389692,-0.086855,-0.323334,0.407741,-0.107087,0.138335,0.011317,-0.32318,0.246498,-0.051747,0.031679,0.920154,0.169234,0.009855,0.262326,0.223727,-0.148182,-0.151442,-0.133206,0.226803,0.076281,0.112011,-0.05015,0.20261,0.028363,-0.022387,0.107419,-0.0155,0.068548,0.287228,-0.208837,0.117548,-0.126627,-0.061776,-0.149812,-0.258133,0.17202,0.076141,0.002465,0.00598,-0.17638,0.022946,0.008276,0.071295,0.058159,-0.136219,0.091227,0.214122,0.259286,-0.193886,0.150917,-0.163476,0.446647,-0.052416,0.035446,0.070702,0.001841,0.04195,0.102111,0.12981,-0.119407,0.134301,-0.304585,-0.272452,-0.537389,-0.122985,-0.089962,-0.045542,0.284988,0.016035,-0.307266,-0.036909,-0.08824,0.030696,-0.196015,0.21269,0.12679,-0.007834,0.079427,-0.200731,-0.26196,-0.217602,-0.064707,-0.016039,-0.098576,-0.120347,0.112532,0.398877,0.333324,-0.029375,-0.414039,0.290123,-0.292173,-0.351914,-0.012576,0.256959,-0.148911,-0.033851,0.188994,-0.703,-0.192136,0.070336,-0.217177,0.082469,0.044856,0.1351,0.168207,-0.277928,-0.171262,-0.148797,-0.0912,-0.122461,-0.336323,0.316063,-0.081561,0.406754,0.320142,0.01658,0.319756,0.253553,-0.020843,-0.10014,0.20406,-0.082447,0.065436,-0.4375,-0.707368,0.332121,-0.09098,0.052431,0.348004,-0.101179,-0.072242,0.160731,0.161032,0.404735,0.499174,-0.143218,0.234836,-0.144234,0.028504,0.219849,-0.08108,0.052977,0.24804,-0.591184,0.164961,-0.069668,-0.08435,0.125122,0.011636,0.240538,-0.157932,0.007618,0.257798,-0.138552,-0.037403,0.195743,-0.001798,0.076622,-0.007116,-0.121548,-0.304326,-0.21785,0.202208,0.177192,0.14557,-0.186739,-0.40283,0.155274,-0.408898,0.057463,-0.077278,0.259836,0.076035,0.071844,-0.131783,0.332879,-0.138437,0.024054,-0.056187,0.367488,-0.080796,0.277312,0.095947,0.018835,0.191566,-0.269207,0.012668,-0.290969,0.246921,-0.004163,0.329358,0.167407,-0.442993,-0.119809,-0.607451,-0.010442,-0.214901,-0.01798,-0.021105,0.078253,0.15507,0.016411,0.238055,0.068337,0.015196,-0.154047
define,0.007476,0.021201,0.324071,-0.046293,0.199011,1.30463,0.110985,0.160128,-0.214178,-0.074472,-0.059984,0.651104,-0.100764,-0.447545,0.118422,0.143346,0.036809,0.064989,0.22919,0.287142,0.164027,-0.101238,0.13038,-0.147789,-0.413634,0.286126,-0.196327,0.520301,0.093164,0.556266,-0.162417,-0.086466,0.385323,0.03452,0.076677,0.601115,0.244463,-0.177357,0.052128,-0.275726,-0.163259,-0.302241,0.095189,0.174317,-0.278782,0.19646,0.069315,0.347617,-0.359428,-0.180458,0.186502,0.541484,-0.011529,0.130123,-0.017002,-1.020385,0.040244,0.05345,-0.254999,0.020309,0.171789,-0.308927,-0.472201,-0.089257,0.177126,-0.22161,0.368465,-0.095155,0.129136,-0.090894,-0.290438,0.324878,0.260457,0.471856,-0.284682,0.07642,-0.172165,-0.574179,-0.153416,0.590743,-0.064235,-0.143473,-0.063419,0.210432,-0.080263,0.167974,0.157797,0.014322,0.159574,0.410531,0.248795,-0.07117,-0.13962,-0.055124,-0.47692,-0.307923,0.189191,0.006407,0.146271,-0.205367,0.147533,-0.073063,0.311884,0.37375,-0.097269,-0.239113,-0.095309,-0.168156,0.030927,0.781134,0.397934,-0.168577,0.062231,0.084714,0.464307,0.039595,-0.027027,-0.151459,-0.822328,-0.14422,0.138692,0.101947,0.010753,0.14347,0.361072,0.138068,-0.29995,-0.20031,-0.01404,0.264937,-0.11804,-0.00576,0.296066,0.161815,-0.082422,-0.167039,-0.180787,0.06719,-0.120909,-0.285434,-0.239537,0.01995,0.17937,-0.676043,-0.542018,0.070797,-0.047684,0.125363,0.276109,0.112035,0.352478,0.144733,-0.061855,0.345052,-0.027865,-0.128745,0.457679,-0.087853,0.162565,-0.705349,-0.125004,-0.67112,0.057438,0.102054,-0.424208,-0.166504,0.075671,0.043125,-0.309316,0.087222,-0.171467,0.155402,-0.208138,0.17335,0.373407,-0.081386,0.060047,-0.526915,0.352747,0.021678,-0.063915,-0.445711,0.329798,0.094399,-0.245055,0.133159,-0.006331,-0.271636,-0.196564,0.126455,-0.290006,-0.506795,-0.221396,0.001881,-0.313117,0.42633,-0.238861,0.024153,-0.006245,-0.466456,-0.013731,-0.076836,0.088786,0.605626,0.06043,-0.068913,0.614552,0.004541,0.072762,-0.451279,-0.108741,0.668059,0.278615,-0.290104,-0.063582,0.123832,0.048634,-0.04695,-0.306389,-0.033187,0.220306,0.528097,0.101538,0.09482,0.119058,0.091259,0.133757,-0.071071,-0.177598,0.325555,0.123317,-0.074915,-0.081489,0.242051,0.19804,-0.089165,0.137515,-0.390391,-0.003122,-0.15566,0.202086,-0.214799,-0.224566,0.233384,-0.388583,0.0056,0.156355,0.201599,0.13182,0.078924,-0.197018,0.262122,-0.30868,0.469799,-0.519994,0.075494,-0.277931,0.099762,0.123132,0.248606,0.447246,-0.129989,0.321393,-0.217553,-0.2078,0.106221,0.165311,0.048102,-0.059735,-0.254504,-0.33882,-0.300443,-0.037389,0.200658,-0.399016,-0.247212,0.017009,-0.048989,-0.032228,-0.381378,0.744824,-0.319838,0.325837,0.033539,-0.021703,-0.078327,-0.190493,0.315881,-0.18773,0.26675,0.050509,-0.105591,-0.019328,-0.002276,0.278533,-0.092143,0.063544,0.2504,0.066852,0.042893,-0.00724,-0.534728,0.117225,-0.153307,-0.003187,-0.206891,0.080485,0.363831,-0.141082,-0.06524,-0.08228,0.054729,0.741647,-0.075231,0.15777,-0.349425,0.549719,-0.493075,-0.365022,0.162332,0.344597,-0.164673,0.640391,-0.029079,-0.289164,-0.087524,-0.117608,0.230757,0.549068,0.055599,-0.367069,0.134743,0.341342,0.050021,0.052168,0.137258,0.284831,-0.983204,0.036222,-0.370407,-0.220423,0.005133,-0.293177,0.340431,0.25645,0.190522,0.108681,-0.05211,-0.135204,0.294938,0.19388,-0.016445,-0.047683,-0.111851,-0.606395,-0.240177,0.271422,0.164996,-0.200156,-0.328864,-0.160429,0.081072,0.213382,-0.037757,0.076549,0.408206,-0.324155,0.083037,-0.145703,0.308652,0.386298,0.000468,-0.027989,0.605617,-0.228192,-0.09071,0.521161,0.183031,-0.083363,-0.033248,-0.079924,0.328995,0.160462,0.415381,0.126731,-0.05679,-0.361695,0.383277,-0.115887,0.168783,0.035842,0.049983,-0.099384,-0.031801,0.116051,0.314758,0.039857,-0.11793,-0.349833,-0.159244
graph,0.336848,-0.252393,-0.468796,-0.234812,0.034207,0.933564,-0.48123,0.078023,-1.092249,0.749212,-0.481365,0.564448,-0.061129,-0.143751,0.020874,-0.200239,-0.289336,-0.187842,0.412439,-0.056007,-0.233999,0.605382,1.382415,0.048073,-0.709025,0.153763,0.405401,0.224035,-0.194472,-0.25575,0.392221,-0.440239,0.139801,0.272093,0.204713,0.391134,0.198539,-0.098548,0.032217,-0.777722,-0.263353,-0.101934,-0.004856,-0.248605,-0.985923,-0.33831,-0.228974,-0.076146,-0.834276,0.020204,-0.43108,0.515333,0.209602,0.487199,-0.055489,-0.525312,-1.231179,0.336041,0.369593,0.314964,-0.850358,0.10328,0.045573,0.340146,-0.319546,0.084533,0.20903,-0.265433,-0.1832,0.463852,-0.446613,0.038859,-0.462233,0.234516,0.043348,-0.537235,-0.00985,-0.410877,0.217266,0.452617,0.543107,0.149794,-0.016744,-0.989628,-1.141186,0.163158,0.459567,0.544811,-0.171912,0.34953,-0.10328,0.063068,-0.203298,1.247602,0.703638,-0.92065,-0.397623,-0.126322,-0.116582,-0.548546,0.290063,0.262393,0.198469,0.200635,0.088723,0.304453,0.610694,0.153088,0.061674,1.510925,0.330126,-0.197637,-0.12351,-0.31969,0.166985,0.273389,0.068357,0.071825,-0.739191,-0.92964,-0.432215,0.014117,-0.286174,0.117976,-0.094003,0.056604,-0.498824,0.3054,-0.27411,0.31217,-0.300295,0.665579,0.708958,0.123171,0.09828,-0.398705,0.271298,0.180119,-0.182223,-0.402121,-0.172589,0.069539,-0.336551,-0.207318,-0.527117,-0.047768,-0.2059,0.166643,0.057989,0.566236,0.258057,0.267494,-0.127233,0.392089,0.006427,-0.894254,0.273962,-0.50969,-0.461287,-0.41255,-0.462443,-0.17175,-0.356067,-0.086898,0.544166,-0.041091,-0.031136,-0.051473,-0.283331,0.717489,0.224629,0.538887,0.177424,0.411163,0.742686,0.587715,-0.085887,0.076786,0.119434,-0.426173,-0.527386,0.07931,0.105834,0.02904,-0.465647,-0.032981,-0.102233,-0.322148,-0.857716,-0.038801,-0.323978,0.155311,-0.264517,0.416721,-0.200159,-0.043798,0.874817,0.667484,-0.358522,0.21568,0.293235,-0.362334,-0.681525,-0.072277,0.559107,-0.736223,0.632504,-0.088983,-0.439509,-0.081614,-0.34626,0.551389,-0.299965,0.093306,-0.140199,0.224565,-0.324469,-0.092393,-0.282455,-0.180646,-0.183736,0.688818,0.503165,0.155528,0.403429,0.25616,0.75951,-0.319301,-0.024606,-0.149838,0.408263,-0.256094,-0.625975,-0.065109,0.541403,0.676691,-0.497564,-0.443587,-0.222505,-0.635777,-0.120113,-0.46667,0.114679,0.457783,0.044951,-0.167643,-0.457439,0.766308,0.018949,0.124318,-0.187597,0.586977,-0.462324,-0.135847,0.785581,-0.458456,-1.068711,-0.465915,-0.044874,-0.164158,-0.733134,-0.432311,0.867538,-0.48637,-0.180608,-0.06028,-0.147788,0.220528,-0.266957,-0.034662,-0.428119,0.103213,-0.309964,0.413592,-0.191746,0.275547,0.195247,0.041797,0.40377,0.18875,0.133503,-0.250076,-0.387659,-0.184531,0.174724,0.122908,0.166524,0.243684,-0.792619,-0.588087,0.312894,-0.196484,-0.489536,-0.449963,-0.031838,-0.403303,0.431868,0.03481,-0.155379,-0.570236,-0.025309,0.113269,0.396963,-0.688563,0.018167,-0.110065,1.375966,0.212955,-0.205086,-0.272259,0.590824,0.095853,1.305983,0.367697,-0.255514,0.153073,0.001212,-0.139792,-0.403401,0.317032,0.09381,-0.147404,-0.564796,0.69018,-0.359231,0.633139,0.035593,-0.559606,0.269557,-0.295925,-0.193115,-0.371752,-0.366085,-0.158625,0.263334,-0.064119,0.109117,-0.49181,-0.006828,-0.017405,0.246629,0.455359,0.138065,0.384439,-0.317209,-0.462445,-0.404931,-0.18847,-0.164545,0.849212,0.180423,-0.295272,-0.653851,-0.794433,-0.081027,0.212226,0.532954,0.146701,-0.107615,-0.449771,0.393401,-0.02494,0.024483,-0.640815,-0.866196,0.46387,-0.295692,0.338586,0.147931,0.168704,0.16638,0.166024,-0.866183,-0.28775,-0.248457,0.208142,0.439423,0.952047,0.51765,0.058755,0.35408,0.372233,-0.178916,0.052817,-0.023548,0.318245,-0.185971,0.384162,0.002279,0.201025,-0.50074,1.091312,-0.273296,0.093723,0.449199,-0.300382,-0.301887,0.082069,0.277895,0.52128
value,-0.013087,-0.046849,0.262218,-0.131479,-0.250261,1.528866,-0.038633,0.125919,-0.124234,-0.24965,-0.084508,0.309698,-0.162446,0.120129,-0.202378,0.240057,-0.103354,-0.417231,-0.047055,0.581605,0.155933,-0.114469,0.668109,-0.437127,0.001779,-0.201917,0.036453,0.295441,0.41127,-0.071633,0.176317,-0.349105,0.470596,-0.107736,-0.078746,0.814203,-0.013747,-0.086103,0.072316,-0.019319,0.090823,-0.03931,-0.096343,-0.143578,-0.587509,0.100356,0.32877,0.013828,0.28803,-0.156558,-0.250188,0.267034,0.454023,0.361192,-0.197858,-0.18854,0.031689,-0.261295,0.346393,0.363769,0.082164,-0.107482,-0.069489,-0.336918,0.504475,0.047038,0.441808,-0.582423,-0.21827,0.3004,0.15205,0.10401,0.350036,0.043564,-0.223164,0.199945,-0.538206,-0.630381,0.251867,0.094594,-0.126403,-0.010338,0.045994,0.115338,0.263679,0.354363,-0.355066,-0.259153,0.146975,0.575171,-0.081415,-0.159363,-0.395763,0.051411,0.157921,-0.046423,-0.033538,0.136382,-0.364858,-0.152745,-0.037299,-0.132223,0.137942,0.30843,0.315833,0.013446,-0.118927,-0.136051,-0.203888,0.929558,0.065406,0.407524,0.057469,-0.267909,0.174802,0.296978,0.194761,-0.277871,-0.129354,-0.023891,0.264044,0.361922,0.045513,-0.367545,-0.297483,-0.142461,-0.032715,-0.19458,0.180557,0.452111,-0.763258,-0.333918,-0.344604,0.228845,0.106773,-0.02482,0.252745,0.061641,0.044136,-0.258373,-0.24289,0.056368,0.334864,-0.467121,-0.481601,0.478222,-0.332423,0.105596,-0.1411,0.300492,0.043536,-0.30288,-0.492347,0.517867,0.149789,-0.364854,0.789758,0.007359,0.116855,-0.423947,0.422209,0.063609,-0.486329,0.056018,-0.027204,0.00667,-0.2313,0.260209,-0.264897,0.064446,0.439441,0.268236,0.301035,-0.281119,0.326605,-0.312489,-0.1495,0.032802,0.04812,0.192055,0.473656,-0.091048,0.255507,0.312534,-0.479271,0.04244,-0.043101,-0.339748,-0.080409,-0.091914,0.25615,-0.356909,-0.220555,0.3018,-0.105418,-0.155385,-0.411227,0.13196,-0.087827,-0.235727,0.517771,-0.329951,-0.302154,0.595542,-0.328779,0.100058,0.436788,0.060236,0.485676,-0.092944,-0.097035,0.153693,-0.117309,-0.25123,0.072089,0.070974,-0.049247,-0.133006,-0.694975,-0.470266,0.160427,-0.101509,0.240999,-0.347885,0.563517,-0.089741,0.36783,0.341059,-0.366997,0.198089,0.298847,-0.384875,0.068482,-0.227295,0.125223,-0.157767,0.129182,-0.392189,0.049419,-0.156551,0.223729,-0.079378,-0.308234,-0.092645,0.0539,0.068951,-0.196987,0.412699,0.092914,0.260605,-0.064836,0.235853,-0.224154,0.185788,-0.645366,-0.182991,-0.080424,-0.101359,-0.211788,0.217556,0.125294,-0.283179,0.603982,-0.067799,-0.281052,-0.144455,-0.187539,-0.625669,0.200864,0.228629,0.097184,-0.118565,0.075359,-0.482534,-0.498072,-0.377696,0.220489,-0.593315,0.228377,-0.312245,0.760955,-0.320157,-0.055158,-0.241346,0.046082,-0.431384,0.083098,0.470115,-0.140869,-0.089162,0.274795,-0.769253,-0.200099,0.18092,0.269384,0.049207,-0.021554,-0.110279,-0.079798,0.176195,-0.119604,-0.168801,0.328327,0.017313,0.115377,-0.832426,-0.044093,-0.017361,0.189165,-0.294306,-0.272866,0.082753,1.035478,0.448741,-0.12306,-0.058972,0.099807,-0.244018,0.056352,0.199545,-0.048455,-0.030825,-0.138153,-0.125409,-0.228099,-0.326831,0.021039,0.140817,0.205825,-0.162006,-0.260951,0.184077,0.075087,-0.198908,0.28473,-0.377179,0.143715,-0.746481,-0.031909,0.068161,-0.005639,0.248105,-0.16451,0.492528,0.06266,0.007916,-0.381722,0.275639,-0.077253,-0.084652,0.362916,0.201075,-0.182798,0.024506,-0.335012,-0.155636,0.278791,0.538081,0.406756,-0.196204,-0.155079,-0.13379,-0.383865,-0.33109,0.209265,0.4837,0.115694,-0.109142,-0.225126,0.013246,0.315043,0.203616,0.034305,0.534577,0.493735,-0.126259,0.255052,-0.17299,-0.363182,-0.092968,-0.166522,0.018928,0.449071,-0.467547,-0.058276,-0.032219,-0.139351,0.314627,-0.147867,0.22283,0.334112,0.290247,0.332152,-0.090302,0.204813,-0.208465,0.145855,0.050562,-0.39072,-0.118302
problem,0.388788,-0.262489,-0.224861,-0.069845,0.52261,0.727175,-0.368568,0.010052,0.266576,-0.462407,-0.209168,0.184389,-0.24201,-0.431677,0.29007,0.258131,-0.56073,-0.086071,0.105846,0.11866,-0.064424,-0.18592,0.624092,-0.062444,0.249995,0.056775,0.108944,-0.061921,-0.02666,0.554147,-0.000685,0.017706,0.419657,0.162169,0.118486,0.556967,0.142718,-0.156082,0.369859,-0.22078,-0.016568,0.367883,0.057179,-0.115671,-0.129367,-0.281157,-0.407402,-0.055844,-0.061398,-0.306356,0.117335,0.670502,0.329787,0.420191,0.068333,-0.940886,0.036089,-0.410102,-0.271052,0.139547,0.048671,0.351208,-0.107252,0.123456,0.197072,0.30467,0.06153,-0.11605,0.116673,-0.052867,0.101039,0.111958,-0.109925,-0.019305,-0.087872,-0.065402,-0.10848,-0.148063,-0.061264,0.144928,0.109832,0.130831,-0.576407,-0.13065,-0.05006,0.011513,-0.229664,0.313037,-0.156822,-0.299403,-0.141006,0.026235,0.28832,0.292011,0.171206,-0.113214,-0.219342,0.040025,0.325572,0.233884,-0.195848,-0.065982,0.154461,-0.037851,-0.116613,0.072555,0.313349,-0.464895,-0.010973,0.443888,0.408261,0.172251,-0.386902,-0.142123,0.417971,0.424428,0.350758,-0.016926,0.133569,-0.463254,0.424912,0.340684,-0.331386,0.179649,-0.226849,0.209654,-0.063377,-0.134077,-0.187412,-0.144353,-0.255365,-0.034247,0.091741,-0.055536,0.098674,-0.09411,0.051476,0.012371,-0.245932,0.052473,-0.359645,0.193041,0.04856,0.049316,0.377138,-0.295001,-0.172625,0.243433,-0.361079,0.244188,0.277228,0.161006,0.022276,0.055981,0.265651,-0.279651,0.298252,0.155042,0.220872,-0.547919,-0.166361,0.024752,0.320379,-0.135531,0.094399,0.052179,-0.162893,0.198349,0.212285,-0.056051,-0.166144,0.209846,-0.223069,0.078962,0.085985,-0.439722,-0.015582,-0.155885,0.414241,0.016481,-0.41071,0.320292,0.342191,0.294282,-0.493316,-0.075236,-0.230614,-0.542813,-0.17653,0.386451,-0.012975,-0.135203,0.215854,0.008414,0.046782,0.004018,-0.578758,0.118116,-0.404424,0.202796,0.295521,-0.007179,-0.49935,-0.067633,-0.0433,-0.19155,-0.284301,-0.328876,-0.129191,0.380045,-0.185907,0.055624,-0.07578,-0.269269,0.1198,-0.111099,0.097086,0.276738,-0.113132,-0.284781,0.084518,0.016365,0.383395,-0.018974,0.017052,0.200644,0.149858,-0.052656,0.038352,-0.011739,0.117256,0.51503,-0.130759,-0.361064,0.215341,0.017738,-0.089505,-0.057498,0.216644,0.280774,0.073264,-0.337998,0.291856,0.309419,-0.004162,-0.239094,0.153343,0.079899,0.285408,0.208627,-0.28147,0.514031,-0.062699,0.234244,0.01475,0.24444,-0.266271,0.219611,0.07173,0.142681,0.101125,-0.113023,-0.033629,-0.397911,-0.304886,-0.263842,-0.175489,-0.113318,0.103602,-0.141725,0.061002,-0.186807,-0.177471,-0.205637,-0.128339,-0.088152,-0.330855,0.294691,-0.254125,0.434768,-0.53517,-0.469588,-0.267222,0.164063,-0.286971,0.003894,-0.297016,0.243325,-0.231102,-0.065019,1.055853,-0.225654,-0.524355,-0.393237,-0.273025,-0.382406,-0.070437,-0.361162,-0.228377,-0.675492,0.135015,0.041915,-0.070844,-0.153169,0.140886,-0.56977,0.375681,0.076741,0.029899,-0.184647,-0.091437,-0.387449,0.352152,0.103258,0.241456,0.237793,0.054531,-0.305481,0.025833,0.671287,0.690868,-0.130764,-0.447045,-0.094274,-0.202244,0.26882,0.187449,-0.223859,-0.334879,0.117853,0.153587,-0.216953,0.161364,-0.094742,0.084987,0.227376,0.012496,-0.500523,0.214142,-0.036414,0.361105,0.099572,-0.077657,0.12649,0.395389,-0.17574,0.005244,0.324531,0.015149,0.31163,-0.337729,-0.050462,-0.125256,-0.288357,-0.017551,0.129103,0.348452,-0.339705,0.588909,-0.380497,-0.516942,0.360713,0.199109,-0.5609,-0.175883,0.59931,0.002471,0.095781,0.166561,-0.045799,-0.251586,-0.442812,-0.23568,0.597853,-0.401062,-0.270094,0.043326,-0.03209,-0.206339,-0.154109,-0.119994,-0.076897,0.166038,0.358469,-0.182983,-0.150391,0.098783,0.043909,-0.603948,0.18062,-0.336952,0.15172,-0.280182,-0.557359,0.206378,-0.731716,-0.360804,0.115682,-0.303495,-0.261082
mathematic,-0.254011,0.297649,-0.394238,-0.161356,0.37548,1.472896,-1.159524,-0.210177,-0.008931,-0.202624,-0.339268,-0.211718,-0.186239,-0.192687,-0.152572,-0.02916,0.115021,-0.173242,0.278051,-0.282612,0.611731,-0.129072,0.311867,0.025944,0.458052,-0.0135,0.246372,0.176731,-0.541973,-0.018205,0.130359,0.098548,0.398023,0.351704,-0.001066,-0.244578,0.522256,-0.264193,-0.373618,0.162482,0.051569,-0.34707,0.201793,0.5403,-0.228498,-0.163698,0.072883,-0.287047,-0.257128,0.25963,-0.149571,0.103232,-0.052338,0.403062,0.251101,-0.679841,-0.18022,0.071296,0.154166,0.015265,0.085824,0.747357,0.094674,0.318514,-0.288617,-0.101544,0.009673,0.262959,-0.243121,0.598087,-0.142293,-0.294711,-0.404085,-0.37042,0.105299,0.200232,-0.099611,-0.047613,-0.771192,-0.027631,0.642709,0.117823,-0.378627,0.063825,-0.874999,-0.084666,-0.774822,0.060867,0.175424,0.771291,0.239317,0.120337,-0.266717,-0.066226,0.564077,-0.140284,-0.407583,0.054798,-0.071166,-0.098942,-0.175858,-0.071243,-0.500128,-0.13435,0.391485,0.561911,0.393579,-0.579971,0.203551,0.360866,-0.075175,0.424722,0.845349,0.413774,0.817897,0.635629,0.168394,-0.222246,-0.438154,0.37401,-0.173093,0.020364,-0.590948,-0.177643,-0.604507,0.13125,-0.220082,0.026099,-0.329097,-0.094713,-0.242848,0.342501,0.367155,0.434598,0.126771,-0.470666,-0.45177,-0.600172,-0.079746,0.483736,0.413034,-0.185033,-0.693278,0.163896,0.211613,0.32756,-0.269394,0.036297,0.055072,0.307881,0.574089,0.11038,0.22331,-0.224361,-0.228786,-0.377239,-0.006649,0.173632,-0.186884,-0.228624,-0.101774,0.119538,0.048146,-0.52694,0.112996,0.065249,-0.527056,-0.304095,0.133056,0.586528,0.188115,-0.053622,-0.389849,0.130511,0.37803,-0.022909,0.080129,-0.066994,0.090361,0.024811,-0.823469,-0.38631,0.24561,0.097297,-0.373193,0.045535,-0.115311,-0.688936,-0.489823,-0.580354,-0.468544,-0.370286,0.145846,0.746382,0.27284,0.625786,0.252446,0.307732,-0.2587,0.402638,-0.003629,0.450447,-0.483882,0.397347,0.209262,-0.05178,0.187511,-0.555318,0.552415,-0.090384,-0.27857,0.160128,-0.071513,-0.159445,0.110449,0.332093,0.284698,-0.034439,0.366214,-0.009535,0.578013,0.348678,0.22609,0.583363,0.367258,0.341508,-0.064054,0.990636,0.150601,0.040051,0.392375,0.297507,0.090998,-0.341111,-0.054938,0.218294,-0.11799,-0.17453,-0.249873,-0.18459,0.043478,-0.067733,0.408185,0.179168,-0.497478,0.314866,0.439853,0.825042,0.120125,0.026663,-0.628832,0.542786,-0.341245,-0.299493,-0.303692,0.166927,-0.248555,0.191198,-0.002865,0.106062,-0.055971,-0.291944,0.451206,-0.011702,-0.057145,-0.37285,0.177159,-0.523872,0.070484,-0.497975,-0.208936,0.305599,0.421803,-0.273171,-0.422897,-0.856035,-0.313197,-0.452705,0.663329,0.283792,0.409303,-0.27129,0.364581,0.384176,-0.368178,0.115551,0.116397,0.161463,-0.488504,0.587823,0.299061,-0.294806,-0.503979,0.37307,-0.15634,-0.162568,0.163919,0.231907,-0.356485,-0.38333,0.124454,-0.117727,0.201177,-0.558303,0.450918,-0.220548,-0.04247,0.048844,-0.232698,-0.233124,0.101021,0.025682,0.668111,0.247615,-0.480102,0.071141,-0.537889,-0.234194,0.073743,0.3295,0.461555,0.082017,-0.400554,-0.399767,0.05408,-0.137482,0.31714,-0.567509,0.138255,-0.022079,0.08163,0.230955,-0.078318,0.114686,0.32165,0.269976,0.076415,-0.417475,-0.226214,0.13624,0.058446,0.254677,-0.130856,-0.621828,-0.14795,0.733199,-0.365589,0.055988,-0.025408,0.319704,-0.351049,-0.09338,0.110162,-0.326557,-0.193083,-0.295401,0.048635,-0.083201,0.185161,-0.642537,-0.27375,0.013085,-0.034769,0.317532,-0.41591,-0.101355,-0.612696,0.425679,0.045823,0.055276,0.048817,-0.376575,-0.422721,0.104008,-0.245237,-0.026144,-0.327625,-0.108313,0.224108,0.192522,0.720333,-0.127639,0.01252,0.480389,0.047981,0.194787,0.53167,0.398555,-0.375087,0.412676,-0.351986,0.606523,-0.065049,0.081816,-0.064038,-0.080824,0.022463,-0.191599,-0.273212,-0.060612
order,0.04408,0.073734,-0.232126,-0.117828,0.085194,0.481881,-0.015381,-0.139742,-0.413088,-0.005858,0.015214,-0.067484,-0.398365,0.106621,0.10096,-0.113603,-0.057529,0.014378,-0.082981,0.167354,0.224299,-0.261202,0.269514,0.342512,0.057992,-0.063052,0.210443,-0.03444,-0.390917,-0.49374,-0.295083,-0.152033,-0.036725,-0.152326,-0.200019,0.278759,-0.328505,-0.122567,-0.016529,-0.037717,0.163241,-0.235334,-0.110897,0.274546,0.093111,-0.236535,-0.038912,-0.072628,-0.08819,-0.197804,-0.308615,0.291418,0.119283,0.131271,-0.101512,-0.838303,0.209515,0.242548,0.180839,0.108812,-0.048705,-0.175114,-0.012474,-0.352678,0.377454,0.153803,-0.025753,-0.643066,-0.007908,0.766916,-0.004911,0.187709,0.231769,0.078843,0.176144,0.096283,-0.02627,-0.01309,0.089386,0.592513,-0.131885,-0.206719,0.168287,-0.010551,0.332425,0.324766,0.471448,-0.015468,0.219691,-0.087471,-0.257811,-0.117718,-0.249427,0.232039,0.179405,-0.243157,-0.124612,0.0052,-0.075703,0.022794,0.393812,-0.26368,0.150473,0.148382,-0.300402,-0.118887,-0.116917,-0.183925,-0.383339,0.071029,0.862132,0.145079,-0.009707,0.351028,0.347018,-0.085135,-0.238317,0.088733,-0.459851,-0.159714,-0.170229,0.527253,0.340293,-0.063266,0.032961,-0.106406,0.000767,-0.196468,0.285385,0.175582,-0.192762,-0.252924,-0.152167,0.215814,-0.131861,-0.074161,-0.184339,0.041975,-0.016612,0.33532,0.151826,-0.007239,0.516272,-0.234258,-0.255421,-0.003782,0.457979,-0.282559,0.061721,-0.089944,-0.169573,-0.217961,-0.347201,-0.143289,0.160641,0.250444,-0.316503,0.055356,-0.276061,-0.590376,-0.277911,0.239429,-0.328636,-0.183654,0.150335,0.179764,0.207985,-0.409814,-0.177558,0.014799,-0.255612,-0.024766,0.163923,-0.079541,0.173146,0.150462,0.222124,-0.124544,0.133609,-0.079147,-0.040471,-0.642201,0.486171,-0.061995,0.29064,0.1169,0.069093,-0.557815,-0.01973,0.31547,0.249576,0.149711,-0.034695,0.290259,-0.555938,-0.317162,-0.194702,0.107234,-0.181166,0.128599,0.358984,-0.39878,-0.141208,0.108442,0.110591,0.006559,-0.33113,0.037444,0.211311,0.066772,0.236213,-0.13965,0.447372,-0.117762,0.022837,-0.343509,0.060128,0.067808,0.57387,-0.007007,-0.043114,0.117236,0.321516,0.190038,-0.182509,-0.379407,0.105027,-0.486978,-0.359528,0.414244,-0.121027,-0.156432,0.223346,-0.110577,0.042082,0.517521,-0.001544,-0.313464,-0.054717,-0.203756,-0.190268,0.52286,-0.110615,-0.103681,0.108344,-0.483835,0.022141,-0.214896,-0.227244,0.368765,0.104933,-0.223602,-0.389922,0.386309,0.180205,-0.047044,0.383712,0.261901,0.006749,-0.034607,0.192037,-0.095834,-0.114456,0.021647,-0.216035,-0.041057,-0.216861,0.036421,-0.006961,-0.216027,-0.10667,0.071773,0.03978,-0.264305,0.092431,0.326817,-0.261903,-0.251029,-0.541282,0.20287,-0.310581,-0.242633,-0.053621,-0.027277,-0.51958,-0.262618,-0.240294,-0.312837,-0.319147,-0.25588,0.056588,-0.570885,0.101481,-0.406963,0.002453,-0.102257,0.187826,-0.113989,0.314507,-0.255658,-0.675252,-0.000313,0.336297,-0.119221,-0.34641,0.066574,-0.361748,-0.276402,0.062137,0.20012,-0.00805,0.354964,-0.633975,0.091508,-0.129806,0.322189,-0.298226,-0.548595,0.187514,0.370062,0.096711,0.542433,0.238932,0.299476,-0.107044,-0.262996,0.152912,0.108028,-0.189188,-0.102146,-0.207444,-0.129957,-0.048238,-0.138176,0.035971,-0.087366,0.061401,-0.068563,-0.084525,0.074102,0.260465,0.038018,-0.729268,0.24316,0.263425,0.074464,-0.106057,-0.028969,0.159777,-0.020115,0.283666,0.32569,-0.125685,-0.616142,-0.842602,0.215022,-0.080922,0.076569,0.139612,0.029579,-0.109207,-0.051967,-0.191739,-0.036566,-0.071548,0.244908,-0.240185,0.521855,-0.210163,-0.065899,0.095183,-0.183442,-0.12044,-0.120059,0.130602,-0.046308,-0.09849,0.224111,-0.228448,-0.01471,0.195994,-0.020015,0.135084,-0.186741,-0.682845,0.01988,-0.064308,0.464135,-0.095256,-0.038802,0.27056,0.414083,-0.167528,0.248289,0.047423,-0.757024,-0.272253,-0.155545,-0.094289,0.065915
equation,-0.168165,0.094217,0.097142,-0.557907,0.432896,1.422818,-0.615257,0.084724,0.247196,0.087033,-0.072719,0.461569,-0.654026,-0.430552,0.404783,0.765086,0.107326,0.039783,-0.349353,0.156566,0.759836,0.359503,0.196202,0.4064,-0.134949,-0.268568,0.101402,0.633189,0.170444,0.765121,-0.056744,0.183487,0.268651,0.88184,-0.431835,0.258498,-0.229642,0.157032,-0.006667,0.404594,0.601167,-0.045461,0.1492,-0.092374,0.15011,0.149395,-0.34625,-0.964126,0.076471,-0.08313,0.212277,0.372413,0.860657,-0.338497,-0.050453,-0.191442,0.471162,-0.158976,0.625399,0.324092,0.004032,0.1736,-3.4e-05,-0.037193,0.138237,-0.051144,-0.140035,-0.520116,0.249814,0.005358,-0.313388,-0.143806,-0.413632,0.35925,-0.088746,0.059305,-0.019845,-0.967984,0.189217,-0.24509,0.217494,-0.004305,-0.588109,0.380716,-0.17843,0.622248,-0.383327,-0.079528,0.667856,0.38785,-0.310814,0.049214,-0.143519,-0.12301,-0.080384,-0.529112,-0.484266,-0.217299,-0.339027,-0.343343,-0.302917,0.59518,0.100671,0.135605,0.273802,0.248772,0.121189,-0.487845,-0.231899,2.272049,0.301255,0.15595,0.176003,-0.704972,0.89708,-0.061995,0.347388,-0.175174,0.331801,-0.363728,0.448958,0.475944,-0.193559,-0.205153,-0.121498,-0.277553,0.062493,0.400321,-0.481511,0.78726,-0.202321,0.410962,0.289185,-0.188605,-0.037432,-0.570801,-0.022628,-0.652819,-0.441347,0.75659,0.359082,-0.313579,0.004693,-0.033415,0.024673,0.52804,-0.133537,-0.89651,0.359901,0.17579,0.395089,-0.570102,-0.163753,-0.132661,0.166392,-0.684112,-0.09463,-0.261703,-1.052565,-0.140208,-0.370866,-0.353433,-0.277218,-0.285906,-0.207822,0.001685,-0.802849,-0.964047,-0.160917,-0.334026,-0.128264,0.730483,0.12757,-0.360944,0.176799,0.1096,0.044597,-0.165234,-0.241156,-0.001257,-0.485775,0.118686,-0.055941,-0.004361,-0.278149,-0.091878,-0.73645,-1.2918,-0.081113,0.128647,-0.068929,-0.683539,0.191696,0.280304,-0.298972,0.584199,0.531524,0.038519,-0.211097,0.187214,0.279074,0.110752,-0.569975,0.505338,0.106608,-0.411595,-0.23332,-0.539399,0.312102,0.208739,-1.335909,1.113008,0.032845,-0.498339,-0.063583,0.04109,-0.274554,0.021884,-0.706351,-0.342257,0.756391,0.048899,0.396446,0.722642,0.045318,-0.063567,-0.285061,0.203212,-0.200973,0.526672,0.542134,0.025998,-0.328346,0.051966,0.774148,0.084444,0.106658,-1.329398,0.191459,-0.744002,-0.175676,-0.107045,0.048867,0.143228,-0.402304,-0.347761,-0.262487,0.430797,0.014024,0.238634,0.181664,0.299376,-0.534736,0.532856,0.335982,-0.699624,-0.974087,0.638455,-0.277646,0.150661,-0.575594,-0.183358,0.367382,-0.588133,-0.14158,0.061091,-0.248166,-0.442435,-0.019154,-0.165496,0.241482,-0.642954,-0.422161,-0.281043,0.087063,0.189047,-0.165649,-0.051734,0.262566,0.410176,-0.292245,0.375353,-0.397981,0.229735,0.24329,0.034655,-0.863063,0.453764,-0.199874,0.73129,0.338492,-0.009483,-0.1711,-0.107417,-0.050802,-0.825647,-0.250744,0.457831,-0.198131,-0.365959,-0.449533,-0.278393,0.408739,-0.504048,0.884269,-0.541862,0.630981,0.320414,-0.149506,-0.201864,-0.046518,0.018357,1.03349,0.29745,-0.021433,-0.040866,-0.430179,-0.038803,-0.567349,0.106376,0.523856,-0.476228,-0.159092,-0.221398,-0.696985,0.276254,0.324886,0.224766,-0.055283,0.266538,-0.054376,0.176583,0.189911,-0.113623,-0.075687,0.302142,0.421494,-0.347708,-0.063655,-0.082587,-0.050683,0.113076,0.315555,0.142701,0.562323,-0.086568,-0.497536,-0.115357,0.112496,-0.351293,-0.015242,0.016208,0.381442,-0.120749,-0.265191,-0.108754,0.162199,0.335793,0.06636,-0.563555,-0.254166,-0.275209,0.611212,0.059506,0.99266,0.048933,-0.680744,0.596254,0.122619,-0.160172,-0.469728,-0.185043,-0.101605,0.236513,-0.149617,-0.447182,-0.137696,-0.005812,0.652345,0.007603,-0.147959,-0.227836,0.606179,0.184753,-0.324205,-0.290726,-0.12898,0.51518,-0.352384,0.666715,-0.41746,0.062654,-0.229121,0.253069,0.081553,-0.029187,0.805631,0.37737,-0.745638,-0.584794
first,-0.145929,0.114096,-0.262215,0.093506,0.370074,0.354494,0.030379,-0.166058,-0.149195,-0.128491,0.17693,0.188639,-0.385267,-0.011146,-0.003742,-0.069073,0.116776,0.201068,0.024753,0.10939,-0.319828,0.063938,-0.018675,0.218566,0.004731,0.140377,0.222724,0.405039,0.266901,-0.30878,0.000979,0.00832,0.322685,0.050758,-0.101364,-0.106066,-0.004468,-0.096434,-0.159501,-0.226781,0.202823,-0.357257,0.005061,-0.139179,-0.094494,0.13147,-0.100297,0.008427,0.002966,-0.019608,0.374109,-0.310241,-0.234244,-0.111277,-0.078229,-0.129733,-0.033531,-0.07812,-0.099812,-0.072913,0.073898,0.081501,-0.485341,-0.163076,0.180367,0.485404,0.138329,-0.125472,0.268242,0.244496,-0.079605,-0.230824,-0.093422,-0.358704,0.456298,-0.169299,0.04322,-0.327772,0.027223,0.256436,-0.20642,-0.075706,0.10132,-0.123302,0.435466,0.048717,0.019052,-0.013706,0.139666,-0.18496,-0.150425,0.01019,-0.129277,-0.065155,-0.306977,0.258178,-0.164004,0.190922,-0.100935,0.230189,0.03568,-0.003608,-0.08491,0.076834,0.092784,-0.039906,-0.248342,-0.237735,-0.039901,-0.565432,0.290621,0.092791,-0.085677,0.013971,0.282633,0.091363,0.343176,-0.038441,-0.267283,-0.093875,0.088335,-0.168094,0.19754,-0.207657,-0.10137,0.045484,0.352821,0.486347,0.094755,-0.107014,0.205206,-0.098526,-0.135511,-0.220593,0.22762,-0.487332,-0.210689,0.090412,-0.126745,-0.009969,0.220715,0.067041,0.21258,-0.075055,-0.100119,0.205419,0.053495,0.004834,-0.026215,0.032288,0.208615,-0.058847,0.007523,-0.094988,0.082075,-0.17186,-0.190041,0.306657,-0.364934,0.152464,-0.250441,-0.206742,0.028278,-0.023852,0.288991,0.071504,0.063171,-0.028075,-0.187941,0.188304,-0.386222,0.073774,0.373985,0.207123,-0.180952,0.08489,0.357327,-0.037499,-0.111246,0.073338,-0.151776,-0.029882,0.322575,-0.052966,0.022465,-0.020931,0.358668,-0.057182,0.014018,0.055319,0.181227,-0.096401,0.078197,-0.092165,-0.074664,-0.113486,-0.073854,-0.172768,-0.180975,-0.184579,-0.022515,0.286504,-0.193887,-0.361283,0.205431,-0.205953,0.145122,0.271071,0.106291,0.341554,0.002484,0.107794,-0.034477,0.276426,0.139925,0.071808,-0.097472,0.150108,0.321476,-0.170618,1.3e-05,0.10544,-0.263738,-0.156581,-0.074304,-0.110343,0.17794,0.354089,0.126097,0.255885,-0.371616,0.196502,-0.09196,-0.042945,-0.131484,0.389006,-0.02131,0.00986,-0.158791,0.01291,-0.03993,-0.049038,0.206168,-0.048305,0.002516,-0.265584,0.027487,-0.284373,0.062392,-0.067073,0.115661,-0.045728,-0.174543,0.115076,0.111322,0.172877,0.074421,0.160603,0.239613,0.127926,-0.152464,0.123451,-0.249248,0.033213,-0.107939,0.099615,0.015547,0.095244,0.38544,-0.095795,0.249867,0.113089,0.181204,-0.117239,-0.020363,0.040839,0.178855,-0.178388,-0.454194,0.06703,0.188778,-0.011027,-0.182294,0.089552,-0.256927,-0.232556,-0.204371,0.102208,-0.004758,-0.169423,0.170787,-0.251756,0.042587,0.091057,0.036685,0.037741,-0.021698,-0.0258,0.169261,0.124108,-0.14477,0.302438,0.16712,-0.027984,-0.153124,-0.045993,-0.031327,0.167716,-0.098078,0.103884,-0.133352,0.11732,0.096854,-0.258017,-0.004908,-0.307576,0.206159,-0.278642,0.26904,-0.019447,0.290595,-0.154419,-0.000964,-0.088773,0.010049,-0.093903,0.090832,-0.051853,0.028775,0.245165,0.115195,0.011193,-0.208271,0.124336,-0.113896,-0.157167,0.103148,0.186688,-0.095082,0.015316,-0.052496,0.147931,0.096988,-0.025409,-0.123428,0.200919,0.091815,0.116212,0.082695,0.168192,-0.046582,0.324069,0.012334,-0.241311,-0.394934,-0.173176,-0.372094,0.07138,-0.014636,0.12036,-0.238293,-0.002755,-0.014351,-0.022983,0.15865,-0.023293,0.213081,0.029018,-0.121989,0.372591,0.195254,-0.0338,-0.154042,0.021053,-0.331253,0.140923,-0.164176,-0.093272,0.09355,0.016473,0.390773,-0.261436,-0.171467,-0.143723,0.256252,0.100267,0.034388,-0.253061,0.234974,0.105713,-0.149196,0.322704,-0.079626,-0.140011,0.214594,0.084676,-0.064765,0.065652,0.101012,0.057081
vector,0.644502,0.230942,-0.215868,0.345516,0.628614,0.643799,0.010892,-0.472601,-0.050765,0.132888,-0.10142,-0.292044,-0.298776,-0.151268,-0.125479,0.643677,0.040333,-0.582018,0.2331,0.076399,-0.494124,0.080826,0.30071,0.60645,-0.430102,0.168039,0.09846,-0.651275,-0.068301,0.164919,0.093578,-0.540583,0.464461,0.450244,0.190665,0.332166,0.197255,0.795298,0.327037,-0.167947,0.593798,0.420385,0.070286,-0.272919,-0.614729,0.00665,0.201454,-0.046148,-0.288333,-0.185032,0.451314,0.138382,-0.220925,0.126223,0.416815,-0.890041,-0.108215,0.346175,0.108608,0.182354,0.186038,-0.031839,0.427016,-0.315382,-0.285156,0.163609,0.317634,-0.384038,0.024844,0.69434,-0.721458,-0.401531,0.382854,0.446255,0.135293,-0.282981,-0.129911,-0.118501,0.479611,-0.600617,0.511848,0.42032,-0.091973,0.129902,-0.645958,0.185044,-0.195388,0.110692,0.11838,0.568882,0.060174,-0.173945,-0.796191,0.122685,-0.467162,-0.747963,-0.159343,0.489039,-0.351401,-0.669555,-0.10686,0.479985,-0.313469,0.320308,-0.386526,-0.408788,-0.583794,0.098135,0.010517,1.349905,0.336263,0.387695,-0.173963,-0.383983,0.76391,-0.599906,0.115874,0.162997,-0.568084,-0.13285,-0.405407,-0.229645,0.405098,-0.191156,0.379653,0.080558,0.20052,-0.058328,-0.141902,0.593471,0.16431,0.253078,-0.281334,-0.125384,-0.655996,-0.264431,-0.243928,-0.110052,-0.19808,-0.178782,-0.295467,0.151378,0.241163,0.089422,-0.145803,0.307289,0.061154,-0.098685,-0.213665,-0.05121,0.630042,-0.516009,-0.885036,0.025006,0.435189,-0.300986,0.587649,-0.402104,-0.600205,-0.136449,0.146924,-0.5885,-0.275113,0.536372,0.200717,0.038157,-0.089162,-0.075643,-0.657654,-0.180339,-0.052185,0.342712,-0.136847,-0.371339,0.527936,0.101186,0.036345,0.192752,0.319897,-0.162945,0.1388,0.119469,0.1825,0.177947,-0.699227,-0.096288,-0.518829,-0.121113,-0.298242,-0.368392,-0.134061,-0.406682,-0.332938,-0.103146,-0.375599,-0.293375,0.425716,0.155328,-0.476577,-0.619217,0.292004,0.069474,-0.747768,0.824548,0.500373,-0.151584,0.676981,0.265057,0.103907,-0.312352,-0.693798,0.750872,0.589429,0.276766,1.320118,0.167944,0.440426,-0.293866,-0.379631,-0.240754,0.650265,0.796605,0.144681,0.581811,0.405262,-0.041861,0.101514,-0.426817,0.211233,0.473903,0.174114,-0.526531,0.184721,-0.435848,0.548472,-0.422417,-0.010819,-0.84007,0.402639,-0.253117,0.163279,0.249812,-0.206662,0.224876,-0.037587,-0.617992,-0.30063,0.850531,-0.230753,0.574729,0.091005,-0.162245,-0.601731,0.231954,0.558486,-0.235603,-0.643831,0.606812,0.114424,0.314864,0.508461,-0.347759,0.690956,-0.156212,0.043095,0.508895,-0.698716,0.166027,-0.485348,-0.546073,0.172176,-0.278607,0.352311,-0.130194,-0.210948,0.409785,0.16377,-0.528728,0.177478,0.01443,0.70875,0.300434,-0.326998,0.060525,-0.22787,0.116468,0.221812,0.587052,-0.204204,0.605582,0.103926,-0.241887,-0.229444,-0.058183,0.290082,-0.069174,0.002485,0.267451,-0.654244,-0.470704,-0.439106,-0.697483,0.398068,-0.674351,0.665119,-0.593234,0.172978,0.311227,0.301683,0.187062,-0.522495,0.210257,1.609752,0.089614,0.176357,0.006422,0.119353,-0.544314,-0.794516,-0.413884,0.170266,-0.273232,-0.102336,0.181518,-0.40691,0.015261,0.024611,-0.455359,0.370044,-0.568219,-0.438246,0.058325,-0.024173,-0.335939,0.090294,0.079688,0.256625,-1.086434,0.14836,0.203126,-0.277694,-0.375263,-6.2e-05,0.360508,0.738897,0.43534,-0.120481,0.136729,-0.387318,0.135779,-0.162023,0.177534,0.368179,-0.061868,-0.38544,-0.386098,0.379991,0.212914,0.265777,-0.220045,-0.545423,0.288694,-0.105685,-0.181439,0.346861,0.541999,-0.69427,-0.218605,-0.046821,-0.287845,-0.279137,-0.19791,-0.276873,0.061559,0.421845,-0.425758,0.362334,0.538356,0.394059,-0.018709,0.135185,0.221454,0.074062,-0.267859,0.062026,-0.089372,-0.254288,0.215348,-0.594259,-0.015756,-0.83866,-0.577731,0.008282,0.295801,-0.059601,-0.449985,0.308904,-0.031613,0.325351,0.30667
algebra,0.291917,0.365111,-0.172881,-0.317501,0.635726,1.202566,-0.941252,-0.181252,-0.324489,-0.03672,0.261914,0.07937,0.074554,-0.334898,-0.659832,0.385657,-0.070676,-0.084272,0.451773,-0.33653,-0.12113,-0.241352,0.481306,-0.266785,-0.5063,-0.235581,0.152445,-0.202729,-0.541116,0.812915,0.31204,-0.053511,0.681122,0.418794,-0.46914,-0.151268,0.835887,-0.009545,-0.301735,-0.306732,0.624722,-0.699855,-0.110921,0.336131,-0.14584,0.189431,0.18742,-0.579072,-0.773837,0.196615,-0.419334,0.166992,0.053968,0.183803,-0.382531,-0.728793,0.285894,-0.427617,-0.419597,-0.36976,0.3226,0.23294,-0.566611,-0.718156,-1.035111,-0.330227,0.548855,0.111004,-0.137475,0.555584,-1.021378,0.094588,0.163917,0.093588,-0.151095,-0.075213,0.107384,-0.13526,-0.141159,-0.419235,0.667525,-0.210951,-0.095136,-0.028862,-1.256828,0.05091,-0.519141,0.053802,-0.3155,0.958159,0.212615,0.100523,-0.2655,-0.100894,0.704496,-0.426001,-0.095669,1.129837,-0.616637,-0.304441,0.18347,0.156248,-0.331514,-0.039995,0.141532,0.299227,-0.112356,-0.734424,0.199466,2.186246,-0.144406,0.173543,1.06224,-0.072998,1.211529,0.673493,0.31824,-0.096427,-0.157222,-0.250903,-0.682004,-0.062191,0.294554,0.01853,0.130362,0.256498,-0.479885,-0.138496,-0.810423,0.070355,0.523119,0.50012,0.086503,0.301402,0.096756,-0.503472,-0.874118,-0.213328,0.191386,0.112169,0.094633,0.091504,0.126187,0.230055,-0.179677,0.323437,0.040748,0.44,-0.513327,0.53695,0.109267,-0.437868,0.192965,0.225559,0.312724,-0.517537,0.098905,0.142435,-0.789371,0.048825,-0.580434,-0.38836,0.532697,-0.390395,0.039262,-0.182921,0.544543,-0.471155,-0.115675,0.325775,0.464829,0.286547,0.061708,-0.076097,-0.06913,-0.212284,-0.024966,0.162825,0.330524,-0.102521,-0.309451,0.70928,0.002723,-0.428155,-0.294105,0.110097,-0.341751,-0.933995,-0.140079,-0.384728,-0.577136,-0.288165,-0.204859,0.527779,-0.406714,0.555418,0.56297,0.419868,-0.340728,0.140172,-0.07231,-0.166861,-0.327061,0.61502,0.250736,0.014391,0.016269,-0.23276,-0.359121,0.22907,-1.00507,0.441201,0.29125,0.537958,-0.267667,0.59857,0.911252,-0.444793,0.261689,-0.373969,1.008616,0.177575,0.764328,0.876892,0.137097,0.010376,0.102294,0.405263,-0.405268,0.067366,0.136276,-0.187557,0.217171,-0.012598,-0.081721,0.102618,-0.315304,-0.336848,-0.608998,-0.135393,-0.256194,0.026375,0.371247,-0.118412,0.398273,-0.264945,0.062464,0.122824,0.322757,0.18919,-1.138614,0.34962,-0.72533,0.30373,0.841076,0.333678,-0.373663,0.815109,0.236202,-0.080803,-0.082763,-0.091004,0.32812,0.084379,-0.615945,0.037766,-0.087018,-0.32872,-0.068526,-0.624183,-0.390817,0.113171,-0.166988,-0.101944,-0.206733,-0.825013,-0.149543,-0.170497,1.243815,-0.362839,-0.004447,-0.111948,-0.04803,0.491139,-0.534669,0.309413,-0.405501,0.467568,-0.580398,0.148158,-0.296383,0.218592,-0.44306,-0.091793,-0.2408,-0.324459,0.998273,0.834812,0.232448,-0.656188,-0.289381,0.173837,0.251405,-1.169971,0.466998,-0.08994,-0.216387,0.33438,0.087407,-0.106065,-0.704036,-0.055284,1.091964,0.281881,-0.101196,0.009884,-0.401893,-0.736551,-0.531342,0.420267,0.511863,0.416916,-0.34567,-0.226159,-0.023852,-0.185859,0.554041,-0.595499,0.413806,-0.648448,-0.374252,-0.123528,0.489739,-0.127923,0.577866,0.251266,0.208805,-0.342862,-0.536609,-0.191199,-0.397824,-0.155811,-0.152633,-0.480168,0.044263,0.238401,-0.1991,0.339243,0.089715,0.005806,-0.467352,-0.079725,0.027436,-0.66322,0.221498,-0.396983,0.200479,0.190776,0.689619,-0.073809,0.084641,-0.0825,-0.172032,-0.349909,-0.223279,0.669877,-1.406823,0.20223,-0.504888,-0.103542,-0.108753,-0.000725,-0.991119,0.20157,-0.411677,-0.024485,0.346847,0.358083,0.020046,0.139786,0.693682,0.360426,-0.235718,0.393347,0.392733,0.139413,-0.181545,0.434488,-0.418668,-0.483289,-0.889994,-0.007476,-0.392614,1.019685,0.106502,-0.80159,0.34458,-0.077685,-0.248696,0.275921
$\mathbb{N}$,-0.182638,0.380698,-0.101103,-0.217181,-0.365932,0.673641,0.168666,-0.127502,-0.139029,-0.267771,-0.485365,0.098681,-0.184391,0.205853,-0.369135,-0.12055,-0.253601,-0.067571,0.576451,0.159454,-0.22497,0.192899,0.257406,0.075299,-0.189396,-0.159099,-0.108577,-0.522459,-0.09851,-0.297154,0.608635,-0.560316,0.041536,0.357266,-0.505211,0.345316,-0.130139,0.071407,0.663065,-0.759296,0.355531,-0.064144,-0.522402,0.004709,-0.713199,0.002541,-0.04815,-0.141792,0.386131,0.134822,-0.011961,-0.110723,0.090939,-0.196495,0.055265,-0.166839,0.125549,-0.348211,0.365501,-0.242399,0.172871,-0.055195,0.323371,-0.29537,0.378086,0.238535,0.012189,-0.208666,-0.184906,0.146435,-0.550565,-0.071858,0.277508,0.30158,0.077405,0.256512,0.061518,-0.511983,-0.425952,0.389106,0.018656,-0.068372,-0.352629,-0.127842,-0.231997,0.078513,-0.071015,-0.05823,0.714628,0.365694,0.030087,0.198587,0.314963,-0.364359,-0.022449,-0.035366,-0.406247,-0.325527,0.088935,-0.030655,-0.043679,0.005482,0.25006,-0.121758,0.038391,-0.136383,-0.00544,-0.151529,-0.32505,0.912005,-0.017213,0.507208,0.013067,0.067681,0.152979,-0.150851,-0.39474,0.142919,-0.283117,-0.556407,0.204234,0.123577,0.127941,0.217466,0.458325,-0.10765,-0.222982,0.192059,-0.428092,-0.058981,-0.575743,0.049095,0.132816,0.029417,-0.437944,-0.053972,0.224371,-0.310556,0.339337,-0.120702,0.16865,0.072409,0.240693,-0.066087,-0.196221,-0.01595,0.118786,-0.060696,0.102315,0.44752,0.367547,-0.035554,0.171233,-0.293106,0.625408,0.006149,0.655061,0.364068,-0.302119,0.340309,0.019478,-0.503837,-0.360329,-0.558572,-0.008678,-0.285765,-0.09825,-0.302447,-0.285146,-0.333007,0.406988,0.174921,0.162156,-0.05915,0.34896,0.328816,0.246884,0.114214,-0.20866,0.241901,0.153549,-0.262962,-0.76583,0.06159,-0.198802,-0.007612,-0.316803,-0.027253,0.136023,0.018199,0.417351,0.053868,-0.460432,0.39599,-0.110702,-0.171663,0.863557,0.041255,-0.358181,-0.215976,0.23195,-0.435679,0.01578,-0.15248,-0.179116,-0.230931,0.236222,0.222644,-0.075616,-0.190219,-0.517476,0.109346,-0.090585,-0.135834,0.618417,0.084628,-0.124868,-0.042196,0.12925,-0.057233,0.04148,0.348627,-0.094524,-0.311244,0.079154,0.354163,-0.223972,0.112497,0.142702,0.143482,0.424813,0.331408,-0.211179,-0.139855,0.547948,0.255277,0.031995,-0.187398,-0.138267,-0.022034,-0.380334,-0.369802,0.154584,0.161304,0.185267,-0.181753,-0.412173,0.251798,-0.026512,-0.233523,0.208948,0.511935,-0.497591,-0.116023,-0.093415,-0.124803,-0.708688,-0.342211,-0.242757,-0.105846,0.035015,-0.068067,-0.036168,0.454138,0.246387,0.689677,-0.164087,-0.117521,-0.122742,-0.099197,0.151404,-0.260345,0.070434,0.386403,-0.730471,0.560657,-0.484798,0.600912,0.5005,0.188693,0.679029,-0.063752,0.279119,0.287503,0.278309,-0.308343,-0.343938,0.356147,-0.407878,-0.576657,-0.187095,-0.301344,-0.096673,-0.446427,0.307133,-0.189312,0.278349,0.365971,0.456598,-0.445012,0.118727,-0.465043,-0.210757,-0.086534,0.116384,-0.419972,-0.101389,0.104552,0.218948,-0.115677,-0.105096,0.281694,-0.275754,-0.061275,-0.236075,-0.676656,-0.010175,-0.324382,-0.364719,0.10585,-0.144175,0.195699,0.453123,0.387525,-0.191282,0.048113,-0.287689,0.115285,-0.0984,-0.227815,-0.010057,-0.488021,-0.07918,0.081816,0.32855,0.084107,0.223666,-0.198835,-0.000293,-0.242909,-0.295054,-0.288163,0.213263,-0.203948,0.131925,-0.043473,0.237507,0.103742,0.020242,-0.299535,0.094419,0.494502,0.176009,-0.039265,0.07877,-0.128231,0.670882,-0.279752,-0.00117,-0.301038,-0.005103,-0.317599,-0.214792,-0.134206,0.427664,0.186959,-0.445463,0.220844,0.152084,-0.113003,0.122152,0.058853,-0.309104,-0.051405,0.482842,0.286871,0.3658,0.155727,-0.087667,-0.058953,0.110076,0.216977,0.064567,-0.325214,-0.209296,0.120854,0.272645,-0.038137,-0.301269,0.032265,-0.166308,-0.126597,-0.175653,0.24734,0.582774,-0.048438,-0.042457,0.35345,0.444708,-0.116002
field,0.362755,0.095173,-0.369381,-0.136449,0.367076,0.291123,-0.330105,0.125033,0.118484,0.023503,-0.169656,-0.187134,-0.070271,-0.208464,-0.016215,0.363994,-0.121845,-0.07586,0.207931,0.368525,0.309373,-0.272975,-0.226816,0.017742,-0.091179,0.649316,-0.064022,0.1091,0.367244,0.246837,0.242365,-0.230551,0.394525,0.182325,-0.137829,-0.322895,0.22394,-0.436126,-0.067402,0.11224,-0.159678,-0.008235,-0.135919,-0.196323,0.156407,0.21839,0.126147,0.190119,0.213495,0.036046,0.589688,0.072401,0.485297,-0.123243,0.209728,-0.91752,0.435498,0.103164,0.109494,-0.114646,0.492856,0.091043,-0.101402,-0.524542,0.109346,0.082126,0.32373,-0.675603,0.107497,0.131923,0.125493,-0.274487,0.152115,0.230826,0.383348,0.09635,-0.188163,-0.335845,0.204499,-0.024206,0.152643,0.304645,0.069824,0.076239,-0.137889,0.19092,0.070784,-0.31298,0.458129,0.419314,-0.412592,0.035088,-0.09145,-0.193353,-0.307699,-0.258913,-0.176677,0.107354,0.270269,-0.519873,-0.070094,0.269705,-0.200931,-0.048449,-0.134549,0.065853,0.129456,0.486221,-0.029955,-1.013362,-0.093583,0.426005,0.171751,-0.380936,0.103488,0.419959,-0.485638,-0.069532,0.090695,0.245511,-0.293618,-0.269259,0.453246,0.324973,-0.108728,-0.303953,-0.048655,-0.178055,0.337423,-0.03457,-0.090677,0.257483,-0.154731,-0.15738,-0.058968,-0.534968,0.045618,-0.573309,0.41181,0.066342,-0.091983,-0.246425,-0.648708,-0.186947,0.034397,0.358556,0.047881,-0.067927,0.185063,-0.299028,0.395981,-0.448263,-0.045164,0.092678,-0.179747,0.12101,-0.18486,-0.134748,0.01021,0.135787,-0.174563,0.090501,-0.103773,-0.22864,0.090249,0.133809,0.258134,-0.270771,-0.706083,-0.221216,-0.22448,0.528745,-0.144993,-0.00432,0.197786,-0.268734,0.239517,0.140857,0.404166,0.172158,-0.215132,0.350455,0.237554,0.173608,-0.477318,-0.297607,0.19762,-0.239488,-0.020706,-0.150157,0.007313,-0.41107,0.278207,0.162409,0.126064,0.129102,0.299049,0.023739,-0.223686,0.054872,0.137179,0.488157,-0.595622,0.025273,-0.119982,-0.216704,0.184387,0.073825,0.106831,0.240988,0.037816,0.299289,-0.026675,0.046053,0.422751,-0.04338,0.322033,-0.310012,-0.239177,0.118286,0.57187,0.091565,0.416517,0.471976,-0.096321,-0.410662,-0.352582,0.925666,-0.125415,0.479417,0.108546,-0.262616,0.062119,-0.255771,-0.053024,0.402165,-0.362839,-0.901713,0.217631,0.320053,0.430021,-0.293362,-0.203862,0.432335,-0.08892,-0.461785,-0.496256,-0.200883,-0.314325,0.220752,-0.083629,-0.098016,-0.263459,0.005352,0.250429,-0.103238,0.016876,0.237866,-0.085521,0.236629,0.011714,-0.102755,0.270524,0.148949,0.033774,-0.395562,-0.294268,0.509596,-0.113724,0.150991,0.267009,0.405151,0.057032,0.141165,-0.188929,-0.326607,0.102625,-0.0813,0.208573,0.199581,0.170624,-0.198838,-0.196152,0.2474,-0.308708,0.013699,-0.313628,0.256105,-0.085417,0.328132,-0.155753,0.078007,-0.292199,-0.329271,-0.181672,-0.071091,0.109699,-0.064769,0.070641,-0.256031,-0.020232,-0.090795,0.467359,-0.217623,0.465734,-0.672013,0.128848,-0.012474,-0.231102,-0.270767,0.107048,-0.146948,0.014103,0.061074,-0.128522,-0.396857,0.149747,-0.122706,0.883705,-0.023262,0.167482,-0.015394,-0.049467,0.228214,-0.25661,-0.102977,-0.32199,-0.363478,0.377593,-0.088774,0.062635,0.17823,0.170785,0.142259,0.053355,-0.13453,0.103859,-0.311396,-0.061739,0.026532,-0.056967,0.028901,-0.267026,0.036841,-0.100753,0.036131,-0.394479,-0.201873,-0.115277,0.178858,0.195566,-0.408242,0.016162,-0.352299,-0.704727,-0.09304,0.271319,0.109983,0.276814,0.139844,-0.185172,0.481866,0.316378,-0.073117,0.413826,0.10966,-0.043814,-0.331379,-0.096629,-0.118676,-0.22516,-0.23322,-0.708319,0.109042,-0.313486,-0.423559,-0.07622,-0.28308,-0.172222,0.229045,0.569665,-0.314836,0.040088,-0.109112,0.036208,0.298139,-0.415287,-0.219786,-0.11496,0.239194,0.09043,-0.049159,-0.166523,0.232848,0.288657,-0.339631,0.139855,0.102,0.253469,0.091328
element,0.316487,-0.024312,-0.041038,0.047159,0.632691,1.06402,-0.171516,0.09854,0.378018,-0.19517,-0.214853,-0.039084,-0.049432,0.02963,0.156298,-0.231202,0.019375,0.044788,0.186553,0.129182,0.020166,-0.325945,0.367342,-0.078676,-0.036253,0.091535,-0.086711,0.112544,0.023416,-0.154986,0.217969,-0.535042,0.532965,-0.154697,-0.530117,-0.300432,0.036013,-0.410821,0.070289,0.209656,0.187893,-0.061982,-0.30324,-0.445037,-0.595097,-0.121307,-0.01161,-0.00986,0.145061,-0.656519,-0.27331,-0.148129,0.176286,0.135731,-0.332863,-0.037947,0.250574,-0.142365,0.032028,-0.035715,0.296023,-0.26983,-0.431266,-0.331375,0.275631,-0.15103,0.309068,0.357932,0.273108,0.163659,-0.456441,0.123079,0.142043,0.051724,-0.013203,-0.115408,-0.269043,-0.308194,-0.320216,0.452633,0.073399,-0.188414,0.133549,0.024634,-0.499171,0.18503,0.021718,-0.144355,0.229842,0.264826,0.210265,0.150196,-0.184713,-0.199237,-0.342359,-0.361946,-0.089577,-0.031483,-0.075334,-0.385136,0.153211,-0.16317,0.262215,0.317412,0.214153,-0.288132,-0.257159,-0.22269,-0.570927,0.744766,0.290549,0.068742,0.280606,0.072747,0.609079,-0.165382,0.031715,0.098497,0.131376,-0.126054,-0.437358,0.026295,-0.210687,-0.131267,-0.07937,-0.053294,-0.10689,-0.221331,0.187948,0.109955,0.35347,0.205324,0.037855,0.20047,-0.135978,-0.678656,-0.02817,0.146645,-0.267471,-0.319895,-0.34616,0.466495,0.103665,-0.236354,-0.284361,-0.2301,0.086862,-0.332937,-0.083191,-0.333821,0.014028,0.071915,0.118781,-0.07029,-0.05043,-0.126211,-0.03784,0.299626,0.135066,-0.29506,-0.0411,-0.397319,-0.22042,0.067466,-0.023803,-0.673598,0.302518,0.11504,-0.144187,-0.236886,0.541348,0.071196,-0.149423,0.036652,0.116619,-0.118844,-0.02755,-0.18252,0.593169,-0.008199,-0.033707,0.248064,0.463419,0.873542,-0.150311,0.08398,-0.443743,-0.448034,-0.098215,-0.12686,-0.111573,0.035146,-0.196468,0.200797,-0.708365,-0.189094,0.099801,0.035586,0.087013,-0.217302,-0.492778,-0.249711,-0.199393,-0.169534,0.347366,0.258686,0.195919,0.488261,0.20378,-0.853301,-0.165208,0.363677,0.151372,0.069734,0.450373,0.046548,-0.069002,-0.266498,0.238489,0.021865,0.349783,-0.152134,0.150184,0.160302,0.256847,-0.269276,0.194039,0.136068,0.013265,-0.115465,0.033893,0.304665,0.492691,0.152826,0.006922,-0.094261,0.289714,-0.166753,-0.043209,-0.190641,0.653594,0.081199,-0.065577,0.068209,-0.15832,-0.18081,-0.098434,0.021097,0.020256,-0.111685,-0.10816,0.06818,-0.470112,0.639653,-0.132361,-0.105796,-0.2372,-0.221005,0.057627,-0.078953,0.101465,-0.163424,0.507184,0.087582,0.184982,-0.04237,0.007146,0.016583,0.309454,0.032213,-0.335665,0.1799,-0.033649,0.016872,-0.354133,-0.342412,-0.245779,-0.064509,0.484186,0.014313,-0.058969,-0.377061,0.034459,0.012661,0.054983,-0.509269,-0.156189,0.635999,-0.206112,-0.076492,0.281677,-0.32554,-0.62806,0.150202,0.101292,0.038623,-0.320526,-0.325791,0.509086,-0.123715,-0.251977,0.221494,0.311864,-0.047113,-0.189018,-0.218651,-0.268132,0.39815,0.02794,0.071592,0.216462,0.427773,0.232827,0.314302,-0.021679,0.186422,0.112633,-0.360473,-0.469157,0.409696,-0.147396,-0.11615,0.096285,-0.429153,0.15318,0.436505,-0.323664,-0.085334,0.404225,0.116528,0.101078,0.076515,0.083717,0.026841,-0.218503,-0.060284,0.043373,-0.840113,0.208728,-0.076437,0.378369,0.413804,-0.460001,0.316507,0.312502,-0.199754,0.290308,-0.165555,-0.044405,-0.248404,0.320836,0.206695,0.190905,-0.119375,-0.894638,0.188884,0.485861,0.033656,-0.05992,0.093038,-0.323601,-0.025239,-0.074755,-0.023329,0.133176,0.361051,-0.450868,-0.033298,-0.102704,-0.078742,-0.027553,-0.110751,-0.013293,0.311725,-0.074708,0.379001,0.003226,-0.266995,-0.068719,-0.424058,0.226982,0.005852,0.054865,-0.271348,0.073937,0.146044,-0.480881,-0.277888,-0.478951,0.093003,-0.271355,-0.160388,-0.027781,0.428974,-0.101176,-0.00393,0.61682,0.135404,-0.054917,0.131058
system,-0.036234,-0.169749,-0.263603,-0.108497,0.199184,0.646483,-0.247768,0.1787,0.003607,-0.543495,0.158546,0.330137,-0.287634,-0.144925,-0.063468,-0.387432,0.196862,-0.002513,-0.511187,0.029996,0.278813,0.108681,-0.107287,0.051973,0.155171,0.241449,0.01138,0.348176,0.037812,0.3519,0.015545,0.180311,0.252791,0.219941,-0.178155,0.006468,-0.358652,-0.705447,0.081808,-0.087016,-0.235002,-0.150254,0.005011,-0.068763,-0.457546,-0.10322,-0.178165,0.139986,-0.363834,-0.55009,0.084398,-0.004389,0.093802,0.248648,0.380259,-1.241113,0.365919,-0.185872,-0.159978,0.432667,0.397056,-0.083789,-0.617744,-0.167989,0.258186,0.080998,0.261269,-0.170331,-0.139167,0.41794,-0.108858,-0.032669,-0.132013,-0.378181,0.032804,-0.106947,-0.200952,-0.41469,0.086717,-0.383768,0.002328,-0.180426,-0.345115,0.351306,-0.199761,0.245134,0.220005,-0.009577,-0.026049,0.45459,-0.2688,-0.053181,0.034224,0.072267,0.323878,0.073065,-0.231243,0.107978,0.031653,0.092522,0.045257,0.091478,-0.509993,0.028668,0.249107,-0.18862,0.022256,-0.037148,-0.015559,-0.092923,0.418917,-0.137322,0.112622,-0.213081,0.21929,-0.275313,-0.042955,-0.22652,-0.489404,-0.535698,0.334974,0.283687,-0.109563,-0.299082,0.123627,-0.137065,0.287191,-0.128636,0.126211,-0.063083,-0.464887,-0.059694,0.308306,0.159752,-0.023116,-0.41745,-0.036331,-0.345232,-0.087477,-0.092531,-0.217127,-0.299092,0.287814,0.117521,0.426016,-0.487912,0.111149,-0.31901,-0.176879,0.075071,0.009373,-0.225237,-0.464383,-0.02382,-0.516074,-0.041207,0.104938,0.094889,-0.313001,-1.034094,0.063257,0.071341,0.194184,0.212218,-0.093047,0.034045,-0.024528,-0.368961,-0.198759,-0.147377,-0.371145,0.412798,-0.144933,0.085454,-0.346964,-0.042942,-0.051024,-0.375713,-0.092335,-0.29475,0.151387,0.336621,0.087818,-0.129224,0.279346,-0.06765,0.212459,0.060578,-0.028405,0.628328,-0.106904,0.307898,-0.153173,-0.121617,-0.085661,-0.051882,-0.045611,-0.135157,-0.019128,0.291622,-0.00986,-0.092989,-0.009539,0.198013,-0.309002,-0.12714,0.157282,0.506897,-0.075932,0.009941,0.125243,-0.095704,0.659986,-0.077202,0.530477,-0.100981,0.048179,-0.214722,0.230995,-0.114747,-0.016288,0.44145,-0.099642,-0.04272,0.341455,-0.037121,-0.186033,-0.28294,-0.038966,0.240163,-0.383364,0.539989,0.154098,0.003684,0.429053,0.266423,-0.356627,0.240219,0.159748,0.193809,0.165525,0.096305,0.157986,-0.068512,0.151052,0.266928,0.340643,0.765632,-0.005737,0.083883,-0.624571,0.131971,-0.442395,0.042058,-0.091925,0.420386,0.096115,0.005321,0.33049,-0.3884,-0.457564,0.105907,0.498168,0.064874,0.034444,-0.228302,0.096803,0.223814,0.101607,-0.014302,-0.073471,-0.31661,-0.682163,-0.490701,-0.519539,0.052121,-0.014677,-0.216505,0.206689,0.31492,0.296327,-0.41419,-0.307994,0.113396,-0.155201,-0.267183,-0.182823,0.086478,0.097917,0.146637,0.395066,0.071164,-0.178891,-0.143865,-0.177422,-0.475028,-0.039677,0.08184,-0.028693,-0.106876,0.073838,-0.210908,-0.621067,0.202926,-0.232686,-0.853112,-0.043242,0.112019,-0.281809,-0.250135,-0.047004,-0.187959,1.114144,0.115892,0.278306,0.257266,-0.089901,-0.316519,0.160799,0.252501,0.178314,0.01161,0.377764,0.020338,-0.040741,0.278585,-0.068852,0.192078,0.515333,0.032521,-0.109477,-0.134149,0.258075,-0.197599,-0.443166,0.177176,-0.079988,-0.744302,-0.177509,-0.184803,0.127377,-0.094365,-0.088619,-0.112443,0.137614,0.179154,0.198772,-0.220803,0.243651,-0.191902,0.046739,0.382558,-0.455214,0.010334,-0.603734,-0.001367,-0.408434,-0.024302,-0.215781,-0.10162,-0.50414,0.24583,0.419738,0.037405,-0.559505,0.335921,-0.132152,-0.206652,-0.445863,0.142454,-0.094931,-0.048421,0.121645,0.51043,-0.139347,-0.338164,0.181183,-0.012086,0.124668,-0.365978,-0.021778,0.03179,0.274873,0.023572,0.213332,0.044294,-0.15927,-0.143668,-0.299004,-0.037646,-0.060026,-0.039955,-0.333273,0.291344,-0.009268,-0.333656,0.039486,0.281995,0.19406,-0.043124
