word,1,2,3,4,5,6,7,8,9,10,11,12,13,14,15,16,17,18,19,20,21,22,23
number,-0.128103,0.289229,-0.647982,0.957786,-0.670741,-0.087491,-0.304441,0.397621,-0.738698,0.61049,0.740898,-0.167089,-0.168003,-0.48603,-0.021058,-0.109631,-0.037553,-0.016222,0.540161,-0.803877,0.012349,-0.271662,-2.051459
function,1.105799,-0.108257,-0.63476,0.912092,-0.703185,-0.017281,-0.386244,0.597324,-1.193999,0.516599,0.89286,-1.671893,-1.120765,-0.768397,0.809336,0.258642,0.053817,-1.63748,-0.522559,-0.655572,1.478988,0.903061,-0.776744
one,-0.095464,-0.182361,0.033278,0.316751,-0.072246,0.047405,-0.677549,0.347331,-0.688305,0.736742,0.11585,-0.475669,0.066658,-0.253996,0.008677,-0.220008,-0.303194,0.530666,0.641543,-0.24065,0.38795,0.398556,-2.003629
set,0.007427,0.11736,0.025559,0.254449,0.090614,-0.231071,-0.958254,-0.146131,-1.047516,0.278574,0.366778,-0.629455,0.084448,0.037002,0.283571,-0.452658,0.407861,-0.039485,0.394389,-0.655555,0.381686,0.324889,-1.662456
group,0.599212,-0.131193,-0.506676,0.774332,-0.074306,0.23294,-0.584862,-0.008682,-0.181543,-0.311063,0.391494,-0.480711,0.955425,0.02192,0.547266,0.174096,-0.388531,-0.392405,-0.246708,0.682182,0.221509,0.338563,-1.951732
space,0.266047,0.296346,0.681534,0.850689,0.652756,0.361266,-0.661245,0.375559,-1.5246,-0.270351,0.492335,-0.187502,0.025573,-0.264216,0.837007,-0.768524,0.149972,-0.743395,-0.566562,-0.819839,1.662613,-0.110355,-1.523351
two,-0.56704,-0.06837,0.075087,0.364303,-0.163497,0.226038,-0.773565,0.458802,-0.288341,0.465301,0.07053,-0.452026,-0.350273,-0.265007,-0.209295,-0.073742,-0.049488,0.345566,0.644358,-0.136749,0.716266,0.224385,-2.334336
theory,1.770704,1.283417,-0.678067,1.859017,-0.515246,-0.425913,-0.634076,0.141284,-1.423735,0.118061,0.471689,0.040158,0.593705,-1.358592,0.480713,-1.535219,0.171336,-0.940274,-0.40215,-0.000667,1.263672,1.353253,0.333368
point,-0.474741,0.561472,0.370415,0.748658,-0.684159,0.621153,-0.896038,0.755784,-0.53942,-0.120169,0.708338,-0.110768,-0.040519,-0.639054,-0.645633,-0.485135,0.038198,-0.202343,0.981445,-0.728599,0.21583,0.151491,-2.031555
theorem,0.426998,1.297513,-0.171344,0.359304,-0.932036,-0.307434,-2.016526,1.263422,-0.934957,-0.379516,0.350653,-0.551894,-1.098001,-1.515865,0.815663,-1.887539,1.97252,-1.807335,-0.800201,-0.320406,0.357733,1.44421,1.330788
example,0.52426,-0.181168,-0.58567,1.286159,-0.323037,-0.303735,-0.779277,0.016303,-1.225467,0.901797,0.455678,-0.562286,-0.573327,-0.817452,0.452292,0.125383,-0.259413,-0.379837,-0.537393,-0.698663,0.40832,0.687954,-1.172408
form,-0.163673,-0.762896,-0.560805,1.500925,-0.170897,0.011873,-0.850232,0.248612,-0.268721,0.404703,0.118713,-0.4951,-0.337804,-0.472415,0.571056,-0.301629,-0.345093,-0.315522,-0.371322,-0.123202,0.747393,0.746717,-1.610759
define,0.576479,-0.107639,-0.945985,1.40835,-0.879881,0.186308,-0.922648,0.195215,-1.147799,0.194096,1.050962,-0.523586,-0.059015,-0.942971,0.3963,0.011499,-0.10439,-1.497124,-0.473449,-1.167273,0.671286,0.934488,-0.690282
graph,0.479014,0.78536,-0.461797,0.695846,0.21604,0.227162,-1.712911,1.291634,-1.414999,-0.462796,0.892484,-0.107363,-1.299445,-1.22477,0.611116,-0.189194,1.008665,-1.870366,-0.556101,-1.105572,0.274711,0.730405,0.610917
value,0.484367,0.358133,-0.520796,1.166255,-1.491887,-0.152425,-0.45358,0.63499,-2.008346,0.982914,1.045264,-0.329982,0.00331,-0.677039,0.459226,-0.423644,0.359015,-0.918137,-0.302702,-1.314,-0.487338,0.275242,-1.13907
problem,1.09178,0.456597,0.565957,0.721321,-0.75135,-0.183071,0.310989,-0.002851,-1.350996,0.660152,0.597178,-0.65308,0.355041,-0.760912,0.011284,-0.55311,-0.013849,-0.955311,-0.227006,-0.336172,0.723104,1.145099,-0.836619
mathematic,0.537503,1.470818,-1.709259,0.417695,-0.047137,0.017785,-0.642394,1.034684,-1.776183,0.427978,0.759866,0.015768,-0.069773,-0.536169,0.271602,-1.562667,-0.090883,-1.05371,0.075338,0.970256,1.73247,-0.098664,0.903635
order,-0.012249,0.038678,-0.313715,0.284005,-0.737909,-0.939337,-0.248474,-0.012693,0.076707,1.055718,0.393067,-0.559572,0.046833,-0.071612,0.816564,0.321449,-0.30203,-0.295504,0.945809,-0.148476,0.957153,1.127309,-1.603003
equation,1.148567,1.871061,0.090103,1.29874,-1.505257,0.490819,-0.849334,1.03357,-0.90515,-0.183029,-0.080006,-0.900844,-1.332962,-0.957052,0.84167,-1.861274,1.594824,-1.586836,-0.829925,-0.98722,1.024171,1.011895,0.49645
first,-0.128605,0.249081,-0.374977,0.053427,-0.063872,-0.215828,-0.419764,0.291765,-0.661895,0.179135,-0.39121,-0.309302,0.249132,0.321104,-0.226701,-0.108669,-0.097301,0.374445,1.186696,0.525532,0.429731,0.185867,-1.983096
vector,1.218077,0.976922,-0.104702,1.297575,-0.222906,0.652495,-0.915778,1.140088,-0.659655,-0.289531,0.74236,-0.568856,-1.593826,-0.814054,1.497406,0.014996,0.901973,-1.692298,-0.456856,-1.195381,0.66115,0.835715,-0.340426
algebra,0.750788,1.44782,-1.545645,0.813721,0.254812,-0.32355,-1.726251,0.965556,-0.57463,-0.079571,1.461476,-0.49705,-1.255388,-1.53917,1.136592,-1.402548,1.301635,-1.448951,-0.663462,-0.054406,1.355928,0.307843,0.878367
$\mathbb{N}$,0.15904,0.51739,-1.128039,0.432895,-0.123913,0.852645,-0.053115,-0.162738,0.302146,-1.041737,0.644589,-0.863557,-1.007486,-0.971042,0.887827,-0.169408,1.111905,0.056509,-0.610435,-0.763716,0.000194,-0.057619,-1.573978
field,0.184459,0.535286,0.109827,0.971477,-0.269216,0.843231,-0.458277,0.868263,-0.51896,0.049616,0.256425,0.231296,0.214308,0.03222,-0.291394,-0.527498,0.346857,-0.521917,0.355808,0.84819,1.690598,0.283269,-1.603139
element,0.721436,0.27051,-0.296949,1.733602,0.386105,-0.456787,-1.26485,-0.327145,-0.648158,0.760689,0.284578,-0.305443,-0.304782,-0.515944,0.810304,-0.605044,-0.312067,-0.54543,-0.691502,-0.934256,0.841599,0.495865,-1.281153
system,1.074696,0.225583,0.197214,1.547297,-0.511726,-0.193657,-0.276982,0.065861,-1.487779,0.228707,0.585039,-0.55164,-0.1484,0.00077,0.504602,1.115719,-0.176928,-1.478292,-0.506813,-0.118909,1.403158,-0.427385,-1.78427
matrix,1.291623,0.891628,-0.338807,1.045501,-0.123879,0.130534,-1.125364,1.168898,-0.757697,0.086616,0.434309,-0.614605,-1.372572,-0.870824,1.021958,-0.640254,1.128909,-1.285832,-0.862712,-1.133149,0.563124,0.499648,-0.519903
mathematical,1.101752,1.752771,-1.537381,1.113921,-0.087828,-0.152904,-0.600393,0.527831,-2.076733,0.419758,0.390807,0.332375,-0.481828,-0.330717,0.337877,-1.280094,0.178252,-1.490815,-0.17182,0.398549,1.417952,0.277737,0.842304
method,1.222007,0.550568,-0.107743,1.104746,-0.48472,-0.092053,-0.097044,0.08872,-1.923272,1.215315,0.350672,-0.289636,-0.717591,-0.369147,0.353907,0.063769,0.285119,-1.1966,-1.00848,-0.413816,1.047493,0.885475,-0.642318
finite,0.592125,1.051505,-0.531782,1.232448,-0.332079,-0.054601,-1.440744,0.873438,-0.85431,-0.226037,1.577074,-0.814357,-1.347239,-1.604069,1.522824,-1.39814,1.379987,-1.783618,-0.838066,-0.973573,0.715852,0.891346,0.174384
result,0.257534,0.11765,0.235244,0.553909,-1.09096,0.15828,0.174054,0.775257,-0.471662,0.321977,0.172112,-0.787629,0.203454,-0.125468,-0.512057,-0.371751,-0.341413,-1.156803,0.571226,-0.222286,-0.145564,1.207835,-2.209471
vertex,-0.286404,0.479383,-0.290666,0.20175,0.74612,0.236315,-1.820424,2.199118,0.33441,-0.279334,1.187457,0.051335,-1.686756,-1.396092,0.853232,-0.163761,0.753591,-1.617463,-0.341771,-2.228065,0.772952,0.3697,-0.050971
term,0.623693,-0.429009,-0.692024,1.026937,-1.029217,-0.209118,-0.415089,0.16842,-0.832908,0.777461,0.421723,-0.4826,0.569949,-0.370549,0.117915,-0.127167,-0.193715,-0.6319,-0.074074,-0.335109,0.349652,1.135806,-0.985271
line,-0.925772,-0.602326,0.58865,1.103822,-0.3657,-0.002949,-0.918716,-0.081146,-0.073657,-0.41211,0.236885,-0.730348,-0.229587,-0.105047,-0.105001,-0.331592,0.058347,-0.032001,0.21388,-0.660828,1.031504,-0.69986,-2.010906
model,0.90981,1.257618,0.170544,0.87315,-0.450702,0.470418,-0.797024,-0.184276,-1.767738,0.196107,0.299756,-0.320144,-0.315768,-0.384283,0.244114,0.411675,0.264535,-0.472053,-0.670966,0.103251,0.760245,-0.4751,-1.163226
real,0.657106,0.140993,0.212003,-0.251036,0.123915,0.159128,-1.012701,0.065399,-1.609699,-0.256706,0.145704,-0.549696,0.708827,-0.401368,0.51395,-0.015976,0.10515,-0.147836,0.12182,-0.3168,-0.070438,0.855166,-1.189838
property,-0.359306,-0.983947,0.186914,0.761293,-1.459739,-0.855438,-0.118624,1.138845,-1.501756,0.47729,0.344453,-0.282706,0.13645,-0.643937,0.971098,-0.04491,0.645688,-0.670694,-0.377164,-0.354528,0.948949,0.520079,-0.833827
geometry,0.232305,1.882922,-0.305103,1.001984,0.317501,0.104472,-1.400149,0.505662,-1.220509,-0.072989,0.167012,0.315191,-1.147211,-0.957996,0.68093,-1.35449,0.621077,-1.616432,-1.000536,-0.555862,1.926562,0.321113,0.309821
complex,0.083436,-0.427843,0.027874,1.165314,0.165094,0.399491,-0.626506,0.942768,-1.05177,-0.082356,0.268409,-0.260111,-0.330245,-0.870209,0.988207,-0.289905,-0.499501,-0.758633,-0.654997,-0.086088,1.374884,0.200486,-0.979487
linear,0.439346,1.068557,-0.429734,1.467517,-1.058644,1.31271,-1.227863,1.35028,-1.118611,-0.49956,-0.274825,-0.162957,-1.382951,-1.135018,0.11612,-0.106671,0.603671,-1.050376,-0.905085,-2.192227,0.642073,-0.119273,-0.6358
polynomial,0.532147,0.959811,-0.724772,0.260112,-1.150816,0.388693,-1.846693,1.618302,-0.936805,-0.253136,0.918097,-1.129129,-2.159987,-1.094991,1.222172,-1.252778,1.994591,-1.678453,0.009028,-1.069802,0.046262,1.224463,1.353869
algorithm,1.637448,1.022268,0.243573,0.878643,-0.368964,0.163592,-1.11795,0.473424,-1.92006,-0.283784,0.883336,-0.6671,-1.460028,-0.488624,0.528586,0.526643,1.113103,-1.60669,-0.022074,-0.631769,0.423151,0.748029,0.714219
mathematician,0.470593,2.149483,-1.424156,-0.035375,-0.815702,0.115878,-1.529903,0.67848,-0.384787,0.554078,-1.585296,0.754815,-0.109682,-0.485463,0.037293,-0.294042,0.158524,0.208334,-0.214284,1.617852,1.288585,0.12031,1.866964
definition,1.030718,0.252052,-1.038986,1.554597,-0.565626,-0.406361,-0.620838,0.042585,-1.440783,0.259969,1.246226,-0.443686,-0.045132,-0.868174,0.332654,-0.10997,0.074809,-1.438544,-0.486841,-1.203663,0.255259,0.702925,-0.404607
product,0.788824,-0.471138,0.17906,0.903928,-0.397243,-0.378038,-0.181467,0.52056,-2.190842,0.614119,0.653453,-0.424687,-0.298959,0.025556,1.057037,0.931421,0.716505,-0.971745,-1.864765,0.286903,-0.365653,-0.161584,-2.008788
state,-0.009454,-0.33643,-0.517777,0.425465,-1.042867,-0.227531,-0.128191,0.79878,-0.257584,0.074721,0.759086,0.309583,2.060958,-0.550547,0.0939,0.130542,-0.125891,0.03631,0.578157,0.017762,0.858307,0.254239,-1.591761
sequence,1.172968,0.20442,-0.355025,1.242993,0.604463,0.385164,-0.348643,0.41951,-1.018449,-0.074956,0.286352,-0.601344,-1.538952,-0.839316,0.387573,-0.331671,0.376193,-0.416462,0.100124,-1.406868,0.279821,0.779123,-0.90017
distribution,-0.104147,-0.419679,-0.628288,1.63686,-1.367103,0.902031,0.181347,0.117516,-1.345733,-0.38251,-0.069712,0.303076,-0.591644,0.103148,0.575486,0.364779,0.50488,-1.282862,-0.99371,-0.79858,-0.568437,0.900981,-1.290702
variable,0.713394,0.824399,-0.196909,1.686745,-1.056133,0.905489,-0.385928,0.048824,-1.148308,0.262188,0.716999,-0.656732,-1.880156,-0.694579,0.449651,0.154883,0.59755,-1.505572,-0.41342,-1.476956,0.14516,0.821783,-0.831064
solution,1.244902,0.274035,0.495009,0.960001,-1.00711,-0.31266,-0.130774,0.404282,-1.63906,0.390995,0.211852,-0.761226,0.006867,-0.312546,0.939251,-0.054345,0.415522,-1.460527,-1.297216,-0.497894,0.421413,0.33218,-0.831707
square,-1.856512,-0.162285,0.020227,0.213488,-0.320674,0.17653,-1.320619,1.160397,-0.572185,-0.023472,0.093702,0.414994,-0.115986,-0.403722,-0.096692,-0.460638,-0.009804,0.321206,-0.07697,-1.345117,0.7879,-1.251125,-1.277385
map,-0.681582,-0.340977,-0.411459,1.803137,-0.440917,-0.25848,-0.518044,-0.195583,-1.075448,-1.290103,-0.352372,0.149576,-0.611483,-0.119563,0.950159,0.296317,0.04711,-0.952837,0.385488,-1.104896,1.21211,0.091756,-0.568104
class,-0.153972,0.830766,-0.534185,0.640853,-0.605164,0.159022,-0.455713,-0.232498,-0.456143,0.677205,1.294261,-0.285959,-0.1362,-0.263213,-0.203386,0.025083,-0.09897,-0.015609,0.49377,0.963654,0.696496,-0.540734,-1.643547
integer,0.670052,0.974987,-1.001018,0.727617,-0.749983,-0.162451,-1.639557,1.515911,-0.718734,0.070667,1.462481,-0.741,-1.984758,-1.112584,0.96957,-0.701439,1.90238,-1.217363,0.046781,-2.014052,-0.357053,0.290033,0.103418
mean,0.17293,-0.598578,-0.279291,1.052674,-0.47657,0.330502,-0.388295,-0.060198,-0.58477,1.052056,0.728174,-0.786985,-0.348126,-0.594425,0.720214,-0.305341,-0.586659,0.195967,0.045107,-0.808412,-0.273799,0.802449,-1.401789
proof,0.554748,0.604365,-0.088724,0.275643,-0.001183,-1.096852,-0.308285,0.193373,-0.952382,0.937631,0.748822,0.305299,-0.31,-0.644772,0.421038,-0.571811,0.952702,-0.891321,-0.181773,-0.961357,-0.046751,1.201896,-0.272345
three,-0.681043,0.001453,-0.051665,0.070714,0.116513,0.202628,-0.499867,0.45262,-0.358892,0.481203,-0.011382,-0.362989,-0.130832,-0.020957,-0.273906,-0.321483,-0.134272,0.409872,0.840674,0.024401,0.676949,0.174838,-2.327473
dimensional,0.866634,1.342403,0.140314,1.070493,0.958386,0.351178,-1.436561,0.624969,-1.296905,0.079762,0.472511,0.061877,-1.392524,-0.78693,1.300715,-1.105407,0.576812,-1.510474,-1.000437,-1.389291,1.518266,0.788537,-0.333902
zero,0.995707,0.831738,0.53173,0.566167,-0.168024,0.238172,-0.432998,0.520708,-0.725759,-0.166955,0.663618,-0.741644,-0.348562,-0.382164,0.842599,-0.710229,0.666674,-0.600887,-0.157181,-1.418363,-0.263037,0.336527,-1.507584
algebraic,0.541708,1.435611,-1.25173,0.927686,0.02596,0.192171,-1.922856,0.7063,-1.047057,-0.282125,1.171832,-0.399575,-1.066237,-1.445803,1.042254,-1.54437,1.129237,-1.74783,-0.962171,-0.104942,1.220521,0.672573,1.199027
formula,0.34659,1.416746,-0.296241,0.31326,-0.586968,0.014291,-1.208927,0.48538,-1.071719,0.032422,0.275325,-0.904336,-1.124055,-0.252624,0.284685,-0.938749,0.857366,-1.256978,-0.222788,0.364035,-1.114571,0.558079,-1.053125
ring,0.101568,-0.253674,0.268903,0.239018,0.90967,0.498821,-0.720353,0.562647,0.353924,0.341685,0.041935,-0.667966,-1.023068,-0.209923,0.775009,-0.826688,0.588896,0.067167,-0.22588,-0.3222,0.571836,0.884081,-1.633538
edge,-0.599858,-0.880123,0.702596,1.228775,0.539597,1.301688,-1.310038,0.316988,-0.276717,-0.289897,0.246422,-0.06893,-0.79859,0.02094,-0.341387,-0.553349,0.242678,-0.271337,-0.257455,-0.995177,0.765862,0.299813,-1.410844
sum,0.116365,0.476359,-0.331068,-0.13753,-1.279062,-0.190148,-0.655948,0.977142,-1.160794,0.833674,0.970892,-0.709697,-0.292944,-0.510151,0.975241,-0.99229,1.046263,-0.255021,0.05504,-1.297575,-0.591811,0.122682,-0.610763
plane,-0.021715,0.977873,1.46372,0.600273,0.295804,0.25192,-0.593162,-0.377074,0.613749,-0.099908,0.216141,0.043397,-0.44921,-0.207248,0.582141,-0.204076,0.085715,-0.674333,-0.131812,-1.382026,1.635685,0.513528,-1.510459
analysis,1.511016,1.045978,-0.84136,1.468309,-0.677836,0.222769,0.44067,0.119452,-1.972787,0.006436,0.203923,0.185813,0.080624,-0.734099,0.119353,0.00609,0.120635,-1.192124,-0.426923,-0.433564,1.040027,0.99929,-0.294383
dimension,0.482748,1.278133,0.11215,1.043374,0.312729,0.257309,-0.965253,0.076627,-0.995724,0.308824,0.825352,0.146771,-0.566305,-0.878639,0.640118,-0.97659,0.085573,-0.623184,-0.382195,-1.413132,0.776496,0.259168,-0.747823
curve,-0.850672,0.364457,0.972021,1.285241,-0.432209,1.106933,-0.954619,0.371014,-0.602215,-0.591402,0.750763,-0.003684,-1.087264,-1.021272,-0.36761,-1.043455,0.602692,-1.340435,-0.658939,-1.2757,0.880318,0.336001,-0.351632
type,0.169264,0.471246,-0.451303,1.774282,-0.183369,0.054562,0.118702,-0.473675,-0.675405,0.788911,0.656233,0.028853,-1.535777,-0.691816,0.440298,0.809091,-0.121514,-0.493328,-0.930118,-0.284702,0.54748,0.196093,-2.136822
operator,0.629537,0.250252,0.479559,0.627757,-0.788971,-0.386886,-0.900829,-0.287464,-0.289825,-0.209399,0.697836,-1.214371,-0.276846,0.312491,0.907172,0.419845,1.087927,-1.353517,-0.516429,-0.133345,0.890019,-0.475172,-1.042269
prove,0.489626,0.521713,1.182586,0.490115,-0.787324,-0.632237,-0.46356,-0.045393,-0.80431,1.193257,0.393694,-0.318193,0.103925,-0.31848,0.05561,-0.732324,0.078418,-0.441937,0.65471,-0.245893,-0.062519,1.406667,-0.726116
probability,1.435536,1.508564,-0.071966,1.073665,-1.207764,0.201546,-0.140382,0.899612,-1.40608,0.211241,0.756788,-0.318548,-0.947259,-1.213522,0.043338,-0.630392,0.368903,-1.387212,0.246946,-1.151059,-0.11348,1.021147,0.23621
structure,-0.681644,-0.811697,-0.344325,1.689943,-0.241258,-0.30621,-0.621813,0.784888,-0.93179,-0.043892,-0.149936,-0.319851,-0.654585,-0.732463,0.638906,-0.342913,-0.643769,-1.246495,-0.653786,-0.178701,2.061141,0.367464,-1.177718
representation,0.433547,-0.16042,-1.472213,1.059446,-0.389748,-0.216631,-1.540447,0.056971,-0.955831,0.273085,0.639745,-0.412979,0.361232,-0.322097,0.314274,-0.602142,0.127759,-1.34291,-0.164212,-0.82741,0.570906,0.891204,-0.137261
series,0.754572,0.610671,-0.011542,0.396003,1.224812,0.52679,-0.413975,-0.593754,-1.049978,-0.668503,0.095256,-0.16951,0.363582,0.519029,0.075568,-0.439987,0.510528,0.888293,0.705459,-0.241337,-0.456787,-0.099431,-2.108033
prime,0.621106,0.421821,-0.743105,-0.555855,-1.364717,-0.012546,-0.885419,0.150635,0.749037,0.153274,-0.697832,-0.862807,1.504214,0.897238,1.031061,-0.263793,0.446477,-0.500373,0.191046,-0.527751,0.018772,0.614461,-0.758815
measure,0.045663,0.471223,0.110394,0.798431,-1.546803,0.439453,0.473532,0.637479,-1.154762,0.956286,0.442835,0.115823,-0.129479,-0.55857,-0.386371,-0.226234,-0.236493,-1.30534,-0.48259,-1.660084,0.892492,0.436012,-1.39054
equal,0.092057,0.38677,-0.687217,0.531934,-1.269517,0.23835,-0.812682,0.975692,-0.620348,1.071164,1.042641,-0.543631,0.130674,-0.522939,-0.271138,-0.976166,0.200151,-0.964743,0.097778,-1.160463,-0.334034,0.512356,-1.309113
lie,-0.912575,-0.977374,0.308412,0.832429,-0.643323,0.14832,-0.255544,0.118581,0.194238,-0.008901,-0.002658,-0.406274,-0.016822,-0.851569,0.731835,-0.814075,-0.34832,0.649912,0.352986,-0.641078,0.933862,0.417865,-1.075815
manifold,-0.136645,1.020554,0.562312,0.51216,-0.14409,0.074685,-1.454044,0.434383,-0.404031,-0.273858,1.022289,-0.434583,-1.326074,-1.565793,0.833204,-1.437215,1.454837,-1.47522,-1.588114,-0.457035,1.09362,0.34695,0.652085
degree,-0.144158,0.601997,-1.087695,-0.068934,-0.673451,0.816903,0.400394,1.377389,-1.195835,0.664565,0.823148,-0.005797,0.215486,-0.660619,-0.444297,-0.737116,-0.664418,-0.818502,0.109109,0.50756,2.079347,-0.169922,-0.550076
differential,0.879628,1.500172,0.012243,0.9348,-0.713648,0.397955,-0.569293,0.606531,-0.832353,0.208278,0.627674,-0.776923,-1.459972,-0.974581,-0.398315,-0.66861,0.740172,-1.944295,-1.060442,-0.255852,1.045512,0.493398,0.058262
$\mathbb{C}$,-0.181281,0.991784,-1.051056,0.314805,-0.810861,0.536628,0.218002,0.100294,0.439785,-0.835145,0.292796,-0.258207,-1.260735,-0.758672,0.555237,0.391158,1.462374,-0.302263,-0.222879,0.067145,0.446824,0.035893,-1.926864
regular,-0.170134,-0.162224,-0.404572,-0.115593,0.596034,0.200502,-0.730196,0.828311,-0.237126,0.198213,0.720308,-0.316805,0.097166,0.250349,-1.060405,-0.389107,0.191566,-0.804037,0.70677,-0.011777,0.13439,0.008515,-1.99078
second,-0.337539,0.529283,-0.220498,-0.17251,-0.311551,0.100183,-0.496133,0.546971,-0.129099,0.093098,-0.262291,-0.580052,0.029321,0.19258,-0.590483,-0.58605,0.066989,0.304928,1.410936,-0.063153,-0.00588,0.197807,-2.228109
triangle,-0.428986,-0.068724,0.082464,0.498815,0.857989,0.597909,-1.440244,0.579632,0.52308,-0.866533,0.388124,0.058352,-0.210666,-0.403841,0.27193,-0.765107,0.209083,-0.89539,-0.489778,-0.958577,0.740759,0.339178,-0.31193
subset,0.490257,0.159058,-0.859057,0.898203,-0.132505,0.25282,-1.372001,0.93592,-0.762398,-0.177889,1.866511,-0.745294,-1.326168,-1.592784,1.081709,0.565838,0.168813,-1.592109,-0.649527,-1.196841,0.041079,0.704986,-0.029447
circle,-0.431621,-0.422804,-0.20461,0.68191,0.688861,0.119937,-1.163841,0.008056,-0.193148,0.053537,-0.030757,-0.017788,0.300241,-0.146921,0.087952,-1.056442,-0.351806,-0.038976,-0.089503,-0.569292,1.027979,0.07938,-0.625279
relation,0.660665,-0.024185,-1.140179,0.886852,-1.364912,-0.30485,-0.430689,0.035635,-0.493486,-0.016109,0.066994,-0.658506,1.604032,-0.123589,0.952496,-0.54438,-0.643517,-1.093688,0.184389,0.044939,0.638447,1.206613,-0.386725
positive,1.537759,0.24879,-0.249565,0.52779,-0.280647,0.906541,-0.000621,0.55292,-1.210282,0.395833,0.737025,-0.785504,0.601476,-0.91252,-0.565104,-0.797131,-0.019892,-0.220351,-0.319119,-1.269719,-0.289306,0.945665,-1.1147
simple,0.372096,-0.330345,-0.140655,0.906623,0.336691,0.030888,-1.318404,-0.494786,-1.454735,1.34707,0.566252,-0.913874,-1.147756,-0.567428,0.058437,-0.476586,0.294513,-0.383368,-0.912011,-1.305661,0.628581,0.724523,-0.945553
topology,0.755926,0.597705,-0.391319,0.964163,0.065143,0.205767,-1.428033,0.713305,-0.936681,-0.656285,0.848624,-0.615694,-1.34832,-1.030354,1.132978,-0.928492,1.219059,-1.671857,-0.845391,-0.425617,1.125162,0.207095,1.078999
category,0.14924,0.264661,-1.196709,0.523525,-0.013407,0.858113,-0.245519,-0.066084,-1.282808,0.014277,0.938955,-0.463147,0.105985,-0.23264,-0.242662,-0.309805,-0.622586,-0.87054,-0.120211,0.147129,-0.217738,0.107257,-1.288353
surface,-0.280334,0.449703,1.374326,1.331184,-0.180708,1.204111,0.088136,0.31372,-0.562163,0.563688,-0.287512,0.18066,-1.36078,-0.432853,0.415808,-0.391054,-0.188453,-1.026842,-1.394522,-1.2763,1.546676,0.812791,-1.905934
constant,0.603829,0.829802,0.497162,0.769375,-1.16981,0.064059,-0.175839,-0.115748,-0.445336,0.572027,-0.172603,-1.196319,-0.553609,-0.824064,0.078423,-1.174623,0.203684,-0.696857,-0.400234,-1.315171,0.595005,0.977102,-0.705378
application,1.543927,0.367143,-0.298054,0.814224,-0.527367,-0.403452,0.20111,0.14918,-2.347462,0.534442,0.536076,-0.638315,-0.498384,0.085878,0.595825,1.155588,0.529446,-1.625798,-1.048899,-0.6996,1.020066,-0.281029,-1.266954
integral,0.296073,0.65591,-0.319487,0.763114,-0.326618,0.10272,-1.251462,0.260492,-0.715349,0.036998,0.314287,-0.780327,-0.464636,-0.468317,0.816161,-0.959368,0.010663,-1.609352,-0.896591,-0.390225,0.840322,0.423756,-0.174116
coordinate,0.611003,0.342538,-0.27803,0.65639,-0.605641,0.418777,-0.532436,0.615326,-0.225307,-0.424981,0.394225,-0.363031,0.461482,0.087146,0.851957,0.267257,-0.277177,-1.9655,-0.58566,-0.932575,1.707328,0.24675,-0.561539
complete,-0.753698,0.128181,-0.310199,-0.088591,-0.170889,-0.709058,0.100276,0.332459,-1.120799,0.121496,-0.092781,-0.354839,-0.11269,-0.090231,0.066628,-0.488035,0.088657,-0.122449,0.914878,-0.047595,1.389973,-0.373013,-1.423663
root,0.429663,-0.946923,-0.698637,1.491211,-0.063414,0.662428,-0.904628,0.389199,-0.240997,0.289913,0.418529,-0.120035,-0.184397,-0.956899,0.361953,-0.360196,-0.136264,0.151318,-0.812036,-0.190073,-0.070214,0.963225,-0.848124
length,-0.88131,0.206876,-0.052583,1.180316,-0.334972,1.19544,-0.387514,0.172172,-0.468678,0.381528,0.291702,-0.018254,-1.32154,-0.412543,-0.420547,-0.486701,0.039901,-0.078896,-0.20113,-1.813536,0.282455,0.063742,-2.090453
continuous,0.144907,-0.028135,0.437496,1.208828,-0.40785,0.05357,-0.22614,0.310896,-0.707422,0.338962,0.361727,-0.752683,-0.541976,-0.379719,0.062378,-0.764131,-0.158131,-1.53591,-0.683096,-1.231341,1.035852,0.263255,-0.96908
logic,1.917055,1.084764,-0.895037,1.600691,0.436027,-1.120057,-0.86905,-0.231091,-1.214542,0.210694,1.137238,-0.501959,-0.409785,-0.813967,0.248619,-0.533585,0.870317,-0.812709,-0.148772,-0.332776,0.515971,-0.134358,0.739957
external,-0.078647,0.258415,-1.555641,0.408977,0.259645,0.392293,0.482218,-0.240394,-0.774986,-1.291664,-0.759005,0.137742,0.237094,0.10504,0.093344,0.215889,-0.095855,0.340109,0.167396,0.794994,0.282076,-0.427651,-1.587191
side,-0.917611,-0.943936,0.659229,0.419558,0.189397,0.405256,-1.108856,0.316125,0.276504,0.174371,0.039382,-1.057832,-0.506142,-0.06895,-0.274466,-0.559502,-0.460193,0.110058,0.499952,-0.214439,0.640036,0.320092,-2.182311
unit,-0.005744,0.894753,0.353864,1.249725,-0.963448,-0.111809,0.077631,-0.088691,0.194058,0.49532,0.869927,-0.025702,0.064193,0.009606,0.455143,1.049498,-0.302034,-0.65023,-0.114735,-0.353617,1.491031,-1.295725,-2.272481
equivalent,-0.004473,0.83733,-0.907929,0.622582,-1.129708,-0.17723,-0.476494,0.611349,-0.698344,1.117515,0.866622,-0.497631,-0.749516,-0.509279,0.325513,-0.043898,-0.115629,-0.828105,-0.422319,-0.692258,-0.067847,-0.457939,-1.148878
conjecture,0.273243,1.27526,-0.024224,0.452188,-0.508924,-0.048841,-1.452114,1.05954,-0.630924,-0.078575,0.295296,0.394848,-0.817312,-1.008502,0.962808,-1.838558,1.431619,-1.060085,-0.321652,-0.498458,-0.140383,1.225881,1.796811
infinite,0.996522,0.766812,0.319322,0.959172,1.162383,-0.22183,-0.931122,0.703933,-0.816464,-0.225799,0.955368,-0.356421,-0.72483,-0.690574,1.234626,-1.833454,0.661473,-0.641057,0.28601,-1.514889,-0.019935,0.632045,-0.281847
operation,0.276421,0.096149,1.119488,0.731283,-0.517743,-0.758633,0.24989,-0.559106,0.154885,-0.002181,0.499733,-0.449913,0.670752,0.710944,0.926613,0.820533,0.022287,-1.119837,0.213218,-0.045553,1.449322,-0.230073,-2.0774
angle,-0.199039,0.634039,0.743064,1.070935,0.149652,1.418938,-0.962191,0.295558,0.18204,0.540175,0.167531,-0.202448,-1.233948,-0.160147,-0.551636,-0.78732,0.161276,-0.973487,-0.392049,-1.868868,1.327585,0.590774,-1.056726
random,1.271132,0.307775,0.089312,1.00916,0.415876,-0.126834,-0.330825,0.014388,-1.263968,-0.238285,0.511023,-0.201355,-0.652608,-0.490725,0.116601,-0.351916,0.979914,-0.570934,0.019102,-1.318084,-0.096482,0.774151,-0.451688
basis,0.22316,0.333877,-0.583978,0.765403,-0.75208,-0.386311,-0.154657,0.400136,-0.616776,0.704008,1.129194,-0.090688,0.40551,-0.38459,0.097923,-0.099388,-0.243088,-1.092387,0.13528,-0.392974,0.611881,0.423368,-1.26101
natural,-0.518578,-0.51315,-0.150325,1.535372,-0.688782,0.370802,0.508333,0.158462,-1.661522,-0.068401,0.085962,0.51842,-0.102108,-0.891148,0.858651,-0.585406,-0.508048,-0.447665,-0.610243,0.281734,0.578707,1.084497,-0.853716
power,0.622276,0.366911,1.119317,0.922257,-0.85244,-0.569805,-0.564568,-0.194724,-0.555979,0.610381,0.418709,-0.588543,0.677916,0.078174,0.797976,-0.037961,-0.013195,0.025114,0.323498,-0.509945,0.429771,-0.249181,-1.994144
area,-1.542981,-1.531155,0.637354,1.524502,-1.321494,0.761499,0.115294,0.599624,-0.776994,-0.299886,0.255588,0.115658,0.450941,-0.465487,0.501811,0.501588,-1.338461,0.042551,0.111484,0.004841,1.383045,-0.536449,-1.69049
open,-0.848289,-0.98114,0.209415,-0.021316,0.186183,-0.080195,-0.457006,0.161409,-0.976764,-0.392582,-0.037795,-0.676561,0.243785,0.248161,0.045798,-0.192632,-0.165194,-0.1439,0.161476,0.366338,0.902814,-0.361892,-1.959652
solve,1.200311,0.875951,0.783184,0.491655,-0.290521,-0.156307,-0.591231,0.213279,-1.413204,0.74854,0.797772,-0.531058,0.003216,-0.623683,0.839857,-0.355817,0.232876,-0.834868,0.064071,-0.507662,0.590139,0.902202,0.077516
pair,0.051133,0.427991,0.303196,0.076674,0.269031,0.990797,-1.023013,0.671193,-0.007351,0.845172,0.157124,-0.655371,-1.393122,-0.306947,-0.119987,-0.268931,0.236557,0.20381,-0.003383,-0.260797,0.306105,0.557077,-1.765709
hold,-0.571067,-0.313436,-0.376463,-0.463054,-0.295547,-0.49658,-0.294653,0.573519,-0.465315,0.394864,0.169253,-0.4497,0.74579,0.49492,-0.046984,-0.365614,-0.340032,-0.190631,1.099885,0.363223,0.485036,0.260672,-1.805643
limit,0.087559,-0.29203,0.341089,0.860455,-1.102765,0.154164,0.320387,0.251409,-1.162253,0.311664,0.755147,-0.448694,0.230501,0.151759,0.297382,-0.10044,0.356752,-0.853304,-0.265375,-0.434858,0.140123,-0.040172,-1.687749
special,0.436592,-0.074774,-0.72568,-0.268009,0.456429,0.1313,-0.041344,-0.324153,-0.76514,0.390774,0.526587,-0.394715,0.664254,0.65208,0.351333,0.03674,0.438128,-0.059471,0.132015,-0.166236,0.765059,0.104722,-1.832998
generate,0.94971,0.294064,0.720304,1.275675,-0.546266,-0.089032,-0.197414,0.750906,-1.489901,0.390717,0.285873,-0.325884,-0.304982,-0.649449,0.231407,0.147746,0.303017,-1.071071,-0.965053,-1.340677,0.116117,-0.005109,-1.481801
coefficient,0.793079,1.431077,-0.22264,1.058776,-1.744956,0.906075,-0.67687,1.376421,-0.475873,0.344004,0.389511,-1.001074,-1.623904,-0.373785,0.395869,-1.526655,1.087026,-1.831529,-0.625814,-1.004192,-0.28973,0.455637,-0.013641
standard,0.394836,0.332616,-0.884221,1.136851,-0.454874,-0.370842,-0.59826,-0.489066,-1.334834,0.946464,0.944372,-0.663754,-0.407826,0.29481,-0.250733,0.786506,0.217156,-1.082955,-0.494761,-0.330759,0.310114,-0.870748,-1.86649
identity,1.312978,-0.377505,-0.707782,0.78372,-0.087043,-0.268853,-1.061078,-0.114228,-0.778717,0.403017,0.717197,-0.491452,0.916235,-0.827932,0.805038,0.163212,-0.53755,-0.109145,0.187969,-0.503685,0.039248,1.238546,-0.169858
four,-0.727782,0.154412,-0.071907,0.110926,0.112538,0.123692,-0.55601,0.368763,-0.275477,0.393381,0.258431,-0.236541,-0.172128,0.054374,-0.374225,-0.233828,-0.079156,0.344866,0.764587,-0.029542,0.602837,-0.115654,-2.333081
rule,0.368044,-0.015711,-0.855355,0.546558,-1.122555,-0.952582,-0.857333,0.494721,-0.157286,0.877259,0.556953,-0.856187,0.64006,0.082126,0.676017,0.072235,-0.373448,-0.544847,1.481784,-0.305035,-0.329254,0.892132,-1.079612
topological,0.618705,0.650282,-0.158844,0.978879,0.47087,-0.084151,-1.213634,0.998622,-0.635896,-0.507129,1.245993,-0.410571,-1.154375,-1.437626,1.663352,-1.645781,1.111931,-1.853751,-1.218356,-0.685213,1.13043,0.715279,0.869205
computer,2.046207,1.048309,-0.170987,0.665334,0.673767,-0.045841,-0.524081,0.023177,-2.386447,0.31257,0.2454,-0.327581,-0.035441,0.446182,0.408941,1.418258,0.251061,-0.318955,-0.296795,0.280981,1.212142,-0.981903,-0.846579
derivative,0.965408,0.662447,-0.451204,1.304328,-0.859237,-0.452966,-0.659092,0.392013,-0.487722,0.390062,0.682484,-0.502635,-1.101907,-0.947971,0.999464,0.118841,0.837765,-1.148539,-1.55158,-0.231311,-0.710569,0.294523,-0.726596
symmetry,0.724269,0.981792,-0.361665,1.395381,0.727503,-0.108664,-1.056654,1.474466,0.209119,0.08088,0.519002,-0.072085,-1.216102,-1.262344,0.364751,-1.852965,0.217217,-1.538807,-0.884172,-1.170585,0.651223,0.303024,0.074586
compact,-0.126389,0.29845,0.281867,1.12489,0.162728,-0.06898,-1.394759,-0.037499,-0.518074,-0.164588,0.545404,-0.163779,-0.863761,-0.24279,0.614681,0.062278,0.759677,-1.291976,-1.333382,-0.784427,-0.044725,-0.300987,-1.173844
factor,1.603929,0.173558,0.019454,1.38329,-0.932528,0.663112,0.766562,0.586243,-1.081773,0.411424,0.750941,-0.804626,-0.188982,-1.016688,-0.185257,-0.034563,-0.39325,-0.984277,-0.375645,-0.428397,0.015583,0.951807,-1.169535
family,-0.615155,-0.514829,-0.746787,0.315634,-1.227946,0.212913,-0.037332,0.474064,-0.64173,0.676556,-0.10732,0.455866,0.280678,-0.920289,0.544155,0.705151,-0.199921,1.839772,0.632599,0.441843,0.045717,0.459872,-0.933433
transform,0.638163,-0.350979,0.571845,0.819547,0.229067,-0.087459,-0.700142,0.215817,-0.733417,0.233134,-0.044372,-0.714297,-0.173735,-0.341183,1.415968,-0.680672,-0.295622,-0.38451,-0.443046,-0.188876,0.552091,0.739447,-0.424427
convex,-0.848786,0.35671,-0.06527,0.674542,0.239263,1.277834,-1.789726,1.132856,-0.079339,0.309182,1.058683,0.744892,-1.501319,-1.233954,-0.204436,-0.893576,0.71564,-1.956697,-1.076017,-1.606548,0.63312,1.33063,0.326018
domain,1.113382,-0.179962,-0.708344,1.140103,-0.519836,-0.697118,-0.253152,0.975392,-0.721735,-0.071525,0.214307,-1.007408,-1.019884,-0.617085,1.587674,0.856367,-0.210224,-1.007262,0.023284,-0.490192,0.655796,0.406207,-0.588892
subgroup,0.1113,0.133115,-1.038115,1.657057,-0.587619,0.798527,-1.238564,1.022422,0.905464,-0.395955,1.30305,-0.135414,-1.014363,-1.285635,1.476892,-0.495297,-0.16913,-1.000523,-0.578472,-0.208807,-0.08277,0.357793,0.507365
construct,-1.392743,-0.596502,0.534478,0.873796,-0.643586,-0.685105,-0.938418,0.419614,-0.950385,0.512425,0.05654,-0.032973,-0.461574,-0.210645,0.840493,-0.263377,0.042542,-0.290604,-0.081498,-0.464881,1.892294,-0.359565,-0.84028
axiom,0.931364,0.995714,-0.23833,0.666541,0.123474,-1.423491,-1.266672,0.734559,-0.630675,-0.286528,1.329357,-0.641283,-0.892245,-1.501517,0.777087,-1.124992,0.951345,-1.62618,-0.034267,-0.349431,-0.651236,0.480108,1.026146
construction,-1.392861,-0.298286,0.662135,0.496214,-1.041996,-0.928668,-0.529425,0.066141,-0.985241,0.394223,-0.003714,-0.11358,0.134646,0.081115,0.801175,-0.14535,0.034868,-0.819102,-0.345386,-0.261371,1.712972,-0.705992,-1.289751
therefore,0.622362,-0.230479,0.321451,0.978086,-1.175722,-0.490996,-0.29607,0.60142,-0.729466,1.285628,0.567102,-1.12973,-0.445988,-0.741378,0.620201,-0.218505,-0.664775,-0.583564,0.270147,-0.720666,0.179703,1.273627,-1.210784
compute,1.561783,1.05198,-0.241726,0.921452,-0.14184,0.417684,-0.79626,1.012647,-2.0829,-0.050177,0.647442,-0.55418,-1.065771,-0.033956,0.736854,0.516788,0.577108,-1.463456,-0.234984,-0.711808,0.731533,-0.433606,0.032126
normal,0.367174,-0.169765,0.222593,0.593639,-0.057894,0.755729,0.307225,0.6206,-0.51905,0.597911,0.963202,-0.895544,-0.749265,-0.899163,-0.102253,-0.250995,-0.362513,-0.782549,-0.38824,-0.529434,0.755844,0.636658,-1.36808
distance,-0.292098,0.711795,0.638301,0.881051,-0.904348,1.167372,-0.55571,0.56028,-0.548309,-0.057024,0.007676,-0.616054,-0.39645,-0.304238,-0.231512,-0.58899,-0.873983,-0.40312,0.295699,-0.585256,0.680427,-0.412512,-1.340252
notation,0.906781,0.849143,-1.648258,1.222444,0.307322,-0.671881,-1.785059,0.380867,-0.454809,0.595064,0.578688,-0.677922,-1.750726,-0.480858,-0.023855,-0.513535,0.693554,-1.145898,-0.457608,-0.924826,0.135419,-0.096801,0.318724
parameter,1.541449,1.326803,-0.038201,1.325216,-1.102592,0.674821,-0.279958,0.612391,-1.317852,0.217753,0.655892,-1.006791,-1.644949,-0.57606,0.756853,-0.130071,0.760227,-1.86229,-0.68709,-1.963209,0.55249,0.588835,-0.240766
euclidean,-0.233147,1.17408,-0.287488,0.477113,0.41726,-0.038233,-2.230218,1.323633,-0.590161,-0.457697,1.245076,0.358698,-0.992175,-1.77309,1.08271,-1.433822,0.887342,-1.907639,-0.76653,-1.573636,1.329308,0.605968,0.681992
symmetric,0.691805,0.620615,-0.116681,0.805075,-0.009791,0.348673,-1.963782,1.397819,0.23596,-0.511634,0.788892,-0.724585,-1.33336,-1.060844,0.680628,-0.691378,0.726573,-2.168435,-0.869365,-1.38039,0.611212,0.569118,0.416532
metric,0.058602,1.355706,0.038552,0.475027,-1.119136,0.141292,-0.512037,0.845232,-1.494099,0.385831,0.703078,0.210578,-0.584461,-0.514242,0.605227,-0.529503,0.630885,-1.572308,-1.229236,-1.435957,-0.275799,-0.243898,-0.137916
test,1.232237,1.00521,0.277571,0.421002,-0.475412,0.511291,0.994786,0.148978,-0.949177,1.002575,0.891926,-0.437156,-0.576811,0.236187,-0.521072,0.273433,0.363696,-0.89958,0.3387,0.060163,0.671581,0.45868,-1.731327
bundle,0.564845,-0.26797,-0.049351,0.346415,0.743626,-0.042666,-0.910709,0.561313,-1.019215,0.031736,0.729314,-0.534041,-1.721697,-0.325143,1.038717,0.457304,1.020682,-0.991211,-0.891533,-1.270869,-0.162838,0.200023,-0.470978
center,-0.340753,-0.328452,-0.20264,-0.005337,0.355735,0.632818,-0.01238,1.275768,-0.843146,-0.957563,0.311431,0.733128,1.259022,-0.442439,-0.329303,0.419149,-0.608203,-0.335263,-0.380001,0.261961,1.76644,-0.791795,-1.579681
symbol,0.087769,-0.520543,-1.540575,1.25524,0.892505,-0.58876,-1.274422,-0.02904,-0.109853,0.759567,0.621266,0.106093,-0.523668,0.079674,1.144944,-0.094379,-0.561912,-0.751364,-0.207411,-0.78065,-0.146673,0.462443,-0.774539
projective,-0.069715,1.154052,-0.456409,0.216494,0.579241,0.440299,-1.565891,0.546824,0.099147,-0.195404,1.856174,0.135806,-1.190645,-1.70346,1.227718,-0.979555,0.864863,-1.858728,-1.134291,-1.280797,1.262829,0.895498,0.994872
sphere,0.340907,0.499955,-0.095822,1.044176,0.304422,-0.028567,-1.167413,0.653688,-0.378651,0.24476,-0.116753,0.236836,0.020032,-0.242838,1.26438,-1.019977,-0.496163,-1.131982,-0.747889,-0.976525,0.562497,0.860621,-0.236734
interval,0.089843,0.241947,0.050512,0.714214,-0.668554,0.462956,-0.224395,0.600678,-0.422394,0.263162,0.452495,-1.184937,-1.510546,-0.648398,-0.58947,-1.086408,0.000516,-1.333705,0.215999,-1.95915,0.349847,0.193782,-0.716864
single,0.355222,0.109475,-0.119359,0.123784,0.729391,0.712155,-0.647059,-0.139126,-0.502322,-0.186931,0.116218,-0.81661,-0.417373,-0.214635,-0.184048,-0.200894,0.618514,0.60295,-0.124301,-0.688191,-0.232718,0.003073,-2.779916
geometric,-0.393451,1.010982,-0.558972,1.294357,0.494361,0.240723,-1.915119,0.516999,-1.692819,0.689918,0.150454,0.584838,-1.210288,-0.609336,0.602102,-1.273352,0.066476,-1.449417,-1.213057,-1.114665,1.12562,0.601565,0.592745
ideal,0.248508,-0.019796,0.09462,0.873046,-0.182996,-0.114136,-1.185937,-0.057187,-0.907451,0.829045,0.675156,-0.424337,0.330124,-0.929704,0.627601,-1.276509,-0.56015,-0.483083,-0.939661,-0.334354,0.310148,0.63202,-0.237842
dual,0.573142,0.531682,-0.264281,0.598779,-0.051951,0.421412,-1.242248,0.3928,0.021048,0.513653,0.987735,-0.859424,-0.699308,0.160525,-0.134607,0.315066,0.085355,-1.07074,-0.544526,-0.374154,0.87087,-1.000846,-1.193195
module,1.182037,1.052478,0.287727,0.374536,0.423173,-0.214403,-0.536201,0.169076,-1.183289,0.045938,1.003556,-0.939053,-1.452097,-0.12062,1.170579,1.023897,0.69224,-1.235561,-0.74542,-1.049169,1.257671,-0.722085,-0.715797
invariant,0.559117,1.231911,-0.126065,1.022349,-0.670085,0.019074,-1.596004,0.985643,0.123771,-0.373474,0.657879,-0.560961,-1.194292,-1.394582,1.263971,-1.359216,1.194212,-1.786487,-0.786857,-1.180585,1.032897,0.625982,1.114946
$\mathbb{Q}$,0.833708,0.620073,-0.83366,0.307703,0.031438,0.852862,-0.52067,0.537672,0.160683,-0.818151,0.496448,-0.790819,-0.904923,-0.034478,0.572181,-0.361407,0.903543,-0.293252,0.047406,-0.671971,-0.375431,0.092013,-0.793185
index,0.440812,0.433133,-1.448721,1.150745,-0.755964,0.088109,0.441342,0.490997,-1.425153,-0.296573,0.223393,0.278265,-0.391622,-0.164651,0.241521,-0.147835,0.364249,-1.207229,-0.481981,-0.816682,0.061683,-0.093896,-0.468241
information,1.410473,-0.091082,-0.582497,0.833019,-0.421833,-0.29399,0.401013,-0.270302,-1.808778,0.135707,0.422917,-0.426182,0.580901,0.274891,0.498142,1.218238,-0.232611,-0.827333,0.108555,-0.344775,0.990548,0.252535,-1.014974
transformation,0.933527,0.246059,-0.361125,1.177238,-0.046944,-0.202123,-0.341634,0.064798,-1.042612,-0.181975,0.210821,-0.569839,0.099345,-0.688935,1.024312,-0.986795,-0.126245,-1.030135,-0.676513,-0.193789,0.651561,0.667958,-0.033707
extension,-0.486098,-0.782418,-0.128571,0.74677,-0.427436,-0.218735,-0.79352,0.623577,-0.901815,-0.617256,0.868433,-0.744166,-0.456591,-0.314005,0.164869,0.279821,0.435796,-1.324038,-0.080843,-0.530841,1.256501,-0.516577,-0.826892
direct,0.96663,0.416071,-0.00336,-0.665837,-0.050108,0.525925,-0.426316,-0.79223,-0.582462,-0.18559,-0.62558,-0.878393,0.930085,-0.108998,0.621034,-0.232442,0.60488,0.810687,-0.613184,-0.261999,0.64442,0.727584,-0.983833
uniform,-0.321796,-0.042848,-0.471726,0.406883,0.591558,-0.366288,-0.995121,-0.015865,0.015771,1.454964,1.079982,0.320701,-0.546646,0.362194,-0.222323,0.007635,0.340761,-1.370013,-0.394893,-0.406635,0.607297,0.677834,-1.400192
path,-0.046834,-0.494977,0.783378,1.095323,0.147802,0.392284,-0.546419,0.068703,-0.644177,-0.354521,0.733288,-0.757454,-0.131844,-0.542099,0.561388,-0.810661,-0.574899,-0.304375,0.273439,-0.999818,1.20697,-0.004841,-0.753614
negative,1.657642,0.128268,-0.005623,1.019849,-0.734128,0.427211,0.199374,0.381944,-0.792653,0.89415,0.452915,-0.644935,0.412063,-1.117381,-0.296267,-0.546847,-0.023027,-0.398814,-0.728099,-1.616484,-0.253178,1.205803,-0.992112
image,0.514232,-0.096122,-0.570915,0.842917,1.071595,0.153717,-0.410093,-0.340349,-1.568287,0.088279,-0.50446,0.218064,-0.473918,-0.001299,0.270242,0.025753,-0.349127,-0.036375,-0.275807,-1.463304,1.005653,0.594309,-0.988785
member,0.260066,-0.42556,-1.21776,-0.42481,-0.649387,-0.073952,-0.27097,0.222717,0.086378,0.37212,-0.225111,-0.444196,1.491969,0.399546,-0.101129,0.555202,-0.238637,0.320494,0.626513,1.313617,0.79867,0.408262,-1.396118
inverse,1.124187,0.791172,-0.209645,1.049286,-0.865195,0.655255,-0.749426,0.971483,-0.500458,-0.325801,0.862484,-1.148678,-1.460537,-0.716879,1.088998,-1.068195,1.019443,-1.691086,-0.62967,-1.608154,0.473518,0.643799,0.714709
step,0.460574,-0.291638,0.348374,-0.090654,-0.118735,0.105065,-0.602815,0.38801,-0.732216,0.562918,0.392432,-1.048134,-0.04886,-0.197037,0.191227,-0.458875,0.464208,-0.350759,-0.060515,-0.686191,0.712332,0.801929,-1.257226
independent,0.512135,-0.452319,-0.817156,0.626089,-0.840736,-0.009627,-0.962238,0.187248,-0.520288,-0.02716,0.338955,-0.581725,1.448708,0.384255,0.063128,0.174832,0.036823,-0.377424,0.193459,0.258446,0.483423,-0.044641,-1.120136
arithmetic,0.729234,1.244039,-1.197268,0.868167,-0.163854,-0.696066,-1.293976,0.696125,-1.282755,1.028088,1.346192,-0.503627,-1.694643,-0.860679,0.336833,-0.681223,0.9119,-1.244812,-0.193744,-0.67571,0.459155,-0.23504,0.933144
position,0.170986,0.5046,-0.071382,0.11472,-0.845034,-0.121368,-1.026842,0.459234,0.175145,0.820432,0.354466,-0.799485,0.46942,0.002646,-0.382062,-0.118233,-0.35957,-0.761426,0.861228,0.26989,0.984886,0.737574,-1.578627
calculus,0.873371,1.172379,-0.960371,0.642247,0.013964,-0.41076,-0.70801,0.562263,-1.141551,0.148173,1.047228,-0.185744,-1.306818,-0.799263,0.508402,-0.719104,0.897054,-1.545622,-0.094479,0.328654,0.799937,0.480336,1.424006
rational,1.181522,0.73557,-0.271474,0.97043,-0.437184,-0.418625,-1.008924,0.040141,-1.348647,0.514009,1.730486,-0.330853,0.248348,-1.398027,0.418635,-1.127688,0.184515,-1.113981,-0.274891,-0.613289,0.149591,0.9762,0.816403
law,0.437551,-0.427953,-1.323145,-0.135282,-1.427972,-1.069954,0.294537,0.374075,-0.774276,0.731192,0.77389,-0.091971,1.747722,-0.391625,0.437267,0.17615,0.192093,-0.110034,0.733973,0.229139,0.952636,0.886838,-0.592013
tree,-1.11526,-1.390419,0.094185,1.27694,0.280415,1.025037,-0.176523,0.164112,-0.918412,0.225976,0.072159,0.642331,-0.972774,-0.523304,1.103222,-0.082586,-0.106793,0.663877,-0.287173,-0.497522,-0.011156,1.151971,-1.220027
component,1.083857,0.278301,0.068132,1.630902,-0.389662,0.069503,-0.407348,0.354604,-0.981116,0.79034,0.549101,-0.574853,-0.844259,-0.143202,0.675895,0.660287,-0.132177,-1.542216,-1.404974,-0.47586,1.121649,-0.191401,-1.642473
lattice,0.100018,0.51612,0.312076,1.042582,0.177247,-0.156329,-1.315251,1.598236,0.012141,-0.2481,0.305537,-0.201222,-1.632877,-0.876956,1.047898,-1.322864,1.083484,-1.833823,-1.278723,-0.929178,1.148834,0.088278,0.175351
inequality,0.867322,0.477949,-0.195142,0.735546,-1.969256,0.414509,-0.283374,0.869,-0.941753,-0.070999,0.866071,-0.098825,1.184834,-1.399653,0.030059,-1.256194,0.070361,-1.513025,-1.222362,-0.76454,-0.485926,1.105166,1.045106
volume,-0.18334,1.017708,-1.423745,1.00958,-0.019624,-0.843362,0.923438,-0.556875,-1.286627,-0.261846,-0.460396,0.636406,-0.473023,-0.621471,0.012762,-0.895176,0.520982,0.386044,0.120317,-1.098432,0.607724,-0.283185,-1.024495
section,-0.948503,-0.225566,-0.645874,0.719894,-0.273303,-0.1505,0.015117,-0.11186,-0.26934,0.089383,0.899998,-0.22637,0.040074,-0.398428,-0.156092,-0.18816,-0.210518,-0.489572,0.051631,-0.723487,1.441969,-0.546809,-1.581319
add,-0.119507,-0.370836,0.052379,0.343268,0.015135,-0.424292,-0.810897,0.188575,-1.210011,0.705863,0.282395,-0.350117,-0.308055,-0.062982,-0.385452,0.277835,0.541611,0.045193,-0.025245,-1.031719,0.24753,-0.239494,-1.813895
$\mathrm{e}$,-0.410637,0.762458,-1.478228,-0.746595,0.121784,0.198059,-0.192923,-0.380779,-0.427717,-1.098269,-0.096762,-0.658708,-0.375021,-0.549158,1.633863,0.699459,0.076203,0.222315,-0.3345,-0.583645,0.364693,-0.222335,-1.274536
fundamental,1.33647,0.674559,-0.779276,1.085019,-0.239219,-0.52292,-0.323857,0.467633,-1.239448,0.455859,0.818463,-0.361502,0.466524,-0.584557,0.758794,-1.113538,-0.298062,-1.457171,-0.548963,-0.341804,1.024409,0.865042,-0.017594
game,0.625332,0.722409,0.315372,0.384348,1.4823,0.35565,-0.775805,0.436328,-1.171832,-0.451827,0.846002,0.233734,0.490011,0.450593,-1.130064,-0.137347,-0.08752,0.126518,1.664981,0.384087,-1.439876,-0.051669,-3.076014
polytope,-0.282111,0.761422,-1.165126,0.444401,2.168147,-0.843699,-1.130394,1.888826,1.35889,-0.586366,1.553798,1.646378,-1.491856,-1.475344,0.184476,-0.916037,1.08225,-1.418674,-0.206169,-0.886472,0.901958,-0.39317,1.223147
smooth,-0.430571,-0.612033,0.168344,1.080359,0.196179,1.885913,-1.107876,-0.10515,-0.340309,0.394741,0.25473,-0.348292,-1.566967,-0.437363,-0.223752,-0.559998,0.589229,-0.648879,-1.331557,-1.171003,0.180596,1.24177,-1.001317
partial,-0.070809,-0.180887,-0.272246,0.546765,-0.251362,-0.118364,0.240719,0.335875,-0.376986,-0.207145,0.250315,-0.377245,-0.329074,-0.799048,-0.1382,-0.501053,0.190397,-0.947905,-0.42007,-1.044647,0.689404,0.636339,-0.714477
extend,-0.905528,-0.808178,0.01139,0.837351,-0.602411,0.128318,-0.550073,0.32462,-0.413348,-0.309352,0.44636,-0.406589,-0.18985,-0.292364,0.115607,-0.067344,-0.137132,-0.661311,0.296618,-0.871442,0.944527,-0.090469,-1.446023
multiplication,0.747099,0.40634,-0.420813,0.681889,-0.468133,-0.283688,-1.381374,1.357135,-0.204134,0.386346,1.248688,-1.011438,-1.738516,-1.064235,1.004302,-0.806196,1.137773,-1.40895,-0.570499,-1.060896,0.053294,0.071797,0.401437
boundary,-1.115339,-1.30364,-0.095254,2.128935,-1.437576,0.477195,-0.673697,0.481292,-0.05876,-0.891731,0.598074,-0.359907,0.169276,-0.311193,0.521669,-0.775531,-0.030557,-1.133352,0.435022,-0.859914,1.275455,0.42083,-0.372363
local,-0.540486,-1.53165,0.029529,0.506044,-1.088039,-0.154118,-0.37654,0.348168,-0.9284,0.355563,0.31189,-0.682391,1.098863,0.083058,0.30114,0.294125,-0.638392,0.169364,0.186476,0.3842,0.553522,-0.168923,-1.358942
node,0.831572,-0.460972,0.119121,0.608795,-0.169555,0.702717,-0.254057,1.141257,-0.700134,-0.181429,0.798159,-1.340336,-2.11616,-0.662505,0.550517,1.207989,-0.273681,-1.19541,-0.007921,-1.615946,0.871315,0.18369,-0.199591
develop,0.944075,0.24116,0.47556,1.164085,-0.352779,0.2021,-0.290592,-0.140618,-1.685108,0.57213,-0.191823,-0.110574,0.085897,-0.127818,0.24797,0.610777,-0.471278,-0.151853,-0.731051,0.670356,1.025967,0.072067,-1.137828
difference,1.019116,0.299247,-0.563387,1.474228,-0.914249,0.657063,-0.621847,0.380422,-1.056032,0.790423,0.610931,-0.63035,-0.261703,-0.823473,-0.383214,-0.488173,-0.457131,-0.60315,-0.016214,-0.819249,-0.107897,0.871926,-1.053634
statement,1.344078,-0.268695,-0.889599,0.058372,-0.350728,-1.146976,-0.511869,-0.040656,-0.555388,0.592161,0.90579,-0.328282,1.619055,-0.191272,-0.001556,0.135111,0.385771,-0.815431,0.425271,-1.553076,0.218179,1.366102,-0.479059
tensor,0.848522,0.984364,-0.288469,0.577647,-0.530457,0.438692,-1.536595,1.323593,0.275985,0.025154,0.254598,-0.864315,-1.234599,-0.709102,1.264817,-1.313976,1.041073,-1.869361,-1.369295,-1.320371,0.920108,0.550259,0.919228
discrete,1.284093,0.903797,-0.24345,1.36548,-0.259315,0.226467,-0.982158,1.001711,-1.417884,-0.115259,0.35704,-0.51641,-1.412376,-0.629341,0.760316,-0.469744,0.555619,-1.577177,-0.677999,-1.253038,0.635456,0.049653,0.363181
variety,-0.038118,-0.805034,-0.496238,1.145506,0.310667,0.774355,-0.56182,-0.346741,-1.723818,0.681843,0.384601,0.243609,-0.209954,-0.425065,0.337896,0.190771,-0.340668,0.032851,-1.208811,0.2001,-0.160634,0.65233,-1.338237
generalize,0.929584,0.737593,-0.362588,0.822153,-0.544294,0.404949,-0.70988,0.892146,-0.691514,-0.15092,0.837838,-0.444335,-1.201394,-1.464697,0.320259,-0.721427,0.62804,-1.595267,-0.660631,-0.684647,0.490274,1.211798,1.010425
sample,1.360172,0.006718,-0.174777,0.794181,0.158736,0.770109,0.331399,0.508438,-1.141268,0.215064,-0.304555,-0.133579,-0.909425,-0.613343,0.066021,0.196289,0.587804,0.193367,-0.969201,-1.416587,0.048066,0.515285,-1.225087
statistic,0.116066,0.799622,-1.221263,0.335673,-0.757441,0.684547,0.045923,1.286009,-0.894389,-0.647472,0.541371,-0.025947,0.269735,0.394932,-0.812907,-0.084977,-0.529434,-1.694595,1.126192,1.038564,-0.694431,0.116919,-1.18188
axis,0.022757,0.819957,0.628784,1.271418,-0.118763,0.448687,-1.03774,0.095738,0.968079,0.294487,-0.505528,-0.317703,-0.727866,-0.190552,0.501628,-0.27078,-1.065836,-1.114963,-0.591596,-1.467482,1.09585,0.3232,-1.166393
hyperbolic,-0.094677,1.195209,-0.276931,0.290464,0.557199,0.097364,-1.243992,1.388861,-0.333403,-0.566669,0.521878,0.781691,-1.045724,-0.736246,0.745083,-1.406864,0.8637,-1.878522,-0.944296,-1.807458,0.883596,0.599855,1.101884
rotation,0.528981,1.178793,0.736223,0.781445,0.033838,1.106316,-0.644219,0.94184,0.066649,-0.0682,0.09043,-0.439794,-1.004958,-0.113588,-0.398374,-0.874522,0.123044,-1.529151,-0.192624,-1.472085,0.615592,0.557147,-0.90674
Hilbert,0.311118,1.184009,-0.437143,0.215992,-0.227594,-0.878527,-1.529221,0.978786,-0.515841,-0.298756,0.423983,-0.308615,-0.86671,-1.45801,0.903701,-1.840291,1.293286,-1.296103,-0.676819,-0.176423,0.694276,0.734108,1.450896
digit,-0.058524,0.146454,-1.075496,0.826312,-0.256638,0.085507,-0.791003,0.913409,0.29592,0.719285,1.346109,-0.194493,-1.535544,0.020677,-0.329879,0.472511,0.571199,-1.470018,0.457043,-1.649726,-0.528465,-0.129325,-1.03978
intersection,-1.467296,-0.259468,0.575013,1.016067,-0.438569,0.555312,-0.842853,0.516062,0.126149,-1.695077,2.048838,0.162122,0.218483,-1.793894,0.247975,-0.537769,0.327923,-0.244341,0.195394,-1.297661,2.056174,-1.448207,-0.201264
addition,-0.01046,-0.40648,-0.139568,0.357783,-0.047803,-0.241888,-0.191824,0.379963,-1.104215,0.641201,0.100664,-0.298804,0.115643,-0.236081,-0.126898,0.27649,-0.205906,-0.14399,-0.255081,0.044976,0.761093,0.019665,-1.664738
expression,1.56669,-0.266768,-1.298606,1.158782,0.30759,0.031439,-0.376649,-0.291755,-0.839118,0.692986,0.702179,-1.164642,-0.366809,-1.549562,-0.048662,-0.109672,-0.869171,-0.55222,-0.71395,-0.959096,0.355456,1.320489,-0.360555
Student,0.05774,0.2877,-0.699882,-0.928336,-0.315661,0.231573,0.27318,0.795954,-1.571887,1.019674,1.288972,-0.186516,1.549883,-0.8471,-0.541051,0.131748,-1.197849,0.598553,0.353096,0.725689,1.341416,-0.871915,-0.762939
approximation,0.813506,1.441493,-0.116742,1.253783,-1.203883,0.437781,-0.969171,0.922579,-1.205653,0.466212,0.332573,-0.69801,-1.471768,-0.456776,0.574276,-1.538448,0.891032,-1.472181,-0.578198,-1.185526,0.319624,0.38725,0.877034
$\mathbb{Z}$,0.961219,0.88974,-0.883742,0.447288,0.491259,0.00104,-0.397019,-0.136832,0.603488,-0.71144,-0.222597,-0.726839,-0.832529,-0.453636,0.798192,0.036015,0.863559,0.262445,-0.442866,-0.761125,-0.198155,-0.437157,-1.196765
mathematics,0.513622,1.519079,-2.013887,0.091777,0.162949,0.3437,0.028471,0.887639,-1.222925,-0.256008,0.465233,0.452433,-0.073597,-0.057506,0.412896,-1.038354,0.272274,-0.852403,-0.195709,1.51397,1.488682,-0.96592,1.299531
code,0.929438,-0.097759,-0.99344,1.06706,-0.218385,-0.728097,-0.24615,-0.456287,-0.720493,-0.144362,1.340488,-0.45238,-0.399382,-0.146267,0.520065,1.872488,0.220106,-0.724039,0.232257,-0.877237,0.386704,-0.543014,-1.178377
rank,-0.337874,1.078996,-0.9846,-0.134604,-0.374608,0.249409,-0.471362,0.511759,-0.20344,0.561255,1.140845,0.150315,0.652306,0.24843,-0.257816,-0.018195,-0.19467,-0.417451,1.348364,0.527914,-0.069812,0.077893,-1.715372
characteristic,0.197436,-0.072929,-0.226487,1.970787,-0.387898,0.83398,-0.538719,-0.1937,-1.085227,0.942371,0.120299,0.017611,-1.014185,-0.842394,0.158467,-0.364613,-0.880309,-0.490654,-0.961769,-0.513524,0.560202,1.023784,-0.866608
binary,1.648156,0.663975,-0.775267,1.471685,0.303223,0.167405,-0.996688,1.210631,-0.564678,-0.10283,0.247744,-0.167922,-1.221557,-0.547504,0.77265,0.784952,0.269301,-1.128913,-0.327084,-1.70071,-0.086407,0.031399,-0.245013
closed,-0.533584,-0.656883,0.452177,0.405928,-0.020786,-0.091308,-0.687681,0.414485,-0.084564,0.203679,0.817311,-0.839829,-0.713123,-0.360696,0.596723,-0.38534,0.166807,-1.479728,-0.802506,-1.003712,0.875233,0.213095,-1.085887
tangent,0.084751,0.373687,0.455731,0.887042,0.43527,0.707044,-1.576467,0.521671,0.100103,-0.844562,1.069351,-0.443252,-1.06658,-0.593251,0.958351,-1.207482,0.542741,-1.19894,-0.113015,-1.833937,0.54541,-0.019512,0.77569
diagram,0.590091,0.571195,-0.189441,1.420915,0.408259,-0.019031,-0.875714,0.320701,-0.61638,-0.218416,0.276133,-0.224997,-1.572636,-0.483548,0.210845,-0.443602,0.662308,-1.453652,-0.534982,-0.884282,0.793573,0.024586,0.056162
divide,-1.024372,-0.532541,-0.54406,1.227893,-0.884087,0.212127,-0.89349,0.585979,0.010485,0.241571,0.450897,-0.356287,-0.104928,-0.595702,0.496942,-0.256137,-0.892146,-0.333996,0.343441,-0.717057,0.723817,0.136069,-1.07197
functional,1.071117,0.260643,-0.389948,1.060644,-0.156924,0.346135,0.086558,0.38976,-1.307512,0.628643,0.902218,-0.922559,-1.145363,-0.872148,0.331033,0.19144,-0.361003,-1.525646,-1.120521,0.00276,1.459993,0.443358,-0.294958
abelian,-0.236114,0.231152,-0.468334,0.617143,-0.398369,-0.037824,-1.9995,0.834264,0.387832,-0.265215,1.892598,-0.67888,-1.062821,-1.606369,1.831761,-1.311058,1.350957,-1.561364,-1.649717,-0.185033,0.257259,0.633241,1.165871
odd,0.287907,0.13701,0.185415,0.343399,-0.001026,0.0162,-0.680146,0.360303,-0.337942,0.600906,0.483105,-0.413158,-0.340543,-0.5657,-0.607734,-1.193519,0.389513,0.148666,0.272528,-0.372403,-0.757716,0.550458,-0.774974
action,1.16881,0.140704,0.319052,0.42445,-0.175155,-0.276278,0.000588,-0.875425,-0.046537,0.607257,0.62874,-0.500829,1.184497,0.122001,0.219476,0.090602,-0.168772,-0.390751,0.428378,-0.577132,0.531085,1.107525,-1.59515
tiling,-0.811149,0.185039,-0.340047,-0.686675,1.959478,-0.838916,-1.715907,2.427581,0.247327,-0.274161,0.407568,1.333272,-1.615442,-0.533327,0.799418,-0.560592,1.099396,-1.936494,-0.966655,-1.502361,0.437107,0.195922,0.95392
ratio,0.502115,1.304423,0.069345,1.068737,-1.663862,0.784709,0.21854,1.205789,-0.766041,1.064114,0.738895,-0.458657,-1.300179,-0.709173,-0.274914,-0.333435,0.003126,-0.856292,-0.807851,-1.20472,-0.339967,-1.019258,-0.99442
program,1.147402,-0.028339,-0.18745,-0.137571,0.473651,0.103599,0.269332,0.222474,-2.137066,-0.256285,0.911989,-0.281107,1.43927,0.282835,-0.303719,1.00412,-0.329751,-0.866361,-0.045111,0.532308,1.060029,-0.481001,-1.616055
quadratic,0.364897,1.136465,-0.240968,0.722149,-0.860001,-0.101374,-1.553284,1.336743,-0.181885,-0.374952,1.266761,-0.357536,-1.157384,-1.454095,0.865389,-1.080866,1.370294,-2.038163,-0.583085,-1.43979,-0.170635,0.865231,1.081413
cube,0.263274,0.417802,0.340768,-0.178458,1.653236,-0.056604,-0.970887,0.866965,-0.353769,0.153397,0.164111,0.325394,-0.913624,-0.070856,0.872601,-0.34689,0.849328,-0.497401,-0.996769,-1.112553,-0.236117,-0.057027,-0.6379
cycle,0.32143,0.248424,0.121872,0.964491,-0.14182,0.153196,0.623414,0.461663,-1.063172,-0.144164,-0.110693,-0.720715,-0.899285,-0.57702,-0.185878,-1.021362,-0.390548,-0.694732,-0.157923,-0.1791,0.14442,0.239326,-1.259494
figure,-0.324764,0.486879,-0.648936,0.266092,0.078551,0.113646,-1.217193,0.081365,-0.671361,1.052837,-0.402671,0.402386,0.305173,-0.223304,-0.310397,-0.555643,-0.601861,0.47176,0.128804,-0.362983,0.119709,0.727579,-1.067114
argument,1.205194,0.097753,-0.262712,0.777375,-0.451293,-1.021116,-0.82603,-0.078135,-0.728158,0.885209,1.02827,-0.027421,0.825619,-1.105179,-0.073187,-0.492572,0.389268,-0.424785,0.720598,-1.182267,0.216686,1.705581,0.38376
Riemann,0.133033,0.962051,-0.455156,0.31513,-0.250485,-0.703804,-1.120843,0.750734,-0.434348,-0.795283,-0.07223,-0.537671,-1.119112,-1.764433,1.136279,-1.701013,1.132698,-1.497637,-1.199983,-0.524207,0.385116,1.235481,1.437705
Euler,-0.058372,1.639306,-0.137972,0.519341,-0.966614,-0.618656,-1.261221,0.572015,-0.20334,0.116007,-0.487617,-0.197633,-1.904939,-0.684556,0.64552,-1.36859,0.946973,-1.345622,-0.188814,-0.780205,0.500466,0.769463,1.265503
calculate,0.828653,1.21498,0.542503,0.777742,-1.559855,0.217583,0.12015,1.011301,-1.393678,0.830923,0.388447,-0.369128,-0.772776,-0.134568,0.030716,-0.590795,0.495022,-1.088556,0.021217,-1.645524,-0.206942,0.114388,-0.556681
shape,-0.857238,-0.447699,0.084462,1.440186,0.770719,1.004972,-1.370768,0.220002,-0.671549,1.293859,-0.198178,0.599779,-1.298284,-0.317204,0.118741,-0.512901,-0.511957,-0.345712,-1.173636,-0.959379,1.053508,1.080202,-1.574138
formal,-0.004093,-0.294922,-1.189165,0.172751,-0.420439,-0.889935,-0.733688,-0.049094,-1.307867,1.073558,1.032726,-0.678836,0.494542,-0.266567,0.131576,-0.436677,-0.556775,-1.102265,0.256973,-0.335999,0.889642,0.70759,-0.321439
derive,0.273029,-0.310005,-0.919113,1.961503,-0.436641,0.042129,-0.89391,0.220828,-0.70759,0.717946,0.093949,-0.117889,-1.24588,-0.870003,1.03494,0.087304,-0.44437,0.156165,-0.478417,-0.067514,-0.108065,0.605006,-0.620312
statistical,0.368187,0.308488,-0.744227,1.538066,-0.984057,0.368503,-0.108115,1.072568,-1.224188,-0.952698,0.864336,0.651776,0.297244,-0.634913,-0.504827,0.009108,0.021072,-1.810735,0.213603,0.482973,0.783107,-0.053389,0.305168
network,1.304388,-0.761983,0.24582,0.945781,-0.022342,0.301919,-0.286326,0.043345,-1.92837,-1.309964,0.295198,-1.130324,1.017145,0.470488,0.395398,1.157486,-0.329832,-0.917691,-0.258698,-0.138469,0.651659,-0.770889,-1.483463
estimate,-0.362521,0.663638,0.391,0.863678,-2.143147,0.385121,1.010707,1.120605,-1.100153,0.353058,-0.146581,0.831761,0.433906,-0.385971,0.136781,0.590293,-0.566746,-0.429355,-0.011851,-1.295667,-0.270041,-0.146653,-1.397625
norm,0.923749,0.102681,-0.629344,0.488262,-0.390015,0.394849,-1.220083,0.38281,-0.385117,0.45428,1.594105,-0.423593,0.78562,-0.9257,-0.514054,-0.531584,0.50455,-0.817927,-0.248706,-0.053973,-0.076289,0.78847,0.194143
polygon,-0.098806,0.907652,0.301905,0.701708,0.880058,0.567753,-1.885057,0.387168,-0.339647,-0.410273,0.332395,0.303835,-0.920601,0.03828,-0.064235,-0.468533,0.570133,-1.173476,-0.142879,-1.902284,0.222504,0.225667,0.545617
permutation,0.456944,0.750256,-0.755518,0.436494,0.38227,-0.505991,-0.990359,1.274776,0.221312,-0.175009,1.119956,-0.322227,-1.852727,-0.999442,0.336899,-0.739629,1.057023,-1.695615,0.061075,-1.718475,-0.006217,0.459176,0.582263
world,0.186058,0.570672,-0.155827,0.683365,0.582336,-0.028084,-0.097243,-0.55358,-0.904986,-0.090778,-0.244982,0.111554,1.126053,0.461751,-0.126585,-0.578808,-0.981835,0.324745,0.719723,1.061241,-0.374645,0.226745,-2.170777
maximum,-0.478634,1.073409,0.854301,0.547831,-1.529254,0.790779,0.647018,0.290133,-0.830315,0.585709,0.763755,-0.326985,-0.873387,-0.330564,-0.522669,0.050963,0.085245,-1.137305,-0.241064,-1.569428,-0.124084,-0.263448,-2.197578
equivalence,0.582693,1.222137,-0.611004,0.744595,-0.685419,-0.261897,-0.888984,0.595074,-0.446153,0.26883,1.51555,-0.40312,-0.86849,-1.175791,0.966149,-1.018956,0.767256,-1.982725,-0.568798,-1.025051,0.32694,0.673287,0.668527
parallel,0.001443,0.088223,0.121995,1.567938,0.167195,0.293865,-1.278203,0.094847,-0.129828,-0.306399,0.392351,-0.21774,-0.206374,-0.527485,0.140368,-0.301003,-0.480608,-0.428666,-0.053948,-1.156513,1.291463,-0.33374,-0.922003
numerical,1.030382,1.677058,-0.238296,1.534574,-0.889882,0.060207,-0.890143,0.116188,-1.049419,0.444724,0.593755,-0.005731,-0.846906,-0.250081,0.154711,-0.237608,0.106636,-1.861831,-0.009677,-0.620107,0.656425,0.323119,0.365353
orthogonal,0.705494,0.899415,-0.302573,0.871461,-0.12472,0.924707,-2.030233,1.140451,0.378355,-0.373025,0.873086,-0.924864,-1.20342,-0.505593,1.073327,-0.824841,0.825097,-1.846261,-0.475849,-1.98247,1.242459,0.156008,0.772438
isomorphic,-0.061855,0.442784,-0.012573,0.560498,0.101408,-0.157112,-2.009849,1.053798,0.775471,-0.483682,2.198541,-0.616124,-1.632738,-1.912215,1.912916,-0.75511,1.341341,-1.328063,-1.016789,-0.74455,0.077278,0.350302,0.748802
connection,0.350151,-0.725771,0.210223,0.833179,-0.307396,-0.488828,-0.453955,0.104372,-0.749853,-0.095227,0.229159,-0.983422,0.356251,-0.423489,0.391602,0.162689,-0.425468,-0.243201,0.226233,-0.292455,1.030554,-0.16215,-0.615947
locally,-0.82267,-1.308498,0.207973,0.851734,-0.498569,0.337399,-0.785678,0.476847,-0.688418,0.13995,0.586806,-0.091081,-0.258048,-0.232251,0.669939,0.171607,-0.222578,-0.452836,-0.626036,-0.015867,-0.010217,-0.122791,-0.729394
existence,0.387447,-0.067528,0.016417,1.317149,-0.26628,-0.93824,-0.315917,0.306357,-0.54581,0.422673,0.41926,-0.169391,0.376537,-0.619506,0.834183,-0.975977,-0.796662,-0.468508,0.776212,-0.427238,0.305905,1.042505,-0.504269
complexity,1.270617,0.9437,0.281081,1.420482,-0.33382,0.135102,-0.624761,-0.10886,-2.095946,0.353824,1.148084,-0.174041,-0.430832,-0.882929,0.037093,-0.447703,0.027317,-1.278918,-0.371381,-0.650506,0.211414,0.507271,0.471234
isomorphism,0.23459,0.253658,-0.250842,-0.004464,0.209479,0.010215,-1.475889,1.203145,0.16433,-0.532615,2.034503,-0.82634,-0.994284,-1.64603,2.151386,-1.005389,1.186487,-1.640461,-0.879906,-0.890007,0.529097,0.820171,1.253907
commutative,0.42336,0.366106,-1.023568,0.36524,0.025484,-0.22078,-1.983246,1.073217,0.391556,-0.265948,1.648338,-0.64265,-0.838423,-1.447305,1.610665,-1.520476,1.662875,-1.808081,-1.661403,-0.466676,0.827292,0.517763,1.338857
quotient,0.432106,0.892357,-0.45874,0.321677,-0.436769,0.680132,-1.084622,0.761666,-0.061032,-0.18276,1.668422,-1.059558,-1.206791,-1.252577,0.827416,-0.944,0.682106,-1.618982,-0.703622,-0.678728,-0.304425,0.480214,0.653656
half,-0.714579,-0.16118,0.333728,0.040922,-0.315371,0.340544,-0.636047,0.741225,-0.174535,0.689459,-0.214495,-0.517608,-0.332495,-0.124904,-0.4005,-0.608238,-0.212875,0.613457,0.877326,-0.284013,-0.135959,0.429675,-2.027575
decomposition,0.647435,0.390877,0.448938,0.577516,-0.437873,0.137946,-0.260941,1.241494,-0.502462,-0.032393,0.325164,-0.367691,-1.467088,-1.248857,1.222265,-0.981275,1.168902,-1.748397,-1.714981,-0.691356,0.211616,1.142777,0.533061
density,-0.265272,1.038194,0.551653,1.957377,-2.020341,1.20108,0.584088,1.512323,-0.771129,-0.128157,0.721216,0.502902,-0.978515,-1.983032,0.506587,-0.224869,-0.205793,-0.301771,-1.292128,-1.651664,0.209518,-1.242772,-0.898523
affine,-0.360343,0.411464,-0.330691,0.838614,-0.076685,0.325826,-1.337029,-0.21314,0.439512,-0.663548,1.113618,0.000384,-1.371693,-0.95363,1.774247,-0.98288,1.436829,-1.920342,-1.193161,-1.025735,0.945471,1.253165,1.081455
arbitrary,0.963621,0.41951,-0.229948,0.780375,-0.702159,-0.603348,-1.088649,0.142037,-0.254952,0.741559,1.356398,-0.537189,-0.328319,-0.923106,0.558743,0.278823,0.244486,-1.746971,-0.242739,-2.37661,0.265438,1.213672,-0.086104
morphism,-0.722415,-0.351191,-0.510405,-0.479458,0.173682,0.482575,-1.434497,0.823216,0.365851,-0.662317,2.423962,-0.870463,-1.511225,-1.112626,2.561572,-0.746293,1.118911,-1.36918,-0.581488,-1.247863,0.591325,0.351221,1.515379
scale,-0.015476,0.461986,0.371955,1.466983,-0.579188,0.636397,-0.039134,0.012594,-1.231427,0.629585,-0.263709,0.404905,-0.358636,-0.021913,0.010133,-0.251694,-0.474214,-0.924487,-0.65762,-0.901475,0.614749,0.313707,-1.182159
suppose,0.575992,0.085453,0.315377,0.323675,-0.148335,-0.415669,-0.633524,0.245909,-0.356174,0.786032,0.368769,-0.483843,-0.031352,-0.642798,0.736705,-0.384402,-0.137867,0.170292,0.533979,-1.104224,-0.011982,1.236469,-0.597712
increase,0.161218,-0.029614,0.892145,0.994214,-1.960539,0.14139,1.023617,0.64701,-1.102723,1.134024,0.515127,-0.455919,0.375722,-0.89284,-0.659862,0.254365,-0.98836,-0.719142,-0.559571,-0.79012,0.170173,-0.051499,-2.080567
projection,0.259155,0.478941,0.156676,0.943109,0.294387,0.668832,-0.936028,0.196225,-0.88291,-0.279022,-0.36941,0.001546,-0.781106,-0.087083,-0.349045,-0.378735,-0.094964,-1.442553,-0.806253,-1.84933,0.996595,0.265017,-0.086515
partition,-0.226839,-0.228745,-0.460735,0.475312,-0.954035,-1.009272,-1.179329,0.570896,0.361372,0.496874,-0.187291,-1.137685,-0.567653,-0.002535,1.155563,-0.171279,-0.268592,-1.174033,-0.354151,-1.288175,0.438537,-0.135671,-0.089771
exponential,0.753394,0.552403,0.645512,1.10605,-1.053151,0.48119,-0.583441,1.408736,-1.271244,-0.314012,0.754605,-0.763994,-1.416559,-0.799213,0.757521,-1.075369,0.853883,-1.797003,-0.489555,-1.314061,-0.338724,0.454551,0.86994
range,-0.339611,0.022463,0.459739,1.967521,-0.784856,1.250121,0.032171,-0.098158,-1.113786,0.267819,0.192064,0.468589,-0.464787,-0.155414,-0.177328,0.471321,-0.621263,-0.170852,-0.487709,-0.618093,0.520631,-0.361457,-1.885029
subspace,0.33618,0.933378,0.717959,0.381428,0.120616,0.121469,-1.518714,0.904208,0.482273,-0.65621,1.394329,-0.298426,-1.157608,-1.281981,2.196193,-0.705883,0.657808,-1.573833,-0.687941,-1.391793,0.519238,0.351911,0.793178
support,0.766355,-0.115039,0.075677,0.205131,-0.769668,-0.228868,-0.836863,-0.144836,-0.805321,0.669476,0.211924,-0.58203,1.020713,0.283967,0.237266,1.375641,-0.460734,-0.328321,0.093777,-0.400793,0.879831,0.17207,-1.350972
diagonal,-0.82497,0.098337,0.283237,0.521114,0.496675,0.739932,-2.11691,0.712352,0.664945,-0.207613,0.783776,-0.660966,-1.620915,-0.659707,0.048048,-0.743996,0.326915,-1.314251,-0.448892,-1.764873,0.934696,-0.186046,-0.279835
computation,1.490632,1.402108,0.040375,1.024768,-0.223444,-0.281301,-0.502416,0.751124,-2.078158,-0.087106,0.913206,-0.426807,-1.157688,-0.65111,0.732931,-0.326903,0.571331,-1.59581,0.010807,-0.544834,0.861216,-0.145126,0.847697
curvature,-0.154437,0.920269,0.578844,0.414908,-0.505975,1.219625,-0.753664,0.790381,-0.01732,0.140459,0.68515,-0.584221,-1.578134,-1.312477,0.405286,-1.807927,0.41396,-1.798405,-1.137592,-1.685745,1.294165,1.091769,0.638588
flow,-0.501016,-0.749241,1.415244,1.668527,-1.278001,1.114188,-0.048524,0.162223,-0.67582,-0.58432,-0.108258,-0.824666,-0.454336,-0.774996,0.657938,-0.77724,-0.213481,-0.541114,-1.127563,-0.787281,0.963,0.337732,-1.050358
analytic,1.324402,0.811643,-0.552982,0.861666,-0.049221,-0.240437,-0.669935,0.136227,-2.226535,-0.223084,1.043322,-0.046758,0.000461,-0.518633,0.324326,0.312009,0.179424,-1.60955,-0.547952,-0.121702,0.678245,-0.100721,1.022393
chain,0.353155,-0.697439,0.662744,0.682405,0.184858,0.02077,-0.268742,0.503226,-0.451157,0.159904,0.379539,-0.443645,-0.364355,-0.346544,0.782881,0.300779,0.397741,-0.434158,-1.100977,0.224566,0.442991,0.144244,-1.540564
cohomology,0.144215,-0.08068,-0.221546,1.080712,-0.218485,0.562598,-1.128995,0.533769,-0.016632,-0.686076,1.583877,-1.37494,-1.711873,-0.653053,1.744734,-2.273762,1.7889,-1.507385,-0.898505,-0.126477,0.367037,0.140773,1.936535
trivial,0.670261,0.33329,-0.047499,0.582045,0.053776,-0.357575,-0.832269,0.059842,-0.35051,0.590662,1.464941,-0.691597,-0.837253,-1.043434,0.715734,-0.80975,0.765373,-1.106267,-0.348437,-1.384863,-0.52272,0.865464,0.314478
converge,0.15643,-0.064077,1.03963,1.120638,-0.27505,0.56001,-1.20463,0.427728,0.200432,-0.603907,0.645803,-0.635402,-0.442534,-0.528131,0.705225,-0.255376,-0.315034,-0.946653,-0.113863,-1.331396,0.478109,0.120382,0.059748
lemma,0.128563,0.354917,-0.529816,0.015897,-0.339268,-0.056725,-1.332173,1.061301,-0.002449,-0.075649,0.526474,0.028122,-1.23294,-0.943334,0.664041,-1.107184,1.396826,-1.48135,-1.203967,-0.490697,-0.452377,1.072449,1.499047
origin,0.232231,-0.267597,-1.054966,1.722673,-0.293902,0.036537,-0.69775,0.11804,-0.519098,0.387822,-0.667842,0.314873,0.06381,-0.345124,0.795827,0.062463,-1.086699,0.497059,0.330731,0.046495,-0.095111,0.767413,-0.654323
convergence,0.562297,0.408569,0.147116,1.319482,-0.857526,0.517607,-0.496895,0.302921,-0.874266,-1.231063,0.334979,-0.729347,0.042821,-0.349813,0.39924,-0.724245,-0.243225,-2.037461,-0.616042,-1.073034,0.026816,0.547969,0.571114
division,-0.434859,0.559442,-0.284322,0.613661,-0.478406,0.115429,-0.309395,0.144453,0.794014,-0.475069,0.807052,-0.570482,0.59229,0.981761,0.19013,0.027657,-0.43188,-1.183772,1.261246,1.740168,0.983735,-0.281742,-2.100778
union,-0.405271,-0.445544,-0.650641,0.302481,-1.129962,-0.627366,-0.319245,-0.080765,0.52043,0.173854,-0.000649,-0.135004,2.02522,0.6448,-0.139009,-0.043884,-0.51056,-0.702682,0.304393,1.190194,0.696703,0.104821,-1.515988
empty,-0.722787,-0.754584,1.089724,0.21913,0.127363,-0.045369,-0.360599,0.282624,-0.079571,0.279276,0.630718,-0.339581,-0.671454,-0.84449,0.429321,-0.273047,0.171188,0.307579,-0.432904,-1.412383,0.168001,0.028608,-1.22428
computational,2.095354,1.732532,-0.341107,1.256169,0.037771,0.476279,-0.197155,0.697688,-2.291599,-0.123715,0.441433,0.189489,-0.569507,-0.492506,0.572941,-0.014576,0.02749,-1.69612,-0.675828,0.750014,1.621746,0.217515,1.039605
functor,0.177391,-0.030686,-0.430794,0.090083,0.143494,0.49258,-1.297155,0.69466,0.88339,-0.272272,2.033634,-0.968016,-1.476388,-0.784126,2.630022,-1.132496,0.879209,-1.316639,-0.758102,-1.063679,0.443439,0.306839,1.668879
fraction,0.559873,0.625878,-0.197501,0.973204,-1.202565,-0.147772,-0.226461,1.321281,-0.109823,0.930276,0.063188,-0.341984,-0.892239,-0.775136,0.618266,-0.62515,0.280696,-1.072746,-0.987848,-1.201543,-0.617627,0.21647,-0.630205
source,0.165093,0.229249,-0.974954,1.126452,-0.679144,-0.642394,-0.032731,-0.079305,-1.061646,-0.30041,-0.928421,0.113348,0.019938,-0.128095,0.420485,0.305892,-0.274401,0.07447,0.24291,-0.245987,0.187998,0.206679,-1.068429
eigenvalue,0.88606,0.750455,-0.237566,0.393825,-1.292329,0.69189,-1.670146,2.38077,0.039613,-0.31257,0.398043,-1.284736,-1.199705,-1.237863,1.478534,-1.76604,1.127701,-1.449454,-0.446739,-2.08135,-0.142967,0.308904,1.452419
translation,0.645987,0.587233,-2.511837,0.661887,0.384497,-0.975851,-0.047947,-0.831858,-0.990881,-0.047008,-0.712445,-0.223186,-0.248705,-0.698534,0.92509,-0.476249,-0.21191,0.784675,0.278501,-0.8234,0.435394,0.345136,0.341273
hypothesis,1.469495,0.70074,0.001525,2.042301,-0.631779,-0.039193,0.164349,0.636966,-0.930566,0.386625,0.02044,0.356649,-0.57853,-1.314665,0.480207,-0.36147,-0.474386,-0.850482,0.269922,-0.301134,-0.101488,1.791335,0.652452
scalar,1.186879,1.108699,-0.081294,1.173087,-0.949629,0.345127,-1.574659,1.518154,0.259698,0.162043,0.884342,-0.554972,-1.147843,-0.666847,1.084874,-1.376154,1.459583,-1.811326,-0.965615,-1.698866,0.503465,0.14019,0.583268
coxeter,0.236372,0.474032,-1.684925,1.082464,2.032275,-0.916795,-0.782001,1.144875,1.34928,-0.690532,1.418068,1.263125,-1.52833,-0.820473,0.039347,-1.41722,1.912622,-0.929063,-0.274592,-0.598519,0.611366,-1.074,1.483926
third,-0.312277,0.422702,-0.319759,-0.175,-0.158429,0.123063,-0.594164,0.512633,-0.223373,0.043591,-0.080628,-0.518365,0.168827,0.185024,-0.457657,-0.429709,-0.033025,0.118068,1.421099,0.020276,-0.227288,0.248188,-2.159237
Fourier,0.740581,0.898782,-0.485866,0.844897,-1.040605,-0.003465,-0.806396,0.480541,-0.689972,-0.490017,-0.722023,-1.262815,-1.395137,-0.348069,0.771707,-1.250795,0.669322,-1.513419,-0.489415,-1.423692,1.177126,0.427484,1.829899
bit,1.258527,0.01503,0.210194,0.759019,0.392569,0.167918,-1.050566,-0.095988,-1.032455,0.607373,0.913463,-0.949048,-1.205915,-0.329554,-0.277586,0.61192,0.823066,0.548782,-0.053582,-1.944928,-0.524777,-0.731584,-1.005219
exact,0.304061,0.352311,-0.177962,0.98523,-0.604061,-0.439963,-0.281416,0.61028,-0.884379,0.754485,0.212103,-0.275021,-0.867585,-0.532002,0.55259,-0.423662,-0.327666,-0.621188,0.530163,-1.107586,0.244147,0.958104,-0.583111
elementary,-0.809752,-0.520394,-0.138158,-0.15552,0.013804,0.69426,-0.443883,1.408279,-0.661535,-0.961032,1.161165,0.389329,0.479309,-1.067215,0.249158,-0.375,0.676064,0.12098,0.236749,0.872446,1.846814,-0.568701,0.417766
maximal,0.267401,0.83711,0.342804,0.196468,-0.531339,0.604577,-0.365359,0.859314,0.272299,0.076751,1.619372,-0.579638,-0.885184,-1.554451,0.807518,-1.079535,0.151569,-1.256345,-0.973291,-1.410777,0.055792,0.147135,0.257869
radius,0.035946,1.164313,0.875413,0.956974,-0.664388,1.061445,-0.28656,1.338192,0.177682,0.01256,-0.17986,0.014796,-1.201116,-0.635314,0.480464,-0.582788,-0.003693,-1.000773,-0.641147,-1.96018,0.932258,-0.464397,-0.753507
homomorphism,-0.109488,-0.384072,-0.474673,-0.221393,-0.225715,0.219598,-1.491365,1.224305,0.808147,-0.551376,1.939076,-1.177815,-1.129341,-1.460547,2.664512,-0.814749,1.374059,-1.467341,-1.170244,-1.167114,0.85585,0.630049,1.208012
identify,0.905251,-0.138919,-0.415389,1.149162,-0.604487,0.102555,0.112319,0.488484,-0.695402,0.759374,0.147928,0.282655,0.073774,-0.935489,0.367355,0.923439,-0.617129,0.193194,0.068747,-0.518888,0.622986,1.12021,-0.732034
distinct,0.049454,-0.715514,-1.114005,2.247947,-0.11231,0.822111,-1.104069,0.166999,-0.54541,0.666966,0.551191,0.07039,-0.80973,-0.790845,0.322733,-0.008335,-1.186039,-0.67423,-0.490626,-0.611704,0.304854,1.118622,-0.80729
minimum,-0.438507,0.639362,0.191618,-0.022812,-1.621712,0.36787,0.507449,0.959451,-1.186236,0.838256,1.214994,-0.330513,-0.342638,-0.386137,-0.603296,0.121806,0.183675,-1.564801,-0.223257,-1.267411,-0.259593,-0.127493,-1.55492
development,0.84911,0.005938,0.06239,1.079738,-0.789627,0.27837,0.169174,-0.03225,-1.767165,0.01351,0.327865,-0.317232,1.055983,0.289531,0.502846,0.479049,-0.575416,-0.624007,-0.378097,0.710358,1.066535,-0.301601,-1.293775
ordinal,0.228223,0.867785,-0.585767,0.877897,-0.07559,-1.098487,-1.5435,1.460478,0.077159,0.566697,1.672579,-0.234688,-1.672443,-1.181806,0.736777,-0.724606,0.906131,-1.491334,0.25904,-0.571795,-1.16769,0.194741,1.094648
homotopy,0.434378,0.243931,0.037469,0.545262,0.444651,0.194483,-0.582118,0.942503,0.040696,-0.547073,1.679921,-0.579075,-1.787104,-1.254154,1.62274,-1.514589,0.974124,-1.582021,-0.760534,-0.469258,1.152444,0.558261,1.772421
elliptic,-0.589762,0.486548,-0.6136,0.547291,-0.233452,1.312909,-1.501272,1.099844,-0.011002,0.199891,0.570769,0.905668,-1.986085,-0.369162,-0.020143,-0.329768,1.317508,-1.87359,-1.236997,-1.092504,0.325286,1.278834,0.693286
mapping,0.862645,0.638614,-0.16637,1.541838,0.001554,0.547654,-0.328025,-0.24031,-1.281707,-1.148802,0.074217,0.032783,-0.648142,-0.056396,0.704066,0.716868,0.015654,-1.745903,-0.448119,-1.211829,1.289025,0.180378,0.211964
alternative,0.866633,-0.569303,-0.485561,1.139234,-0.048332,-0.198654,-0.316186,-0.18129,-1.273401,0.147158,0.524365,-0.528413,0.533467,-0.419437,-0.058003,0.144023,-0.110228,-0.470866,-0.749221,-0.227864,0.00038,0.157687,-1.180213
rate,0.410523,0.415545,0.392822,0.687172,-2.072085,0.677064,1.123333,0.745049,-1.424745,0.797213,0.35737,-0.298768,0.06204,-0.31378,-1.245663,0.281025,-0.091855,-0.502003,-0.296385,-1.222777,-0.476695,-0.409308,-1.947327
character,1.410075,0.116769,-0.059707,0.461435,1.140306,0.638413,-1.377157,-0.881514,-0.975322,0.880985,0.255732,-0.028301,0.224738,-0.240432,0.437874,-0.016887,0.29433,1.881116,0.520473,-0.432734,-0.196445,1.242349,-0.888167
central,-1.161386,-0.969978,-0.590399,0.989308,-0.639164,0.64005,-0.347475,0.42997,-0.04055,-0.590763,0.020858,-0.047624,0.764353,0.131971,0.717377,0.063135,-1.062523,-0.452778,0.101885,0.447142,1.147811,-0.142021,-1.61991
irreducible,0.203928,0.551846,-0.297663,0.351825,-0.27508,0.176395,-1.532429,1.228925,0.352596,0.369091,2.161251,-0.331061,-0.962524,-1.157373,1.923434,-1.639323,1.460592,-1.462911,-1.338461,-0.956034,0.199439,0.845137,1.060613
principal,-0.090651,-0.431597,-0.451337,-0.445801,-1.022221,0.394255,-0.630082,0.612826,-0.894964,0.267111,0.030076,-0.436536,0.554045,0.163832,0.656361,-0.109932,0.699776,0.410287,0.191696,0.561581,1.469632,0.404979,0.007762
count,-0.205806,0.663349,-0.308632,-0.602644,-1.09775,-0.965407,-0.572093,0.395414,-0.09618,0.359688,-0.808728,-1.033718,-0.797143,-1.185004,-0.292634,0.606278,-0.154509,0.578057,1.213639,-0.397061,-0.346488,0.776818,-0.930102
finitely,-0.251798,0.342338,0.095323,0.118925,-0.158317,-0.467178,-1.752802,1.345284,0.391499,-0.201568,2.309605,-0.23178,-0.623511,-1.80482,1.736231,-1.140619,1.476647,-1.501749,-1.293893,-0.885216,-0.459894,0.493525,0.755782
kernel,0.733817,0.134566,0.472596,0.469408,-0.139448,-0.065781,-1.300275,1.067744,-1.411904,-0.339244,0.53641,-0.243843,-1.638324,-1.000813,0.906673,1.521369,0.950377,-1.10974,-1.118828,-0.950593,-0.858969,0.068052,0.098617
infinity,1.141143,0.810582,0.399407,0.596531,1.151332,-0.214929,-0.619545,0.530438,-0.743139,-0.706018,0.399319,-0.052961,-0.384262,-0.085838,0.956011,-1.045258,0.673626,-0.379016,0.358539,-1.21388,-0.390535,-0.051763,-0.513223
calculation,0.94506,1.529214,0.362508,0.988313,-1.174603,-0.214444,-0.025836,0.83015,-1.739138,0.75447,0.266238,-0.21988,-0.886649,-0.024535,0.461735,-0.824433,0.526822,-1.662363,-0.091357,-1.383399,0.280577,0.104681,-0.152833
draw,-0.169734,0.418801,-0.070849,-0.406111,0.361165,0.26208,-0.883338,0.220821,-0.720638,0.217453,-0.447546,-0.327352,0.250709,0.102883,-0.674701,-0.879797,-0.052898,0.1567,0.912275,0.123563,-0.28204,0.800762,-1.522461
divisor,-0.796272,0.100447,-0.880473,-0.078705,-1.338048,0.801477,-1.411388,1.253352,-0.176229,-0.59915,1.842102,-0.764121,-1.571527,-0.875564,1.346127,-1.381764,1.778975,-1.452112,-0.316782,-1.174046,-0.959479,0.42479,1.312257
pattern,0.119044,-0.537379,-0.381749,1.730512,0.319982,0.675481,-0.660388,-0.185329,-0.99589,0.987559,0.253245,-0.077769,-1.231593,-0.421248,-0.292574,-0.07514,-0.494498,-0.854124,-0.68838,-0.896541,0.884557,0.928201,-0.936347
average,-0.792652,0.893352,0.272499,0.798249,-1.829258,1.729382,0.628526,1.590212,-1.255739,0.170375,0.964851,0.563619,-0.056733,-0.922684,-1.662013,-0.247409,-0.29076,0.113952,0.526914,-0.92987,-1.104908,-1.102941,-2.099269
knot,-0.562863,0.840926,0.555384,0.471303,0.507916,0.579272,-0.198823,0.121207,0.27759,0.791125,0.71544,0.659648,-1.757259,-0.320206,-0.089003,-0.474954,0.442769,-0.221252,-0.471076,-0.814216,-0.027227,-0.044115,-0.277187
assumption,0.375374,0.148699,0.096896,0.738905,-0.790875,-0.875024,-0.661795,0.896268,-1.378992,0.347496,0.573753,-0.115024,-0.024911,-1.367899,0.063501,-0.606902,-0.61096,-1.297188,0.472288,-0.957785,0.467051,1.086379,0.697076
expansion,-0.240962,-0.167822,0.71409,1.213929,-0.579477,-0.641599,-0.444089,0.72543,-0.869088,-0.196467,-0.00647,-0.19544,0.338941,0.240899,0.47468,-0.204786,-0.303756,-1.05994,0.066642,-0.138399,0.340512,-0.367052,-1.333028
frequency,1.625988,0.158751,0.339839,1.878754,-1.035102,0.748401,0.352551,0.908592,-0.565882,-0.365346,-0.484079,-1.407606,-1.155623,-0.237561,-0.50289,0.136173,-0.318781,-1.199569,-0.427485,-1.939129,0.74989,-0.728891,-1.065563
dynamic,1.443998,1.012694,0.516698,1.457191,-0.040335,0.671694,-0.395299,-0.350627,-1.789355,-0.212652,0.229929,-0.490959,-0.10536,-0.332638,0.11099,-0.202331,-0.073828,-1.165459,-0.900327,-0.289548,1.024036,0.103405,-0.477728
canonical,1.001334,-0.050171,-1.452197,0.524911,0.51096,-1.002721,-1.162579,1.389558,-0.485331,0.335077,0.562772,-0.619995,-0.733242,-0.735779,0.962468,-0.552512,-0.060914,-1.007107,0.5502,-1.338061,0.408416,0.672066,0.547352
minimal,0.393147,0.052656,0.565469,0.635551,-0.467366,0.30021,-0.345137,-0.264325,-0.892455,0.462713,0.553638,-0.623758,-0.367009,-0.723617,-0.38001,-0.28536,-0.253428,-1.202072,-1.033227,-1.118484,0.508387,0.698138,-0.725853
segment,-0.217057,-0.458752,0.068899,0.169425,0.672318,1.004423,-0.637171,0.067192,-0.520423,-0.63792,0.535477,-0.560955,-0.363506,-0.459478,-0.265758,0.338991,-0.074887,-0.347106,-0.547531,-1.225906,0.457147,-0.000307,-1.298035
sheaf,-0.320006,-0.363278,-0.156545,0.3198,0.323263,0.412988,-1.091275,0.355531,-0.233564,-0.02341,1.523464,-0.519037,-1.489984,-0.29855,1.575612,-1.579591,1.075236,-0.964761,-0.924575,-0.534746,-0.303728,0.080367,1.315936
approximate,-0.412693,0.912225,-0.142035,1.006167,-1.480679,0.086451,-1.140053,1.083866,-0.644809,0.30249,-0.243005,-0.234866,-1.127594,-0.782043,0.552109,-0.334383,-0.345618,-0.38306,0.484818,-1.185352,0.360415,-0.307741,0.174686
combination,0.337637,-0.113035,-0.174428,1.231321,0.045718,0.161482,-0.211872,-0.135098,-0.832156,0.971022,0.408488,-0.555891,-0.94919,-0.421331,-0.299509,-0.352997,0.048979,-0.592297,-0.672941,-0.175416,0.18266,0.517715,-1.561889
relative,0.300941,0.15932,0.032718,0.706665,-1.448925,0.50971,-0.149041,0.538883,-0.638082,1.116395,-0.005926,-0.430199,-0.449997,-0.874389,0.443574,-0.232873,-0.419015,0.106271,0.177748,-0.715842,0.10133,1.319635,-0.597765
programming,2.069759,-0.096505,-0.510394,0.534111,0.883429,0.375049,-1.464527,0.078538,-1.955492,-1.251806,0.185288,-0.991005,0.481261,0.440306,-0.136574,0.896683,0.661632,-0.329001,-0.42961,-0.406386,0.013703,-0.807592,-0.584281
optimization,1.19747,1.300057,0.699867,0.826274,-0.37735,0.398346,-0.501471,0.016122,-2.415354,-0.422934,1.093027,-0.454741,-1.094555,-0.470245,0.86698,0.292166,0.722523,-2.007578,-0.908454,-0.33435,0.489947,0.2646,0.760307
variation,0.162815,0.310534,-0.864461,1.408601,-0.066154,0.349779,-0.30921,-0.351512,-0.744947,0.363372,-0.298514,-0.348901,-1.316458,-0.800331,-0.541467,-0.655916,-0.168257,-0.403943,-0.858506,-0.752642,-0.324469,0.635676,-1.012819
frame,-0.306819,0.03585,0.397308,0.339785,0.325783,-0.032346,-1.167633,0.050751,-0.799132,1.234712,0.200642,-0.036355,-0.984807,0.0925,-0.299393,-0.148339,0.873645,-0.225441,-0.32456,-1.401659,1.272909,-0.084308,-1.201349
variance,1.056098,0.617666,-0.182149,1.072525,-1.564951,0.945352,-0.320234,1.07169,-1.380468,0.20003,0.859121,-0.422823,-1.069778,-0.792145,0.109709,-0.501481,0.692323,-1.371035,-0.251115,-1.660065,-0.799032,0.700405,0.947874
branch,-0.863032,-1.260534,-0.459618,0.895253,-0.796938,0.23429,-0.37474,0.496782,0.250063,-0.060481,0.40567,-0.281495,0.075223,-0.021994,0.733204,0.457892,-0.249471,-0.252358,0.005292,0.614675,1.491704,-0.252171,-1.004919
boolean,0.760146,0.387762,-0.908656,0.561991,0.284829,-0.570132,-1.306084,0.289506,-0.257058,-0.110842,2.336598,-1.06073,-1.702293,-0.973186,1.125968,-0.332439,1.462166,-1.855277,-0.164715,-1.104839,0.473419,0.432307,1.000848
harmonic,0.970203,0.826948,-0.256917,1.478343,0.145627,0.401214,-1.498817,0.446994,-0.43611,-0.016572,-0.11901,-1.164715,-1.23316,-0.89276,-0.751432,-2.016957,0.333927,-1.136517,-1.039285,-1.422077,0.50806,-0.271451,0.440489
optimal,0.669279,0.942645,0.801253,0.686047,-1.1759,0.796377,0.31932,0.263401,-1.910308,0.521672,1.13279,-0.513876,-1.134018,-0.75127,0.050779,0.001172,0.214777,-1.591296,-0.793403,-0.67708,-0.121407,0.694453,0.017927
ordinary,0.192342,-0.049784,-0.517847,0.015828,-0.209102,-0.480934,-0.523656,0.038494,-0.586835,1.218255,0.466732,-0.568237,-0.257614,-0.301591,0.464133,-0.573909,-0.131711,-0.20946,-0.025184,-0.734093,0.402508,0.83008,-0.502103
polyhedron,-0.07859,0.776593,0.030364,0.34743,1.770854,-0.426577,-2.409433,2.190704,0.781639,-0.296404,0.72492,1.361526,-1.30125,-1.135913,0.279479,-0.610533,0.69186,-1.599491,-0.708668,-1.096686,0.437521,0.115927,1.237665
singular,0.298061,0.081454,-1.448685,1.052065,0.122011,0.38192,-1.252263,-0.286646,0.005338,0.368974,1.212525,-0.90892,-0.888636,-1.165335,0.713557,-0.827426,-0.598652,-0.370118,-0.391595,-0.946829,-0.452084,0.652731,0.156465
filter,1.080651,-0.340006,0.458026,1.152333,-0.153087,0.37251,-0.097049,0.369239,-1.125389,0.316569,-0.267619,-0.737208,-1.459792,-0.062552,-0.010428,0.398493,0.875648,-1.216768,-1.83129,-1.419575,0.422792,0.239493,-0.702054
automorphism,0.066634,0.377975,-0.248404,0.825342,0.203704,-0.431468,-1.41911,0.918871,1.715259,-0.338478,1.423186,-0.652426,-1.413753,-1.474274,1.749665,-1.22029,0.953001,-1.605613,-0.655439,-0.954259,0.512274,0.499562,1.019377
absolute,0.798331,0.74765,-0.346851,0.765178,-0.633073,-0.224638,-0.348184,0.48285,-0.440271,0.306133,0.646827,-0.555634,0.299984,-0.562347,0.162929,-1.397829,-0.309124,-0.693874,0.166545,-1.56582,-0.850316,0.645681,-0.678552
constraint,0.97698,0.415641,0.386444,1.085937,-0.848819,-0.115488,-0.412112,0.037959,-1.544736,0.295929,1.379011,-1.087093,-0.242246,-0.520148,0.234288,-0.487179,0.139028,-2.039759,-0.369872,-1.113351,0.146404,0.757732,-0.009881
relationship,1.329594,-0.294956,0.299081,0.285772,-0.609754,0.565395,-0.473325,-0.037193,-1.494431,0.52451,0.341938,-0.809894,0.915784,-0.995322,0.46907,-0.454077,-0.363656,0.629973,0.22017,0.000807,0.114233,1.815348,-0.131601
multiply,0.594101,0.639902,0.225892,0.529893,-0.718659,0.225754,-0.26854,1.274393,-0.411374,0.90226,0.723638,-0.634337,-1.352154,-0.628865,0.366523,-0.542119,0.119708,-0.721234,-0.23672,-1.619157,-0.73148,-0.084915,-0.301622
decision,0.806111,0.452141,-0.000228,-0.723722,-0.837456,-0.527385,-0.151797,0.339394,-0.413145,0.232665,0.96835,-0.606891,1.75485,0.046995,-0.111194,-0.115919,0.325936,-1.157235,0.794029,-0.520465,-0.08138,1.233726,-1.299655
six,-0.710837,0.101868,-0.047031,-0.079952,-0.053061,0.105335,-0.17547,0.251266,-0.173129,0.596128,0.163644,-0.20114,-0.054265,0.143387,-0.517884,-0.102466,-0.057838,0.230435,0.906747,-0.027063,0.50294,-0.068616,-2.375464
homogeneous,0.309205,0.657872,0.172523,1.50817,-0.855773,0.32539,-1.514023,0.774389,0.049926,0.579499,0.482311,-0.13734,-0.616326,-1.16331,0.866522,-0.723256,-0.049721,-1.559537,-2.007005,-0.837224,0.017701,0.441962,0.177481
cyclic,0.908389,0.377328,0.070852,1.071904,0.293694,-0.291712,-0.197736,1.241299,0.557712,-0.093959,0.557317,-0.759882,-1.694196,-1.407008,0.833306,-0.819219,0.327631,-1.642444,-1.366646,-0.891526,0.260546,0.450685,-0.131235
stochastic,1.223293,1.180802,0.198898,1.123638,-0.751099,0.47874,-0.055458,0.258809,-1.399389,-0.676847,0.32233,-0.56948,-0.88832,-0.549534,0.624743,-0.951778,0.691905,-2.01545,-0.787542,-0.430972,0.048927,0.689646,1.405349
Banach,0.44149,1.216027,-0.496898,-0.322508,0.674607,0.001499,-1.399801,1.25728,0.807011,-0.398055,0.814535,-0.266074,-0.954402,-1.323566,1.002834,-1.055723,0.530117,-1.864614,-1.159173,-0.002935,0.434827,0.848117,1.357011
spherical,-0.236116,0.773479,0.186956,1.091264,0.580763,1.116023,-0.927786,1.144197,-0.109237,0.536153,-0.525168,0.909806,-1.989119,-0.013197,0.740739,-0.758926,0.154061,-1.430809,-1.261081,-1.461284,0.689301,0.90826,-0.370068
riemannian,-0.467818,0.817842,0.234967,0.212062,-0.088128,0.10402,-1.608991,0.741297,-0.42095,-0.763142,1.098884,-0.104566,-0.708022,-1.754407,1.114944,-1.78013,1.022769,-1.913594,-1.782944,-1.344538,1.05425,0.499089,1.842911
cardinal,-0.838304,0.61032,-0.86521,-1.527084,0.091842,-0.99813,-1.306955,1.121898,0.352866,-0.33427,-0.280553,-0.033598,-0.602899,-0.928577,-0.773908,0.65435,-0.113935,-0.19013,2.111224,0.106571,0.176795,1.201,-0.057772
generator,0.753419,0.730967,1.373899,0.83834,-0.036935,-0.670415,-0.21987,0.043243,-0.657621,0.3262,0.183858,-0.765881,-1.372574,0.034451,0.65703,0.050044,1.347965,-0.948376,-1.256248,-0.929936,0.782633,-0.973568,-1.05046
cubic,-1.542757,1.341288,0.789951,0.147216,-0.752448,-0.386092,-0.088207,1.615854,-0.546768,0.039057,0.338686,1.560037,-1.161379,-0.943462,0.937292,-0.629047,0.727668,-1.16624,-1.625398,-1.81295,-0.341958,-0.983337,-0.766138
closure,-0.262975,-1.244725,0.586737,0.28664,-0.404893,-0.711871,0.745556,0.158793,-0.256587,-0.256096,0.572048,-0.949274,0.270348,0.258939,-0.106752,-0.65959,0.366237,-1.253349,-0.08645,-0.57943,0.801893,-0.188671,-0.919454
necessary,0.680066,-0.21219,0.59346,0.487364,-0.817801,-0.96841,0.234701,0.003005,-1.075992,1.492013,0.948384,-0.994041,0.028768,-0.376257,0.094232,0.026956,-0.435739,-1.140921,-0.011287,-0.577261,0.843602,0.979139,-1.345212
inner,-0.395041,-0.897595,0.034478,0.941677,0.272222,0.682998,-0.534975,0.574392,0.022561,0.605854,0.011282,-0.565843,-0.504472,-0.187818,0.652656,-1.012054,-0.74068,-0.023116,-0.36287,-0.635141,1.296434,0.320719,-0.68973
complement,0.111701,0.291245,-0.106868,0.801524,0.182869,-0.15126,-0.390081,-0.156614,-0.514554,0.723772,1.124811,-0.382434,-0.89384,-0.651164,-0.217315,0.03064,-0.078992,-0.679323,-0.58271,-0.382143,0.622174,-0.303422,-0.650284
planar,0.290439,0.710429,0.412646,0.605015,0.88725,0.103541,-1.443271,1.479373,-0.004248,-0.421665,0.417361,0.080838,-1.489196,-1.091762,0.878325,-0.532643,0.5425,-1.885865,-1.792553,-1.314389,0.943791,0.045517,0.151936
stable,-0.069243,-0.149103,0.97116,0.643348,-0.716593,0.232701,-0.209116,1.127921,-0.70883,0.575899,0.135543,-0.31062,-0.683842,-0.600457,0.479101,-0.551778,0.160132,-0.529941,-0.500151,0.104545,0.088629,0.505555,-0.819444
induce,1.643706,-0.348725,0.776331,0.757006,-0.517296,0.360225,1.229861,0.859579,0.233772,0.556104,0.166026,-1.356384,-0.905911,-1.528622,0.140844,-0.279924,-0.547667,-0.822379,-1.023171,-0.716552,0.708669,1.539474,-0.748274
Hausdorff,-0.759353,0.49917,0.769796,-0.613241,0.618289,-0.630279,-1.409594,1.264061,-0.266495,-0.60494,1.590301,-0.346154,-0.823126,-1.881585,1.143572,-1.438349,0.677227,-1.58366,-1.444291,-0.522336,-0.170756,-0.320309,1.458534
cartesian,0.604473,1.160196,-0.352033,0.96049,0.668904,0.025132,-1.582624,0.38511,0.67951,-0.08338,0.970345,0.042078,-0.659938,-1.037104,0.86657,-0.89061,0.00935,-1.441221,-0.430762,-1.702946,0.98185,0.321228,1.352141
logical,1.446769,0.852907,-0.333294,1.571685,0.240398,-1.181073,-1.135657,-0.433063,-1.209159,0.256715,1.629172,-0.68235,-0.563588,-1.23403,0.17817,-0.365919,0.41675,-1.180232,0.345027,-1.049938,0.438869,0.325935,0.710805
alternate,0.134453,-0.259738,-0.365483,0.639123,0.801048,0.437298,-0.850754,0.178856,0.16042,-0.331414,0.123687,-0.053781,-0.381259,-0.332519,0.119496,-0.411248,0.438162,-0.142504,-0.205023,-0.908857,0.346009,0.454377,-1.209386
gaussian,0.669576,0.723258,0.133454,0.909917,-1.082219,0.90727,-1.057286,1.056884,-0.664031,-0.492665,0.263944,-0.461202,-1.676036,-0.278913,0.926178,-0.584024,1.228541,-1.907727,-0.812063,-1.688939,-0.134586,0.538086,1.261344
composition,0.048888,0.447396,-1.151638,0.229575,0.38055,-0.110749,-0.730278,-0.051588,-0.99183,0.197906,-1.055032,-0.389446,-0.226728,-0.759902,-0.07139,-1.558241,0.348452,0.240206,-1.146527,-0.713208,0.759801,0.357983,-0.849348
ball,-0.387189,0.115165,0.578377,-0.290424,0.864907,0.529914,-0.528885,0.289981,0.022811,0.860227,0.529875,0.077636,-0.49584,0.119374,-0.92307,-0.613061,0.870925,0.351069,0.473415,0.238893,-0.057099,0.593859,-1.916395
triangular,-1.734809,-0.396286,-0.313124,0.757208,0.49292,1.266301,-1.562222,0.725612,0.673313,0.525301,0.014423,0.39321,-1.611038,0.333296,-0.03484,-0.604255,-0.079963,-1.620669,-0.633027,-1.317664,0.837527,0.741243,-0.752193
Newton,-0.115915,-0.267877,0.097436,0.431542,-0.278613,0.137492,-0.612609,0.613862,-0.589311,-0.609356,-0.040171,0.090827,-0.259,-0.112485,-0.222588,-0.611193,1.486024,0.46038,1.067697,0.288161,1.136068,0.131272,0.416538
classification,-0.117718,1.096357,-0.832927,1.11583,-0.693009,0.879679,0.159796,-0.243478,-0.807599,-0.528007,0.465357,-0.12671,-1.200711,-0.494493,-0.230603,0.042701,-0.590208,-1.57674,0.203653,0.632372,-0.400597,1.058299,-0.953579
reflection,0.872486,0.12722,-0.493694,0.972854,0.778158,0.304171,-0.051538,-0.074081,-0.748803,-0.052286,-0.140937,-0.080516,0.277593,-0.559297,0.004701,-1.644735,-0.116253,-0.198831,-0.409511,-1.597681,1.033327,0.560227,0.044097
differentiable,-0.330515,0.262164,1.022188,0.056445,-0.186656,0.477919,-1.748393,0.537976,-0.126392,-1.301018,1.744181,-1.091294,-1.099966,-1.752011,1.183091,-1.272655,0.382836,-2.199875,-0.857765,-1.057611,-0.166372,0.62973,1.305117
loop,-0.15572,-0.282357,0.972445,1.117096,0.41031,0.394207,-0.224717,0.38505,-0.017765,-1.039088,1.254195,-0.83098,-1.141851,-1.237574,-0.233196,-0.397038,0.550527,-0.458101,-0.423587,-0.947091,1.158531,-0.968948,-1.208781
population,-1.470042,-0.560083,-0.539652,1.855952,-2.909717,0.655913,0.904914,0.89955,-0.368962,-0.179367,0.40231,0.738495,0.842361,-1.989619,0.024096,1.044158,-2.352568,0.623978,0.506428,-0.412006,-0.367139,-0.483728,-1.116757
opposite,-0.252713,-0.493808,0.474748,-0.05033,-0.231739,1.294167,-0.930728,0.517849,-0.031539,0.099426,-0.057116,-0.756493,-0.134552,-0.594936,0.055455,-0.895133,0.0873,0.807135,0.003085,-0.921983,0.799932,0.224427,-0.582967
determinant,0.990575,0.42382,-0.65969,0.536498,-1.245715,0.782618,-0.11237,1.399615,-0.66485,0.057794,1.007027,-0.613511,-0.558906,-1.239552,0.419468,-0.69378,0.173823,-1.564094,-0.83434,-0.48857,-0.251328,0.801424,1.15706
intersect,-1.32102,-0.200776,0.807636,1.110808,-0.050265,0.811673,-0.890789,0.784781,0.735255,-1.416434,1.905491,0.325014,-0.157711,-1.93054,0.138117,-0.562022,0.045564,0.108418,0.280279,-1.784235,1.653314,-1.464548,0.104587
conjugate,1.102734,0.154788,-0.685697,0.631762,-0.237999,0.261749,-0.291907,1.623267,0.808097,0.542523,0.66168,-1.24451,-1.73264,-1.413349,0.666222,-0.414368,0.267109,-1.511765,-1.655606,-0.317661,0.142967,0.770672,0.244699
modular,0.492008,1.120907,0.618389,0.562287,0.54305,-0.424801,-1.351318,-0.327945,-0.827759,0.337377,0.85266,-0.355248,-1.054265,-0.25079,0.693462,0.443802,0.507012,-1.459515,-1.378219,-0.158632,1.111931,-0.892266,-0.328495
logarithm,0.541734,0.817352,-0.306603,0.875051,-1.298711,0.025695,-1.103048,1.336187,-0.681966,0.195364,0.500038,-0.781496,-1.759499,-0.193881,1.013909,-1.043868,1.28038,-1.268061,-0.106872,-1.332743,-0.671685,-0.039566,1.719057
countable,-0.681508,0.431374,0.536806,0.220811,0.178842,-1.26243,-2.048477,1.581847,0.106994,-0.285073,1.945691,-0.241503,-0.840429,-2.036736,1.451149,-1.160474,0.512727,-2.062473,-0.953545,-0.394409,-1.373444,0.016991,0.57551
reduction,0.620625,0.187072,0.397277,0.74656,-1.686144,-0.131729,1.249519,0.48947,-0.728778,0.805193,0.454631,-0.605734,-0.225232,-0.792526,-0.303486,-0.031264,0.064454,-1.644233,-1.223552,-0.639314,0.220253,0.413094,-1.386674
spectral,1.379303,1.025777,-0.084565,1.665972,-0.110058,0.901923,0.057678,0.903874,-0.500802,-0.252736,-0.538092,-0.13942,-1.817573,-0.270372,0.508733,-0.753448,0.417602,-1.103916,-0.574572,-1.705225,0.301791,0.100021,0.457051
homology,1.101564,0.461262,-0.227619,1.329021,0.068032,0.299523,-0.191984,1.340801,0.016626,-0.734047,0.973281,-0.269557,-2.104581,-1.932725,1.209601,-0.368456,0.599858,-1.102197,-0.575604,-0.095727,0.568623,0.790419,1.381431
Cauchy,-0.537081,0.448788,0.1314,-0.072375,-1.155361,0.210126,-0.932494,0.694376,-0.550955,-0.786005,0.118473,-0.460215,-1.279675,-1.189609,0.745293,-1.239041,0.87999,-2.337112,-1.093877,-0.866241,0.045228,1.471853,1.891989
Galois,0.504861,0.704155,-0.54,0.574158,-0.540232,-0.087588,-1.173075,0.034654,0.599066,-0.396755,1.130246,-0.833756,-0.810028,-1.126999,0.976711,-1.215911,0.901683,-1.550561,-0.692075,-0.57985,0.96307,0.292359,2.368852
NP,0.19466,0.615995,-0.657009,0.158373,-0.514531,-0.124733,-0.495409,0.290734,0.583042,0.171587,1.474345,-0.170947,-0.806725,-0.691361,0.715278,-0.055097,0.851743,-1.091864,-0.510615,-0.525571,-0.187395,-0.066894,0.862621
separate,-0.416651,-0.899518,-0.130597,0.865609,-0.394576,-0.142175,-0.589476,0.275139,-0.205429,0.42717,0.165546,-0.636275,-0.303118,-0.170565,0.541047,0.276663,-0.394002,-0.372743,0.057081,-0.477296,1.132547,0.301831,-1.645985
decimal,0.014038,0.718419,-1.519837,0.768872,-0.58118,-0.593594,-1.166147,0.860073,-0.146681,1.033478,0.968259,0.182211,-1.550823,0.662642,0.175543,-0.219051,1.239851,-1.239167,0.209888,-2.018614,-0.819697,-0.850316,0.276896
neumann,0.629562,1.078729,-0.243493,-0.154353,-0.238372,-1.018481,-0.482089,0.406393,0.127829,-0.506,-0.686458,-0.266055,-0.362315,-1.501127,0.118225,-0.733159,0.969653,-0.300452,-0.928488,1.082643,0.390908,0.57769,0.598724
trace,0.194963,-0.497098,-0.163724,1.258072,-0.08184,-0.143807,-0.241787,0.208781,-0.638549,0.332718,-0.465682,0.258969,-0.387594,-0.455868,0.831582,0.003824,-0.472146,0.112702,-0.211522,-0.608169,0.729661,0.522825,-0.508561
integration,1.272998,0.377541,-0.197733,0.804653,-0.737211,-0.253946,-0.535474,-0.124157,-1.299016,-0.32144,0.566287,-1.010365,0.877593,-0.03006,0.569718,0.706977,-0.607204,-1.716515,-0.847406,-0.176128,0.729288,-0.330107,-0.183757
criterion,0.772749,0.346593,-0.900737,0.349159,-0.793425,0.197682,0.306891,0.2175,-1.539281,0.559178,1.239467,-0.498333,-0.176014,-0.298805,-0.532802,-0.283224,-0.041553,-1.840041,0.015215,-0.369285,-0.11397,0.962047,-0.253782
primitive,-0.008891,-0.433879,-0.143585,1.770438,0.52093,-0.236526,-0.740779,-0.368834,-0.510678,0.346464,0.612765,0.243064,-1.159509,-0.856069,0.390503,-0.24874,-0.381872,-0.28564,-0.286331,-0.300358,0.384532,0.809042,0.030357
global,1.247456,0.16465,0.037524,0.892061,-0.62825,0.400775,0.620616,0.226162,-2.021268,-0.750861,0.380343,-0.092373,1.527123,0.60867,0.590755,0.206031,-0.451194,-1.119051,-0.427323,0.15232,-0.117468,-0.201752,-1.153189
modulo,0.124768,1.323664,-0.822233,0.011548,-0.926153,-0.28621,-1.255128,1.0594,0.468643,0.029606,1.945725,-0.710465,-1.63528,-0.663938,1.218633,-0.967731,2.01108,-1.691266,-0.038622,-1.608286,-0.572484,-0.23797,0.458585
strategy,1.44203,0.45065,0.612825,1.097802,-0.599969,0.023597,-0.071366,-0.472241,-1.508193,0.313244,1.031512,-0.342965,1.068616,0.06399,0.424711,0.414872,-0.513236,-1.325024,-0.042875,0.317022,0.196899,0.771208,-0.706816
equality,0.82483,-0.766163,-1.388711,0.281948,-1.035238,-0.346434,-0.478036,0.14867,-0.558366,0.244401,1.689843,-0.550636,2.092572,-0.676072,-0.093623,-0.533096,-0.365142,-1.238545,0.065717,-0.281943,-0.137762,0.906123,0.413484
holomorphic,0.27466,-0.116124,0.531465,0.556807,-0.104096,-0.082292,-1.361645,0.925995,0.587077,-1.464938,1.157216,-0.916594,-1.188577,-1.268503,1.704433,-0.724302,1.256372,-2.012439,-0.863795,-1.471648,0.698654,0.464048,1.665737
infinitely,0.104564,0.500047,0.884564,0.549707,0.081707,0.27078,-1.298335,0.71472,-0.519605,0.738645,1.139001,-0.174558,-1.214571,-1.156776,0.682821,-1.326389,0.246346,-0.922944,-0.655025,-1.680384,-0.659835,0.685032,0.703185
Gauss,0.067828,1.426246,-0.252359,0.324556,-0.913918,-0.998849,-0.802134,1.201853,-0.418621,0.076515,-0.671695,0.197692,-1.297561,-0.490367,0.515261,-1.263039,1.064187,-1.431259,-0.18478,-0.28768,-0.019761,0.343898,1.704173
nonzero,0.403885,0.597194,-0.140313,0.657551,-0.993472,0.528463,-1.598801,1.798513,0.98627,-0.044984,1.650066,-0.820282,-0.653092,-0.828975,1.785644,-1.716378,1.400585,-1.325582,-0.591965,-1.951291,-0.288407,0.193586,0.437245
quaternion,0.23669,0.663023,-0.776417,0.743462,0.006332,-0.423695,-1.795301,1.027036,0.875411,0.154122,0.986757,0.216655,-0.986348,-0.371178,0.966958,-1.305387,1.46252,-1.692366,-0.845551,-0.602189,0.598019,0.179579,1.75415
regression,1.103748,1.139686,0.317363,0.652503,-0.958156,1.046154,0.039975,0.459052,-1.29284,-0.21974,0.931031,-0.416009,-1.356173,-0.970376,-0.266802,0.085955,0.20504,-1.853302,-0.194385,-1.001786,-0.201782,0.98793,1.230965
neighborhood,-1.261491,-1.885611,0.873187,0.02481,0.046007,0.170522,-1.160925,0.930526,-0.420978,-0.977958,0.534908,0.212328,1.588155,-1.168216,0.116267,0.415601,-0.984481,0.395568,-0.607678,-0.165945,1.234408,-0.685651,-0.437584
correspondence,0.406443,0.414413,-1.134863,0.205918,-0.413586,-1.210109,-0.46708,-0.296169,-0.840271,0.590045,-0.041012,0.081877,0.051816,-0.188493,0.161921,-0.401684,0.507775,-0.340723,0.531107,-0.462919,0.914415,0.775895,0.845725
adjoint,0.46805,-0.040358,-0.622276,0.012213,-0.794909,0.565749,-1.611284,0.188648,1.266218,0.032048,1.510076,-1.818828,-0.965912,-1.040824,1.582433,-1.185785,1.084891,-1.32589,-1.175793,-0.963473,1.052221,0.515391,1.78124
variant,0.520147,0.901704,-0.580298,1.568558,-0.014659,-0.1689,-0.652577,-0.644274,0.215257,0.669175,0.65293,-0.257921,-1.534376,-0.379348,0.134536,1.206368,-0.182542,-0.022687,-0.573866,-0.053756,-0.337731,-0.767105,-1.715619
disjoint,-0.497486,-0.06842,0.18543,0.165244,0.330052,0.110213,-1.77326,0.893145,0.191719,-0.665343,1.639872,-0.587384,-1.494014,-1.584062,1.289379,-0.547426,0.563557,-1.368323,-0.687673,-2.11969,-0.330859,0.327944,0.62397
distribute,0.394557,-0.79153,-0.274811,0.744329,-0.050005,-0.268286,-0.070297,0.024032,-1.54032,0.208933,-0.088062,0.092878,0.160571,0.513004,0.480766,1.061144,0.219484,-0.488841,-0.774388,-0.8581,-0.336805,-0.094429,-1.252271
evaluate,1.18541,0.846854,0.000952,0.374712,-0.743225,0.185057,0.624688,0.057784,-1.573731,0.720155,1.0294,-0.193438,-0.162761,-0.548047,-0.018095,0.630524,-0.236269,-1.407442,-0.179877,-0.427555,0.637361,0.941228,-0.402959
additive,0.748073,-0.125742,-0.253823,0.836054,-0.458041,-0.20506,0.259035,0.611121,-0.841395,1.031771,0.832714,-0.334197,-1.357422,-0.590496,1.020115,-0.358231,1.466008,-1.601774,-2.553018,0.012385,-0.740794,0.511231,-0.376608
unknown,0.204373,0.477726,-0.390284,0.567043,-0.417153,-0.288289,0.032117,0.132503,-0.161363,0.450541,-1.011409,0.089802,-0.524229,-0.534867,0.511328,0.449167,-0.456219,1.101183,1.117758,-0.306596,0.181125,0.68801,-1.03839
span,-0.871745,0.010876,-0.002468,0.973871,-0.025151,0.659929,-0.484345,0.512097,-0.540279,-0.281805,0.1824,0.354665,-0.075662,-0.159094,-0.492647,-0.232287,-0.370275,-0.421205,-0.13306,-0.947618,0.878046,-0.660986,-1.427746
combinatorial,0.822336,1.032449,-0.549765,0.844847,0.501639,-0.31306,-0.728028,0.62024,-1.382182,-0.100523,0.959458,0.445143,-1.234886,-0.663623,0.382939,-0.750409,0.805873,-1.936745,-0.726667,-0.124967,0.391003,0.649886,1.302863
matroid,-0.713443,0.322551,-0.4176,-0.157539,0.458264,-0.006795,-2.13039,0.871985,0.168436,0.044581,1.722584,0.366395,-0.632066,-0.852656,0.491321,-0.628065,0.510328,-2.180178,-1.058102,-1.122225,0.180928,-0.021439,2.205362
orbit,0.704208,1.918829,1.420217,1.13843,0.041713,0.942577,0.131926,0.87867,-0.260782,-0.674684,-0.716584,0.361318,-1.046578,-0.197552,0.865419,-0.508209,-0.39135,-0.7534,0.21031,-1.778733,0.945279,0.063482,-0.749157
cone,-0.593192,-0.099651,0.500131,0.985643,0.088527,1.219128,-0.310696,0.672058,0.151408,-0.110545,-0.168908,1.044538,-1.45535,-0.544555,0.040708,-0.030264,0.44384,-0.691317,-0.906427,-0.858356,0.734929,0.962695,-0.556892
