word,1,2,3,4,5,6,7,8,9,10,11,12,13,14,15,16,17,18,19,20,21,22,23,24,25,26,27,28,29,30,31,32,33,34,35,36,37,38,39,40,41,42,43,44,45,46,47,48,49,50,51,52,53,54,55,56,57,58,59,60,61,62,63,64,65,66,67,68,69,70,71,72,73,74,75,76,77,78,79,80,81,82,83,84,85,86,87,88,89,90,91,92,93,94,95,96,97,98,99,100,101,102,103,104,105,106,107,108,109,110,111,112,113,114,115,116,117,118,119,120,121,122,123,124,125,126,127,128,129,130,131,132,133,134,135,136,137,138,139,140,141,142,143,144,145,146,147,148,149,150,151,152,153,154,155,156,157,158,159,160,161,162,163,164,165,166,167,168,169,170,171,172,173,174,175,176,177,178,179,180,181,182,183,184,185,186,187,188,189,190,191,192,193,194,195,196,197,198,199,200,201,202,203,204,205,206,207,208,209,210,211,212,213,214,215,216,217,218,219,220,221,222,223,224,225,226,227,228,229,230,231,232,233,234,235,236,237,238,239,240,241,242,243,244,245,246,247,248,249,250,251,252,253,254,255,256,257,258,259,260,261,262,263,264,265,266,267,268,269,270,271,272,273,274,275,276,277,278,279,280,281,282,283,284,285,286,287,288,289,290,291,292,293,294,295,296,297,298,299,300,301,302,303,304,305,306,307,308,309,310,311,312,313,314,315,316,317,318,319,320,321,322,323,324,325,326,327,328,329,330,331,332,333,334,335,336,337,338,339,340,341,342,343,344,345,346,347,348,349,350,351,352,353,354,355,356,357,358,359,360,361,362,363,364,365,366,367,368,369,370,371,372,373,374,375,376,377,378,379,380,381,382,383,384,385,386,387,388,389,390,391,392,393,394,395,396,397,398,399,400
number,-0.425149,0.160359,0.20867,0.390417,0.051629,-0.201866,-0.058956,-0.280371,0.305576,0.305188,0.107471,-0.497355,0.086716,-0.456029,0.046133,0.090523,0.165332,0.259568,0.416445,0.036584,-0.344509,-0.065144,-0.080855,-0.065585,0.108962,-0.225608,-0.124002,0.127911,0.197206,0.08002,0.267424,-0.412255,0.091625,-0.114526,0.147948,0.167236,0.02895,-0.05617,0.155654,0.508456,-0.032512,0.206714,0.095701,-0.080408,0.01026,0.504973,0.090386,0.28208,-0.014591,-0.235419,0.150212,-0.410833,0.092073,0.30559,-0.112245,-0.121052,-0.025053,0.068322,0.027016,0.14096,-0.117837,-0.211301,0.163107,0.287515,0.154445,-0.103351,-0.395532,-0.166213,-0.269076,-0.415786,-0.019719,-0.058317,0.338851,-0.198748,0.289348,0.103957,-0.241104,-0.136111,-0.077247,0.240963,0.127383,-0.032077,-0.076619,0.061333,-0.009043,0.134573,0.082601,-0.06001,-0.105738,-0.283965,-0.105881,0.052554,0.118922,-0.146918,-0.121085,0.158324,-0.339954,0.265328,-0.259852,-0.341527,0.24419,-0.12134,0.337097,-0.310506,0.227164,0.06193,0.189021,-0.220721,-0.362167,0.11481,0.167556,-0.17434,0.061579,-0.068025,0.120003,-0.105751,-0.297317,0.175267,0.055023,-0.317606,-0.315909,-0.411455,0.22394,0.076862,-0.518453,0.293055,0.325486,0.275911,0.126219,-0.248179,-0.473369,-0.257282,-0.246337,-0.000471,0.037344,-0.096057,0.052956,0.35626,-0.172707,0.00375,0.073326,0.004357,0.104161,-0.250032,0.104938,-0.344072,0.122586,0.324111,-0.128219,0.016135,-0.213262,-0.181268,-0.287684,0.030367,-0.543432,-0.012414,0.452676,0.486064,0.363346,0.007545,-0.107042,0.059867,0.113341,-0.06339,0.244631,-0.077586,0.282249,0.000904,0.168693,0.022871,-0.089161,-0.228672,0.24089,-0.117305,-0.282852,-0.020908,-0.188101,0.183706,-0.137193,0.049712,0.167658,-0.080544,0.15579,0.127761,0.078933,0.577678,-0.242948,0.124675,0.551579,-0.331409,-0.299647,0.449087,-0.197551,0.139159,0.072132,-0.384922,-0.151036,0.12089,0.052958,0.002087,0.077528,0.35319,-0.159566,0.080284,-0.259281,0.193831,0.108045,-0.046086,0.344945,-0.346475,0.112782,-0.212747,0.171503,0.041885,-0.289096,-0.33462,0.09528,0.08545,0.100746,0.407675,-0.006625,-0.241384,-0.276349,-0.207575,0.033828,0.133465,0.242076,0.253965,0.124306,0.027918,-0.369078,0.270155,-0.065122,0.300676,0.078689,-0.30466,-0.028058,-0.158923,-0.053654,-0.406061,0.242535,-0.080187,0.064505,0.220188,0.333032,-0.112909,-0.271168,-0.217683,-0.296549,-0.208706,-0.021475,0.298734,0.1709,0.077631,-0.538053,-0.24726,0.281868,0.056634,-0.032817,-0.195318,-0.621056,-0.256582,0.061679,-0.268852,-0.008263,0.020756,-0.098095,-0.023661,0.494809,0.152789,-0.047389,0.161335,0.077413,0.314652,-0.053336,-0.04567,-0.152615,0.198828,0.167514,0.220121,0.070154,0.099719,0.401404,-0.201094,-0.193952,0.048952,-0.26746,-0.129712,0.003793,0.024,-0.038243,-0.252095,0.175409,-0.260247,0.05553,0.188834,-0.121345,0.549792,-0.095288,-0.350183,-0.087172,0.42975,0.283452,0.370296,0.373997,-0.201192,-0.182738,-0.188905,0.090151,-0.306227,-0.344682,0.090006,0.187097,0.001651,0.036605,-0.01242,0.081939,-0.407294,-0.440942,0.422668,-0.103777,0.412571,-0.01516,0.112695,-0.13549,0.329707,0.043588,0.385176,-0.234584,0.194388,0.408812,-0.001711,-0.185121,-0.16574,-0.20848,-0.205131,-0.015644,-0.056381,-0.072082,0.317111,0.454166,-0.103858,0.28474,0.123716,0.411818,0.463079,0.143033,0.003304,-0.022357,0.194215,0.205218,0.109363,0.124793,-0.404449,0.130294,-0.448064,-0.029786,-0.01197,-0.157581,-0.26299,-0.379656,-0.007389,0.504121,-0.605005,0.158648,-0.230776,0.152108,0.276265,-1.22203,0.095592,0.030045,-0.073937,0.174233,0.070381,-0.008812,-0.017939,0.156252,-0.009521,-0.457881,0.303253,0.163171,0.154881,0.374033,0.001707,0.133847,-0.046575,0.03104,-0.215649,-0.061748,0.061204,-0.399363,-0.330538,-0.051374,-0.254408,-0.140073,0.206087,0.059582,0.826323,-0.278639,0.157511
function,-1.107238,-0.237648,-0.494493,0.18067,-0.174627,-0.083604,-0.020396,-0.201834,-0.097167,-0.080508,-0.057778,-0.15501,0.125655,-0.297282,0.168823,0.268174,-0.088335,0.214102,0.074301,0.451067,0.634344,-0.075738,0.268275,-0.011668,0.220623,-0.29761,-0.472271,-0.179684,-0.389848,-0.365275,-0.379733,-0.211826,-0.120406,-0.185118,-0.175202,0.028331,0.41895,-0.361799,-0.149259,0.514972,0.158603,0.67335,0.411581,0.007107,0.323703,-0.23724,-0.007789,-0.078896,0.385246,-0.288814,0.569864,0.412377,-0.042838,-0.467409,-0.060992,0.093823,0.293146,0.13244,0.092672,0.043692,0.08653,0.063967,-0.073006,-0.309922,-0.234855,-0.034001,0.610935,0.022606,0.379841,-0.328206,-0.244469,-0.399684,0.281797,0.087407,0.303328,-0.435019,-0.176278,0.021414,-0.128993,0.186997,0.529766,-0.534522,0.084279,-0.153939,0.172368,0.144144,0.043596,0.052127,0.199116,0.094626,0.389029,0.328334,-0.007523,-0.269176,-0.251477,-0.346174,-0.036985,0.288564,-0.280687,0.723977,-0.189103,-0.429982,0.395519,-0.16907,0.425571,0.090023,-0.377995,0.182973,-0.009197,0.22648,0.522407,-0.331722,0.199302,0.047378,-0.019861,0.213657,-0.368447,0.060738,-0.106425,-0.391518,-0.369719,-0.176715,0.050153,0.037796,0.266391,0.137984,0.074984,-0.379385,-0.176888,0.810459,0.524991,-0.083053,-0.361336,0.060177,0.074211,-0.291742,-0.21547,0.016273,0.131748,0.063618,0.010487,-0.231059,-0.256956,-0.272742,0.401138,-0.164127,0.113755,0.533003,0.172988,0.036829,-0.159021,0.223368,-0.257371,0.007008,-0.421818,0.671964,0.065012,-0.154455,-0.065455,0.040751,0.016851,0.037683,0.354032,-0.204626,0.21004,0.229979,-0.250797,-0.457782,-0.415697,0.210309,0.011059,0.330116,-0.030165,-0.006194,-0.502389,-0.111061,-0.291456,0.161266,-0.30882,-0.022276,0.274885,-0.453029,-0.334459,-0.078925,-0.147064,0.202692,-1.247663,0.086774,-0.512046,-0.316948,0.478665,-0.03559,0.064284,-0.473185,-0.346615,-0.258234,0.249944,-0.075438,-0.37727,0.111991,-0.294153,-0.311601,0.09252,0.159118,-1.574879,0.306794,-0.151758,-0.112315,-0.174789,-0.21303,-0.192121,0.115207,0.192772,-0.346895,0.102272,-0.306575,0.725962,0.334066,0.013625,-0.232416,-0.184265,0.034472,0.155595,-0.085484,-0.720755,0.215561,-0.370484,0.205056,0.154474,0.096555,-0.072143,0.243503,-0.261417,0.002929,0.020794,-0.242312,0.030232,0.250513,0.038221,0.017381,0.29177,-0.159784,0.115857,0.088409,-0.045807,0.017138,-0.152902,0.370107,-0.33538,-0.147735,-0.403446,0.516494,0.124352,-0.067299,-0.351653,-0.059034,0.108494,-0.435901,-0.217911,-0.343791,-0.056427,0.099593,0.091849,-0.222365,0.065919,0.14632,0.084193,-0.287536,-0.202161,0.163052,0.549943,-0.073177,0.221747,-0.266999,0.196613,-0.369815,0.094434,-0.007087,0.285602,0.578659,-0.074428,-0.082766,0.166523,-0.294416,0.166438,-0.002009,-0.512999,0.158323,-0.391326,-0.357827,0.190882,-0.312439,-0.261942,0.127166,-0.028133,0.376578,-0.114252,-0.592191,-0.024711,0.176045,0.300916,0.183267,0.23737,-0.101388,-0.022391,0.096848,-0.102885,-0.301141,-0.180129,-0.170049,-0.58879,0.002686,-0.072808,0.024179,-0.183684,0.307519,-0.046783,0.162613,-0.176637,0.073776,-0.293482,0.416734,0.45214,0.186495,-0.093812,-0.01717,0.019765,0.51322,-0.178565,0.261966,-0.155862,0.085521,0.14313,-0.002869,-0.193458,0.137519,-0.37432,0.53938,0.060569,-0.180436,0.123163,-0.414937,-0.011517,0.032076,0.253591,0.244014,-0.06874,-0.176249,1.03788,0.108017,0.393898,0.220597,0.218554,-0.277879,-0.186025,0.117365,0.605337,0.022354,0.245427,-0.487566,-0.162313,0.023632,0.125971,-0.284113,-0.190647,-0.381973,-0.052745,0.050578,-1.581266,0.368409,-0.225366,0.164094,-0.232037,-0.244175,-0.187033,-0.222062,-0.017731,-0.302668,-0.338754,0.065959,0.542416,0.136923,-0.103853,-0.148051,-0.091059,-0.052717,0.08913,-0.413702,-0.154529,0.076462,-0.494136,-0.263201,-0.083182,-0.035769,0.338602,0.615419,0.417824,-0.050411,0.042104,0.121302
one,0.116964,-0.036569,0.073209,0.238096,0.077243,0.063877,-0.059233,0.100923,0.167447,0.174159,-0.158921,-0.303815,0.193423,-0.199218,-0.084775,0.231878,0.146,-0.085027,-0.14181,0.136057,-0.27845,-0.04977,-0.11756,-0.14371,0.071795,-0.125728,0.046613,0.126318,-0.183284,0.211459,0.033141,-0.073362,-0.041542,-0.057808,0.076643,0.077712,-0.172984,-0.114008,-0.019841,0.343751,-0.077706,0.186125,0.114077,-0.069557,0.004358,0.097193,-0.080259,0.125476,0.093531,0.058776,-0.02171,0.000666,0.024202,-0.099252,0.031397,-0.110823,-0.072456,0.174057,0.037808,-0.072487,-0.281421,-0.135448,0.064224,0.27798,0.287252,-0.001464,-0.239067,-0.169544,0.117389,-0.45069,-0.098121,0.139756,-0.030029,-0.40024,0.216971,0.177292,-0.083869,0.046833,-0.183893,0.250137,0.176882,0.064022,-0.007983,0.08306,0.034042,0.292863,0.124305,-0.025175,0.131774,-0.09496,0.022671,0.198549,0.322704,-0.401031,-0.016333,-0.240429,-0.091443,0.03862,-0.115776,0.070932,0.067733,-0.062316,0.110503,-0.142285,-0.042921,0.220233,-0.043204,-0.257723,-0.075088,0.15718,0.054907,-0.10678,-0.097711,-0.055963,-0.171079,-0.39361,-0.021922,0.062052,-0.266029,-0.33342,-0.173227,-0.083842,0.02685,-0.038112,-0.212361,0.072636,0.135751,-0.01983,-0.056968,-0.36094,-0.20975,0.026726,-0.299408,-0.27117,0.271035,-0.002275,-0.03408,0.031447,0.140905,0.226064,0.086298,-0.016404,0.164505,-0.186608,-0.059296,-0.192066,0.113506,0.156405,0.015962,-0.161935,0.042469,-0.015657,-0.135162,0.003858,-0.066512,-0.118219,0.078283,0.576738,-0.053178,-0.030965,0.052081,-0.130936,0.077066,0.209042,0.018875,-0.002629,-0.160336,-0.070284,-0.019861,0.175819,0.016259,-0.164092,-0.236523,0.092983,-0.380765,0.171282,0.04612,-0.022828,-0.008388,0.15761,0.034695,0.117746,-0.130746,-0.043744,0.058134,0.097872,-0.317813,0.203137,0.214947,-0.17995,-0.016485,0.23503,-0.197374,0.073849,0.07262,-0.14337,-0.01662,0.244138,-0.033927,-0.110474,-0.07888,-0.038484,-0.226388,0.054332,-0.240709,0.044971,-0.039636,-0.111903,0.04674,-0.058195,0.135109,0.10562,-0.000984,-0.02414,0.062157,0.028946,-0.119107,0.034826,0.039998,0.11032,0.121476,-0.125389,-0.02997,-0.151536,-0.026073,0.312078,-0.022933,0.080747,-0.108671,0.262753,-0.023018,-0.148058,0.026978,0.119876,0.111158,-0.185678,-0.102627,-0.08877,-0.252926,0.084093,0.069373,0.097463,-0.034093,0.107269,0.027446,0.281189,-0.156264,-0.248293,0.035033,-0.168921,0.178937,-0.122183,0.044935,0.006932,-0.064907,-0.176755,0.07949,0.082782,0.019275,0.05906,-0.178326,-0.068611,-0.054513,-0.20388,0.114304,-0.07347,0.274336,-0.084213,-0.257693,0.069769,0.021616,0.040839,0.041354,0.110396,-0.123069,-0.091549,0.085381,-0.039229,0.015413,0.218487,0.15606,-0.051904,0.239318,-0.051853,-0.053313,-0.09408,0.036863,-0.165932,0.104937,-0.080041,0.177284,-0.15802,0.066724,-0.191375,-0.142272,0.052096,-0.310097,0.286208,-0.19299,-0.107696,-0.161535,0.098958,0.004137,0.246105,0.12631,0.202619,-0.064914,0.283299,0.018171,-0.109244,-0.25274,-0.081928,0.078595,0.037316,-0.008076,0.107384,0.073286,-0.030824,-0.082603,-0.127744,0.102647,-0.013708,-0.153014,0.077582,-0.347863,-0.02898,-0.045113,0.32311,-0.17503,0.016854,-0.048815,-0.085818,0.111037,-0.210925,-0.04984,0.109828,-0.068535,-0.023977,-0.054705,0.226386,-0.080498,0.030699,0.16679,0.160754,0.094528,0.22067,0.060468,-0.03437,0.249861,0.041734,0.110579,-0.148332,0.073928,-0.158743,0.185008,-0.174882,-0.00628,0.595805,0.04706,-0.127235,-0.401054,-0.044197,0.317291,0.094658,-0.285763,0.172174,-0.076483,0.054486,-0.704139,-0.227352,0.183008,-0.019679,0.188766,0.085288,0.121443,-0.127097,-0.017439,0.076821,-0.199922,-0.24861,0.095328,0.095166,-0.188349,-0.11918,-0.183422,0.050463,0.210754,0.037543,0.043122,-0.187687,-0.142593,-0.027706,0.085029,-0.302269,-0.115081,0.005481,-0.040489,-0.114934,0.023465,-0.004352
set,-0.198798,0.345809,0.071154,-0.01438,0.179736,-0.216619,-0.219853,0.124425,-0.126599,0.442545,-0.202636,-0.011561,-0.150821,0.03784,0.208635,-0.029958,0.040856,-0.170391,0.053256,-0.072962,-0.297032,-0.319964,0.08638,-0.142429,0.043806,-0.109413,-0.402589,0.035768,-0.208934,0.119015,-0.111238,-0.113141,-0.129897,-0.048677,0.393794,-0.078458,0.087703,-0.172143,0.008115,0.324467,-0.245024,-0.067701,-0.053814,0.250185,-0.337232,0.050072,0.13104,-0.316013,0.115743,0.13883,0.198094,-0.238296,-0.157907,-0.314861,-0.121106,0.090766,0.213698,0.046254,-0.042493,0.135366,0.047373,-0.064313,0.005348,0.052836,0.074517,-0.056028,0.021303,0.034915,-0.116235,0.00463,0.100828,-0.098209,0.178342,-0.350422,0.089857,0.052868,0.071192,-0.040168,-0.072595,-0.100026,0.361171,-0.044954,0.049367,0.068074,-0.165877,-0.07148,0.519608,0.062364,-0.16486,-0.511156,-0.267115,0.094424,0.059878,0.125433,-0.128156,-0.169345,-0.116503,-0.393084,-0.101572,0.087442,0.065057,-0.360767,0.396029,0.104324,-0.123384,-0.067,-0.180173,-0.218469,0.036357,0.06908,0.125887,-0.15031,-0.159664,-0.017362,0.119812,0.005901,0.059475,0.029076,-0.370854,-0.074011,-0.023579,-0.016076,0.406597,-0.017394,0.2024,0.200389,0.034773,-0.026935,0.149014,-0.27705,-0.088451,-0.275584,-0.150969,0.169912,0.106538,-0.33221,0.215385,0.170811,0.005027,0.357613,-0.227461,-0.248279,-0.106131,-0.028283,-0.151797,-0.128056,0.091766,0.013791,-0.069761,-0.167654,0.157501,0.271548,-0.166774,-0.114049,-0.030768,0.179839,-0.139639,0.512865,0.082978,-0.186754,0.113667,-0.372098,0.23219,0.046758,0.009293,0.123397,-0.172768,-0.073342,0.322712,-0.008667,0.170016,0.088142,0.00776,-0.197235,-0.167345,0.307801,0.005161,-0.055014,-0.23618,-0.196133,-0.037741,-0.022644,0.242165,0.083015,-0.184666,-0.156985,-0.32978,0.004095,0.306254,-0.363588,-0.116986,-0.010056,-0.19166,-0.095975,-0.105412,-0.254758,0.121977,0.040405,-0.224063,-0.17007,-0.351278,0.053626,-0.184253,0.141531,-0.414003,-0.136191,0.071853,0.086553,-0.029795,-0.19046,0.113022,-0.222832,0.216333,0.045312,-0.149798,-0.215442,0.205895,0.318409,-0.006935,0.057293,0.323316,0.052828,-0.054965,0.09979,-0.153079,0.218753,0.081674,-0.038381,-0.179155,0.073389,0.162416,0.007765,0.229569,-0.309779,0.079794,-0.054965,-0.327829,-0.095421,-0.097257,0.029676,-0.08242,-0.185501,0.10712,0.672387,0.096542,-0.392089,-0.011672,0.119307,-0.350777,-0.102818,-0.086584,0.253024,0.289731,-0.196211,-0.035121,-0.204249,-0.140844,0.099462,-0.019995,0.032278,0.059475,0.000426,0.27218,0.181097,0.017492,-0.01658,0.011154,-0.095148,-0.180351,0.032385,-0.04947,0.405617,0.105959,0.460413,0.128059,-0.040522,-0.398939,0.046746,0.294386,0.284382,0.307694,-0.164639,0.290469,-0.263111,0.153434,0.059006,0.008991,-0.305779,-0.071,-0.143421,0.124809,-0.127127,-0.271923,-0.09073,-0.037224,0.160293,0.059456,0.167624,-0.101841,-0.523351,0.274215,-0.022189,-0.000196,0.403731,0.100103,-0.070213,-0.032753,-0.058051,0.055667,-0.285074,0.202748,0.13039,-0.228281,0.163195,0.001459,-0.014075,-0.112792,0.043946,-0.082793,0.136481,-0.368212,-0.145597,0.072336,0.028182,-0.168623,-0.252452,-0.232778,0.331686,0.084521,0.094958,0.334872,-0.228146,-0.032845,0.157963,-0.305457,-0.211802,-0.237375,0.057014,-0.286544,0.12082,-0.080067,-0.033789,0.388779,-0.116625,0.403906,0.171467,0.470783,-0.014064,0.37983,0.352987,0.362195,-0.027563,-0.038731,0.154535,-0.006685,-0.243079,0.262199,0.611593,0.340272,-0.072536,-0.342208,-0.029529,0.187227,-0.040045,0.006133,0.529949,-0.246829,-0.007069,-0.956847,0.313728,0.070746,0.100074,-0.023521,0.025999,0.398729,-0.288033,-0.079603,0.1082,-0.071725,-0.084901,-0.184226,-0.369996,-0.230241,0.223367,-0.060984,-0.215426,0.048932,0.07146,0.182783,0.15682,-0.348865,-0.004721,-0.158116,-0.093585,0.396048,-0.152927,-0.03415,0.036722,0.020976,-0.324985
group,-0.284107,-0.460999,-0.110275,0.196317,0.081055,0.23548,-0.065839,-0.037807,0.40696,0.368456,0.655354,0.288195,0.142774,0.086295,-0.540975,-0.246774,0.191786,-0.04458,-0.213056,-0.128404,-0.09673,-0.318787,0.149825,-0.142144,0.518142,-0.132311,0.124214,0.180685,0.261227,0.005966,-0.114113,0.113424,0.213455,0.146426,0.165549,0.373438,-0.468471,0.301763,0.026829,0.222898,-0.290409,-0.003597,-0.244997,-0.123119,-0.366118,0.322616,0.241352,0.21538,0.130356,0.111591,-0.235261,-0.226594,0.293439,0.709914,0.338836,0.059694,-0.096912,-0.083022,0.038157,0.21285,0.294865,0.057522,-0.097299,-0.086388,-0.38378,-0.046131,-0.340377,0.2425,0.096455,-0.737613,0.321774,-0.371921,0.311267,-0.007245,0.146801,0.008029,0.158927,0.291034,-0.377748,0.047652,0.519731,-0.250959,0.178044,0.080255,0.060594,0.104184,-0.437707,0.000963,-0.081328,-0.255805,-0.108735,-0.254633,0.116354,-0.504255,-0.091529,0.1778,-0.01056,-0.241518,-0.110921,0.265987,-0.146811,-0.541301,0.09246,-0.163252,0.04073,-0.183655,-0.298716,0.000333,-0.236748,0.457578,0.483205,0.502928,0.130132,-0.056443,0.112913,-0.226076,-0.048525,0.001843,-0.515705,-0.183364,-0.615743,-0.287971,0.141365,-0.593083,-0.09749,-0.284255,0.308761,0.03695,-0.021803,-0.423535,-0.111979,-0.012326,-0.341206,0.148858,0.020549,-0.264833,0.150546,0.11637,-0.190431,-0.088404,0.154062,-0.1076,-0.067281,-0.219453,-0.101534,-0.371273,0.553455,-0.052784,0.060055,-0.392973,-0.205117,-0.092591,-0.240082,0.366962,-0.458674,-0.059312,0.03708,0.514892,0.239534,-0.144185,-0.003502,-0.424712,-0.286021,-0.107957,0.216602,-0.06612,0.1135,0.179587,-0.098593,0.234938,0.019514,-0.13101,-0.030536,-0.395236,-0.260384,0.166062,-0.123503,-0.175368,-0.231005,-0.052419,0.218656,0.283094,-0.326939,-0.347261,0.059284,0.185758,-0.374224,-0.121148,0.320851,-0.483434,-0.114035,0.130202,-0.071037,0.328041,-0.015944,-0.039348,-0.505219,-0.054719,-0.237028,-0.221793,0.07853,0.086112,0.139759,-0.04763,0.019921,-0.333868,-0.175819,-0.509204,-0.262926,-0.106396,-0.067953,-0.178094,0.01131,0.222262,-0.030253,-0.23131,0.281765,0.179047,-0.009271,0.282035,0.201815,0.268596,0.086413,0.282624,0.110711,0.224057,0.19569,0.236975,-0.063,0.212317,-0.135866,0.408311,-0.287855,-0.020657,0.069635,0.084068,0.317603,0.434733,-0.19993,-0.082551,0.264582,0.076888,-0.125866,0.022676,0.168618,-0.045077,0.03304,-0.179969,-0.271473,0.280615,-0.117439,0.203699,-0.354051,0.005227,-0.261602,0.153642,0.047955,-0.247274,-0.128495,-0.441366,-0.494245,-0.002167,0.270253,0.317168,-0.01373,-0.208017,-0.064775,-0.020401,-0.21592,0.18386,0.189426,0.273985,-0.008857,0.506351,-0.241415,0.333593,-0.223665,-0.434179,0.172323,-0.025977,0.579501,-0.112896,0.329579,-0.09692,0.237794,-0.403426,-0.279896,0.28237,0.236815,-0.170439,0.129406,-0.013187,0.123084,-0.103875,-0.127561,-0.361403,-0.403601,0.445278,-0.563058,0.18768,0.119163,0.1621,0.024164,-0.202048,0.154485,0.033313,0.116349,0.050466,-0.144321,-0.241504,-0.544628,0.164843,0.034001,0.362628,-0.208889,0.370362,-0.451384,-0.194313,-0.090839,0.246724,-0.199616,-0.153726,-0.394059,-0.129841,0.003389,-0.008277,-0.235967,-0.3275,0.329476,0.515378,-0.064134,0.420698,0.110809,-0.09233,-0.056004,0.156439,0.183242,-0.038695,0.510145,0.011126,-0.380026,0.117832,-0.455502,-0.001693,0.356674,-0.000747,0.494805,0.38554,-0.123452,0.078453,0.023924,0.297196,0.399644,-0.158091,0.396461,-0.122298,0.207061,0.174477,0.04183,0.026635,-0.148664,-0.154294,0.148385,0.004373,-0.114834,0.214112,0.185509,0.199515,-0.692585,0.275282,0.170703,-0.066858,-0.07384,-0.075313,0.279087,0.102475,0.385465,0.060354,-0.019274,0.070904,0.059591,0.053481,-0.134077,0.426305,0.082334,-0.133523,0.026741,0.295401,-0.033471,-0.019018,0.062609,0.091231,0.016931,0.046185,-0.091348,0.298873,0.13701,0.000465,0.324226,0.05327
space,-0.504563,0.330542,0.088504,0.440427,0.023897,0.167983,-0.149856,-0.083513,-0.035943,0.272846,-0.353243,0.145691,0.206841,-0.089632,0.109422,-0.169764,-0.527498,0.086086,0.114297,0.165735,0.039506,-0.562959,0.43639,-0.332988,0.57371,-0.486513,-0.074106,0.059175,0.139639,-0.274699,0.09281,0.134223,-0.33914,0.115102,0.419156,-0.074666,0.195064,0.154364,0.093232,0.06335,-0.247489,0.245294,-0.286615,-0.173469,0.017874,-0.400247,-0.161545,-0.014339,0.34069,-0.146721,-0.14838,0.101606,0.007727,-0.194261,-0.087118,0.055138,0.202295,-0.247652,-0.133001,-0.150757,-0.178129,-0.100592,-0.130913,0.586682,-0.00314,-0.314727,0.12565,0.08613,-0.129635,-0.012927,-0.184921,-0.045214,0.493066,-0.061324,-0.22773,-0.414622,0.002501,-0.151877,-0.189393,0.155879,-0.011631,-0.506228,0.289157,-0.269386,-0.091018,0.132928,0.338952,0.190622,0.020898,-0.732984,-0.038785,-0.080698,0.082807,-0.168905,-0.140313,0.146657,0.108152,-0.048837,0.463357,-0.220626,0.580543,-0.376221,0.346386,-0.093437,0.128519,-0.164507,-0.445926,-0.297725,-0.459292,0.475403,-0.303996,-0.028588,-0.11977,-0.093488,0.503984,-0.384456,0.27092,0.040531,-0.193199,-0.503391,0.067465,-0.22113,0.523216,-0.339636,-0.183226,0.341496,0.604519,0.023889,-0.171832,0.141176,-0.192016,0.303417,-0.509645,-0.950538,0.197324,-0.122511,0.091249,0.394543,0.167621,0.453097,0.137657,-0.119274,0.061351,0.282338,-0.060495,-0.265493,0.061727,-0.517883,0.298414,-0.422211,-0.173028,0.064229,0.096131,-0.088462,-0.27796,-0.364108,0.20849,0.588241,-0.068836,-0.065442,-0.360976,0.157701,-0.148809,-0.125982,0.226155,-0.035479,-0.184703,0.095379,-0.385847,0.041819,-0.072284,0.378253,-0.040597,-0.131162,0.006177,-0.563666,-0.349398,-0.340679,0.062197,-0.061567,0.516401,-0.115657,0.048314,0.402402,-0.328507,-0.153987,-0.931897,0.188286,-0.349598,-0.57311,-0.285408,0.206906,0.180838,-0.346134,-0.094381,0.218012,0.298913,-0.063658,-0.510258,-0.188313,-0.026871,-0.028411,-0.217714,-0.363413,-0.423989,-0.118655,0.211459,-0.201766,0.401339,0.03679,0.363869,-0.44303,0.059476,0.119552,0.028549,-0.197685,-0.070661,-0.040416,0.052292,-0.059746,-0.224472,0.271845,-0.117686,-0.12368,-0.252693,-0.32569,-0.202299,0.223738,0.138638,0.548607,0.321208,-0.076001,-0.154934,-0.024025,-0.165222,-0.330437,-0.061386,0.099076,0.840189,0.001539,0.197405,-0.350805,0.262184,-0.091011,0.05555,-0.753579,0.217753,-0.029717,0.036709,-0.105804,-0.39993,-0.262635,-0.141972,-0.109492,-0.017832,0.113935,-0.048295,0.031313,-0.144161,-0.70834,0.237321,-0.426707,-0.407638,-0.225949,0.358934,0.006155,0.253916,-0.069675,-0.280595,0.089226,0.571186,-0.209926,0.123468,-0.097087,-0.198061,0.301886,0.038751,0.449113,0.091761,0.039038,0.453111,-0.072203,-0.139894,0.221428,-0.279547,0.070657,-0.552102,-0.05935,0.216222,-0.288311,-0.196891,0.024931,0.213652,0.361517,-0.002103,-0.040516,0.255362,0.255548,0.10363,-0.256328,0.00437,-0.324461,-0.106751,-0.132685,-0.297258,-0.183225,-0.384983,-0.00479,0.084778,-0.044365,-0.012522,-0.094149,0.199479,0.221661,-0.160644,0.199887,0.263825,0.529192,0.116481,-0.376046,-0.281744,-0.075486,-0.137016,0.404374,-0.086239,0.319948,0.32528,-0.140175,0.245846,-0.208152,0.177175,0.169651,-0.392512,0.33305,0.074126,-0.038764,0.316757,-0.261227,-0.434994,-0.012356,0.101184,0.401832,0.510867,-0.048747,0.020505,-0.237462,0.102212,0.336676,0.500045,0.218728,0.256764,0.226352,0.613476,0.269422,-0.357451,-0.111623,0.255086,0.083715,0.195674,-0.038738,-0.191622,0.190131,0.014055,-0.1082,-0.009246,-0.031882,0.216781,0.253539,-1.813818,0.443185,-0.271222,-0.025265,-0.421685,-0.034175,-0.335097,0.612534,0.009285,-0.130726,0.140034,-0.32197,0.472648,-0.176625,0.149864,-0.034796,0.39255,-0.29146,0.202272,0.35581,-0.224574,0.06824,-0.237122,0.685911,-0.519934,-0.05318,0.029869,0.067279,0.125546,-0.26818,0.195205,0.522168
two,0.415206,0.082788,-0.071911,0.319571,0.226218,0.295017,-0.145436,0.148389,0.058287,0.06927,-0.128449,-0.11101,0.266319,-0.065052,-0.339769,0.115975,0.11204,-0.091283,-0.12245,-0.053364,-0.265871,-0.178286,-0.05859,-0.039648,0.120047,-0.318404,0.059099,0.097112,0.075447,0.077395,-0.139789,-0.238208,-0.258615,-0.249089,0.209423,0.188692,-0.278838,0.222722,0.059966,0.486763,-0.11631,-0.045416,0.179737,0.070381,-0.123064,0.2964,0.183501,-0.075493,0.050968,-0.037882,-0.150619,-0.058828,-0.018981,-0.413012,0.062297,-0.026561,-0.154501,0.153263,-0.054763,0.024575,0.027989,-0.14488,0.170327,0.179215,0.16961,0.069556,-0.155373,-0.199739,-0.247842,-0.467647,0.043374,-0.018297,-0.103479,-0.350969,0.358624,0.174429,-0.019112,0.04298,-0.186925,0.275591,0.192592,0.049823,-0.012497,0.175811,0.216445,0.290109,0.137454,-0.033582,-0.154153,-0.037739,0.058473,0.141704,0.236432,-0.434861,-0.069612,-0.247278,-0.2043,0.114276,0.045298,0.202849,-0.220105,-0.113336,0.224476,-0.102432,-0.045348,-0.007688,-0.131082,-0.349976,-0.06225,0.222133,0.038726,-0.306449,-0.155856,0.173642,0.111068,-0.131226,-0.075395,-0.284218,-0.112815,-0.149687,-0.11353,-0.091877,0.0293,0.061688,-0.117935,-0.038496,0.171956,0.063202,-0.097522,-0.413304,-0.197861,0.046761,-0.033629,-0.291658,0.263184,-0.086367,-0.099492,0.013821,0.14547,0.126758,0.049067,-0.06553,0.045552,0.005369,0.148062,-0.261985,0.187179,-0.112532,0.046155,-0.086619,0.059279,-0.036915,-0.045851,-0.033425,-0.157822,-0.143569,0.105286,0.732935,-0.136579,-0.18456,0.158547,-0.305256,0.061053,0.174604,-0.038558,0.041126,-0.217357,-0.100371,-0.098729,0.042518,0.011028,-0.320235,0.064418,0.081359,-0.421347,0.222148,0.266088,-0.057067,0.045437,0.104806,0.040342,0.010164,-0.057981,-0.135275,0.082277,0.193999,-0.417008,0.232235,0.133325,-0.304107,-0.131884,0.352758,0.017825,-0.013562,0.1049,0.059724,-0.195301,0.108147,-0.126513,-0.076156,-0.071069,0.014399,-0.317612,-0.140185,-0.571428,0.00024,0.129886,-0.048912,-0.122648,-0.183235,0.159136,0.006787,0.031518,0.134908,0.084158,0.147836,-0.053146,0.000783,0.152945,0.168004,0.125536,0.170029,-0.200492,-0.08049,0.163789,0.280335,-0.10053,-0.429566,-0.334379,0.290682,0.029474,-0.335185,-0.101073,-0.110508,-0.074188,-0.334242,-0.07971,-0.280536,-0.198318,0.014741,0.083324,0.171793,-0.189914,0.084916,0.081029,0.072262,-0.049082,-0.201332,0.101258,-0.148333,0.15901,-0.051364,-0.121784,-0.089584,-0.015457,-0.281682,-0.145383,0.180675,-0.056947,0.000903,-0.096743,0.069859,-0.208899,-0.277565,0.093583,-0.218403,0.439169,-0.073899,-0.315496,0.177483,0.106364,0.243305,0.114098,0.292826,-0.214555,-0.020472,0.043508,0.056538,-0.108278,0.182323,0.421797,0.068905,0.391931,-0.272622,-0.003192,-0.066365,0.04477,-0.137673,0.035144,-0.102847,-0.07942,-0.062091,0.140863,-0.091038,-0.096662,0.222372,-0.290747,0.256789,-0.160735,-0.343668,0.022335,0.313198,-0.115541,0.42419,0.087572,-0.146774,0.100218,0.343265,0.135382,0.041215,-0.197504,-0.043222,0.126729,0.111923,0.116521,0.213098,-0.198077,-0.209256,-0.340249,-0.20611,0.216677,-0.22843,0.056692,0.113065,-0.481976,-0.051934,0.083266,0.444581,-0.098835,0.195605,0.018967,-0.27966,0.083821,-0.133666,-0.156343,0.014965,-0.03547,-0.143684,-0.193452,0.146082,-0.082175,-0.056018,0.11994,-0.124005,0.220298,0.526248,0.063177,-0.091849,0.313792,0.013504,0.108714,-0.075209,-0.026029,0.01149,0.037454,-0.111672,0.017045,0.347077,0.234621,-0.022949,-0.265897,0.096091,0.421324,0.106624,-0.307757,0.292374,-0.029925,0.106101,-0.821884,-0.06748,0.496491,0.193039,0.217734,-0.11104,0.010112,-0.155912,-0.134616,0.051731,-0.117583,-0.087886,-0.023717,-0.057062,-0.254948,0.023348,-0.122992,-0.018429,0.093605,0.05365,0.043296,-0.275812,-0.195978,-0.200025,-0.019208,-0.444699,-0.14954,-0.017573,-0.031955,-0.09102,0.158771,0.118214
theory,-0.849449,-0.324733,-0.296958,0.262082,-0.303182,0.037004,0.171011,-0.350476,0.159499,0.070801,-0.071797,0.021867,0.373086,-0.581782,-0.58322,0.171208,-0.866481,0.135886,-0.214236,0.19746,0.366397,-0.29747,0.408293,-0.590591,-0.047837,0.137422,-0.146719,-0.179628,0.360763,0.05518,-0.317964,0.128305,-0.066522,0.040072,-0.21212,0.208531,-0.52904,-1.341019,-0.297837,0.239869,-0.058074,0.61766,-0.322576,-0.210819,-0.436886,-0.502321,0.426567,0.02104,0.540903,-0.03921,0.576315,-0.482366,0.295622,-0.078211,0.082194,-0.191332,0.026571,0.287133,0.628219,0.291997,0.47496,-0.125081,-0.216731,0.406831,0.103054,-0.275683,0.492205,0.191031,0.05185,-0.062456,-0.092325,0.532923,0.00471,0.070252,-0.264373,-0.036223,0.041372,0.371757,-0.362672,-0.207566,-0.005729,-0.168667,-0.004816,-0.121578,-0.266813,0.12557,0.336859,-0.410729,0.130074,-0.451465,0.484134,0.103702,-0.559792,-0.495622,-0.356577,-0.209957,0.170972,0.011571,0.134923,-0.329589,-0.436384,-0.548624,0.137324,0.276818,0.391187,-0.157994,-0.291127,-0.277571,-0.183347,-0.513978,0.068423,0.01983,-0.043422,0.258337,0.134425,-0.187248,0.032053,0.148989,0.209247,0.110782,0.127542,0.175392,-0.237486,-0.55815,0.278765,0.165092,-0.088683,-0.138049,1.027616,-0.558788,0.278245,-0.085602,-0.251733,-0.139972,-0.000944,0.043937,-0.25592,-0.025195,0.416827,-0.062239,-0.922005,-0.183279,-0.580287,-0.083477,-0.27301,-0.731552,-0.206024,0.029386,0.169772,-0.311308,-0.168253,-0.071467,-0.123811,-0.208161,-0.002546,-0.105382,0.076464,-0.426721,0.343349,-0.12962,-0.616983,0.428036,0.324675,-0.013003,-0.519398,0.070495,0.17808,0.225809,0.174335,0.05972,0.223723,0.21808,-0.06462,-0.171946,-0.516763,0.096415,-0.324415,-0.108006,0.356524,-0.22184,0.271034,-0.04144,-0.461734,-0.257559,-0.266381,0.233334,-0.491638,0.270063,-0.857095,-0.548392,-0.195473,-0.409821,0.424309,-0.331784,0.075009,0.565164,-0.349487,0.26122,0.143948,-0.027022,-0.05979,0.563079,0.359455,0.039973,-0.444552,0.216586,0.300541,0.169565,0.336951,0.149667,0.558283,0.264436,0.362528,-0.189701,-0.000737,0.213263,0.754241,-0.364902,0.27413,0.198126,-0.264385,0.168053,-0.04779,-0.103914,0.110163,0.254147,-0.182818,-0.156108,0.177044,-0.128187,-0.094407,0.304205,0.131214,0.007061,-0.154707,0.054048,0.213532,0.731944,0.069983,-0.063436,0.196873,0.420879,-0.044313,0.11532,0.050092,-0.558969,0.021952,0.412766,-0.220384,-0.232559,-0.381886,0.065996,-0.132645,0.351941,-0.018957,0.014829,0.125613,0.223639,-0.360156,-0.32441,0.366057,0.104017,0.253536,-0.539014,0.076173,-0.096137,0.104677,-0.158881,-0.319066,-0.453925,-0.258082,0.327918,0.653051,0.064959,-0.058369,-0.846622,-0.008577,-0.047789,-0.04995,0.338323,-0.228263,-0.033604,0.074452,0.114651,-0.480234,-0.148016,-0.086817,-0.372663,-0.259624,0.268724,0.440319,-0.336603,0.048144,0.115577,-0.09356,-0.101309,-1.224312,0.1036,-0.048976,0.175357,-0.694331,-0.579332,0.150392,-0.102902,0.655692,0.420422,0.174348,-0.620148,-0.265448,-0.124232,-0.191293,0.39676,0.288699,0.180567,0.181486,0.267035,0.48553,0.165122,-0.21137,0.118693,-0.150004,-0.381689,-0.086033,-0.254845,-0.087494,-0.3728,0.20517,0.08999,0.420246,-0.040594,-0.02402,0.47753,-0.028271,-0.013504,-0.311773,0.110445,-0.098123,0.408537,0.201407,-0.513907,0.254682,-0.02464,0.018122,-0.352099,0.370345,-0.036939,0.124991,0.62049,1.077744,0.275928,0.336614,0.119046,0.602448,-0.120129,-0.729136,-0.189084,0.026247,0.007798,-0.183455,-0.51956,-0.167019,0.252898,-0.116344,-0.582016,-0.046103,0.334983,-0.212254,0.205163,-0.771412,0.329851,0.117635,-0.460012,-0.29599,0.204354,0.069133,0.383214,-0.092004,0.409575,-0.104319,-0.046012,-0.124087,0.186773,-0.130197,0.313936,-0.008949,0.021108,0.109398,0.065651,0.077485,0.059061,0.087017,-0.308574,-0.08222,-0.19747,0.430931,0.029747,0.284497,0.079071,0.270502,-0.360065
point,0.395441,-0.007368,0.05447,0.255182,0.410804,-0.014495,0.022515,-0.459393,0.037489,0.203674,-0.229398,0.215706,0.255267,0.016931,-0.497155,0.362841,-0.183357,-0.454754,-0.055043,-0.469804,0.012681,0.121323,0.026735,0.494481,0.279825,0.172305,-0.337479,0.085144,0.014442,0.267451,0.178141,-0.288135,-0.364776,0.181344,-0.221301,0.000939,-0.353247,0.421707,0.007221,-0.271854,0.113413,0.257961,-0.043369,0.389592,-0.063946,-0.041994,0.143454,-0.164772,0.044576,0.025012,0.04841,-0.3029,-0.015448,-0.275897,-0.0873,-0.179168,0.156511,-0.61415,-0.032464,0.273697,0.057966,0.250493,-0.094259,0.271356,0.138833,0.047523,0.121249,-0.128351,-0.352549,0.130683,-0.230557,-0.107784,0.357024,-0.246198,0.24664,0.009713,-0.086206,-0.041344,-0.090727,0.215278,0.234708,-0.136558,0.212116,-0.160254,-0.236901,0.413648,-0.191503,0.285006,0.011983,-0.374353,0.293476,0.212286,0.263072,-0.214595,0.118627,-0.324486,-0.097162,-0.194226,-0.346458,0.394141,0.301459,-0.337629,-0.181124,-0.182957,-0.3068,0.206547,0.04203,-0.264376,-0.081539,0.312519,0.231602,-0.438405,-0.019052,0.418416,-0.100065,0.039188,-0.421296,0.333233,0.077585,-0.585804,0.352049,-0.107943,-0.231564,0.24121,-0.310092,0.333421,-0.045781,0.033896,0.238685,-0.881678,0.072535,0.191755,-0.297976,0.361761,0.110173,-0.179311,-0.195666,0.254176,-0.052268,0.001136,-0.284707,-0.306053,0.163964,-0.341104,-0.086409,-0.223906,0.216648,0.165257,0.038496,-0.218523,0.00037,-0.003604,-0.297514,0.183504,0.246565,0.030336,-0.259978,0.493386,0.101843,-0.010328,-0.017721,-0.226089,0.164831,-0.051454,0.074133,-0.094277,-0.059934,0.119415,-0.355389,-0.139969,-0.215741,-0.147871,-0.077992,0.227783,-0.021385,-0.03597,0.022558,-0.09013,-0.100804,-0.256886,0.348651,-0.004901,0.141639,0.262221,-0.076357,0.212084,-0.595643,0.010133,-0.176567,-0.129417,-0.259503,-0.271803,-0.239689,-0.07148,0.030674,-0.042542,-0.053312,0.281103,0.627363,-0.058117,-0.225486,-0.273459,0.230127,0.092188,-0.564768,-0.357679,-0.153016,-0.085809,0.199244,-0.266036,0.063314,0.104719,-0.203202,0.103753,-0.181793,0.072935,0.172461,-0.030476,-0.312599,0.093959,-0.047063,0.01331,-0.502864,-0.054642,-0.364861,0.389237,-0.118725,-0.010162,-0.129046,-0.102117,0.026717,-0.355995,-0.061932,0.242093,0.241499,0.121031,-0.115509,0.236172,0.006557,-0.296967,0.046357,-0.096274,-0.001885,0.28928,-0.334994,-0.170096,-0.371924,-0.222101,-0.301697,-0.359682,-0.124216,0.010153,0.386165,-0.185742,-0.266309,-0.058835,0.15626,0.246339,-0.397251,0.007735,0.060813,0.163658,0.316977,-0.207755,0.006251,-0.009351,0.442008,-0.351659,-0.05688,-0.010867,0.17386,0.032053,-0.134518,-0.243007,-0.25448,0.282656,0.043684,-0.415552,0.132919,0.112304,-0.353944,-0.389794,0.261455,-0.070483,-0.078703,-0.006978,0.262347,-0.193763,0.285123,-0.06194,-0.037747,-0.010338,-0.158096,-0.018939,-0.28941,-0.086274,-0.261053,0.139135,-0.010989,0.174564,-0.152987,0.04376,0.307952,0.183635,0.140711,0.120351,-0.329231,0.246802,0.057003,-0.119719,0.517733,-0.076132,0.455122,0.47626,0.12985,-0.007589,-0.030136,-0.338106,-0.568091,0.050629,0.13715,0.14217,0.118942,-0.122402,-0.277319,-0.400712,-0.177119,0.630578,-0.191152,0.176626,-0.436432,0.4732,-0.285173,0.031448,0.332688,0.129863,-0.303723,-0.387846,-0.13061,0.324371,0.226958,0.206223,0.190825,-0.395407,0.688479,0.61601,0.411905,-0.137533,0.036915,0.344324,0.092087,0.223293,0.077334,-0.337971,-0.141708,-0.525462,-0.174721,0.282631,-0.401641,-0.017347,-0.030212,0.14831,0.069075,0.154552,-0.17115,0.08326,-0.222922,0.026823,-1.001054,-0.139689,0.226347,-0.027378,0.493743,0.354806,-0.00037,0.064073,0.22099,0.147867,-0.437479,0.048559,-0.180304,0.014271,-0.166564,0.024072,0.365554,0.648525,0.158652,-0.098827,0.195099,0.235611,0.034232,-0.264346,-0.135101,-0.250593,0.121735,0.184581,-0.295742,-0.043831,-0.254585,-0.181862
theorem,-0.635751,-0.728368,0.098082,0.243444,-0.1831,0.147111,-0.161704,-0.10425,0.158237,0.397405,-0.181466,-0.361073,0.449409,-0.401516,-0.602187,-0.131927,-0.199915,-0.728505,-0.279322,0.070539,0.756769,-0.460768,0.978852,0.066814,-0.375253,-0.282103,0.01904,-0.465359,-1.027327,-0.467408,0.049502,0.353451,0.3519,-0.573131,0.245357,0.488445,0.436474,-1.334655,0.202019,0.453484,-0.681977,0.379205,0.125212,-0.412418,-0.258573,-0.178609,0.393875,0.078285,0.482418,0.10024,0.364705,0.240894,-0.323827,-0.751369,-0.557007,-0.822298,0.054917,-0.211509,0.412526,0.420299,-0.003459,-0.640558,0.064676,0.321098,0.057911,-0.048119,1.112222,0.240837,-0.009739,0.406971,0.402752,0.468024,0.534743,-0.289886,-0.022494,0.01442,0.135975,0.731957,0.056038,-0.025935,0.096398,-0.06994,0.014018,0.041737,0.37022,-0.403117,0.420793,-0.060381,-0.486069,-0.125305,0.488832,-0.099107,-1.050095,-0.145014,-1.075924,-0.047443,-0.428778,0.176304,-0.028531,-0.082787,-0.198045,0.362433,-0.096095,0.238928,0.080383,-1.218053,-0.034291,0.182349,-0.246107,-0.608232,-0.008301,0.57159,0.279836,-0.237457,0.257482,-0.109561,0.797161,-0.069331,0.313797,0.104905,0.534953,0.510571,-0.558684,-0.095206,-0.062237,0.76547,0.277058,0.259286,1.34767,-0.043076,0.021233,-0.970908,-0.15415,-0.525347,0.366331,0.086596,0.085492,0.123499,-0.058783,0.155537,-0.592023,-0.215987,-0.198013,-0.186991,-0.300675,-0.501482,-0.142835,0.448026,-0.258616,-0.410093,0.556792,-0.164382,0.007543,-0.309853,0.06761,0.174635,0.521461,-0.674871,0.543894,0.185324,-0.081323,0.281807,0.324555,0.444778,-0.177676,0.534303,0.506472,0.443722,-0.220411,0.114787,-0.036041,0.379411,-0.379402,-0.186777,-0.49352,-0.377125,0.347297,0.779342,-0.312607,-0.863398,-0.205404,0.011323,-0.19516,0.027778,-0.507872,-0.296501,-0.252655,0.245594,-1.125978,-0.893694,0.196319,-0.063521,0.398634,-0.360421,0.026117,-0.112123,0.302088,0.139232,0.471703,-0.086253,0.432565,-0.173341,0.845369,-0.533834,-0.999641,0.782896,-0.055441,0.018134,0.135288,-0.073012,0.223119,0.123613,0.331912,-0.047594,-0.215139,0.207566,0.502371,-0.084549,-0.025511,0.56408,-0.02226,0.273922,-0.659603,-0.152034,-0.256323,0.396127,0.516494,-0.151211,0.31413,-0.042971,-0.362239,0.098494,-0.44758,-0.075147,-0.444259,0.270436,-0.181004,0.218364,-0.954159,-0.107261,0.013733,0.485153,-0.229983,-0.269188,-0.382863,-0.681303,-0.108316,-0.104954,-0.100816,0.276861,-0.618906,0.481143,0.60171,-0.203617,-0.216945,-0.636686,0.610243,-0.168527,-0.880255,-0.651533,0.232865,-0.199239,0.368766,-0.164086,0.306821,-0.402006,-0.314235,0.368116,-0.359201,-0.432218,-0.760741,-0.279745,0.617509,-0.379314,0.232633,-0.433082,-0.081086,0.203156,-0.221989,0.702827,-0.437003,-0.671719,0.485445,0.037014,-0.430348,0.426651,-0.132031,-0.189735,-0.486722,-0.259215,-0.101673,-0.084789,-0.214751,0.085764,-0.195102,-0.203871,-0.630708,0.235275,0.064284,-0.044333,-0.879727,0.009425,0.513204,-0.001205,-0.243536,-0.140832,0.331457,-0.35838,-0.361253,0.519957,0.521197,0.352174,-0.172622,0.152932,0.355154,0.463137,0.112704,0.577022,-0.19143,-0.715268,-0.543072,0.300778,0.299322,0.038736,0.632181,0.148989,0.184784,-0.204635,0.544452,-0.074093,-0.747334,0.69359,-0.390392,-0.020167,-0.108069,-0.436555,0.303909,-0.327237,0.054688,0.023868,0.302528,-0.175917,0.26616,0.639484,0.379954,-0.525188,0.408448,0.415517,0.864665,0.315378,0.28269,-0.026186,0.329365,-0.658026,-1.062973,0.33876,0.144026,-0.370794,0.273729,-0.611934,-0.595245,-0.100765,0.530443,-0.537218,0.000981,0.084283,-0.112026,-0.342188,-0.635859,0.092815,0.070203,0.044736,0.019669,0.426451,-0.062335,0.919623,-0.216992,0.33513,-0.653146,0.362523,0.306537,0.543156,-0.304833,0.159341,0.101527,0.216101,0.460755,-0.052448,0.212258,0.232942,0.17409,-0.42374,-0.333466,0.218225,0.072488,0.028887,0.597228,-0.279187,0.266567,-0.313369
example,-0.458505,-0.330962,-0.016979,-0.09223,-0.186808,-0.104666,0.117991,0.010964,-0.241154,0.203737,-0.287373,-0.172752,0.11727,-0.126059,-0.186442,0.120083,-0.116512,0.239187,0.022189,0.151086,0.066922,-0.006797,0.095193,0.109459,-0.085453,-0.000125,-0.144253,-0.029278,-0.057826,-0.09384,-0.052798,0.103057,-0.017396,-0.066243,0.083473,0.005586,-0.120916,-0.389019,-0.054741,0.01962,0.034463,-0.007076,0.314435,-0.101124,0.061223,-0.251576,0.003244,0.138063,0.288501,-0.194833,0.05757,0.27479,0.083934,0.056928,-0.181206,0.027845,-0.05753,0.294323,0.109804,0.031646,0.026606,0.014244,0.14496,0.04263,0.340707,-0.062599,0.282645,-0.110407,-0.013891,-0.186458,-0.243587,-0.202311,-0.029445,-0.230174,0.098314,-0.122156,-0.185263,-0.056961,-0.337823,-0.082696,-0.004906,-0.232329,0.002563,0.207197,-0.406592,0.167105,0.158771,-0.124489,0.080094,-0.052256,0.395149,0.146151,0.085929,-0.138216,0.006738,0.073872,-0.184934,0.207379,-0.056776,-0.100454,0.20599,-0.382575,0.346106,-0.073244,-0.013998,0.447441,-0.116836,0.148425,0.02169,0.065117,0.239199,0.299741,0.135965,0.115258,-0.171268,-0.160403,-0.282677,0.143934,-0.101131,-0.26868,-0.244475,-0.032598,0.319456,-0.135455,0.024812,-0.280989,-0.073628,-0.248756,-0.05968,-0.020675,-0.11147,0.142567,-0.253438,-0.18093,0.157199,-0.0465,-0.318564,-0.075774,0.12579,0.378226,0.189645,-0.210931,0.149865,0.423591,0.082442,-0.273561,-0.019077,0.227961,0.158377,0.114987,0.001693,-0.119453,-0.335885,0.007528,-0.263595,0.060146,0.025446,0.072831,-0.014443,0.034138,0.004148,0.099028,0.167272,0.256311,-0.407112,0.049818,0.009878,0.409129,0.176014,0.252946,0.105924,-0.331085,-0.101284,-0.077797,-0.345059,0.101557,-0.429787,0.474769,0.191184,-0.030991,0.158638,-0.259735,-0.257806,-0.021013,-0.093554,-0.060629,-0.775651,0.231736,0.337612,-0.067441,-0.192746,-0.299212,-0.445979,-0.034047,0.098255,-0.316538,-0.164481,0.383222,-0.080952,0.095829,0.360995,-0.024094,-0.128026,0.073664,-0.479171,-0.148094,0.144534,0.078024,0.116211,-0.141599,0.202099,0.047179,0.242819,-0.040707,-0.162,-0.2908,0.071887,-0.029706,0.112828,0.1343,-0.097926,-0.11549,-0.126784,-0.079074,-0.06168,0.071215,0.082575,0.238923,-0.030218,-0.060788,-0.097978,0.306816,0.06653,0.262807,0.190816,-0.199516,-0.128702,0.151973,-0.220593,-0.034848,0.12833,-0.119942,-0.222864,-0.138321,0.503333,0.222566,-0.189774,0.052559,-0.002818,-0.138313,0.162055,0.121381,0.015169,-0.343964,0.073611,0.144341,0.078292,-0.047857,-0.051137,-0.142056,0.008182,0.038546,0.066787,-0.120452,0.16632,0.019561,0.1616,0.009137,0.035873,-0.071263,0.015741,0.399647,0.2363,-0.095675,0.267081,-0.271069,-0.066434,0.251548,0.209636,0.137985,-0.211434,0.332023,0.172764,-0.020848,-0.000733,-0.21014,-0.165916,-0.075075,-0.308782,-0.114994,0.324733,-0.168917,-0.076798,0.013838,0.067269,0.181202,-0.274761,0.040045,-0.132811,-0.033137,-0.229218,-0.120107,-0.02721,0.047518,0.237129,0.201048,-0.245265,0.118266,0.028194,-0.162606,-0.448181,0.176329,-0.119786,-0.271376,0.106237,0.195053,-0.075502,-0.037734,-0.213567,-0.083068,-0.164471,0.065781,0.114218,0.153094,-0.100578,0.056932,-0.258716,-0.014587,0.020616,0.00275,-0.06706,0.151262,0.160797,-0.218013,0.047686,-0.205607,-0.276091,0.435964,0.028164,0.063649,-0.006945,-0.260419,0.208396,0.267586,0.23091,0.187525,0.462768,0.040422,0.610154,0.261153,0.209812,-0.047203,0.114695,-0.339394,-0.209874,0.002157,0.23235,0.243741,-0.121575,-0.121324,-0.14031,-0.175531,0.027489,-0.032775,-0.157693,0.016544,-0.216992,0.006534,-1.247853,-0.164705,-0.069907,-0.037193,0.084836,0.172664,0.069319,-0.169941,-0.174342,-0.338795,-0.228057,-0.026948,0.017827,-0.101534,-0.07093,0.07827,-0.1111,-0.000981,-0.049785,0.045266,-0.108583,-0.245206,-0.17193,-0.224996,0.259865,-0.070415,-0.156833,0.113332,0.064249,-0.07813,0.007379,0.015649
form,-0.116635,-0.495472,0.159476,0.272107,-0.130295,0.07675,0.274879,-0.050147,0.172607,0.11996,0.055014,0.235028,-0.115821,0.073801,-0.240064,0.049876,-0.283904,-0.077004,-0.225837,-0.281523,0.158921,0.013291,0.198888,0.080544,-0.006242,-0.445202,0.161978,-0.1706,0.166305,-0.114393,-0.004443,0.224435,-0.406967,-0.047308,0.032991,0.052675,-0.604777,-0.168687,0.026663,0.4747,-0.024924,0.03325,-0.073142,-0.20425,0.133757,-0.046764,-0.073494,-0.166092,0.295277,-0.019345,-0.207527,0.359882,0.6128,0.019442,-0.049629,0.174434,-0.151204,-0.115701,-0.268578,-0.027802,-0.167544,-0.019518,0.362423,0.028717,-0.173258,0.155439,-0.099812,0.083655,0.025545,-0.647432,-0.240819,-0.0284,0.146773,0.059659,-0.006448,-0.182452,0.02362,0.187618,-0.126231,0.109086,0.257063,0.084362,0.08706,0.079615,-0.001116,0.023255,0.259191,0.207008,-0.056423,-0.095119,0.421309,0.176434,0.194174,-0.164256,0.126776,0.128965,0.236077,0.039443,-0.179898,0.072886,-0.073687,-0.227156,-0.02496,-0.2461,-0.077933,0.04883,-0.174583,-0.239304,0.406022,0.067649,0.331249,0.529107,-0.312307,-0.022579,-0.116907,-0.292738,-0.206036,-0.24582,-0.286937,-0.175884,-0.303281,-0.132229,0.206389,-0.184904,-0.030999,0.043083,0.047953,-0.082397,-0.413076,-0.22789,0.304489,-0.171227,-0.299496,-0.081349,-0.185225,-0.256207,0.121485,-0.061908,-0.172879,-0.001909,0.140703,0.225958,0.078018,-0.237654,-0.109993,-0.341149,0.01517,-0.20236,-0.207168,-0.011102,-0.013533,-0.276003,0.060861,0.20116,-0.501092,-0.040543,0.232001,0.016087,-0.138885,-0.071978,-0.050385,-0.27147,0.2112,-0.061868,-0.005592,0.135755,-0.280039,0.368063,0.118879,0.338844,0.09865,-0.297123,-0.185268,-0.149992,-0.330437,-0.107899,-0.090294,0.153937,0.163371,-0.176271,0.177252,-0.030483,-0.13759,-0.039798,-0.018373,0.158539,-0.736362,0.243925,0.117479,-0.033,-0.403213,-0.18918,-0.102448,0.10042,-0.401181,-0.014669,-0.18351,0.227928,-0.289864,-0.057582,0.055911,0.297258,-0.108217,0.252978,-0.459583,0.328069,-0.041872,-0.774192,-0.074798,-0.082054,0.186593,-0.247035,-0.078499,0.1302,-0.088301,-0.191533,0.351526,-0.409772,-0.053361,-0.016888,0.224226,0.101805,0.302157,0.067468,0.190841,0.150135,-0.230918,0.362263,-0.242794,-0.00865,0.153332,0.530896,0.272298,-0.181713,0.17481,0.070931,-0.175073,-0.026944,-0.190721,-0.099699,-0.014254,-0.084942,0.040519,-0.042167,0.124659,0.162443,-0.021713,-0.183574,0.089021,-0.019624,-0.26787,-0.016431,-0.026077,-0.470601,-0.076412,0.142036,0.24729,-0.123022,-0.104846,-0.486545,-0.019874,0.09952,-0.139675,-0.189736,0.253247,-0.246355,0.484981,0.046505,-0.337991,0.185131,0.129489,0.299753,0.363497,0.456462,-0.075993,-0.092454,0.019162,-0.073328,0.005345,0.271545,0.504168,0.275207,-0.077136,-0.246923,0.243764,-0.599167,-0.057673,0.213829,-0.053626,-0.069913,-0.054111,-0.324057,-0.10607,-0.220976,0.217748,-0.184132,-0.409513,-0.151428,-0.35221,-0.18159,-0.13943,0.239723,-0.108259,0.009689,0.14421,-0.048545,0.145873,0.145564,0.027849,-0.206073,-0.485594,0.105414,0.00196,0.138581,0.11378,0.265376,-0.070415,-0.046316,-0.184,-0.234129,-0.041458,-0.05875,0.089979,0.21101,-0.465786,-0.0103,-0.265757,0.119317,-0.066719,0.600524,0.01984,0.058767,0.249873,0.041084,0.013616,-0.00554,0.243228,0.386218,0.01833,-0.017615,-0.081273,-0.083427,-0.391897,0.066793,0.299611,0.389976,0.107614,0.14046,0.668109,0.022229,-0.037746,0.217975,0.160623,0.000976,-0.050735,0.000888,0.006217,0.021522,0.043498,-0.262338,0.028633,0.009083,0.195635,0.280657,0.123378,0.219113,0.069437,-0.252445,-0.700062,-0.163608,0.460464,-0.056712,-0.190199,0.198264,0.359653,-0.145896,0.138175,-0.182795,-0.103753,0.023804,0.261786,0.001908,-0.118655,0.17907,-0.048731,0.09751,-0.327293,0.321016,-0.099114,-0.030121,-0.035801,-0.075352,0.214264,-0.220121,0.05565,-0.037231,0.116455,0.045414,0.026062,-0.176169
define,-0.825931,-0.154828,-0.121844,0.032876,-0.14496,0.07779,-0.096791,-0.237752,-0.321279,0.56164,-0.130097,-0.296193,0.180834,-0.18925,-0.354947,0.501299,-0.476796,-0.302887,0.034256,-0.073821,0.50311,-0.242417,0.262411,-0.127046,-0.066708,0.136303,-0.313246,0.0797,-0.018126,0.141435,-0.10356,-0.206538,0.178861,0.218797,0.135078,0.143571,-0.028819,-0.303292,-0.225972,0.397952,-0.491893,0.175139,0.185786,0.208509,-0.025247,-0.386891,-0.089095,-0.080471,0.161767,0.04771,-0.106689,0.19193,0.000182,0.008564,-0.170828,0.259624,0.389908,0.138098,-0.040692,0.185937,-0.321032,0.336406,0.184953,0.053712,0.371462,-0.208656,-0.121243,0.019901,0.082682,0.062776,-0.196905,-0.409316,0.159865,-0.054294,-0.323811,-0.18773,-0.220034,-0.127421,-0.051437,-0.118907,-0.133066,-0.697788,-0.110619,-0.327925,0.075752,-0.021782,0.069138,0.394661,-0.095312,-0.116649,0.346337,0.450005,0.053409,0.031254,0.157783,-0.467078,0.091861,-0.072388,-0.607871,0.379353,-0.031224,-0.164919,0.135312,-0.359761,-0.124042,0.461391,-0.191436,0.34768,-0.199496,0.487192,0.532705,-0.175622,-0.360909,-0.0045,0.427159,0.307296,-0.354825,-0.019779,-0.325863,-0.07589,-0.186355,-0.334772,-0.017705,0.262393,0.110321,0.393009,-0.092812,0.034018,0.111561,-0.34559,0.226396,0.033638,-0.434265,0.218282,-0.045224,-0.276031,-0.056342,-0.001474,-0.074226,0.224974,-0.125465,-0.085691,0.538817,-0.214866,-0.152839,-0.529667,-0.166086,0.081517,-0.298085,-0.169343,-0.142738,0.080779,-0.223645,-0.224646,0.356471,0.083929,0.362896,-0.309861,0.041013,-0.077192,0.03368,-0.338042,0.04434,-0.04852,-0.130727,0.111768,0.072083,0.321621,0.401023,0.26362,0.164434,0.226312,-0.077409,0.014609,-0.116216,-0.008724,-0.187886,0.271585,0.052003,0.347299,0.300651,-0.340265,-0.124176,0.110562,-0.335795,0.412656,-1.207592,-0.173144,-0.024066,-0.55457,0.004897,-0.118172,-0.161005,-0.148338,0.146158,-0.008065,0.240158,0.099418,-0.110285,-0.007709,-0.112064,-0.051151,0.128203,-0.178705,-0.945114,0.019553,-0.0109,-0.235427,-0.123184,-0.069371,0.150205,-0.133034,-0.029295,0.063285,0.070922,0.068205,0.376824,0.209079,-0.051469,0.159988,0.058725,0.171494,-0.112092,0.031698,-0.401951,0.203731,0.132617,0.235844,0.140141,0.125827,0.246037,0.449949,-0.408219,0.071813,0.440761,0.203987,-0.12739,0.615919,-0.062418,-0.082824,0.187079,-0.09442,0.375709,-0.042985,0.182509,0.03906,-0.282851,0.460442,-0.048298,-0.107969,-0.108332,0.016978,0.181957,-0.460786,0.143837,-0.041307,0.353041,-0.370775,-0.109991,-0.739068,0.003353,-0.020193,0.307375,-0.132372,0.100682,-0.02541,0.112927,0.308292,-0.086377,-0.055939,-0.127863,0.550355,-0.04102,0.038175,0.202506,-0.718759,0.414462,0.186371,0.209698,0.300983,-0.055395,-0.12574,0.10704,0.126101,-0.15476,-0.365206,-0.520529,-0.215672,-0.242643,0.075128,-0.177432,-0.12836,0.218896,-0.07276,-0.333825,-0.077799,-0.799849,-0.108345,-0.035663,0.134425,-0.075511,-0.307017,-0.045307,-0.248421,0.22762,0.056015,-0.162852,-0.083727,-0.434286,-0.241546,-0.126602,0.331847,0.031764,0.019655,0.478751,-0.062695,-0.065082,0.226554,-0.35588,0.310666,-0.77504,0.067769,0.209445,0.185161,-0.287028,0.189926,-0.283111,0.051281,-0.160006,0.026083,-0.031164,0.319936,0.021481,0.117355,-0.083502,0.085445,-0.302045,0.343938,0.186181,0.163835,0.383288,-0.435972,0.148125,0.049163,0.052034,0.080376,0.417523,0.020135,0.622056,-0.125912,0.125531,0.321419,0.518258,-0.004485,-0.061207,-0.096636,0.275128,0.258515,0.252539,-0.083223,-0.248307,-0.015676,0.312053,-0.051199,0.183562,0.043548,-0.199817,0.224002,-1.046826,0.482392,0.31872,0.046179,-0.283125,0.12428,0.113696,-0.180228,-0.144254,-0.067638,0.032008,-0.243015,0.413391,-0.006181,-0.239982,-0.054049,0.360628,0.365078,-0.165489,-0.056119,0.184108,0.013344,-0.402875,-0.006516,-0.001114,0.324844,0.007132,0.10237,-0.00498,0.266281,0.347291,-0.421806
graph,-0.84379,-0.064347,-0.563049,0.096787,-0.160327,0.0369,0.391863,-0.06867,-0.458208,0.038463,-0.355466,-0.461123,-0.134997,-0.663656,-0.485291,0.160615,-0.385095,-0.312735,-0.311195,0.27458,0.20349,-0.368765,0.67789,0.316313,0.362365,0.203124,-0.2872,-0.190673,-0.465768,-0.408171,0.26616,0.045506,0.347797,0.014371,0.392523,0.242789,0.672116,-0.732385,0.386565,0.310483,-0.193966,0.05396,-0.762084,-0.352755,0.423063,-0.153904,0.172789,-0.207529,0.062173,-0.28123,-0.135983,0.064694,-0.308353,-0.12605,-0.019978,-0.818951,0.328204,-0.319189,0.816065,0.342265,-0.276902,-0.511108,-0.20832,0.154707,0.075927,-0.436068,-0.032695,0.192152,-0.17102,-0.094416,0.113594,-0.022351,-0.162842,-0.399302,0.101348,0.035474,0.111604,0.431294,-0.42724,-0.041732,0.117019,0.092154,-0.071681,-0.086374,-0.006517,-0.497089,0.636319,0.005157,-0.101253,-0.631835,0.300829,-0.256857,0.305103,0.296889,-0.772588,0.157346,-0.201337,-0.117078,-0.67063,0.00146,-0.301642,-0.071068,-0.33139,-0.165176,0.322516,-0.283026,-0.089634,0.543098,-0.47671,-0.672079,0.710205,-0.157861,0.999289,-0.048135,0.305577,0.515363,-0.570394,-0.041624,0.271389,-0.104681,0.252967,0.181753,0.154937,0.209877,-0.054073,0.165626,-0.138308,0.574782,0.379223,0.093022,-0.062463,-0.241206,-0.397571,0.128263,0.439694,-0.403021,0.034711,0.528792,-0.202157,0.017825,-0.095996,-0.055303,-0.148062,0.075893,0.03997,-0.364941,-0.411959,0.184569,0.127898,-0.334633,0.509898,-0.197445,-0.150738,0.016161,-0.439216,-0.217486,0.490245,-1.007703,-0.034037,0.233731,-0.059455,0.013521,0.869303,-0.522589,0.032153,-0.096988,0.526936,0.475361,0.343241,0.551264,0.150026,0.298054,-0.010907,-0.396356,-0.732576,0.283438,-0.275532,0.205675,-0.06219,-0.308553,-0.69083,-0.278977,-0.147537,0.426269,0.037743,0.08376,-0.560578,0.524681,-0.898405,-0.172821,0.157182,-0.401871,-0.715907,-0.938764,0.042321,-0.421426,0.105507,-0.444859,0.215826,-0.352739,0.677265,0.15739,0.70788,-0.338381,-1.139751,1.028399,-0.164809,0.122877,0.046854,-0.015886,0.024956,-0.278867,-0.057224,0.423068,-0.374974,-0.290955,0.220783,0.264907,-0.229092,0.048624,0.577016,0.095353,0.449469,-0.127722,-0.086604,-0.49882,0.354048,-0.20616,0.048145,-0.143126,-0.10372,0.006978,-0.013848,-0.458778,-0.093457,0.566939,-0.211356,0.2592,-0.717577,-0.138923,-0.038259,-0.343146,0.0438,0.358447,0.1196,-0.156476,-0.513265,-0.10222,-0.329241,-0.218629,0.244389,-0.110864,-0.232844,-0.548825,-0.694264,-0.055543,-0.446038,0.02955,-0.203979,-0.857949,0.118079,0.46988,0.344506,-0.109911,0.01061,0.116502,-0.310065,0.417589,-0.149922,-0.227623,-0.606445,0.256318,0.603616,-0.673545,0.861427,-0.014846,-0.205686,0.53392,0.107653,0.077223,-0.846985,-0.244183,0.975756,-0.185612,-0.398413,0.030482,-0.403781,-0.390101,-0.147928,0.580184,-0.332626,-0.085404,-0.297286,0.308983,-0.081304,0.411272,-0.037121,0.77895,0.236496,0.304553,-0.000829,-0.09912,0.038986,0.084512,-0.643897,-0.241266,0.038386,-0.27388,-0.478268,0.071746,-0.005794,0.343689,-0.037902,-0.206779,-0.014046,0.202639,0.02514,0.091376,-0.15378,-0.427287,-0.828254,0.085729,0.363513,-0.385167,-0.416754,-0.464684,0.13448,-0.118792,-0.085165,0.267045,-0.439089,0.689551,0.232604,-0.205258,0.147211,0.156256,-0.206755,0.006663,-0.285719,0.005845,0.525236,-0.337762,0.637152,-0.153005,0.373078,-0.41981,0.62211,-0.241494,0.214222,0.146498,0.040017,0.021682,0.185071,-0.273867,-0.940876,0.002563,0.229347,-0.096747,0.25243,-0.322423,0.309063,0.496684,0.464574,-0.341056,0.144416,0.176636,-0.512759,-0.092513,-1.095087,0.438077,0.64237,0.244617,-0.299578,0.250129,0.012008,0.888506,0.213852,0.383687,-0.637013,0.25299,0.405067,0.193449,0.044353,-0.082602,-0.07397,0.272727,0.280484,0.107508,0.301091,0.578046,0.446681,-0.0943,0.023388,-0.139361,0.185323,0.364561,-0.315606,0.234117,-0.132482,-0.902937
value,-0.710693,-0.154554,-0.242566,-0.003218,-0.297323,-0.406702,-0.237232,0.004707,0.190999,0.255959,-0.18249,0.00796,0.059623,-0.089859,-0.219902,0.46507,-0.241975,-0.066684,0.405745,-0.281006,0.283374,-0.176388,-0.253209,0.065333,-0.008638,0.444739,-0.150541,0.240108,0.284467,0.082943,0.280114,-0.38997,0.261802,0.684336,0.083313,-0.051251,-0.15894,-0.228411,0.11051,0.243532,0.18771,0.169027,0.640099,0.235138,-0.054373,0.079446,-0.231683,-0.055593,0.649163,-0.342566,0.332831,0.422893,0.081367,-0.407488,-0.09746,0.123726,-0.043412,0.362791,-0.22351,0.331316,-0.254194,-0.168936,0.300705,0.476542,0.50603,-0.384155,0.220206,-0.312741,0.055777,0.17628,-0.929694,-0.335002,0.353035,-0.202475,-0.103486,-0.43307,-0.197662,-0.282374,-0.195085,-0.042685,-0.438346,-0.394594,0.024221,0.021797,-0.023587,0.101132,0.055659,-0.243868,0.008971,-0.070153,0.119865,0.485786,0.12341,-0.152153,0.21483,-0.113414,-0.245377,-0.123619,-0.114772,0.458255,0.13625,-0.426814,0.196138,-0.31313,0.340384,0.122108,-0.195877,0.341088,-0.4145,-0.007484,0.247568,-0.166534,-0.121142,0.224731,0.263245,0.005328,-0.233038,0.014361,-0.157343,0.204713,-0.024433,0.201335,-0.01615,0.45092,0.016658,0.228396,-0.075561,-0.085059,0.159195,-0.12512,0.273049,0.458761,-0.555502,-0.298747,0.05874,0.007205,-0.23597,0.35773,-0.151918,0.547145,-0.390625,-0.27311,0.13855,0.217019,-0.194744,-0.079111,0.151314,0.48432,0.281879,-0.309034,0.302408,-0.10792,0.06758,-0.516121,-0.034192,0.183279,0.469589,-0.339653,-0.108429,-0.434578,-0.001496,-0.224779,0.195887,0.140827,-0.375394,0.143965,0.587293,0.525726,-0.218753,0.079632,-0.059277,-0.287254,0.091041,0.107065,0.104129,0.566855,-0.32664,0.264043,-0.092636,-0.180311,-0.053746,0.134042,-0.235081,-0.177252,-0.11219,0.45606,-1.020331,-0.431591,-0.414663,-0.139308,-0.25616,-0.270402,-0.398513,-0.330777,0.095999,-0.446627,-0.111812,0.244591,-0.173383,0.101704,0.097428,0.216815,-0.165513,-0.049225,-0.819891,-0.172426,-0.273914,-0.175315,0.112875,-0.222409,-0.190742,-0.226137,-0.083468,0.193039,-0.157714,-0.276701,-0.032882,0.201466,0.001895,-0.164337,0.090128,-0.173146,-0.541733,-0.206017,-0.887103,-0.07639,0.516518,0.684669,-0.083001,-0.08528,-0.132446,0.226927,0.189362,-0.315541,0.110868,-0.168847,-0.432973,0.420343,0.189699,-0.260374,-0.105487,0.17782,0.18346,0.202117,0.378532,0.099969,-0.503978,-0.212009,0.051983,-0.070299,0.113524,-0.069428,0.057116,-0.116476,-0.256935,0.03697,-0.196523,-0.360441,0.071762,-0.130728,0.13373,-0.280312,0.079471,-0.142442,0.104561,-0.120076,-0.016148,-0.305613,0.131115,0.346013,-0.190301,0.413559,-0.045536,0.211374,0.103348,-0.50927,-0.066817,0.162877,0.296382,-0.109327,-0.556728,-0.558412,-0.025352,0.041305,0.039972,-0.017687,-0.219722,0.108914,-0.10381,0.216577,0.311829,-0.252523,-0.035064,0.217572,0.008428,-0.692207,-0.44107,0.312049,0.176668,-0.020935,0.22338,0.090662,0.413406,0.381368,0.818907,0.026857,-0.06427,-0.014883,-0.28286,-0.460747,-0.436489,0.410997,-0.092839,0.01763,0.195356,0.348555,0.486933,-0.314287,-0.551656,0.042643,-0.193425,-0.011092,-0.108458,0.489651,-0.096663,0.039328,-0.164288,-0.179724,0.290178,0.503226,0.1004,0.376663,0.211807,-0.343161,0.133736,-0.042461,-0.589571,0.227256,0.454976,0.149778,0.539721,0.282143,0.250818,-0.300084,0.347739,-0.197662,0.145148,0.141564,1.03741,0.269114,0.186485,0.314366,0.399088,-0.546501,-0.071292,0.116484,0.319985,0.257686,0.102837,-0.205173,0.084184,0.093448,0.130491,-0.448855,0.264384,-0.178547,-0.14489,0.450533,-1.169749,-0.262803,0.004164,0.096906,-0.260106,0.373407,-0.053886,-0.481374,0.06786,0.016223,-0.228174,-0.142379,-0.018016,0.242456,0.333632,-0.332798,-0.205301,-0.119954,0.231321,-0.343222,0.132857,-0.097155,-0.215792,-0.087986,0.196843,0.348355,0.349249,0.206823,0.192039,0.140655,0.129061,-0.034146
problem,-0.989475,-0.150771,0.033076,-0.04749,-0.079515,-0.335259,0.208759,0.210671,-0.305204,-0.102147,0.081044,-0.098518,0.268562,-0.612888,-0.170005,0.259658,-0.301454,-0.242083,-0.435631,-0.084646,-0.164482,0.032718,-0.131622,0.10993,0.222393,-0.055111,0.052336,-0.137113,0.042769,0.091629,-0.346717,-0.311336,-0.036933,0.38719,-0.218395,-0.031972,0.080651,-0.493704,-0.049152,0.161554,-0.153599,0.099096,-0.38784,0.155875,-0.287139,-0.513801,0.241781,-0.468069,0.404998,-0.159636,0.472717,0.004298,-0.103352,0.156223,-0.074981,0.178011,0.183795,0.279332,0.128349,0.081263,0.176487,-0.242196,-0.42379,-0.05472,0.447023,0.301759,-0.097182,0.421182,0.151834,0.38315,0.018897,0.121441,-0.073264,0.282178,0.375437,0.030988,0.157407,-0.204915,-0.400578,-0.160504,-0.005164,-0.147033,0.004439,0.121918,-0.186422,-0.190298,0.228363,0.066525,-0.069661,-0.096757,-0.066565,-0.0425,-0.017063,-0.280157,-0.33561,-0.027628,-0.377498,0.06158,0.216992,-0.274068,-0.300876,-0.12409,0.127673,0.361815,0.240953,0.046446,-0.439545,0.126446,-0.475256,-0.550479,0.153136,-0.360474,0.410475,-0.176247,-0.599869,0.058164,-0.465684,0.068061,-0.273106,-0.263271,-0.459901,-0.295064,-0.21554,-0.406559,0.153857,0.011776,-0.061617,0.157508,0.328926,0.060294,0.022736,-0.199913,-0.361883,0.195834,-0.028313,-0.20419,-0.389638,0.351493,0.20116,-0.030736,-0.069654,-0.001319,0.095608,0.104669,0.173859,-0.183795,0.288788,-0.266026,0.08709,-0.275751,-0.002502,-0.449742,-0.257585,-0.455997,-0.095817,-0.153716,0.177175,0.111992,0.401989,0.097677,0.013458,0.085964,0.021909,-0.193745,-0.103353,0.01941,0.289836,0.108809,0.012692,0.254788,0.049349,0.327653,0.053696,-0.085509,-0.191961,-0.054012,-0.301454,-0.197156,0.254718,-0.155326,-0.114608,0.105425,-0.349209,-0.035237,-0.002133,0.382228,-0.547957,-0.146274,-0.31834,-0.267249,0.044076,-0.198693,0.398707,-0.448178,0.230229,0.327265,-0.114741,-0.032425,-0.083178,-0.29081,0.421872,-0.24617,0.081154,-0.158707,-0.328465,0.171764,0.444721,0.087788,0.314643,-0.075385,0.335475,-0.359135,-0.094737,-0.471239,-0.454247,-0.041655,0.365781,-0.096361,0.083024,0.122174,-0.087943,0.103768,0.106164,-0.213518,-0.102409,-0.245556,0.077938,0.308297,0.003451,0.104175,0.169804,-0.224685,0.329212,0.432682,0.225818,-0.123313,0.153469,0.206906,-0.148652,-0.043929,0.31,0.115565,-0.023192,0.346624,-0.003263,-0.361405,0.232285,-0.35381,-0.073733,0.099721,-0.268405,-0.061164,0.550536,-0.007735,-0.47421,-0.075231,0.364852,-0.011057,-0.229443,-0.056647,-0.011229,0.16114,0.061554,-0.24935,-0.249739,-0.147727,-0.30599,-0.463896,-0.086958,-0.585779,-0.153183,-0.250834,0.273457,-0.049368,-0.197941,-0.270389,0.117213,-0.209622,-0.014024,0.328066,0.121288,0.124122,0.324999,0.168498,-0.052408,-0.089155,0.120445,-0.249411,-0.022665,-0.124282,-0.155555,-0.653744,-0.050186,-0.003596,0.252648,-0.180798,0.250081,0.098639,0.151008,0.069088,-0.50247,-0.148865,-0.122388,-0.107513,0.275111,0.290672,0.000234,0.360801,0.164622,0.015192,-0.799382,0.000222,-0.25648,-0.19833,-0.123681,-0.192274,0.302318,-0.08582,-0.254876,-0.429736,-0.41097,0.2758,0.29028,0.233198,-0.163859,-0.340822,-0.103076,0.219568,0.171782,0.150416,-0.004067,-0.178255,0.069399,-0.001156,-0.171117,0.129931,-0.095834,-0.048393,-0.077944,0.075074,0.429842,-0.404895,0.228346,0.097224,0.274157,0.155521,0.223118,0.380845,0.318703,0.121802,0.351603,0.140842,0.140335,0.216973,-0.604668,-0.206902,0.194963,0.579977,-0.080674,-0.611586,-0.115474,0.22938,0.051814,-0.272173,-0.361556,-0.080739,0.578744,0.245473,-1.481458,-0.090076,0.062415,0.196276,0.192079,0.055163,-0.01379,0.369352,0.107838,0.231762,-0.1906,-0.114917,-0.206994,0.461541,0.171861,0.195304,0.451487,0.179235,0.223381,-0.171646,0.21408,-0.149491,0.43062,-0.123677,-0.152897,-0.027328,0.239265,-0.059053,0.178294,0.140145,-0.066007,0.231364
mathematic,-0.713112,-0.154776,0.122792,-0.243426,-0.189291,0.354375,-0.003386,-0.588135,0.051198,0.061148,-0.52483,-0.054595,0.007191,0.045113,0.237514,0.615131,-0.734776,-0.064496,-0.388444,0.184292,0.193019,0.181669,0.236241,-0.005973,-0.037571,0.066943,0.065027,-0.062809,0.155826,0.186167,-0.008387,-0.16424,0.226183,-0.138372,0.150582,0.217029,0.284944,0.053644,0.058286,0.053797,-0.40882,0.550463,-0.069868,-0.188663,-0.346888,-0.494922,0.188446,-0.092228,0.602536,-0.427747,-0.054339,-0.099965,-0.258295,-0.178614,-0.11145,-0.137696,0.45781,0.257337,0.379557,-0.017269,0.088775,-0.255563,-0.299403,0.380253,-0.146539,-0.234458,0.529795,0.226776,-0.292339,-0.666076,0.200381,0.314172,0.168283,-0.244874,-0.272383,0.266964,-0.121665,-0.445407,-0.164562,0.441053,0.319161,-0.349316,0.104919,-0.264209,0.473975,-0.988999,0.699235,0.335067,0.008899,-0.058114,-0.267671,-0.0603,0.069588,-0.722844,-0.211623,0.049368,0.025854,-0.005576,-0.072095,0.235162,-0.310356,-0.367601,-0.052158,0.00507,0.773738,-0.112261,-0.251394,-0.529118,-0.005231,-0.264152,0.289663,0.648724,0.676021,-0.298748,0.332999,-0.375996,-0.304121,0.570151,0.406236,-0.229863,-0.150043,-0.152791,0.34245,-0.363419,-0.036185,0.262757,-0.173838,0.238126,0.762939,-0.180138,0.25091,-0.30919,-0.330137,-0.120409,0.254815,0.066198,0.246835,0.325022,-0.028645,-0.245613,-0.773001,-0.249154,-0.40438,-0.17304,-0.535921,-0.322199,-0.019404,0.841169,-0.333127,0.014027,-0.173079,-0.499574,-0.056898,-0.021564,0.158627,-0.545888,0.116086,-0.155835,0.336763,-0.500883,-0.117318,0.961071,0.462268,-0.014485,-0.069164,0.102878,-0.151806,0.084554,-0.177177,-0.002572,0.279626,0.554573,0.124315,0.004056,-0.283525,0.299494,0.15588,-0.401289,-0.017935,-0.567861,-0.268914,-0.149752,-0.348989,0.196474,-0.030004,0.014437,0.521911,0.498409,-1.183121,-0.608694,-0.029049,-0.485071,0.157535,0.226827,0.173619,-0.005699,0.084147,0.2537,-0.024087,0.065699,0.51065,-0.300528,0.308056,0.201459,-1.324567,0.188247,0.354576,0.008513,0.406957,0.349262,0.579711,0.39529,-0.015177,0.021055,-0.002484,-0.239141,0.332265,0.217272,-0.13334,0.409065,0.248286,-0.14287,-0.129227,-0.144631,-0.069283,0.059876,0.096522,-0.031493,0.375236,-0.145573,-0.414176,0.574233,0.076644,-0.268188,-0.443589,0.265296,0.30511,-0.188528,0.359963,-0.409925,0.079048,0.226951,-0.091204,0.369209,-0.119682,-0.85263,0.031961,0.024634,-0.409111,-0.241722,0.03572,0.126437,-0.256237,-0.035802,-0.641189,-0.115172,-0.05308,0.277873,0.284467,-0.457703,-0.213662,-0.127683,-0.671432,0.036178,-0.028927,0.284072,-0.135959,-0.115503,0.010485,-0.641304,-0.585301,0.242157,0.399515,-0.256982,0.510816,-0.398306,0.141356,0.063638,-0.194565,-0.123499,-0.31492,-0.018195,-0.09813,0.025187,-0.29909,-0.124061,-0.113597,-0.147006,0.20196,0.194149,0.160234,-0.769843,0.366062,0.341984,0.007343,-0.113244,-0.295964,0.425873,0.429776,-0.486014,-0.235271,-0.223497,0.527854,0.136323,0.106096,0.378782,-0.148449,0.012523,-0.24412,-0.129001,-0.262072,0.159396,-0.035358,0.189401,0.655972,0.469938,0.457042,0.238936,-0.126527,0.27368,-0.30337,0.168555,-0.229384,0.265984,0.046195,0.144722,0.476561,-0.454087,0.147607,-0.316642,0.032597,0.200946,-0.025629,0.157669,-0.417866,0.340276,0.065537,-0.168559,0.199178,0.277446,0.064638,-0.065781,-0.056451,-0.466795,0.480744,0.424045,0.265931,0.752166,0.519916,0.439681,0.561061,0.025816,0.508713,0.29332,-0.700315,0.498606,-0.060967,-0.07422,-0.596276,-0.516852,-0.246419,0.248315,0.12357,-0.329844,-0.026564,0.280731,0.134343,0.245398,0.436711,0.884533,-0.185442,-0.427813,-0.022707,-0.836904,-0.167332,0.589787,-0.127441,0.305381,-0.137513,0.29611,0.253827,0.160643,0.163509,0.331876,0.725669,0.332773,0.226824,0.132382,0.113257,-0.161822,-0.159675,-0.902232,-0.544663,0.404477,-0.214998,-0.010194,0.020107,-0.237862,0.931447,-0.170066
order,-0.454817,-0.029279,0.051898,0.041426,-0.058624,-0.316353,0.057121,0.072492,0.069291,0.1626,-0.034821,-0.374682,0.136098,0.045752,-0.086122,0.026103,0.380727,-0.033032,-0.07201,0.042374,-0.17754,0.161985,-0.050076,0.47064,-0.041581,-0.114813,-0.111397,0.061514,0.254406,0.08623,0.009381,-0.045141,-0.155579,0.153929,-0.111475,-0.489088,-0.46304,0.202568,-0.028824,0.327194,-0.301761,-0.068029,0.002559,-0.131049,-0.001491,0.406091,0.280381,-0.059382,0.129697,-0.279439,0.247799,0.14457,-0.057256,-0.214256,-0.024452,-0.054715,-0.070982,0.062814,-0.29152,0.227912,0.400636,-0.314068,-0.103587,-0.136125,0.084907,-0.180434,-0.405145,0.045132,-0.244335,0.145423,-0.071359,-0.431452,0.077672,-0.383747,-0.056751,-0.107419,0.273239,0.030174,-0.279857,-0.03676,0.248006,0.01595,0.131046,-0.108133,-0.161814,0.012312,0.14854,0.050902,0.212867,0.033923,0.037595,-0.089991,0.247818,-0.061158,0.096182,-0.001467,-0.383159,-0.312319,0.127844,-0.146836,0.127737,-0.42555,0.246105,-0.083874,0.261614,0.325653,-0.351575,-0.180257,-0.104372,0.242055,-0.000975,-0.534475,-0.127706,0.06516,-0.001325,-0.034967,0.37278,0.371703,-0.036155,-0.123958,-0.366294,0.044708,0.066153,-0.11742,0.04737,-0.02341,0.183389,-0.159265,0.021299,0.286741,-0.598748,-0.101629,-0.052991,-0.288618,0.153819,-0.151692,0.207637,0.495075,0.205177,0.145321,0.247067,-0.302553,-0.030077,0.217725,0.153516,-0.404264,-0.009619,-0.213896,-0.182949,-0.571401,-0.338953,0.171825,-0.721523,0.206905,-0.015004,0.275863,0.246638,-0.202495,0.029042,0.002627,-0.046686,0.216848,-0.088219,0.00413,-0.10492,-0.046492,0.059291,-0.169876,0.215928,0.155491,0.090417,-0.097886,-0.208982,-0.049531,0.182334,-0.159646,-0.334905,0.104412,-0.011702,0.142877,0.185845,-0.427001,-0.206101,0.109068,-0.571625,0.289316,-0.120227,-0.038859,0.803532,-0.272801,-0.012841,0.483357,-0.042629,-0.048898,-0.279397,0.14839,0.172253,-0.435404,-0.158822,0.319693,0.142357,0.038753,0.37457,0.057498,-0.609964,0.161436,0.157958,-0.365874,-0.058437,-0.259158,-0.243804,0.43071,-0.22029,-0.006833,0.013184,0.074941,0.170151,-0.156966,0.003796,0.228284,0.075626,-0.250102,0.086419,-0.029445,0.308118,0.250424,-0.042673,-0.054627,0.145926,0.304133,0.063343,-0.08844,0.265317,-0.175821,-0.286895,-0.03821,0.073975,-0.401874,0.016171,-0.428078,-0.359564,-0.102765,-0.114319,0.137947,-0.084406,0.105837,-0.020608,-0.25505,-0.071479,0.309503,0.023467,0.269652,0.349532,0.152513,-0.002927,-0.020581,0.016874,-0.181425,-0.112938,0.098485,-0.111554,0.072752,0.099167,-0.470104,0.029249,-0.042208,-0.308194,-0.058277,-0.202248,-0.116865,-0.144578,-0.188326,-0.032122,0.393616,0.254846,-0.103132,-0.192914,0.100381,0.178761,0.088008,-0.296151,-0.156653,0.254224,-0.308224,-0.031629,-0.154787,0.094232,0.176744,0.294998,0.380509,-0.033595,-0.349687,-0.070652,-0.045529,0.435615,0.077097,-0.143915,-0.241793,-0.186195,-0.031901,0.127061,-0.010868,0.328728,-0.20322,0.109776,0.129776,-0.253443,-0.03958,-0.104546,-0.394697,-0.211011,-0.147891,-0.628671,-0.053252,-0.049505,0.268016,-0.123695,-0.251421,-0.586345,0.160536,-0.168642,-0.059386,0.247581,-0.149549,-0.25643,-0.095151,-0.021796,-0.185261,0.119877,0.714697,-0.042909,0.188413,-0.030675,-0.137718,-0.091835,0.255589,-0.174557,0.149437,0.364374,0.078212,-0.319254,0.316718,0.346711,-0.219536,-0.463999,0.515507,-0.19697,-0.196597,0.873808,-0.009781,0.150563,0.341269,0.097052,-0.102474,0.103722,0.309923,-0.213559,0.29293,0.552687,-0.0675,-0.193792,0.030627,0.054437,0.017617,0.052302,0.370875,0.379314,0.620244,-0.480066,-0.563544,-0.04683,-0.204958,0.307063,0.2116,-0.058985,-0.023779,0.078076,-0.219362,-0.540141,-0.189341,0.210955,-0.092114,-0.117465,-0.007547,0.077061,-0.155725,0.39475,0.223085,0.039248,0.347096,-0.288683,-0.36544,0.05598,-0.644201,-0.105521,0.297885,-0.040728,-0.050829,-0.227966,-0.156539
equation,-0.953639,-0.440104,-0.181918,0.575113,-0.549651,-0.096445,1.014028,-0.555418,0.633637,-0.027461,0.335206,0.025448,0.260504,-0.098487,-0.388402,-0.094555,-0.608157,-0.661068,-0.715626,-0.21994,0.671329,-0.453319,0.264956,0.243604,-0.285003,0.236241,-0.136875,-0.254343,-0.185729,0.532053,-0.122707,-0.082841,-0.178751,-0.249097,0.185054,-0.446612,-0.20675,-1.142212,0.037708,1.147196,-0.086988,0.458048,0.682346,0.214977,-0.405159,0.000463,0.229948,0.012255,0.268324,-0.76405,0.370724,0.301726,0.16716,-0.281533,-0.597358,-0.924683,0.488706,0.05149,0.02228,0.208393,-0.024347,-0.214777,-0.515222,0.24128,0.201965,0.056484,1.063161,0.106566,-0.068905,0.525751,-0.894042,0.403168,-0.394493,-0.257294,0.150431,-0.273084,0.006739,0.692898,-0.04794,-0.166231,0.272244,-0.328487,-0.09845,-0.308368,0.532115,0.376157,-0.237984,0.12739,-0.390618,0.151627,0.088725,0.013845,-0.887584,-0.337051,-0.569622,-0.488849,0.321171,0.333981,-0.22464,0.61256,-0.064888,-0.384432,0.171745,0.172549,0.13995,-0.025909,0.111789,0.310441,-0.467367,-0.330281,-0.097187,0.091849,-0.576632,0.062786,0.192328,-0.52731,-0.024703,0.525437,-0.599236,0.336026,0.083286,-0.034379,-0.358101,-0.114816,0.177372,0.578457,-0.157322,0.791994,0.633133,0.153427,-0.146187,-0.467625,-0.470562,-0.265866,-0.162872,-0.434996,-0.604186,0.616818,-0.169001,0.583615,-0.356573,0.179159,-0.422556,-0.048018,-0.096867,0.265508,-0.055672,0.665092,-0.552831,0.066542,-0.347048,-0.017071,-0.037944,-0.349374,0.303916,-0.119601,0.760358,-0.898874,0.675096,-0.264484,0.004681,0.152477,0.474557,-0.080722,0.011748,-0.142166,0.25396,0.156705,-0.499508,-0.208478,-0.201638,0.288843,-0.347403,0.162962,-0.603378,-0.014578,-0.344906,-0.019018,-0.214713,0.125268,-0.62436,-0.145422,-0.109205,-0.044448,-0.109452,0.721988,-0.460428,0.140655,-1.473805,-0.528022,-0.498724,-0.431468,0.202897,-0.460051,-0.519528,-0.571624,0.664951,0.273383,-0.10178,0.156985,-0.104637,-0.434696,0.634907,0.025295,-1.094507,0.662543,0.087283,0.263104,-0.478881,-0.039542,0.53358,0.200478,-0.076128,0.069332,-0.674794,0.071317,0.232354,0.354793,0.136481,0.038331,0.20993,-0.016228,-0.220003,-0.500725,-0.38026,-0.057722,-0.01878,-0.23089,0.015632,-0.168079,-0.573861,0.569232,0.336902,-0.161728,-0.277234,0.19137,-0.104505,-0.092476,-0.975408,0.097586,0.341013,0.710683,0.041051,-0.860446,0.191015,-0.583024,-0.111,0.32307,0.104137,-0.324676,-0.422742,0.585706,-0.553895,-0.841448,-0.832764,-0.32564,0.158271,-0.294326,-0.069336,0.011653,0.274788,0.140749,-0.119059,0.284041,-0.08286,-0.403281,-0.169374,0.063419,0.034163,-0.567534,-0.199415,0.040106,0.343667,-0.284556,0.741532,-0.834284,0.19475,0.421685,-0.118255,0.542161,0.109233,-0.46767,0.329321,-0.077681,-0.118476,0.086705,-0.207564,-0.127487,-0.408225,-0.013338,0.029215,0.008907,0.510681,0.423993,-0.143776,0.161559,-0.497554,-0.472324,-0.016521,-0.104269,-0.995966,-0.264054,0.523014,-0.151901,-0.154291,-0.127479,0.143747,0.336925,0.303378,-0.095976,0.786561,0.727597,0.541667,-0.405702,0.72893,-0.053538,0.400825,-0.014355,-0.219777,-0.634347,0.006594,0.538544,0.162781,-0.220312,0.680473,0.160745,0.012007,0.084627,0.629446,0.776542,0.039299,-0.145404,0.045554,0.163312,-0.061129,0.270472,0.17185,0.340214,0.447839,0.265877,-0.152396,0.23257,0.420115,-0.774932,-0.193443,0.153369,0.102634,-0.020145,1.037423,0.050132,0.480888,0.084053,0.764467,-0.082827,-0.669532,0.212756,0.550201,-0.127126,0.075625,-0.280902,-0.346128,-0.231321,0.323801,0.313165,0.11232,-0.204303,0.295855,0.1028,-1.550591,0.291151,0.290636,-0.158407,-0.319137,0.345873,-0.11253,0.308182,-0.352137,-0.268089,-0.597981,0.061341,-0.062748,0.606117,-0.190135,0.006693,0.416349,0.245468,0.711777,0.557575,-0.152271,0.258718,0.304419,-0.399799,-0.337939,-0.016809,0.490409,0.356156,0.515348,-0.403898,-0.089133,-0.66123
first,-0.273055,0.191851,0.147469,0.27773,0.317979,0.130567,0.020247,0.141724,0.393344,0.116012,-0.150971,-0.05548,0.134403,-0.059548,-0.185209,0.146539,0.187766,-0.001406,0.037952,0.034021,-0.198267,0.006694,-0.170497,0.079241,0.301488,-0.134828,-0.125082,0.145695,0.06626,0.386415,-0.188968,-0.031431,-0.207193,-0.244892,0.11233,0.028641,-0.404572,0.371984,0.057831,0.349101,-0.159545,-0.178436,0.147144,-0.075984,-0.102432,-0.037462,0.016698,-0.004032,0.056321,0.128486,-0.041513,0.176734,-0.052936,-0.188051,0.151699,-0.268858,-0.014908,0.24192,0.153781,0.127932,-0.100692,-0.162886,-0.164273,0.022739,-0.037786,0.000908,-0.311573,0.029214,-0.163851,-0.332355,-0.085103,0.173936,0.167792,-0.223733,0.168626,0.135564,0.008117,0.072359,0.011926,0.147479,0.197545,0.185926,-0.072689,0.104423,0.15752,0.07221,0.278348,-0.007649,-0.026875,-0.252191,-0.180207,0.065964,0.054988,-0.280739,0.076961,-0.381434,-0.001915,0.241872,-0.131808,0.016659,-0.078335,-0.372017,0.159095,-0.098028,-0.191046,0.011273,0.194511,-0.407266,-0.070367,-0.049639,0.024019,-0.284522,-0.144264,0.153171,-0.240962,-0.213319,0.051807,-0.278552,-0.195132,-0.029554,0.290485,-0.11864,0.19476,-0.081274,-0.234766,-0.004319,0.154915,-0.076313,-0.137629,-0.528021,-0.114903,0.110366,-0.22759,-0.071751,0.18563,-0.027958,0.083456,-0.060529,-0.086172,-0.196483,0.236035,-0.02419,0.1335,0.126816,0.07091,-0.155687,0.338949,0.21017,0.319575,-0.28364,-0.059632,-0.162157,0.061688,0.39299,-0.026492,0.091959,0.047932,0.889224,-0.060673,-0.004064,0.025054,-0.105932,0.120164,0.219734,0.121135,-0.00039,-0.270567,0.009475,0.04475,0.188395,-0.070072,-0.1979,0.038892,-0.196362,-0.240174,0.015269,-0.009638,-0.164698,-0.111033,0.218883,0.320397,-0.065415,0.205835,-0.011723,-0.025407,0.108647,0.302968,0.109345,0.127807,-0.393034,-0.110126,0.118653,-0.357119,0.007942,0.089131,-0.212138,0.025317,0.056692,-0.018005,-0.241126,-0.207937,-0.076487,-0.114658,-0.026732,-0.422398,-0.083754,0.383513,-0.150582,-0.09456,0.115643,0.022153,0.154705,0.086559,0.089409,0.050423,-0.113493,-0.038733,0.006479,-0.128328,0.151185,0.004349,-0.04557,0.056439,0.063686,0.221707,0.406579,0.050621,-0.25071,0.009785,0.186127,0.055738,-0.059491,-0.028871,0.16564,0.044999,-0.252251,0.039699,-0.183564,-0.296872,0.182185,-0.08019,0.021093,-0.117273,-0.019069,0.126631,0.018316,0.205619,-0.148299,0.111743,-0.085597,-0.063572,0.05632,0.012633,0.307354,0.018204,-0.282751,0.070295,0.103986,-0.056785,0.054501,-0.209962,-0.165517,-0.08259,-0.225403,0.060131,0.095931,-0.017368,-0.122276,-0.011671,0.042834,0.286608,-0.004066,-0.096387,0.295353,-0.088913,0.081846,-0.029104,0.09819,-0.16055,-0.231633,0.323992,0.133886,0.05666,-0.041286,0.212629,-0.061604,0.036183,-0.222431,0.063221,-0.120736,-0.255416,-0.095403,0.095596,-0.143799,-0.095045,0.287146,-0.464588,0.139075,-0.108878,-0.17873,0.129738,0.067019,0.02608,0.247506,0.304808,0.030293,0.01677,0.036581,0.271769,-0.218316,0.168777,-0.217841,0.159252,0.135488,0.143353,0.104775,-0.131402,0.036794,-0.110104,-0.050893,0.123,-0.043728,-0.166543,-0.189436,-0.224578,-0.093446,0.165717,0.309272,-0.163802,-0.076607,0.163186,-0.285142,0.103534,-0.026164,0.082204,0.020892,0.121678,-0.049085,-0.036791,0.187703,-0.163002,0.086541,0.015229,0.012201,0.041114,0.463048,0.028979,-0.119862,0.121638,0.164311,0.259468,-0.122012,-0.035579,0.105934,0.071582,0.070127,0.00531,0.812344,0.278882,0.013521,-0.208814,-0.052862,0.300206,0.082995,-0.512273,0.221043,0.196528,-0.083721,-0.204564,-0.183006,0.225975,-0.079345,0.035054,-0.036286,0.16997,-0.320481,-0.003616,-0.329758,-0.100087,0.21241,0.099479,-0.155581,0.102424,-0.100262,0.078596,0.059209,0.092281,-0.021499,0.152513,-0.145098,-0.303559,0.083255,-0.087047,-0.475075,-0.080888,0.016942,-0.053593,0.0736,0.24277,0.078672
vector,-0.28506,0.329465,-0.632277,0.075012,-0.237948,0.127175,0.308702,-0.43006,0.689364,0.011711,-0.457445,-0.290399,-0.123888,-0.077837,0.456429,0.430871,-0.813889,0.098971,-0.442538,-0.345318,0.497458,0.574427,0.156994,-0.24647,0.011549,-0.504509,-0.679803,0.208508,-0.041583,0.48424,0.325993,0.459759,0.192624,-0.227744,0.273845,-0.213105,0.380026,-0.51206,0.177835,0.938698,-0.216715,-0.306368,0.148612,-0.064785,-0.199814,0.370088,0.030147,-0.391468,-0.192341,-0.634512,0.057143,-0.238352,0.161335,-0.778806,-0.195952,-0.123228,0.422097,0.125341,0.599726,-0.200603,0.448142,-0.649363,0.309978,0.553617,0.691123,-0.229247,0.730237,-0.481194,0.264391,0.768376,-0.575304,-0.489664,0.057336,0.414985,0.192857,-0.415322,0.198019,0.083411,-0.757862,0.092015,0.243585,-0.456717,0.55378,-0.281341,0.819198,0.208587,0.348616,0.51984,-0.567306,-0.142834,0.434363,-0.259234,0.106473,-0.075801,-0.634523,-0.310071,-0.439257,-0.639577,-0.14768,-0.025303,0.389779,-0.612991,-0.000888,-0.73147,0.2369,-0.243463,0.180973,0.829033,-0.04484,-0.198499,0.500133,-0.033649,0.202532,0.472255,0.325334,0.418427,-0.835425,0.729917,0.111101,0.003416,0.072111,-0.038412,-0.016762,-0.246501,-0.382871,0.155155,0.351474,0.319516,0.037302,0.33032,-0.264488,-0.13856,-0.556188,-0.220332,0.36151,0.110511,0.11462,0.2228,-0.679658,-0.068131,0.265385,0.099891,0.069004,0.105121,-0.090568,0.069884,0.579061,0.296537,-0.202049,-0.566206,0.316817,-0.470059,-0.496905,-0.201391,0.173574,0.190863,0.665928,-0.159661,-0.213279,0.016028,-0.385701,0.147256,0.415464,-0.202359,0.002086,0.43672,-0.388496,0.193445,-0.236711,-0.418077,-0.105711,0.110105,0.190105,-0.389798,-0.252585,-0.418096,-0.172026,-0.335861,-0.245573,-0.198817,0.200326,-0.48605,-0.103438,0.187582,0.187564,0.282289,-1.205719,0.125364,-1.042572,-0.540097,0.07648,-0.054338,-0.39412,-0.489697,0.498945,-1.201563,0.380154,-0.093353,0.085176,0.079084,0.364835,0.166504,0.125868,-0.514338,-0.364194,0.441255,-0.238614,-0.322986,-0.011595,-0.343227,0.209747,-0.082871,-0.023558,-0.255229,-0.390159,-0.014631,-0.358545,0.376566,0.057538,-0.049672,-0.373361,0.218064,0.303764,-0.046557,-0.026678,0.11516,0.331715,-0.311217,0.180965,-0.180549,-0.333797,0.562689,0.06436,-0.390824,-0.847127,-0.174585,-0.32155,0.523866,-0.102441,0.237544,0.46882,-0.231865,-0.368552,0.129548,0.055557,0.165455,0.382353,0.031829,-0.299445,0.066564,-0.060595,-0.217142,-0.324041,-0.59892,-0.396386,0.093981,-0.314981,0.114815,-0.492394,-0.300459,0.628975,-0.152003,0.248358,0.116311,-0.036054,-0.06427,-0.114029,-0.03884,-0.219839,0.206967,-0.064505,0.100096,0.362628,-0.545499,0.078392,-0.215405,-0.234953,0.876008,0.150339,-0.016848,0.196999,-0.287378,0.307563,0.00467,0.097219,0.337884,-0.636331,-0.300751,-0.011404,-0.090568,-0.253173,-0.292766,-0.151197,0.613763,-0.331914,0.029331,-0.360916,-0.409827,0.210321,0.225919,-0.520633,-0.360762,-0.089785,-0.034426,-0.024788,-0.267242,0.135501,0.39341,-0.299156,0.013336,0.263461,0.543097,0.253621,-0.151253,0.335182,-0.38184,0.133614,-0.062158,-0.097299,-0.074377,-0.047748,0.4252,0.861066,0.331589,0.369096,-0.547219,0.070186,0.214454,0.48805,-0.384902,-0.065724,0.270465,-0.164647,0.288251,0.222075,0.307254,0.275191,0.304189,0.694607,-0.433714,-0.181835,0.372223,0.48749,0.020625,-0.028637,0.037644,0.006337,-0.659419,0.917458,-0.232665,1.218614,-0.274547,0.38997,-0.129558,-0.625018,0.843381,0.326581,0.024353,0.334616,-0.009313,-0.085723,0.222993,0.941135,0.089735,0.282619,0.097876,-0.574978,0.301117,-2.248968,0.529394,0.240456,0.162765,0.181176,0.965348,0.151162,0.365904,0.510534,0.5625,-0.297502,0.154244,0.784559,0.319442,-0.232549,0.050855,-0.283755,0.437008,0.314281,0.587091,-0.038007,0.475797,-0.142134,-0.516245,0.205029,0.027777,-0.23912,-0.053971,0.28412,0.094814,0.451025,-0.099224
algebra,-0.432303,-0.208299,-0.27492,-0.213081,0.029136,0.589522,0.040513,-0.373698,0.403248,0.190853,0.234482,0.158758,0.084608,-0.3814,-0.114251,0.638985,-1.059698,0.16344,-0.216216,-0.297502,0.002149,-0.058819,0.979118,0.183056,-0.053398,-0.399442,-0.648213,-0.467778,-0.047071,0.071165,-0.440613,0.514504,0.045164,-0.774105,0.353143,-0.19549,1.120043,-1.039952,0.187388,0.396742,-1.059192,-0.021312,-0.255845,0.107698,-1.010664,-0.161982,0.339647,-0.122936,0.293611,0.030498,-0.594117,0.674579,-0.138646,0.239713,-0.006929,-0.527859,0.133194,-0.792691,1.012911,0.059179,0.183315,-0.753166,-0.710365,0.272431,0.069542,-0.41762,1.028827,-0.083712,-0.225801,-0.697359,-0.569644,0.174304,0.801396,-0.331692,-0.519464,0.010006,-0.302298,-0.170854,-0.073283,0.312108,0.349534,-0.155229,0.73467,0.070893,0.230386,-1.121944,0.063219,0.382919,0.418748,-0.410737,-0.006475,-0.442204,-0.296341,-0.043211,-0.370821,-0.087949,-0.242577,0.071107,-0.122092,-0.133493,-0.292844,-0.169402,-0.282731,-0.187011,0.388055,-0.389668,-0.72621,-0.111645,0.050542,-0.346657,0.45272,0.670767,1.117199,-0.00565,0.233774,-0.414137,-0.074148,0.928911,0.263262,-0.374835,0.500154,0.414851,-0.42958,0.014222,-0.13593,0.217653,-0.160255,0.25002,0.567125,0.143221,0.536942,-0.898067,0.138266,-1.028578,0.0939,0.121239,0.270235,0.604816,-0.116656,-0.340447,-0.396972,-0.310432,0.188204,-0.083522,-0.044438,-0.62038,0.162563,0.20761,-0.697938,-0.302787,-0.012045,-0.098001,0.100121,-0.362923,0.293739,0.18116,0.256149,0.084979,0.350155,-0.788885,0.307697,0.0856,0.328153,0.053565,-0.057947,0.65605,0.124196,0.096741,-0.266045,0.358406,0.51469,0.215195,-0.21444,0.009594,-0.822713,0.258411,-0.010674,0.047147,-0.656106,-0.691972,-1.19233,-0.406074,-0.233759,0.026929,0.150173,-0.185715,-0.177536,0.378752,-1.171237,-1.012083,0.353646,-0.091863,-0.222486,-0.360833,0.410423,-0.593291,-0.127027,0.161262,0.116123,0.187725,1.169841,-0.296869,0.552596,0.304866,-1.053521,0.224346,0.330493,-0.253103,0.391646,0.598895,0.784172,0.35905,0.261529,0.046853,0.147434,-0.188118,0.536403,0.482511,-0.184456,0.000616,0.567923,0.017857,0.703306,-0.110339,-0.38493,-0.404382,-0.15488,-0.097195,0.834323,-0.328508,-0.62415,0.825607,0.067768,-0.552449,-0.316195,0.23299,-0.389604,0.135218,-0.734246,-0.088767,-0.005244,0.063946,-0.276093,0.324381,-0.183672,0.233791,-0.113239,-0.060341,-0.584277,-0.354051,-0.208003,0.558476,-0.621445,0.303717,-0.421776,0.653556,-0.279857,0.431258,0.171229,0.156315,0.220146,-0.109924,-0.649062,-0.031294,-0.307152,0.009083,-0.130289,-0.563498,0.078906,-0.566241,-0.638923,0.500967,0.879123,-0.219187,0.781083,-0.352219,-0.386952,0.345045,-0.232502,0.351809,0.247542,0.402364,0.394617,0.125301,-0.590159,-0.007314,-0.329556,-0.137689,-0.159863,0.275183,-0.548454,-0.372414,0.471723,0.735464,-0.249744,-0.119136,-0.029086,-0.148445,0.09595,-0.131343,-0.534952,0.11184,0.414041,-0.175552,-0.226638,-0.055566,-0.038564,-0.308542,-0.567113,-0.097251,0.277983,0.3556,-0.203558,0.201924,0.852597,0.076374,-0.166863,0.105011,-0.357152,-0.060895,-0.325962,0.20316,0.076328,0.102968,0.332812,-0.086664,0.604987,-0.589756,0.144732,-0.226235,-0.240846,0.673949,-0.560602,0.449577,-0.32403,0.19865,0.274658,-0.049947,0.302363,-0.381857,0.371813,-0.461546,0.173253,-0.46145,1.141304,-0.039176,0.573013,0.163962,0.593556,0.300882,0.525924,-0.404028,0.256336,0.052064,-1.231095,0.379201,-0.179528,-0.29972,-0.442151,-0.519887,0.072641,0.061529,0.27368,0.296383,-0.14057,-0.026306,0.761472,0.354204,-0.432886,0.227084,0.280695,-0.072028,0.080486,-0.309736,0.171817,0.89994,0.231493,0.326218,0.168154,0.496572,0.39685,0.774707,0.18032,0.119794,0.310037,-0.099234,-0.18063,0.158949,0.11721,0.223561,-0.633844,-0.926101,0.21198,0.143374,0.159623,0.419238,0.0007,-0.136896,0.933767,-0.593949
$\mathbb{N}$,0.235062,0.180188,0.068791,0.16817,0.134953,0.21794,0.277367,-0.245025,0.289561,0.132544,0.183199,-0.176846,-0.049394,0.219501,0.096102,0.016379,0.065879,0.060117,0.202548,0.000597,0.10695,0.057282,-0.142532,0.301823,-0.582549,-0.228576,-0.38933,0.043653,0.078523,-0.224563,0.195878,-0.313179,-0.623825,-0.42275,0.514623,0.023859,-0.045754,-0.39038,0.091949,0.390246,-0.368162,-0.297204,0.09856,0.144318,0.349445,0.339969,-0.219032,0.06442,0.174598,-0.267331,0.505063,-0.072336,-0.157153,0.178031,0.462538,-0.722132,0.229186,0.139597,-0.334841,-0.450018,0.112371,-0.293493,0.039315,-0.203745,0.241729,0.188937,-0.225451,-0.242986,0.225578,-0.456903,-0.197654,-0.328633,-0.271954,-0.592992,0.234735,-0.185688,0.205767,-0.016892,-0.062349,0.368223,0.284836,-0.15532,0.121181,0.266661,-0.058474,0.192732,0.043743,0.259898,-0.09237,-0.186505,0.201781,-0.620639,-0.045398,-0.311546,0.079028,-0.204021,0.071809,0.206457,-0.272433,0.601199,0.244301,-0.031318,0.047326,-0.327694,-0.214081,-0.048991,0.041166,0.433557,-0.149672,0.030387,0.087838,0.554739,0.229399,0.366848,0.471263,-0.062672,-0.540617,0.207767,0.054448,-0.13305,-0.420195,-0.595472,-0.196714,0.178023,-0.04034,0.432416,0.29626,0.318113,0.124782,0.7741,-0.275088,0.545531,0.076389,0.346578,0.379316,-0.428846,-0.147288,0.04343,-0.292092,-0.283961,0.278453,-0.03,-0.17622,-0.273975,-0.364954,-0.081163,-0.040397,0.562974,0.161108,-0.264928,0.053171,0.163999,-0.33194,0.269817,-0.391781,-0.089135,0.522076,-0.116817,0.181295,-0.334736,-0.189574,-0.31962,0.236797,-0.215244,-0.145677,0.23757,-0.006667,0.423131,0.178816,0.113852,-0.079606,0.177314,0.196838,-0.082645,-0.179688,-0.419733,0.044646,0.163318,-0.048364,0.123601,-0.140994,-0.484771,-0.18342,-0.475561,0.162028,-0.220732,-0.080283,-0.335568,-0.577955,0.346995,-0.190087,0.266661,0.416102,0.277439,-0.317534,-0.371484,-0.21952,0.276868,-0.030992,0.54551,-0.051454,-0.142529,0.136958,0.290123,0.436404,-0.215597,0.058788,-0.711137,-0.343821,-0.318529,0.119312,-0.166117,0.159083,-0.350737,-0.206606,-0.233666,0.090426,-0.054093,-0.065245,0.036741,0.148941,0.04252,-0.286251,0.191244,0.084377,-0.870413,0.249291,-0.070464,0.361731,0.202947,-0.320751,0.257285,0.298597,-0.098558,-0.299744,0.222556,-0.126692,-0.116938,-0.315635,-0.206678,-0.027678,-0.120706,-0.100326,0.035976,-0.116049,0.289783,-0.412155,0.040251,-0.508313,-0.279423,0.245775,0.126225,-0.019134,-0.547177,0.494937,-0.12227,0.472043,-0.157006,0.124778,-0.197908,-0.081961,0.344665,-0.479582,-0.208288,0.251059,-0.519197,-0.005883,0.064378,0.173793,0.224305,-0.23607,-0.046299,0.002146,0.100097,0.420006,0.189763,-0.233777,0.511333,0.024125,0.170327,-0.184754,-0.238765,0.117619,-0.152405,-0.276786,-0.108869,-0.247985,-0.041851,0.012916,-0.517996,-0.32324,0.093545,-0.120428,-0.398506,-0.061503,-0.525119,0.280432,0.103238,-0.158854,0.008633,-0.312784,-0.280661,0.07533,-0.391924,-0.268103,-0.304039,0.044341,0.094559,-0.011645,-0.074649,-0.027065,0.379343,0.36151,0.013466,-0.1799,0.019227,0.186172,0.228745,-0.697317,-0.393395,-0.558666,-0.193658,-0.038015,-0.199936,-0.211071,0.191603,-0.21604,-0.077179,0.080529,-0.162639,-0.09102,0.176424,0.155655,-0.231205,-0.106894,-0.401032,-0.367089,0.028487,0.299969,0.162057,-0.078195,0.019586,-0.508408,0.145597,0.561845,0.194291,-0.073244,-0.239845,0.228968,0.482875,0.205489,-0.043519,0.635503,-0.384343,-0.157091,-0.074154,0.304949,-0.112285,0.073067,-0.159241,0.101772,0.192417,0.03164,0.01861,0.100457,-0.046336,0.022879,-0.292649,-1.233676,0.232994,-0.070603,0.526685,0.276198,-0.02077,-0.225959,0.142578,-0.105196,0.331921,0.067261,0.327026,0.234578,-0.156422,-0.01831,-0.159905,-0.114262,-0.050055,0.237159,-0.103909,-0.439351,0.018881,-0.166218,0.057181,0.040512,-0.114077,0.313244,0.731183,0.048019,-0.258366,-0.335405,-0.715132
field,0.14653,-0.09863,-0.065674,-0.10747,-0.187824,-0.001693,-0.108739,0.101117,0.44296,0.348318,-0.205107,0.104371,0.291425,-0.212363,-0.223185,0.175843,-0.021018,0.046064,-0.063404,0.044036,-0.291101,0.424929,-0.080474,-0.269487,0.090744,0.325934,-0.190996,0.083681,0.335283,0.490537,-0.108919,-0.121396,-0.134928,-0.04774,0.171947,0.07767,-0.386024,0.812131,0.321037,0.534678,-0.140756,-0.317312,0.106012,-0.083922,0.00036,-0.390831,0.239679,-0.33461,0.129489,-0.188323,0.149285,-0.148781,-0.067426,-0.173494,0.421765,-0.284605,-0.189322,0.00328,0.214025,-0.097211,-0.334385,-0.101084,0.062,0.257463,-0.063176,0.102619,0.382568,0.217198,0.227559,0.11436,-0.065904,0.011192,-0.106109,-0.271362,0.201722,-0.281685,-0.120216,-0.175104,-0.354221,0.120969,0.088235,-0.396937,0.27946,0.014615,0.468678,0.284931,0.148978,-0.084323,0.09258,-0.054252,-0.0571,0.051213,0.133673,-0.223466,-0.192798,0.049988,-0.602441,0.03637,-0.204409,-0.001175,0.715498,-0.613535,0.0344,0.174536,0.381155,-0.225594,-0.088396,-0.512948,-0.087305,0.028979,0.091061,-0.180534,-0.003437,0.086291,0.022907,-0.242147,-0.211211,0.122306,-0.036768,-0.035409,0.241436,-0.205729,-0.482803,0.112645,0.044612,0.090987,-0.402683,-0.182648,0.454273,-0.912394,0.205199,-0.125699,-0.189442,-0.325626,0.229674,0.340656,0.098826,0.100691,-0.046485,-0.135138,-0.157767,0.588465,-0.590136,-0.290506,-0.307988,-0.158594,0.237593,-0.204486,-0.098215,-0.25361,-0.737799,-0.28125,-0.204703,0.183229,0.483466,-0.209271,0.036062,-0.008931,0.502704,-0.128305,0.010667,-0.273569,-0.076197,0.064408,0.009986,0.543833,-0.37456,0.2419,-0.112648,0.306212,0.036533,0.03486,0.034278,0.088302,-0.394135,-0.205346,0.274748,-0.024455,-0.207034,0.054515,0.218223,-0.077383,0.030206,0.126307,0.027521,-0.159342,-0.580584,-0.087561,-0.130128,-0.661865,0.270122,-0.045579,-0.398366,-0.411355,0.090047,0.170989,-0.065167,0.169079,-0.282678,0.192532,0.166923,0.041536,-0.086275,0.477142,-0.004781,0.385523,0.052988,-0.311275,0.217133,-0.130108,0.084802,-0.532568,0.296692,-0.137031,0.122606,-0.441482,0.263546,0.362117,0.13377,0.007165,-0.450639,-0.017855,-0.139069,0.113421,-0.148109,0.508735,0.043193,-0.182477,0.048208,-0.004293,-0.082406,0.021329,0.435886,-0.114511,-0.032237,0.45901,0.329056,0.005183,0.957124,0.321551,0.541295,0.442592,-0.185969,-0.354292,-0.501428,-0.430266,0.009524,-0.07194,0.322895,-0.325858,-0.002012,-0.027137,-0.57999,-0.392039,0.223654,-0.348607,-0.078292,0.0749,-0.318579,-0.104693,0.162766,0.216224,-0.280566,-0.021855,0.081832,-0.339394,-0.239431,-0.614193,-0.350699,0.250493,-0.46327,0.218707,-0.292833,0.093237,-0.233473,-0.377805,0.300506,-0.33036,0.179055,-0.021489,0.122114,-0.258515,-0.013212,0.318154,-0.075779,-0.082539,0.076487,-0.625441,0.344351,0.046753,-0.088703,0.170052,-0.094014,0.061096,-0.071785,0.147784,0.232797,-0.407568,-0.282253,-0.177903,0.184874,-0.283463,-0.227551,-0.582752,0.02004,-0.203649,-0.060969,0.080004,-0.483563,-0.313996,0.608885,-0.135056,0.367955,0.060175,0.252071,0.448529,0.095973,-0.258864,0.058581,0.012166,0.208684,-0.022181,0.100405,-0.055871,0.052572,0.101994,0.016306,0.337603,0.189139,-0.061241,0.10599,0.343857,0.148182,-0.090415,-0.144549,0.401631,0.294834,0.102858,0.289779,-0.321969,-0.185714,0.09424,0.194551,-0.285074,0.245275,0.136622,-0.23589,0.627855,0.40099,0.335968,0.537407,-0.098638,-0.081169,0.110958,-0.607288,0.217576,0.172569,0.26725,0.080814,-0.349676,-0.113566,0.216515,-0.013151,-0.078167,-0.136824,0.099866,0.336226,0.227969,-0.853822,-0.126773,-0.226164,-0.176364,-0.496712,-0.0101,-0.090561,0.02147,-0.446984,-0.201663,-0.200224,-0.21481,0.275053,0.234046,-0.266267,-0.00676,-0.034582,-0.079827,0.165359,-0.108603,0.173828,0.403187,-0.159833,-0.279982,-0.605879,-0.377212,-0.175073,0.288982,-0.061187,0.367193,-0.054267,-0.079052
element,0.165994,0.008191,-0.149023,-0.015387,0.068122,0.047076,-0.063845,-0.149158,-0.197502,-0.0414,0.045765,0.244087,0.118131,0.336579,-0.236672,0.400726,-0.376857,-0.241097,-0.406561,0.075169,0.092013,-0.207312,0.376797,-0.149515,-0.385732,-0.202711,-0.322982,0.106246,0.238943,0.493085,-0.009104,-0.02085,-0.289665,-0.188727,-0.047897,0.023602,-0.3364,-0.430015,0.160431,0.409213,-0.132883,0.177345,0.287088,-0.284886,-0.044447,-0.258478,0.191992,0.157998,0.4844,-0.135459,-0.100547,0.192763,0.040533,-0.094081,0.341976,0.385686,0.217731,0.302879,0.059493,0.303336,0.142994,-0.130972,-0.024731,-0.009251,0.257508,-0.268026,-0.11951,-0.296592,0.145829,-0.207477,-0.270495,0.093015,0.818591,-0.095461,0.012159,-0.173186,0.057081,-0.040103,-0.244735,0.062137,0.268067,0.037339,0.217401,0.156565,-0.146225,0.329771,0.072048,0.103134,0.115672,-0.221144,0.784948,0.031976,0.063135,0.359234,-0.113459,0.105326,0.056905,-0.052222,-0.049189,-0.019558,0.23513,-0.773411,0.214504,-0.490214,0.126965,0.329626,-0.342672,-0.377487,0.02436,0.629836,0.566874,0.217617,0.013708,0.340955,0.530685,-0.355513,-0.512929,-0.203475,0.242123,0.001999,-0.224836,-0.236052,0.487569,-0.215261,0.290912,-0.096396,0.159863,-0.511064,-0.398473,0.035481,0.227824,0.129669,-0.422139,0.170835,-0.112536,-0.241137,-0.466098,0.143467,-0.003584,0.445032,0.204855,-0.240118,0.347224,-0.0026,-0.382848,-0.084724,0.274474,0.023495,-0.047041,0.229497,-0.296188,0.178922,0.344431,-0.128165,-0.536911,-0.019524,0.084077,-0.332952,-0.124558,-0.420753,-0.264603,-0.023122,0.109364,-0.026652,-0.219264,-0.041987,0.258258,0.072324,0.509942,0.31074,0.310878,0.301008,-0.085896,0.226974,-0.075183,0.610034,0.061071,0.308661,-0.297428,-0.349989,-0.058128,-0.33309,-0.201027,-0.247867,-0.294483,-0.140644,-0.526874,-0.068745,0.295592,-0.25597,0.125481,0.001079,-0.307171,-0.425386,-0.167049,-0.353932,-0.323403,0.073841,-0.09313,-0.307887,0.349742,0.214322,-0.133853,0.230256,-0.218336,-0.290715,-0.050189,-0.411538,-0.148906,-0.002393,-0.027287,-0.074033,-0.198699,0.251642,0.140463,-0.535205,0.05139,0.238849,-0.117253,-0.161655,0.17396,0.389773,0.217222,-0.132167,0.048408,0.019113,0.186226,0.141602,-0.279784,-0.446776,0.317525,0.432605,-0.052081,0.287612,-0.153472,0.499097,-0.179525,-0.121507,0.12013,-0.017989,0.458309,0.376916,0.126743,0.291108,0.161345,-0.394876,-0.262137,-0.240966,0.103517,-0.28943,-0.213635,-0.055003,0.468567,-0.283023,-0.206592,0.453996,0.157916,0.051792,-0.457275,-0.45484,0.14021,-0.001438,0.234324,-0.006865,0.345915,0.003389,0.479909,-0.246851,-0.073828,0.584212,0.343105,0.376531,0.311555,-0.032375,-0.14426,-0.392384,-0.257484,-0.083192,0.055034,0.15574,-0.138637,0.498285,-0.436356,-0.003824,-0.445778,-0.449856,-0.484164,0.089697,-0.024749,-0.329033,0.048812,-0.129872,0.139683,-0.098977,-0.002843,-0.009994,-0.234996,0.455585,-0.394492,-0.422712,-0.081708,-0.155164,-0.08292,-0.01387,0.200344,0.23568,-0.342629,0.222634,0.223218,-0.22959,0.022632,0.290568,-0.287319,-0.211845,0.015289,0.348644,-0.387469,-0.517199,-0.218187,0.401268,-0.14944,-0.352303,-0.361257,0.091688,0.246992,0.258216,-0.133809,-0.123858,0.231019,0.387527,0.06042,-0.033215,-0.355069,0.038728,-0.367155,0.312813,0.241688,0.518613,0.182791,0.139018,-0.111348,-0.782993,-0.04314,-0.009172,-0.042991,0.299198,0.341162,-0.008187,1.026387,0.048073,0.254335,0.234328,0.295418,-0.055025,-0.214669,0.06811,0.307511,0.185331,-0.015147,-0.287174,0.157337,-0.060939,0.010871,-0.152893,-0.194331,0.090672,-0.162902,-0.016354,-1.80786,0.216,-0.145314,0.008084,-0.189914,0.014459,0.057226,-0.122275,-0.47437,-0.031272,0.15289,-0.164418,0.024746,0.001332,0.291135,0.274166,0.115279,-0.231734,-0.405527,0.097831,-0.126432,-0.177496,-0.001183,-0.199204,0.237276,0.176083,0.029589,0.381286,0.004473,-0.137373,0.289775,-0.270529
system,-1.45706,-0.165056,0.19663,-0.031065,0.159689,0.009615,0.043694,0.060291,0.034585,0.006286,0.083591,0.137786,0.112505,-0.183877,-0.057732,-0.03823,-0.192028,0.143346,-0.073408,0.402575,0.163073,3.9e-05,0.00328,0.160979,0.500819,-0.010315,-0.086325,-0.216146,-0.169947,-0.378893,-0.344842,0.276248,0.374741,0.094307,-0.259859,-0.357477,0.154769,0.575455,0.040634,-0.233718,0.24086,-0.089574,0.219122,-0.154307,-0.316957,-0.9683,0.026114,-0.13588,0.460377,-0.021012,-0.167162,-0.430481,-0.015393,-0.12556,0.161257,0.966925,-0.206098,0.066335,0.383469,0.319358,-0.029386,0.134855,-0.04935,0.291447,0.034476,0.038663,0.23312,0.22302,0.127555,-0.259049,-0.121372,-0.243083,-0.208561,0.228239,-0.121266,-0.01857,0.125738,-0.07287,-0.333614,0.313229,0.099994,-0.302647,-0.108634,0.115842,0.042389,-0.145972,0.299305,0.368816,-0.24549,-0.314371,0.212233,-0.033443,0.045242,0.139942,-0.014557,-0.065466,-0.03561,-0.099988,-0.258154,-0.716954,-0.058659,-0.218277,0.030944,0.088323,0.231171,0.462937,0.122354,-0.41906,0.086856,0.129901,0.115419,0.220196,-0.171529,-0.27103,0.189212,0.143638,-0.165619,0.079587,0.04168,-0.200297,-0.266454,0.014968,0.130969,-0.250268,0.022425,0.183141,-0.020609,-0.072943,-0.414484,0.211706,-0.193472,0.044043,0.264468,-0.248713,0.199422,-0.244431,0.354038,0.144416,0.2463,0.284908,-0.008617,0.026404,-0.345912,0.168398,-0.096,-0.081395,-0.022493,-0.434979,-0.18245,-0.196171,0.277946,-0.054276,-0.089362,0.338995,0.212014,0.082899,0.09208,0.384496,0.111639,-0.00031,-0.124614,-0.043483,0.271661,0.092599,-0.084551,-0.214721,-0.182613,0.337892,-0.563501,0.105629,0.118137,0.382228,-0.306485,-0.071397,-0.123274,-0.020995,-0.160193,-0.228218,-0.31355,0.233051,-0.201068,0.298368,-0.414798,-0.052399,-0.342426,0.184612,-0.891039,0.208654,-0.24642,-0.273453,0.274088,-0.284563,0.010264,-0.316021,-0.218062,-0.121612,0.015844,0.587845,-0.262568,0.091293,0.28144,0.036395,-0.301168,0.237343,-1.000931,-0.069865,0.2843,-0.253976,0.06226,0.316813,0.317512,-0.26822,-0.142708,0.224332,-0.266099,0.037072,0.302484,-0.308732,0.123438,0.380667,0.07827,0.074418,-0.00981,-0.175114,-0.171456,-0.099279,-0.432416,-0.020779,0.11689,0.174899,-0.146134,0.235134,0.247804,0.237716,-0.048526,0.116354,0.046642,-0.288534,0.271176,-0.099449,0.250147,0.089929,0.313134,0.139332,0.373577,0.107689,0.414408,0.257352,-0.474279,-0.059001,-0.118981,0.034823,0.16602,0.298635,-0.187867,-0.06116,0.182439,-0.218425,0.12819,-0.106182,0.076637,-0.139428,0.351901,-0.353415,0.289144,0.019221,0.219929,-0.111578,-0.305945,-0.130723,0.346046,0.268043,0.532079,0.075643,0.118805,-0.710359,0.374733,-0.059606,-0.108394,0.396469,0.011807,-0.234551,-0.285214,0.158927,0.318535,-0.199755,-0.124066,-0.077858,0.367486,0.149668,-0.155736,-0.357259,0.02262,-0.120984,-0.152267,0.102415,-0.560833,-0.444729,0.114775,-0.016921,0.300897,-0.277315,0.196261,-0.193964,0.044157,0.129309,0.141844,-0.10846,-0.100843,0.001149,-0.328369,0.054613,-0.201566,-0.215577,-0.470267,0.183736,-0.4725,-0.048042,0.079074,-0.129489,0.026106,-0.496976,0.16751,-0.255303,-0.343475,-0.224117,-0.028917,0.140787,0.484779,-0.032252,0.129812,0.20733,0.355364,0.105083,-0.164367,-0.053771,0.101387,0.376104,0.18977,0.149567,-0.022871,0.112931,0.060831,-0.300515,0.010443,0.764063,0.307895,-0.244488,0.190422,0.381734,-0.265708,0.432441,-0.114775,-0.417711,-0.271024,-0.168227,0.211579,0.575965,0.08988,-0.22797,-0.259031,-0.092351,0.120728,0.011156,-0.538979,-0.119157,0.052995,-0.044125,-1.880931,0.417343,0.266543,0.468623,-0.265939,0.398455,0.066353,0.064815,-0.025268,0.072506,-0.355007,-0.066935,-0.082723,-0.206556,-0.067917,-0.125203,-0.143329,0.176859,0.049807,-0.166736,0.004878,-0.054159,-0.034819,-0.604579,-0.15208,-0.045353,0.158347,-0.29152,0.148275,0.16545,0.099832,-0.019487
