word,1,2,3,4,5,6,7,8,9,10,11,12,13,14,15,16,17,18,19,20,21,22,23,24,25,26,27,28,29,30,31,32,33,34
number,0.106856,-2.393298,-0.007834,-0.165791,-0.52746,-0.223496,1.408361,-0.695739,1.990994,0.985684,0.943534,0.30822,1.684785,0.344113,0.8103,0.177328,0.231238,0.951077,-0.922306,-0.487467,-0.044278,0.73706,0.763442,2.425217,-0.329633,-0.261032,0.12992,0.233505,-0.230524,1.795281,-0.470008,1.506275,-1.623203,0.883646
function,-0.116464,-1.487817,0.093901,-0.891692,-0.690287,-0.480734,0.684227,0.087762,0.425744,1.164247,0.178253,0.695108,1.902279,-0.467134,0.770522,2.232995,0.833357,0.041327,-0.44685,-1.383485,-1.392807,-0.882603,0.940464,0.604024,0.638586,-1.132743,1.470644,0.890073,0.446885,1.551923,1.140366,1.44743,-1.315814,-0.209765
one,0.172842,-2.96491,-0.62177,0.541749,-0.387865,-0.017785,0.568236,0.197509,0.272859,1.398692,0.92351,0.555293,1.591499,-0.225686,-0.418112,0.427532,0.758357,0.745686,-0.026128,-0.595287,-1.257107,-0.067073,-0.180952,0.914733,0.13018,-0.058874,0.073343,-0.460823,-0.603561,1.320941,0.287371,1.464717,-1.001554,0.327977
set,-0.973486,-2.131068,0.617289,0.131751,0.100766,-0.244946,0.894321,1.060367,1.352759,0.90619,0.666167,-0.319197,2.003362,0.388611,-1.107472,0.59401,-0.080947,0.532151,0.229768,-0.565987,0.046146,-0.998808,0.917997,0.783419,0.783857,0.156459,0.327155,-0.852989,0.202564,1.73983,0.384235,1.704833,-2.316288,0.742645
group,1.679627,-2.61849,0.409782,1.52365,1.027058,1.059218,0.999412,-1.041798,-0.177031,0.385798,0.440408,-0.493119,-0.427379,-0.259731,0.271744,-0.110489,1.206471,1.339944,0.763978,-1.347862,0.40848,-0.244169,0.055287,1.419482,0.61935,0.245887,2.103187,-0.884874,-0.278525,1.373797,0.715838,1.088929,-1.954776,0.670559
space,0.182688,-1.684393,0.205743,-0.401465,-0.002662,-0.291722,0.569763,-0.454742,-0.123166,1.489017,-0.167038,-0.052934,1.276001,-1.318846,-1.741913,-0.237845,1.306443,1.046281,0.827062,-0.954675,-0.808881,-0.960374,-0.503087,-0.210263,0.152837,-0.405261,1.306924,-1.413238,0.266346,1.441242,1.397821,2.01644,-2.146589,1.197303
two,-0.597879,-3.188626,-0.525031,0.892822,-0.086866,0.332123,0.401732,0.074154,0.533241,1.394883,0.401303,0.204279,1.319188,-0.489875,-0.283112,0.217111,0.913372,0.823588,0.314445,-0.682812,-1.457026,-0.022109,-0.027772,0.638434,0.09656,0.266241,-0.032994,-0.229152,-0.674153,1.492459,-0.227261,1.250399,-1.165548,0.721769
theory,0.793091,-2.627641,1.146488,0.1233,-0.479629,1.254027,0.312697,0.294137,0.423483,0.788636,0.644834,0.029937,1.13023,0.227862,0.765949,-0.608213,1.015555,0.226741,-0.176549,-0.000484,1.146523,-0.652361,1.128799,0.893417,0.387238,-0.821784,1.046312,-1.698972,0.964449,1.668659,1.220038,1.462236,-1.112996,-0.28585
point,-0.528333,-2.817922,-0.723299,0.397424,0.737173,0.619647,0.466574,-0.403929,0.327962,1.636644,-0.855267,-0.595462,1.720428,0.705097,-0.792533,0.459488,0.222015,-0.233731,0.17008,-0.326037,-1.375607,-0.601702,-0.48545,0.776203,-0.988222,0.330313,0.068167,0.050241,-0.231338,1.652126,-0.070492,2.000572,-1.876358,0.038234
theorem,1.112464,-2.486482,0.277052,0.271806,-1.055593,1.14607,0.833011,-0.548509,0.717942,0.86231,-0.519732,0.249089,2.490491,-0.173054,-0.207105,0.682024,0.016377,-0.11142,0.325037,-0.772268,0.188065,0.538131,1.549668,-0.042654,-1.473808,0.424549,1.045998,-0.693163,0.70385,0.741226,1.345493,0.259852,-1.948785,-0.576427
example,-0.090633,-2.323267,-0.113695,0.24811,0.158629,-0.000846,0.644187,-0.3194,0.483067,1.123534,0.759306,0.909921,1.089892,-0.60368,-0.443392,0.571341,0.922567,0.618941,-0.323544,-0.622744,-0.274504,0.005352,0.203064,1.014947,0.397974,0.139363,0.508913,-0.038008,0.156266,1.103974,0.897018,1.437951,-1.317871,-0.314377
form,0.041117,-2.582472,-0.553367,0.226616,-0.117594,0.233673,-0.083611,-0.206226,0.385272,1.341476,1.379916,0.098234,1.142371,-0.565292,0.062323,0.476874,1.889232,0.144965,0.095708,-1.330663,-0.597587,0.296899,0.090656,-0.007976,0.566296,-0.025409,0.795213,0.407839,-0.309532,1.305471,0.649731,1.011139,-1.210354,0.659179
define,0.002455,-1.596098,-0.251288,-0.119395,0.106664,0.117544,0.394851,0.28933,-0.093981,1.294128,0.744016,0.178794,2.063322,-0.309306,-0.425508,0.783655,1.064926,-0.00778,0.642461,-1.300432,-0.679564,-0.897282,0.246394,0.284147,1.077349,-0.1377,1.211273,0.39766,-0.134579,1.456169,0.583804,1.202558,-1.365755,0.279331
graph,-1.030663,-2.839241,0.567768,0.179163,-1.224135,0.232574,0.478858,0.493931,0.026851,1.813133,1.039058,-0.029161,-0.036462,0.717271,-0.404525,-1.349005,0.32455,-0.010035,-0.127431,-0.623246,-0.600646,0.445323,1.967192,0.918616,0.422199,1.491152,1.055188,-0.782528,-1.852989,0.305384,0.335096,0.290945,-2.353038,0.104385
value,-0.049964,-1.424139,-0.390061,-0.176407,-0.356428,0.02412,0.882126,0.449936,0.773913,1.446579,0.680585,0.433625,1.877615,-0.899554,-0.18369,1.126717,0.184648,0.221103,-1.073051,-0.927036,-1.382099,-0.495857,0.119749,1.584863,0.600204,-0.663324,0.185004,0.867485,-0.496146,1.338601,-0.033265,1.934595,-0.899563,-0.741853
problem,0.802761,-2.561059,-0.149643,0.117471,-1.903823,-0.508673,0.009603,0.875532,0.34601,1.629503,0.135519,1.268759,0.642963,1.412141,0.290723,-0.429291,1.076166,0.794586,-0.928315,0.244436,-0.283926,0.273137,1.330868,0.487848,0.466999,0.020102,-0.639297,-0.353484,-0.393814,1.058909,1.542799,1.144979,-1.503497,-0.231949
mathematic,0.343203,-3.656234,0.687583,-0.326453,-0.822708,0.318831,0.85759,-0.212998,0.200336,-0.504713,0.399411,-0.921678,0.540168,0.000939,0.260535,0.291183,1.564745,0.470325,0.190014,0.055749,0.167642,0.039179,0.243195,1.095395,0.027379,-1.851298,0.187094,-1.454916,0.197612,0.455164,0.971201,0.571785,-0.181708,-0.307009
order,0.431345,-2.203288,-0.462717,0.552167,-0.256007,-0.891602,-0.077578,0.158014,1.175369,1.287535,1.61289,-1.318264,1.348766,0.093858,0.001575,0.120551,1.125218,1.057231,-0.229421,-0.197427,-0.359285,-0.475244,0.562533,0.967804,0.522171,1.037038,1.323919,-0.525492,-0.048279,1.737432,-0.479371,1.081871,-1.179726,0.042431
equation,0.906432,-2.2789,-0.707408,0.197921,0.230415,0.290062,-0.948561,0.460725,0.514374,2.475193,-0.590158,0.57806,1.711977,0.641779,0.983969,0.773935,1.698879,0.241176,-1.065463,-0.0127,-0.824669,0.760327,-0.018028,0.187427,0.273289,-0.83021,1.06737,0.265229,-0.313194,1.310715,2.39689,1.296091,-0.01669,-0.356829
first,0.908732,-2.990929,-0.320261,0.183655,-1.159553,0.066105,0.332819,0.395813,0.749479,0.858002,0.837401,-0.066646,1.52604,-0.130337,-0.10403,0.844909,0.432768,0.897461,0.068337,-0.07115,-0.562854,0.049775,0.193051,0.818797,-0.168218,-0.435562,-0.182421,-0.3215,-0.054813,1.28619,0.348381,0.982841,-0.083451,0.401956
vector,0.270601,-1.820859,0.0147,-0.021146,1.246717,0.011823,0.398655,0.415622,-0.230753,1.926264,-0.121979,-0.2631,2.384695,-1.717255,-1.083589,-0.508024,1.282361,-0.219068,-0.040029,-0.7719,-0.975584,-0.210539,-0.554868,0.089712,0.894341,-0.677619,1.096854,0.958929,-0.673448,1.148431,0.785169,1.482133,-1.068149,1.081131
algebra,0.815119,-2.8695,1.275359,0.126713,1.074375,1.044611,0.320045,0.704006,0.000966,-0.410917,0.958233,-0.44606,1.336942,-0.946867,-0.466954,0.061207,2.165575,0.676239,0.643349,-0.544595,1.246738,0.276301,0.242109,-0.025458,0.588349,-0.41251,1.874123,-0.395548,-0.134048,0.573847,1.087195,0.800613,-1.035292,0.797857
$\mathbb{N}$,0.071702,-1.679147,-0.067081,-0.12455,0.048808,0.06855,0.245517,-0.894054,1.238141,0.495064,0.656304,1.064812,1.320802,0.054057,-0.33928,0.363429,0.167758,0.725958,-0.692692,-1.730255,-0.632847,0.237406,-0.247461,1.064724,0.737347,0.668579,1.429845,0.684451,-1.176383,0.906135,-0.611421,2.018982,-1.53616,0.493805
field,0.350782,-1.986511,-0.061941,0.888642,0.548865,0.753366,1.032509,0.325156,-0.249612,0.802455,0.120756,0.036492,1.455624,0.351708,0.292481,-0.94236,1.978694,0.585765,-0.417082,-0.607172,-0.076992,0.182048,0.188562,1.34427,0.336084,-1.605123,1.460847,-0.072446,0.551066,1.356988,1.224029,1.167952,-0.853969,0.561776
element,0.402848,-1.926943,0.250825,0.861102,1.48312,-0.482047,0.722761,0.682808,0.96018,0.374022,0.951799,-0.363013,1.533089,-0.046507,0.035074,0.268649,0.698508,0.889169,0.010903,-1.152422,-0.434177,-0.154433,0.342567,0.583849,0.824377,0.342588,0.459109,0.252352,-0.459894,1.162044,0.029503,1.454687,-1.55481,1.006934
system,-0.214615,-2.526337,0.884219,0.623275,0.310508,-0.933772,-0.14156,0.129232,-0.625118,1.751003,-0.027094,-0.217439,0.976882,0.275646,0.763598,0.16491,0.729738,0.865614,-0.746179,-0.147557,0.296031,-0.531113,0.86538,0.882761,0.228125,-0.670657,-0.195661,0.397287,0.589212,2.265463,0.62702,1.45554,-0.230602,0.125207
matrix,1.535332,-2.088786,1.384836,0.451196,0.973661,-0.397486,-0.002172,0.695964,0.012287,0.907875,0.86793,-0.03178,1.580077,-2.091053,0.707442,0.284073,1.047836,0.679161,-0.725579,-0.990037,-0.955218,0.42696,0.501013,-0.114034,0.513046,0.221136,1.382908,1.09931,-2.028549,0.98048,0.107302,0.91538,-1.050016,-0.164029
mathematical,0.25506,-3.650434,0.429307,-0.43685,-0.735429,-0.0238,0.606617,0.689001,0.962781,0.382532,0.091623,-1.240124,-0.136834,-0.409424,0.881647,0.407994,0.757666,0.255088,-0.366365,0.083228,0.442433,0.138661,0.76291,1.256333,0.490361,-1.569634,-0.45671,-1.270697,0.547739,0.911538,1.54382,0.721106,-0.175963,-0.427071
method,1.1663,-2.234185,0.510993,-0.471641,-0.426148,-0.679559,0.344374,1.062133,0.040666,1.556296,0.362885,0.084623,1.251152,0.511645,0.677395,0.566059,0.901142,0.196389,-0.123575,1.615028,-0.287394,-0.296177,0.177563,0.453462,-0.762057,0.421604,0.18839,0.713539,-0.473996,1.688061,1.382305,1.402944,-0.932593,-1.885714
finite,0.25001,-1.463355,0.980629,0.532477,0.41217,0.24471,0.709676,0.214815,0.249024,0.330282,0.486889,0.27044,1.341022,0.462149,-0.310163,0.385139,1.059825,0.661791,0.154917,-0.718755,0.037746,-0.097587,1.126886,0.781688,0.226417,0.283429,1.475314,-0.659955,0.12009,1.379206,0.241441,1.829875,-2.329515,0.343588
result,0.975356,-1.876772,-0.302313,0.40302,-0.657589,0.326194,0.43139,0.381431,0.114834,1.135136,0.341969,0.444452,1.725176,-0.517202,-0.155091,0.424884,0.493223,0.756038,-0.170716,-0.48735,-0.237308,0.109181,0.220439,1.04256,-0.449972,0.40056,0.039592,-0.758647,-0.338141,1.431034,0.607636,1.182037,-0.892652,-0.742066
vertex,-1.080337,-2.790801,-0.903629,0.261919,-0.328801,-0.563398,-0.482735,0.495177,0.675266,1.645389,0.674979,-0.636877,0.113715,0.513545,-0.502238,-0.900812,-0.413465,0.088331,-0.039601,-1.49382,-1.57249,0.132664,0.365556,0.551381,0.012208,1.983342,0.720303,-0.809372,-1.959643,0.842791,-1.288054,1.15761,-1.665291,0.626604
term,0.325243,-1.606032,-0.325638,0.074618,-0.045931,-0.018782,-0.065945,0.059925,0.516875,1.272965,1.547662,0.066439,1.729729,-0.247431,0.043319,0.930496,1.279826,-0.002226,0.141719,-0.311657,-0.824307,0.182533,0.309902,0.998197,0.811486,-0.539854,0.449284,-0.013586,-0.266262,1.221822,0.620051,1.270218,-0.474483,-0.309248
line,-1.177777,-2.810212,-0.665991,-0.264767,0.93309,1.051557,0.468436,-0.278817,-0.064115,1.40241,-0.349577,-0.309701,1.470281,0.077682,-0.921433,0.312725,0.761604,-0.020191,0.220819,-0.613354,-0.888087,-0.574456,-0.451151,0.14278,-0.764303,0.693192,-0.722407,0.4473,-0.535057,0.866829,0.154538,1.267733,-1.17805,0.430197
model,-1.378068,-1.753383,1.047487,0.29442,-0.730459,0.620056,-0.428044,0.68138,-0.068403,1.425193,0.107261,1.029588,0.835949,-0.174397,-0.003545,-0.581532,0.562296,1.203322,-0.2245,-0.276409,0.16361,-0.927292,0.006476,0.378019,0.742735,-0.113179,0.281437,-0.713841,0.81257,2.390813,0.614004,1.598302,-0.315811,-1.333218
real,-0.069878,-1.479971,0.50578,-0.740227,0.824827,0.057438,0.931974,-0.003933,0.372927,1.068301,0.006672,-0.265705,1.852941,-0.342211,0.096051,1.217362,1.258525,0.348664,-0.507551,-1.050267,-0.153378,-0.452878,0.066861,0.734087,0.027335,-0.902341,0.416806,0.050791,-0.383032,1.418463,0.541677,1.090431,-2.077143,0.56971
property,0.262467,-1.807602,0.064249,1.040211,-0.07054,-0.108352,0.477327,-0.045088,0.107947,0.640157,0.140283,-0.221789,1.912107,-0.705408,-0.079222,0.439578,1.168021,0.277107,0.188544,-1.179332,-0.607385,-0.002749,0.828574,0.41982,0.490213,0.582863,0.587686,-0.938196,0.408313,1.06405,0.698223,0.748266,-2.22581,-0.631852
geometry,-0.041661,-3.221037,-0.191481,-1.379538,-0.1457,0.983343,-0.214488,-0.78457,0.009212,0.666688,0.221849,-0.569072,0.474135,-0.349141,0.512911,-0.93999,2.230342,0.184647,0.272705,-0.156256,0.202874,-0.461775,-0.178461,0.144629,-0.82269,-0.3987,0.235155,-1.29953,0.541567,1.279782,1.506786,0.503578,-1.121816,0.225869
complex,0.475851,-1.640534,0.464193,-0.94076,0.580543,0.599922,1.195249,-0.347339,-0.317941,1.189283,0.229209,-0.465598,0.48175,-0.208088,0.473686,0.667207,1.3004,-0.059629,-0.078339,-0.867623,-0.579853,-0.439429,-0.627237,0.517988,0.283771,-0.484571,1.464813,-0.122933,-0.143648,1.605032,0.90055,1.247486,-1.894276,0.543263
linear,0.249119,-1.974019,0.907419,-0.176988,-0.079036,-0.266402,0.054345,0.71457,-0.336003,1.268303,0.053816,-0.276784,1.466015,-0.664025,-0.024986,-0.134301,1.70306,0.367562,-1.011746,0.110163,-0.840499,-0.427209,0.539151,0.151928,0.920188,0.001708,1.132252,0.644286,-0.346324,1.032237,1.30109,0.989033,-1.659917,0.126461
polynomial,0.562978,-1.624204,0.266652,0.080161,-1.169682,0.164131,-0.302822,0.668736,0.380733,0.18292,0.410133,1.094567,2.017108,0.095766,1.419512,1.139322,1.77314,-0.32995,-0.785931,-0.262877,-0.709644,0.707501,0.112345,1.870232,0.303392,0.17377,1.981833,1.338747,-0.757441,0.508692,0.669189,0.727878,-1.975966,0.686685
algorithm,0.877994,-2.362685,1.473808,-0.475653,-1.500628,-1.049841,0.599779,0.966925,-0.74923,0.768767,0.198965,1.380813,1.54841,0.62016,0.320742,-0.334143,-0.037916,0.521731,-0.524746,1.166123,-0.161573,0.259381,0.69552,1.20757,-0.111092,2.020822,0.442776,1.149431,-0.785584,0.781423,0.616769,1.518307,-0.956393,-1.12485
mathematician,0.23652,-2.962608,1.032318,-1.027307,-1.293679,0.097755,1.890875,-0.957736,0.945729,0.802968,0.787074,-1.5702,0.417896,0.337852,1.052715,-0.182743,-0.448731,0.963278,0.247754,1.108728,-0.459547,0.139272,-0.749122,1.484542,-0.128661,-1.436369,-0.056328,-0.924374,-0.160396,0.409039,1.707246,-1.020035,0.39221,0.85173
definition,0.269521,-1.816982,0.109628,-0.117036,-0.144563,0.129452,0.302962,-0.093297,0.026768,0.885812,1.003357,0.02454,1.843391,-0.756427,-0.572651,0.901773,0.636834,-0.360073,0.341655,-1.006873,0.083307,-0.120514,0.365636,0.711848,0.537486,-0.006001,0.636406,-0.6791,0.373984,1.137875,0.79405,0.81025,-1.565972,-0.118323
product,0.16021,-1.589205,-0.516486,-0.063682,0.60488,-0.046326,1.592327,0.088828,0.223131,1.021035,0.628759,0.150219,1.505908,-1.944055,-0.390989,0.596407,1.730794,0.592651,1.247831,-1.015594,-0.228586,0.408574,0.390625,0.305404,0.532389,-0.021253,1.571596,0.451147,-0.398597,1.269862,-0.117334,0.770726,-0.87232,0.584163
state,0.116584,-2.236738,0.950393,1.019488,-0.551243,0.412037,0.456934,-0.175782,0.22491,1.141111,0.021686,-0.50634,1.611172,0.829992,-0.785564,0.531709,-0.548785,0.907521,-0.629218,-0.409291,-1.154178,0.738948,0.590265,0.684963,0.497661,-0.473666,0.853433,-1.121552,0.570587,1.062643,0.528459,0.83178,0.220017,0.133966
sequence,0.389038,-0.633183,1.097774,-0.568747,-1.026959,0.373781,1.118101,-0.880311,1.152078,1.028223,0.580908,-0.06829,1.180521,-0.543186,0.030101,1.582579,0.279658,1.0321,0.400108,-0.76501,-1.221457,0.39024,0.638892,1.151111,0.698624,1.249874,0.799425,0.03689,-0.169713,1.22758,-0.002579,1.588354,-1.610306,0.577009
distribution,-0.967465,-0.733778,0.82236,0.869152,-0.860618,0.903948,-0.827536,-0.272953,1.062351,0.797549,0.821873,1.566397,1.492165,-1.447606,-0.019857,0.762663,0.038236,0.300648,0.268739,-0.343532,-2.203001,-0.573388,-0.247967,0.809297,0.476688,-1.142183,0.97974,-0.120648,-0.672181,1.222185,0.740555,1.550175,-1.031306,-2.374509
variable,-0.81625,-1.209434,0.530459,0.13584,0.128629,0.26833,-0.630498,1.548137,0.968197,1.377691,0.102806,0.178918,1.897718,-1.080585,0.050756,1.265925,0.573344,0.243421,-0.648653,-0.362695,-0.99745,-0.488253,-0.120246,1.119312,1.250054,-1.071772,0.370738,0.293838,-0.559581,1.685656,0.22609,1.438065,-0.60607,-0.475527
solution,0.822128,-1.713064,-0.771949,-0.026992,-0.601117,-0.452518,-0.142687,0.760434,0.309433,1.854819,-0.284638,0.507668,1.442794,1.076264,0.428542,0.637299,0.996496,0.807802,-1.236032,-0.311593,-0.740465,0.259919,0.044138,0.462235,0.03056,-0.014073,-0.061429,0.026092,-0.627998,1.269317,1.566409,1.111827,-1.28603,-0.446736
square,-0.367386,-1.77816,-0.7369,-0.217022,0.257309,-0.457085,0.233953,-0.404159,1.604444,1.108892,1.462271,0.561368,1.110428,-0.711832,0.350158,-0.041884,1.415411,1.472404,-0.07399,-0.385716,-1.490038,0.250063,0.125764,0.103048,-0.954191,0.567415,-0.166577,0.699117,-1.8205,0.831277,-0.004065,0.909628,-0.829504,-0.471798
map,0.391924,-1.58033,-0.613752,0.412859,0.351828,0.119723,1.348806,-0.351703,-0.666484,1.296347,0.247374,-0.33732,0.755557,-0.697568,-0.52132,0.812331,0.444975,0.274694,0.529987,-1.509954,-1.559982,-1.577493,-0.012892,-0.186605,0.943592,0.560682,1.025121,0.540717,0.894406,0.936416,1.283356,0.923361,-1.459016,0.627135
class,0.59246,-2.155191,-0.462763,0.983144,-0.865384,0.340348,0.606263,0.024368,-0.043295,0.418682,0.994928,0.166173,0.509637,0.628669,-0.677729,-0.201858,0.96697,0.75062,-0.005085,-0.997743,0.748378,-0.668322,0.491889,0.470532,1.098099,-0.253837,0.872506,0.313793,0.608078,1.375955,0.456589,0.961981,-1.63246,0.476764
integer,0.188561,-1.534715,-0.334905,-0.226372,0.058233,-0.45239,1.196027,-0.124615,1.281203,0.315853,0.364794,0.616044,1.63767,0.130515,0.777218,0.895115,1.173171,0.75886,-0.727141,-1.376515,0.114435,0.728399,0.305681,1.828618,0.286282,-0.037649,0.70975,1.151561,-0.321272,1.218079,-0.125995,1.354089,-1.764172,0.481108
mean,-0.203006,-1.166584,0.11553,0.21956,0.254075,0.372384,0.029196,-0.587656,0.489311,1.094619,1.212212,0.26957,2.051644,-0.619333,-1.013821,0.194934,0.695565,0.497208,-0.257515,-0.493378,-0.906396,-0.610394,0.15409,1.040184,0.417664,-0.508911,-0.060275,0.070568,-0.817151,0.860304,0.465691,1.124268,-1.003865,-1.078907
proof,0.979875,-2.495753,0.168034,-0.741985,-1.125682,0.606325,0.475145,0.161598,0.175733,0.428785,0.099933,0.167025,2.062393,-0.223752,-0.174116,1.308029,0.165934,0.31382,-0.284051,-1.389332,0.987664,0.524244,1.116721,0.84263,-0.588519,1.131262,-0.367045,-0.693158,0.491241,0.750757,1.069758,0.332239,-0.937437,-0.332244
three,-0.269175,-3.368298,-0.604868,0.559944,-0.083895,0.076906,-0.291862,-0.094056,0.841282,1.051944,0.063741,0.153645,0.859731,-0.407722,-0.058846,-0.213573,0.886635,0.550241,0.306502,-0.436553,-1.127592,0.523008,-0.466993,0.386549,-0.37017,0.167352,-0.416546,-0.571779,-0.74658,1.13372,-0.263575,1.10934,-0.800608,0.895588
dimensional,0.01444,-1.993053,0.210471,-0.230376,0.652054,-0.138143,-0.316552,-0.56281,0.183979,1.709964,0.07131,0.696961,0.29045,-0.7091,-0.592516,-0.560673,1.278282,0.260662,-0.028214,-0.754942,-0.625947,0.230493,-0.843012,-0.352517,-0.338077,-0.031832,1.515059,-0.781672,-0.391813,1.599358,0.735445,2.073246,-2.01664,0.800338
zero,0.36485,-1.022478,-0.094328,0.079418,1.147506,0.531649,1.224724,-0.202763,0.757081,0.993962,0.852324,0.389901,2.321362,-0.117711,-0.202661,0.705204,0.475218,0.274935,-0.942949,-1.025612,-1.411924,0.080931,0.352674,0.848299,-0.375848,-0.770686,0.474838,0.31994,-0.581462,0.817677,-0.053723,1.581752,-1.229907,0.010644
algebraic,0.879827,-2.404742,0.333624,-0.599393,0.094499,1.321297,1.100612,0.036256,0.084473,0.222723,0.762964,-0.752841,0.96973,0.571212,0.264508,0.002326,1.844153,-0.327011,-0.489553,-0.211715,0.853689,-0.336494,-0.106776,0.977978,0.273927,-0.304401,1.279158,-0.279228,0.470597,1.145003,1.241359,0.56041,-2.053257,0.649854
formula,0.181548,-1.962378,-0.694031,-0.240494,-0.69098,0.552426,-0.471674,0.396601,0.545419,1.045183,1.129975,0.26629,2.344821,-0.391623,0.049539,1.583694,0.85972,-0.525973,0.474284,-1.602753,0.021833,0.719639,1.173423,0.685029,-0.254624,0.145617,0.638427,0.894277,-0.119572,1.135304,0.755368,0.263684,-0.055322,-0.648986
ring,0.450228,-1.422987,0.066917,0.894572,1.09806,0.761793,0.913517,0.164512,0.240016,-1.822679,1.864351,0.759595,1.27785,-0.213317,0.101142,0.626152,1.776146,0.160667,0.78371,-0.872817,-0.278472,-0.224771,-0.396185,0.695573,-0.091449,0.14184,1.876334,-0.169503,0.608274,0.41372,0.279244,1.203861,-2.021408,0.826243
edge,-1.148467,-2.658958,-0.685703,-0.16114,-0.146943,-0.135566,0.105823,0.580009,0.072374,1.929336,0.618536,-0.290359,0.096892,0.244496,-0.418589,-1.199255,-0.265129,0.265926,-0.451092,-1.618352,-1.80319,0.000509,0.854474,0.633025,0.283273,1.999005,0.357927,-0.80482,-1.996018,0.597939,-0.947987,0.926303,-1.159294,0.511484
sum,0.53484,-1.199868,-0.629074,-0.140636,-0.244567,0.252931,0.949562,0.019678,1.345949,0.880059,0.654129,0.464592,1.552512,-0.772775,0.106661,0.89354,1.346312,0.554282,-0.000753,-0.867344,-0.986334,0.555368,0.863075,0.763627,0.367629,-0.050249,0.632671,0.54815,-0.983027,0.851152,-0.442681,1.070615,-1.23085,0.056637
plane,-1.102085,-2.627023,-0.488528,-0.296375,1.442201,0.678617,-0.399685,-0.873943,0.064546,1.418072,-0.238875,-0.257924,1.017144,0.571478,0.213604,0.382478,1.211333,0.24854,0.230241,-1.025671,-0.979112,-0.726553,-0.813447,-0.390881,-0.937267,1.055282,0.087173,-0.262731,-0.438303,1.209332,0.552998,0.90425,-1.688931,0.633499
analysis,0.562255,-1.820968,1.346397,-0.692967,-0.350341,0.21908,0.364901,0.861938,-0.09883,0.578891,-0.328058,-0.412425,0.548197,-0.867349,0.910725,0.224479,1.309804,0.584171,-0.588211,0.734017,-0.173528,-0.927092,0.436651,0.834978,-0.081866,-1.1775,0.573114,-0.542541,0.250634,1.396384,1.415844,1.507071,-0.709015,-1.44544
dimension,0.267449,-1.647162,-0.588161,-0.44673,0.673326,0.229939,-0.104907,-0.460251,0.54827,1.045128,0.151925,0.344082,1.083999,-0.712401,-0.196184,-0.697654,1.160853,-0.083221,-0.269403,-0.720261,-0.308055,-0.170548,-0.98592,0.458604,-0.61446,0.190747,1.286125,-1.163577,-0.365187,1.441247,0.098774,1.973885,-2.01662,0.465993
curve,-0.803215,-2.351533,-0.930575,-0.400089,0.108004,1.486441,0.510105,-0.637173,-0.714308,1.082214,-0.638952,1.170608,0.845892,1.072173,0.242977,0.501255,0.841068,-1.044403,-0.376015,-0.445587,-1.260585,-0.892946,-0.600742,0.406506,-0.784832,-0.169695,0.56659,0.803502,0.207073,1.09184,0.864475,0.771936,-1.548939,0.130311
type,-0.353047,-2.110391,0.318288,0.763754,0.399813,-0.265436,0.044245,0.419071,0.56201,1.071724,1.005401,0.666395,0.173391,-0.222937,0.05023,0.809561,0.067543,0.090487,-0.106037,-0.811144,0.479955,-0.393708,-0.028783,-0.095694,0.838968,0.002267,0.701719,-0.460242,0.224213,1.69878,0.382828,1.64783,-1.26633,-0.701115
operator,0.978034,-1.465765,0.956159,-0.209672,0.898988,-1.391623,0.217988,0.301872,-0.285896,1.443916,0.450805,-0.925012,1.854709,-0.807489,0.034877,0.73707,0.895423,0.449361,-0.068626,-1.422709,-0.302335,0.325499,1.1802,-0.813001,0.993708,-0.730452,1.979808,-0.06856,-0.221425,0.542871,1.200368,0.839555,-0.213106,-0.085707
prove,0.864748,-1.599301,-0.235311,-0.381661,-1.282617,0.426637,0.397362,0.317668,0.437857,0.746767,0.114872,0.491589,2.573623,0.657049,-0.011346,0.537653,0.238663,1.120078,-0.229612,-1.356473,1.04323,-0.220103,0.345719,0.945903,-0.950217,0.838344,0.720709,-1.00134,0.028386,0.861546,1.164534,-0.448821,-1.21602,-0.226438
probability,-0.336899,-1.222268,1.171801,0.486732,-0.879057,0.976644,-0.146799,0.093848,1.509072,0.819078,0.135266,0.278737,1.521063,-0.750505,-0.681481,0.791706,-0.508554,0.367874,-0.635893,0.042748,-1.263268,-0.490938,0.667145,1.55757,1.165792,-1.044052,0.078515,-0.875397,-0.285293,0.877707,0.681076,1.168592,-0.673116,-1.208346
structure,0.022465,-2.013035,0.495839,0.293444,0.276305,0.492754,0.389222,0.329439,-0.609801,0.783632,1.080976,0.328664,0.316901,-0.646434,-0.210611,-0.59351,1.192268,0.33452,0.06161,-1.01189,0.07029,-0.494358,-0.145158,0.013858,1.339318,0.078981,0.774273,-0.956325,0.665606,1.554786,0.465858,1.517066,-1.327179,0.247475
representation,1.217864,-2.074644,0.723567,1.108054,0.477751,0.441723,0.262694,-0.334666,-0.690546,0.773386,0.362476,-0.020076,0.169822,-1.124684,0.717589,0.484764,0.992388,-0.300846,-0.064108,-1.193061,-0.07312,0.459425,0.411519,1.16227,0.486174,0.10611,1.560535,0.212985,-0.385643,0.927597,0.564464,0.977179,-1.62437,0.687342
series,0.508512,-1.343795,0.13499,-0.675266,-0.607511,0.198517,0.514195,-0.06334,0.926293,0.156133,-0.16348,-0.289634,0.243555,-0.628584,0.833271,2.098678,1.612975,1.255269,0.229425,-1.066568,-1.132523,0.222023,1.003322,0.928381,-0.578861,-0.73188,0.481085,0.187328,-0.362651,0.849605,1.112954,1.385082,-0.701625,-0.624892
prime,-0.138065,-1.127598,-0.730319,0.635905,-0.71928,0.081306,1.447137,-0.727753,1.938859,-0.874851,0.706986,0.967106,1.009021,0.769025,0.888408,0.938858,0.466217,1.068284,-0.566636,-0.960771,0.18006,0.445419,-0.087408,2.054954,-1.176474,0.026564,0.81007,0.651282,0.260577,0.818361,-0.112435,0.621804,-1.957371,0.085061
measure,-0.627253,-0.942823,0.43208,-0.061732,0.40025,0.313223,0.646555,-0.590317,0.177361,1.242765,-0.522497,0.210692,2.033876,-1.240788,-0.486514,0.07835,0.352117,0.221726,0.657228,-0.619018,-0.695379,-0.957774,1.090353,1.170056,-0.122642,-1.135852,0.380563,-0.58206,-0.210229,1.311033,0.022009,1.159857,-1.212531,-0.897755
equal,-0.303242,-1.582472,-1.340999,0.18124,0.312133,-0.081702,0.507984,-0.456187,0.95579,0.802222,0.366384,0.085822,2.19409,-0.338688,-0.503078,-0.308632,0.849882,0.521904,0.059866,-1.331142,-1.330938,-0.078107,0.676337,1.15264,0.066629,-0.198377,-0.009197,0.497529,-1.375972,0.553955,-0.494016,0.964755,-1.283039,-0.36436
lie,0.639548,-2.336576,-0.121963,0.814979,1.455489,1.612055,0.16156,0.240788,-0.489528,0.36509,0.191326,-0.58475,0.487211,-0.018622,-0.503578,0.350465,1.295912,-0.039142,0.756076,-1.543164,-0.091855,0.150409,-0.334677,0.078314,-0.100479,-0.061743,1.244594,-0.543324,-1.000595,0.679148,0.603929,0.849048,-1.360181,0.249161
manifold,0.685823,-1.586049,-0.885892,-1.090539,-0.019092,1.326622,1.111705,-0.07059,-0.623933,1.834026,-0.032626,0.947129,0.136629,-0.508922,-1.037801,-0.757227,1.164496,-0.062849,-0.854459,-1.208452,-0.017241,-0.624391,-0.792979,-0.52047,-0.127019,-0.797737,1.819531,-1.528109,0.02909,1.001675,1.162948,0.917974,-1.739147,1.153103
degree,0.296799,-2.451265,-0.892751,0.397753,-1.188961,0.428646,-0.680026,-0.47996,0.147537,-0.185024,0.253559,-0.807535,1.617334,0.570178,-0.418635,-0.193405,1.739844,0.133944,-1.00495,-0.361761,-1.192781,-0.69581,-0.06241,1.812799,0.341456,-0.143165,1.37069,0.025946,-0.831322,0.587511,-1.093102,0.539755,-1.025935,0.280236
differential,1.162967,-1.960781,-0.141572,-1.020091,0.014299,0.84039,0.320721,0.059545,-0.0824,1.486269,-0.064424,-0.514091,0.785372,-0.174297,0.457922,0.435541,1.906745,0.044032,-0.909688,0.202671,-0.812764,-0.33684,-0.247664,0.056421,0.956519,-1.089022,1.42305,-0.171151,0.43162,1.062681,2.029338,0.859332,-0.416337,0.032971
$\mathbb{C}$,-0.490014,-2.47352,-0.347574,0.316996,0.92444,-0.34278,0.908505,-0.313564,0.307265,-0.152013,0.057737,0.201354,1.47898,0.332867,-1.480156,-0.246028,0.073833,0.384687,0.312345,-1.633131,0.077345,0.130423,-0.253251,0.413591,0.844871,0.502907,1.040865,1.422106,-0.380732,0.063912,0.798688,1.318583,-0.807369,-0.445578
regular,-0.768837,-1.954135,0.142318,-1.044568,-0.607591,0.149058,-0.990228,-0.576265,1.139137,-0.179924,2.041693,0.354454,-0.449417,-0.152693,0.088312,0.544219,0.751503,1.120982,1.034351,-1.631978,-0.595298,-1.244636,0.059643,-0.535671,-0.679868,1.075376,0.797743,-1.696749,-1.141305,0.811764,-0.434402,1.396901,-2.111058,0.338239
second,1.041247,-2.426109,-0.891914,0.223402,-0.551786,0.377052,-0.144179,0.431994,1.092514,0.81333,0.609674,0.001895,1.774166,-0.433821,-0.539529,0.654037,0.84955,0.396857,-0.541377,0.214973,-0.781667,0.011736,0.464233,0.298534,-0.068309,-0.363802,0.189738,-0.347257,0.075132,0.60656,0.003392,1.257946,0.020246,0.349665
triangle,-1.465995,-2.904537,-1.203674,-0.124676,-0.036145,0.256912,0.086725,-1.112747,1.027713,0.601786,-0.405992,-0.235267,0.892376,0.390061,0.297997,0.05864,1.026213,-0.017034,1.205585,-1.637725,-1.143151,1.081859,0.131445,0.311843,-1.154337,1.677126,-0.441259,0.194271,-1.1322,0.725381,-0.397652,0.033931,-1.291323,-0.641399
subset,-0.875631,-0.959403,0.206684,0.225514,0.327941,-1.070907,1.118218,0.749386,0.853716,0.459114,0.018357,-0.315304,1.745271,0.308171,-1.763296,0.344081,0.043226,0.485182,0.659895,-1.037552,-0.233722,-0.828014,1.013596,0.213268,0.560907,-0.05719,0.34445,-0.412889,-0.315668,1.084205,0.274442,1.545822,-3.073023,1.080666
circle,-0.830137,-2.549946,-1.460892,-0.374628,0.556314,0.56928,0.664767,-0.980479,0.005094,1.288201,-0.559012,-0.268736,0.708213,1.117222,-0.109414,0.134586,0.577904,0.022967,1.385204,-1.147224,-1.612197,-0.214621,0.144819,0.189173,-1.292175,0.728568,-0.955457,0.342058,-0.825143,0.766958,0.794601,0.592462,-1.645511,0.210057
relation,-0.024748,-1.837967,-0.36398,1.119688,-0.06549,-0.043861,-0.295078,0.375988,0.649363,0.702308,0.320974,-0.640812,1.735379,-0.658117,0.258743,0.695668,1.030473,-0.212375,0.573384,-1.19699,-0.072614,-0.08685,0.866903,0.690014,1.416731,0.601012,0.982689,-0.032151,0.537818,1.109083,0.570272,0.232853,-1.099533,0.119927
positive,0.275157,-1.19677,-0.315055,0.068046,0.719283,0.185797,0.750947,-0.312507,0.672216,1.065757,0.574699,0.111929,2.289812,-0.595844,0.185621,0.434039,0.742027,0.484117,-1.358276,-1.628348,-0.834764,-0.321284,0.594546,0.450332,-0.133892,-0.977126,0.490398,0.372613,-0.962458,0.69739,-0.315964,0.720192,-1.586407,-0.140718
simple,0.178688,-2.041987,0.35232,0.498482,0.514407,0.231902,0.128319,-0.061182,-0.550561,0.834146,0.708764,0.856476,0.725227,-0.068654,0.109368,0.853689,1.01989,0.108747,-0.492452,-0.672722,-0.116608,0.46842,0.230335,0.958897,-0.153735,0.6147,0.813167,-0.499547,-0.54358,1.201701,0.281752,0.99736,-1.664573,-0.396664
topology,0.133512,-1.199537,-0.039424,-0.929589,-0.308386,-0.192249,1.161558,0.241375,0.00913,0.377132,0.067712,-0.75661,0.713581,-0.409864,-1.51284,-0.192634,1.338193,-0.065555,0.949715,0.158212,-0.087924,-0.885733,0.212836,0.437361,0.324468,-0.460551,1.354212,-1.780566,1.097287,0.364288,1.578989,1.576939,-2.021135,0.926558
category,0.03325,-1.65256,0.399319,0.324469,0.494189,0.654075,1.937948,0.038513,-0.067388,-0.458704,1.687184,-0.338439,0.277305,-1.097011,-1.658169,-0.527037,0.350923,-0.526808,1.130421,-0.241558,-0.002489,-0.358559,-0.536559,0.5727,1.682827,0.328493,1.576982,-1.086609,1.192435,0.199528,1.097847,0.971567,-1.519919,-0.0477
surface,-0.463333,-2.165774,-1.220986,-0.257446,0.677171,0.881679,0.178886,-1.141659,-0.146574,1.41054,0.143078,1.184215,0.349963,0.928356,-0.09679,-0.515321,0.879158,-0.310769,-0.279807,-0.666579,-0.637558,-0.969856,-0.387143,-0.560781,-1.346477,-0.695934,0.330677,0.005829,0.478337,1.545683,1.214361,0.799522,-1.488293,0.209335
constant,0.054204,-1.038745,-0.487265,-0.55375,0.225652,-0.290267,0.186187,-0.645179,0.349981,1.380568,0.029233,0.858393,2.602297,0.154143,0.632639,-0.184745,0.344333,-0.41023,-0.529193,-1.458295,-0.951268,0.26932,1.036497,1.068799,-0.140461,-0.958072,0.63529,0.355486,-0.06167,1.017334,0.477935,1.148931,-0.674149,-0.073799
application,0.29821,-2.342538,0.96256,-0.139617,-0.256599,0.080098,0.397744,0.379526,-0.273715,0.457221,-0.119231,0.088085,0.122619,-0.175106,0.602105,-0.066807,1.158981,0.502935,-0.208035,0.114571,-0.255852,-0.345008,0.710149,0.760602,0.229398,-0.386311,0.232915,-0.085567,-0.014071,1.306142,1.162843,1.512301,-0.738864,-1.075199
integral,0.740327,-1.353498,-0.130368,-0.895102,0.385783,0.160814,0.445761,0.066311,-0.04659,1.184569,0.252176,0.598238,1.563716,0.010828,0.321487,2.115904,1.348836,-0.614326,0.072155,-0.555545,-1.076989,0.179731,0.967922,-0.024416,-0.603485,-1.099769,1.513153,0.042673,-0.354678,0.695483,1.393459,1.091373,-0.866299,-0.650064
coordinate,-0.554977,-2.141166,-0.89301,-0.135707,0.625913,-0.986141,-0.812861,-0.07474,-0.356493,1.820218,-0.53448,-0.700791,1.204502,-1.010473,-0.155226,-0.076151,0.614584,-1.336688,0.741975,-0.548757,-1.303564,-0.374524,-1.473191,0.4928,-0.050164,-0.295746,0.972566,1.239475,-0.293644,1.399663,0.696462,0.979695,-0.867472,0.675613
complete,-0.079333,-2.250218,0.411306,-0.053593,-1.605004,-0.290122,-0.29671,0.365646,-0.422915,-0.132471,0.859038,0.131431,1.585925,0.66413,-1.494767,-0.00163,1.223719,0.90661,-0.549146,-0.285136,-0.09248,-0.254651,0.667358,0.185908,-0.052627,-0.091915,0.815153,-0.900148,-0.440868,0.310092,0.292402,0.413113,-1.352936,0.761282
root,0.792203,-1.463996,-0.471724,-0.0083,0.514609,0.233452,0.904201,0.293751,0.727671,0.749721,1.225465,-0.849042,1.262399,0.964811,0.715123,0.873715,0.973939,0.019267,-0.549426,-0.316183,-0.216767,0.547167,-0.013639,1.404371,-0.211043,0.573903,0.558521,1.416547,-1.450094,0.79818,-0.237903,0.943555,-1.408352,0.183788
length,-0.59014,-1.859496,-0.736726,-0.269209,-0.250291,0.219639,0.080027,-0.897198,0.115227,0.97694,0.233233,0.743586,1.438174,-0.162091,-0.320653,-0.683028,0.70166,0.049427,0.515231,-1.448174,-1.462595,0.160729,1.384262,1.48704,-0.199533,1.06582,-0.312388,0.463883,-0.866567,0.528521,-0.748235,1.682653,-0.932192,0.230162
continuous,-0.231393,-0.554103,0.835653,-0.46666,-0.080131,-0.582618,0.867035,-0.208706,-0.493819,0.849099,-0.34358,-0.099671,1.550914,-0.774395,-0.676019,1.41651,0.869699,0.747203,-0.172416,-1.078069,-1.757718,-0.968928,0.599078,-0.011744,0.637728,-0.512277,1.103265,-0.358226,0.416487,0.668287,1.44187,0.848822,-1.715336,-0.053345
logic,-0.700846,-2.71086,0.594606,-0.414119,0.032155,-0.006812,-0.804866,1.49068,0.770335,-0.010332,1.62859,-0.904546,1.556484,-0.36623,-0.335719,0.453083,0.865939,-0.079139,-0.903701,-0.166202,2.187307,-1.100398,1.408926,0.298349,0.767357,-0.221668,-0.1003,-1.325897,1.20616,0.716491,0.361048,0.18126,0.190429,-0.435702
external,-0.346221,-3.508997,1.203405,-1.604647,-0.2454,0.586882,0.483266,-0.762705,0.967032,0.029932,-0.153052,-0.390641,-0.468897,-1.119287,0.529772,-0.593511,0.007287,0.274512,-1.07258,0.003533,-0.703131,-0.064274,0.852136,0.372792,-0.865286,-0.173939,0.678127,-0.184462,0.77202,0.967467,0.773634,0.461203,-0.562294,-0.321055
side,-0.890178,-2.379298,-1.378621,0.06822,0.533697,0.459085,0.539076,-0.35537,0.534632,0.611628,0.392625,0.270541,1.671101,0.114844,-0.215084,0.582844,1.184529,0.716977,0.828901,-1.296656,-1.488123,0.464782,0.258929,0.312286,-0.478682,1.298975,-0.458665,0.420333,-1.106995,0.084291,-0.453864,0.515973,-0.093835,-0.579132
unit,-0.039244,-1.574961,-0.980715,0.091432,0.950824,-0.964632,0.192877,-0.380051,0.182588,0.828663,0.108308,0.119218,1.095524,-0.741256,-0.424522,-0.611798,0.937293,0.408166,0.720107,-1.060702,-1.078556,-0.638057,0.768812,0.817114,-0.427811,-0.991558,-0.036703,0.985814,-0.343978,1.264716,0.071921,1.530237,-0.416897,0.520552
equivalent,0.186315,-1.26639,-0.295874,0.682747,-0.18549,-0.14332,-0.273191,-0.277268,-0.118676,1.195598,1.258669,0.316101,1.957829,-0.202469,-1.072707,0.491307,0.870923,0.693386,-0.035123,-0.78914,-0.092091,-0.030582,0.320255,0.396429,0.369394,0.645163,0.824586,-0.280867,0.151479,0.948456,0.849392,0.532004,-1.327417,0.3557
conjecture,1.209274,-1.668059,-0.648874,0.001849,-1.905964,1.417307,0.761227,-0.317845,0.611072,0.631506,0.154815,0.89976,1.042963,0.684334,0.606259,-0.989686,-0.14513,0.540084,-0.054989,-1.673154,0.657002,0.851092,0.481254,0.656017,-1.184651,0.276512,1.087438,-0.889495,0.302228,0.592275,1.452681,-0.139449,-1.607065,-0.329393
infinite,-0.566764,-0.974322,0.751713,-0.296569,0.330921,0.088311,0.562609,-0.368763,0.800656,0.950135,0.793839,0.140045,1.126867,0.301868,0.127641,1.095592,1.008595,0.794594,-0.000898,-0.810739,-0.499275,0.051988,0.905145,0.475233,-0.294911,-0.012344,0.197309,-0.938928,0.134543,1.468981,-0.257384,1.240173,-1.690446,0.813944
operation,0.106859,-2.170931,0.488976,0.168077,0.577751,-1.355232,1.089141,0.300164,-0.347112,0.299429,1.240621,-0.61567,1.378576,-0.696493,-0.036463,0.693031,1.298171,0.719615,-0.070588,0.116856,-0.329286,-0.05595,0.283085,0.765727,1.332859,0.881907,1.015791,0.111722,0.268831,1.111542,-0.587252,0.775163,-0.123125,0.345159
angle,-1.340133,-2.207217,-1.62346,-0.522604,0.788951,0.196385,-0.488343,-1.164506,-0.292095,0.996511,-0.340894,-0.545361,1.966441,-0.481399,0.138747,0.298672,1.598583,-0.304127,0.599623,-1.818419,-0.888462,-0.178292,0.638425,1.224785,-0.723861,1.046949,-0.576113,0.383471,-0.904828,0.464722,-0.943523,-0.15468,-0.1676,-0.747281
random,-0.985584,-0.62727,2.084227,0.371023,-0.28436,0.683828,0.052881,0.323797,0.597639,1.088535,-0.535794,0.904383,1.446247,-1.045361,-0.187963,0.311659,-0.170829,0.686396,-0.317637,0.057523,-1.376162,-0.289072,0.585012,1.361721,0.798785,-0.256186,0.23651,-0.429838,-0.980876,1.335456,0.107555,1.591301,-0.983956,-0.323155
basis,0.085755,-1.620184,0.702317,0.546408,-0.296961,-0.706135,-0.127977,0.594266,-0.136114,0.702474,-0.140255,-0.19397,1.752321,-1.350761,0.023429,-0.203659,1.034054,0.416967,0.273824,-0.937235,-0.222147,0.200992,-0.056747,0.38508,0.380762,-0.339658,0.629406,0.981845,-0.676995,1.50552,0.341866,0.758225,-1.449345,1.029417
natural,-0.156941,-1.646238,0.23573,0.419364,-0.084515,-0.354566,0.600069,-0.439907,-0.012478,0.547946,0.916796,-0.591302,1.400097,0.021512,-0.061768,0.718203,0.752484,0.237812,0.070198,-0.804006,-0.34885,-0.538133,0.322091,1.168538,1.49038,-0.079286,0.036343,-0.316542,1.027347,1.260211,0.649592,0.909775,-0.887035,0.158609
power,0.128686,-0.810952,-0.535816,0.227024,-0.182642,-0.296367,1.169299,0.105836,0.814705,0.370319,0.852889,-0.05058,1.444996,-0.099582,1.011526,0.43002,1.407979,1.148969,-0.072642,-0.817439,-0.661371,0.148109,0.589937,1.134438,-0.080611,-0.287958,0.580215,0.529006,0.431723,1.410233,-0.339517,1.383023,-0.377007,-0.145662
area,-0.513934,-2.442895,-1.05715,-0.808447,0.046925,0.073773,0.589445,-0.356727,0.004668,0.717424,-0.268353,-0.076372,0.603886,0.655855,0.224058,-0.553603,1.742173,0.137152,0.843375,-0.750452,-0.924502,0.244567,0.567239,0.604239,-0.44716,-0.457176,-0.936759,-0.497434,-0.723762,0.824375,0.421991,1.097934,-0.91079,-1.110323
open,-0.519174,-2.110152,-0.043818,-0.076373,0.26946,-0.61493,1.624044,0.792293,-0.355964,0.014838,-0.321655,0.279791,0.148581,0.763372,-1.758204,0.552614,-0.111176,0.752638,0.41004,-1.068578,-0.561262,-0.647474,0.902557,0.060358,-0.398504,-0.530724,-0.065142,-0.473487,0.10335,0.506269,1.122752,1.684888,-1.788345,0.586397
solve,0.72938,-1.986791,-0.218451,-0.273585,-1.122835,-0.662323,-0.392208,1.081999,-0.234896,1.60156,-0.104489,0.982649,1.174686,1.113786,0.334668,0.506628,1.387344,0.96418,-0.82377,0.404637,-0.183516,0.50418,0.130149,0.54132,0.392206,0.245016,-0.020782,0.392057,-0.868561,0.971092,1.624243,0.728292,-0.454882,-0.003622
pair,-0.791813,-1.909467,-0.554593,1.217118,0.080262,0.138442,1.085401,0.248967,0.631639,1.552265,0.048424,-0.309752,0.927834,-0.119192,-0.028651,0.160443,-0.011016,0.433657,0.369188,-0.913672,-0.965103,0.331363,-0.422854,0.676621,0.563982,0.839148,0.70524,0.583766,-0.648514,1.242173,-0.674042,0.412697,-1.397068,0.780304
hold,0.197952,-2.210594,-0.168525,0.64307,-0.753139,0.118306,0.509892,0.277911,0.276,-0.111082,-0.238507,-0.577588,1.793152,0.029489,-1.322253,1.086252,0.500828,1.094481,-0.278006,-1.197751,-0.319073,0.205229,0.482592,0.596853,0.01554,-0.875548,0.733258,-0.724701,0.110888,0.364634,0.458113,0.045439,-0.527616,-0.393277
limit,-0.2047,-0.485413,0.434403,-0.371949,0.31711,0.076374,0.645962,-0.367322,0.114579,0.644137,0.66646,-0.266267,1.872661,0.475729,-0.298635,1.248977,0.270562,0.464026,0.328947,-0.951889,-0.931666,-0.557389,0.617885,0.501978,0.254884,-0.214748,0.749261,-1.029276,0.504367,0.948092,0.121676,1.819987,-0.886241,-1.407052
special,0.292161,-2.372203,0.010612,0.338285,-0.154805,0.372193,0.095064,-0.302604,-0.285579,0.77987,0.222623,0.418905,0.661605,-0.50554,0.077054,0.294766,1.078759,-0.125814,-0.247767,-0.824807,-0.341549,0.559714,0.165589,0.396446,-0.060427,-0.517035,0.707592,-0.030455,-0.164997,0.959104,0.793808,0.793208,-1.266273,-0.246115
generate,-0.356481,-1.073742,0.875828,0.815956,0.485579,0.235662,0.153978,0.007911,0.023091,0.016295,0.476274,0.861403,0.81008,-0.179876,0.151015,0.326486,1.068842,1.140028,0.747697,-0.841987,-0.623274,-0.437439,0.211547,0.641206,0.321641,0.709173,0.719462,0.242204,-0.198127,1.146956,0.368385,1.547782,-1.468338,0.54224
coefficient,0.649176,-0.433074,-0.520472,0.446287,0.069978,0.702861,0.609851,0.721489,0.890004,0.864649,0.317555,0.404765,1.500359,-0.645503,1.224428,0.882679,1.050677,-0.132839,-0.223159,-1.017744,-0.843957,0.332787,-0.164374,1.205291,0.445935,-0.748035,1.304216,1.585079,-0.779871,1.559493,0.026345,0.982714,-0.901017,-0.773185
standard,-0.06355,-1.946173,0.556848,0.144141,-0.027461,-0.223906,0.203113,-0.150719,0.118382,0.749633,0.90784,0.169817,1.102127,-0.99192,-1.155844,-0.165131,0.763034,0.676848,0.354929,-0.05037,0.452146,-0.339481,0.32872,0.318306,0.108214,-0.782064,-0.055344,0.850347,-0.016904,1.731011,0.251734,1.344204,-0.319015,-0.962549
identity,0.700709,-2.183358,-0.233053,0.775877,1.068518,0.152158,0.844563,-0.39445,0.428113,0.302357,0.385606,-0.038435,1.684703,-1.261345,0.517292,1.615201,1.221,0.02509,0.240043,-1.468565,-0.416481,0.962596,0.643909,0.07711,0.399555,0.645286,0.806676,0.502063,0.05543,0.135236,0.85848,-0.268384,-0.854131,0.345515
four,-0.198905,-2.896067,-0.9924,0.800622,-0.255062,-0.059837,-0.339384,-0.104857,0.897027,1.068375,0.113081,0.107067,0.766276,-0.366924,-0.015587,-0.37457,0.897444,0.68571,0.371903,-0.443135,-0.867021,0.760599,-0.250522,0.143093,-0.494058,-0.132044,-0.32106,-0.703053,-0.486074,1.072424,-0.475132,1.029278,-0.40105,1.002338
rule,-0.268957,-2.401415,-0.582368,0.475349,-0.166477,-0.094709,0.056557,0.216106,0.612716,1.125511,1.092312,0.50972,1.476969,-0.269785,0.182498,1.986134,0.536183,0.300071,-0.734358,0.300243,-0.644783,-0.194485,0.614404,0.149818,0.991425,1.183046,-0.032573,0.343015,0.718221,1.217773,0.303582,0.141603,0.107243,-0.96565
topological,0.222538,-1.256447,0.322591,-0.150568,-0.040121,0.056119,1.185182,-0.248268,-0.253226,1.055655,0.002957,-0.35705,0.715015,-0.413274,-1.183317,-0.328455,0.948695,0.130028,0.387325,-0.33649,-0.094814,-0.404119,0.251584,0.305385,0.59194,0.115899,1.268871,-1.800485,0.980401,0.968946,1.239813,1.210105,-2.386905,0.748399
computer,-0.533106,-2.915979,1.408631,-0.545871,-0.404075,-1.304805,0.885364,0.468445,-1.095229,0.302263,-0.138461,-0.16309,0.182278,0.014692,0.649805,-0.113144,0.683092,1.091253,-0.544421,0.632441,0.500116,0.171716,0.516251,1.784023,-0.108897,0.035836,0.066225,-0.360545,0.672717,1.092384,0.692172,0.962173,0.426386,-0.243516
derivative,0.389314,-1.05316,-1.144851,-1.008365,0.425397,-0.115576,0.90861,0.292537,0.11575,1.469295,0.213131,-0.147968,2.437883,-0.684904,-0.170961,1.322054,1.337972,-0.686597,-0.513053,-0.50587,-1.787379,-0.190369,0.312708,-0.263722,0.744806,-1.16714,1.371355,0.053671,0.163552,0.308789,0.685311,0.646159,-0.259202,-0.542885
symmetry,-0.072804,-2.275788,-0.748796,1.103672,1.435037,-0.277542,-1.251883,-1.164994,0.282713,1.318218,0.142677,-0.574006,-0.304336,-0.8057,0.955491,-0.656254,1.358748,0.799306,0.160193,-1.322762,-0.561673,0.094507,-0.437397,0.251327,0.162529,1.681673,0.844917,-1.852854,-0.348852,1.030817,-0.19232,0.744044,-0.768397,-0.439645
compact,0.324548,-0.667549,0.285511,-0.157673,0.764088,-0.382282,1.177764,-0.203392,-0.391609,1.112935,0.394532,0.021562,0.668479,-0.020435,-1.694832,0.086322,0.521154,0.632541,0.433327,-1.513141,0.276352,0.037306,0.223562,-0.29977,-0.678043,-0.817744,1.947724,-1.185144,-0.385002,0.994987,1.149838,1.166139,-2.741144,0.581264
factor,1.153497,-0.779256,-0.462748,0.850017,0.406423,-0.411856,0.272249,0.473941,0.169619,0.227584,0.589431,0.990377,0.801722,-0.432369,1.157154,0.156547,0.815965,0.708546,-0.623606,-0.70509,-0.687334,-0.527595,0.100428,1.688239,0.225128,0.178031,0.692878,0.689888,-0.830637,1.01766,-0.265866,1.497316,-1.041105,-0.811524
family,-0.690311,-1.589906,0.543126,0.660151,-1.215857,-0.067664,0.009982,-0.424359,0.532539,0.158612,1.070416,-0.085675,0.172353,0.566824,-0.457663,0.529118,-0.070067,0.623879,1.057714,-0.117262,-1.129922,-0.973271,-0.755247,0.125126,0.276715,-0.689194,0.769178,-0.557646,-0.305655,1.240862,0.206815,0.832307,-1.632711,0.74391
transform,0.753483,-0.763538,0.787631,-0.110826,0.155759,-0.996872,0.081612,-0.195202,-0.693821,1.462531,-0.398948,0.183739,0.92122,-1.757713,0.920091,1.237276,0.772797,0.021976,0.61509,-0.619846,-2.044694,0.173723,0.504542,0.664515,-0.438245,0.473137,1.726225,0.591588,-0.316349,0.563289,1.779322,1.005191,-0.392744,-0.550586
convex,-1.778284,-1.852531,-0.450756,-1.289549,-0.892898,-1.634667,-0.323819,0.222843,0.726922,0.854228,-0.085133,0.038441,1.063685,-0.337329,-1.203039,-0.044355,1.372712,0.650044,-0.141107,-0.664274,-0.746245,-0.800679,0.393728,-1.359293,-0.667701,0.132498,0.687679,-1.053557,-0.268254,0.71121,-0.138947,0.284555,-2.587839,0.193516
domain,-0.374401,-1.186132,-0.254552,0.506004,0.995193,-1.303607,0.795877,1.03719,0.05146,-0.071927,0.244467,0.482398,0.888014,0.13105,0.669574,0.967167,0.983985,0.229663,0.105504,-1.073593,-0.784907,-0.252458,0.816541,-0.305658,-0.597425,-0.377709,0.814761,-0.406959,0.600775,1.034936,0.827527,1.381596,-1.762176,-0.220834
subgroup,0.882687,-1.245578,0.262158,2.494331,1.448835,0.348055,0.032484,-0.7079,0.418706,0.042691,0.748698,-0.17137,-0.171153,0.351956,0.30405,0.169151,0.723529,1.063793,0.837526,-1.600811,0.270974,-0.602744,1.447367,0.575674,-0.148881,0.51495,1.54917,-0.128169,-0.982619,0.782802,0.325315,0.689019,-2.676455,0.169696
construct,-0.390575,-1.726302,0.002204,-0.293265,-0.476589,0.26139,0.172133,0.139476,-0.385089,1.059907,1.112902,0.389569,0.645063,0.062867,0.105004,0.22662,0.918679,0.662574,0.838745,-0.742522,-0.30324,-0.51669,-0.348176,0.27719,-0.238538,1.354137,0.345398,-0.119955,-0.344354,1.53881,0.286743,0.696868,-1.015221,0.304478
axiom,0.085985,-1.616577,-0.46017,0.734174,0.165147,-0.16764,0.081123,0.46424,1.252752,0.789309,0.64995,-0.982419,2.628671,0.200171,-1.365915,0.716169,-0.010226,0.842373,0.469856,-0.828795,2.152643,0.079161,-0.273069,-0.027168,0.621072,0.994052,-0.137689,-1.083915,2.002707,1.628516,0.410973,0.537505,-0.600983,0.168041
construction,0.346204,-2.045434,0.084256,-0.320005,-0.411685,0.050922,0.048677,-0.328466,-0.472326,0.572887,0.817274,0.025374,0.754311,-0.365965,0.17077,0.191042,0.849382,0.182791,1.492907,-0.734469,0.032345,-0.299486,-0.445063,0.338216,-0.329304,1.77578,0.25661,-0.304537,0.303224,1.61718,0.375183,0.974127,-1.181615,0.062627
therefore,0.178205,-1.131854,-0.486268,0.441568,0.277307,-0.067953,0.569362,0.254964,0.138888,0.963624,0.555622,0.284617,1.691764,0.065933,-0.355653,0.518097,0.569666,0.769278,-0.310931,-1.154266,-0.72707,-0.295826,0.147118,1.008217,0.191979,0.334929,0.407148,-0.143101,-0.729348,0.641321,0.59442,0.71505,-1.201646,-0.271397
compute,0.73032,-1.520038,0.132334,-0.34735,-0.688643,-0.146357,0.496575,0.61431,-0.640863,0.678788,0.383464,0.57612,1.137263,0.049149,0.260042,0.445206,0.661824,0.352042,-0.351259,-0.24826,-0.723262,-0.044028,0.708761,1.761109,0.141978,0.61541,0.84939,1.27742,-0.84577,0.867784,0.330427,1.324003,-0.503635,-0.61613
normal,-0.458384,-1.133964,0.772847,0.715276,0.511867,0.818941,-0.202182,-0.748833,0.188512,0.368682,1.297516,0.364074,1.53357,-0.240568,-1.180948,0.510343,0.983778,0.66573,-0.141675,-0.103947,-1.224119,-0.700225,-0.033708,-0.196311,-0.316858,-0.562935,0.905568,0.301748,-0.573772,0.686874,0.256525,0.829867,-1.506399,-0.336318
distance,-0.937317,-1.461258,-0.224955,-0.331612,-0.104732,0.117187,0.244133,-0.467465,-0.192373,1.431084,-0.373357,-0.537679,2.004401,0.01663,-0.609074,-1.671413,0.075195,-0.386909,1.096216,-0.606268,-1.183687,-0.621163,0.676124,0.904449,-0.644774,0.273944,-0.283048,0.447514,-1.171792,0.709521,-0.037758,1.124839,-1.024527,-0.795154
notation,-0.225912,-2.003737,-0.221238,-0.529199,0.379827,-1.345091,0.197377,-0.603794,0.778317,1.372714,1.572944,-0.008919,0.565315,-1.105549,-0.084606,1.102822,0.336,-0.262601,1.42072,-0.034948,0.884967,0.48011,-0.236552,1.441355,0.470271,-0.248823,0.75171,0.108084,-0.339151,0.846232,0.754768,1.051284,0.27072,0.141026
parameter,-0.223055,-0.681962,0.258871,0.444347,-0.292804,0.189868,-1.189052,0.128993,-0.019814,1.306963,0.110107,0.721083,1.414362,-0.09306,0.199091,0.103851,0.158693,-0.269582,-0.438666,-0.798376,-0.985696,-0.90692,-0.381737,0.669757,0.966789,-0.611293,0.311482,0.7494,-0.881828,1.725915,0.105808,1.832914,-1.164558,-1.455814
euclidean,-0.407293,-1.905658,0.129496,-1.015268,0.772197,-0.237919,-0.143054,-0.905266,0.012218,1.30863,-0.105827,-0.233467,1.503487,-0.53678,-0.635327,-0.528326,1.466951,0.503103,0.361788,-0.834606,0.189015,-0.315387,-0.240582,-0.069393,-0.885116,0.402417,0.070678,-0.248646,-0.295971,1.233053,1.063065,0.671333,-1.513296,0.798198
symmetric,0.179227,-1.700941,0.403581,0.641869,0.453686,-0.096025,-0.030059,0.132892,0.017045,0.923449,1.012791,0.356704,0.533182,-1.333455,-0.096132,0.192768,1.294955,0.47712,-0.380187,-1.088302,-0.605192,-0.108842,0.319315,-0.496783,0.472758,-0.233962,1.611705,0.238305,-1.158668,0.801221,-0.074533,0.15657,-1.55335,0.361433
metric,0.141439,-0.723433,-0.210415,-0.585949,-0.207519,0.379886,0.914716,-0.576102,-0.538533,1.979152,-0.279662,0.075709,1.820747,-1.093542,-1.515115,-1.531017,0.893386,0.410868,0.668936,-1.050212,0.04999,-0.572452,0.317016,-0.45238,-0.051706,-0.845004,0.781341,-0.309935,0.164658,0.995472,1.30503,0.713268,-1.240304,0.095499
test,-0.464106,-1.259386,0.407025,1.483121,-0.891751,0.636141,0.781389,0.795819,0.426509,0.332868,0.065673,1.365035,1.277271,-0.714728,-0.465827,0.831621,-0.511804,0.435875,-0.037927,0.439032,-0.011173,0.129327,-0.18295,1.355013,-0.983738,0.016418,0.985128,0.219027,-0.423836,0.851068,-0.079136,0.794673,-0.70538,-2.64276
bundle,1.029273,-1.43798,-0.943518,-0.133402,0.111708,1.897168,1.163045,-0.629055,-0.927843,0.956825,0.380321,0.577883,0.846694,-1.024935,-0.841512,-0.744408,0.816895,-0.602392,0.15253,-1.503994,-0.474605,-1.65207,-1.271679,-0.649914,1.691945,-0.316267,0.668516,1.053808,0.523595,0.699997,0.841394,0.626635,-1.241383,0.948809
center,-0.442104,-2.919852,-0.149981,0.502292,0.804675,-0.220861,0.141234,-0.680813,-0.003483,-0.078355,-0.882083,-1.153999,0.188206,0.3477,-0.220338,-0.579589,0.593109,0.14306,0.729246,-0.840867,-1.779098,0.586806,-0.521752,0.047844,-0.979852,-0.187143,0.566531,0.129402,-0.493988,0.91392,-0.187952,1.196365,-0.614942,-0.684314
symbol,-1.190878,-1.723834,-0.506894,0.023813,0.480372,-0.656752,-0.233487,0.174077,1.088881,1.093883,2.304764,0.310616,0.832191,-1.00937,0.34646,0.934453,0.046206,-0.331969,0.817717,-1.39809,0.195749,0.673666,0.442912,1.093245,0.595812,-0.113273,0.541461,0.343965,0.285262,0.871404,-0.156248,1.221232,0.614492,0.896845
projective,0.134237,-1.694382,0.071638,0.082067,0.699847,1.513006,0.07037,-0.90649,-0.472246,0.268279,0.231979,-0.227541,0.954923,-0.159825,-0.627341,-0.082388,1.692925,0.085965,-0.04948,-0.437509,0.005433,-1.212966,-1.249093,-0.216389,-0.149899,0.669827,0.636238,-0.036938,0.592044,1.278324,0.510238,0.518762,-2.4794,1.258775
sphere,0.104349,-1.477939,-1.733384,-0.457781,0.825731,0.186828,0.540295,-1.145126,-0.063837,1.553863,0.000877,0.46211,-0.113553,0.451336,-0.317849,-0.746841,0.368369,0.38347,0.978069,-1.634422,-1.039087,-0.737455,-0.442599,-0.193619,-1.376839,0.089727,-0.114428,-0.273126,-0.075177,1.267114,1.048822,1.071907,-1.599995,0.439838
interval,-0.748873,-0.675737,-0.223634,-0.310024,-0.081522,0.377643,0.240308,0.560942,0.539519,0.669713,-0.122767,0.217191,0.993135,0.202132,-1.474974,0.927019,0.666931,-0.014937,0.308119,-0.261113,-0.781265,-1.00178,1.453795,0.915879,-0.326051,-0.176846,0.119438,0.340892,-0.963412,0.857582,-0.196759,1.642625,-1.54785,-0.801654
single,-0.585867,-1.898463,-0.072877,0.790328,0.292916,0.091128,0.435191,0.733465,0.116009,1.225755,0.352583,0.657019,0.793838,-0.157518,-0.259397,0.38531,0.150741,0.032259,-0.529534,-0.088387,-1.220865,-0.026495,0.423872,0.799118,0.21658,0.5017,-0.324886,0.298321,-0.090302,1.377438,-0.352038,1.523252,-0.679566,0.666863
geometric,0.219889,-1.921963,0.295481,-0.812003,0.030249,0.981145,-0.03251,-0.550978,0.003773,1.082311,0.009751,-0.36627,0.512617,-0.466412,0.256722,-0.47801,1.740263,-0.325358,0.115827,-0.151677,0.093109,0.191527,0.086116,0.727352,0.33556,0.348783,0.015392,-0.722294,-0.082081,1.007433,1.201401,0.946047,-1.449163,-0.406746
ideal,0.07005,-0.94074,-0.526442,1.149855,0.843388,0.1043,0.550138,0.684902,0.934172,-1.441411,1.23304,1.023489,1.500062,0.615921,0.67129,0.320625,1.621915,0.858901,0.203332,-1.269239,-0.667603,-0.054517,0.324719,-0.636897,0.140441,-0.109868,0.852123,-0.392563,0.543492,0.360328,0.031884,1.024885,-1.858002,0.691172
dual,-0.666084,-1.717056,-0.572449,0.123842,-0.624213,-0.703969,-0.034717,-0.339972,0.268299,1.014599,1.134841,-0.3967,0.579567,-0.980332,-0.21922,-0.953312,1.134303,0.374999,0.496819,-1.239102,-0.734985,-0.378179,-0.560911,-0.921817,0.520458,0.739933,1.283735,-0.070525,0.064248,1.004141,0.392359,-0.159776,-1.716669,0.499526
module,0.56221,-1.008848,0.531143,0.544848,0.606503,1.263025,1.390219,0.55276,-0.627437,-1.55105,1.461427,1.268764,0.640418,-0.964134,-0.544336,-0.013178,1.413937,0.352065,0.612819,-1.491981,0.211929,-0.225554,0.054605,0.075724,1.067047,0.16662,1.460128,0.216441,0.153293,-0.064471,0.111147,1.099468,-1.359399,0.3742
invariant,1.33539,-1.145559,0.119206,0.2937,0.531399,1.13155,-0.109742,-0.991981,-0.61635,1.099941,0.321703,0.471615,1.473733,-0.63651,0.090247,-0.896147,0.817317,0.038326,-0.305781,-0.871843,-0.348071,-0.615647,0.493381,0.251303,0.161865,-0.158316,1.336415,-0.440363,0.134684,0.745478,0.395067,0.943944,-1.180812,1.033181
$\mathbb{Q}$,-1.137216,-1.082367,-0.367755,0.522921,0.294753,0.404588,-0.538411,-0.110662,1.062988,-0.039166,0.827158,0.393975,1.071019,0.210616,0.004652,0.938874,0.889193,0.313739,-0.076542,-1.947123,-0.511125,0.355627,-0.334213,0.652368,0.345924,0.412512,1.991646,1.198713,-0.045399,0.184085,0.135431,1.383567,-0.645546,-0.185954
index,0.539715,-1.305087,-0.075337,-0.018706,0.380616,-0.298808,1.219454,0.369804,1.108269,0.923495,1.388948,0.105169,0.086921,-1.099536,0.357713,0.155753,-0.286805,-0.168268,0.069975,-1.067272,-0.707848,0.311217,0.440835,0.182681,0.80196,-0.464388,1.189787,0.068846,-0.721184,1.030674,-0.671308,1.493802,-0.815742,-0.279395
information,0.122101,-1.563138,0.561559,0.283871,-0.342401,0.325986,1.221827,1.488036,-0.388964,0.994953,0.265366,-0.013012,0.197634,-1.705304,0.109967,-0.710509,-0.095968,0.669361,-0.344718,-0.111394,-0.581978,-1.155969,0.829342,1.577632,0.504766,0.026326,0.004409,-0.829563,0.409109,1.195086,0.563209,0.943032,-0.028711,-1.396741
transformation,0.746975,-1.716844,0.577036,0.627813,1.078854,-0.140885,-1.102718,-0.942482,-0.811188,1.067463,0.20402,-0.463054,1.474587,-1.277863,0.486003,0.493342,1.136732,0.083884,0.12487,-0.578622,-1.220882,-1.00173,-0.114349,0.051224,0.457294,0.676139,1.131372,0.173317,0.195477,0.96241,1.090325,0.385505,-0.768718,0.304928
extension,0.358752,-1.187179,0.469795,0.435782,0.303268,0.680981,0.745328,0.198561,0.012238,0.031597,0.498317,-0.231337,1.529368,0.860008,0.01026,0.193537,1.245208,0.266073,0.222655,-0.775102,0.61824,0.069475,1.09188,0.467566,0.283651,0.013427,1.070281,0.255771,0.532216,0.858094,0.622344,0.800463,-1.472591,0.186869
direct,-0.218851,-1.848843,0.903123,0.266677,0.250662,0.477489,1.12757,0.469904,-0.936913,0.6333,0.663997,-0.804995,0.787729,0.136254,-0.495513,-0.049292,0.54648,0.081432,0.160057,-0.734507,-0.740654,-0.315731,1.199977,0.730912,0.41208,1.05735,0.756672,-0.479213,-0.852371,0.345572,-0.119772,0.388119,-1.293824,-0.177648
uniform,-1.175687,-1.050667,0.131973,-0.856269,-1.112798,-0.869286,-1.48676,-0.701761,1.126623,0.600621,0.582349,0.101045,-0.029893,-1.457058,-0.434534,-0.278085,0.739169,1.391619,-0.208599,-0.579813,-1.267549,-1.292023,0.034256,-0.086921,-0.352326,0.986468,1.367616,-1.741457,0.286189,1.055703,-0.221124,1.123587,-1.878469,-0.154525
path,-0.265459,-1.645543,0.181886,0.016996,-0.164229,0.627837,0.658901,0.502785,-0.777834,1.699812,-0.106154,0.176551,0.947556,1.288985,-0.801314,-0.295162,-0.223127,-0.294687,-0.145304,-0.514549,-1.628173,0.266063,1.292369,0.491008,0.510861,1.158397,0.343429,-0.457874,-0.762783,0.309803,0.238786,1.302915,-0.852131,0.180762
negative,-0.019526,-1.077711,-0.338213,-0.090436,0.804848,0.141678,0.924312,-0.307489,0.587494,1.440408,0.795035,0.326418,2.04558,-0.559115,0.283243,0.647134,0.461662,0.263351,-1.633228,-0.978986,-1.101916,-0.104314,0.629705,0.585392,-0.271659,-1.022454,0.196075,0.400828,-1.209804,0.652584,-0.408093,0.548126,-0.91245,-0.529045
image,-0.319493,-1.496594,0.142879,0.367263,0.912231,-1.515519,1.16372,-0.203958,-0.561684,0.402195,0.188166,-0.426857,-0.427549,-1.144377,-0.270298,-0.269467,0.314373,0.310807,0.960848,-0.442886,-1.61134,-0.910718,-0.236793,0.832243,-0.075002,1.424677,0.511176,0.244063,0.196218,0.431033,1.547109,1.63554,-1.480438,-0.453813
member,0.299717,-2.563101,0.523235,1.397631,-0.879718,-1.145325,0.829106,0.455559,0.906319,-0.419025,0.564987,-2.196175,-0.597757,0.591537,-0.212147,0.067353,-0.570397,1.130255,-0.116569,-0.286794,-1.138818,-0.369436,0.343927,0.927386,0.577929,-1.796046,0.117189,0.305709,-0.400978,1.117816,0.28981,-0.479954,-0.454034,0.811394
inverse,0.421512,-0.97608,0.153634,0.395485,0.843418,-0.864549,0.498276,-0.627651,-0.007678,0.373807,0.657953,-0.116729,1.689938,-1.018362,0.877125,1.277914,1.053028,0.421161,0.387405,-0.827593,-1.759279,-0.810046,0.912633,0.342389,0.387249,0.680484,1.029311,0.98486,0.166343,0.426171,1.244211,0.185611,-1.219746,-0.723828
step,1.234766,-1.34301,0.279709,-0.323199,-0.479827,0.019886,0.037087,0.658,-0.120385,0.813333,-0.040643,0.564326,1.344742,0.45174,-0.488532,1.348092,0.044082,0.562017,-0.572845,0.084977,-1.00278,0.287271,-0.050093,0.645491,0.319247,1.589961,-0.112906,0.084759,-0.436478,0.918907,-0.402983,2.229586,0.027868,-0.635003
independent,-0.708837,-0.639947,1.038478,0.913335,-0.24015,0.773468,-0.445591,0.902471,0.893928,0.933483,-0.34034,0.072945,2.161276,-0.572384,-0.659223,-0.035911,0.481576,0.590315,-0.302857,-0.131798,-1.041035,0.311625,0.30003,0.911653,0.728889,-0.760516,-0.044117,0.075471,-1.127035,1.265996,0.103802,0.830445,-1.182857,0.522609
arithmetic,0.527774,-1.849248,0.30529,-0.41597,-0.295585,-0.019319,0.428582,-0.793468,0.562929,-0.005689,1.003208,-0.075118,1.835255,0.262841,0.115711,0.668455,1.339503,0.232286,-0.47954,0.304242,1.407892,0.136623,1.163619,1.400872,-0.361352,-0.196737,-0.082465,0.215315,0.87256,1.335309,-0.056814,0.614879,-0.916478,-0.115686
position,0.237966,-2.552382,-0.234545,0.832673,-0.19035,-1.156181,-0.535454,0.36818,-0.483722,0.793506,0.180256,-0.671507,1.281339,0.162382,-0.415531,0.169914,-0.253263,0.092093,-0.24882,-0.068712,-2.001016,0.100053,-0.417338,0.908048,-0.018468,-0.461114,0.19403,-0.587628,-0.585362,0.700799,-0.713496,1.145759,0.637589,0.37875
calculus,0.087267,-2.425424,0.526075,-1.701804,-0.177754,0.3001,-0.379647,0.448554,-0.19671,0.542856,0.866559,-0.039441,1.479183,-0.271423,0.339955,1.165665,1.337914,-1.003375,-0.300189,-0.035749,0.521087,0.182856,0.690405,-0.099564,0.801696,-1.196588,0.305649,-0.23567,0.566884,0.550006,1.146132,0.598166,0.4416,-0.558319
rational,-0.003064,-0.873084,-0.660665,-0.203915,0.191194,0.475248,0.672114,-0.270758,0.721423,0.471526,0.561732,0.221474,1.619165,0.622826,0.810077,0.881808,1.587255,0.110895,-0.467273,-0.512849,-0.502148,-0.377889,0.215444,1.133907,-0.185434,-0.180604,0.588017,0.760661,0.0616,1.028406,0.285545,0.369041,-1.920271,0.480569
law,-0.310204,-1.773495,-0.308156,1.54961,0.230338,0.256993,-0.414257,-0.555257,0.704883,0.257296,0.335504,0.255707,2.499338,-0.567832,0.966335,0.524095,0.933987,0.682926,0.325249,-0.381214,-0.832651,0.347511,0.423801,0.470557,-0.042239,-0.581233,0.317455,-0.540744,1.214222,0.626641,0.810446,-0.023397,0.556238,-1.25349
tree,-1.009737,-1.685124,1.692326,-0.248346,-0.70905,0.22317,0.831423,0.277816,-0.082183,0.707344,1.027634,0.537258,0.67573,1.105567,0.001691,-0.649048,-0.380781,-0.029458,0.144511,-0.102301,-0.463639,0.671841,0.518522,0.415283,1.500551,2.127573,0.256798,-0.019375,-0.706026,0.539686,-0.550241,1.209927,-1.125635,0.203541
component,-0.163617,-1.285864,-0.099253,0.863955,1.199613,-0.032363,0.748142,0.957727,-0.394259,1.365992,0.305946,0.110245,0.744284,-0.678279,-0.19743,-0.663188,0.738761,-0.121005,-0.31893,-0.408993,-1.468431,0.33494,0.362233,0.506167,0.305401,-0.277757,0.744782,0.455426,-1.094277,0.574132,0.26851,1.414335,-1.104286,0.516746
lattice,-0.517049,-1.515825,0.245542,1.148191,0.658423,-0.924361,-0.201581,-0.367567,0.591516,0.497532,0.947028,-0.232625,0.503514,0.305287,-0.200364,-0.769855,1.14907,0.549943,0.674968,0.005778,0.354492,-0.229405,0.242102,-0.425932,-0.413191,0.246518,1.600711,-0.473416,-0.304623,1.069777,-0.236574,0.808219,-1.768191,0.319256
inequality,0.014464,-1.129413,0.006879,-1.041628,-1.285528,0.708042,0.647071,-0.088459,1.738168,1.245695,-1.137582,0.439015,2.468272,-1.101424,-0.106408,-0.024762,0.45937,0.02321,0.334256,-0.849374,-0.301754,1.357251,0.449267,-1.099912,-0.053863,-0.081434,0.989965,-0.536512,-0.265852,0.492238,0.567517,-0.2472,-0.729806,-1.637888
volume,0.455311,-2.199291,-1.186575,-1.311826,0.263417,-0.115564,-0.759739,-0.11796,1.2887,0.444768,0.08892,0.068919,-0.307098,-0.591108,0.021007,-0.522338,0.827993,0.110984,-0.38965,-0.442224,-0.486438,-1.009339,1.242189,0.228159,-1.001449,-1.116523,-0.201843,-0.455527,-0.07134,0.955669,0.544202,1.47148,-0.180232,0.174112
section,0.508439,-2.541027,-0.942356,-0.18018,0.036545,1.010525,-0.105545,-0.291806,0.340068,-0.037171,0.129669,-0.392666,0.405195,-0.422691,-0.989046,0.382032,1.157117,-0.231755,0.114316,-0.415844,-0.511835,-0.53139,-0.269597,-0.189636,0.24755,0.010698,-0.508606,0.512724,0.34134,0.421196,0.840778,1.285982,-0.796611,-0.266704
add,0.233834,-1.744342,-0.751972,-0.376887,0.592435,-0.4497,0.329584,0.907721,0.28266,0.965539,0.764157,0.477628,1.244921,-0.362823,-0.353055,0.287919,0.210708,0.684302,-0.328266,-0.60218,-0.332478,0.112142,-0.023557,0.834047,0.367823,1.002045,-0.171849,-0.282563,-0.526082,0.914206,-0.666419,1.429195,0.263914,0.389728
$\mathrm{e}$,0.238312,-1.723467,-0.029271,-0.072649,0.594021,0.180247,0.261303,-0.349833,0.308863,-0.07225,0.288763,-0.44881,1.005429,0.593782,-1.181572,-0.312305,-0.172952,-0.155449,-0.057828,-1.847508,-0.369308,-0.627401,0.275184,0.331486,1.119625,-0.029681,0.649348,1.618058,-0.828699,-0.0561,1.098263,0.6156,-0.92297,0.552651
fundamental,0.708245,-1.830354,-0.58315,0.62623,0.298176,0.293144,0.283861,0.115731,0.128269,0.796543,0.031213,-0.314772,0.178963,0.13155,0.558208,-0.117229,1.274604,-0.057665,0.346606,-1.021268,-0.166293,0.322097,0.271857,0.430906,0.11205,-0.128679,0.719778,-0.861799,0.280491,1.134268,0.910199,0.984951,-1.162117,-0.18765
game,-0.141282,-2.016861,0.817326,0.977593,-0.620334,0.369005,1.01414,0.17798,1.060645,0.641145,-0.006729,1.493118,0.331764,-0.060938,0.174278,-0.156561,0.178112,1.421138,-1.419758,0.90213,-0.020664,0.528819,0.300553,-0.289802,1.457776,0.146829,-0.970369,-1.004422,0.501396,0.706105,0.202234,0.48512,-0.336396,0.289879
polytope,-0.492389,-1.904054,-0.114723,-1.024452,-0.73812,-0.367807,-1.555678,0.058515,1.876214,0.287828,1.492042,-0.37355,-1.040985,-1.017327,0.213384,0.165023,0.398617,-0.069541,0.68186,-0.442895,-0.142386,-1.162018,-0.925367,-0.970415,-0.262962,1.023744,1.263111,-1.412267,-0.745905,1.000913,-0.528593,1.048991,-2.005411,0.271912
smooth,0.159807,-0.88943,-0.673891,-0.613374,0.094253,0.828418,0.888455,-0.225593,-0.839664,1.158383,-0.123431,0.918331,0.819306,0.274974,-1.124775,0.387627,0.778331,-0.26457,-0.642207,-0.924032,-0.76582,-1.131507,-0.801959,0.035997,0.110796,-0.570705,1.389774,0.04481,0.494047,0.996261,1.25978,1.174691,-2.024354,0.440488
partial,0.608716,-1.213561,-0.070218,-0.139511,-0.521835,-0.682636,0.325087,0.426807,0.414066,1.167158,0.361863,-0.96355,1.078537,0.065826,0.175757,0.560597,1.353911,0.136555,-0.681302,0.058816,-1.163539,-0.276725,0.973618,0.290475,1.203605,0.316672,1.084542,-0.160594,0.046117,0.631813,1.023484,0.339458,-1.19756,-0.09289
extend,0.138821,-1.206661,0.230086,-0.702138,0.179238,0.306864,0.620983,0.275355,-0.280313,0.834964,0.431178,0.133289,1.610713,-0.076189,0.065646,0.618452,0.940418,0.253677,0.562172,-0.839012,-0.029671,-0.225912,0.045636,-0.018274,0.055039,0.524774,0.477956,-0.210421,-0.006422,1.081915,0.385251,0.705409,-0.621883,0.264621
multiplication,1.110631,-1.358455,0.296887,-0.06848,1.243262,-1.307331,1.275728,-0.670843,-0.345084,0.306803,0.376017,-0.08889,2.196991,-1.356999,0.132632,0.869919,1.717313,0.98366,0.366974,0.023776,0.166073,0.259811,-0.018237,0.971124,0.440605,0.865894,1.046031,0.964095,0.110891,0.739755,-0.002329,0.75115,-0.106434,0.716641
boundary,0.095883,-1.26258,-1.146236,-0.497113,0.900127,-0.2814,0.747603,0.673489,0.197112,1.807154,-0.437453,0.120959,0.513917,0.987588,-0.281277,0.192108,0.350148,-0.072123,-0.065659,-0.870077,-1.433548,-0.402571,0.263107,-0.75294,-0.338472,-0.06309,0.522466,-0.768034,-0.117614,1.047089,0.809094,1.463301,-1.275317,-0.16225
local,0.319022,-1.00246,-0.563523,0.950965,-0.17763,0.649058,0.760791,0.650672,-0.854284,0.006289,0.436129,0.619921,1.13086,0.645439,-0.087726,-0.208123,1.058554,-0.107705,-0.272037,-0.712588,-0.864177,-0.718754,0.086975,-0.194465,0.072884,-0.737673,1.269088,0.055293,1.099265,1.078341,0.477906,0.987435,-1.372946,-0.697324
node,-0.70544,-1.658428,0.46058,0.170169,-0.523371,0.31703,0.990775,1.431762,0.228196,0.715848,0.950463,-0.487989,0.27971,0.837256,-0.017745,-0.07256,-1.42217,-0.214858,-0.419663,-0.641696,-1.725641,0.529604,-0.238313,0.716934,0.740877,1.027335,0.289975,-0.180089,-0.755242,0.716197,-1.22916,1.967982,-0.328502,-0.097785
develop,0.445778,-1.872852,0.897114,-0.573247,-0.628889,0.101265,0.367246,0.918313,-0.59023,0.697814,0.482348,0.340427,1.109779,0.173035,0.974733,-0.160163,0.668327,0.644453,0.740038,0.401364,0.572326,-0.357579,-0.349605,0.414106,-0.342642,-0.576217,0.004883,-0.440092,0.016325,1.468418,1.003397,0.643287,0.245509,-0.685732
difference,0.307209,-0.876331,-0.530456,0.348661,-0.027357,0.014605,0.421179,0.078474,0.691123,0.698858,0.227559,-0.319564,1.591603,-0.556717,0.312954,0.205857,1.009292,-0.034242,-0.172878,0.100556,-1.010462,0.13637,0.446371,1.518699,0.207168,0.236687,-0.044536,0.181652,-0.192718,0.827369,0.04011,1.253577,-0.712487,-1.169835
statement,0.308752,-1.366613,-0.225401,0.191734,-0.553383,0.649856,0.118219,0.431581,0.48733,0.754656,0.797951,-0.004918,2.067216,-0.356699,-0.900572,0.956606,0.191918,0.075072,-0.141124,-1.348283,0.613249,0.247693,0.470244,0.749277,0.069307,0.190959,-0.175681,-0.80514,0.479156,0.650651,1.083694,0.107797,-1.093651,-0.360702
tensor,0.417543,-1.070388,-0.457291,-0.09817,1.12333,0.301915,0.903305,0.856947,-0.407266,1.603429,1.400164,0.027116,1.29262,-2.186887,-0.056982,-1.106948,1.652629,-0.355018,-0.001017,-1.215071,-0.362251,0.631418,0.453037,-0.387404,0.825094,-0.807554,1.646243,-0.042698,-0.02083,0.330182,0.623259,0.482967,0.34947,0.219217
discrete,-0.120501,-0.712105,1.061434,0.102218,0.066268,-0.333378,0.198438,-0.211428,0.165967,0.807344,-0.480228,0.364658,0.209245,-1.009189,0.258341,0.528255,1.2773,0.612573,0.284444,0.082239,-1.128984,-0.224416,0.951676,0.710549,0.157932,-0.457024,1.243479,-0.590471,0.176416,0.921741,1.251443,1.520175,-1.549147,-0.150136
variety,0.582952,-1.455744,-0.426554,0.144665,0.191196,1.25627,0.914894,-0.073688,-0.483001,-0.162616,0.56857,0.448774,0.500261,0.681846,-0.328604,-0.398893,1.314215,-0.437414,-0.25487,-0.353785,0.85551,-0.901148,-1.161267,0.389013,0.364323,-0.588803,1.060944,0.407309,0.64969,1.150611,1.092285,0.866967,-2.278629,0.775888
generalize,0.192723,-1.13825,0.461444,-0.19094,-0.64141,0.492929,-0.182373,-0.139068,0.647667,0.938322,0.718189,0.623847,1.433764,-0.338452,0.726743,0.352935,1.117908,-0.160173,0.322506,-0.153605,-0.250039,0.185878,-0.018473,-0.150874,-0.013114,0.017229,1.426146,-0.266165,-0.28623,1.192394,0.647603,0.321108,-1.560892,-0.324018
sample,-0.320241,0.167771,0.950545,0.530425,-0.512431,0.413448,0.032837,0.572339,0.630954,0.959999,0.317923,0.41129,1.002293,-1.128167,-0.947296,0.122535,-0.361694,0.72322,0.807358,0.380891,-1.275157,-0.600639,-0.065763,1.711511,-0.214743,-0.412882,-0.252617,0.389796,-1.469333,1.513898,-0.100927,2.14883,-0.868551,-1.974603
statistic,-0.642916,-1.935697,1.29464,0.769526,-0.632008,0.415389,-0.392737,0.785045,0.533628,-0.288777,0.376828,-0.415941,0.388994,-0.757946,-0.220019,0.020907,0.564328,0.221253,0.098854,0.995622,-0.461609,-0.86898,0.010328,1.190909,0.337572,-1.449879,0.989352,-0.38286,-0.892385,0.691352,0.61071,0.887637,-0.164361,-2.600081
axis,-0.339866,-2.289066,-0.881562,0.61228,2.499821,-0.215079,-0.987083,-0.906958,-0.665143,0.859255,-0.007636,-0.306533,1.016743,-0.149028,0.014738,0.224736,0.861528,-0.827305,0.326375,-0.758996,-1.717917,-1.00483,-0.569252,0.182157,-0.794972,0.441631,-0.561198,0.528249,-1.570319,0.132083,-0.201746,1.105644,-0.764642,-0.104999
hyperbolic,-0.806546,-1.498223,-0.350386,-0.592784,0.670932,0.586025,-1.065697,-1.348605,0.333621,1.028511,-0.070264,0.128385,-0.199116,-0.335141,0.858035,0.349353,2.08297,1.299294,0.168903,-0.981328,-0.999566,-0.865706,0.01277,-0.694664,-1.135001,0.738202,0.676119,-0.81316,0.161016,1.077809,1.286362,0.491839,-1.295514,-0.19102
rotation,0.586099,-1.803915,0.040198,0.669074,2.070208,-0.471766,-1.419502,-1.773819,-1.18315,1.278062,-0.07677,-0.250999,1.297807,-1.108988,0.003939,-0.114721,0.785022,-0.243387,-0.335826,-0.946207,-0.861328,-0.482514,-0.347131,1.011786,-0.112594,0.966226,0.036355,0.026913,-1.177269,0.72594,-0.128953,0.634956,-0.519942,0.747103
Hilbert,1.459976,-1.280381,0.344936,-0.313129,-0.849447,0.213448,0.036341,0.042158,0.206384,0.701165,0.512517,0.230025,1.721635,-0.260111,-0.358498,0.188362,0.673728,0.823403,0.397514,-0.777308,0.619298,0.243084,0.482912,-0.89186,0.055526,-0.958317,0.119635,-0.203804,0.303882,0.465863,1.339879,0.669581,-0.810177,1.406377
digit,1.002986,-1.235676,-0.68936,0.271669,0.356103,-1.082121,0.98075,-0.367418,0.979791,0.75269,0.713585,0.174824,0.95336,-0.641633,0.037676,0.901957,-0.00608,0.980552,-0.480085,0.395416,-0.007309,1.067666,0.199015,2.670296,-0.948889,0.799262,-0.464932,1.124676,-0.462772,0.743629,-1.02485,1.723485,0.493779,1.063496
intersection,-0.550778,-1.936851,-0.664869,0.482368,0.916188,0.522741,0.536639,0.876328,0.338312,0.332427,0.307074,-0.409921,1.443726,0.629236,-1.035829,-0.086982,0.644586,-0.626676,0.698011,-0.438895,0.045763,-0.38923,0.047812,-0.22958,-0.587935,0.439181,0.473983,0.157735,-0.242373,0.815159,-0.33434,1.157468,-2.06764,0.416366
addition,0.268264,-1.684297,0.134653,0.30206,0.367288,-0.71711,0.606446,-0.232981,-0.23326,0.20649,0.300608,-0.205022,1.78935,-0.933914,-0.181304,0.628892,1.428095,0.747998,0.181071,-0.132329,-0.155923,0.125105,0.121179,0.904926,0.5451,0.219779,0.458208,0.057329,0.134639,1.013962,-0.220466,0.761828,-0.199796,0.346257
expression,-0.010272,-1.330668,-0.415094,-0.38124,0.297466,-0.379906,-0.540583,0.57761,0.082125,1.106461,1.653274,0.074294,1.568595,-0.331477,0.048488,1.810879,1.272486,-0.420715,-0.254312,-0.82654,-0.169071,0.586753,0.3609,0.984938,1.04184,-0.078865,0.349558,0.496558,-0.595877,0.877132,0.582159,0.736355,-0.125263,-0.539725
Student,0.26892,-2.89434,0.249327,0.055937,-1.376346,-0.019644,0.761451,0.516679,-0.065885,-0.828417,-0.107177,0.272236,0.709961,-0.016355,-0.175868,0.033164,0.543382,0.945084,0.253418,0.564102,0.31061,0.004316,-1.619061,0.868652,0.090526,-1.674785,-0.40594,-0.878597,-0.655358,0.534937,-0.626394,0.550994,0.371166,-0.231598
approximation,0.859169,-0.81038,0.031559,-0.682519,-1.140548,-0.488131,0.120261,-0.187614,0.216329,0.810938,0.147262,0.241934,1.332685,0.537377,0.101301,0.295856,0.955773,-0.16261,-0.600853,0.709537,-0.978328,0.15843,0.756152,1.336593,-0.420336,0.198859,0.458718,0.581269,-0.087335,0.824001,1.084456,1.309628,-1.324087,-1.309955
$\mathbb{Z}$,-0.487518,-1.06779,-0.385759,0.402094,1.813109,-0.18293,0.078988,-0.83767,0.243661,-0.020641,-0.471543,0.054812,1.235464,0.282943,-0.544431,1.157011,0.340847,0.242217,0.316545,-1.353481,-0.67873,-0.693602,-0.707754,1.225145,0.899286,0.082961,1.253509,1.143598,-0.336785,0.069105,0.870058,1.371021,-0.621835,-0.132124
mathematics,-0.007655,-3.244842,0.582504,-0.922262,-0.462081,0.028866,0.952993,-0.349773,0.76586,-1.320121,-0.467617,-1.205165,-1.05418,0.340582,0.01784,0.034768,0.862059,0.769355,-0.138764,0.121532,-0.04339,0.254252,0.736635,0.009716,-0.304773,-1.65914,0.681438,-1.059667,0.257424,-0.565959,0.745994,0.619488,0.340632,-0.167179
code,-0.213177,-1.505387,1.062283,-0.234751,-0.456128,-0.275879,1.16522,0.383215,-0.466042,1.336341,1.402402,1.058206,0.187472,-0.762627,-0.41264,-1.033132,-0.391854,0.802012,0.023437,-0.061828,0.654106,-0.337195,1.399551,1.028991,-0.372769,0.741141,0.422026,1.55248,0.17281,1.002704,0.272679,1.240796,0.36825,0.007327
rank,0.276024,-1.475875,-0.135783,0.992021,-0.336303,0.089869,1.346358,0.749106,0.542657,0.019216,0.703724,0.145695,0.60142,-0.661464,-0.445017,-0.370044,0.128207,0.399865,-0.337544,-0.342411,-0.247489,-0.228768,-0.226303,0.397989,0.214331,-0.389375,1.524157,0.644842,-0.793469,1.017933,-0.899923,0.554576,-1.544141,-0.416027
characteristic,0.426817,-0.828684,-0.420778,0.845442,0.211841,0.848907,0.471068,-0.079993,0.023491,0.730105,0.574322,0.377232,0.773477,0.111555,0.624031,-0.057876,0.864474,0.021152,-0.71861,-1.214972,-0.267598,-0.026307,-0.146718,0.910105,0.085001,-0.643794,0.996726,0.343757,0.121474,1.143219,0.658502,0.549335,-1.684562,-0.035643
binary,-0.85525,-1.586705,0.733165,0.582404,0.433872,-0.888976,0.696757,-0.216855,0.529174,0.786679,1.53396,0.089818,0.887817,-0.806,0.24397,-0.047319,0.424625,0.475323,-0.505207,0.118933,0.264865,0.351913,0.566556,1.248883,1.015622,1.158611,0.724457,1.042971,0.456217,1.233986,-0.587665,0.99518,-0.308154,0.524322
closed,-0.687863,-1.023951,-0.388658,-0.1999,0.593064,0.190415,0.691951,0.300671,-0.298342,1.013871,0.480207,0.442264,0.743024,0.982468,-1.672199,0.451184,0.404561,-0.216526,0.30662,-0.96077,-0.721123,-0.341604,0.910431,-0.426771,-0.818302,-0.507808,1.073857,-0.305479,-0.234015,0.770851,0.853615,1.263534,-2.187462,0.779391
tangent,-0.623226,-1.840279,-1.567206,-0.538037,0.408717,1.190351,0.746371,-0.113659,-0.400494,1.101862,-0.492381,-0.343014,1.346814,-0.375973,-0.43993,0.345064,1.244424,-0.620697,0.584184,-1.398748,-1.790967,-0.744479,-0.636537,-0.600298,-0.083011,0.087848,-0.455006,1.189065,-0.175212,0.356432,0.787075,0.106965,-1.004635,0.565455
diagram,-0.68867,-2.298002,0.067555,0.616516,0.77893,0.980741,0.112458,0.260784,0.27856,1.275205,1.159753,-0.176639,0.287269,-0.542949,0.561207,0.602207,-0.339047,-1.104678,1.136927,-0.34082,-0.610133,-0.052283,-0.37716,0.243387,0.1118,1.636319,0.769855,-0.352819,-0.133874,0.977754,-0.015778,0.73686,-0.681556,-0.178144
divide,0.207595,-1.263275,-1.370175,0.389658,-0.02844,-0.167237,0.305988,0.106031,1.31256,-0.172378,-0.160031,0.610906,1.141318,0.257583,0.114418,0.416094,1.190763,1.295938,0.072233,-0.396604,-0.626715,-0.174873,-0.272746,1.428611,-0.08396,0.909579,-0.378094,0.750315,-1.023999,0.646075,-0.45467,1.127957,-0.793051,0.085842
functional,0.199916,-1.122539,0.878373,-0.917562,-0.36898,-0.267862,0.611598,0.352197,0.231392,1.136125,-0.046441,-0.836555,1.233599,-0.550645,0.03794,0.471816,1.07274,0.00498,-0.375274,-0.637217,-0.065151,-0.322547,0.674158,-0.512026,0.861599,-1.242084,0.957551,-0.003056,0.241033,0.887964,1.273973,0.543516,-0.879964,-0.39846
abelian,0.637183,-0.863452,0.305616,1.194458,0.755568,1.433942,1.587434,-0.781719,0.135765,-0.274059,1.146127,0.418863,0.323601,0.09016,-0.356233,0.26044,1.223839,0.712312,0.602671,-0.869312,0.326074,-0.165987,0.064988,0.693158,0.323051,0.062077,1.571602,-0.169351,0.528314,0.518761,0.967092,0.557717,-2.002163,0.620228
odd,0.416366,-0.87404,-0.789273,0.979001,-0.157334,-0.067952,0.449299,-0.576892,1.019038,0.764903,0.892436,0.624245,0.753516,-0.332477,0.284338,0.686694,0.190762,0.869779,-0.839617,-0.961213,-1.216996,0.344395,0.407542,1.533962,-0.192478,0.430084,0.879656,0.415515,-1.091065,0.448374,-0.330511,0.552005,-1.33657,0.208463
action,1.333485,-1.402899,0.160101,1.160477,0.977897,0.428959,0.133733,-0.349027,-0.850156,0.851697,-0.143355,0.262203,0.761538,-0.367237,-0.117306,0.093651,0.370569,0.454661,0.058082,-0.912569,-0.739563,-0.784527,0.466929,-0.057028,1.549728,0.051342,0.550249,-0.540017,0.004338,0.691762,0.710557,0.74632,-0.799865,0.615055
tiling,-1.851906,-1.556988,-0.024952,-0.367603,-0.086713,-1.167154,-1.049074,-0.864815,0.932525,1.059438,0.816216,-0.27922,-1.48328,0.52631,1.272166,0.76937,1.21723,2.2531,0.418835,-1.440386,-0.916657,0.074221,-0.151224,-0.776448,-0.888957,2.587763,0.209439,-0.729176,0.157414,1.296797,0.731499,-0.007064,-1.003024,0.124131
ratio,-0.472367,-0.891833,-0.768058,0.048086,-0.463627,0.126909,0.079707,-1.303855,0.807301,0.373117,0.483484,0.131538,1.322085,-0.322989,0.811292,-0.684136,0.917418,0.334363,0.159921,-0.612399,-1.617228,-0.267054,0.498724,1.429085,0.298864,0.25203,-1.021527,0.902081,-0.611308,0.616345,0.084245,0.685602,-0.776207,-1.775817
program,-0.322778,-2.797693,0.916441,-0.352046,-1.199731,-0.668735,0.452698,1.102026,-1.274106,-0.272658,-0.477831,0.527368,0.206845,0.321448,-0.551375,0.40246,1.046206,0.99013,-0.628332,-0.443635,0.279505,0.459184,0.021203,0.099115,0.800205,-0.227864,-0.240012,0.208278,0.106015,0.780767,0.201903,0.864837,0.383474,-0.323494
quadratic,0.437022,-1.187884,-0.4213,0.114961,-0.23262,0.390384,-0.404456,0.179193,0.353467,0.731935,0.397076,0.733159,1.503321,0.149803,0.479101,0.58405,2.117117,0.479833,-1.15809,-0.317783,0.226506,-0.04038,0.504729,0.141762,-0.394883,-0.475892,0.546237,1.627983,-0.261598,1.0874,0.405569,0.523418,-1.439825,0.662525
cube,-0.051186,-2.026361,-1.401441,-0.310917,-0.487633,-1.914328,-0.080448,-0.912656,0.840818,0.623327,0.610758,0.208092,-0.221649,-0.314414,0.516383,-0.073925,0.718696,0.417514,0.441479,-0.464898,-1.595502,0.862639,-0.381476,0.043891,-0.80108,1.517807,0.193723,-0.120888,-0.401809,0.514118,-0.218164,0.722121,-1.051992,1.030816
cycle,0.564384,-1.59174,-0.55243,1.136365,-0.269256,-0.045547,0.047936,-0.110664,-0.147058,1.188615,0.672454,0.324388,0.08134,0.882236,-0.268681,-0.380738,-0.266386,-0.191568,-0.451052,-0.423651,-0.632741,0.275498,1.03841,0.976956,0.186941,0.796983,0.813226,-0.159614,-1.029425,0.577387,-0.485415,0.78573,-1.416258,1.06396
figure,-0.679041,-2.231267,-0.953218,0.21122,0.303174,-0.424367,-0.731075,-0.518848,0.761782,0.698497,1.360084,0.046698,-0.317274,-0.141447,0.254047,-0.222508,0.357415,0.239897,0.423198,-0.537178,-1.269189,0.153708,-0.519256,0.161335,-0.58373,1.323613,-0.803406,-0.604008,-0.638314,0.827129,0.397989,1.024722,-0.771641,-0.200633
argument,0.425451,-1.519036,-0.269652,-0.072039,0.115937,-0.082405,0.304964,0.172674,0.149598,0.750477,0.534696,-0.163388,1.940434,-0.442762,0.340067,1.83554,-0.1194,-0.482158,-0.478304,-1.045565,0.046006,0.095051,0.336251,0.853492,0.577955,0.250472,-0.815006,-0.26223,0.57466,0.6181,0.45289,0.403406,-0.416923,-0.758458
Riemann,1.09773,-1.130143,-0.361186,-0.940431,-0.241623,0.902046,0.586894,-0.682265,0.025302,0.981875,0.433948,0.915384,1.044908,0.578254,0.017531,1.23599,0.120543,-0.251958,0.039385,-1.307609,0.143733,-0.224263,0.226981,-0.891766,-0.832962,-1.365879,0.593774,-0.10715,0.410897,1.301769,1.186548,0.570334,-1.299267,-0.204216
Euler,1.032178,-1.720363,-0.864383,-0.224999,-0.674062,0.571112,-0.449291,-1.0658,0.507741,1.481191,0.795556,0.14274,0.729784,0.484261,1.122843,1.086963,0.118101,-0.735963,0.047593,-0.841176,-0.597754,0.728566,0.308576,0.532796,-0.430716,-0.612829,0.338191,0.666141,-0.610854,0.826963,1.207701,-0.1611,-0.508067,0.023104
calculate,0.467814,-1.151973,-0.513228,-0.163856,-0.322349,0.03998,0.163393,0.212662,-0.169066,1.177271,0.416411,0.620239,1.226831,-0.06844,0.218155,0.380213,0.335507,0.278172,0.404256,-0.156198,-0.903998,-0.182183,0.255972,1.587689,-0.350658,0.030382,-0.046788,1.148028,-0.891096,1.10414,0.162034,1.174084,0.270204,-0.986786
shape,-1.234138,-1.775735,-0.233864,-0.28793,0.108015,-0.020816,-0.388559,-0.24698,-0.069888,0.931366,0.788306,1.126803,0.115665,-0.159407,0.59634,-0.254972,0.733491,-0.372351,0.440253,-0.562249,-1.230239,-0.143819,-0.372943,-0.204142,0.048997,0.119251,-0.482665,-0.645965,-0.613596,0.91746,0.103702,1.355197,-0.92103,-0.619072
formal,0.309345,-1.607566,0.637337,-0.264268,-0.013003,0.468402,-0.00071,0.412144,-0.317355,-0.186215,0.913102,-0.363114,1.019999,-0.242025,-0.002799,1.688919,0.978108,-0.309242,0.122298,-0.997255,0.941874,-0.014974,0.5963,1.007179,1.002896,-0.24219,0.060361,-0.459186,0.971715,1.14263,0.970302,0.772777,-0.675842,-0.099119
derive,0.346416,-1.18814,-0.131514,0.127052,-0.165655,0.721108,-0.024756,0.089148,0.125525,1.004868,1.677577,0.173463,1.191722,-0.386577,0.111648,0.326244,0.750457,-0.122484,0.993462,-0.234115,-0.391243,0.060664,0.215708,0.54437,0.285233,0.439973,0.55025,-0.051677,-0.068395,0.847723,1.367798,0.716021,-0.254485,-0.748176
statistical,-0.571379,-1.904555,1.245258,0.72512,-0.386886,0.520068,-0.177754,1.163412,0.347955,0.577229,0.367174,-0.51973,0.220979,-0.731893,0.451369,-0.430078,0.257087,0.335209,-0.068512,0.882311,-0.267408,-0.836486,0.632122,1.463355,0.10914,-1.055758,0.127466,-0.500737,-0.037769,1.300212,0.925473,0.604804,-0.05787,-2.604638
network,-1.285715,-1.128093,1.72036,0.067745,-0.884813,0.956112,0.707386,0.808479,-1.365397,1.242531,-0.061547,0.39098,-0.549318,0.22521,0.664898,-1.46578,0.539037,0.666814,-0.286477,-0.375641,-0.551425,-0.529233,1.017651,0.950607,1.308629,0.218766,0.227068,0.001122,-0.23201,1.605843,0.233739,0.814356,-0.132453,-0.921862
estimate,0.497693,-0.364921,-0.120193,-0.149206,-1.221387,0.387987,0.161336,0.551871,0.140337,1.221395,0.361241,0.357306,1.442466,-0.438473,-0.467753,-0.148079,-0.15312,0.383134,-0.099723,-0.017506,-0.931399,-0.687337,-0.160341,1.38493,0.020182,-0.259338,-0.09341,0.683322,-0.988564,1.257572,0.450463,1.567617,-0.440311,-2.12162
norm,0.227181,0.105991,-0.178564,-0.842392,0.077791,-0.563585,1.112274,-0.189973,0.825449,0.702984,0.753081,-0.863765,2.222752,-0.90786,-0.618724,-0.794328,1.710952,1.403489,0.368959,-1.053868,0.210323,-0.700319,0.868736,-1.000678,0.081145,-0.545734,0.906699,0.540688,-0.095458,0.776523,0.175686,0.28725,-1.219018,-0.304214
polygon,-1.866493,-1.985291,-0.396615,-1.122826,-0.372087,-0.204421,-0.525682,-0.818835,0.09493,0.486858,0.549522,0.828494,0.328733,0.615643,0.324192,0.799743,0.913469,-0.145226,0.698903,-1.251077,-0.835323,0.230475,0.497993,-0.119284,-1.4422,1.384093,0.027319,-0.721692,-0.960425,0.494721,-0.91082,0.397134,-1.786677,-0.064657
permutation,0.796287,-1.590529,0.395055,1.0798,-0.306148,-0.503113,-0.388096,-0.39237,0.384801,0.935757,0.591475,-0.921792,-0.386757,-1.01703,-0.095161,0.771958,-0.080604,-0.079486,0.22323,-0.240562,-0.543342,-0.034071,0.442813,1.460741,0.788719,1.234326,1.065019,0.269778,-0.750915,0.937617,-0.899712,0.693425,-1.394673,1.044901
world,0.110519,-2.111956,0.164399,0.369704,-0.038477,0.171383,0.746279,0.524887,0.390926,0.325115,0.316521,-0.365024,0.182426,-0.081482,0.033205,-0.210557,0.235199,1.82867,-0.131416,0.017291,-0.446952,-0.289675,0.071911,0.40937,-0.110651,-0.797023,-1.262926,-1.059984,0.509555,0.731041,0.990366,0.987048,0.959543,-0.201432
maximum,0.212179,-0.829358,-0.703822,0.196446,-1.252293,-0.167553,0.411266,0.399458,0.728074,0.989198,0.392826,0.594752,1.408808,0.502833,-0.612429,-1.244514,-0.120119,0.04734,-0.666426,0.01879,-1.343065,-0.485666,1.180053,0.707683,0.521487,0.153684,0.334327,0.380676,-0.944875,0.630306,-0.412706,1.337079,-1.32728,-1.294144
equivalence,0.383803,-1.301706,-0.830803,1.178268,0.037091,0.483235,-0.060517,-0.322452,-0.037909,0.64214,0.81773,-0.360213,1.273437,-0.361894,-0.54334,0.20761,0.569453,-0.103701,0.383996,-0.630829,0.139744,-1.245598,0.681288,0.87976,1.119074,1.0945,1.022724,-0.447828,1.204593,0.784206,0.334729,0.304101,-1.401666,0.122629
parallel,-1.027042,-2.253205,-0.159832,-0.266075,0.677948,0.156749,0.130971,0.151124,-0.858377,0.938825,-0.261901,-0.119719,1.329652,-0.127904,-0.608354,-0.632945,1.340293,0.506439,-0.106785,-0.351907,-0.700335,-0.551847,-0.172453,-0.091645,-0.59618,1.449343,-0.838909,0.489084,-0.421688,0.530533,0.088163,0.629711,-0.796772,0.167749
numerical,0.77889,-1.724607,0.603282,-0.823011,0.061483,-0.796755,0.533375,0.439794,-0.192166,0.88578,-0.017266,-0.495865,0.409728,0.288485,0.743884,0.22081,0.815828,-0.048891,-0.91383,1.195721,-0.198305,-0.128729,0.369965,1.162306,-0.428342,-0.389098,0.508724,0.656454,-0.059499,1.062289,1.305372,1.130511,-0.256264,-1.656523
orthogonal,0.0421,-1.521928,0.80255,0.386905,0.751843,-0.190988,-0.739557,-0.055789,-0.394603,0.721439,-0.268491,-0.550887,1.063262,-1.363203,-0.014063,0.236121,1.480049,0.127542,0.055784,-0.638756,-0.836915,-0.322158,-0.294644,-0.587186,-0.599413,0.240563,0.798723,1.080082,-1.35606,0.757953,-0.024411,0.584756,-1.903725,0.382969
isomorphic,0.38679,-0.91424,0.020375,1.076154,0.895557,0.255064,0.763324,-0.543867,-0.20494,0.259003,0.848759,-0.140136,0.574981,0.159589,-0.689787,-0.377471,1.205177,1.071596,0.668602,-1.188675,0.33018,-0.595399,-0.528924,0.346001,0.623415,0.915697,1.407062,0.27118,-0.609641,0.767188,0.603917,0.15244,-2.082571,1.563183
connection,0.253568,-1.395233,-0.48498,0.186601,0.004763,1.595828,0.785207,0.199137,-0.777832,1.44058,0.862498,-0.09822,0.872429,-0.35898,0.365722,-0.795656,1.276383,-0.249247,-0.081798,-1.234325,-0.183224,-0.346109,0.182212,0.054084,0.939129,-0.399392,0.408818,-0.260437,-0.085535,0.623836,1.089812,-0.041021,-0.682165,0.196085
locally,-0.375389,-0.40313,0.40159,0.004963,-0.020083,-0.2051,0.984996,-0.572841,-0.963482,0.623875,0.49833,0.62887,0.918815,-0.068204,-1.929184,0.315033,1.077479,0.747704,0.334464,-0.634608,-0.813082,-0.523004,0.270504,-0.386796,-0.273638,-0.155594,1.496006,-0.611238,0.038448,0.463644,1.344258,0.620448,-2.515548,0.661565
existence,0.488801,-1.117386,-0.088409,0.659997,-0.25526,0.220795,0.644689,0.040207,-0.009897,1.010763,0.12978,0.037518,1.898319,0.565923,0.03456,-0.170082,0.042642,0.474655,-0.623573,-1.284255,0.398517,0.069968,0.46095,0.039721,0.040598,-0.111467,0.107613,-1.039382,0.795242,1.052027,0.719221,0.010113,-1.439889,-0.253836
complexity,0.059178,-1.205531,0.902509,-0.32217,-1.563427,-0.88775,-0.437962,0.577757,-0.544664,0.043892,-0.096723,1.004721,1.365895,0.421831,0.072482,-0.900213,0.942065,0.249884,-0.622107,0.095026,0.593474,0.277747,1.321711,1.872995,0.726545,0.754973,0.327387,-0.646146,0.254398,0.608084,7.2e-05,1.410466,-1.178635,-0.754045
isomorphism,0.676824,-1.27038,-0.266597,1.210747,-0.369252,0.491643,0.914398,-0.292629,-0.881157,0.52447,0.777687,-0.454297,1.017487,-0.510874,-1.028794,-0.060358,0.513067,0.156599,0.638121,-1.214988,0.081914,-0.911322,0.144709,0.592791,0.949785,1.134617,1.071681,0.531451,0.352363,0.555047,1.031925,-0.196408,-1.833292,0.714276
commutative,0.420495,-1.535537,1.014602,0.412771,1.52392,0.539855,1.253063,0.13601,0.237702,-1.642778,1.118626,-0.255507,1.57378,-0.834151,-0.078424,0.369712,2.104483,0.576386,0.171393,-0.344587,0.273781,0.354208,-0.38719,0.095482,0.40075,0.229535,1.636237,-0.357343,0.677495,-0.076966,0.844641,0.360073,-1.583106,0.384517
quotient,1.400623,-0.59585,-0.651327,0.700639,0.882275,0.168754,0.631605,-0.690131,0.177995,-0.105594,0.710086,0.315986,1.005302,-0.099317,-0.327838,0.267792,1.314283,0.589209,0.826101,-0.393776,-0.580337,-0.833684,-0.098567,0.565856,0.427017,0.563244,1.194954,0.304632,0.138246,0.639828,0.665473,1.297974,-1.662214,0.906363
half,0.206586,-1.450964,-1.043064,-0.281041,0.112302,0.021396,0.316231,-1.118558,0.245786,0.652892,0.749672,0.151092,0.893337,-0.019916,-0.272812,0.379099,0.682139,0.369012,0.421521,-0.852602,-1.854867,0.086058,0.117496,0.31135,-0.718209,0.074971,-0.467727,-0.022575,-0.753951,0.520577,-0.594558,1.236319,-0.508694,0.089813
decomposition,1.055876,-1.353327,0.979449,0.419702,0.238408,-0.02246,0.566606,0.731397,-0.614885,0.759474,0.91974,0.821071,0.49142,-0.218966,0.536554,-0.16563,0.726243,-0.141513,0.168818,-0.67687,-0.222427,0.502914,0.749962,-0.966092,-0.245106,0.642213,1.750503,0.716639,-1.224419,0.786153,0.250194,0.875191,-1.528238,-0.25933
density,-0.32747,-0.101032,-0.034862,0.441643,-0.199433,0.242321,-0.489757,0.466898,0.610273,0.963235,0.616941,0.984602,0.941009,-0.764686,-0.284346,-0.106189,0.037146,-0.008333,-0.041343,-1.298308,-1.600828,-0.249357,1.192443,0.078381,-0.271496,-1.31153,1.131997,0.079679,-0.405112,0.948636,0.486312,1.493967,-0.649901,-1.715581
affine,-0.055156,-1.649281,-0.070881,0.242995,1.309494,0.911478,-0.273578,0.083831,-0.81819,0.652437,0.052357,-0.214358,0.931596,-0.408496,-0.455601,0.208394,1.223789,-0.969867,0.368507,-0.651606,0.554275,-1.174793,-0.783286,-0.001084,-0.225805,0.234711,1.096164,0.609243,0.04488,1.130609,0.332002,0.592251,-2.10351,1.457148
arbitrary,-0.423613,-1.263171,0.239496,-0.019865,0.261063,-0.239364,0.411498,0.518293,-0.51018,0.870436,0.280146,0.139683,1.671527,0.096872,-0.58063,0.325307,0.836808,-0.354883,-0.100391,-0.881037,-0.471658,0.173832,0.399049,0.641809,0.263096,0.192781,0.821421,0.299379,-0.426544,1.096993,-0.066296,0.99027,-1.497675,0.370346
morphism,-0.39159,-1.185182,-0.537321,0.727412,0.878019,0.785854,1.426609,-0.04828,-0.474571,-0.222284,1.09957,-0.333441,0.522989,-0.37398,-1.130966,0.406773,0.335233,-0.674587,0.510801,-0.985829,-0.908809,-1.475974,-0.190129,0.358639,1.720009,1.007773,0.88414,0.531228,1.14692,-0.13037,0.98361,0.337868,-1.709562,0.536563
scale,-0.643363,-0.911585,0.264055,-0.031643,0.3086,-0.563855,-0.568986,-0.811955,-0.329267,0.697854,0.047745,0.383966,1.32771,-0.893452,0.438251,-0.462189,1.108856,0.005347,0.234778,0.172964,-1.438632,-0.688513,-0.038323,1.27941,-0.024924,-0.109564,-0.205659,0.352833,-0.296274,0.941009,-0.13725,1.447992,-0.310942,-0.667587
suppose,0.152148,-0.887922,-0.020463,0.237155,0.002739,0.447044,0.443024,0.391313,0.30415,0.641997,-0.391635,0.50294,1.800442,-0.319718,-0.936132,0.638673,0.101141,0.544788,-0.11197,-1.192276,-0.620077,-0.401596,-0.077514,0.502361,0.704028,0.089421,0.33363,0.018773,-0.352482,0.589722,0.855351,0.895553,-1.220945,-0.064585
increase,0.102673,-0.33751,-0.058765,-0.58966,-0.43353,-0.665412,1.036982,0.092191,-0.227727,0.365023,0.246458,0.101097,1.661391,0.072299,-0.200301,0.051429,0.523998,1.206485,-0.65175,-0.705957,-1.623886,-0.562759,0.083749,1.135074,0.291191,-0.200944,-0.186334,-0.599102,-0.409942,0.938085,-1.252463,1.457889,-0.256844,-1.129133
projection,-0.517938,-1.514732,-0.027785,-0.124505,0.769537,-0.286012,0.225549,-0.107905,-0.590594,0.893016,0.116122,-0.936359,0.638586,-1.11458,-0.069939,-0.421071,0.261059,0.067446,1.191806,-1.311969,-0.961506,-1.241022,-0.494605,-0.969896,-0.20751,1.237214,-0.050701,1.029864,-0.291165,0.694742,0.797042,0.663094,-1.104735,-0.268392
partition,-0.256258,-0.98153,-0.036419,0.36441,-0.600087,-0.296016,0.116241,0.535866,1.078435,0.468529,0.315636,0.789494,0.443315,0.332745,-0.03674,0.233046,0.205786,-0.077592,0.521983,-0.353451,-0.584304,-0.058738,0.963476,-0.010289,0.800939,0.595679,0.24131,0.059385,-1.000573,1.118373,-0.953243,1.083667,-2.063496,0.524872
exponential,-0.087581,-0.460936,0.371488,-0.212397,-0.841679,0.266661,-0.150722,-1.128703,-0.405643,0.45422,0.465909,0.965113,1.360093,-0.372555,0.541611,0.741295,1.492038,-0.026126,-0.306853,-0.617391,-1.452301,0.422392,0.39766,0.93081,0.490918,-0.140368,1.000693,0.188172,0.52646,0.79677,0.366014,1.063069,-0.967968,-0.820326
range,-0.461293,-0.737142,-0.168294,0.31727,0.384191,-0.597142,0.565083,0.304656,-0.236647,0.405022,0.13263,-0.266738,0.763316,0.07578,-0.567889,-0.039259,0.67234,0.268994,0.073439,-0.561813,-0.388064,-0.49027,0.476383,1.486974,-0.180706,-0.989693,-0.237776,0.480339,-0.115361,1.161512,-0.094679,2.068979,-0.789393,-1.252484
subspace,0.571615,-0.416529,0.169154,0.176146,0.987552,-0.179698,0.112217,0.684451,-0.105865,0.770918,-0.175859,-0.704048,1.468571,-0.264952,-1.520713,-0.539403,1.196239,0.305078,0.259187,-0.318894,-0.318274,-0.751834,0.021457,-0.681138,0.141081,-0.105899,0.719163,0.103346,-0.880973,0.387954,0.744224,1.440902,-2.507819,1.328102
support,-0.58613,-1.866992,0.702583,-0.222124,-0.491587,-0.535016,1.124213,0.563107,-1.078011,-0.135924,-0.384046,0.320241,0.317784,-0.395539,-0.795552,0.698502,0.144697,0.687583,0.308125,-1.063525,-0.072935,-0.435612,-0.316693,0.26459,0.304952,-0.756404,-0.001328,0.167756,0.054243,0.994325,0.322814,0.816116,-0.446337,-0.670677
diagonal,0.412666,-1.993876,-0.213938,0.514015,1.145695,0.288628,0.801919,-0.053491,0.461863,0.296191,0.564302,0.112853,1.340663,-0.923107,-0.036562,0.205185,0.457246,0.684299,0.043298,-1.228796,-1.242312,0.4924,0.499714,-0.942978,-0.2786,0.913048,-0.831285,0.789599,-1.590689,0.127782,-0.964106,0.424624,-1.070124,0.28322
computation,0.925898,-1.738121,0.790595,-0.524315,-0.24577,-0.528179,0.207789,0.685296,-0.790638,0.140328,0.154512,0.228536,0.940129,0.100752,0.491038,0.480221,1.024126,0.287991,-0.776121,0.096476,0.270184,-0.181504,0.855123,1.713624,-0.033605,0.692296,0.248208,0.164962,0.258766,0.905967,0.347577,1.357917,-0.217139,-0.243569
curvature,0.215335,-0.827149,-1.403957,-0.872154,0.765761,1.797221,0.416609,-0.597008,-0.142058,1.56777,0.26229,0.429089,1.697115,-0.454861,-0.333795,-0.979469,1.129504,-0.539145,-1.000276,-1.694415,-0.849549,-0.26512,0.129936,-0.600865,-0.901192,-1.369821,0.428033,-0.282339,-0.636227,0.262892,0.667625,0.138935,-0.963577,-0.44886
flow,0.186103,-0.964615,-0.385029,-0.430709,0.14534,0.387741,0.307012,0.303846,-0.728694,2.0945,-0.442447,1.013305,0.768053,0.92522,0.047029,-1.375998,0.422414,0.289804,-1.554346,-0.527232,-1.417682,-0.270732,0.705952,-0.359381,0.325108,-0.272584,0.503367,-0.411495,0.302299,0.766515,1.01198,1.23618,0.291059,-0.134477
analytic,-0.005529,-1.108059,0.340322,-1.325664,-0.125495,0.806807,0.950537,0.085124,-0.389408,0.133615,0.10006,-0.253164,0.487864,0.522318,0.492079,1.351108,1.109274,-0.079129,-0.239649,-0.976769,-0.108593,-0.902516,0.125572,0.328519,0.216458,-0.878511,-0.014553,-0.04067,0.666438,1.243077,1.315663,0.694851,-1.674269,-0.498182
chain,-0.503948,-0.90806,0.823272,0.238245,0.382019,0.52653,1.050355,-0.211514,0.387512,0.578504,0.013698,0.458988,1.032077,0.61205,0.030792,0.801751,0.569639,0.234354,0.278315,0.498203,-1.384932,0.115695,0.53929,-0.29116,0.712454,1.117847,0.818024,-0.535599,0.414164,0.874957,0.124582,0.998626,-0.919253,0.320951
cohomology,2.302375,-0.500267,-0.230811,-0.142105,-0.162485,1.861101,1.309855,-0.684249,-0.605485,-0.191047,1.469517,-0.112503,0.696046,-0.014052,-0.633585,-0.218906,0.804467,-1.00801,0.92009,-0.308034,0.195861,-0.073174,-0.615986,0.867251,0.523428,-0.063952,1.77474,0.224677,0.637881,0.776292,0.897752,1.51702,-1.22515,0.174156
trivial,1.083514,-0.936968,-0.772989,1.355342,0.63936,0.490293,0.992029,-0.458716,-0.21941,0.655686,0.826776,0.364815,0.629445,-0.079705,-0.915671,0.318831,0.621224,0.2159,-0.200483,-1.238338,-0.076714,0.020879,0.418018,0.551238,0.206283,0.29892,0.849731,-0.011472,-0.190746,0.719406,0.247663,0.642332,-2.089073,0.484509
converge,0.281322,1.015194,0.696644,-1.059214,-0.425416,-0.195002,0.900863,-0.49997,0.155237,0.809904,-0.152695,-0.214631,2.064477,0.85567,-0.570026,2.015426,0.267217,1.295232,-0.312508,-1.085347,-1.814099,-0.054731,0.008075,0.526669,-0.253328,-0.037826,0.266895,0.106158,-0.812454,0.595562,0.630858,1.063582,-1.508235,-0.874215
lemma,0.95425,-1.318782,0.213268,0.496782,-0.806419,1.158538,0.91917,0.18827,0.916211,0.286698,0.015055,0.866816,1.499302,0.03283,-0.697163,1.043547,-0.405796,-0.549406,0.677827,-0.279661,0.170786,1.136771,1.139975,-0.763957,-0.551986,1.047363,0.864057,-0.468177,0.904561,0.128107,0.832328,0.57623,-1.203849,-0.470444
origin,-0.576645,-1.655784,-0.085225,-0.231121,1.137976,-0.479402,0.240899,-0.666184,-0.240782,1.000635,-0.328719,-1.202931,1.345109,0.424169,-0.473897,0.229776,0.121122,-0.189585,0.558406,-0.486666,-1.337474,-0.712735,-0.508139,0.466741,-0.649012,-0.317583,-0.472063,-0.258881,-0.160809,0.563787,0.622805,0.92702,-0.82704,0.717354
convergence,0.930234,0.164859,0.103532,-0.954862,-0.720315,-0.663827,0.585494,-0.488294,-0.011084,0.842659,-0.421705,-0.532546,1.668357,-0.217254,-0.759939,1.399881,0.419223,0.60024,0.1536,-0.580894,-1.234836,-0.447689,0.735956,0.193918,-0.692836,0.040998,0.35698,-0.812005,0.18615,0.741644,1.056642,1.077285,-1.594657,-1.679799
division,0.356137,-1.666787,0.070233,0.376713,0.377656,-0.746489,1.691674,-0.007741,-0.164739,-0.889077,0.056998,0.308946,1.092107,-0.123606,0.109925,0.711825,1.723889,1.043318,-0.742701,1.177886,-0.571043,0.169515,-0.174809,0.946434,-0.044499,0.419104,-0.007525,0.944712,0.102155,0.698021,-0.137336,0.143234,-0.584413,0.170256
union,-1.054796,-1.618683,0.049712,0.831886,0.099538,-0.714885,1.441325,0.84733,0.707406,0.028935,0.206897,-1.473263,0.537734,0.686247,-1.292373,0.15802,0.217725,0.69121,1.249958,-0.272913,-0.015158,-0.354456,0.908479,0.301244,0.163234,-0.789176,0.580352,-0.215851,-0.009958,0.849893,-0.121998,0.533079,-1.229644,1.016331
empty,-0.980619,-1.298318,0.239112,0.298967,0.784096,-0.711509,1.291462,1.066148,0.746405,0.44145,1.3907,-0.304422,0.873613,0.906238,-1.783851,0.839372,-0.520877,0.517735,0.030797,-1.033789,-0.274693,0.345919,0.71472,-0.471331,0.285735,-0.089686,0.1093,-0.35781,0.004781,0.785885,-0.219859,1.429072,-1.304472,0.940921
computational,-0.014998,-2.021829,0.629525,-0.290292,-0.813499,-1.035313,-0.021798,0.493389,-0.756367,0.234057,-0.353381,-0.20432,-0.036553,0.862359,0.695516,-1.130263,1.551703,0.325675,-0.873089,0.757905,0.21555,0.137216,0.805287,1.549387,0.613741,0.009301,0.118975,-0.948097,0.417649,1.105132,0.864525,1.213783,-0.765145,-1.461661
functor,0.378963,-0.986967,-0.095672,0.66129,0.797671,0.703549,1.400343,0.035691,-0.579404,0.210647,2.0478,-0.431536,0.672816,-0.986324,-0.889176,-0.073297,-0.169301,-1.092927,1.198197,-1.029163,-0.834164,-0.387971,0.117268,0.576854,1.889503,1.259656,1.72067,-0.494178,1.068986,-0.330827,1.07305,0.612559,-0.580333,-0.190652
fraction,0.7425,-0.48761,-0.559036,-0.622653,0.110258,-0.593908,0.200904,-0.52623,1.073936,0.16295,1.390784,0.300526,0.839716,0.843139,1.086735,1.162956,0.82154,0.137586,-0.072631,-0.09912,-0.881782,0.319496,0.876727,1.631572,-0.057812,-0.187615,-0.386317,0.822717,-0.611894,0.602592,0.159213,1.003252,-0.648178,0.202953
source,-0.43976,-2.031766,0.945099,-0.39506,0.519965,0.083915,0.780504,0.667415,-0.158176,0.60286,0.351084,0.572203,0.546939,-0.586705,-0.123099,-0.970252,-0.706954,-0.082925,-0.360365,-0.435973,-0.522844,-0.200759,0.851619,0.768289,-0.132373,-0.216935,-0.588095,-0.060784,0.154225,0.396799,1.176355,1.121624,0.210979,-0.345968
eigenvalue,1.828495,-0.210681,0.569408,-0.021527,0.729015,-0.445026,0.076532,0.207596,0.430873,1.381515,0.31265,-0.891812,1.688034,0.044996,1.077825,0.052857,0.204109,0.068118,-1.128043,-1.096782,-0.937122,0.470106,0.286454,-0.347138,-0.038041,-0.519867,0.525112,0.836873,-2.135936,0.993295,-0.127562,0.579451,-1.736646,-0.468424
translation,0.776689,-2.077587,0.8041,-0.444357,1.222371,0.151986,-0.683635,-0.618479,0.023989,0.294002,0.402949,-0.60532,1.262138,-1.264156,-0.185501,-0.067466,0.446332,0.512752,-0.081755,-0.315613,-0.463336,-1.426366,0.793172,-0.054495,-0.15639,0.040377,-0.822031,-0.409866,0.153768,0.156819,1.269363,0.334273,-0.154513,1.414718
hypothesis,-0.053967,-0.557721,0.412178,1.205193,-0.53916,1.342543,0.317801,0.046872,0.817621,0.604641,1.084082,0.591847,1.772332,0.081495,-0.646537,0.648704,-1.037781,0.439242,-0.19766,-0.768546,0.732434,-0.397945,-0.221624,0.722028,-0.270982,-0.552005,-0.125739,-0.618234,0.445859,1.031783,0.406366,0.515002,-0.771942,-2.182288
scalar,0.19633,-0.625205,-0.493569,0.078286,1.638851,-0.550506,0.810852,0.347686,-0.193628,1.297587,-0.258137,0.155109,2.254188,-1.627769,-0.193712,-0.278873,1.5306,0.068704,-0.697958,-0.939372,-0.718053,0.362925,-0.13589,-0.123484,0.494133,-1.075365,1.124099,0.725229,-0.382672,0.640264,0.309862,0.719494,-0.196367,0.366955
coxeter,0.367248,-1.960507,0.442618,-0.278446,0.217032,0.731157,-1.304339,0.405126,1.486329,-0.041835,1.210143,-0.908744,-1.656173,-0.914897,1.374764,0.573363,0.083452,0.373944,2.009681,-0.827273,0.159716,-1.294975,-0.732964,-0.433417,0.084491,1.264652,1.300575,-0.95935,-1.174454,0.626511,-0.607133,1.456964,-0.951511,0.53404
