word,1,2,3,4,5,6,7,8,9,10,11,12,13,14,15,16,17,18,19,20,21,22,23,24,25,26,27,28,29,30,31,32,33,34,35,36,37,38,39,40,41,42,43,44,45,46,47,48,49,50,51,52,53,54,55,56,57,58,59,60,61,62,63,64,65,66,67,68,69,70,71,72,73,74,75,76,77,78,79,80,81,82,83,84,85,86,87,88,89,90,91,92,93,94,95,96,97,98,99,100,101,102,103,104,105,106,107,108,109,110,111,112,113,114,115,116,117,118,119,120,121,122,123,124,125,126,127,128,129,130,131,132,133,134,135,136,137,138,139,140,141,142,143,144,145,146,147,148,149,150
number,0.202427,-0.078045,0.027228,-0.146721,-0.266971,-0.541449,-0.186747,0.444876,-0.555846,-0.819665,-0.286904,-0.193394,-0.173906,-0.091558,-0.245789,-0.264708,0.20561,-0.523887,0.308078,0.54674,-0.00038,0.43321,0.79206,0.027803,0.240041,-0.011092,0.371503,0.083318,-0.589698,0.066809,0.450861,0.052831,0.10861,0.034019,0.069665,-0.48375,0.492253,-0.117836,-0.003991,-0.185264,-0.390725,0.098376,-0.226517,-0.041115,0.157574,0.133446,-0.062277,-0.607693,0.323313,0.454805,0.172654,-0.478398,-0.095211,0.556923,0.004047,0.031458,0.287159,-0.540564,-0.366303,0.347078,-0.380925,-0.365491,-0.287089,0.125652,-0.413804,0.191682,0.456745,-0.008659,1.118246,0.004868,0.221908,0.231821,-0.538758,-0.196542,0.527005,0.079967,0.338766,-0.290478,-0.459996,0.222763,-0.00211,1.114572,0.405143,-0.274327,-0.035756,0.149613,-0.360462,0.001742,-0.49637,-0.168404,-0.171304,0.070213,-0.200705,0.081903,-0.328771,-0.104316,0.156207,0.069461,0.173937,0.350329,-0.022665,-0.200093,-0.004027,0.158473,-0.205224,0.497964,0.091557,-0.090969,0.284891,0.284186,0.220856,-0.075178,0.152266,-0.456138,-0.049681,-0.574568,0.293391,-0.554953,-0.219335,-0.360586,-0.057409,0.482966,-0.471629,0.026645,-0.225248,0.029643,-0.41822,0.295439,-0.079724,-0.326599,0.180053,0.565151,-0.212451,-0.004992,-0.297015,-0.062902,-0.197204,-0.441968,0.074444,-0.334059,-0.499819,0.374297,0.341242,-0.761442,0.363431,-0.036101,0.369534,0.714775,-0.327959,-0.75447
function,0.465713,0.395963,0.176272,-0.740294,-0.441957,0.385867,0.811701,-0.349494,0.274801,-0.224818,-0.797486,-0.311047,0.515778,-0.368938,-0.808793,-0.155911,-0.279797,0.445354,-0.186219,-0.523727,-0.04192,0.548249,-0.405463,0.11984,0.398705,-0.221103,0.038662,-0.337774,-1.424864,0.447466,0.572756,0.996986,-0.140957,-0.369359,-0.134034,-0.031341,0.217302,-0.491348,0.542398,-0.157878,-0.430096,-0.165011,-0.068743,0.037493,-0.407546,0.263968,1.079547,-0.558513,0.376031,0.237141,-0.677313,-0.243964,-0.647679,0.499473,0.232973,0.090872,0.062235,-0.075722,-0.180947,0.846743,-0.240518,-0.329779,-0.129021,0.565012,-1.110551,0.808883,0.65926,-0.175769,0.326418,-0.004206,-0.486526,-0.317025,-0.639538,-0.008386,-0.169948,0.898288,0.62712,-0.688591,-0.046377,0.453807,-0.931195,0.195209,-0.040852,-0.802436,-0.863849,0.100774,-0.175426,-0.53472,-0.085902,0.716591,-0.310116,0.664918,0.60013,-0.447437,0.038902,0.034133,-0.351794,-0.277142,-0.654676,-0.541773,-0.258456,0.372099,0.119479,-0.140729,0.587921,0.157399,-0.104287,-0.860495,0.563211,-0.061563,-0.270531,-0.232613,0.034521,-0.740196,-0.107657,-0.26927,-0.424428,-0.557142,0.159969,-0.180632,-0.556461,0.168931,0.046868,0.253716,-0.167362,0.382223,-0.266011,0.202502,-0.397521,0.282299,0.053346,-0.187789,-0.903416,0.066399,-0.237096,-0.109215,0.482361,-0.703194,0.157495,-0.241925,-0.589361,-0.124786,0.436986,-1.343597,0.352141,0.01837,0.63016,0.44166,-0.810902,-0.149986
one,0.297859,0.000162,-0.22134,0.080988,0.009299,-0.003635,0.067673,0.254837,0.00181,-0.337983,-0.218615,-0.237302,0.054206,-0.054661,0.066125,0.016689,-0.158626,-0.401005,0.078722,-0.156037,-0.176099,0.268794,0.202991,-0.134522,0.024229,0.170018,0.796821,-0.233323,-0.23126,0.023812,0.350547,0.051758,-0.561698,-0.188468,0.057854,-0.415122,0.019857,0.018244,-0.140756,-0.216872,-0.031131,0.050863,-0.013792,-0.323473,0.146592,0.351168,0.007546,-0.214098,0.222029,-0.049266,-0.174016,-0.388299,0.59711,0.602664,0.174893,0.019039,0.2135,-0.150645,-0.151234,0.016246,-0.363342,-0.029147,-0.263934,0.112017,-0.169644,0.582669,-0.205234,-0.187385,0.494138,0.326664,0.515783,0.26714,-0.237546,-0.283305,0.226112,-0.012543,-0.164907,-0.138839,-0.166353,0.105367,-0.106937,0.280984,0.186431,-0.011259,-0.041948,0.186274,0.075832,-0.133951,-0.282152,-0.099226,0.069867,0.042849,-0.101558,0.077422,-0.214853,-0.037759,0.018835,0.014038,0.09692,0.460802,0.174767,-0.112136,-0.181893,0.352645,0.079793,0.276904,-0.210785,-0.044806,0.397671,-0.427399,-0.169213,0.023724,-0.255769,-0.190993,0.100419,-0.038576,0.158499,-0.072981,0.183575,0.00068,0.034783,0.430992,-0.013774,0.205158,-0.440411,-0.085435,0.052574,-0.220084,-0.04339,0.064877,0.050042,0.258238,0.064533,0.262403,-0.246456,0.049305,-0.249132,-0.478194,0.112367,-0.130177,-0.25573,0.176483,0.144031,-0.273029,0.334507,0.057266,0.392799,0.400778,-0.121082,-0.350887
set,0.312738,0.314245,-0.032553,0.168164,0.252491,-0.376077,0.220659,-0.102154,-0.291528,-0.396005,-0.369808,-0.503559,0.044926,-0.263076,-0.436391,0.442863,0.141078,-0.290338,-0.809466,-0.246772,-0.096931,0.362579,0.091376,0.07522,0.017413,-0.343419,0.496412,-0.046129,-0.255867,-0.138186,0.25938,-0.094684,-0.352317,-0.218205,-0.127623,0.295281,0.207766,-0.257881,0.089159,-0.41077,-0.247708,0.199185,-0.098446,0.161929,0.563721,0.131771,0.201336,-0.089384,0.599354,0.23836,-0.422921,-0.149166,0.733111,0.40196,0.262755,0.550179,0.259318,-0.145854,-0.158961,0.535744,-0.168209,0.38154,-0.102408,0.06017,-0.104655,0.177894,-0.307456,-0.128902,0.823805,-0.462422,0.200188,0.543479,-0.049993,-0.177113,-0.087992,-0.103057,-0.211993,-0.108511,0.01976,0.215182,-0.171481,0.422679,0.101978,-0.477336,-0.342598,0.501565,0.142605,-0.207038,-0.52043,0.199135,0.202813,0.292704,0.344656,0.178864,-0.203759,0.374734,-0.258975,0.083738,-0.206139,0.046512,0.098226,-0.247339,-0.32585,0.033247,-0.015405,0.063427,0.088891,-0.118136,-0.257179,-0.125868,0.070891,-0.194034,-0.267428,-0.413447,0.609346,-0.208238,0.076128,-0.094545,0.517288,-0.691027,0.141591,0.533869,-0.090142,-0.119872,-0.181571,0.274324,-0.272199,-0.102979,0.128757,-0.072118,0.173227,0.016831,-0.376631,0.472905,-0.324181,0.282844,-0.192134,-0.484239,-0.106452,-0.56584,-0.10421,0.492827,0.077532,-0.926584,-0.479881,-0.02529,0.432282,0.369007,-0.009738,-0.041711
group,0.798522,0.101196,-0.316991,-0.390019,0.224739,0.290847,-0.345352,0.511386,-0.650618,-0.678249,-0.025036,-0.723882,-0.080659,-0.076352,-0.167125,-0.172592,0.349315,-0.535668,0.209107,-0.875989,0.63109,0.026897,0.223378,0.144318,-0.015039,0.243815,-0.330782,0.153876,-0.446651,-0.266342,0.089245,-0.190524,0.195006,-0.273599,0.422344,-0.046536,0.225351,0.306761,0.028689,0.032375,-0.269575,0.269369,-0.723087,0.110476,0.133404,0.313472,-0.009191,0.025099,-0.433327,0.504219,0.238653,-0.54449,-0.626257,0.902919,0.357737,-0.288071,0.32482,-0.015815,-0.071899,-0.09297,-0.315301,-0.271301,0.002723,-0.174226,-0.372645,0.582313,-0.080913,0.06198,0.246116,-0.349837,-0.044634,-0.340542,0.089022,-0.188658,0.095912,0.014935,-0.287508,-0.164449,0.011236,0.199808,0.234256,0.745967,0.280828,-0.249601,-0.154586,0.410491,-0.3658,-0.443641,0.295702,-0.286604,0.275337,-0.136664,-0.480807,-0.604618,0.107195,-0.002238,-0.545721,-0.217526,0.102272,0.129205,0.270117,-0.690905,-0.038802,0.375748,0.178911,0.402643,-0.273509,-0.44548,0.043658,-0.500838,-0.004273,0.021703,-0.926173,-0.024521,-0.06506,-0.323478,0.63103,-0.626658,0.37267,-0.748628,-0.078158,0.033894,-0.214141,-0.011201,-0.636768,-0.346253,0.009502,0.124744,0.589325,0.074514,-0.23877,0.029504,-0.629411,-0.012006,-0.873095,0.245325,-0.080513,-0.754517,0.032827,-0.647142,-0.344726,0.439734,0.389788,0.344631,0.537732,0.002458,0.205042,-0.216047,-0.78096,-0.297829
space,0.681205,0.628742,-0.193745,0.331179,0.003802,0.462438,-0.010729,-0.260908,-0.075178,-0.704806,0.006951,-0.596677,-0.068452,-0.384483,-0.63181,-0.165859,-0.246748,-0.209372,0.400228,-0.144787,-0.18615,-0.067786,-0.379302,-0.1483,-0.166916,-0.054729,0.196224,-0.487013,-0.743725,-0.183393,-0.016897,0.186587,-0.147127,-0.03569,-0.049682,0.845691,-0.16935,-0.456027,0.225757,0.252732,-0.179738,0.331446,-0.28082,0.193583,0.156673,-0.068453,0.746206,0.402708,-0.378232,0.555936,-0.086575,-0.586086,0.192884,0.296464,0.584605,0.852339,0.001989,0.409328,0.435411,0.70968,-1.115092,0.072293,-0.64416,-0.463454,-0.772521,-0.148095,0.182432,0.163274,0.169147,-0.014397,-0.407741,-0.516085,0.263905,0.419973,0.121085,-0.052067,0.748219,-0.148963,0.268031,0.640058,-0.241907,0.363106,-0.331621,-0.691188,0.21007,0.653906,-0.147595,-0.357647,0.300394,0.144621,0.340968,0.229012,-0.42238,0.572542,0.269454,0.469764,-0.248761,-0.166216,-0.525269,-0.254041,-0.230761,-0.661277,-0.605588,0.072553,0.858308,0.244836,0.123954,0.339366,-0.008829,-0.683428,-0.238552,-0.483923,-0.488109,-0.924901,-0.286792,-0.138036,0.070908,0.068003,0.17181,-1.109137,0.271216,0.040345,-0.019825,-0.232236,-1.021495,0.731156,0.086867,-0.10247,-0.293605,-0.676034,-0.109881,-0.118405,-0.123608,0.898688,-0.072733,0.289023,-0.231604,-0.162613,0.25526,0.227107,-0.506371,0.20235,0.829094,-1.396217,0.097505,-0.090578,0.618877,0.765948,-0.575279,0.091155
two,0.158775,0.120685,-0.330085,0.307103,0.143313,0.075207,-0.04826,0.457241,-0.149238,-0.229927,-0.17999,-0.474366,-0.208327,-0.288342,0.233903,0.228882,-0.141378,-0.504431,0.062239,-0.025859,-0.258245,0.390538,0.241496,-0.33955,0.053967,0.184656,0.77688,-0.412724,-0.391984,0.021213,0.358182,-0.040634,-0.599059,-0.303656,0.098667,-0.55745,-0.117871,0.010044,-0.038717,-0.086533,-0.03201,0.267709,-0.119835,-0.212942,0.190165,0.425348,-0.150368,-0.674379,0.155757,-0.074285,-0.114721,-0.039812,0.599369,0.758062,0.293642,0.059696,0.50482,-0.226931,-0.151932,-0.036953,-0.514451,0.034985,-0.277664,0.027137,-0.133386,0.480629,-0.236434,-0.324486,0.672282,0.247731,0.358736,0.442027,-0.392206,-0.305324,0.042421,-0.117378,-0.29229,0.117656,-0.453324,0.28701,-0.276734,0.274874,0.196015,-0.134169,-0.221152,0.132404,0.121756,-0.217028,-0.428387,0.015145,0.419388,-0.056197,-0.111969,0.390615,-0.399701,0.007414,-0.313531,0.281322,0.030089,0.188697,0.204119,-0.084458,-0.103064,0.129293,0.255871,0.44727,-0.037893,0.000843,0.517685,-0.325901,-0.131409,0.003134,-0.580397,0.016679,0.071221,0.057374,0.180393,-0.059154,0.498325,-0.11255,0.268552,0.487261,0.021655,-0.083697,-0.553543,0.051468,0.160725,-0.061243,0.183401,-0.080824,0.089872,0.231855,-0.057673,0.32029,-0.423353,-0.00876,-0.479093,-0.113745,0.050959,0.047242,-0.067075,0.281533,0.082029,-0.319363,0.299201,0.006123,0.099539,0.268976,-0.066474,-0.290122
theory,0.272108,1.263147,0.116677,-0.561993,0.107202,1.354992,-0.306746,-0.890175,-0.075143,-1.24491,-0.676079,-0.471788,0.157807,0.365099,-0.469441,0.349923,-0.461388,0.094937,-0.120097,-0.684603,0.012043,0.112652,0.000979,-0.163958,-0.342996,-0.267606,0.028076,0.691651,-0.063781,0.248748,0.356103,0.742154,-0.520308,-0.210239,-0.872565,-0.327643,1.333024,-0.26406,0.202506,-0.123962,0.128005,-0.428295,-0.264502,-0.064486,0.096692,-0.227428,1.034947,-0.532751,0.277271,0.716754,0.18789,-0.381457,-1.005952,-0.322768,0.060718,-0.169967,0.245415,-0.352447,1.011271,1.162124,-0.232739,-0.418002,-0.194873,0.690615,-0.223056,-0.142476,0.202073,0.489355,-0.282456,0.025376,0.175661,-0.003003,-0.135549,-0.005832,-0.227509,0.544358,-0.412399,-0.000598,-0.385463,-0.291491,-0.692364,1.131479,-0.168835,0.147513,0.211355,0.394932,-0.222269,-0.434402,-0.081688,-0.30265,0.21532,-0.261148,-0.782901,-0.246001,0.834631,0.15531,-0.052515,-0.269803,0.193169,-0.265811,-0.193077,0.458152,-0.717807,0.03496,0.436768,0.443604,-0.018943,-0.316349,-0.15319,-1.125116,-0.649883,-0.600207,0.443262,-0.24935,0.00234,0.107165,-0.573713,-0.261032,0.609321,-0.427263,-0.405739,0.070414,0.087673,0.24366,0.719864,0.930749,-0.421712,-0.147131,-0.012179,0.156144,0.087839,0.211341,-0.928869,0.419912,-0.767431,0.830077,-0.036068,-0.660957,0.292791,0.301312,-0.327532,0.307466,0.127515,0.267677,-0.289943,0.161823,0.137461,0.548687,-0.136088,-0.030323
point,0.277354,-0.125426,-0.202158,0.385606,0.178423,0.054389,-0.017785,-0.002686,0.228126,-0.212201,0.159753,-0.091851,0.279183,0.42602,0.05536,0.176269,-0.174562,-0.214134,0.024806,0.397958,-0.254323,0.306602,0.48198,-0.105401,-0.412164,0.052566,0.115541,0.432678,-0.500917,-0.500416,0.558957,0.790393,-0.096749,-0.321245,-0.163199,-0.422167,0.157886,0.091093,0.150508,0.037089,-0.198802,0.081996,-0.225619,-0.467067,0.216975,0.607395,-0.04398,-0.263977,-0.201191,-0.644853,-0.36006,0.323911,0.759809,0.40561,0.641388,0.05953,0.289725,0.261615,-0.446408,0.515464,-0.781724,0.448642,-0.277028,0.161534,0.121139,0.4675,-0.14579,-0.086829,0.234159,-0.224307,0.143456,0.169966,-0.178844,0.072038,0.198105,-0.023051,-0.018878,0.500724,-0.170157,-0.332887,-0.718569,1.061754,0.150884,-0.019807,0.167716,-0.144036,0.078068,-0.040784,-0.551909,-0.316959,-0.187904,0.090885,0.176247,0.830396,-0.26849,0.033583,0.01175,-0.039939,0.013726,-0.031169,-0.02739,0.115315,0.131042,0.193003,-0.128701,0.437432,0.046515,0.092553,-0.120481,-0.327744,-0.130707,-0.060508,-0.505222,-0.35888,0.061983,0.023911,0.129204,-0.186387,0.092464,-0.394044,-0.273129,0.723959,0.139507,0.407179,0.062735,0.610452,-0.001372,0.166941,-0.081358,0.082911,0.351999,0.209958,0.128497,0.090225,-0.32537,0.005504,-0.325727,-0.363683,0.240558,-0.440328,0.539969,0.437534,0.291654,0.275873,0.021865,-0.089415,0.477468,0.442431,-1.206524,-0.399144
theorem,0.470795,0.268881,1.205963,0.260482,-0.207712,0.483589,-0.567137,-0.526419,-0.5543,-0.943953,-0.337093,0.42254,0.016482,0.515461,-0.384657,-0.906402,-1.231478,0.205926,0.263916,-0.725031,0.432569,1.266358,-0.321495,0.083423,-0.4072,-0.609218,-0.076754,0.678939,0.689939,-0.05487,1.400256,1.541219,-1.180816,-0.00358,-0.290809,0.121921,0.928085,-0.645489,0.12679,0.362428,-0.260265,0.005746,-0.384017,0.01446,0.747873,0.82175,0.330821,0.18249,0.40144,0.718594,-0.965493,-0.734181,-0.569439,-0.289755,0.682972,0.45959,0.214288,0.137722,1.05354,1.61676,-0.372807,0.209251,-0.391193,0.556011,-0.637715,1.265257,0.324062,-0.194487,0.392909,0.056855,-0.461233,-0.417485,-0.156082,0.349708,0.353511,0.861308,-0.276176,0.346855,-0.117143,-0.180621,-1.732001,0.840952,0.347762,0.329883,-0.357557,0.278858,-0.808314,-0.374642,-0.596017,0.387152,-0.078329,-0.017537,0.03249,0.606457,1.456677,-0.219465,-1.140959,-0.24747,0.056534,-0.670195,-0.087983,0.593084,-0.851658,-1.153245,0.443198,0.451381,-0.039057,-0.549031,0.130788,0.309482,-1.542634,-0.339848,1.428174,-0.868007,0.333871,0.148547,-0.278398,-0.274416,0.123704,-1.123498,-0.791409,-1.181819,0.551399,0.138453,0.717508,0.882875,-0.75843,-0.110435,0.034909,-0.006557,-0.086019,0.526377,-1.026707,0.386439,-0.284256,1.016111,-0.07061,-0.686195,-0.308301,0.066349,0.248477,0.370902,0.54467,-0.584333,-0.30609,-0.171474,-0.119566,0.759332,-0.132153,0.447002
example,0.431153,0.078948,-0.14223,-0.333366,-0.185661,0.29373,0.493162,-0.051069,-0.560662,-0.352889,-0.483045,-0.168365,0.302604,-0.19504,-0.353666,0.061711,-0.372117,0.027997,0.296594,-0.055691,-0.056763,0.261841,0.268731,-0.102145,0.042476,-0.189408,0.481853,0.221539,-0.77687,0.180327,0.222488,0.173707,-0.440088,-0.351394,-0.338468,0.036485,0.292247,0.059134,0.185089,-0.360225,0.060756,-0.266798,0.064474,-0.282543,0.033527,-0.092919,0.256916,-0.463702,0.079602,0.512886,0.144843,-0.358024,0.12473,0.047598,0.07042,0.139318,0.15782,-0.026989,-0.228383,0.27098,-0.447382,0.125212,-0.413048,0.350589,-0.361525,0.321339,0.265475,0.12619,0.306333,0.388274,0.334003,0.085721,-0.299896,-0.124726,-0.073653,0.30632,-0.294525,-0.368765,-0.032729,0.012199,-0.270271,0.622306,0.27284,-0.068271,-0.090213,0.183042,-0.155964,0.091399,-0.127899,0.076856,-0.440299,0.043353,0.125387,-0.476707,-0.165074,0.19817,0.482903,0.260031,-0.182875,-0.192307,0.278895,-0.075673,0.047708,-0.188499,0.10264,0.323329,-0.446348,-0.368923,0.244039,-0.482318,-0.390095,0.412353,-0.018267,-0.276529,-0.212127,-0.132528,-0.034725,0.350849,-0.019346,-0.440636,-0.189547,0.339893,-0.213557,0.153298,-0.040037,0.167821,-0.45909,-0.216174,0.066855,0.649625,-0.103155,0.362706,-0.66052,0.220224,-0.103968,0.336671,0.244841,-0.577792,-0.046478,-0.224265,-0.368839,-0.189377,0.186478,-0.886432,0.014771,-0.398092,0.334565,0.138975,-0.222146,-0.212012
form,0.524026,0.013748,-0.200893,-0.545016,0.361592,0.329166,0.042043,0.217034,-0.020559,-0.055123,-0.4476,-0.457317,-0.213944,-0.410627,-0.052211,0.001475,-0.231701,-0.058628,0.378894,-0.580403,0.189769,0.362797,0.046069,0.191931,0.028341,0.481087,0.250101,-0.082282,-1.110143,-0.156134,0.161189,-0.290092,0.0305,-0.89737,-0.152721,-0.094907,0.326942,0.072921,0.487413,0.178909,-0.145559,-0.482952,-0.216862,-0.400297,-0.101936,0.075928,-0.094131,-0.531692,0.172125,0.287461,0.227235,-0.247508,0.276497,0.710226,-0.050832,-0.344758,0.171898,-0.118596,0.291826,-0.206064,-0.44941,0.292308,-0.45637,-0.590325,-0.533269,0.473774,-0.365752,0.102355,0.419229,0.321725,0.125768,-0.176665,-0.150265,-0.124864,0.060431,0.232956,-0.471528,-0.075051,-0.106748,0.135515,-0.367496,0.42862,0.436409,-0.021141,-0.139105,0.031913,-0.033726,-0.166564,0.216669,0.498737,0.078048,0.333048,-0.105578,-0.616628,-0.083752,-0.056727,-0.163249,-0.470131,-0.3343,0.048561,0.496295,0.215034,-0.205003,0.403122,0.212998,-0.254344,-0.060156,-0.223017,0.281897,-0.545751,-0.481117,0.033632,-0.191584,-0.033662,-0.300753,-0.146059,0.149103,0.088679,0.167812,-0.497977,-0.051816,0.268168,0.017057,-0.358824,-0.102374,-0.130436,-0.119701,0.023763,0.270649,0.499377,0.056351,0.403844,-0.501982,-0.313365,-0.649484,0.221185,-0.005601,-0.307244,-0.030846,-0.101318,-0.198351,-0.052344,0.581874,-0.2331,0.491432,0.262217,-0.116432,0.011328,-0.561402,-0.050701
define,0.271664,0.268193,-0.161393,-0.401291,0.09366,0.400033,0.392969,-0.526216,-0.329069,-0.465302,-0.447863,-0.289353,0.509553,-0.042037,-0.705441,0.189791,-0.297345,-0.041789,0.00748,-0.435279,-0.009113,0.142706,0.116585,0.206328,-0.331544,-0.078553,0.131951,0.15243,-1.010528,0.257643,-0.094415,0.940649,-0.529503,-0.39719,-0.527864,0.111038,0.463864,-0.149239,0.096692,-0.365303,0.262512,0.034012,-0.000146,-0.114586,0.01213,0.486974,0.361109,-0.760281,0.253205,0.417797,-0.30619,-0.475482,0.008436,0.328928,0.369665,0.201148,0.093885,0.222951,-0.196605,0.417255,-0.272893,-0.64767,-0.633796,-0.040176,-0.519556,0.119075,-0.077486,0.356076,0.559979,-0.064251,0.111111,-0.409341,-0.489879,-0.257026,0.471357,0.393257,0.109129,-0.494313,0.462853,0.411893,-0.652637,0.587324,-0.453518,0.224525,-0.235454,0.325619,-0.165907,0.361529,-0.282179,0.138074,-0.229844,0.230852,0.150414,-0.433698,0.222367,0.56381,0.11102,-0.496735,-0.287479,-0.477777,0.501824,0.670265,-0.128745,-0.25076,-0.270369,-0.489418,0.194118,0.141329,0.144096,-0.53869,-0.291174,-0.024259,-0.134611,-0.435939,-0.216367,-0.298356,-0.366453,-0.188367,0.133286,-0.843824,-0.085347,0.402672,-0.23991,0.373761,0.452141,0.573168,-0.35072,0.029884,0.279132,0.310308,0.072759,0.243694,-0.865816,-0.316201,0.044607,0.007971,0.253377,-0.809303,0.008203,-0.432734,0.076028,0.5617,0.954724,-0.747026,0.279267,-0.012172,0.450581,0.170585,-1.123468,0.063091
graph,0.399174,-0.048557,0.34839,-0.59323,-1.230817,-0.316387,-0.968821,-0.529099,-0.772667,-0.353549,-0.562406,-0.336533,-0.036375,0.026283,-0.09189,-0.148817,-0.459023,-0.200414,-0.423862,-0.391326,0.299342,0.622629,0.004751,-0.652234,-0.891511,0.147174,-0.930133,0.331247,-0.265554,0.346537,0.541845,1.270404,0.293853,0.88361,-0.455363,-0.303059,0.213228,0.036543,0.744589,-0.076974,-0.299949,-0.320118,-0.212632,-0.39547,1.348565,0.56742,0.667498,0.249486,0.704504,0.664633,-0.037916,-0.404502,-0.701416,0.149417,-0.125817,0.545038,0.136207,0.281898,0.128366,1.177901,-1.189175,-0.344209,-0.884321,0.37804,0.199285,0.45105,0.315681,-0.25409,1.273998,-0.452499,-0.31267,-0.053503,-0.569853,-0.196106,0.414324,1.141189,-0.117655,-0.028183,-0.217661,0.582948,-1.426009,1.547537,0.321541,-0.300759,-0.009054,0.824161,0.338908,-0.001059,-0.380564,0.601794,-0.28016,0.108526,-0.346626,0.190398,-0.386036,0.32694,-0.365126,-0.974714,0.171557,-0.600055,-0.189589,0.840195,-0.545794,-0.907914,0.234638,0.086308,-0.982315,-0.50115,0.788957,-0.092091,-0.340699,0.053206,0.62454,-0.639991,0.06408,0.254879,0.269835,0.01134,0.252736,-1.490138,-0.415449,-0.149839,0.281603,0.934001,0.933624,0.276075,-1.16831,-0.26396,-0.523772,0.384973,-0.047782,0.397878,-0.295763,0.96108,-0.504072,0.491507,0.498851,0.171798,-1.081978,-0.753825,1.291855,0.67647,0.090707,-1.182679,-0.897144,-0.51112,-0.13069,-0.289661,-0.442606,0.164161
value,-0.217819,-0.221203,-0.336243,0.046507,-0.191368,0.1606,0.4254,0.019553,-0.324153,-0.521624,-0.207078,-0.39814,0.477011,0.427792,-0.749745,0.422682,-0.42737,-0.474199,0.15376,-0.285934,-0.207112,0.168255,0.184923,0.110207,-0.167984,-0.360621,-0.214339,-0.198502,-1.42901,0.25719,-0.076768,0.934376,-0.540653,-0.408068,0.008744,-0.551665,0.536044,0.040782,0.183832,-0.215954,0.073628,-0.426823,0.093471,0.522033,0.155317,0.116677,0.623132,-0.923353,0.681788,0.384193,-0.083201,-0.387775,-0.142408,-0.30598,0.105181,0.273742,-0.220607,-0.201962,-0.083741,0.521747,-0.335862,-0.038044,-0.302224,0.587569,-0.329521,0.237141,1.234938,0.036642,0.26718,0.039729,0.324941,-0.883279,-0.564306,-0.005979,0.05515,-0.102511,0.268347,-0.597737,0.231761,-0.011827,-0.02349,1.360963,0.032848,0.467489,0.0163,0.106197,0.101261,-0.074507,0.215165,-0.081325,-0.653517,0.457188,0.614436,-0.330712,-0.342247,0.368101,0.307565,-0.099801,-0.268591,-0.460799,0.64466,0.509396,0.041771,0.16731,-0.608495,0.405403,0.087561,-0.256277,0.061807,-0.253271,-0.397446,0.214378,0.23911,-0.424636,-0.047087,-0.385969,-0.426565,0.182756,0.182792,-0.190586,-0.049786,-0.218777,-0.243163,0.251683,0.296446,1.264755,0.383149,0.073333,0.215843,0.506729,-0.053334,0.138819,-0.120367,0.53706,-0.252869,0.23529,0.004542,-1.070833,-0.69209,-0.953873,-0.663525,0.034116,0.486576,-0.606586,0.410923,0.046435,1.122178,0.674749,-0.443101,-0.264296
problem,0.201174,0.240615,-0.285438,-0.509308,-0.282743,0.508795,0.093778,-0.70598,-0.137885,-0.860022,-0.206186,-0.213172,-0.617176,0.340959,-0.232142,-0.166723,-0.585733,0.120534,0.317965,0.172498,0.171879,0.188054,-0.353181,-0.558576,0.1965,-0.347291,0.341555,0.298432,-0.811171,-0.026812,0.469034,0.910799,-0.207755,-0.262274,-0.610342,-0.024964,0.119001,0.197551,-0.398826,-0.24345,-0.087203,-0.12135,0.018581,-0.252187,0.696249,-0.145854,1.006095,-0.418845,0.676619,0.260792,0.183135,-0.292887,-0.750834,0.458399,-0.026408,0.415005,0.388352,-0.084831,0.162276,0.316299,-0.400202,-0.026453,-0.35238,-0.119494,0.096576,0.291559,0.161809,0.509444,-0.09155,-0.267968,-0.127002,0.123299,0.210204,-0.306412,-0.196884,0.30197,0.289514,-0.22329,0.107676,0.093026,-0.458054,0.992953,0.251682,-0.354474,-0.139853,0.426939,-0.026744,0.154714,-0.108078,-0.018533,0.2425,-0.273327,0.016902,-0.517951,0.579286,-0.277902,-0.08732,-0.671212,-0.08947,-0.075287,-0.506153,-0.069586,-0.006859,-0.148119,0.439047,0.645377,-0.10683,-0.294345,-0.001531,-0.130193,-0.086905,-0.0204,0.43041,-0.857919,0.218633,-0.120188,-0.114759,-0.290167,0.663715,0.568602,-0.811209,0.655894,-0.013638,-0.290663,0.101232,0.048274,-0.3465,-0.230786,-0.146724,-0.190834,-0.24499,0.332932,-0.10261,0.252979,0.266517,0.473255,0.197367,-0.4593,0.544034,-0.352584,-0.067758,0.581163,-0.266471,-0.265026,-0.202895,-0.357148,0.813654,1.025359,-0.235974,0.058992
mathematic,0.212402,1.046911,0.166774,-0.359336,-0.5113,0.188306,-0.930769,-0.158133,0.77119,-0.96624,-0.871224,0.186496,0.051176,-0.020229,-0.043534,0.00349,-0.184298,-0.014198,0.584589,0.176295,0.164815,0.352288,-0.288955,0.163264,-0.247819,-0.089839,-0.336984,0.831271,0.233162,-0.215903,0.841183,0.361226,-0.566206,0.618732,-0.168147,-0.206164,1.037379,-0.663939,0.118245,0.618066,-0.094107,-0.215115,0.155535,-0.404179,0.689678,0.193116,0.541903,-0.76108,0.886253,0.523695,0.469463,-0.30785,-0.110799,-0.550599,-0.306599,-0.141516,0.027728,0.03847,0.67885,1.303267,-0.175123,-0.659293,-0.334173,0.434271,-0.236949,-0.138886,1.129819,0.322361,0.608702,-0.299555,-0.868054,-0.054792,-0.426173,-0.233448,0.156281,0.094897,-0.028162,-0.063206,-0.20511,0.476561,-0.13073,0.859402,0.037953,0.305443,0.140669,0.169238,-0.135052,-0.060592,-1.279977,-0.184803,0.205461,-0.054168,0.144602,-0.29106,1.147885,-0.283941,-0.608176,-0.407344,-0.257228,-0.411236,-0.649701,0.067789,-0.596108,0.721536,0.289921,0.389437,-0.009034,-0.308436,-0.029519,-0.636948,-0.670058,-0.616843,0.28071,-0.350878,-0.091765,0.336418,-0.100673,0.134644,-0.104081,-1.376373,-0.822311,-0.282678,0.134984,0.219009,0.353233,0.12072,-0.10182,-0.310905,0.082658,0.334258,0.600289,-0.304955,-0.432025,0.691173,0.250142,0.637187,0.165865,0.370705,0.277484,0.403266,-0.947251,0.56598,0.197626,0.18997,0.153419,-0.01428,0.653397,0.22383,-0.342255,1.189961
order,-0.290896,-0.142275,0.005105,0.030653,-0.311943,-0.148096,0.214461,-0.586202,-0.436939,0.405609,-0.694875,-0.673282,-0.055677,0.404759,0.12906,0.02577,0.148311,-0.143256,-0.305541,0.008063,0.165532,0.263722,0.153959,-0.400881,-0.29267,0.554362,0.505712,-0.361457,-0.175321,0.702785,0.064875,0.239898,-0.170323,-0.115496,0.260065,-0.129418,-0.004627,0.189941,0.070665,-0.233497,0.064108,-0.226473,-0.153779,-0.283837,-0.066098,-0.357583,0.048531,-0.762815,0.360107,0.524577,-0.431818,0.209904,0.341868,0.145801,0.245258,0.505594,0.47592,0.450561,0.006446,0.198274,0.031416,-0.553706,0.049199,0.033691,-0.518407,0.2604,0.484725,-0.309819,0.46714,0.040423,0.214599,0.010209,0.003534,-0.699198,0.186395,0.24597,-0.031136,-0.739917,0.048922,0.1233,-0.161317,0.592985,0.470804,-0.235061,-0.057034,-0.017834,0.0017,-0.059889,-0.192608,0.045552,-0.313434,0.205394,-0.187152,0.071112,0.413653,-0.005704,-0.255467,-0.433218,-0.403794,0.364069,0.439066,-0.228641,0.592012,-0.399479,0.762882,0.480569,0.225539,-0.097111,-0.554357,0.301601,-0.170834,-0.279849,-0.664251,-0.297372,-0.251211,-0.190175,-0.057566,-0.395001,0.247787,-0.425595,0.173118,0.477578,-0.108885,-0.418041,-0.74595,0.105189,-0.062616,-0.145871,-0.139422,-0.144464,0.246947,0.109253,-0.632099,0.214215,-1.007392,-0.283488,0.481671,-0.616105,-0.13396,-0.302886,-0.29564,0.21116,-0.353462,0.079953,0.214498,-0.002556,0.512075,0.140876,0.133477,-0.438891
equation,-0.210004,0.493896,0.930748,0.280279,-0.431106,0.336286,0.198967,-0.085286,-0.751735,-0.826674,-0.344092,0.234967,-0.022354,0.002456,-0.046346,0.132935,-0.750641,0.212895,0.297714,-0.446793,-0.564991,0.802162,-0.36063,-0.773718,-0.186255,-0.746125,0.375256,0.479697,-0.237187,0.999372,0.79424,1.680523,0.110513,0.073269,-0.54548,0.323214,1.091046,-0.124231,0.016525,0.470452,0.181401,-0.543238,0.100109,-0.615012,0.131435,0.048466,0.478997,-0.953305,0.773179,0.502856,-0.676168,-0.163387,-1.513985,-0.959408,0.567402,-0.428672,0.203641,-0.217521,0.429867,0.909479,-0.342302,0.332417,-1.014616,-0.262424,-0.581009,1.131941,0.709057,-0.127858,-0.024,0.056857,-0.131472,-0.289537,-1.065999,0.67019,-0.118727,0.031918,0.694318,-0.087324,0.369198,0.056029,-1.252039,0.737875,-0.045863,0.739399,-0.776299,0.033921,-0.373755,-0.139843,0.392935,0.163527,0.238194,-0.624902,-0.077035,0.540638,0.790653,0.366779,-0.633177,-0.489629,-0.511028,-0.63612,-0.585024,1.368877,-0.010603,0.405044,-0.323158,0.58848,0.311311,-0.714623,1.149839,-0.844459,-0.245521,-0.583283,0.001335,-1.050085,0.314973,-0.192882,-0.865437,0.101998,0.592406,-0.213144,-0.373984,-0.605215,-0.268653,-0.186101,0.900742,0.741993,-1.362718,0.010876,0.150114,0.304157,-0.266133,0.202619,-0.882985,0.256242,-0.498127,-0.284095,0.761709,-0.681442,0.22584,0.834227,-0.473364,0.117976,0.861233,-0.214166,0.402392,-0.411299,-0.198904,0.859357,-1.1246,0.472821
first,0.287707,0.026777,0.063477,0.08294,0.359504,0.036204,0.179159,0.253777,0.110239,0.128865,-0.203754,-0.129892,-0.363441,-0.365265,0.165385,-0.222101,0.163121,-0.145855,-0.028871,0.176946,-0.091373,0.327135,0.118181,-0.020656,0.319647,0.105163,0.875772,0.086054,0.30143,0.018412,0.486259,-0.097892,-0.616353,-0.171329,0.098219,-0.005924,0.018133,0.00781,-0.050765,0.176925,0.098558,0.182904,0.135257,-0.102777,0.180546,0.457952,-0.373467,-0.343825,0.617014,-0.301065,-0.013378,-0.491198,0.285298,0.659717,-0.051923,-0.187827,0.451151,-0.043311,0.04322,0.205401,-0.229932,0.303025,-0.121045,0.22166,-0.257598,0.490268,-0.191923,-0.302756,0.655287,-0.022947,0.421834,0.213686,-0.258277,-0.126974,0.091032,-0.018353,0.025989,0.145782,-0.057951,0.188071,-0.334064,0.263653,0.154074,-0.163315,0.268628,0.291381,0.234067,-0.201608,-0.205405,-0.143847,0.262635,-0.14337,-0.013746,0.098607,-0.305498,-0.032121,-0.139721,0.593401,-0.022124,0.281624,-0.042627,-0.290949,-0.03707,0.927832,0.193021,0.328637,0.034804,-0.015577,0.194976,-0.241924,-0.053544,-0.117758,-0.625466,-0.131356,-0.030902,-0.230934,0.118074,-0.053401,0.254876,-0.227795,-0.127878,0.497373,-0.238733,0.03052,-0.343039,-0.010144,0.044677,-0.087455,0.133049,-0.131367,-0.050322,0.246392,-0.086371,0.326734,-0.308486,-0.040703,-0.293384,-0.213064,0.053806,-0.116698,-0.175,-0.09791,-0.072192,0.423569,0.091819,0.346566,0.226057,0.337903,-0.013954,-0.371047
vector,0.881622,0.054336,0.140049,0.322221,-0.739206,0.297858,-0.462482,0.268398,-1.195072,-0.490752,-0.264344,-0.987555,0.52191,0.776815,0.061503,-0.30859,-0.756315,-0.02834,0.846258,-0.359543,-0.441538,-0.248401,0.152087,-0.305259,0.613017,-0.258732,-0.36393,-0.54036,-1.018346,-0.596758,-0.032119,0.816022,-0.230583,-0.250082,-0.215728,0.671555,0.453011,-0.653008,0.337813,0.16614,0.362735,-0.181543,0.02047,0.05115,0.007226,0.59023,0.27361,-0.394974,0.473172,0.444698,-0.536198,0.153788,-1.024723,-0.666753,0.414942,-0.124388,-0.468375,0.104497,-0.113698,0.8641,-0.889431,-0.848973,-1.423189,0.466115,-0.367405,0.220587,0.872389,0.144936,1.014376,-0.058329,0.288125,0.523589,-0.197196,0.70177,-0.116519,-0.076417,0.752061,-0.343644,0.724893,0.652097,-1.226625,0.15729,0.087578,-0.624422,-0.423919,-0.093891,0.865295,-0.861381,-0.02004,-0.044954,-1.013556,0.318873,-0.030841,0.268487,0.921079,0.368833,-1.489578,-0.525836,-0.938413,-0.200699,-0.114276,0.090686,0.298111,-0.317085,0.041895,-0.051268,-0.128692,-0.119068,1.442251,-0.308825,-0.124432,-0.398229,0.050492,-0.827321,-0.494376,0.049773,0.072696,-0.166614,-0.160125,-0.791015,-0.024495,-0.183006,-0.245481,0.147459,0.298303,0.327822,-0.624582,-0.338572,0.327362,0.614173,-0.030679,1.248548,-1.484173,0.271463,-0.394096,0.330892,0.136655,-0.741234,-0.49803,0.312685,0.130246,0.548736,0.800379,-1.388306,-0.031192,-0.067025,0.366573,0.859182,-0.8272,0.645832
algebra,0.934332,0.446015,0.579825,-0.042486,-1.660579,0.02397,-0.926577,1.063337,-0.47725,-1.323389,-1.029533,-0.385993,0.710364,0.305913,-0.753557,0.65449,-0.847297,-0.311341,0.64234,-0.728653,0.979319,0.617175,-0.324623,-0.231721,-0.014602,-0.902406,0.170584,0.310289,0.613898,-0.131326,0.514088,0.966795,-0.919698,0.460144,-0.648096,0.424586,0.870668,-0.645119,0.046745,0.659824,-0.288876,0.291083,-0.556632,-0.391,0.980223,0.490254,-0.087342,-1.269247,-0.463751,0.830216,0.131506,0.010729,-0.657354,-0.277606,-0.33165,-0.559871,-0.223075,0.136765,0.748824,2.171504,-0.317435,-0.279621,-0.863904,0.215478,-0.977518,0.257164,1.052999,0.328452,0.198793,-0.648542,-0.77047,0.266958,-0.59062,0.343312,0.347683,0.55578,-0.054422,-0.537935,0.671284,0.127593,-1.078093,0.367044,0.357473,3.3e-05,-0.226448,0.425005,-0.000491,-0.704116,-0.913186,0.265996,0.120531,0.247632,-0.509755,0.084652,1.099719,-0.04299,-0.781952,-0.545617,-0.001914,-0.68969,-0.755209,0.063363,-0.882037,-0.608582,-0.226959,-0.232324,0.174206,-0.62716,0.036028,-0.221508,-0.753335,-0.542361,-0.151614,0.143247,-0.064687,0.098177,0.496895,0.181365,0.292999,-1.697812,-1.053808,-0.584685,1.153545,-0.277698,0.454966,-0.351542,-0.685961,-0.510454,0.545246,0.660543,0.08683,-0.575606,-1.167004,-0.338565,0.085698,1.040973,0.00038,0.142856,-0.254891,0.102967,-0.215419,1.150219,0.402215,-0.334556,-0.258703,-0.460672,0.088881,0.40606,-1.393859,1.072343
$\mathbb{N}$,0.220868,-0.273613,-0.139498,-0.39424,-0.100066,-0.389824,-0.553295,0.986427,-0.613163,-0.615945,-0.043587,-0.271182,0.151389,0.254846,-0.395317,-0.561542,0.120808,0.307638,0.757396,0.557474,-0.048797,0.34208,-0.008616,-0.070988,-0.402926,-0.408326,-0.616379,-0.008243,-1.345286,0.112203,-0.314071,0.034295,-0.000748,-0.320475,-0.13281,-0.012025,0.130932,-0.016056,0.239629,-0.312594,0.271636,-0.292732,-0.099103,-0.092658,0.015871,0.158363,-0.224301,0.264076,-0.465729,0.360069,0.15208,-0.74464,-0.255985,0.1565,0.235671,0.389942,0.089356,0.088282,-0.675967,1.051759,0.005635,0.203029,-0.541591,-0.419711,-0.134515,0.757679,0.967677,-0.861423,0.513049,0.338188,-0.228925,-0.279414,-0.297165,0.329878,-0.125168,-0.341851,-0.307039,-0.793253,-0.486244,-0.115702,-0.777243,-0.16938,0.341571,0.023792,-0.586864,0.180161,-0.610193,-0.104284,-0.188089,-0.220152,-0.091821,-0.031978,0.276388,0.294501,0.268187,0.716455,-0.342073,-0.276775,-0.061181,-0.130284,0.339095,-0.177917,0.193184,0.174178,0.284029,-0.236858,0.114833,-0.547427,0.723955,-0.078335,0.016012,0.464386,-0.345837,-0.247967,0.240312,0.663938,-0.173055,0.372333,0.461343,-0.581141,-0.429154,-0.786132,0.142988,0.414387,0.311576,-0.120008,-0.462781,0.383363,0.052248,-0.074237,-0.488099,0.241681,-0.48258,-0.115606,-0.546416,-0.117703,0.461194,0.384026,-0.456449,-0.302376,-0.121684,0.352858,0.483842,-0.475469,0.193903,0.084492,0.378884,0.278059,-1.014377,-0.857045
field,0.488333,0.644817,-0.166527,-0.000821,-0.713719,0.227014,0.652357,-0.495769,-0.610579,-0.044043,-0.379092,-0.488204,-0.230496,0.308151,0.184606,0.089563,0.519417,0.132726,-0.181321,0.272685,-0.307133,0.369229,-0.248234,0.10041,-0.013593,0.518383,-0.160696,0.1271,-0.399876,-0.296771,0.154724,0.070502,-0.734848,-0.197651,0.500198,-0.093673,0.475081,-0.357908,-0.06759,0.39195,-0.187385,-0.066108,-0.079265,0.010095,-0.061643,0.18417,-0.531998,-0.200536,-0.015029,-0.244083,0.014304,0.470561,0.077008,0.293515,0.268517,-0.16428,-0.212857,-0.890151,0.210116,0.861418,-0.524811,-0.132413,0.094413,0.109001,-0.109549,-0.008166,-0.162199,0.194733,-0.040946,-0.091393,-0.474199,0.180732,-0.431274,0.322149,-0.093525,0.051001,0.295561,-0.072531,0.235279,0.124463,-0.169844,0.863639,0.213724,-0.252823,0.366284,-0.36146,0.119939,-0.372547,-0.226538,0.028673,0.622965,0.128635,-0.289484,0.336415,0.396147,0.677695,-0.086401,0.137553,-0.242772,0.047129,-0.174437,0.595393,0.146488,0.399682,-0.0129,0.619139,-0.377551,0.170842,0.893392,-0.450638,0.024827,-0.85711,-0.445542,-0.151342,0.48624,-0.238337,-0.268138,-0.155827,0.336163,-0.545122,-0.690207,0.339044,-0.018921,-0.282537,-0.732997,0.483375,0.296545,-0.114746,0.054084,0.194178,0.242683,0.365382,-0.119944,-0.098825,-0.291361,0.005044,0.001033,-0.28614,0.065585,0.387554,-0.426157,0.516359,0.391571,0.446815,0.013559,-0.058003,0.69702,0.659369,-0.587578,0.342885
element,0.372707,0.154336,-0.192964,0.027863,-0.24275,0.540223,0.300199,-0.539464,-0.123696,-0.56294,-0.408553,-0.935579,0.179755,-0.025738,-0.24368,0.462783,-0.123576,-0.075034,0.114279,-0.696699,0.19564,-0.036384,0.416348,0.303429,-0.156127,-0.027178,0.238661,0.104044,-1.271778,0.217889,-0.514301,-0.174463,-0.447155,-0.529439,-0.323057,0.225408,0.528613,0.087661,0.026073,-0.135719,-0.170244,-0.168695,0.300835,-0.039186,0.099976,-0.352698,0.318903,-0.331386,-0.361685,0.918251,0.442291,-0.093235,0.465911,0.385028,0.103013,0.524844,-0.001223,-0.45064,0.050142,0.363549,-0.500007,0.369402,-0.115283,-0.006193,-0.372753,0.108522,0.521367,0.384834,0.140683,-0.564563,0.437388,-0.216817,-0.493633,-0.096236,-0.044287,0.045765,0.12563,-0.133682,-0.11802,0.223835,-0.797629,0.136487,0.670695,-0.284159,-0.685612,0.145041,-0.502665,-0.391405,0.09997,0.229621,0.227681,0.442794,-0.321398,-0.051142,-0.087544,0.200233,0.428639,-0.190537,-0.158746,-0.325521,0.294288,0.367125,-0.268112,0.554852,-0.215916,-0.237214,-0.791126,-0.411302,-0.085587,-0.746641,-0.427309,0.005484,-0.703986,-0.300932,-0.184168,-0.001371,-0.192605,0.235191,-0.306325,-1.09007,0.032994,-0.285511,-0.055627,-0.413979,-0.280006,0.268678,-0.250667,0.162968,0.478444,0.436278,0.061488,0.324207,-0.773803,0.019925,-0.377024,0.415609,0.019459,-0.552365,0.170816,-0.161548,-0.453728,-0.072145,0.094642,-0.968207,-0.172339,-0.314205,0.355132,0.046897,-0.993767,-0.471266
system,0.632482,0.146067,-0.465159,-0.27164,0.060686,0.31522,0.021259,-0.624982,0.042203,0.48731,-0.101893,-0.536618,-0.005934,-0.457596,-0.185557,-0.114189,-0.265599,-0.167453,-0.211386,-0.225691,0.211373,0.476307,-0.091488,-0.315987,0.078737,-0.026306,0.336022,0.025883,-1.101333,0.016516,0.461704,1.034258,-0.065224,-0.497375,-0.557022,-0.113752,-0.1335,0.356189,0.131584,-0.076136,0.117934,0.259721,0.107327,-0.213403,-0.11371,0.131538,1.193658,-0.375305,0.403035,-0.143483,-0.330928,-0.458512,-0.610825,-0.170515,0.048514,0.152933,0.90068,-0.411931,0.193126,0.17381,0.061926,-0.043987,-0.069664,0.186449,-0.615926,-0.115086,-0.272126,0.650509,-0.068637,-0.179329,-0.215679,0.58387,-0.036107,-0.335109,-0.472086,0.611429,0.192834,-0.308207,0.359325,0.246875,-0.403442,0.956334,-0.286734,-0.558699,0.524971,-0.419807,0.510147,0.179323,-0.271721,-0.121582,0.152282,0.158606,0.204018,-0.575087,0.172167,0.575988,0.105368,0.098576,-0.163388,0.361887,-0.325858,-0.084734,0.09543,0.706118,0.772349,0.533618,0.055835,-0.222583,0.602052,-0.355004,-0.440718,-0.069516,-0.480934,-0.550092,0.045645,-0.542098,-0.00048,0.30228,0.464138,-0.764954,-0.025388,0.19255,0.110707,-0.136313,-0.348047,-0.121727,-0.206329,-0.442137,0.11292,-0.265043,0.666002,0.014616,-0.235794,-0.339894,0.488881,-0.022054,-0.170444,-0.039582,-0.016934,0.051771,-0.692826,-0.069813,0.798866,-0.949071,-0.145532,0.233771,0.176485,0.000973,-0.883121,-0.129345
matrix,0.176337,0.277051,-0.101837,0.142161,-0.475319,-0.355906,-0.360673,0.399789,-0.103823,-0.753828,-0.681688,-0.257368,-0.408228,-0.023852,-0.103038,-0.281887,-0.476242,-0.303631,0.366384,-0.711684,0.160424,0.060647,-0.408951,-0.09734,0.554981,-0.568323,-0.278254,-0.112803,-0.868124,0.124661,0.387369,0.507912,0.334285,-0.205614,-0.198272,0.612144,0.725297,-0.009882,0.031741,-0.162455,-0.146151,-0.636856,-0.796738,-0.179212,-0.340426,0.43559,0.108113,-0.553951,-0.454936,0.58231,-0.583987,0.196591,-0.48546,0.092485,-0.478188,-0.191528,0.090954,-0.574272,-0.220339,1.069756,-0.185256,-0.012902,-0.97897,0.39488,-0.724616,0.718662,0.375957,0.153356,0.464149,-0.393911,0.349988,-0.414021,-0.309447,0.452322,-0.308162,-0.176047,0.318134,-0.026999,0.34312,0.308257,-1.636743,1.312908,0.519679,-0.444268,-0.769084,0.657166,0.361531,-0.636585,0.745789,0.307495,0.013802,0.189749,0.123541,0.211673,-0.34834,0.363515,-0.733246,-0.953773,-0.840312,-0.498365,-0.618765,0.717837,0.195506,0.345061,-0.337275,-0.246513,-0.173721,-0.404453,0.506341,-0.31252,-0.351253,0.00373,0.180539,-0.73852,0.02752,0.677144,0.016844,-0.278875,-0.129663,-1.128581,-0.568128,-0.466701,0.392161,-0.365758,0.632452,0.613907,-0.851804,0.289513,0.153422,-0.242408,-0.064029,0.433453,-0.554378,-0.036418,-0.417182,0.894303,0.412873,-0.058424,-0.641356,-0.266614,-0.253885,-0.119439,0.419393,-1.050694,-0.51106,-0.097711,-0.043264,0.58954,-0.566214,0.364143
mathematical,0.544984,1.241709,0.179853,-0.371916,-0.567865,0.057236,-0.971726,-0.411271,0.461472,-0.404819,-0.546473,0.125887,0.139313,0.383099,-0.064603,0.687986,-0.1854,-0.026919,0.084852,0.139725,-0.032147,0.256011,-0.140968,0.364119,0.366643,0.113518,-0.457118,0.925109,-0.165005,-0.058389,0.884694,0.668785,-0.003871,0.190564,-0.652321,-0.084065,0.978801,-0.294268,0.14355,0.407004,-0.476709,-0.527921,-0.013469,-0.189995,0.86607,0.187071,0.578647,-0.83572,0.68892,0.36024,-0.469296,-0.625185,-1.042952,-0.866284,0.18614,0.062005,0.14691,0.30428,0.891779,1.408185,-0.159084,-0.630914,-0.509127,0.404108,-0.471392,0.038435,1.192086,0.401004,0.295555,-0.12493,-0.314101,0.11797,-0.539649,-0.232819,-0.011236,-0.038391,0.333221,0.340357,-0.349164,0.75252,-0.462385,1.116015,-0.040891,0.407953,0.445531,0.42148,-0.100263,-0.022536,-0.632419,-0.152126,-0.017846,0.028539,-0.009091,-0.365965,1.26718,0.341787,-0.082349,-0.295783,-0.132751,-0.49983,-0.48423,0.30189,-0.377756,0.575529,-0.05413,0.512847,0.356763,-0.716155,0.353963,-0.825262,-0.832428,-1.081079,0.563446,-0.588423,0.038281,0.091662,-0.229175,-0.182664,-0.232253,-0.684995,-0.891538,-0.049607,0.065501,0.055714,0.39901,0.320853,-0.239363,0.009806,-0.480432,0.184603,0.189583,-0.088096,-0.663024,1.031722,-0.147795,0.513924,0.559135,-0.318911,0.302604,0.402414,-1.007925,0.453441,-0.180589,0.065682,-0.368668,-0.308003,0.024779,0.805178,-0.544888,1.140105
method,0.227166,-0.10489,-0.431608,-0.578024,-0.652466,0.094244,0.55075,-0.507227,0.119412,-0.330745,-0.630218,-0.094119,0.002879,0.278189,0.352392,0.015563,0.164177,0.503684,-0.121103,-0.488299,0.046637,0.766145,-0.0774,-0.246793,0.227734,-0.069696,0.098798,0.21996,-1.210303,-0.381403,0.29342,1.253266,0.00269,-0.031403,-0.40088,0.185467,-0.214242,-0.058249,0.281215,0.261522,0.077392,-0.18312,0.34495,0.219395,-0.113816,0.053807,0.706455,-0.594383,0.701943,0.869897,-0.281265,-0.093453,-0.101681,-0.526541,0.342829,-0.008831,0.465673,-0.350551,0.520514,0.438258,0.144547,-0.067406,-0.653531,0.552492,-0.25038,0.182819,0.450551,0.792967,0.184581,0.079113,0.312872,-0.362899,0.029157,-0.16751,-0.516772,0.106101,-0.28001,0.286154,0.177093,-0.106922,-1.139617,1.145394,0.407112,-0.094045,0.012234,-0.22492,0.303221,0.455657,0.218176,-0.401982,-0.124209,-0.239815,-0.101378,-0.982402,0.183524,0.522091,0.191874,0.403588,-0.195958,-0.547926,0.264202,0.23619,-0.042163,0.938632,0.070807,0.55168,0.093115,-0.593065,0.174959,-0.361482,-0.524993,-0.124407,-0.110009,-0.181738,0.248941,0.436668,-0.298942,0.15347,0.44711,-0.017825,-0.436578,0.545762,-0.338274,0.158533,0.490792,0.343337,-0.808391,0.127076,0.209125,-0.011596,0.449126,0.677066,-0.791612,0.251342,-0.132723,0.410675,0.779936,-0.438062,-0.06213,0.370777,-0.585287,0.490493,-0.516637,-0.320382,-0.184758,-0.477235,-0.123226,0.389195,-0.284916,-0.178548
finite,0.664753,0.074626,-0.006743,0.091897,-0.684393,0.241957,-0.630227,-0.401929,-0.604131,-0.957741,-0.742971,0.117518,-0.273621,-0.182998,-0.913977,0.0364,-0.544215,-0.288784,0.328839,-0.519557,-0.19389,0.919641,0.276305,-0.407272,-0.006825,-0.189385,-0.614422,0.306235,-0.622984,0.334755,-0.206094,0.734473,-0.176202,0.237807,-0.59593,0.236492,0.593725,-0.977944,0.71761,0.469299,-0.726249,-0.433658,-0.372134,-0.453578,0.651468,-0.085833,0.553876,-1.052106,0.018456,0.81527,-0.413659,-0.230342,-0.761389,-0.179075,0.567944,0.203367,0.37642,0.132674,0.714626,1.193803,-0.668029,0.372263,-1.217464,-0.187422,-0.879226,0.601843,0.968163,0.267996,0.823873,-0.000947,-0.572229,-0.106294,-0.523342,0.234384,-0.101573,0.55647,-0.24458,-0.45045,1.052463,-0.223512,-1.641889,0.774352,-0.21406,0.455475,-0.025564,0.344018,-0.041029,-0.182393,-0.223031,0.30969,0.004597,0.235667,0.000229,0.472065,0.416072,0.389787,-0.383483,-0.767054,0.224211,-0.297486,-0.114763,0.694621,-0.930904,-1.043604,-0.284057,-0.118438,-0.273719,-0.918297,0.672147,0.021419,-0.367216,-0.513451,0.302411,-0.628516,0.069083,0.320864,-0.19726,-0.383693,0.616144,-1.148041,-0.264709,-0.438213,1.007429,0.197482,-0.33187,0.631011,-0.755436,-0.489526,0.283275,0.638873,-0.555255,-0.092312,-0.580812,0.015842,-0.570233,0.633869,0.602978,-1.077193,-0.446493,-0.456706,0.156509,0.947174,0.681952,-1.212277,-0.631395,-0.342574,0.443364,0.259487,-0.360074,0.703196
result,0.535118,-0.355353,0.050937,-0.314656,-0.035702,0.311714,0.454131,-0.33581,-0.266524,-0.237236,-0.413184,0.089016,-0.039727,0.256012,0.39399,-0.246743,-0.546735,-0.018879,0.040625,0.34966,-0.049465,0.269722,0.422491,0.483408,0.513207,0.294016,0.586632,-0.267433,-1.144482,-0.344142,0.44915,1.026814,0.010028,-0.12399,0.092256,0.084345,-0.226004,0.210757,-0.254258,0.020317,-0.323634,-0.074466,-0.3247,0.010635,0.357361,0.095592,0.166195,-0.468837,0.16488,-0.073846,0.21292,0.013542,-0.723877,0.589113,0.072834,-0.121824,0.766992,-0.577868,0.170757,0.088527,-0.540903,0.60076,-0.306801,0.260647,-0.183717,0.31457,0.230281,-0.090881,0.587042,-0.051398,0.127792,0.144525,-0.118425,0.051123,-0.122155,0.202551,-0.215214,0.172335,-0.160733,-0.154856,-0.396143,0.839848,0.413883,-0.011966,-0.168066,0.625082,-0.006881,-0.247986,0.056171,0.085432,-0.330157,-0.37244,-0.048742,-0.071102,-0.370619,0.305238,-0.153359,-0.210892,-0.292879,-0.175739,0.014235,0.036047,0.11597,0.259508,0.443634,0.205618,0.058531,-0.378073,-0.287968,0.069809,0.129917,-0.211763,0.121793,-0.102718,-0.081029,-0.21111,0.00882,0.134424,0.179342,0.411757,-0.016209,0.991635,-0.044567,-0.109867,-0.38879,0.186162,-0.029928,-0.079647,0.310959,-0.116287,0.366882,0.169154,-0.069899,-0.304714,-0.300844,0.05608,0.159401,-0.343979,0.411768,-0.22909,0.315595,0.260667,0.077235,0.793799,-0.051695,0.069309,0.621565,0.139563,-0.630554,-0.568879
vertex,-0.383049,-0.397647,0.113427,0.385911,-1.139496,-0.495472,-1.28381,0.486425,-0.098905,-0.731135,-0.448839,-0.577313,-0.380049,0.072009,-0.056122,-0.480382,-0.177949,-1.010859,0.413003,-0.049368,0.118098,0.514399,0.194581,-0.821584,-1.119642,0.117402,-1.492651,-0.876715,-0.063914,-0.064211,-0.125769,1.092522,0.300108,0.396574,-0.177637,-0.055955,-0.193722,-0.01693,-0.016889,-0.527854,-0.247514,-0.197797,-1.126107,-0.827955,1.005243,0.353346,0.353771,0.030215,-0.222782,0.527614,0.367182,-0.162969,-0.585035,0.932408,0.131984,1.108642,0.360665,1.464307,-0.338944,0.454757,-0.939602,0.218907,-0.677529,-0.498249,0.197556,1.015425,1.084019,-0.268925,1.221957,-0.497661,0.542287,-0.477454,-0.757616,-0.2082,0.493911,0.561545,0.200376,-0.173458,-0.074498,0.468393,-1.648889,0.94233,0.436939,-0.548959,0.303352,-0.045943,-0.038366,-0.337149,-0.131721,0.653279,0.022977,0.500499,-0.142514,0.640228,0.414036,-0.077568,-0.605093,-0.474601,0.047006,-0.54172,0.209171,0.752249,-0.322085,-1.224124,0.44581,0.015992,-0.859361,-0.229706,0.653014,-0.137435,-0.95799,0.2417,-0.146618,-0.531483,0.53634,0.498348,0.481392,0.090061,0.332318,-0.729734,-0.05753,0.099601,0.307446,0.691062,0.406952,0.132841,-0.573587,-0.04565,-0.601103,0.760955,-0.141256,0.58572,-0.116157,0.820227,-0.589696,0.310006,-0.018777,-0.006571,-0.890928,-0.836707,1.373583,1.159145,1.329258,-2.060438,-0.592395,-0.419343,-0.299344,-0.295138,-0.392412,-0.145813
term,-0.208275,0.162111,-0.074155,-0.388324,0.142911,0.576525,0.478167,-0.117954,0.140946,-0.276326,-0.308553,-0.395715,-0.080158,-0.151803,-0.261502,0.121333,-0.355061,0.066598,0.49635,-0.47762,-0.23807,0.423512,0.207995,-0.011072,0.20517,0.263426,0.849572,0.031672,-0.657627,0.130183,-0.196548,0.853742,-0.316091,-0.428728,-0.446006,-0.327555,0.421672,-0.207599,0.426741,0.136596,0.312828,-0.239937,0.139004,-0.258388,0.535853,0.026935,0.124076,-0.599737,0.508655,-0.102458,0.220714,-0.408114,-0.03666,0.226891,-0.057281,-0.469071,0.069377,-0.211562,0.101558,0.080313,-0.070296,-0.116001,0.048977,0.056973,-0.604095,0.0576,0.101917,0.335129,0.191344,0.21754,0.041453,-0.059816,-0.368026,-0.168312,0.162626,0.200489,-0.070497,-0.030907,0.011092,0.063309,-0.307208,0.294188,-0.028651,0.156345,-0.005147,0.276277,0.039771,0.094916,-0.18559,-0.09155,-0.499555,0.163265,0.244214,-0.882624,-0.097417,0.34416,-0.07722,-0.113982,0.069629,-0.286388,0.198171,0.058909,-0.194057,0.105447,0.397336,0.239614,-0.237481,-0.016795,0.081381,-0.523877,-0.125935,0.008257,-0.006988,-0.237504,-0.306632,-0.745782,-0.220174,-0.00646,-0.017194,-0.46108,-0.067694,0.712101,-0.215115,0.265693,0.086729,0.235278,-0.29728,0.165714,0.150896,0.122269,-0.2879,0.157303,-0.384537,-0.219505,-0.199171,0.447839,0.153223,-0.69681,0.020362,-0.099715,-0.304221,-0.230344,0.324008,0.057149,0.205916,0.32589,0.941156,-0.108939,-0.256216,-0.355121
line,1.003,-0.399309,0.174662,0.237061,0.661446,-0.035185,-0.248357,-0.067456,-0.16797,0.262935,0.221873,-0.436407,0.627292,0.252451,0.056036,-0.16845,0.067471,-0.138185,0.402405,-0.005708,-0.141087,0.553565,0.386481,-0.163586,-0.109418,0.313397,0.370561,-0.562177,-0.919612,-0.030427,0.578539,0.340961,-0.207194,-0.782555,-0.054513,-0.481695,-0.11186,-0.115735,0.052301,-0.278588,-0.065772,-0.21486,0.448063,0.260831,0.205656,0.276018,0.129624,0.19488,-0.01675,0.343601,-0.083776,0.012267,1.009015,0.199123,-0.539134,0.465209,0.258926,-0.218252,-0.024168,-0.077365,-0.519259,0.236651,-0.048517,-0.542749,-0.175945,0.449653,-0.733391,-0.135419,0.000457,-0.024368,0.4592,0.111589,-0.573537,0.379251,-0.129225,-0.264709,-0.042479,-0.203978,-0.665985,-0.113958,-0.875633,0.303585,0.207067,-0.440015,0.656604,-0.812493,0.554824,0.727825,-0.244214,-0.318691,-0.156567,0.0721,0.178532,0.973501,0.131088,0.160587,-0.739097,-0.377547,-0.031744,0.270812,0.160135,0.036077,-0.11832,-0.47445,0.139442,0.923586,-0.427421,0.001469,0.101705,-0.550745,-0.278031,-0.18271,-0.477533,0.276716,0.02094,-0.789105,0.081033,-0.211597,0.1778,-0.842125,-0.056047,0.915982,0.150502,0.254764,-0.066746,-0.106499,-0.318921,0.024347,-0.129311,0.376265,0.449896,-0.237442,0.090224,0.012315,0.255703,-0.608315,-0.13995,-0.531365,-0.351967,-0.185533,0.380097,-0.078059,0.188086,-0.248508,0.446441,0.015742,-0.367355,0.710219,-0.321901,0.264417
model,0.762115,0.319218,-0.303481,-0.569852,0.107814,0.26576,-0.027927,0.119637,-0.805069,-0.070108,-0.153099,0.110036,0.42165,0.265468,-0.05886,0.860045,-0.353597,-0.321819,-0.54991,-0.354358,-0.3941,-0.566693,0.04973,-0.423574,0.538441,-0.363754,0.441217,0.306704,-0.584419,0.787662,0.964026,0.362261,0.081308,-0.340649,-0.60283,-0.391877,-0.490034,0.089289,0.026211,0.118725,0.186814,-0.203177,0.185419,1.037102,0.202751,0.434365,0.514431,-0.379492,-0.057297,0.255404,-0.149486,-0.846035,-0.853883,-0.375751,-0.427102,-0.560352,0.5457,-0.106686,0.489867,0.842474,0.076686,-0.162327,-0.047129,0.024964,-0.08414,0.344196,-0.666384,-0.120102,-0.097603,-0.078481,0.446014,0.405811,-0.083547,0.044537,-0.447595,0.337241,0.521786,-0.242207,-0.26714,0.393024,-0.719374,1.042833,-0.145106,0.057442,-0.008459,0.156069,-0.014554,-0.02758,0.261346,-0.481892,-0.016952,-0.329494,0.665318,-0.308591,0.673928,0.111722,0.142068,-0.255513,-0.726288,0.282536,0.219185,0.848371,-0.179116,0.230018,-0.028052,0.602109,0.530642,-0.200749,0.542707,-0.548808,0.206834,-0.294298,-0.932263,-0.442455,-0.0664,-0.213778,-0.352964,0.11135,0.647716,-0.023549,0.151065,0.015334,0.142271,-0.288744,-0.125355,0.718136,-0.007899,-0.290738,-0.334409,-0.257381,-0.449217,0.126437,-0.436467,0.786023,-0.336438,0.7267,-0.061115,0.078701,-0.43404,0.332418,-0.344011,-0.542826,0.533054,-0.762332,-0.180838,-0.381835,0.294669,-0.030424,0.102902,-0.421863
real,0.436998,0.057815,0.222038,0.548649,-0.114775,0.253583,0.27645,-0.076652,0.033945,-0.6184,-0.132279,-0.385847,0.64012,0.42362,-0.972676,0.286387,-0.01168,0.039453,0.108941,-0.884285,-0.062937,0.024895,-0.077351,0.301943,0.515282,-0.076298,0.603241,-0.385959,-0.397705,0.461351,0.031877,0.170812,-0.547557,0.113816,-0.065968,-0.138309,0.091115,0.102702,0.324001,0.048574,-0.063592,0.007182,-0.256153,0.471153,0.392666,0.058318,0.100626,-0.177419,-0.02879,-0.418445,-0.120344,-0.651543,0.152638,-0.073148,-0.128458,-0.075693,-0.159163,0.31226,0.031156,0.123183,0.019005,0.099658,-0.443693,0.077687,0.396498,0.598914,0.179339,-0.32291,0.409071,-0.006562,-0.382384,-0.317267,0.558393,0.688103,0.091052,0.087712,0.094833,0.100097,0.754976,-0.161116,0.008296,0.34243,0.198773,-0.387266,0.077666,0.407804,0.29741,-0.055813,0.17728,-0.154213,-0.087895,0.186661,0.265431,-0.458576,0.443213,0.239839,-0.011246,-0.619891,0.031318,0.506419,0.078729,0.32929,-0.241308,0.145165,0.18626,0.898635,-0.164091,-0.519177,-0.318831,-0.529796,-0.196092,0.433279,0.181641,-0.590052,0.143471,0.039828,-0.109461,0.54655,0.270166,-0.036788,-0.199611,0.165396,-0.111363,0.227428,-0.143231,0.56373,-0.108274,-0.084913,0.102702,-0.020643,-0.313073,-0.068242,-0.179133,0.662913,-0.016071,-0.267942,-0.0813,-0.670743,0.37604,-0.332004,-0.306469,0.38081,0.165762,-0.24235,-0.134521,0.208723,0.925807,0.283908,-0.369884,-0.263552
property,0.229864,0.101845,-0.170587,-0.231468,-0.274591,0.526774,1.309337,-0.126783,-0.327819,-0.025357,-0.140817,-0.746034,0.104153,0.170593,-0.062814,-0.199071,0.041784,-0.48157,-0.107423,-0.350271,0.26155,0.379115,-0.695162,-0.004024,-0.027572,1.073378,0.494656,-0.206611,-0.767951,0.867363,0.268923,0.304971,0.015545,-0.174003,-0.12496,0.202935,0.109935,-0.276245,0.444907,-0.167813,-0.284443,-0.267148,-0.880024,0.202041,-0.175689,0.675459,0.11311,-1.048884,-0.100248,0.800151,-0.336388,0.188587,-0.060265,0.026431,0.126852,0.723186,-0.377284,0.244829,0.155833,0.497924,0.0791,1.064683,-0.046893,0.420026,-0.840918,0.205397,0.34742,0.31185,0.378856,0.009903,-0.206594,0.089272,-0.080238,0.285835,-0.111149,-0.024565,0.354898,-0.152411,0.350059,-0.178119,0.144699,0.816637,0.365634,0.789685,0.734286,0.386868,-0.346865,-0.389714,0.226567,0.014313,-0.598161,0.87222,-0.250823,-0.033388,-0.039814,0.351125,0.099254,-0.333412,-0.038196,-0.429862,0.046671,0.482273,0.064682,-0.327787,0.21922,0.546134,-0.15801,-0.197895,-0.004355,-0.764871,-0.675872,0.162502,0.707638,-0.659054,0.423634,-0.220948,-0.075183,0.18875,0.325913,-0.589044,0.025496,0.111119,-0.453213,0.078539,0.439642,0.50728,0.058645,-0.191899,0.358238,-0.142188,0.14315,-0.073489,0.043752,-0.214338,-0.361808,0.035538,0.211737,0.014011,0.169795,-0.369018,-0.168208,0.052823,0.615671,-0.506503,0.946234,-0.028378,0.224393,0.555512,-0.193705,-0.051136
geometry,-0.259438,0.818912,0.151025,0.018977,-1.114022,0.590021,-0.824676,-0.273864,0.19166,-0.798085,-0.027265,-0.172706,0.060275,0.733608,0.075585,-0.121299,-0.385792,0.193412,0.370215,0.282952,0.924323,0.22141,0.000154,-0.824426,-0.397703,-0.304144,-0.017051,0.632765,-0.068889,-0.418303,0.602628,0.386993,-0.006372,0.305435,-0.572512,-0.328407,0.123796,-0.126733,0.32884,0.20122,-0.306697,-0.093149,-0.38071,-0.644813,0.625612,0.285729,1.130979,-0.636282,0.058957,0.903067,0.187534,-0.257728,-0.185099,-1.012166,0.174856,-0.118377,-0.12614,0.054284,0.846934,0.838517,-0.56706,0.441518,-1.070156,-0.310606,0.038984,0.551795,0.230087,0.337547,0.300677,-0.063514,-0.526276,0.345665,0.11112,-0.09184,-0.087757,0.314302,0.604623,0.117248,-0.220222,0.526687,-1.346904,1.073949,0.279895,0.362722,-0.151044,0.099907,0.027948,0.042981,-0.581379,0.287712,0.078719,0.408144,-0.128936,0.483506,1.252866,-0.012945,-1.01116,-0.448963,-0.479633,-1.033156,-0.363585,0.856624,-0.493231,0.034508,0.361164,-0.104391,-0.123344,-0.200002,0.423826,-0.71843,-0.423228,-0.377087,-0.42615,-0.336415,-0.067551,-0.0327,-0.203353,0.563316,0.080626,-1.062013,-0.719931,0.046892,-0.0472,0.009075,0.514597,0.103976,-0.278663,-0.053488,-0.2285,0.560759,0.384702,0.648962,-0.668707,0.58753,-0.441063,0.922784,0.095796,-0.027872,0.581795,0.352079,-0.433462,0.792128,0.552344,-0.720863,-0.616763,-0.256619,-0.466784,0.640806,-0.824172,0.874677
complex,0.684361,0.628655,-0.216513,-0.01881,-0.28275,0.154155,0.636364,-0.630609,-0.286633,-0.102075,-0.745918,-0.606288,0.188548,0.053401,0.147991,0.013636,-0.325087,-0.000304,-0.302164,-0.536522,0.571971,0.35806,-0.264163,-0.026274,0.505245,0.539514,0.087265,-0.196284,-1.125375,0.060612,0.09095,-0.22203,-0.327246,0.443366,0.2097,-0.236359,0.335293,0.341539,0.282167,-0.234803,-0.678128,-0.409319,0.032838,-0.221409,0.002516,-0.212705,0.655299,-0.257757,-0.744998,0.26589,-0.567062,-0.130543,-0.202361,0.240648,0.374562,0.103423,0.192103,-0.372164,0.045362,0.606756,-0.764942,0.670476,-0.646018,-0.117547,-0.373211,0.749943,0.152542,0.133909,-0.193429,0.35945,-0.048518,-0.142074,0.045289,0.253704,-0.262101,0.228109,0.030667,-0.268502,-0.283177,0.139687,-0.23947,0.460164,-0.177906,-0.463694,-0.055602,0.181221,0.103212,-0.318344,-0.243617,0.246191,-0.127944,0.572328,-0.359673,-0.439435,0.233828,-0.171524,-0.06305,-0.219807,-0.122378,-0.524641,0.544103,0.118725,0.083,0.233532,0.461158,0.11697,-0.086567,-0.349347,0.394872,-1.021535,-0.141082,0.235227,0.135899,0.053209,-0.143312,0.099845,0.271067,0.4134,0.357987,-0.643298,-0.572116,-0.206705,0.059977,-0.091837,-0.20908,0.006173,-0.068808,0.180001,-0.511326,0.21519,-0.129266,-0.024472,-0.377791,-0.194333,-0.103696,-0.002087,-0.308053,0.76923,0.87133,0.192551,-0.226095,0.085466,0.775382,-1.025598,0.722952,0.023189,0.315248,0.681771,-0.91212,-0.055593
linear,0.313906,0.19065,-0.761948,0.075681,-0.079393,-0.280209,-0.443118,0.416663,-0.325214,-0.821523,-0.86842,-0.099193,-0.311948,-0.192622,0.484101,0.238875,-1.023319,0.491539,0.671568,-0.214927,0.385373,-0.163779,0.012433,-0.474883,0.095574,-0.146934,0.067697,-0.121253,-1.287093,0.381067,0.073487,0.939393,-0.461637,-0.272983,-0.689737,-0.164474,-0.497682,-0.099329,-0.739973,0.768315,0.234682,-0.729818,-0.307143,-0.545643,-0.479857,0.379969,1.171862,-0.004839,0.340836,0.648415,-0.659936,0.003822,0.23591,-0.237692,0.566496,0.131519,0.392262,-0.760119,0.319968,1.580359,0.32305,-0.21544,-1.013663,-0.109902,0.403232,0.866672,0.599542,0.45346,-0.501063,-0.762532,-0.10297,-0.902214,-0.437746,0.422019,-0.704382,0.802342,0.418345,0.475925,-0.333324,0.145759,-1.315234,1.37129,-0.89613,0.140062,-0.083218,0.137965,0.977981,0.591611,0.710109,-0.365705,-0.79047,0.199082,0.054941,0.840588,-0.056163,-0.098402,-0.431175,-0.151382,-1.276422,-0.483468,0.236493,0.901346,0.050284,-0.431396,-0.558684,-0.353374,-0.877162,-0.545298,0.960859,-0.493194,-0.196775,0.260294,0.239817,-0.124891,0.992257,0.13767,0.716367,-0.00306,0.205613,-1.602987,-0.999252,-0.683947,0.298121,0.17374,-0.322318,1.007559,-0.509082,-0.261036,-0.165675,0.095654,0.345632,-0.777209,-1.144062,0.070949,-1.021493,-0.469633,0.203113,-0.111331,0.362857,0.373991,0.295921,0.513504,0.411689,-0.760855,0.315721,-0.246378,-0.571341,0.667586,-1.520061,0.666791
polynomial,-0.002774,0.287388,0.110907,0.076853,-1.195973,-0.551789,0.382547,-0.614657,-0.731292,-0.998927,-0.670705,0.142289,-0.478532,-0.00057,-0.78643,-0.588423,-0.79583,-0.567357,0.420289,-1.297673,-0.545218,1.560681,0.333203,-0.718819,0.447233,-0.900982,-0.832639,0.296733,0.707904,0.542784,-0.093082,1.512732,-0.178415,0.651455,0.442693,0.039021,0.535087,-0.643096,0.19562,-0.003758,-0.457006,-0.421726,0.056539,-0.920014,0.462251,0.344371,-0.320982,-0.178563,0.413307,0.675692,-0.407374,-0.022455,-0.138667,-0.021373,-0.168002,0.012138,-0.038541,-0.359983,0.50307,2.025567,0.17599,-0.094083,-1.388999,0.062261,-0.060853,0.771888,1.93434,-0.240387,1.137136,0.389407,-0.522845,-0.449805,-0.629849,0.166545,0.071473,0.791136,0.570263,-0.370014,0.202898,0.022714,-1.734908,0.855052,-0.080818,0.349361,-1.671416,-0.066365,0.2498,-0.593055,-0.494475,0.469309,-0.282258,-0.268671,0.484363,0.079257,0.666422,-1.060885,-0.862084,-0.030716,-0.039007,-1.295719,0.058548,-0.185412,-0.162532,-0.624736,-0.00425,-0.19086,-0.422592,-0.781513,0.720659,0.593047,-0.162386,0.523072,0.901488,-1.015993,-0.358551,0.075272,-0.593801,-0.427755,1.011692,-0.246532,-0.594003,-1.275633,0.64228,-0.455606,0.582585,0.455539,-1.312124,0.042638,0.396664,-0.265163,-0.505272,-0.081202,-1.321226,0.125799,-0.317892,-0.097415,0.36554,-0.059566,0.46229,-0.600943,0.080466,1.444578,0.21562,-0.667006,-0.328377,-0.038537,0.767629,0.872205,-1.183318,0.107353
algorithm,0.012866,-0.492628,-0.414897,-0.600097,-0.742769,-0.828394,0.159248,-0.800163,-0.134018,-0.787943,-0.484116,0.42794,-0.166355,0.348473,-0.320088,-0.292986,-0.552975,-0.067931,-0.342456,-0.529858,-0.044095,0.32263,-0.096711,-0.358064,0.497303,-0.089653,-0.703857,0.082896,-0.172505,-0.134092,0.194991,1.562144,0.270239,0.077794,-0.763998,-0.2932,-0.142852,-0.772936,-0.362653,0.140368,-0.574766,-0.287785,0.505671,0.025651,0.36961,0.463227,0.846667,0.315482,0.437898,0.008332,-0.369181,0.05733,-1.253176,-0.227477,0.094469,0.644713,1.026135,-0.057085,0.37396,1.549932,0.027988,-0.883199,-1.150436,0.619729,-0.893424,0.815877,0.874441,0.613844,1.069474,0.125344,-0.321086,-0.370518,0.037696,-0.178386,-0.047688,0.578486,-0.288637,-0.352599,0.731596,0.103082,-1.871802,1.337807,0.503613,0.135247,0.172349,0.021883,0.744004,0.470898,0.131473,0.295362,-0.747112,-0.324793,0.100777,-0.218293,0.553429,-0.042778,-0.239888,-0.086199,-0.030978,-0.169306,0.451132,-0.434521,0.541011,0.618697,0.068706,0.470645,-0.994791,-0.766871,0.286287,-0.071602,-0.168391,0.23343,0.560621,-0.703237,0.707173,0.232027,-0.082321,-0.122719,0.825692,-0.494663,-0.137589,-0.474931,-0.477763,0.351847,0.470783,0.668959,-1.445174,-0.247129,0.175368,0.226246,0.012785,-0.147329,-0.224346,0.861801,-0.184276,0.737786,0.313091,-0.087432,-0.297959,0.25749,-0.137161,1.046886,-0.713305,-1.554007,-0.729125,-0.542711,-0.136576,0.083865,-0.437096,0.089226
mathematician,-0.38214,0.798349,0.563019,-0.044996,-0.025656,-0.296425,-1.039152,-0.306764,0.850188,0.097855,0.006385,0.391425,0.604825,0.13634,-0.030378,0.316951,-0.380735,0.224365,-0.285626,0.651905,1.050748,0.411067,0.004746,0.076022,-0.347094,0.047591,0.030163,1.328152,1.52041,0.189088,0.695759,-0.104252,-0.097774,0.929237,0.411172,0.065633,0.570733,-0.573018,-0.595673,0.965122,-0.817237,-0.110189,-0.084244,-0.000936,0.397789,0.726775,-0.575008,-0.43375,0.462963,0.408282,-0.153645,-1.115419,-0.301729,-0.70257,0.711258,0.756696,0.133622,-0.046724,1.000956,1.37365,0.120013,-1.051967,0.647056,0.125188,-0.499034,0.169671,1.004143,-0.16613,0.314222,0.11347,-0.018972,-0.453438,0.143662,0.597395,-0.454783,0.670528,0.428232,0.224664,0.100642,0.14201,-0.382235,0.413153,-0.006092,0.504736,0.302566,0.414687,-0.488072,0.423525,-0.854525,-0.253884,0.44193,-0.666725,0.372619,-0.478977,1.433346,-0.642269,-0.53427,-0.400629,-0.314863,0.439354,-0.658479,0.049237,-0.858491,0.010034,0.169417,-0.266616,-0.349966,0.044273,0.706218,-0.215264,-0.552836,-0.670287,0.325137,-0.606283,-0.024534,-0.208841,0.130801,-0.10651,-0.616284,-0.695794,-1.618347,-0.062629,-0.779897,0.065918,0.405371,0.888798,-0.633343,0.181549,-0.314102,-0.157157,-0.56311,0.218917,-0.029327,0.96961,-0.227575,0.512952,0.540723,0.095691,0.817953,0.493958,-0.748377,0.342749,0.435005,0.799033,-0.682152,-0.643576,-0.078628,0.363757,0.039004,1.103607
definition,0.19751,0.465257,-0.334058,-0.205822,-0.13263,0.209632,0.1348,-0.522734,-0.41946,-0.86022,-0.184437,-0.229859,0.049992,0.494693,-0.506017,0.28983,-0.436151,0.375247,-0.028082,-0.328533,-0.106962,0.356161,-0.221722,0.166823,-0.082778,-0.272591,0.382077,0.333287,-0.588686,0.145234,0.075034,1.033625,-0.558941,-0.266912,-0.506711,-0.140861,0.410361,-0.23663,0.317399,-0.324917,0.351064,0.046253,-0.072616,0.070148,0.244619,0.452286,0.498485,-0.438063,0.059664,0.626125,-0.340756,-0.450912,-0.238557,-0.328124,0.41933,0.193947,0.263544,0.225669,0.090187,0.467002,-0.167254,-0.573126,-0.734305,0.046241,-0.674588,0.192065,0.013764,0.611851,0.44323,-0.306131,0.069653,-0.333632,-0.661893,-0.34257,0.236866,0.125351,-0.101071,-0.035317,0.416451,0.139441,-0.714549,0.633642,-0.469758,0.273966,-0.074014,0.352006,0.232586,0.38256,-0.624722,0.29432,-0.441645,0.065191,0.034761,-0.436845,0.368336,0.869205,0.24562,-0.263849,-0.096009,-0.362025,0.434996,0.478881,-0.408562,-0.050958,-0.109764,-0.256514,0.194325,0.184182,-0.038659,-0.489651,-0.273794,0.22102,0.401734,-0.523302,-0.279033,-0.478693,-0.182474,-0.141829,0.174324,-1.111254,-0.327544,0.132773,-0.302449,0.32452,0.265919,0.378348,-0.326245,-0.369395,0.276695,0.066972,0.066337,-0.018726,-1.465991,-0.175975,0.004082,0.365349,0.386589,-0.947708,0.175156,-0.512654,-0.160272,0.453668,1.157865,-0.696028,0.105732,0.118426,0.553014,-0.036162,-0.389055,-0.18294
product,0.221975,-0.627509,-0.00351,-0.409872,0.073543,0.491358,0.583876,0.649912,-1.014199,-0.214389,-0.226234,-0.791895,0.244227,0.042643,-0.291506,-0.153353,-0.216917,-0.477264,0.600493,-0.782331,0.003189,0.057232,-0.300858,-0.217968,0.163613,0.021895,-0.055776,0.467207,-1.280163,-0.498342,0.380041,0.729112,-0.423721,-0.116143,0.440955,0.355296,-0.324617,0.208796,-0.138871,-0.085886,0.184506,0.657619,-0.163617,0.61734,-0.164287,0.362224,0.321695,0.011927,0.101887,1.050964,0.340581,-0.629202,0.014508,-0.149326,-0.31747,-0.513518,0.03988,0.168708,0.087909,0.315874,0.021899,0.734629,-0.13879,0.326167,-0.181462,0.298184,-0.096982,-0.164047,0.564691,-0.256119,0.449015,-0.367467,0.394996,0.470624,-0.937297,-0.443784,0.464305,-0.185739,0.600542,0.310989,-0.543475,0.739571,0.183378,-0.535402,0.759615,-0.284979,0.288542,-0.374281,0.026412,-0.040169,-0.074672,-0.1053,-0.166308,-1.370526,-0.249275,0.500154,0.297021,0.270194,-0.497018,0.0238,0.466503,0.571456,-0.010772,-0.023315,0.163048,0.773988,0.075954,-0.519393,0.225038,-0.669916,-0.417048,0.28475,0.177425,-0.679725,-0.597044,-0.090247,-0.030622,-0.098356,0.169581,-0.436469,-0.531455,-0.265434,-0.010716,0.370455,-0.468585,0.06685,-0.327452,0.349464,-0.0822,0.005931,0.257283,0.238849,-0.064947,0.109627,-0.203014,0.51944,0.644681,-0.215652,-0.371978,-0.989925,-0.192489,-0.062978,0.575915,-0.882269,0.306538,0.391789,0.819373,-0.118595,0.044889,0.459463
state,0.150041,0.238062,0.406164,-0.5626,-0.35164,0.076788,0.546055,-0.281357,0.437911,0.170276,-0.704978,-0.087518,-0.116255,0.245961,-0.053206,-0.016616,-0.525732,-0.543882,-0.364891,0.344464,-0.236468,0.003021,0.326418,0.75302,-0.036256,0.761442,0.587939,0.020147,-0.382317,0.519847,0.337821,0.114394,-0.3317,-0.29647,-0.071877,-0.311556,-0.15161,0.120694,-0.094554,-0.481851,0.198426,-0.048394,-0.085905,-0.828389,-0.293781,-0.486517,0.234062,-0.243954,0.237741,-0.179364,0.099441,-0.246921,0.158018,0.134131,0.236693,0.042752,0.228635,-0.164275,-0.146088,0.562314,-0.44258,-0.390208,0.313942,0.231773,0.061476,0.693358,-0.345027,0.330056,0.095464,-0.115599,-0.15386,0.251453,-0.203209,0.333879,0.315734,0.036047,-0.44832,-0.238642,0.187939,-0.037339,0.615605,0.286746,-0.148201,-0.449205,0.662371,0.327967,-0.173724,-0.528699,-0.067368,0.007193,0.053668,0.02746,0.088508,-0.35197,-0.04612,0.466493,-0.684047,-0.061367,0.196656,0.12314,0.502223,0.110149,-0.12036,-0.004002,0.236093,0.39246,0.024149,0.186068,-0.002889,-0.162644,-0.159658,-0.325288,0.106627,-0.536413,-0.120701,-0.283677,-0.204924,0.030577,-0.026645,-0.791227,0.02581,0.276348,-0.211693,0.331389,0.296701,0.084752,-0.103775,0.147289,-0.080854,-0.710861,0.093905,0.307335,0.628744,-0.83541,-0.041186,-0.104202,-0.194872,-0.015659,-0.283321,0.054813,-0.068469,-0.078078,0.812166,1.048221,0.412951,0.352632,0.564934,0.151976,-0.62555,-0.366654
sequence,0.801631,-0.086806,0.56978,0.085867,-0.379012,-0.397329,0.265277,0.095518,-0.232571,-0.590633,-0.847336,0.19577,0.338572,0.049234,-0.311869,0.176426,0.006727,0.162696,0.213277,0.011129,-0.116756,0.604395,0.498775,0.112113,0.659294,-0.192198,-0.21814,-0.273343,-1.440011,-0.524765,-0.035547,-0.18149,-0.215593,0.545317,-0.384737,-0.257068,0.780508,-0.327513,-0.039925,-0.650721,-0.225012,-0.505795,0.58682,0.471707,0.221414,0.114918,0.339001,0.426424,-0.186361,0.725947,-1.230406,0.116733,-0.128635,-0.039308,-0.008713,0.406619,0.60893,0.14036,-0.158462,0.774311,-0.455403,0.416849,-1.126412,0.23798,-0.730725,0.643271,0.65596,0.108354,1.146666,-0.133726,0.12188,-0.114162,-0.055155,-0.353146,-0.27425,0.477857,-0.845995,-0.079982,-0.293163,-4.4e-05,-0.794322,-0.011475,-0.207171,-0.338868,-1.274226,0.750354,0.679046,0.077414,-0.44429,-0.296021,-0.07677,-0.300823,-0.273172,-0.082855,-0.518654,-0.090608,0.192451,-0.027657,-0.37396,-0.145482,1.098598,-0.037009,-0.099094,0.098378,0.148623,-0.24982,-0.005568,-0.386446,0.906995,-0.191973,0.185953,-0.321339,0.327452,-0.493848,0.121733,0.010164,0.408425,-0.186048,0.275673,-1.007953,-0.315498,-0.196921,-0.531374,0.204267,0.179722,-0.105169,-0.178288,0.089966,-0.066721,0.279799,0.240735,-0.225068,-0.710219,-0.077713,-0.889794,0.055728,-0.677547,0.239144,0.266483,0.212589,-0.077545,0.204691,-0.516581,-1.667755,-0.640803,-0.359691,0.652115,0.140271,-0.432521,-0.18367
distribution,-0.141234,-0.088383,0.472374,-0.739135,0.518478,0.20878,-0.510112,0.573198,-1.318422,0.131219,-0.587296,0.092844,-0.310888,0.162369,-0.286604,-0.515958,0.088197,-0.190452,0.550594,-1.107798,-0.101511,0.451047,-0.52696,0.157469,0.263102,-0.221487,-0.15956,-0.271878,-0.885629,-0.219488,-0.018252,0.998796,0.252251,-0.637102,-0.068272,-0.063583,-0.221405,-0.55886,0.154217,0.110222,-0.300649,-0.263562,-0.082256,0.602963,-0.546494,-0.037864,0.928172,-0.459589,0.505174,-0.00014,-0.413127,-0.125033,0.076505,-0.257649,0.552458,-0.404617,0.267278,0.563116,-0.426902,0.431354,0.178048,-0.150868,-0.669341,0.303327,-0.631749,-0.290568,-0.291502,0.44217,0.538789,-0.967497,0.153875,-0.469112,-0.26352,-0.347751,-0.194453,0.187468,0.424013,0.144841,0.257779,0.391056,-0.099518,0.94945,-0.106352,-0.001772,0.123356,-0.404339,-0.371306,-0.327876,-0.343426,-0.172985,-0.082801,-0.363904,0.383082,0.135439,0.74647,0.557187,-0.411861,-0.439454,0.156451,-0.549565,0.708613,0.933972,0.676518,0.36917,0.610786,-0.295131,0.154544,-0.234464,0.983541,-0.666858,0.343255,0.451073,0.729715,-0.197339,0.301204,-0.354235,-0.130042,-0.78567,-0.053183,-0.670952,0.164318,0.4475,-0.007016,0.222988,-0.247541,0.174223,-0.556877,0.172172,0.704538,-0.346201,0.086807,-0.183098,-0.425943,0.245702,-0.419193,-0.213337,0.577857,-0.631268,0.378494,-0.695594,0.357904,-0.198651,0.439342,-0.614155,0.584283,1.008232,0.084411,0.559538,-0.179224,-0.081062
variable,0.4658,0.41414,0.300236,-0.519258,-0.221171,0.383949,-0.255243,0.356562,-1.118165,-0.297849,-0.426077,-0.218786,-0.082174,-0.206081,-1.011501,0.394216,-0.159659,0.015555,0.09734,-0.622172,-0.481608,0.400093,0.546454,-0.696824,0.813447,-1.055654,-0.602924,-0.73114,-1.594844,0.344814,-0.050618,1.428729,-0.344085,-0.796246,-0.887603,-0.522375,-0.339685,-0.369647,-0.08402,-0.094566,-0.340206,-1.151897,0.393654,0.305055,0.248395,-0.078364,0.791078,-1.038006,0.439461,0.049684,-0.694492,-0.499218,-0.629962,0.058907,-0.001364,-0.306608,0.062224,0.036854,-0.177191,0.646544,-0.323684,-0.112518,-0.772898,0.39292,-1.211022,-0.12159,0.694585,0.323781,0.287009,0.369085,0.019345,-0.253475,-0.906329,-0.484936,0.157105,0.626643,0.191486,-0.461552,0.413935,0.392152,-0.71071,1.036058,-0.13429,-0.092767,-0.742361,-0.103556,0.306245,0.317259,-0.596067,0.328253,-0.308908,-0.235262,0.913155,0.501031,0.624697,-0.300696,0.071168,-0.124592,-0.354413,-0.636999,0.121729,0.77235,0.246384,-0.383011,-0.440261,-0.188384,0.33851,-0.704352,0.928902,-0.723647,-0.03485,-0.214353,-0.05215,-0.60201,0.272664,-0.419134,0.450543,0.213529,-0.190335,0.009337,-0.254345,-0.087141,-0.092203,0.247587,-0.050746,0.58506,-0.228279,-0.127206,0.530079,0.330878,0.453117,0.170013,-0.493833,0.241979,0.030902,-0.134293,-0.190145,-0.240141,0.053948,-0.356207,-0.125599,0.358056,0.385473,-1.054579,-0.355772,-0.436958,-0.051843,0.250091,-0.524603,-0.167864
solution,0.237203,0.020778,-0.287699,-0.052097,0.064416,0.145821,0.052501,-0.743663,-0.479567,-0.542657,-0.459986,-0.225093,-0.542958,0.166043,-0.513965,-0.101653,-0.492851,0.04825,0.14792,-0.549479,0.052363,0.487836,-0.551934,-0.918595,-0.240127,-0.04111,-0.301728,0.513965,-1.011902,0.151922,0.330422,1.110043,-0.07545,-0.654799,0.174647,0.440819,0.625305,0.119741,-0.574843,0.052188,-0.012409,-0.042816,-0.207161,-0.086611,-0.3087,0.015037,0.679547,-0.398394,0.708653,1.203693,-0.462294,-0.484899,-0.867782,-0.367844,0.580208,-0.347141,0.543099,-0.04792,-0.062706,0.363543,0.062095,0.702282,-0.516211,-0.427672,-0.304243,0.528251,0.444496,-0.22183,-0.048062,-0.354014,0.464889,-0.410332,-0.127921,0.416982,-0.406084,0.24363,0.127327,0.145741,0.741605,0.061409,-0.837117,0.944223,0.439384,-0.374687,0.288621,-0.167656,0.26414,-0.102175,0.278164,0.714287,0.037892,-0.381272,-0.393754,-0.953462,0.175248,0.517455,-0.26719,-0.235686,-0.190431,-0.291414,0.061782,0.301786,-0.045515,0.591279,0.135898,0.875128,-0.212612,0.098714,-0.106043,-0.672369,-0.563112,0.256992,-0.045181,-0.571236,0.140225,0.103172,0.010942,0.170313,0.59446,-0.118215,-0.017325,0.162553,-0.246076,0.269618,0.203095,-0.08326,-0.435667,0.290611,-0.322322,-0.313026,-0.149587,0.331014,0.130827,0.185105,-0.33891,0.206032,0.957889,-0.322381,-0.109335,-0.174726,-0.313578,-0.013813,0.260964,-0.873252,0.044462,-0.267129,0.415575,0.446494,-0.848429,0.369719
square,-0.222626,0.496978,-0.517706,0.209889,0.109338,-0.450097,-0.212855,0.672482,0.075035,0.311748,-0.349007,-0.385495,0.3651,0.173544,-0.089405,-0.000766,-0.393904,-0.499246,-0.30414,-0.045745,-0.566026,0.012282,0.239886,-0.093879,0.000606,0.349428,0.167309,-0.413772,-0.139613,-0.289615,0.011929,0.022563,0.554658,0.857785,0.084207,0.052978,-0.253585,-0.231093,0.368732,-0.131673,-0.606473,0.193498,-0.87107,0.186648,-0.040308,0.329225,0.015653,-0.493145,-0.562757,0.271289,-0.121396,0.003547,1.321499,0.200932,0.356486,0.196107,-0.484349,-0.33967,0.210108,1.002801,-0.13892,0.601004,-0.639817,-0.872599,0.277096,0.330069,-0.083699,-0.25221,0.202186,-0.324957,0.067717,-0.549751,-0.880511,-0.214867,0.085801,0.237626,0.297629,0.237754,-0.395028,0.372192,-0.271544,0.232922,0.016372,-0.209468,0.52013,0.109229,-0.112045,0.151217,-0.43463,0.103046,0.139947,0.960685,0.498896,0.970046,0.21694,0.330967,-0.44432,-0.107351,-0.003648,-0.462643,0.512333,-0.369613,0.636709,-0.033653,0.013848,0.780154,-0.377387,-0.091304,-0.131474,-0.349996,-0.434626,0.758091,0.332116,-0.243309,0.314574,-0.183095,-0.050251,-0.103082,0.598487,-0.260531,0.113557,0.275902,0.121894,-0.219947,-0.015262,0.964561,-0.250742,0.295636,-0.219186,-0.109982,0.099779,0.239161,-0.082342,1.19313,-0.28573,0.402908,-0.252167,-0.157834,0.089192,-0.141967,-0.301866,-0.336067,0.43233,-0.772845,1.228895,-0.432387,-0.414839,1.09551,-0.976672,-0.216457
map,0.412636,0.242694,0.182624,-0.467617,-0.385773,-0.008992,0.122171,-0.373155,-0.400201,0.480144,0.063244,-0.577351,0.888524,0.398074,-0.561158,-0.28684,0.116875,0.076913,-0.223816,0.392399,-0.053434,0.224878,0.113574,0.820832,0.195044,0.172606,0.075757,-0.350046,-0.591874,-0.156657,0.72323,-0.368971,-0.240033,0.207545,-0.99019,0.079038,0.096805,0.357037,0.736464,0.173634,-0.096087,0.797348,0.024774,-0.50547,0.346345,-0.198988,-0.239183,0.333048,0.228833,0.190344,-0.027722,-0.770196,0.302957,-0.62444,0.003427,0.308553,0.381994,0.57934,-0.449525,0.808831,-0.554079,0.203082,-1.101963,0.035813,-0.691934,0.270998,0.03789,0.331889,0.825947,-0.538094,-0.314039,-0.240114,0.038067,0.904625,0.490167,0.622549,0.117836,-0.128215,0.34668,-0.142994,-0.406268,1.258886,0.05763,-0.017871,-0.183835,-0.667705,0.836765,-0.254481,0.105189,-0.055608,0.429094,0.169805,0.25419,-0.282832,-0.297763,0.824868,-0.138571,-0.282063,-0.462573,-0.521477,-0.435016,-0.05176,-0.366246,-0.622465,0.42965,0.200426,0.608394,-0.032745,0.496125,-0.333145,0.628326,0.005696,-0.059153,-0.813916,0.204478,-0.440867,0.158128,-0.004255,-0.154069,-0.827903,0.088988,0.831877,0.141435,0.647292,-0.079335,0.339306,0.39679,0.16106,0.21688,0.077614,0.022316,0.234453,-0.423506,0.410528,0.497256,0.24883,0.277469,0.237217,0.61835,0.015181,0.615987,0.520345,0.333779,-0.686521,0.315167,0.13461,-1.041722,0.141715,-1.505621,-0.223144
class,1.076845,0.264493,-0.643785,-0.02245,-0.325153,-0.05206,-0.26018,-0.113447,-0.853908,-0.421188,-0.625805,0.202323,0.211009,-0.597979,-0.071168,-0.093018,0.334429,-0.501574,0.103691,0.269242,-0.239668,0.198464,0.29757,-0.574198,0.067224,-0.046052,0.140435,-0.017998,-0.025764,0.729006,0.811103,0.282787,0.174761,-0.161965,0.370579,-0.613268,-0.511683,0.239246,0.143993,-0.180794,0.451216,-0.10113,-0.125392,0.048454,0.270246,0.107514,-0.167476,-0.335167,0.258227,0.234506,0.335015,0.297314,0.317256,0.422187,-0.764084,-0.116588,0.388309,-0.052853,-0.118017,0.06804,-0.709461,-0.492171,0.065315,0.675059,-0.972069,0.513284,0.551122,-0.090416,0.483804,-0.159986,-0.20981,0.252966,0.068612,-0.190811,-0.072524,-0.133028,-0.488089,-0.911462,-0.441794,0.470419,0.422219,0.708518,-0.506494,-0.449267,-0.531168,0.1225,-0.59784,0.745442,-0.359465,-0.299955,-0.1152,-0.214579,0.10715,0.018663,-0.198284,-0.298696,-0.151343,-0.11108,-0.253177,0.071586,-0.019841,-0.524604,-0.081092,0.383355,-0.239416,0.47651,0.646923,0.383179,-0.076433,-0.331531,-0.593412,-0.599927,-0.787208,0.017289,-0.720092,0.007328,-0.338237,0.605066,0.829117,-0.958348,-0.161275,0.165041,0.282247,-0.15972,-0.247586,0.149603,-0.217949,-0.382429,0.02464,0.441133,-0.054512,-0.211754,-0.163267,-0.350786,-0.521791,0.249453,0.333642,0.20868,-0.215932,-0.130843,-0.239189,-0.000643,0.90296,0.226912,0.510417,-0.130025,0.862268,0.082116,0.058555,-0.645224
integer,0.192819,-0.127512,0.133723,-0.35031,-0.630596,0.029493,-0.324036,0.093628,-0.608984,-1.25883,-0.579147,-0.513232,-0.393353,0.61581,-0.77274,-0.119316,-0.703915,-0.427664,0.202153,0.455959,-0.471309,0.554538,0.191419,-0.365114,0.154525,-0.714417,-0.415379,0.20251,-0.636536,0.456224,-0.554888,1.081523,-0.155855,-0.176483,0.342879,-0.133433,0.64499,-0.764891,0.021695,0.150889,-0.271948,0.235056,0.138101,-0.559824,0.518578,0.367547,-0.015721,-0.681863,0.574745,0.025982,0.034927,0.419743,-0.729057,0.005543,0.659283,0.487809,-0.412731,-0.205013,-0.300254,1.1662,-0.575613,-0.216414,-1.572546,0.08112,-0.336842,1.253348,2.139596,-0.16496,1.272752,-0.254051,-0.455873,-0.387585,-0.968306,-0.15727,-0.026356,-0.067058,0.617479,-0.588626,0.59248,0.264133,-1.431467,0.208918,0.3956,-0.607554,-0.26115,0.128227,-0.361496,0.127768,-0.889317,0.635204,-1.089777,-0.042511,0.394198,0.220093,0.736308,-0.45388,-0.520783,0.068013,0.165499,-0.757377,0.097877,-0.200949,-0.334615,-0.296264,-0.580242,-0.003341,-0.248052,-0.137862,0.199444,0.276941,-0.247489,-0.052517,0.881574,-0.609119,0.519061,0.072006,0.058745,0.474254,0.084693,-0.95427,-0.347075,-0.868778,-0.447195,0.672422,1.142819,0.088663,-0.226534,0.368383,0.46115,0.488441,-0.732899,0.372894,-0.469326,0.379726,-0.540262,-0.27785,-0.31409,-0.664717,-0.498804,-0.546456,-0.135714,1.046304,0.528877,-1.851303,-0.09804,-0.076753,-0.210537,0.516487,-0.829459,0.177204
mean,-0.169614,-0.236896,-0.229771,-0.337307,0.071357,0.200736,0.373698,0.312858,-0.143893,-0.13494,-0.174531,0.033843,0.006871,-0.018916,0.083508,-0.283884,-0.652747,0.123769,0.313597,-0.614667,-0.372719,0.654202,0.242257,-0.078916,-0.187989,0.024867,0.510049,-0.185613,-1.182424,-0.234418,-0.217669,0.452275,-0.452094,-0.336222,-0.034577,-0.337806,0.268293,-0.32589,-0.14427,0.075795,-0.067192,-0.30432,-0.236405,-0.502792,0.023894,-0.154051,0.071204,-0.251203,0.770789,-0.403597,-0.124592,-0.779164,0.692252,-0.04353,0.256839,-0.200295,0.240394,0.264257,-0.246604,-0.12493,-0.542135,0.253107,-0.677478,-0.022713,-0.527212,0.111401,0.224988,0.188458,-0.287798,0.649445,0.211675,0.152644,-0.334814,-0.599419,0.220508,0.387152,-0.104404,-0.190244,0.281267,-0.179137,-0.038536,0.496184,0.134831,0.132083,0.03222,-0.197648,-0.142577,0.333748,-0.106297,0.329519,-0.523888,0.136821,0.120106,-0.147246,-0.069332,0.078222,0.387385,-0.469194,-0.099709,0.352811,-0.117158,0.078787,-0.165485,0.037608,0.209929,0.013521,-0.256792,-0.131439,0.068486,-0.334823,-0.265056,0.17552,-0.3266,-0.156446,0.24933,-0.068258,-0.388185,0.079179,-0.025719,-0.197167,-0.154797,0.292886,-0.06977,0.434082,-0.242335,0.564313,-0.423569,-0.089995,0.368763,0.248484,-0.046956,0.032676,-0.585485,-0.201804,-0.045364,0.273932,0.222638,-1.025555,0.139726,-0.020452,-0.362115,0.005063,0.021874,-0.531951,0.405731,0.130828,0.688505,0.07866,-0.101137,-0.225779
proof,0.316019,0.036666,0.412758,0.474709,-0.72628,0.357963,-0.065817,-0.32539,-0.442255,-0.931346,-0.148034,0.465906,-0.008312,0.505955,-0.448181,-0.407568,-0.689708,0.400475,0.020446,-0.210536,0.024009,0.656144,-0.118195,0.525007,-0.141792,-0.206408,0.730813,0.485753,-0.426251,0.009616,0.728092,0.65853,-0.745718,-0.185409,-0.292905,0.311105,0.735061,-0.299335,0.061091,-0.44103,-0.403926,-0.369421,-0.196509,-0.169549,0.296129,-0.055295,0.032579,-0.448696,0.673334,1.064147,-0.330765,-0.172631,-0.068596,-0.267379,0.101763,0.260768,0.810503,-0.003155,0.461312,0.851439,0.235722,0.136736,-0.464386,-0.023629,-0.317537,0.007307,0.004125,-0.004729,0.169011,0.304911,0.009521,-0.367311,0.257418,0.315126,-0.036314,0.671714,0.067554,0.578061,0.042939,0.01615,-0.585036,0.833357,0.558804,0.308918,-0.18634,0.092552,-0.681292,-0.630092,-0.60894,0.436732,-0.643321,-0.092505,0.348854,0.134053,0.639794,0.3503,-0.31412,0.45368,0.06366,-0.036054,-0.087464,-0.116008,-0.575953,-0.273512,0.146238,0.271833,0.512945,-0.199909,-0.622548,0.197985,-0.831123,-0.033015,0.659299,-0.295352,-0.061747,0.580279,0.306397,-0.342213,0.274118,-0.052705,-0.584723,-0.433181,0.312792,0.58571,0.410507,-0.088946,-0.29008,-0.171177,0.21709,-0.700246,0.124763,0.463915,-0.34256,0.332635,-0.256322,0.452211,0.379083,-0.434347,-0.224649,-0.535282,-0.319766,0.184259,-0.302779,-0.825317,0.138321,-0.315523,0.278622,0.503936,0.016834,0.001562
three,0.063272,0.136259,-0.263668,0.299379,0.06868,0.020633,-0.159297,0.468114,0.05437,-0.189046,-0.132531,-0.443883,-0.165328,-0.317738,0.443792,0.213943,-0.111158,-0.511429,-0.205351,-0.047517,-0.149614,0.389374,0.083332,-0.313605,0.217802,0.251248,0.777495,-0.365985,-0.220681,-0.129781,0.47546,-0.111905,-0.50404,-0.43454,-0.02921,-0.39295,0.09121,0.100992,-0.145886,0.036069,-0.014284,0.299468,-0.075886,-0.257124,0.385442,0.396127,-0.111006,-0.450929,0.17909,-0.136435,-0.119334,-0.040471,0.680983,0.911103,0.365625,0.08177,0.401975,-0.066546,-0.186203,-0.201295,-0.473197,0.093046,-0.222792,0.09895,-0.110209,0.271782,-0.365888,-0.156673,0.65747,0.29334,0.41852,0.551961,-0.469128,-0.300446,0.185366,0.031623,-0.319813,0.316319,-0.504871,0.390394,-0.105643,0.391067,0.225327,-0.259399,-0.031815,0.340153,0.016691,-0.182981,-0.527457,-0.082784,0.198143,0.01834,-0.223576,0.32415,-0.420501,0.002905,-0.223542,0.164054,0.180878,0.212665,0.335836,-0.040613,-0.015423,0.317216,0.27466,0.295581,0.035262,-0.106393,0.444084,-0.135202,0.126725,-0.051007,-0.679,-0.016888,-0.034928,-0.092483,0.026996,-0.062281,0.345979,-0.227492,0.187414,0.500132,0.011475,-0.093208,-0.556933,-0.1612,0.206943,0.049663,0.070439,0.070456,0.044062,0.097874,0.066545,0.376921,-0.426027,0.119866,-0.505139,-0.020504,-0.059223,0.070562,-0.170687,0.345773,0.018709,-0.054567,0.261159,-0.070433,0.275246,0.217069,-0.094265,-0.489318
dimensional,0.378634,0.171515,-0.030542,0.723739,-0.891069,0.610579,-0.698636,-0.165059,-0.537691,-0.911052,-0.923769,-0.477427,0.156159,0.220771,-0.776688,0.153399,0.107064,-0.262002,0.204201,-0.199486,0.648414,0.336626,-0.212899,-0.53795,0.018995,-0.038573,-0.007486,-0.012079,-0.590548,0.085003,0.410051,0.51129,-0.105037,0.142133,-0.414309,0.070049,0.532595,-0.575764,0.52638,0.057874,-0.079951,-0.180779,-0.242307,-0.270573,0.291514,-0.040888,0.621569,-0.232981,-0.208581,0.541698,-0.266959,-0.08967,-0.250721,-0.707059,-0.075138,0.593633,0.41882,0.32863,0.361882,0.765639,-0.431775,0.192998,-1.184711,-0.316357,-0.032958,0.759229,0.285708,-0.157114,0.123878,-0.065734,-0.090235,-0.03529,-0.359879,0.62466,0.190088,-0.099465,0.088818,0.560128,0.121942,0.997919,-1.445281,0.829696,0.253554,-0.045432,-0.22535,0.510163,0.083349,-0.393783,0.642201,-0.129166,0.06839,0.157866,-0.468222,0.00746,0.259295,0.638933,-0.324429,-0.859363,-0.530779,-0.814663,0.157527,0.595483,-0.309858,-0.355566,0.219806,-0.168374,-0.078271,-0.578195,0.608623,-0.892238,-0.09787,-0.156253,-0.136209,-0.916783,-0.218078,0.714772,-0.28489,0.514445,0.077341,-0.842534,0.0632,0.196899,0.283399,-0.360552,-0.091491,0.728039,-0.387724,-0.256765,-0.302155,0.052219,-0.156067,0.371572,-0.751036,0.643866,-0.625905,0.986005,0.235075,-0.361833,0.23088,0.88843,-0.179163,1.146072,1.120001,-1.684025,-0.350758,-0.155516,-0.169132,0.688273,-0.901223,0.216632
zero,0.483512,-0.245622,0.37752,0.457101,-0.214937,0.029985,0.012364,0.619091,-0.438827,-0.773944,0.446946,-0.604143,-0.028762,0.062166,-0.616995,-0.373753,-0.391303,-0.221236,-0.083207,-0.169673,-0.55835,0.372176,0.407412,-0.3399,-0.521491,-0.348239,0.499042,-0.342958,-0.952761,0.21033,-0.115827,0.915553,-0.000393,-0.296493,-0.240777,-0.143786,0.510256,-0.41522,-0.352258,-0.35768,-0.01586,-0.590205,0.349576,-0.076431,0.347335,-0.072825,0.65015,-0.172502,0.304438,0.286099,0.00703,0.006919,-0.195628,-0.292472,0.162082,0.147293,-0.308385,0.030068,-0.058412,0.693766,-0.341814,0.627485,-0.6814,-0.195782,-0.109276,0.067312,0.168023,-0.730908,0.459381,0.477024,-0.087984,-0.560992,-0.459511,-0.049807,0.293145,0.099618,0.291176,-0.611503,0.559921,-0.030369,-0.337029,0.416868,-0.102656,0.039013,-0.329615,0.487414,-0.092175,-0.120274,-0.137724,-0.140587,0.364822,0.095466,0.301838,0.30342,-0.127251,0.701033,-0.674234,-0.655136,-0.380895,-0.141995,-0.463362,0.077556,0.08907,0.209363,-0.066412,0.003332,-0.167004,-0.251712,0.131041,0.049552,0.086469,-0.067849,0.097839,-0.701673,0.098931,-0.075421,0.241511,0.014206,0.114385,-0.620313,0.108062,-0.336132,-0.375565,0.162214,-0.160105,0.514148,-0.66446,0.158342,0.480719,0.126008,-0.035159,0.187591,-0.043576,0.446918,0.078305,0.157454,0.069409,-0.888856,-0.729343,0.005925,-0.258048,0.2086,0.576679,-0.674514,-0.55727,-0.113771,0.336671,0.795439,-0.327667,-0.65856
algebraic,0.302595,0.774976,0.012553,0.110718,-0.479819,0.270256,-0.765653,-0.359104,-0.518925,-1.184393,-0.02771,-0.113353,0.277911,0.507253,-0.453451,0.073963,-0.199934,0.194773,0.275032,-0.42396,0.892388,0.990541,-0.127116,0.01224,0.447548,-0.336701,-0.113982,1.099175,0.208498,0.598919,0.652904,0.858953,-0.000257,0.599537,0.318025,-0.248464,0.601034,-0.268471,0.675814,0.628303,-1.1362,0.181044,-0.323087,-0.45453,1.268481,-0.299126,0.098851,-0.786824,-0.023178,0.659318,-0.156486,-0.28142,-0.991385,-0.079328,0.529069,-0.089293,0.014867,-0.11081,1.302698,1.678732,-0.209057,-0.603251,-1.062956,0.031902,-0.077113,0.58228,1.263158,0.119687,0.065123,-0.13876,-0.660969,0.360172,-0.291213,0.307053,-0.267123,0.14468,0.178121,-0.347472,0.013612,-0.151827,-1.85028,0.738633,0.295042,0.289769,-0.678512,0.23226,0.083858,0.181214,-0.41938,0.817378,-0.244817,0.38157,0.041425,0.323046,1.12686,0.27792,-0.50239,-0.276385,-0.175378,-0.775732,-0.427698,0.145114,-0.70935,-0.927252,0.082263,0.026803,-0.160174,-0.410556,0.09432,-0.528644,-0.446327,-0.48197,0.51236,-0.567943,-0.623979,-0.162587,0.492865,0.293574,0.194262,-1.639031,-0.854373,-0.728393,0.548945,0.148843,0.931047,0.413688,-0.798467,-0.29699,-0.212863,0.828064,-0.094444,-0.007488,-1.282007,0.106462,-0.36714,0.267836,0.460299,-0.304863,-0.028081,-0.081176,-0.436214,1.515867,0.50693,-0.746618,-0.525195,-0.27626,0.291409,0.45797,-0.364003,1.209771
formula,0.52934,0.205604,0.173507,0.082232,-0.020391,-0.74153,0.085405,0.062515,-0.001215,-0.109476,-0.272932,-0.382562,-0.153647,0.178067,0.521492,0.507672,-1.0199,-0.007835,0.274552,0.030435,-0.123557,0.316025,0.665292,-0.391761,-0.004883,-0.390505,0.364688,0.719973,-0.52732,-0.207654,1.071452,0.798662,-0.061524,-0.27406,0.244016,-0.017545,0.189097,-0.540548,-0.362747,0.386863,-0.632915,-0.718152,-0.249532,0.327533,0.526045,0.890658,0.412618,0.272097,-0.098498,0.162451,-0.769184,-0.400889,-0.223768,0.332859,-0.203819,-0.368217,0.178016,0.830396,0.341256,0.656405,-0.196043,1.507204,-0.177227,0.565949,-0.344198,0.893808,0.396346,-0.368291,1.078251,0.400948,-0.471533,-0.179207,-0.285438,0.081658,-0.185812,-0.214205,0.432423,-0.355579,0.063213,-0.691069,-0.794483,0.530118,0.475676,0.499717,-0.842479,1.004613,-0.787949,0.272918,0.026034,0.673591,0.147071,-0.54386,0.43648,-0.344024,0.625096,0.172899,0.037172,-1.042563,-0.485437,-0.878953,-0.393117,1.166567,-0.241669,0.422427,-0.372364,-0.296674,0.748152,0.024686,-0.671199,-0.320555,-0.300741,0.727895,-0.559659,-0.184073,-0.125548,-0.473444,-0.044935,-0.051055,-0.260094,-0.156407,-0.941621,-0.466963,-0.493006,-0.52945,0.156163,0.120345,-0.328039,0.301481,0.67777,-0.350056,-0.260811,0.350549,-0.504018,0.24016,-0.065813,0.034585,1.28355,-0.645139,-0.22702,-0.507377,-0.084064,0.426403,0.253945,-0.188307,-0.137989,0.193524,0.965655,-0.37777,-0.906918,-0.257771
ring,-0.027241,-0.02841,-0.086689,0.012707,-0.537653,0.439436,0.240677,0.622468,-0.263951,-0.149545,-0.3337,-0.457556,0.367584,-0.12494,-0.816214,-0.006438,-0.070995,0.125647,0.400574,-0.363538,-0.101674,0.351432,0.097241,0.188678,-0.49928,-0.134787,0.274395,0.130865,-0.534894,-0.139489,-0.213754,0.166995,-0.388219,-0.287354,0.630267,-0.691404,-0.355542,-0.019758,-0.511443,-0.763857,-0.434776,0.172743,-0.039112,0.157072,0.231991,-0.483101,-0.035776,-0.357561,-0.724076,0.010524,-0.35838,-0.29761,0.862504,0.473383,0.109057,0.56818,0.068419,0.202497,0.345214,0.012829,-0.3355,0.720634,-0.810731,-0.198217,0.088296,0.352324,-0.322822,-1.084905,-0.05796,0.31539,-0.287731,-0.253492,-0.49988,0.034867,-0.299009,0.203466,-0.330393,-0.110458,-0.776645,0.118666,-0.844986,0.251084,0.151088,-0.181851,-0.247229,0.18468,-0.089864,-0.005398,-0.007805,0.345258,-0.119448,0.696507,-0.573782,0.460621,0.135542,0.452476,-0.448686,-0.26929,-0.51867,0.209001,-0.384528,-0.064367,-0.310576,-0.105126,0.709349,-0.556155,-0.379304,-0.787598,0.408469,0.194681,-0.544517,-0.192109,-0.054325,0.128426,-0.045042,-0.016065,0.041662,0.114067,0.40822,-0.530154,-0.701225,0.11966,0.457675,-0.235187,-0.443803,-0.168619,-0.479958,-0.120242,0.148467,-0.030984,0.231793,0.431146,-0.4097,-0.023506,-0.265668,0.175033,-0.410495,-0.241317,0.219044,-0.059255,0.099512,0.312761,-0.742108,-0.436114,-0.257441,-0.06491,-0.023994,0.624551,-0.352828,0.216165
edge,0.135677,-0.165123,-0.21727,-0.236723,-0.010962,-0.353521,-0.322056,0.209997,-0.206354,-0.25743,-0.23969,-0.04837,0.133882,-0.182276,0.047746,0.11968,-0.050236,0.251621,0.522822,-0.20464,-0.147709,0.171742,0.037021,0.261038,-0.640451,0.514919,-0.454242,0.085699,-0.733691,-0.133274,-0.112408,0.207762,0.188119,-0.360786,-0.162094,-0.657055,-0.064066,-0.043943,-0.339101,-0.449482,0.047192,-0.002086,-0.091531,-0.165721,0.025807,-0.090935,-0.073946,-0.156345,0.167097,0.01702,0.077735,-0.14068,1.1228,0.659577,-0.001206,0.571145,0.12167,-0.09295,-0.057474,0.133773,-0.763827,0.273455,-0.620705,-0.731958,0.296554,-0.191663,-0.921037,-0.193713,-0.070305,-0.096309,0.001316,-0.796066,0.142121,-0.322559,-0.054628,0.112298,0.098456,-0.164605,-0.352248,-0.254653,-0.749349,0.946354,0.503034,-0.076552,0.847419,-0.020554,0.088764,0.078763,-0.080613,0.441724,0.360743,0.565434,-0.143552,0.538708,0.158108,0.093895,-0.542789,-0.404626,-0.513654,-0.172563,-0.045018,0.097392,-0.106468,-0.050634,0.560969,-0.1617,-0.456331,-0.064661,0.426445,-0.508934,-0.209617,0.105812,-0.276167,-0.439494,0.170137,0.280592,-0.102218,0.141362,-0.00378,-0.600539,0.540549,0.375548,-0.003499,0.068426,-0.251136,-0.306801,-0.145109,0.091599,-0.176804,0.335318,0.609104,0.045613,-0.014653,0.519822,-0.068832,0.017333,-0.052893,0.065677,-0.018624,-0.169896,1.024995,0.777279,0.375234,-1.063198,-0.56354,-0.347854,0.00171,0.913289,-0.797583,0.079018
sum,-0.498958,0.071319,0.582118,0.279194,-0.406523,-0.099233,-0.242433,0.088237,-0.186787,-0.438379,-0.16558,-0.510114,-0.066436,0.069213,-0.158378,-0.575988,-0.335025,-0.301346,0.528451,-0.278241,0.217618,0.131617,0.051345,0.333952,0.093381,-0.221773,0.142843,-0.417718,-0.267976,-0.017301,0.376393,0.618479,-0.165184,0.23131,0.092083,-0.287036,0.6154,-0.542664,0.40838,0.269189,-0.230283,0.034545,-0.159619,0.298211,0.803611,-0.292315,0.388569,-0.879371,0.565844,0.426307,-0.358963,-0.035915,0.059113,0.134519,0.306032,0.496699,0.266226,-0.073439,-0.33716,0.09595,-0.460249,0.875047,-0.244345,0.544558,-0.175617,0.006794,1.316565,-0.2052,0.521838,0.06468,0.03801,-0.139608,-0.881558,-0.336707,0.166483,-0.159587,-0.027102,-0.047304,0.191509,-0.436306,0.0284,0.723108,0.327001,0.66051,-0.384524,0.337884,-0.240773,-0.019716,-0.078572,0.492675,-0.777604,0.749108,0.476658,-0.091331,-0.498411,0.218252,-0.282262,-0.760732,0.129858,-0.025045,0.414195,0.430574,-0.226304,-0.80521,-0.402815,0.421817,-0.101441,-0.226727,0.399281,-0.013756,-0.555229,0.343203,0.554202,-0.512699,0.525849,-0.025069,-0.445814,0.025931,0.566592,-0.062903,-0.44565,-0.571227,0.155151,0.000364,0.21842,1.297601,-0.357265,0.32082,-0.052841,-0.281592,-0.514592,0.027251,-0.177464,0.760055,-0.952949,-0.596973,-0.025231,-1.084837,-0.256829,-0.146839,-0.740702,0.19043,0.577308,-0.762782,0.358883,-0.162201,0.812985,0.693564,-0.575111,-0.3777
plane,0.35828,0.101245,-0.010107,1.385939,-0.737855,-0.262165,-0.034006,-0.166305,-0.619298,-0.522342,0.647077,-0.750541,0.236129,0.662184,0.191854,-0.128265,-0.392929,0.086841,0.907797,0.273794,0.388069,-0.052422,0.318879,-0.175364,-0.461472,-0.41962,0.33853,-0.11816,-1.09455,0.37405,0.111786,0.163791,-0.405698,-0.200392,-0.012436,-0.188025,0.064437,-0.274399,0.739168,-0.222069,-0.183339,-0.203219,-0.306298,-0.148343,0.255531,0.523088,0.753763,-0.161742,-0.098718,0.574173,0.254558,-0.127246,0.004785,-0.607191,0.102005,0.300221,0.156074,0.29554,-0.029506,0.102655,-0.734358,-0.096777,-0.487244,-0.563955,0.056383,-0.263861,-0.085441,-0.221041,0.108797,0.735318,-0.230316,-0.434795,-0.257516,-0.252451,0.208319,-0.411859,0.139629,0.225446,0.113838,0.915816,-0.352191,0.447502,0.893906,0.142044,-0.490916,-0.293666,0.008289,0.008499,-0.194737,0.3552,0.890758,0.052954,0.174477,1.170648,0.091305,-0.080819,-0.87942,0.026421,-0.468007,-0.015484,0.227568,-0.051553,0.184478,-0.577631,1.119372,0.268333,0.284278,0.008151,0.865865,-0.090672,-0.196658,-1.035676,-0.98107,-1.140504,0.140814,0.165684,-0.067537,-0.252378,0.163555,-0.015337,-0.160456,0.829268,-0.326655,-0.019256,-0.23937,-0.073338,-0.216908,0.207816,-0.092711,0.174372,-0.671981,0.328164,-0.049584,0.526949,-0.404177,0.40616,-0.115029,0.183409,0.614291,0.112022,-0.01548,0.656629,0.704803,-0.862253,-0.045545,-0.354556,0.082485,0.401677,-0.693405,0.082617
analysis,0.704503,0.735415,-0.155401,-0.20763,-0.355174,0.580964,-0.226254,-0.723762,-0.388605,-0.167421,-0.606449,0.507127,0.188635,0.856326,0.426185,0.523811,0.198265,0.225475,-0.110493,-0.778006,0.224134,0.52049,-0.124491,-0.028871,0.534109,-0.38251,-0.121112,0.190355,-0.963817,-0.157045,0.35752,0.565529,-0.12846,0.003799,-1.113689,-0.153159,0.63184,0.180362,0.058859,0.076944,-0.122469,-0.265117,0.249387,0.148673,0.154261,0.322976,1.197669,-0.128965,0.393956,0.637611,-0.513017,-0.20558,-0.621698,0.081925,0.173874,-0.135268,-0.048204,-0.170014,0.200075,0.623016,0.135366,-0.20952,-0.395928,0.854718,-0.074964,-0.129648,0.557655,0.940879,0.215684,0.038299,0.108434,-0.502855,-0.150527,-0.118243,-0.203129,0.473987,-0.148564,0.326916,-0.058286,0.049263,-0.755132,1.355074,-0.480632,0.121329,-0.262692,0.091074,0.444145,-0.011459,0.262028,0.101987,-0.133363,-0.471209,-0.009946,-0.992285,0.047952,0.73894,0.26525,-0.098327,-0.047664,-0.598954,0.546048,0.266377,-0.062913,0.124593,0.665538,0.49198,-0.278556,-0.581262,0.51936,-0.820569,0.157048,-0.319457,0.283975,-0.059523,-0.381541,0.20837,-0.377558,-0.330245,0.212258,-0.304039,-0.510852,0.377537,0.032481,0.179218,0.215379,0.134789,-0.37259,0.296337,0.183749,-0.078075,0.204081,0.264547,-0.42073,0.283309,-0.16563,0.400746,0.068756,0.027105,0.269223,0.169797,-0.338145,0.598475,-0.461686,0.075872,-0.220294,-0.133898,0.262796,0.486274,-0.100425,-0.184814
dimension,0.117161,0.168613,-0.455257,0.621316,-0.410037,0.60452,-0.418553,0.05338,-0.296798,-0.888339,-0.128778,-0.320264,0.383226,0.15327,-0.780165,0.357747,-0.274644,-0.042509,-0.201915,-0.019995,0.41824,0.192684,-0.261904,-0.518513,-0.128847,-0.549912,0.149723,-0.178102,-0.911701,-0.075217,-0.170601,0.410636,-0.096542,-0.331305,-0.376935,0.063183,0.68865,-0.312644,0.073854,0.121167,-0.190327,0.127677,-0.324106,-0.051233,0.316248,-0.398723,0.555894,-0.30976,-0.062591,0.192376,0.04784,0.009681,0.217346,0.171668,-0.090111,0.584044,-0.108637,0.517042,0.317284,0.712065,-0.217231,-0.244658,-0.803028,-0.501307,-0.132529,0.325186,-0.010615,0.312575,0.058779,-0.155424,0.085256,-0.171079,-0.20395,0.336422,0.071229,0.052793,0.057605,-0.308568,-0.315856,0.676559,-0.964955,0.855532,-0.157395,-0.015971,-0.225293,0.472537,-0.269327,-0.309419,0.181051,-0.099824,-0.002286,0.124497,-0.069918,0.442003,0.543394,0.11893,-0.161232,-0.837809,-0.071615,-0.355028,0.086755,0.611734,-0.078438,-0.080635,-0.329453,-0.272543,0.077804,0.490565,-0.306012,-0.507504,0.450507,-0.110217,0.019774,-0.299624,0.095565,0.275458,-0.779663,0.530377,0.278007,-0.716785,0.111986,0.071935,0.71735,-0.028063,-0.208733,0.751253,-0.042878,-0.402588,-0.210067,-0.415797,0.070188,0.117053,-0.557623,0.579623,-0.571303,0.780825,0.119645,-0.627512,0.077807,-0.097422,-0.534882,0.830675,1.233009,-1.110339,0.080986,-0.253806,0.097441,0.510181,-0.289932,-0.344032
curve,0.35455,-0.131413,-0.378645,0.016545,0.327478,-0.243015,-0.579718,0.160325,-0.502704,-0.166457,0.257343,0.524131,0.443645,0.344477,-0.307819,0.423965,0.274091,0.45027,0.687192,-0.214031,0.793049,0.565406,0.826009,-0.0935,-0.563354,-0.203193,-0.07964,0.210208,-0.940782,0.555126,0.586364,1.515962,0.411266,-0.21573,0.039751,-0.718985,0.442207,-0.678136,0.221341,0.55265,0.025496,0.1241,0.197315,-0.611979,0.609196,0.209742,0.519025,-0.315444,0.081569,0.49526,0.234996,0.022185,0.923267,0.025352,0.314378,0.284773,0.110937,-0.000568,0.182877,1.077532,-0.725735,0.100767,-1.236794,-0.37077,-0.014402,0.275184,-0.124965,-0.38929,0.29851,0.465559,-0.219146,-0.304209,-0.471981,-0.037959,-0.048433,0.375055,0.15657,0.261694,-0.631516,-0.419101,-1.451242,0.39205,0.075228,0.004331,0.224677,-0.422444,0.034482,0.088586,-0.135134,0.669867,0.027567,-0.207142,0.027905,0.589634,0.969055,-0.099532,-0.457972,-0.475438,-0.888833,-0.337283,0.33632,0.882423,0.495466,-0.58934,0.505146,0.185464,-0.448901,0.039878,-0.016346,-0.144188,0.207502,-0.642144,0.050915,-0.876788,0.196476,0.017367,-0.484013,-0.109377,-0.10915,-0.078307,0.179788,-0.221896,-0.427214,-0.039374,1.039756,0.554084,-0.415728,0.377231,0.571701,0.480958,0.809096,-0.173917,-0.2197,0.26683,0.087031,0.480643,0.25583,0.292223,0.073886,0.036702,0.574676,0.064303,1.066549,-1.259586,-0.239613,-0.021149,0.015449,1.316652,-0.464357,0.756799
type,0.831268,-0.09877,-0.142153,-0.511108,-0.324701,0.385713,0.216557,0.193774,-1.02755,0.065378,0.038067,-0.406821,0.232428,-0.566786,-0.218689,0.214848,0.027003,0.155141,0.257064,0.091316,-0.223128,0.31523,0.400626,-0.296968,0.282924,-0.412773,0.187326,0.213119,-1.708254,0.287104,0.244385,0.117425,-0.468724,-0.719524,-0.166228,-0.638543,-0.437002,-0.0878,0.227304,-0.201239,0.48986,-0.370397,-0.129526,0.279314,0.034428,-0.053244,0.438248,-0.487523,-0.009979,0.287195,-0.081957,-0.188019,0.177481,0.168142,-0.181065,-0.016186,0.342296,-0.183123,-0.083376,-0.052135,0.013522,-0.22248,-0.750167,0.446234,-0.859063,0.033349,0.124648,0.301041,0.156899,0.05063,0.325195,0.232909,-0.003707,-0.894313,-0.201897,0.165027,0.180339,-0.553717,-0.326067,0.944744,-0.452492,0.695141,0.404314,-0.64678,-0.127794,-0.044881,-0.340296,0.384481,-0.133213,-0.520514,-0.294022,-0.392678,0.284821,-0.434887,-0.207195,-0.038634,0.559474,0.313006,-0.278477,-0.039127,0.073751,0.050625,-0.046784,-0.247593,0.347842,-0.431817,0.45026,0.049123,0.425196,-0.774592,-0.756006,0.15606,-0.331353,-0.33824,-0.10621,-0.095226,-0.049637,0.291931,0.226269,-0.045929,-0.552612,-0.000539,0.026882,-0.214063,-0.256732,-0.17952,-0.400829,-0.117125,0.186941,0.416976,-0.207199,0.154707,-0.799151,-0.248583,-0.367997,0.575369,0.053877,0.081379,-0.047012,-0.006781,-0.055394,-0.239008,0.542698,-1.157047,0.186962,-0.01089,-0.164072,0.032266,-0.175314,-0.502307
operator,0.980511,0.027644,0.185216,0.684202,-0.923967,-0.340279,-0.146048,-0.342275,-0.781448,-0.486279,0.379438,-0.839741,0.207672,-0.209722,-0.541819,-0.24556,-0.253818,0.26292,0.811822,-0.431473,0.1171,0.394184,-0.074675,-0.789663,0.402483,-0.880497,0.456157,-0.308184,-0.988771,0.094842,0.746333,0.769226,-0.041225,-0.078534,0.286575,0.345681,0.042403,-0.264938,0.18247,0.335019,0.207697,-0.292065,-0.164021,0.486931,-0.201422,0.57133,-0.24001,-0.063058,-0.14906,0.022898,-0.730073,-0.727892,-0.892162,-0.524671,0.238565,0.76104,-0.073197,0.322649,-0.41052,0.467231,-0.350021,-0.448994,0.347403,0.102865,-0.751354,0.127618,-0.04747,0.195384,-0.092797,-0.074879,-0.119442,-0.677442,-0.401854,-0.083531,-0.569668,0.451748,-0.439629,-0.263096,0.041537,0.594699,0.3911,0.484343,0.25224,-0.632611,0.209699,-0.414252,-0.224875,0.239995,-0.109185,0.061839,0.114018,0.154695,0.185692,0.045778,0.341054,-0.030084,-0.511709,0.239488,-0.235787,0.375838,-1.18685,0.067512,-0.117157,-0.519905,0.131839,0.750459,0.007332,-0.554575,0.573277,0.789149,-0.770284,-0.392235,-0.356646,-0.456884,-0.025401,-0.484469,0.481052,-0.579845,0.584049,-1.226449,-0.117376,0.398472,-0.123886,0.131743,-0.203092,-0.049056,-0.517265,0.611463,0.176686,0.052745,0.037629,-0.437139,-0.141229,0.244717,-0.047154,-0.456369,0.470096,0.080997,-0.191057,-0.810063,-0.239173,0.324706,0.784733,-0.758346,-0.024315,-0.171266,0.186706,0.736578,-0.556806,0.303195
