word,1,2,3,4,5,6,7,8,9,10,11,12,13,14,15,16,17,18,19,20,21,22,23,24,25,26,27,28,29,30,31,32,33,34,35,36,37,38,39
number,0.008323,-0.13125,-1.008311,-0.019523,0.942398,-0.703666,-0.160336,0.569946,0.992872,-0.099345,-0.254112,-0.286217,-0.435466,0.518383,-0.059007,0.144424,-0.494474,1.026855,0.144119,0.463002,0.389021,0.690675,0.088612,0.41678,-0.219214,-0.124262,0.065505,0.225324,0.426376,0.022123,-0.151117,-0.741266,0.29044,-0.86984,-0.781058,-1.419056,-0.132611,0.112165,0.322028
function,-0.205864,0.57199,-0.174456,-0.230959,0.070466,-0.835145,-0.397263,0.486108,1.320094,0.204068,0.289447,0.102102,-0.249615,1.528286,-0.738606,0.623527,0.123906,0.864955,1.435429,0.307086,-0.627008,0.505831,-0.573509,-0.796402,-0.035812,0.357078,0.27544,1.808985,0.986868,-1.086419,0.216729,-0.464661,0.205177,-0.644755,-0.3872,0.372989,0.858609,0.11119,0.435644
one,-0.063337,-0.156353,-0.723965,-0.141253,0.112593,-0.581095,-0.048881,0.394818,0.455051,-0.254529,0.302569,-0.006105,0.436794,-0.13417,0.186096,0.803832,-0.123775,0.917788,-0.181771,0.213103,0.111536,0.574556,-0.196282,-0.195724,0.115285,0.351411,0.195523,0.364986,-0.055292,-0.054189,-0.326384,-0.45532,-0.046146,-0.653429,-0.756987,-1.111837,0.296627,0.352376,0.006029
set,0.41492,0.298961,-0.567189,-0.177657,0.091564,-0.458095,0.238448,0.415464,0.195362,0.231623,0.431683,0.429816,0.539769,0.139599,0.00708,0.513374,-0.283793,0.999564,0.269956,0.351745,0.435502,0.914536,-0.152039,0.094077,-0.402548,0.141108,0.163079,0.192156,0.572289,-0.12168,-0.084076,-0.605957,-0.199088,-0.835016,-0.38693,-0.987611,0.23775,0.003263,-0.055288
group,0.311162,-0.373341,-0.842846,0.729226,0.440032,-0.572061,-1.168417,-0.447949,0.490859,-0.754317,-0.214828,-0.379286,0.424342,-0.250131,0.110121,0.748829,-0.206829,1.366878,0.039885,-0.38789,0.110355,0.232758,-0.712008,-0.00547,-0.036069,-0.178002,0.496278,0.46763,0.258472,0.003235,-0.1135,-0.089044,0.180958,-0.545181,0.428588,-0.387093,0.16101,0.063516,0.575663
space,0.648178,0.744479,-0.515142,-0.121907,-0.763459,-0.005243,-0.72591,-0.015993,0.282197,0.408266,0.608201,-0.043298,0.412424,0.972261,0.078711,-0.218812,0.488099,1.651869,0.40727,-0.182673,-0.502129,0.941021,-0.365976,-0.523698,-0.220264,-0.419984,-0.043918,0.286216,0.906335,-0.155101,-0.37563,0.191107,-0.01296,-0.521298,-0.209844,-1.241472,1.320542,-0.427396,0.105924
two,0.045605,-0.077592,-0.627389,-0.067835,0.026455,-0.694412,0.156199,0.508066,0.494331,-0.325854,-0.010457,0.150801,-0.050743,-0.313029,0.084875,0.505962,-0.168339,1.458955,-0.119347,0.083139,-0.244639,0.865307,-0.252267,0.090911,0.047841,0.603094,0.464911,0.073384,0.005181,-0.090558,-0.40791,-0.394637,-0.108266,-0.519114,-0.738726,-1.148271,0.686703,0.411815,0.031603
theory,-0.174948,0.962141,0.247187,0.182352,-0.497266,-1.315884,-0.509627,0.074821,0.860751,0.818162,-0.333527,-1.499169,1.986435,1.754467,0.820454,0.62664,0.312437,0.205003,1.269292,0.404306,0.218015,1.169452,0.371732,-0.505995,0.298964,-0.095618,0.188862,0.683043,0.951183,0.343704,0.367552,0.066079,-0.094417,-0.324913,-0.478935,1.155256,0.446001,-0.396457,0.361379
point,0.361798,0.527499,-0.598778,-0.641751,-0.764214,-0.555177,-0.016111,0.026812,0.932026,0.164462,-0.131911,-0.927689,-0.307035,-0.677164,-0.007024,0.096449,-0.278154,1.030333,0.009853,0.392111,0.617439,1.214948,0.243153,-0.079759,0.128501,0.176499,0.258028,-0.060571,-0.081932,0.086724,0.616475,-0.118257,-0.358073,-0.15234,-1.640023,-1.106908,0.416958,0.251425,-0.235064
theorem,-0.933268,2.075376,1.009575,-0.265057,0.487444,-0.489944,0.146001,-0.015531,0.647237,0.582659,1.219195,-0.379278,0.335609,1.343219,0.505554,0.097443,1.102878,-0.683681,1.416927,0.148147,-0.328319,0.752753,0.810741,-0.314586,-0.342528,-0.09266,0.34447,0.024243,0.80124,0.486584,1.314164,-0.75334,0.215587,0.775222,-1.190714,1.42336,1.363605,-0.146065,-0.758714
example,0.229169,0.334029,-0.226085,-0.101345,0.533186,-0.367109,-0.221097,0.502345,0.827527,-0.11235,0.322185,-0.548098,0.686417,1.601023,-0.12659,0.360949,-0.082285,0.940206,0.600239,0.123622,0.234033,0.229044,-0.363809,-0.142263,0.235056,0.68559,-0.117898,1.182026,0.383931,-0.672792,0.237283,-0.346929,0.124755,-0.774921,-0.847568,-0.444694,-0.040531,0.118174,0.022527
form,0.024084,-0.023582,-0.042075,0.435549,0.39018,-0.57624,-0.140333,-0.156104,0.746766,-0.826114,-0.215183,-0.553534,0.725096,0.471272,0.074207,0.501716,-0.167364,1.621333,0.32558,-0.010129,-0.577043,0.102829,-0.029294,0.169098,0.379163,0.713985,0.491741,1.283915,0.015044,-0.528721,-0.274883,-0.396665,-0.085904,-0.31702,-0.399502,-0.578842,0.515286,-0.062169,0.141586
define,0.488877,0.596882,-0.221081,-0.096366,0.233376,-0.300762,-0.547494,0.092084,1.167187,0.211547,-0.497401,-0.999546,0.393185,1.169968,-0.263339,0.346609,0.073902,0.518011,0.518949,-0.015902,-0.31968,0.580291,-0.173862,-0.238591,0.020211,-0.094009,0.033057,1.562094,0.567509,-1.009428,1.055325,-0.342126,0.194121,-0.718138,-0.971931,0.076949,0.414793,-0.249243,-0.130472
graph,-0.10581,2.022036,0.330393,0.273417,-0.133236,-0.209198,0.322018,-0.474572,0.734999,0.288547,0.963282,-0.669955,-0.685845,1.473975,-0.660791,-0.159816,0.399495,-0.281136,1.219678,0.383965,0.305916,0.800171,-0.071308,-0.165302,-0.438059,-0.136191,-0.05074,0.436667,0.531741,-0.259725,1.000893,-1.125602,0.809329,-0.395661,-1.072059,0.808259,1.420307,-0.893207,-0.246317
value,0.578612,0.400479,-0.819876,0.270051,0.833268,-1.016213,-0.828495,0.186648,1.082133,0.022345,0.300605,-0.98603,0.649643,0.877551,-0.383921,-0.498796,0.229784,-0.254407,0.930601,0.015029,0.325894,0.613734,-0.233821,-0.887805,0.015337,0.085,-0.652779,1.075829,1.526766,-0.253973,0.716845,-0.427611,-0.051647,-0.676515,-1.598506,-0.544626,-0.078809,-0.07439,-0.170265
problem,-0.247091,0.275099,-0.740971,-0.525775,-0.598003,-0.599153,0.079783,0.113036,0.984364,0.692294,0.332874,-0.373038,1.12911,0.55193,-0.738878,0.726716,0.318902,0.563074,1.283444,0.756091,-0.10416,0.740831,-0.303317,-0.223588,0.580286,-0.106617,0.076628,0.729246,0.698534,0.203106,0.619659,0.631288,-0.194704,-0.766096,-0.504822,0.261795,0.05246,0.066001,0.425419
mathematic,-1.142561,0.886551,0.660384,0.758003,0.450258,-0.903964,-0.367425,-0.125728,0.893436,1.917735,-0.123618,-0.801547,-0.01759,0.90101,0.31848,0.539481,-0.134667,-0.752153,-0.231746,0.606273,0.284966,1.401565,-0.050556,-1.471945,0.884085,0.311503,-0.344766,0.252176,0.791846,0.465644,0.093996,0.146444,-0.167041,-0.112303,0.312151,0.325373,1.785481,-1.015224,-0.023999
order,-0.17123,-0.3103,-0.665788,0.020701,-0.238719,-0.169457,0.085454,0.977842,0.14298,-0.40653,-0.159914,-0.164097,0.230674,0.00533,-0.147465,0.709149,-0.59147,0.482612,-0.110495,-0.031465,-0.784664,0.745482,-0.188974,0.082444,-0.289278,0.507266,0.050999,1.23374,1.151955,0.082887,-0.026314,-0.550609,-0.392688,-0.620719,-0.426607,-0.380583,0.059229,0.572623,0.741594
equation,-0.941984,1.71323,0.253903,-0.339969,0.262966,-0.844595,-0.050254,0.279724,0.488889,0.193134,0.887193,-1.049922,-0.064155,1.299503,0.787925,-0.205423,1.652363,0.398034,1.647751,0.730502,-0.844116,1.235683,0.725607,-1.010448,0.682179,-0.022516,-0.264499,0.45477,1.319626,0.163276,0.928991,-0.605723,-0.089099,0.245981,-1.274571,1.605459,1.464705,-0.417966,-1.048941
first,-0.270545,-0.293972,-0.272834,-0.206393,0.223461,-0.832532,-0.062037,0.135002,0.152172,0.110898,0.201712,0.15876,0.024034,-0.678705,0.278637,1.068973,-0.480074,1.068797,-0.537916,0.198283,0.160983,0.962863,-0.446908,0.08194,0.022349,0.383017,0.372798,0.00898,0.27749,0.443703,-0.533367,-0.552938,-0.106506,-0.260606,-0.19078,-0.685709,-0.094497,0.084587,-0.041644
vector,0.187862,1.139188,-0.544323,-0.018943,-0.399146,-1.437555,-0.295958,-0.13512,0.240183,-0.166137,0.371662,0.271676,-0.898163,1.903503,-0.243408,-0.388137,0.506455,0.952254,0.968655,0.379219,-0.571004,0.724548,-0.070703,-0.641845,-0.090072,-0.395317,-0.199249,0.761,0.534072,-0.442377,0.92275,-0.340372,0.537684,-0.376238,-1.231461,1.327815,1.073826,-1.071539,0.13948
algebra,-1.1785,1.406872,1.205518,0.800988,0.074387,-0.975485,-0.647271,0.031489,0.917183,1.095972,0.118828,0.352568,-0.391834,1.461695,0.153469,-0.251828,-0.029615,-0.402489,0.836821,0.555408,-0.085032,0.936045,1.284625,-0.606275,0.436627,-0.15485,-0.124161,0.115394,1.111421,-0.449861,1.030835,-0.617734,0.471648,-0.173591,-0.476615,0.925731,2.465831,-0.682657,-0.344313
$\mathbb{N}$,0.377445,0.285499,-0.408483,0.54581,0.197092,-0.324894,-0.387202,0.804074,0.884104,-1.047391,-0.235164,-0.299888,-1.18806,0.353923,0.484419,-0.204167,0.419882,1.744036,0.593267,0.043505,0.488616,-0.58008,0.559632,-0.279033,0.199043,0.022987,-0.723989,-0.260903,0.522973,-0.239325,0.000251,-0.866812,0.847207,0.209144,-0.152169,0.496456,0.199925,0.263001,-0.618651
field,-0.553713,0.792974,-0.956042,-0.613006,-0.014159,-0.653421,-0.727862,-0.502174,0.506182,0.402829,-0.125803,-0.731621,-0.096092,-0.273221,0.022558,0.103527,-0.002763,1.379776,-0.350356,0.586296,-0.08606,1.144444,-0.018998,-0.481017,0.075794,0.692501,-0.028712,0.010164,0.162893,-0.141534,0.05064,-0.076903,-0.58639,0.179821,-0.195012,-0.23815,1.042555,-0.445774,0.90162
element,0.209834,0.249825,-0.073424,0.169638,0.000558,-0.163104,-0.371383,-0.191307,0.301483,-0.186398,0.49282,-0.872396,0.829999,1.811197,0.646012,-0.052901,-0.514607,1.556477,0.718043,0.416181,0.002693,0.186137,0.001803,-0.280322,-0.007627,0.551945,0.112414,1.019045,0.796167,-0.922961,-0.23151,-0.609836,-0.485044,-1.061475,-0.182565,-0.427594,0.462488,-0.016557,0.000177
system,-0.181374,0.370634,-0.675771,-0.16164,-0.264977,-0.38125,-0.250022,-0.232807,1.061368,0.684063,0.112156,-0.042408,0.103144,1.085291,-0.18764,-0.0073,-0.323105,1.650796,0.864716,-0.08216,-0.448389,1.501425,-1.239207,-0.672308,0.562379,-0.324995,-0.112576,1.872097,0.548073,-0.526222,0.711666,-0.40213,0.420482,0.134799,0.204713,-0.449009,-0.006604,-0.402681,0.276664
matrix,0.457669,1.088987,0.00389,0.040416,0.42365,-0.884037,-0.163612,-0.289437,0.376149,-0.520359,0.664347,-0.081605,-0.230313,1.643614,-0.283677,-0.730788,-0.143904,0.903108,1.494355,0.409748,-0.502565,0.33841,0.802536,-1.004905,0.307215,-0.146765,0.497301,0.076469,1.003302,-0.370774,0.293543,-0.98493,0.526479,-0.393664,-0.735697,0.846612,1.175737,-0.531347,0.129508
mathematical,-0.850496,1.170776,0.574317,-0.100242,0.295201,-0.529253,-0.537715,-0.277445,0.791706,1.412812,0.436618,-1.141213,0.329393,1.673577,0.213847,0.286154,-0.151892,-0.41964,0.360861,0.710942,0.254861,1.312133,-0.119397,-1.270182,0.120177,0.348054,-0.16201,0.36474,1.028586,0.845315,0.392431,-0.267413,-0.018587,-0.090046,-0.207118,0.993589,1.574943,-1.304258,-0.260146
method,0.169049,0.833597,-0.805094,-0.544312,0.104013,-0.68294,0.078294,0.082563,1.124261,0.71522,1.031183,-0.966896,0.345281,1.950747,-0.456834,0.42854,-0.169425,0.667975,1.133165,0.296544,-0.075621,0.907068,0.087808,-0.73628,0.380831,0.809188,-0.488359,1.207579,0.414133,-0.083185,0.5798,-0.099025,-0.33115,-0.586815,0.129517,0.480783,0.047313,-0.622419,0.280207
finite,-0.500819,1.260125,0.075239,0.512895,0.392099,-0.367439,0.227616,-0.133084,0.997052,0.325137,0.726153,-0.316836,-0.003605,1.645762,0.203292,-0.39549,0.449017,0.434746,1.065462,0.646101,-0.464593,0.716818,1.145147,-0.64879,0.546624,-0.794227,-0.06936,0.797569,1.427533,-0.331176,1.52308,-0.567151,0.174935,-0.438323,-1.344591,1.146407,1.849181,-0.66193,-0.226167
result,0.21645,-0.280313,-0.77798,-0.857969,-0.058787,-0.794652,-0.010726,-0.310097,1.051651,-0.05844,0.441895,-1.068688,-0.16633,-0.593069,-0.48388,0.851223,-0.299846,1.232873,0.660942,0.843036,-0.443265,0.615717,-0.278175,0.090463,0.037016,0.108974,0.849075,0.627786,0.525336,0.255943,0.340723,-0.095589,-0.379634,-0.529312,-1.02798,-0.012753,-0.664952,0.244593,0.193019
vertex,0.253998,0.932784,0.513522,0.768263,-0.677988,-0.1668,0.366142,-0.705062,0.529372,-0.58395,0.473688,0.05078,-0.862669,1.24294,-0.76196,-0.72787,0.285218,-0.149695,1.027678,-0.25034,-0.74265,0.191876,0.160728,-0.358261,-0.570641,5.6e-05,0.768163,0.148925,0.453422,-0.656282,0.573477,-1.0228,1.045161,-0.217695,-1.669552,0.184446,2.497362,-0.473528,-0.637756
term,-0.25354,0.34982,-0.40937,-0.283305,0.486847,-0.609767,-0.398212,0.212844,1.145872,-0.112735,-0.084005,-0.784861,0.996571,0.273539,-0.051208,0.885892,-0.135602,0.238721,0.499877,0.142633,-0.640019,0.435466,-0.411029,-0.077267,0.120491,0.165859,-0.076758,1.308395,0.412416,-0.255175,0.346397,-0.470364,-0.37672,-0.711319,-0.705538,0.031541,-0.28968,-0.055851,-0.062418
line,0.135267,0.123213,-0.133257,-0.05495,-0.190289,-0.140049,0.934623,-0.271124,0.506762,-0.290037,-0.626279,-0.033593,-0.016751,-0.201049,-0.022781,-0.129588,0.198487,1.709915,0.758551,0.161325,0.407273,0.88795,-0.888387,0.481572,0.154127,0.349983,0.084756,0.767568,0.02446,-0.40194,-0.29837,-0.314845,0.146145,0.313403,-0.776354,-1.557588,0.823669,0.442577,-0.326064
model,0.436378,0.952172,-0.757632,0.472378,0.128292,-0.616691,-0.713744,0.522093,0.343262,0.760792,-0.037851,0.207037,0.551212,1.219713,0.105712,-0.471864,0.115949,1.256243,0.736856,0.307823,-0.338281,1.202009,-1.312222,-0.56945,0.454538,0.149375,0.429348,-0.172594,0.578392,-0.23421,0.640586,-0.426449,0.15045,-0.218774,0.086154,-0.183346,-0.374862,-0.115974,-0.600345
real,0.722681,0.01899,-0.586033,-0.60159,0.240932,-0.321995,-0.466225,-0.289169,0.308841,-0.516176,0.524649,0.497283,1.322372,-0.07804,0.101515,0.614658,0.071257,0.416297,0.06758,0.611914,0.568618,0.227737,-0.81798,-1.126475,0.330345,-0.405932,-0.204872,-0.005868,0.857483,0.353142,0.435109,-0.448465,0.346607,-0.79628,-0.691307,-0.10869,0.475302,0.123659,0.098632
property,0.877171,0.449704,0.062558,-0.837366,0.788731,-0.241167,-0.74784,0.168581,0.763222,-0.190031,0.044973,-0.280961,0.735645,0.473861,-0.541358,-0.129018,0.714011,0.014835,1.058696,0.341642,-0.825326,0.301753,-0.081628,-0.77336,0.338467,0.587656,-0.071877,1.362818,0.890421,0.487433,-0.152105,-0.876766,0.26949,0.466869,-0.823155,-1.308176,0.07025,0.054027,1.117903
geometry,-0.144883,1.31871,0.885464,0.149724,-0.539231,-0.748719,0.307557,-0.032441,0.700959,0.962806,0.41654,-0.655944,0.096718,1.987602,0.36271,-0.630728,0.28497,0.642513,0.878304,0.260897,-0.625599,0.867323,0.30578,-0.88841,0.179331,0.624515,0.324364,0.163776,0.685744,0.166789,0.752706,0.113796,-0.267623,-0.133378,-0.304934,0.511276,1.930678,-0.733123,-0.735221
complex,0.563029,0.602688,0.162277,-0.090722,-0.255399,-0.380685,-0.849337,-0.596511,1.188998,-0.096806,0.119404,-0.094823,0.269105,1.515585,0.055391,0.233487,0.426193,1.304767,0.420849,0.634314,0.006367,-0.259855,-0.171198,-0.502855,0.171884,0.725871,0.711891,1.096132,0.248185,-0.222496,-0.382969,-0.062667,-0.095076,-0.04844,-0.150337,-1.015704,0.735967,0.258747,0.597076
linear,0.29197,1.101019,0.431166,-0.388499,-1.026457,-1.446867,0.150987,0.099827,0.804219,0.197324,0.167334,-0.756949,-0.917782,1.150372,-0.327799,-1.336706,1.264914,0.825657,1.063652,0.287959,-0.098301,0.637868,-0.269081,-0.737726,0.714315,-0.039429,0.334372,0.540558,0.683726,-0.876191,0.415516,-0.693247,0.514928,-0.855963,-0.949556,0.019708,0.73365,-1.64784,-1.360893
polynomial,-0.313804,2.02675,0.539871,0.764488,0.978212,-1.178557,-0.227369,0.058417,0.188982,-0.001167,0.383366,0.691362,-0.99141,1.523148,-0.248766,-0.08081,0.770534,-0.961384,1.538681,1.032927,-0.169789,0.46707,1.340854,-0.35096,-0.19706,-0.042496,0.238428,0.160219,0.900949,-0.205702,1.14759,-0.73157,0.039138,-0.397687,-1.47494,1.802487,2.133101,-0.373924,-0.47748
algorithm,-0.16926,2.266362,-0.646325,-0.111605,-0.084921,-0.730189,0.563812,-0.764473,0.700712,0.69595,1.100651,-0.005819,-0.590874,1.791353,-0.887926,0.211492,-0.17531,-0.105044,1.538352,0.733905,0.871951,1.480766,0.256326,-0.531836,-0.148785,-0.340837,0.248892,0.977213,0.313032,-0.476505,1.15544,-1.128333,0.696805,-0.191103,-0.402469,1.211015,0.971342,-0.540175,0.037317
mathematician,-1.826842,1.639946,1.247634,-0.909062,0.344113,-0.146687,-0.623879,0.727852,-0.995464,0.669098,-0.24001,-1.036331,-0.220508,0.821643,1.17169,0.334848,0.581753,-1.442665,-0.741351,0.587801,0.242968,0.79177,-0.932794,-0.739121,0.776183,1.139154,0.538528,-1.090702,-0.328061,1.182127,0.58067,-0.922269,-0.183477,-0.291617,0.984444,1.049873,0.302905,-0.520731,-0.00847
definition,0.09424,0.301124,-0.241519,-0.243196,0.525486,-0.194745,-0.61985,0.308866,1.023702,0.623668,-0.244702,-0.91575,0.692724,1.509344,-0.0902,0.448512,-0.282148,0.481218,0.932106,0.021644,-0.120089,0.56766,-0.356992,-0.211614,-0.17675,-0.645838,-0.196551,1.359029,0.687868,-0.596265,0.997623,-0.300963,0.330936,-0.613256,-1.022512,0.265761,-0.177927,-0.443998,-0.547297
product,0.687722,0.211142,-0.966305,0.083568,1.190742,-0.724958,-0.873417,-0.508794,0.832094,-0.183862,1.699102,0.209093,0.630815,1.000674,-0.930176,-0.375932,-0.265555,1.299036,1.182021,-0.488016,-0.086035,0.180187,-0.897636,-1.04638,0.772603,0.767756,-0.8242,0.895193,0.454631,0.29929,0.48309,-0.096866,0.900328,0.33428,0.164526,-0.766687,-0.86942,-0.229161,-0.073951
state,-0.229454,0.41704,-0.678662,-0.558306,-0.387409,-0.341055,-0.762692,-0.402352,1.138616,0.078054,-1.110867,-0.860749,0.612803,-0.755705,0.345142,1.208183,-0.328286,0.125868,-0.017553,0.142217,-0.671184,0.13754,0.140716,-0.312826,0.056752,-0.322117,-0.210641,0.710934,0.461541,0.266178,0.192239,-0.96988,0.376832,-0.047546,-0.077444,-1.306854,-0.16036,0.233587,0.741694
sequence,0.258296,0.729724,-0.707451,-0.084987,0.034059,-0.525802,-0.013309,-0.123947,0.851097,-0.248254,0.794137,0.278756,-0.640136,2.427797,-0.129175,0.641738,0.114243,1.452841,0.427608,0.817682,0.41784,0.580654,0.711512,0.332798,-0.250019,-0.139312,0.591116,0.292885,0.252533,-0.582431,-0.945357,-0.784106,0.373282,-1.016777,-0.877021,0.252593,0.405469,-0.174559,-0.30511
distribution,0.605828,0.368544,-0.713823,0.278321,0.496097,-0.949925,-0.257558,-0.247337,1.079963,-0.840224,0.113605,-0.389951,0.136449,0.420789,-1.189718,-0.526716,0.916368,1.009041,0.045264,0.081812,-0.755497,0.810358,-0.513573,0.276979,-0.337223,-0.194215,-0.591702,1.542262,0.027268,0.302007,0.448104,-0.257836,1.359948,-0.330785,-0.773341,0.170586,-0.146615,-1.359931,-0.4959
variable,0.081447,0.746234,-0.7893,0.19316,0.263587,-0.578335,-0.207543,0.219989,1.23346,0.076163,0.430132,-0.165186,-0.470638,1.767024,-0.391146,-0.487967,0.827446,1.025552,0.446375,0.414389,-0.939474,1.344764,-0.089014,-0.031561,0.166948,-0.037069,-0.446221,0.974198,0.705128,-1.137374,1.007763,-0.313225,0.504151,-0.673246,-1.741177,0.975659,0.448673,-0.574826,-1.066207
solution,0.253848,0.350403,-0.666579,-0.092257,-0.070178,-0.643844,-0.665613,-0.513126,0.359297,-0.021548,1.106188,-0.835004,0.350053,0.949476,-0.408181,0.073187,0.254022,0.910737,1.788503,-0.281798,-0.453317,0.614485,-0.248002,-1.15714,0.789491,-0.104158,-0.567112,1.479161,0.895004,0.106861,0.673488,0.21494,0.221083,-0.051284,-0.055237,0.094462,0.204509,-0.260655,-0.274655
square,1.209659,0.983721,0.57995,-0.009823,-0.284958,-0.637931,-0.071741,0.469384,-0.028168,0.010593,-0.716213,-0.367874,-0.561957,-0.233706,0.055928,-0.860194,0.304757,0.549914,0.355402,-0.273829,0.130321,-0.182438,-0.339272,-0.013474,-0.252693,0.64514,0.269906,-0.412125,0.170857,0.010314,-0.377515,-0.371634,-0.104232,-0.270064,-0.940261,-2.589929,1.116517,-0.079082,-0.170121
map,0.588871,1.105398,0.614858,-1.260885,-0.130006,0.640773,0.02724,-0.148441,0.094796,-0.264637,-0.449875,-0.610853,-0.252484,1.03717,-0.51438,-0.222047,0.011551,1.029681,-0.333429,0.656006,0.889176,0.949396,-0.37615,0.123524,-0.55258,-0.15377,-0.413304,1.831524,0.458902,0.278579,-0.080199,-0.715486,0.622212,0.051356,-0.33621,-0.632799,0.534915,-0.797582,0.124497
class,-0.297151,-0.254104,-0.728364,1.291331,0.511288,-0.326392,-1.047299,0.467855,0.738786,0.913881,-0.646323,0.231801,-0.338223,0.061077,0.145308,0.273608,-0.557343,1.061587,-0.123007,0.625995,-0.124811,0.953094,-0.669169,0.235743,0.334055,0.732376,-0.225917,-0.160336,0.567362,-0.523617,0.223564,-0.312597,-0.133588,0.069947,-0.339774,-0.688876,-0.033843,0.519604,0.317121
integer,0.121418,1.070348,-0.267626,0.631073,0.281681,-1.383496,0.420955,-0.335149,0.568016,0.103015,0.300727,0.360826,-1.717681,1.643722,0.312435,-0.191006,0.318016,-0.330448,1.317461,0.772297,0.378673,0.441879,1.010831,-0.146615,-0.008264,0.136559,-0.559121,0.483875,1.284969,-0.634556,1.230418,-2.035789,0.655626,-0.567138,-1.812143,0.472317,1.435914,-0.84661,-0.593861
mean,-0.397288,-0.100333,-0.713093,0.444426,0.17334,-0.107826,0.173739,0.944871,0.988699,-0.507944,0.528514,-0.633824,0.70313,0.316293,0.058087,0.30263,0.171311,0.717728,-0.001776,0.02548,0.313152,-0.126949,0.090718,-0.304455,0.341933,0.162408,-0.284177,1.510844,0.148524,-0.522189,0.575562,-0.19761,-0.111507,-0.71581,-1.356428,-0.460626,0.221451,0.145068,-0.101161
proof,-0.168794,-0.076465,-0.560212,-0.988463,-0.09427,-0.149813,-0.012325,0.579482,0.351608,0.588837,0.772591,-0.303314,0.71716,1.247788,-0.18721,0.18911,-0.500323,-0.270701,0.70797,-0.376595,-0.028229,0.072032,0.60467,-0.394502,-0.192429,0.227787,-0.648805,0.157769,0.816591,0.29645,0.753825,-0.1362,0.037476,-0.416272,-1.066395,-0.18145,0.002881,-0.043396,0.143144
three,0.003985,-0.076879,-0.475632,-0.028643,-0.028264,-0.622973,0.133283,0.528568,0.738528,-0.115363,0.16736,0.240069,-0.081739,-0.548772,-0.096356,0.582943,-0.371954,1.218408,-0.460942,0.03868,-0.112488,0.772659,-0.072028,0.265245,-0.230767,0.543884,0.467056,0.016934,0.040357,-0.130714,-0.508957,-0.371971,-0.271791,-0.4785,-0.552148,-1.183724,0.467001,0.341811,0.034806
dimensional,0.711777,1.109914,-0.090577,0.038031,-0.6262,-0.379635,-0.108463,-0.184017,0.257624,0.165704,0.984564,-0.483154,0.571109,2.194088,0.215167,-0.722001,0.212536,1.122025,0.920287,0.635142,-0.502163,0.82221,0.234613,-1.106976,-0.294194,0.085413,0.603648,0.11459,0.82376,-0.285171,0.416441,-0.643063,0.033743,-0.640283,-0.837081,0.406585,1.966229,-0.871213,-0.17297
zero,0.182648,0.646092,-0.781752,0.056516,-0.217614,-0.214299,0.159666,0.369099,0.433328,-0.203539,0.899627,-0.230522,-0.088965,0.295818,0.254283,-0.301695,0.298165,1.229304,0.860559,0.392757,-0.327703,0.377394,-0.018839,-0.663027,0.103055,-1.119035,-0.154093,-0.025695,1.218939,-0.186155,0.251576,-0.65552,0.248768,-0.488026,-1.328947,0.166789,0.221671,-0.05797,-0.30176
algebraic,-0.483001,1.391176,1.209371,0.524063,0.351149,-0.320286,-0.015613,-0.482715,0.734109,0.854631,0.071316,-0.276397,-0.029989,2.059099,0.23967,-0.209953,-0.1975,-0.394812,1.155159,0.718823,-0.04228,0.328309,-0.017585,-0.567341,0.107988,0.350982,0.270866,-0.274063,0.621771,0.439921,1.253629,-0.549297,0.117379,-0.073695,-0.438121,1.135416,2.212207,-0.758781,-0.425529
formula,-0.019224,0.613915,0.238998,0.176935,1.122824,-0.887201,-0.546837,0.756399,0.780094,0.278138,1.608174,0.023827,-0.083452,0.478854,0.676922,0.108849,-0.421391,1.176011,0.644908,0.080028,-0.37236,0.633871,-0.035926,-0.298201,0.412925,0.16088,0.800242,-0.359019,0.713532,0.763014,1.071221,-0.061547,-0.304723,0.398176,-1.133402,0.575656,-0.576935,0.639198,-1.522587
ring,0.374521,0.210906,-0.294765,0.021805,-0.689627,-0.370357,0.608503,0.401304,0.379325,-0.710031,0.97258,-0.078115,0.072414,0.259372,0.260564,0.156917,0.234399,1.563222,0.1946,-0.256822,-0.240594,-0.23716,0.155734,-0.301183,-0.538834,0.570902,0.605888,-0.211691,-0.045829,-0.215393,-0.51894,-0.61206,0.182822,0.244157,-0.834005,-0.186363,1.066588,0.363032,0.2681
edge,0.534788,0.526097,-0.393684,-0.195989,-0.743968,0.095097,0.707871,-0.412696,0.239769,-0.407817,-0.111339,-0.540913,0.627499,-0.287097,-0.572002,-0.686262,0.123508,1.687882,0.181419,0.019747,0.082556,0.524262,0.062224,-0.281756,-0.121378,0.305649,0.598825,0.492303,-0.901132,-0.815356,-0.228194,0.009243,-0.064901,0.021184,-0.67613,-0.962931,1.333635,-0.440371,-0.611721
sum,0.127144,0.119082,-0.625853,0.507611,1.007599,-0.71788,0.004292,0.585285,0.987396,-0.781653,0.763627,-0.442568,-0.094199,0.227013,-0.1042,-0.421231,0.540441,-1.136159,1.035063,0.089215,0.272447,0.470036,0.601403,-0.865069,-0.146752,-0.223917,-0.381039,0.250215,1.31939,0.610617,-0.124902,-0.951786,-0.1395,-0.436739,-1.304004,-0.618495,0.63796,0.312475,-0.31289
plane,-0.303162,0.485866,-1.342319,-0.292694,-1.109733,0.27808,0.521412,0.220397,-0.343169,-0.416461,-0.306009,0.098325,-0.212849,1.020804,0.564503,-0.586437,0.747587,1.535735,0.155647,-0.195531,-0.673282,0.899215,-0.837807,0.200162,-0.176507,-0.170842,-0.369891,-0.383431,0.783524,0.081504,0.296014,0.519894,-0.603417,-0.40749,-1.094335,-0.422178,1.208553,0.388006,0.205373
analysis,0.198599,0.979799,-0.506371,-0.564745,-0.099819,-0.584654,-0.77529,-0.308868,1.548028,0.419891,-0.041841,-1.071027,0.436975,1.932063,-0.751164,0.411487,-0.11126,0.448616,0.669345,0.253179,0.410869,1.369686,0.280922,-0.435015,0.168892,-0.057828,-0.044118,0.941894,0.611555,0.383882,0.260722,0.322247,-0.078879,-0.725544,0.176559,0.932531,0.139387,-0.783802,-0.207892
dimension,0.642008,0.36531,-0.22233,0.490056,-0.741684,-0.472758,-0.030332,0.53518,0.563865,0.264155,0.24245,-0.53644,0.736019,1.068442,0.278161,-1.118016,0.238875,0.721373,0.629326,0.102034,0.027394,0.648841,0.344583,-0.814451,-0.231615,-0.357745,0.478425,0.170643,0.959245,-0.499803,0.316559,-0.286421,-0.142119,-0.793529,-0.8234,-0.273052,0.877135,-0.405118,-0.133803
curve,0.445612,1.316765,0.028638,-0.295111,-0.425852,-0.591951,1.144827,-0.562336,1.150309,0.028755,-0.399528,-0.788988,0.051326,0.540201,-0.261914,-1.271247,0.786956,0.812059,0.766653,0.347721,-0.215157,0.99234,-0.063324,-0.170905,-0.152877,0.065805,0.068812,0.266499,-0.32161,-0.462492,0.38708,0.261546,0.03254,0.345998,-1.507701,-0.308077,1.343081,0.236389,-1.067341
type,0.049993,-0.044095,-0.741962,0.393885,0.128209,-0.08545,-0.097217,0.806086,1.121229,0.047525,0.09731,-0.227002,-0.054696,1.921834,-0.349759,-0.597821,-0.099829,1.939162,0.279124,0.121416,-0.446504,0.538021,-0.770168,0.258946,0.136973,1.06624,-0.140034,0.660904,0.142653,-0.604386,0.547465,-0.297743,0.6928,-0.115248,-0.654632,-0.155483,-0.423001,-0.019348,0.247526
operator,-0.455691,0.508402,-1.391301,-0.163023,0.753267,0.446037,-0.423919,0.211973,-0.023784,-0.249136,-0.004884,0.78573,-0.407241,0.872808,-0.085128,0.052108,0.669378,0.980459,1.261545,-0.224774,0.065453,1.135192,-1.454796,0.320269,-0.24595,-0.372489,-0.498136,0.392945,1.033227,0.171073,1.364929,-0.478197,0.250984,0.478711,-0.323529,-0.409976,0.916696,0.209113,0.459139
prove,-0.405507,-0.625064,-0.959261,-0.485766,-0.176339,-0.030731,-0.203691,-0.238462,0.091456,0.079664,0.690112,-0.12263,0.957944,0.468833,0.146708,0.488514,-0.107097,-0.136206,0.554794,0.813639,-0.080947,0.889585,0.106408,0.02152,0.262092,0.368352,0.042921,0.622013,0.182762,0.526253,0.101446,0.020492,-0.493351,-0.582411,-0.854413,-0.345604,-0.205108,0.83718,-0.032076
probability,-0.652785,1.319576,-0.454971,-0.646383,0.133459,-0.856252,-0.390209,0.326647,1.00658,0.279002,0.492939,-1.329282,-0.531003,1.51045,-0.38826,-0.043509,0.391227,-0.426041,1.174294,1.015808,-0.063306,1.10129,0.337456,-0.655405,0.159327,-0.567123,-0.276056,0.317167,0.590202,0.365779,0.91669,-0.161723,0.216104,-0.571316,-2.211188,1.165707,0.62961,-0.010638,0.02485
structure,0.627861,0.440753,0.999191,-0.507936,-0.081791,-0.519883,-0.297615,-0.541609,1.358433,0.162537,-0.408335,-0.613286,0.411877,1.257671,-0.157597,0.032433,0.289035,1.625381,0.658162,0.469526,-0.344776,0.179355,-0.213142,-0.027974,0.114081,1.320575,0.712781,1.615846,0.496041,-0.405,-0.265211,-0.187716,-0.018098,0.195283,-0.092253,-1.056917,1.101513,-0.053707,0.697263
representation,0.949256,0.271621,0.216314,0.246662,0.401519,-0.307627,-0.492336,-0.083878,0.639538,0.12605,-0.662401,-0.931994,0.788438,0.716167,-0.304659,0.656042,-0.478848,-0.122717,0.58272,0.156556,-0.124863,0.402,-0.206306,-0.288543,-0.977132,0.08673,0.456385,1.012894,0.815478,-0.370046,0.775988,-0.99946,-0.109535,-0.934564,-0.772141,0.050285,0.860693,-0.607348,-0.045565
series,0.245556,0.377894,-0.530015,0.411662,-0.356503,-0.084557,-0.301645,0.306962,0.172521,-0.246608,0.457506,0.576423,0.89521,-0.272442,0.404507,0.305899,-0.887967,2.004456,0.018246,0.460368,0.790169,0.81519,-0.412081,0.125803,-0.254264,-0.994203,0.279863,-1.02143,0.206286,0.387503,-1.25863,-0.645346,0.233017,-0.56643,-0.287911,-0.391459,-0.390132,-0.50758,-0.866365
prime,-0.416689,0.126744,-0.562184,0.141257,-0.29363,-0.72217,-0.795968,0.608692,-0.517732,-1.057835,0.147184,-0.522077,-0.284594,-1.129815,0.465036,1.13477,0.280688,0.026112,0.447569,-0.493604,-0.813206,-0.083619,-0.272957,0.360116,-0.725682,-0.160438,0.680622,0.648013,0.896434,0.994561,0.25775,-0.973662,-0.798921,-0.960154,0.925337,-0.143296,-0.556697,0.257225,-0.627706
measure,0.516545,0.09553,-1.118977,-0.728816,-0.323928,-0.748601,-0.172487,0.404617,1.17893,0.312551,0.039814,-1.630736,-0.321247,0.658583,-0.751258,-0.715117,0.652742,0.33593,0.607671,-0.074238,-1.059429,0.835628,0.036662,-0.376499,-0.362045,0.217739,-0.163882,0.954929,0.759498,-0.460425,0.366699,0.281402,-0.215999,-0.803909,-0.638642,-0.681206,-0.102656,-0.027047,-0.058956
equal,0.150765,-0.096598,-1.01694,0.444178,0.815382,-1.390549,-0.357503,0.478306,0.867221,0.119506,-0.177054,-1.278095,0.105064,-0.495428,-0.028313,-0.262816,0.156373,-0.147684,0.435897,0.05602,-0.811106,0.519966,0.431233,-0.777225,-0.602564,0.179185,0.108622,0.452158,0.873228,-0.668149,0.759439,-0.561044,-0.255529,-0.702362,-1.583658,-0.475232,0.410446,0.286831,-0.512917
lie,-0.115134,-0.029338,0.01153,-0.228709,-0.760376,0.433055,0.482735,0.893902,0.39024,-0.489855,-0.522618,-0.494311,0.534788,-0.469649,-0.032108,0.006704,1.059502,0.662913,-0.264249,-0.002599,0.318115,0.197158,0.607575,0.206492,0.193684,0.221212,0.019868,1.25759,-0.234384,-0.123687,-0.155135,0.039844,0.177506,-0.178597,-0.640976,-1.428886,1.110809,0.361953,0.592201
manifold,-0.539781,0.854456,0.34325,0.290318,0.046715,-0.446717,0.41794,0.531027,0.317292,0.892647,0.300046,0.574446,0.385757,1.038505,0.301076,-1.228178,0.762434,0.461606,1.519503,-0.040747,-1.111782,0.243289,0.907088,-0.351739,0.612997,-0.38424,0.476836,0.315255,-0.007915,-0.144383,1.330381,0.307587,-0.751069,0.555656,-0.516469,0.600661,1.17755,-0.556379,-1.032077
degree,-0.892529,-0.082923,-0.399536,0.103972,0.252274,-0.987035,-0.028602,0.149299,1.863145,1.376154,-0.849889,-1.073826,-0.218842,-0.126806,-0.061706,0.437669,0.054241,-0.270441,-0.756869,0.283111,-1.113656,0.952227,-0.419315,-1.671479,0.817127,0.11068,-0.411778,0.204529,0.395953,-0.084236,-0.476419,0.328899,-0.363394,-0.063178,0.025929,-0.264476,1.166502,-0.43452,0.059875
differential,-0.582586,0.895179,-0.132614,-0.417538,0.364209,-1.24243,0.353272,0.466078,1.077408,0.868617,0.21701,-0.537871,-0.038233,1.309695,-0.239338,-0.737225,0.097911,0.783329,1.523887,0.835892,-0.853237,0.950062,-0.255225,-0.899785,0.225399,0.132068,0.263586,0.044879,0.054855,-0.222585,1.081474,0.210637,-0.131549,0.112736,-0.640694,1.384538,0.690312,-0.215043,-0.276583
$\mathbb{C}$,0.050794,0.041455,-0.395197,0.398095,-0.154201,-0.417426,-0.323825,0.312597,1.001378,-0.223756,-0.604961,0.235948,-1.498522,0.326864,0.124362,-0.007037,0.268491,1.750793,0.169608,0.187267,-0.108117,0.649128,0.259712,0.394539,0.866343,0.920443,-0.410759,-0.233776,1.013526,-0.100492,0.266301,-0.957151,0.711508,0.565271,-0.069918,0.655228,-0.526726,0.170051,-0.615392
regular,-0.478739,-0.088724,-0.332127,-0.388534,0.531029,-0.691596,-0.305674,-0.636428,1.12578,0.117983,0.646495,0.248316,-0.543431,-0.868331,-0.28844,0.842898,-1.138094,1.044072,0.033919,0.003949,0.178404,0.792341,-0.441509,0.397338,0.061102,0.220128,-0.174795,-0.528328,0.07558,-0.53112,-0.408664,-0.107143,-0.56046,-0.638649,-0.699112,-0.732836,0.429367,-0.064291,-0.263627
second,-0.155801,-0.233262,-0.402656,-0.229086,-0.141024,-0.921188,0.242578,0.341782,0.434744,-0.23226,0.231219,-0.039652,-0.394719,-1.308807,0.159528,0.589554,-0.476361,1.040219,-0.348741,0.412255,0.380052,0.939276,-0.064696,0.120039,0.106011,0.349135,0.621767,-0.314279,0.624074,0.157127,-0.441432,-0.48936,-0.444325,-0.428956,-0.75393,-0.621056,0.007383,0.355838,-0.357817
triangle,0.635645,0.717973,0.145292,0.244777,-0.469351,0.016273,0.187069,-0.789374,0.398115,-0.686524,-0.157802,-0.287575,0.385196,0.269966,0.257739,-0.562712,0.39409,0.827861,0.216255,-0.330361,-0.008822,-0.412199,-0.102228,-0.211276,-0.821293,-0.118064,0.433407,-0.326796,0.158796,-0.724319,-0.033932,-0.354214,0.058148,0.201229,-0.741004,-0.065082,1.53574,-0.014288,0.145015
subset,0.201706,0.63529,0.229392,0.345919,0.418299,-0.291328,-0.825273,-0.325168,0.776592,0.127711,0.240572,0.248567,-0.674381,1.998734,-0.647555,0.045576,-0.363029,0.233358,0.842883,0.206296,-0.039685,0.151782,-0.160063,-0.366788,0.304755,-0.276265,0.366596,1.009367,0.321807,-1.25699,1.313294,-0.643558,0.845569,-0.746803,-0.993988,0.587445,0.802538,-0.323828,-0.032866
circle,0.079252,0.602033,0.217231,0.28892,-0.162764,-0.385792,0.078691,0.167517,-0.15219,-0.097993,-0.276975,-0.622159,0.820913,0.085516,0.566592,0.175636,0.250178,0.636274,0.042527,-0.36985,0.014644,-0.063351,-0.324734,-0.117034,-0.842277,0.069808,0.188187,0.281382,-0.191644,-0.423308,-0.446507,0.087239,-0.146619,-0.393599,-0.409973,-0.926825,1.220973,0.023857,-0.074776
relation,0.025212,0.169477,-0.143222,0.389557,0.242549,-0.68243,-0.289976,0.043131,0.601261,-0.42993,-1.057111,-1.354115,1.126065,0.024549,-0.084747,1.02675,0.256707,-0.097806,0.088195,-0.419672,-0.288462,0.219179,-0.719233,-0.206591,0.015729,-0.460243,0.475005,1.396703,1.470476,0.492287,0.541461,0.183693,-0.57893,-0.529791,-0.027527,0.575443,-0.097342,-0.20644,0.546155
positive,0.433992,-0.042904,-1.357163,-0.251286,-0.185134,-0.994842,-1.139213,-0.107328,0.952177,-0.106893,0.352788,-1.145346,0.38117,0.491244,-0.382084,0.793538,0.477997,0.356422,0.988626,0.707153,0.211103,-0.080204,-0.014161,-0.696578,-0.180571,-0.666608,0.139665,-0.105275,0.16925,-0.509638,-0.410491,0.15209,0.420826,-1.131696,-0.878952,0.211045,-0.434377,0.398595,-0.904467
simple,0.402895,0.215056,-0.494837,-0.100098,0.154034,-0.360462,0.50388,0.520698,0.543658,0.241324,0.958679,-0.058036,0.881749,1.307309,-0.110398,0.267247,-0.001488,1.060936,1.125625,0.259474,0.04882,0.104116,0.217728,-0.415913,-0.014589,1.034185,-0.473218,1.033771,0.187613,-1.0829,0.351326,-0.58703,-0.21439,-1.008926,-0.553284,-0.381877,0.931058,-0.216622,-0.870031
topology,-0.087764,1.219886,0.435361,0.376486,0.107142,-0.60154,0.291724,-0.684857,0.344483,0.632774,0.258633,0.136981,-0.605954,2.164624,-0.288198,-0.295763,0.876827,0.208131,1.325372,0.277989,0.005554,0.59203,0.155172,-0.532834,-0.230283,-0.089299,0.825217,0.627806,0.168977,-0.058194,1.260577,-0.462814,0.38777,0.532384,-0.249944,1.046958,1.797591,-0.689873,-0.318523
category,0.187837,0.579267,-0.22878,0.276906,1.063254,-0.142217,-1.11278,0.573052,1.336914,0.628696,0.110898,-0.585288,0.121335,0.208522,-0.461644,0.348748,-0.486495,1.135849,-0.437588,0.533486,0.391902,0.22119,-0.63969,-0.245042,-0.663395,-0.326948,0.413697,0.095372,0.512669,-0.230147,0.555398,-0.038813,0.218114,-0.762755,-0.381731,-0.233803,-0.064692,-0.260318,-0.279739
surface,0.396798,0.425446,-1.0474,-0.822861,-0.947373,-0.141838,0.577591,-0.031602,0.843666,-0.498588,0.703272,-1.305721,-0.226382,1.200815,-0.376486,-1.185021,0.884673,2.270338,0.135399,-0.064102,-1.228954,0.973062,0.17638,-0.407599,0.353885,0.649892,0.048134,0.936244,-0.067486,-0.180079,0.02714,0.6546,-0.114904,-0.35818,-0.627992,-0.636276,0.864799,-0.198002,-0.231372
constant,-0.09306,0.486684,-0.71295,-0.235858,0.197872,-0.99166,0.642695,0.505021,0.223466,-0.173765,0.706019,-1.123551,-0.098707,0.523219,0.480259,-0.172569,1.459216,0.335714,1.131789,0.930049,-0.504584,0.625538,0.05446,-0.564425,-0.039137,0.122803,-0.391348,0.537171,1.044022,-0.433838,0.313623,-0.035238,-0.566669,-0.726005,-0.988669,0.677395,0.375156,0.601642,-0.053133
application,0.662275,0.145295,-0.783105,-0.464071,0.029525,-0.424178,-0.382268,-0.007475,0.795512,1.084376,0.759497,-0.086104,-0.161034,1.489256,-0.875117,0.092197,-0.625132,1.050976,1.419088,-0.272224,-0.352899,1.335222,-0.593482,-1.306382,0.739432,-0.116616,-0.540078,1.583102,0.863504,-0.193012,0.79606,-0.406763,0.452827,0.156577,0.558815,-0.110018,-0.195645,-0.823514,-0.323861
integral,-0.058827,0.575927,0.468193,0.3373,0.232905,-1.070113,-0.438442,-0.024758,0.403937,0.422761,0.253537,-0.022004,0.427415,0.863584,0.529075,-0.293234,0.346789,0.860653,0.824311,0.132162,-0.537648,0.056492,-0.139307,-0.808176,-0.397449,0.100298,0.030126,0.777068,0.775159,-0.376619,0.942615,0.139882,-0.524201,-0.36114,-0.187456,0.480108,1.306743,-0.160231,-0.085447
coordinate,0.069,1.17865,-0.409315,-0.303858,-0.224081,-0.103589,-1.092032,-0.41114,0.518928,-0.320254,-0.178697,-0.591511,-1.043804,0.778954,-0.327261,0.43137,0.439765,0.548023,0.393769,-0.535796,-0.887817,0.48435,-0.596909,-0.523966,-0.610334,-0.492543,-0.180723,1.301483,1.019214,-0.240514,0.382531,0.069121,-0.419446,-0.605099,0.243445,-0.207677,1.22787,-0.031888,0.448914
complete,-0.078682,-0.274312,0.299572,-0.540261,-0.075887,-0.643918,0.388331,0.218458,0.893052,1.065222,-0.19068,0.603574,-0.007139,-0.050524,-0.182232,0.537832,-0.198604,0.729771,-0.230917,0.413885,0.197277,1.002689,-0.112103,0.100532,0.050459,0.612324,0.204246,0.422814,0.822504,0.44783,-0.918495,-0.014173,-0.069213,-0.024702,0.138645,-1.221305,0.153232,0.237884,0.09812
root,-0.357243,0.246279,-0.193037,0.41208,0.174924,-0.942902,0.021902,-0.097726,0.687917,-0.464296,-0.006663,-0.63488,1.175222,0.360392,0.020835,0.317867,0.214434,1.010972,0.091248,-0.308599,0.525268,-0.795871,0.115139,-0.042358,0.835383,0.643586,-0.009898,0.859574,-0.344177,-1.257993,0.041385,0.083621,-0.016033,-0.583063,-0.699303,0.285344,-0.05063,-0.540895,0.064572
length,0.359223,0.063325,-1.02895,-0.092999,-0.113877,-0.666629,0.923254,0.582695,1.104618,-0.147938,-0.20699,-0.716385,-0.3752,0.478722,-0.425865,-0.892438,0.662192,1.475497,-0.241769,0.288014,-0.068918,0.686043,0.28737,0.467593,-0.55543,0.42614,0.271237,0.115121,-0.159842,-0.57916,0.042704,-0.244473,0.345179,-0.664955,-1.408988,-1.010976,0.656777,-0.353389,-0.909217
continuous,-0.258591,0.465336,-0.448371,-0.454211,0.066284,-0.861381,0.868582,-0.333982,0.735245,0.627613,0.323312,-0.44731,-0.125742,0.898999,-0.401813,-0.49001,0.425499,1.179409,0.854901,0.536087,-0.654204,0.437101,-0.262432,-0.102246,-0.129147,-0.117608,0.093186,1.100762,0.604872,-0.999342,-0.006646,0.464401,-0.654234,-0.605563,-0.259675,-0.455682,0.413083,-0.360553,-0.091301
logic,-0.485709,0.017647,0.349904,-0.08169,-0.334662,-0.7487,0.128218,-0.018293,0.554236,1.377042,-0.001303,-0.027101,1.009835,1.719584,0.850856,0.455484,-0.6034,0.066019,1.780758,0.380914,1.149036,0.636495,0.248479,-1.008609,0.731796,-0.307048,-0.291073,0.811642,0.811725,-0.413207,1.082376,-0.586823,0.013386,0.18982,-0.311441,0.93979,0.695343,-0.651658,-0.58988
external,0.200278,0.07612,0.566319,-0.499958,0.015789,0.185799,-0.521656,0.625692,0.436044,0.236093,-0.514855,-0.448045,-0.078536,-0.462317,-0.121836,0.437568,-0.352301,1.862923,-0.66744,0.183301,0.885801,0.036656,-0.701689,-0.25252,-0.138051,-0.02804,0.004017,-0.197239,0.174347,0.891453,0.002174,-0.398668,1.206977,0.29307,0.682132,-0.047696,-0.182313,-1.011191,0.027183
side,0.233449,-0.729423,-0.277266,-0.479153,-0.297515,-0.075241,0.768908,-0.012834,0.388594,-0.738586,-0.17955,-0.137171,0.330208,-0.790822,-0.042504,0.198061,-0.009513,1.907443,0.123499,-0.058182,0.301139,0.033598,-0.294445,-0.110161,0.269042,0.769329,0.802162,0.433395,-0.517444,-0.484576,-0.055782,0.14301,-0.451484,0.044203,-1.03235,-1.226464,1.039775,0.621446,-0.267129
unit,-0.538911,0.325024,-1.301437,0.421483,0.083829,0.058938,-0.465571,0.157769,0.338538,-0.36205,-0.624214,-0.132872,-1.02503,0.489377,-0.320951,-1.228525,-0.81673,1.56609,0.475604,0.321878,-0.851656,1.08553,-0.646472,0.002049,0.524207,-0.44781,-0.316222,0.532608,1.230889,-0.169437,0.236118,-0.262903,-0.300012,-0.570855,0.460229,-1.436235,0.253165,-0.036916,1.050997
equivalent,-0.616367,0.046896,-0.476539,0.536956,1.361311,-0.535603,-0.270028,0.918292,0.99588,0.085599,0.227885,-0.780008,-0.760118,0.708578,-0.081269,-0.680711,-0.09717,0.347352,-0.006753,-0.052897,-0.492964,0.730949,-0.322968,-0.424187,0.468011,-0.023441,-0.25634,0.58921,1.154025,-0.270491,0.570331,-0.434106,-0.012773,-0.750891,-0.910524,-0.79289,0.27914,-0.147982,-0.313558
conjecture,-0.532423,1.189695,1.020713,-0.259942,0.279364,0.014535,0.066777,-0.068117,0.271187,0.102133,0.810181,-0.681385,0.394527,1.621092,0.38843,-0.230434,0.4628,-1.447304,0.88434,0.503809,0.205462,0.430848,1.293436,-0.049602,-0.09059,-0.134891,0.617645,0.390419,0.026718,0.99407,0.730171,-0.470109,-0.201788,0.141137,-1.083167,0.817144,0.950933,0.000196,-0.273668
infinite,0.103283,0.210946,0.08293,0.279929,-0.503316,-0.46167,-0.015705,-0.004412,-0.049017,0.132488,1.060781,-0.10737,0.682844,0.779932,0.679456,-0.560985,0.186317,0.579424,0.771882,0.379656,0.066131,0.108392,1.004798,-0.951522,-0.31331,-1.261583,0.440856,0.256246,1.338377,-0.8003,-0.230196,-0.622378,0.035251,-0.427065,-1.442449,0.364089,1.092764,-0.707833,-0.197487
operation,-0.77029,0.300617,-1.197741,-0.433557,-0.468164,0.186041,-0.010736,-0.61144,0.062592,-0.497685,-0.053617,0.572098,-0.229795,0.016341,-0.396561,-0.071067,-0.295393,1.503528,0.59435,-0.142254,-0.345667,0.85276,-1.179167,0.32977,-0.139744,-0.274514,-0.755348,1.126607,1.394252,0.353035,0.138938,0.291098,-0.374999,-0.050099,0.472474,-0.831392,0.110903,0.264302,1.340118
angle,0.157997,0.443548,-0.822533,-0.642763,-0.945277,-0.543989,0.869467,0.321726,0.59976,-0.186126,-0.035251,-0.821698,-0.023069,0.581009,0.185517,-1.097051,0.54435,1.215001,0.606158,-0.04692,-0.620817,1.021791,-0.294194,-0.673013,-0.814878,0.42794,0.254801,0.058172,-0.566686,-0.825301,0.025584,-0.050233,-0.682484,-0.272861,-1.335014,-0.05207,1.386983,0.243937,-1.246988
random,0.557234,1.252729,-0.599616,-0.225744,0.254357,-0.564961,0.536659,0.09236,-0.195972,-0.014009,0.442925,-0.278401,0.244874,1.151472,-0.4535,0.278931,-0.335117,0.749663,1.139372,0.715068,0.420072,0.567983,0.464589,-0.178225,-0.233834,-0.794638,-0.407918,-0.117769,0.548902,0.079855,-0.057708,-0.388384,0.53585,-0.676926,-1.287713,0.73167,0.837989,-0.837494,0.20832
basis,-0.11939,-0.221335,-0.453827,0.028128,0.112931,-0.737386,-0.559254,-0.085954,1.386865,0.157617,-0.341132,-0.375227,0.158719,0.655564,-0.239713,0.278542,-0.644676,0.427205,0.49704,-0.060702,-0.185009,0.898256,-0.007793,0.372316,-0.19704,0.034572,-0.057996,0.769427,0.624385,0.116469,0.270008,-0.028289,-0.381529,-0.809425,-0.492647,-0.644019,0.25431,0.111297,0.377542
natural,0.630731,0.029688,-0.146778,-0.216866,-0.00113,-0.195049,-0.770434,-0.199809,1.074533,0.259518,0.157884,-1.066844,1.081074,0.515361,-0.07547,-0.088778,0.89955,1.05786,-0.756397,0.706251,-0.109611,0.206353,0.469165,-0.512278,0.349193,0.848155,-0.482112,1.695426,-0.054482,0.138561,0.155818,0.585387,0.314192,0.172586,-0.190307,-0.251758,-0.221527,-0.5369,0.669148
power,0.170555,-0.422487,-1.24457,0.14554,-0.607513,-0.615413,0.032994,0.56946,-0.300243,0.243669,0.095694,-0.235245,1.000491,-0.276455,0.966228,-0.410873,-0.02102,1.173907,0.773251,0.092997,-0.675445,0.74786,-0.387239,-0.926278,0.536515,-0.570358,-0.04146,1.098441,0.878455,-0.192709,0.573196,-0.482323,-0.479062,0.186452,-0.376868,-0.975489,-0.787073,0.378173,0.18899
area,0.354771,0.886053,-0.181405,-0.359677,0.012943,0.28758,-0.251743,-0.198233,1.144504,-0.354247,-0.750784,-0.472696,-0.091114,-0.464314,-0.633972,-0.277494,0.785725,1.245282,-0.464759,0.643251,-0.07444,0.240668,-0.635831,0.180193,0.635358,0.057565,0.050264,1.973221,-0.735018,-0.28308,-0.161449,0.458234,-0.173133,0.088972,-0.039967,-2.328755,0.410175,-0.087165,1.116846
open,0.879811,0.080477,0.116199,-0.049777,-0.362797,-0.345494,0.287984,-0.176008,0.391627,0.516677,0.222588,0.413244,0.058897,-0.846361,-0.420085,1.064239,-0.020587,1.348391,0.327131,-0.300735,0.582199,0.500931,-0.863876,0.187105,-0.083409,0.641248,0.188725,0.54095,0.010946,-0.009171,-0.223164,0.133542,0.019807,0.319176,-0.061506,-1.456992,0.491353,0.018495,0.178928
solve,-0.072607,0.831062,-0.730241,0.081166,-0.6163,-0.293527,-0.171546,0.0051,0.233418,0.446792,0.991764,-0.038665,0.690215,0.99372,-0.208669,0.712129,0.100235,-0.099628,1.30206,0.762032,0.166193,0.89925,0.090985,-0.61732,0.326524,-0.37375,-0.068363,0.698645,0.781179,0.268737,0.607546,-0.115095,-0.1427,-0.840003,-0.686593,0.377288,0.951697,-0.085385,0.412652
pair,0.417567,0.238679,-1.124912,0.77108,-0.135785,-0.692776,0.414871,0.594593,0.272078,-0.378757,0.637109,-0.120597,-0.577773,0.394361,-0.318592,0.338229,0.230569,1.294068,-0.114539,-0.153318,-0.109132,0.877487,-0.116499,0.142385,-0.317547,0.993533,1.195762,-0.70005,-0.36004,-0.53603,0.081336,-0.609509,0.218,-0.534222,-1.212155,-0.40258,0.911536,0.424793,0.020066
hold,0.005393,-0.462698,-0.246479,-0.252222,-0.038942,-0.803708,0.174081,0.321014,0.39523,0.241004,0.03845,-0.152054,0.20948,-1.328607,-0.051727,0.984881,-0.835176,0.440237,-0.465252,-0.425021,-0.404394,0.473917,-0.329906,-0.406163,-0.462309,0.305059,0.340054,0.486018,0.338338,0.384487,-0.252389,-0.107254,-0.443523,-0.085747,-0.123005,-1.014215,0.153057,0.203566,0.381577
limit,0.338901,-0.088306,-1.071477,-0.333462,0.52322,-0.39548,-0.293899,0.159598,1.147482,0.277495,-0.015664,-0.22304,0.331186,0.02341,-0.382432,-0.252662,0.336251,0.947106,0.917983,0.192321,-0.387709,0.543432,-0.362532,-0.426762,-0.109887,-0.433795,-0.205105,1.06055,0.493831,0.108184,0.295759,-0.182161,-0.08291,0.379094,-0.643812,-0.730496,-0.380656,0.045726,0.091212
special,-0.131318,0.156475,-0.887388,0.026352,0.042939,0.197104,-0.51823,0.52981,0.691834,0.057602,0.114112,0.466169,0.296902,-0.25191,-0.318145,0.584636,-0.748778,1.206258,0.073194,-0.205783,-0.332531,0.16957,-0.154588,-0.265256,-0.516252,-0.273346,-0.27709,0.023044,0.828531,-0.123764,-0.456469,-0.561901,-0.157046,-0.692649,0.551692,-0.64297,0.372385,-0.338831,0.023712
generate,0.786067,0.304457,-1.144042,-0.470491,0.224741,-1.419049,-0.119324,-0.539557,0.320114,0.24453,0.850665,-0.501301,-0.264624,1.401977,-0.113705,-0.310479,0.662431,0.839856,1.290056,0.443417,-0.309849,0.651176,-0.214103,-0.630228,0.215261,-0.603919,-0.354449,1.011837,0.376652,0.036257,0.373091,-0.136662,0.38949,-0.540576,-0.773101,-0.722427,-0.276523,-0.502282,-0.010409
coefficient,-0.214506,1.06955,-0.383459,0.003503,1.110592,-0.992239,-0.086916,0.202597,0.777884,0.042591,0.776379,-1.583078,-1.052733,0.828536,-0.03984,-1.047889,0.811959,0.521071,1.252433,0.695461,-0.866793,0.672347,0.377235,-1.046341,-0.007946,-0.050322,0.692606,0.04739,1.110002,-0.28179,1.424033,-0.236772,-0.620676,0.214682,-1.792424,1.41364,0.878169,-0.002245,-0.802054
standard,0.007488,-0.287533,-0.952871,0.118953,1.052266,-0.113131,-0.045206,0.53379,0.973587,0.910672,-0.153819,-0.278103,0.080718,0.891572,-0.374909,-0.080809,-0.820197,1.279338,0.782376,-0.57183,0.095747,1.05323,-0.904973,-0.149929,0.093468,0.174236,-0.234004,0.833677,0.743987,-0.662195,1.020568,-0.495657,0.079192,-0.095136,-0.077281,-0.872812,-0.233007,-0.326471,-0.862403
identity,0.867432,0.250141,-0.506059,0.719714,0.112485,-0.069289,-0.499415,0.404137,0.031618,-0.319729,-0.784645,-0.449258,1.564816,0.965429,-0.303243,1.101541,-0.592788,-0.115399,0.443298,-0.218125,0.558002,-0.065809,-0.594139,-0.392489,0.046833,-0.662088,0.683203,0.643649,0.406924,-0.2126,0.397097,-0.184987,-0.025704,-1.199413,-0.831606,0.210509,0.287243,-0.260157,0.837595
four,-0.034227,-0.120359,-0.568356,0.122852,-0.025418,-0.731768,0.023737,0.583574,0.762519,0.120477,0.043128,0.329696,-0.28831,-0.613804,0.147314,0.271294,-0.514581,1.408857,-0.429622,0.028059,-0.102258,0.890972,-0.040706,0.236048,-0.138294,0.590652,0.371526,-0.264392,0.109723,-0.128406,-0.545457,-0.399361,-0.292785,-0.445448,-0.559258,-1.352261,0.379303,0.280769,-0.163589
rule,-0.503131,-0.184449,-0.210251,-0.325551,0.286008,-0.511087,0.243265,0.627837,0.811645,-0.229189,-0.148221,-0.38996,0.759416,-0.210211,0.062387,1.015804,-1.327471,-0.060088,0.210629,0.103281,-0.099408,0.465035,0.160624,-0.062692,-0.216368,-0.152117,0.862077,1.480584,0.681674,0.121973,0.980395,-1.234112,-0.521339,-0.391206,-0.853074,-0.261975,-0.957194,0.587659,0.446118
topological,0.360075,0.867992,0.172396,0.70616,-0.012476,0.313903,0.425946,-0.902577,0.166597,0.659156,0.377131,-0.610075,0.088732,2.355383,-0.0173,-0.569035,0.731621,-0.145794,1.358746,0.721255,-0.916341,0.004458,0.983048,-0.48894,-0.456817,-0.474424,1.022606,0.230939,0.733195,0.474111,1.140204,-0.883481,0.64144,0.692894,-0.950499,1.054731,2.042383,-1.035022,0.375808
computer,-0.199013,0.761706,-0.899238,-0.241326,-0.151536,-0.36007,-0.235773,-0.073213,-0.012102,1.145011,0.612173,0.39964,0.360231,1.410156,-0.309747,0.259681,-1.185085,0.717204,0.601515,-0.090554,0.666491,1.896956,-1.132339,-1.67153,0.816532,-0.877284,-0.104528,0.359528,0.035802,0.097803,0.277238,-0.865837,1.071691,-0.457672,1.163285,-0.327584,0.657668,-1.358903,-0.025121
derivative,-0.505873,0.373661,0.18674,0.460421,1.024099,-0.463733,-1.000392,-0.274228,0.820442,-0.828403,0.720407,-0.109745,0.119633,1.912533,0.2103,-0.664804,-0.193115,0.739299,1.519808,-0.095144,-0.407493,-0.105827,-0.384077,-0.038357,0.732529,0.588526,-0.475995,0.714009,0.737379,0.07012,0.708724,-0.391163,0.487602,-0.133222,-0.782789,0.496058,-0.419608,0.370687,-0.910501
symmetry,0.423485,-0.029218,0.462836,0.655267,-0.149336,-0.88574,-0.422939,-0.311991,0.41801,0.295394,0.01339,-0.908336,0.156389,2.087987,0.845296,-0.35435,1.062186,0.700908,1.390369,-0.124386,-0.846101,-0.143131,1.017641,-0.537857,-0.686471,0.276055,1.389145,-0.019151,1.235302,-0.230947,0.291522,-0.372278,-0.049629,0.241022,-1.43878,0.775117,1.831664,-0.167488,-0.529369
compact,0.652512,-0.146363,-0.299037,0.396595,0.140567,-0.375075,0.061959,-0.211692,-0.31201,0.280608,0.417358,-0.018718,0.101407,0.714905,0.195348,-1.120375,-0.183962,1.560194,0.544439,-0.623231,-1.254061,0.511217,-0.165486,-0.038461,-0.296088,-0.138792,0.161698,0.683152,0.053261,-0.823615,0.784817,-0.324193,0.754898,-0.060648,0.044889,-0.686091,-0.095608,-0.208187,-0.935434
factor,-0.064033,0.430734,-1.100491,-0.225441,0.143468,-0.968488,-0.889301,-0.019098,1.366174,-0.145313,0.200638,-0.898665,0.16968,1.060157,-0.876084,-0.039573,0.447696,0.786003,1.097611,1.101868,-0.267876,0.29422,-0.313841,-0.644986,0.172109,-0.242411,0.41853,0.739366,0.716537,-0.565007,-0.188625,0.111976,0.021162,-0.654024,-0.746815,0.861141,-0.848417,0.464239,0.284015
family,0.393626,0.119531,-0.320003,0.909182,0.129313,-0.434298,-0.580808,1.067339,0.04736,-0.602872,-0.84101,0.179976,0.595166,-0.319423,-0.757342,0.440328,0.435462,-0.458885,-0.587483,0.487678,-0.021016,0.141369,-0.246805,0.400436,0.768436,0.898914,0.296485,0.343275,-0.707305,0.337316,-0.614929,-0.693795,1.048902,-0.578942,-0.46605,-0.895069,-0.710248,0.078649,0.861334
transform,0.404226,0.333745,0.027095,0.747103,-0.436011,-0.57827,-0.191421,-0.124399,-0.530303,-0.068046,0.723518,0.035606,0.745838,0.53067,0.286932,0.207517,0.450888,0.685306,0.573765,0.469488,-0.314681,-0.030572,-0.223333,-0.827246,0.234605,0.096395,0.062026,0.972379,0.669786,-0.360742,-0.27505,0.026417,0.013573,-0.51327,-0.415882,-0.239754,0.839295,-0.111145,0.881489
convex,-0.303836,0.593895,0.717503,0.542925,-0.949632,-0.681989,0.496985,-1.110251,1.150538,-0.583014,0.438814,-0.327531,0.208487,0.663914,-0.815697,-1.270929,0.522072,-0.106198,0.794068,-0.281526,-1.381385,0.687637,0.222135,0.054468,-0.577146,0.912116,0.638101,0.302331,-0.899479,-0.130923,0.796469,0.226119,0.129321,-0.442751,-1.470704,0.193141,2.828159,-0.815493,-2.251392
domain,0.341324,0.170325,0.19219,0.133362,0.093825,-0.653355,-0.306199,-0.107593,0.670361,-0.710356,0.236383,-0.093608,-0.565942,1.726306,-0.614084,0.349255,-0.073817,0.27804,0.832034,0.300664,0.240651,0.374493,-0.665419,-0.698757,-0.276554,0.012896,0.813619,1.88512,0.614822,-0.527707,-0.342657,-1.370003,0.986541,-0.05942,-0.303543,0.406588,-0.182422,0.184911,0.774438
subgroup,-0.55424,0.670259,0.644429,1.587584,0.728815,0.485904,-0.814034,-0.419914,0.939476,-0.904408,-0.467247,-0.467955,-1.058924,1.365061,-0.012397,-0.228468,0.285214,0.018654,-0.268867,0.229921,-0.375695,-0.402792,0.323913,0.449937,0.399933,-0.50592,1.115418,0.930425,-0.371072,-0.371257,0.620598,-0.139989,0.277087,-0.115634,-0.97067,0.828954,0.430788,-0.221213,0.062429
construct,0.407352,0.673099,0.427741,-0.319826,-0.276255,-0.441965,0.163866,0.108248,0.453833,0.580995,-0.282406,0.607826,0.424253,1.024937,0.176903,-0.256976,0.795993,0.667218,0.506598,0.291381,0.075886,0.506716,-0.405559,0.318767,-0.010255,1.533746,0.156944,1.300344,0.426126,0.03585,0.032072,-0.280982,-0.496542,0.297765,-0.334223,-1.964811,0.708048,0.148872,0.696495
axiom,-0.306879,-0.036432,0.79138,0.328669,0.387429,0.009372,-0.760656,-0.609222,0.066395,0.893034,0.573712,0.350542,0.486462,1.53948,0.717476,-0.091617,0.59677,-0.691704,0.693323,-0.616939,0.014185,0.244578,0.669692,-0.172715,-0.325978,-0.801353,0.468009,0.07338,1.351607,-0.25201,1.109159,0.123005,0.391863,0.386997,-0.955145,0.874171,0.681628,0.010457,-0.755633
construction,0.391518,0.305212,0.301043,-0.464614,-0.168017,-0.120702,0.073029,-0.108333,1.000153,0.5428,-0.22581,0.479216,0.542776,0.155424,-0.164189,-0.520445,0.722904,0.770635,0.78613,-0.007682,-0.267624,0.587592,-0.731387,0.360361,0.08657,1.06417,-0.008144,1.074868,1.231093,0.6102,0.223854,0.030163,-0.742714,0.379751,0.501907,-2.13187,0.22817,0.507267,0.569447
therefore,-0.158152,-0.530284,-0.739485,0.041406,0.142477,-0.452103,0.159314,0.539568,0.783713,-0.199014,0.642794,-0.770637,0.307494,0.777064,-0.22522,0.645128,0.188,0.186845,0.491429,0.359744,-0.526292,0.637941,0.029939,-0.534143,0.364852,0.28691,0.400666,1.789464,0.447824,-0.364161,0.449644,-0.201878,-0.103956,-0.515779,-1.422676,-0.318377,-0.236011,0.873186,0.323823
compute,-0.338309,1.301303,-0.399716,0.109479,0.05977,-0.589553,-0.194957,-0.398008,0.190535,0.943638,0.785097,-0.048794,-0.540731,1.324942,-0.58638,-0.377969,-0.325439,0.184265,0.984566,0.297909,0.370359,1.473769,-0.697487,-1.705855,0.412748,-0.73438,-0.102945,0.892976,0.730397,-0.260257,0.528844,-0.775694,0.623673,-0.102756,-0.425724,0.429285,1.069766,-1.340267,-0.254782
normal,-0.219634,0.188842,-0.595653,0.118943,0.035906,-0.121542,0.630001,0.187005,1.481626,0.508966,0.443059,-0.46754,-0.374849,0.503805,-0.549636,0.464265,0.370063,1.025463,0.469086,0.83496,-1.024164,0.363715,-0.832011,-0.552322,0.869426,0.078357,-0.196155,0.255991,0.228867,-0.940376,-0.33835,0.156319,0.096885,-0.482564,-1.239112,-0.009333,0.448456,0.057049,0.053563
distance,-0.099249,0.533123,-0.998962,-0.055054,-0.18062,-0.441904,0.095074,0.732215,0.581684,0.556951,-0.161138,-1.045473,-0.741663,0.216462,0.216724,-0.04236,1.213811,1.04669,-0.245097,0.555859,0.322509,1.169199,-0.709733,-0.321331,-0.236138,-0.136383,0.555653,0.394614,-0.11838,-0.17233,0.781783,0.460146,-0.256648,-0.190677,-1.263544,-0.988387,1.03985,0.399345,-0.119743
notation,-0.642572,0.682929,0.648402,0.143755,1.133917,-0.495817,0.670398,-0.204226,0.708432,0.421225,0.484638,-0.594245,-0.393565,2.36206,0.429734,0.145004,-0.445076,0.185762,0.245493,-0.511124,0.854821,0.557637,0.193517,0.089607,0.029133,0.844433,0.043698,0.414395,0.83531,-1.085578,0.732653,-1.001467,0.080704,-0.15325,-0.367821,0.590504,0.798931,-0.099453,-1.199653
parameter,0.154761,1.401681,-0.630113,-0.617879,0.252256,-0.435431,0.024222,0.07553,1.38428,0.32595,0.703628,-0.775147,-0.818209,2.131735,-0.269392,-0.27627,1.011106,0.572477,0.903039,0.382595,-0.351836,1.29144,0.143448,-1.004391,0.169471,-0.257533,-0.115385,1.089859,1.314144,-0.789759,1.218174,-0.585433,0.054433,-0.560119,-1.045162,0.99487,0.676595,-0.324097,-0.809907
euclidean,-0.2111,1.717345,0.905228,0.588891,-0.048333,-0.455364,-0.265935,-0.310076,0.288132,0.481343,0.174261,0.18633,-0.145543,1.778247,0.466508,-0.65259,0.444564,-0.590601,0.89381,0.085803,-0.700988,0.10386,0.519885,-0.272276,-0.339291,-0.247513,0.129725,0.014853,0.777136,-0.21555,1.587692,-0.386791,-0.286111,-0.287876,-1.399719,0.560534,2.521713,-0.553171,-0.660887
symmetric,0.33319,0.844478,0.480763,0.615905,0.135939,-1.025394,0.248394,-1.001384,-0.083453,-0.184328,0.335052,-0.230445,-0.71473,1.471282,-0.256931,-0.556952,0.608692,0.383453,1.512033,-0.33961,-0.857136,0.510824,0.183897,-0.079431,-0.050051,-0.138186,0.805752,0.399275,0.589209,-1.061155,1.316425,-0.127146,0.493851,-0.441218,-1.293767,0.745092,2.154746,-0.130198,-0.343013
metric,-0.128414,1.013931,-0.698317,-0.280625,0.758507,-1.100006,-0.351071,-0.013773,0.67077,0.542892,0.619399,-0.497282,-0.356114,1.359859,-0.267532,-1.159272,0.787444,-0.331802,0.719879,-0.439257,0.090004,0.587842,0.303222,-0.355931,-0.301576,-0.227424,-0.274643,0.257165,1.086994,0.181245,1.304915,0.035884,-0.023761,-0.25239,-0.830271,-0.244687,0.20792,-0.846682,-0.515115
test,-0.48712,-0.361045,-1.783421,-0.708438,-0.07009,-0.066345,-0.702124,0.551211,1.04682,1.04003,0.440105,-0.048728,-0.643205,1.104844,-0.732071,0.602678,-0.394956,1.237004,0.579581,0.337597,-0.399065,1.298743,-0.083248,-0.267215,0.197396,0.211032,0.125206,-0.130536,0.283491,0.351067,0.202851,0.435699,-0.35263,-0.132706,-0.396044,0.195792,-0.271449,0.214465,-0.144517
bundle,0.210303,-0.126412,-0.002557,-0.178854,-0.108954,-1.34409,0.390165,0.129555,-0.060226,-0.262656,1.23569,1.131752,0.130794,0.748473,-1.177518,-1.089782,-0.355152,0.668147,1.009606,-0.67154,-0.021586,0.014129,-0.167654,-0.726562,-0.3111,-0.127375,0.120655,0.627618,0.070843,-0.773556,-0.092878,-0.369921,1.1283,-0.519282,-0.668132,0.151349,0.791463,-0.885502,-0.594194
center,0.714015,1.202003,0.297284,-0.492808,-1.161339,-0.523751,-1.282577,-0.847127,1.359687,0.447635,-0.768084,-0.513574,-0.151619,-0.494442,-0.205965,0.126352,0.113508,0.867418,-0.417571,-0.796776,0.076843,-0.091383,-1.035564,-0.92124,0.164227,0.059331,-0.174787,-0.252263,0.431605,-0.656216,-0.531604,0.352478,0.212408,0.187843,0.463595,-1.479374,0.440427,-0.157212,0.910122
symbol,0.297982,0.322149,0.31386,0.82258,0.300027,-0.227156,-0.098818,0.596309,0.237597,-0.261699,-0.055609,-0.642713,0.646778,1.25842,0.466137,-0.021837,-0.83322,0.803598,-0.363794,-1.152144,0.043689,-0.809014,-0.621404,-0.408018,-0.949162,0.590027,0.190606,0.861937,0.889979,-0.98637,0.540819,-0.820757,0.055569,-0.39622,-1.444917,-0.151,0.546835,-0.56936,0.145356
projective,0.432149,0.543266,0.834158,0.490916,-0.310882,0.428069,-0.427862,0.097562,0.468886,0.582246,-0.135117,0.425721,-0.157696,2.121686,-0.262573,-0.436928,0.073445,-0.184378,1.291545,-0.167524,-1.181944,0.230256,0.944345,0.065135,-0.636472,-0.261768,-0.012578,-0.407272,0.516783,-0.15709,1.12809,0.642601,-0.138093,-0.448668,-1.031198,1.120636,3.037113,-0.686157,-0.863856
sphere,0.221907,0.116759,0.100403,0.665437,-0.343545,-0.704849,-0.142194,-0.049382,-0.315226,-0.174659,0.363941,-1.309369,0.818369,0.678937,0.599873,-0.656025,0.349183,0.514965,0.038128,-0.813638,-0.74125,0.27417,0.138317,-0.945025,-0.363959,-0.506529,0.473529,0.997807,0.800247,-0.121674,0.528134,0.195298,-0.437111,-0.511617,-0.514618,-0.10671,1.003908,-0.575032,-0.028819
interval,-0.645639,0.214538,-0.145673,-0.448062,0.51431,-0.710815,1.09293,0.021235,1.013861,0.498377,0.521821,-0.554254,-1.263957,0.734137,-0.440339,-0.091922,0.738388,0.509598,0.601414,0.588907,0.082108,0.901986,0.408646,0.460267,-0.171535,-0.205147,0.45121,0.50311,0.490361,-1.014296,-0.046753,0.016063,-0.299324,-0.754207,-1.074499,0.032955,0.694093,0.055202,-1.059155
single,0.870274,-0.345038,-1.366395,0.058563,0.393175,-0.469262,0.617185,0.414142,0.705655,-0.139674,0.433612,0.060398,0.080023,-0.219185,0.154879,0.333831,0.047659,2.204273,0.068334,0.025541,0.506519,0.367502,0.563123,-0.075154,-0.014463,-0.232998,0.476009,-0.618687,0.216454,-0.771243,-0.05603,-0.910851,0.605709,-0.587032,-0.303853,-0.570307,-0.081991,0.0833,-0.561821
geometric,0.782934,1.526036,0.676442,0.124056,0.044307,-0.559327,0.456927,-0.273225,0.797221,0.446336,0.516116,-0.933058,0.896787,2.376195,0.279051,-1.186867,-0.022327,0.17369,0.135973,0.181976,-0.159746,0.128873,0.043175,-0.700043,-0.869911,1.423333,0.770921,-0.010481,0.326228,-0.240126,0.491367,-0.314573,-0.742189,-0.549246,-0.749994,-0.128406,1.525933,-0.822226,-0.621666
ideal,0.511195,0.210009,-0.104335,0.909592,-0.092217,-0.721788,-0.595375,0.233747,0.048077,0.624086,0.371794,-0.832543,1.301243,0.330856,0.670961,0.174296,0.504131,0.260029,0.496774,0.564572,-0.4352,-0.182422,-0.152588,-0.723042,-0.032809,0.394529,-0.471316,1.0334,0.319597,-0.712014,0.871861,0.44672,-0.418252,-0.630627,-0.582628,-0.202413,0.447921,0.149561,-0.090079
dual,-0.076891,-0.029236,-0.880887,0.66816,0.140667,-0.594173,0.048283,0.571548,0.283639,0.937845,-0.778269,0.208969,-0.424369,0.384113,0.097566,-0.246932,-0.352051,1.299591,0.783835,-0.104716,-0.734522,0.547475,-1.058788,-0.843612,0.454886,-0.331572,0.889124,0.212893,0.369888,-1.007054,0.981868,-0.576354,-0.01922,0.222486,-0.384245,-0.37265,0.286604,-0.071564,-0.440944
module,0.245364,0.330145,-0.515038,-0.022851,-0.781296,-0.132088,-0.583697,0.267072,-0.051266,1.021219,1.095501,1.094983,-1.170328,1.756636,-0.316322,-0.566271,-0.369569,1.199864,1.029254,-0.546802,-0.097519,1.24596,-0.231349,-0.75395,0.450061,-0.293808,0.016456,0.888481,0.999966,-1.136614,0.722619,-0.317104,0.309367,-0.176753,0.398819,-0.213496,0.820224,-0.615928,-0.186007
invariant,-0.467515,1.156654,0.362248,0.490277,0.353997,-0.738903,-0.157457,-0.254346,0.816438,0.085447,0.34781,0.108677,-0.480423,2.060248,0.679064,-0.268887,1.291938,-0.229839,1.267816,0.229648,-0.752342,0.235209,1.025564,-0.11545,-0.460694,-0.331993,0.185369,0.706966,0.896353,-0.142004,1.488043,-0.68519,0.241669,0.143982,-1.034146,1.207148,2.063968,-0.139483,-0.503079
$\mathbb{Q}$,-0.031639,0.504153,-0.643118,0.324754,0.242063,-0.191433,-0.205503,0.418279,0.205984,-0.443864,0.044564,-0.131734,-1.029134,0.384935,0.200874,0.033761,0.278455,0.861214,0.110047,-0.141374,0.944381,-0.125383,-0.066223,-0.609082,-0.013823,-0.315215,0.210516,-0.496133,0.836017,-0.246122,0.260581,-0.760973,0.135315,0.22618,-0.794505,0.631438,0.171194,-0.083944,-0.748807
index,0.291991,0.552643,0.067112,-0.347815,0.700892,-0.579306,-0.340679,0.174217,1.149669,0.102927,-0.314989,-1.115413,-0.122337,0.758719,-1.125038,-0.76851,-0.139957,0.219978,0.282229,-0.10071,0.427347,0.452388,-0.179824,-0.639155,-0.262682,-0.184137,-0.605887,0.78401,1.175781,0.309425,0.229084,-0.107317,0.65917,-0.253518,-0.646917,0.542832,-0.228039,-1.069714,-0.38143
information,0.25892,0.222835,-0.926926,-0.863733,0.13336,0.492652,-0.657299,0.053351,0.813382,0.249069,0.020626,-0.371021,0.183397,1.204497,-1.099013,0.986788,-0.471195,0.410905,0.335431,-0.360985,0.678046,1.166838,-0.702213,-0.720805,-0.125336,-0.572889,-0.202481,1.539424,0.597781,0.310074,0.337866,-0.176471,0.615355,-0.513583,0.417762,-0.236487,0.247194,-0.412928,0.598616
transformation,0.462638,0.697054,0.301351,0.699009,-0.34502,-0.85723,-0.613779,-0.202299,0.253607,0.215617,0.308689,-0.321236,1.013439,0.990643,-0.044597,-0.030654,0.238346,0.574885,1.077749,0.426375,-0.039677,0.098259,-0.002499,-0.578664,0.043042,-0.067338,0.240539,0.966524,1.296821,-0.217229,-0.01694,0.176438,-0.216333,-0.473945,-0.215955,0.771999,0.542421,-0.460952,0.431565
extension,0.658291,0.312399,0.55309,-0.326176,-0.456158,-0.406493,0.296374,-0.390677,1.051013,0.668782,-0.534839,0.645906,-0.320291,0.250338,-0.68897,0.449078,0.032734,0.89083,0.99533,-0.190165,0.194228,0.748199,-0.617244,0.135673,0.405555,0.193041,0.078526,1.28094,0.417757,-0.461857,0.272628,-0.372915,0.129392,0.482552,-0.477125,-0.955863,0.616371,-0.351188,-0.221231
direct,0.207061,0.814182,-0.669276,-0.070916,0.032217,-0.031883,-0.35418,0.642131,0.074427,-0.797406,0.226207,0.566273,0.903856,0.154015,0.295604,0.924622,0.941091,0.836431,0.584896,0.296165,-0.130148,0.306604,-0.054172,0.044048,0.117766,-0.428257,0.141452,-0.377489,0.411466,0.573949,-0.385404,-0.613833,0.127241,-1.018279,1.079212,0.208865,0.052941,0.413857,-0.378362
uniform,-0.199998,0.015176,-0.532087,0.252593,0.725442,0.359779,0.145738,-0.101125,0.584697,-0.028434,0.411711,-0.207688,0.254886,0.056953,-0.538814,-0.198141,-1.426468,0.850058,0.073707,-0.194793,-1.430079,0.214402,-0.603749,0.01431,-0.651979,0.882129,-0.727101,0.105684,0.528365,-0.951857,0.50215,-0.424959,-0.555997,-0.642984,-0.708621,-0.456796,1.155778,-0.376844,0.30328
path,0.23182,0.9807,-0.207457,0.028894,-0.992344,-0.245718,0.357291,0.42357,0.361823,0.696725,0.093326,-0.305249,0.249945,0.291114,0.353676,0.240629,0.796517,1.076527,0.490499,0.568812,0.569163,0.263059,0.105557,-0.278197,-0.146885,-0.37829,0.084322,1.259001,0.148089,-0.688672,0.358656,0.273234,-0.443962,-0.091564,-0.959727,-0.657157,1.071654,0.107581,0.266941
negative,0.500209,0.140361,-1.097828,-0.111938,-0.164682,-0.880949,-0.325354,0.025266,1.037348,-0.523178,0.184536,-1.402372,0.686887,1.019678,-0.337598,0.422672,0.56949,0.257637,1.589596,0.504103,-0.256964,-0.133932,-0.230978,-0.40481,0.163676,-0.373197,-0.055706,0.247426,0.266784,-0.226343,-0.217753,-0.030317,0.189494,-1.191425,-1.331779,0.463861,-0.325721,0.322085,-0.597725
image,1.318961,0.103151,-0.150006,-0.706352,-0.371953,-0.0935,0.250718,0.363505,-0.241076,0.18998,0.088339,-0.488429,0.693486,1.714597,-0.080288,0.099123,-0.279318,1.089362,-0.140984,-0.250747,0.039021,0.458295,-0.583677,-0.857534,-0.681415,0.02789,0.009307,0.58599,0.240031,-0.405172,-0.646959,-0.32643,0.487202,-0.920939,-0.401887,-0.364987,0.525355,-0.926725,-0.486265
member,-0.384326,-0.447501,-0.488406,0.028787,0.393039,-0.350006,-0.894486,0.281761,0.21167,-0.45278,-0.678255,-0.532376,0.128152,-1.309238,0.082402,1.49698,-0.579947,0.231415,-0.514801,-0.394844,-0.973032,0.414782,-0.466817,-0.455326,-0.152299,0.0651,0.426631,0.46532,-0.249709,0.126033,-0.341728,-0.987463,0.24603,-0.479066,1.220841,-0.442974,0.088072,-0.142925,0.758375
inverse,-0.222393,1.477401,0.12201,-0.010439,0.60978,-0.54887,-0.049769,0.145193,0.445404,-0.354001,0.61442,-0.728778,-0.614719,1.66212,-0.107314,-0.625815,0.571308,-0.06367,1.630726,0.620917,-0.544991,0.217436,0.034223,-1.063047,-0.35408,-0.607664,-0.059669,0.31465,0.743448,-0.369415,0.353568,-0.3162,-0.267446,-0.091605,-1.117971,1.418474,1.114047,0.085847,-0.517414
step,0.489284,0.393707,-0.83131,-0.132032,-0.440828,-0.728333,0.441359,0.146749,0.541998,0.277695,0.577729,0.077592,0.284926,0.047336,-0.279662,0.852641,0.148667,0.705522,0.892443,-0.084429,-0.140595,0.41086,0.642248,-0.31143,0.002863,0.333399,0.5911,0.406954,0.593045,-0.569207,0.029236,-0.433163,-0.635291,-0.256242,-0.221198,-0.425658,0.205036,0.462194,-0.145218
independent,-0.056438,0.067843,-0.462837,0.214732,0.666526,-0.512996,-0.985985,-0.36542,0.128708,-0.297264,-0.887279,-0.361548,0.366758,-0.636917,0.159988,0.981775,-0.462993,0.619889,0.491569,0.09552,-0.447954,0.27972,-0.567377,-0.383046,0.021492,-0.517224,0.234551,0.806094,0.307871,-0.203403,0.071358,-0.930715,-0.011645,-0.430628,0.27708,-0.650931,0.061647,-0.144663,-0.075205
arithmetic,-0.935456,0.974932,0.483641,0.286411,0.694595,-1.107285,0.699045,-0.046475,0.60362,1.490283,0.398373,0.065492,-0.639918,1.635853,0.132512,-0.322684,-0.277141,-1.091826,0.843445,0.886329,0.84409,0.757757,0.178139,-0.662775,0.588374,0.179624,-0.922081,0.4526,0.898426,-1.140609,1.009897,-0.858332,-0.045348,-0.536666,-0.78112,0.532002,1.342773,-0.940231,-0.481202
position,-0.562367,-0.171428,-0.709076,-0.096074,-0.34537,-0.813618,0.172788,-0.223382,0.786099,-0.243766,-0.215719,-0.606677,-0.036234,-0.684288,0.124664,0.879476,-0.670515,0.368229,0.019235,-0.285845,-0.574711,1.460849,-0.582307,-0.295471,-0.043046,0.586891,0.542768,0.791922,0.392357,-0.277563,0.323884,-0.259688,-0.933486,-0.456452,-0.209198,-0.351488,0.587261,0.91281,-0.212954
calculus,-1.259667,1.246775,1.114783,0.338627,0.214555,-0.431821,0.052989,-0.091072,1.082235,0.906356,0.583921,0.524067,-0.002463,1.40085,-0.028908,0.122296,-0.413631,-0.786793,0.530773,0.391781,-0.669581,0.555483,0.55025,-0.708767,0.719646,-0.077649,-0.388442,0.622704,0.653431,-0.349938,0.508395,0.03709,-0.286819,0.138791,-0.227791,1.433629,0.965244,-0.96086,-0.689108
rational,0.074754,-0.019732,0.332246,0.368781,-0.351602,-0.521076,-1.110217,0.065687,0.813374,0.847108,0.408814,-0.537434,1.474929,1.129153,0.562944,0.159165,-0.302013,-0.817761,1.680265,0.474939,-0.012849,0.508584,0.545363,-0.68334,0.015157,-0.150845,-0.387221,1.062756,0.425421,-0.548987,1.12419,0.091469,0.105811,-0.329434,-0.777427,1.008145,0.465237,0.250655,-0.258689
law,-0.251069,0.02068,-0.201231,-0.49745,0.282418,-0.269551,-0.240783,0.88043,1.232421,0.420145,-1.187463,-0.586687,1.348637,-0.519627,-0.146342,1.427244,-0.643776,-1.05585,0.226553,-0.373069,-0.812051,0.382375,-0.04481,-0.745944,0.167872,-0.25281,-0.51292,0.99507,0.924582,0.61449,0.355184,-0.771836,-0.039828,-0.095817,-0.041862,-0.188388,-0.239907,0.099801,1.033382
tree,0.546721,0.946051,-0.30493,0.199214,-0.621372,-0.196334,0.233563,0.593392,0.464737,-0.385056,0.902035,0.045592,0.427391,0.12135,-0.775665,0.03199,1.001859,1.183874,-0.936697,0.096671,0.564373,-0.411432,0.70701,0.48788,-0.167283,1.106461,-0.322685,1.514799,-0.672143,-0.527441,-0.191783,0.065714,0.417951,-0.275292,-1.028393,-0.778983,0.029724,-1.038546,0.550425
component,0.051056,0.524723,-0.799923,0.05622,0.160315,-0.663477,-0.612002,-0.240851,0.709081,0.092092,0.523482,-0.196269,-0.141598,1.761215,-0.227975,-0.630417,-0.194731,1.807429,1.011964,-0.128546,-0.845173,0.536071,-0.749508,-0.834229,0.392632,0.204976,0.007007,1.332213,0.904894,-0.994941,0.50941,-0.228575,-0.056646,-0.218973,-0.057733,-0.133247,0.137561,-0.287508,0.024768
lattice,0.772953,1.267556,0.441273,0.175568,-0.223702,-0.47098,0.709784,-0.85963,0.14233,0.254325,0.457166,-0.846708,-0.311332,1.753062,0.041383,-0.859968,0.93299,0.663673,1.464943,0.248324,-1.310818,0.006231,0.629072,-0.416971,-0.242973,0.969632,0.830756,0.098479,0.724707,-0.017741,0.573086,-0.859684,-0.009207,0.455505,-0.949339,-0.011315,1.877823,-0.672017,0.005878
inequality,0.520797,1.371212,-0.149146,0.513606,-0.128352,-1.10991,-0.523209,-0.311297,0.887471,0.492025,-0.523424,-1.488935,1.185457,-0.13599,-1.047555,-0.373387,0.71575,-1.276281,1.596744,0.793138,-0.174804,-0.451562,0.228738,-0.493459,-0.134037,-0.999748,0.370917,0.463558,0.632559,0.043848,1.346778,0.553734,-0.403994,-0.815795,-0.73153,0.942616,-0.150419,-0.745688,0.631101
volume,0.057777,-0.116792,0.394972,-0.238256,0.019837,-1.085045,0.4834,0.68887,0.398816,0.429878,-0.42346,-0.610883,0.343776,0.722117,-0.001635,-0.880167,-0.638444,0.920547,0.159422,0.502988,0.773744,0.651643,1.077415,0.085649,0.142866,0.148254,-1.214198,0.170371,1.191873,0.725874,-1.24865,0.172898,0.695868,-0.507096,0.28485,0.075978,-0.18424,-0.991805,-0.36644
section,0.355191,0.028671,-0.030377,-0.161916,-0.094522,0.243667,0.359473,0.457076,1.530796,0.347607,-1.059364,-0.378682,-0.188602,0.20194,-0.324071,0.118762,-0.436557,1.217457,0.457088,-0.028162,-0.195361,0.535822,0.254756,0.555718,-0.468621,0.098568,0.132553,0.743171,0.259519,-0.151097,0.000805,-0.141946,0.035177,-0.073594,0.081034,-1.393906,0.939175,0.217131,0.058721
add,0.470897,0.061132,-0.532091,-0.628078,0.277229,-0.430573,0.184877,0.027075,0.413419,0.208439,0.470721,0.287627,0.321189,0.306571,-0.303036,0.17374,-0.465753,0.817362,0.624704,-0.190842,0.343985,0.474877,0.094056,-0.053202,0.28788,0.675132,-0.396698,0.42211,0.382243,-0.728688,-0.058242,-0.565445,-0.055054,-0.423181,-0.463182,-1.236126,-0.197679,0.094001,-0.808952
$\mathrm{e}$,0.41794,-0.243519,0.037575,-0.001756,-0.222069,0.050793,0.042738,0.884505,1.081344,-0.70878,-0.968037,1.096932,-0.355948,0.51448,-0.179786,0.111081,-0.098807,1.323412,-0.623087,0.153877,0.76357,-0.609137,-0.192065,-0.637913,0.681179,0.289527,-0.523612,0.334671,0.938152,0.501184,0.335938,-0.195032,0.757572,-0.101482,1.023341,0.175697,-0.195914,0.702609,-1.616467
fundamental,-0.132848,-0.117713,-0.110016,0.168177,-0.336411,-0.93802,-0.575352,-0.115431,1.145579,1.078646,-0.140271,-1.024431,1.215219,1.284192,0.568596,0.528281,0.079741,0.075411,0.790343,0.033557,-0.331838,0.474866,0.289009,-1.046688,-0.101424,-0.19328,-0.007002,1.342645,1.285752,-0.291341,0.671211,-0.04416,-0.341275,-0.340931,-0.142013,0.702841,0.412506,-0.410131,0.268032
game,0.081346,-0.323769,-0.691337,-0.60869,-0.745317,-0.631955,-0.643328,-0.886672,0.596615,0.371023,1.417526,0.244757,0.288468,-1.352027,0.418849,0.486045,-2.114689,1.626423,-0.275198,0.834295,1.611972,1.190199,-0.564005,-0.236203,-0.277944,-0.756446,0.174931,-0.986774,-0.379763,0.133263,0.073212,-0.805007,0.48608,-0.424025,-1.574391,-0.825047,-0.268845,-0.328838,-0.139576
polytope,-0.506208,-0.104506,1.634888,0.819413,-0.486075,0.235373,-0.17429,-0.756668,0.642142,0.280843,-0.341841,0.712955,-0.794468,1.376472,-0.358247,-1.384511,-1.736329,-0.738335,0.713305,-0.163491,-0.603607,-0.727628,1.173224,0.416221,-1.140811,0.126862,0.22474,-0.975212,0.59556,-0.065835,0.371184,0.144998,-0.253327,0.394339,-1.068779,1.468547,2.472406,-1.267559,-0.866265
smooth,0.026984,-0.31874,-0.720104,0.073071,-0.15648,-0.386124,0.699456,-0.705319,0.793011,-0.726627,0.498836,-0.167317,0.673437,0.157353,-0.561587,-0.762255,0.89361,1.385303,0.201925,0.067039,-0.886466,-0.045567,0.173567,0.111964,-0.210761,1.129499,-0.010313,0.639829,-1.096255,-1.534019,-0.084221,-0.000429,0.23452,-0.619304,-0.501878,0.026678,0.912206,-0.406115,-1.813638
partial,-0.028869,0.537207,0.17315,-0.63992,0.161563,-0.194953,0.465667,0.317812,1.017869,0.197978,-0.353286,-0.387263,0.108629,0.791143,-0.422051,0.176789,0.346808,0.832942,0.526585,0.48308,-0.886664,-0.184139,0.147309,0.255796,-0.067985,-0.186343,0.280256,0.187948,0.788149,-0.232701,-0.264818,-0.303902,0.159212,-0.2249,-0.807737,0.11432,-0.063017,-0.067318,0.055923
extend,0.495724,0.058351,-0.13763,-0.214187,-0.251159,-0.352401,0.745837,-0.201866,1.035591,0.092267,-0.699388,-0.059382,0.075792,-0.134732,-0.422629,-0.102671,0.421938,1.037531,0.06592,-0.043341,-0.019559,0.685656,-0.197882,0.343898,-0.065476,-0.096433,0.431079,1.273207,0.173184,-0.539308,-0.012766,-0.118231,0.032234,0.176651,-0.686429,-1.254071,0.301709,0.104356,-0.21699
multiplication,-0.555375,1.06491,0.35779,0.177858,0.532959,-1.375405,0.281483,-0.180575,0.080732,0.393397,1.01222,0.385671,-1.227728,1.358513,0.158936,-0.539949,0.146379,-0.223318,1.285435,0.929624,-0.119585,-0.170475,1.005626,-0.356771,-0.017842,-0.130563,-0.462768,0.43079,0.73815,-1.037615,0.87987,-0.414379,0.210762,-0.53416,-1.048602,0.893842,1.147497,-0.302268,0.319327
boundary,0.385331,0.784654,0.542244,-0.409183,0.216655,0.333441,0.154159,-0.345934,0.86763,-0.247943,-1.433866,-1.065967,0.232211,-0.115037,0.027236,0.096822,0.855201,0.962707,0.209138,0.791777,-0.2075,0.50226,0.52568,0.345398,-0.070574,-0.387998,0.56811,2.298324,0.006757,-0.317802,0.308049,-0.378514,-0.663564,0.501091,-1.058811,-0.863609,1.038149,-0.454545,0.076369
local,0.189625,-0.007338,-0.464875,-0.285139,0.975881,-0.215921,-0.562038,0.294802,0.644418,-0.287117,-0.28112,0.094487,0.311027,-0.634661,-0.300715,0.832091,0.131205,0.508262,0.417821,0.319859,0.165211,-0.056895,-0.8029,0.112599,0.358434,-0.113639,0.078416,1.504168,-0.35139,0.025248,0.089935,-0.078187,-0.278035,-0.251575,0.234146,-1.679925,-0.01178,0.00485,0.966441
node,-0.055828,0.439101,-0.197217,-0.216962,-0.604321,-0.864494,0.71927,-0.188321,0.763841,-0.325845,0.465938,0.460601,-1.503921,1.538779,-1.412641,-0.203584,0.710452,0.369693,0.993574,-0.0383,0.213052,0.432262,-0.466347,-0.967826,0.247773,-0.210341,0.711363,1.591908,0.052021,-1.319251,0.405656,-0.517481,1.03434,-0.302884,-1.014904,0.513617,1.226732,-0.309636,-0.06988
develop,0.079268,0.395425,-0.659321,0.40935,-0.194666,-0.754016,-0.630438,-0.20333,0.411033,0.509683,0.590903,0.049875,1.019299,1.034559,-0.176214,0.058872,0.197824,1.137152,0.434375,0.032003,-0.004691,1.228516,-1.141324,-0.452668,0.755961,0.484303,0.231482,0.957134,-0.183919,-0.349277,-0.188031,0.361878,0.079555,-0.187947,0.593495,-0.3318,-0.464499,-0.034976,0.270584
difference,0.153626,0.127617,-0.746127,0.267511,0.318067,-0.997039,-0.438006,0.214881,1.330428,-0.067369,-0.095762,-1.149154,0.56748,0.891637,-0.354262,0.08294,0.149377,0.646812,0.526438,0.347616,0.084594,0.799793,-0.149299,-0.273714,0.321032,0.114071,0.494505,0.836735,0.265855,-0.763536,0.46478,-0.098655,-0.261901,-0.979049,-1.368596,0.395734,-0.093641,0.097847,-0.585847
statement,0.079477,-0.265157,-0.814897,-1.091624,-0.462532,0.136381,-0.366122,-0.155393,0.747167,-0.156944,-0.467716,-0.725573,0.750578,0.744666,-0.116965,2.146794,-0.627876,-0.812141,0.904733,-1.311608,0.090085,0.029486,0.205956,0.368321,-0.501961,-0.507106,-0.529411,0.979952,0.803552,0.193191,0.62386,-0.102468,-0.345832,-1.043307,-0.688188,-0.097804,-0.315044,0.322693,-0.678075
tensor,-0.663168,1.2696,0.675312,-0.695026,0.553783,-1.184354,-0.019604,-0.313028,0.264118,-0.356158,0.400114,0.752893,0.13899,1.492045,0.25269,-1.159271,0.988029,-0.113011,0.870076,0.020115,-1.163046,-0.298112,0.62369,-1.519553,0.317917,-0.464039,0.572907,0.311642,1.449038,-0.530098,1.446848,-0.341226,-0.35844,-0.127099,-1.301917,1.643146,1.995073,-0.380652,-0.783159
discrete,0.117498,1.280491,0.083382,0.139187,0.439585,-0.934374,0.228852,-0.159723,0.531645,0.350551,0.469212,-0.241011,-0.475775,1.90801,-0.116111,-0.702139,0.249585,0.345924,1.068009,1.066219,-0.567294,0.930606,0.229832,-0.91564,-0.151362,-0.683922,0.190104,0.963516,0.393135,-0.457885,0.570819,-0.813836,0.2985,-0.521984,-0.482049,0.745739,1.358636,-0.871316,-0.248848
variety,0.30265,0.436876,-0.710368,0.547772,1.023007,-0.142947,-0.60568,-0.362462,1.000928,-0.323963,0.859921,-0.373815,0.880554,0.900221,-0.509582,0.377146,0.041268,1.235076,-0.394646,0.132203,0.180854,-0.101769,-0.578358,0.096479,0.12243,0.838613,-0.601194,0.685867,-0.608438,-0.451076,-0.360949,0.106179,0.101346,-0.843535,0.1264,-0.635996,-0.237148,-0.515269,-0.342392
generalize,-0.519296,1.481293,0.444659,0.0421,-0.06012,-0.381077,0.086483,-0.289972,0.95705,0.251348,0.400586,-0.309528,0.154312,1.567914,-0.538422,-0.245571,0.755116,-0.320773,1.205723,0.772486,-0.518082,0.367543,-0.09001,-0.294628,0.233644,-0.326536,0.145168,0.447357,0.326948,-0.408773,0.909826,0.174263,0.16905,-0.295331,-1.153958,1.733913,0.879061,-0.453577,-0.337965
sample,0.499423,0.232987,-1.406278,-0.889834,0.92246,-0.183833,0.232835,0.193379,0.488587,-0.326114,0.76582,-0.860416,-0.48843,1.705468,-0.364419,0.06899,0.451771,1.041733,-0.055715,-0.096217,0.437661,0.1499,1.29386,-0.62628,0.570886,-0.419465,-0.165554,0.070533,0.048334,-0.527822,-0.208402,-0.496322,0.688828,-0.727332,-0.110195,0.044128,-0.060839,-0.475515,-0.168002
statistic,-0.256999,0.0471,0.084476,-0.871358,0.572393,-0.388279,-1.166327,-0.391319,1.832948,0.572152,-0.025623,-0.908595,-1.054533,-0.890955,-0.685695,0.728679,-0.932594,0.340215,-0.336369,0.798052,1.125801,0.824691,-0.722355,-0.540315,0.556849,-0.233486,0.336314,-0.277553,0.383338,1.263645,1.562676,0.045046,-0.102561,0.196334,-1.271601,0.2009,0.471193,-0.817091,0.26492
axis,-0.354079,0.476396,-0.171631,0.021908,-0.906126,-1.072464,0.650939,0.019464,-0.143576,-1.122228,-0.164725,-0.932117,-0.207855,0.970962,0.25276,-1.330594,0.411814,1.547252,0.471777,-0.505593,-0.685848,0.121903,-0.653278,-0.189242,-0.649863,0.119842,0.741841,0.733005,0.664836,-0.383515,0.259202,0.524361,-0.505305,-0.778,-0.771183,-0.088612,1.289068,0.205247,0.213409
hyperbolic,-0.239971,1.121579,0.877023,0.160847,-0.827599,-0.531619,0.178293,-0.391757,0.412298,-0.042585,0.503092,0.01822,-0.004382,1.355021,0.268101,-1.026239,0.752667,-0.661649,0.959871,0.025638,-0.979857,-0.110877,0.143127,-0.329082,-1.090963,-0.139229,0.006578,0.085293,0.578989,0.047154,0.278632,-0.081999,-0.709329,-0.221329,-1.295294,0.98091,1.543822,-0.808279,-1.679078
rotation,-0.928708,0.44512,-0.54445,-0.696654,-0.266638,-1.435228,0.198277,-0.256118,0.646671,-0.007253,0.832327,-0.252281,-0.881891,0.444171,0.446749,-0.63286,0.87731,0.972526,0.068128,-0.226101,-1.034541,0.981811,0.014572,-0.274434,-0.474232,-0.520095,0.029964,0.119587,0.351387,-0.898354,0.291421,0.445202,-0.475331,-0.47747,-1.096647,0.629321,0.895548,-0.202396,-0.791602
Hilbert,-0.575477,1.428033,1.412092,-0.250351,0.102862,-0.46155,-0.08342,-0.292423,0.088914,0.397857,0.412244,-0.067596,-0.108908,1.060489,0.386384,-0.271005,0.951379,-1.094138,0.727862,-0.104976,-0.345515,0.524898,0.779841,-0.241809,-0.310841,-0.204869,0.289074,-0.41629,0.947288,-0.358996,0.873991,-0.549152,0.418732,0.134358,-0.785957,0.989146,2.046642,-0.26961,-0.087504
digit,-0.744473,0.452619,-0.695379,0.004674,0.825695,-0.643735,1.085308,-0.300563,1.510566,-0.514647,-0.145997,-0.006161,-1.3499,0.862979,-0.923837,-0.768173,-1.013803,0.357628,0.536046,-0.261944,0.043723,0.788093,-0.05496,0.386588,-0.76561,-0.147599,0.396895,0.156843,0.435676,-0.867438,0.832976,-1.168262,0.64921,-0.367666,-1.764494,0.014564,0.652494,-0.036656,-0.470291
intersection,1.082774,1.779292,0.417066,-0.077441,-0.94591,0.364571,0.267399,-0.361366,1.303383,0.360889,-2.54093,-0.072212,-0.677833,0.548764,0.260195,-0.598986,0.425319,0.49805,0.714091,0.753734,0.645141,-0.016406,0.023341,0.348736,-0.083592,-0.488035,-0.010946,0.082296,-0.279109,-0.563869,-0.307973,-0.039805,-0.024147,1.006942,-0.783921,-1.664151,1.088556,0.946651,0.178822
addition,0.133749,0.309303,-0.418504,-0.322092,0.491263,-0.627938,-0.324016,-0.031021,0.844662,0.149467,0.35766,0.024461,0.261602,0.392075,-0.359337,0.419582,-0.180673,0.905913,0.110472,-0.168263,-0.151091,0.450468,-0.379939,-0.145592,0.134881,0.505893,0.075702,0.460676,0.263857,-0.400986,-0.443805,-0.076823,0.045867,-0.537012,0.1857,-1.113584,-0.169332,0.205251,0.193192
expression,0.489847,0.008197,-0.189602,0.348912,0.232665,-0.766555,-0.381727,0.224561,1.165408,-0.067854,-0.132436,-0.942216,0.647963,2.015252,0.086932,1.063188,0.04446,0.4815,1.00081,0.316987,0.375369,-0.697945,-0.315549,-0.642543,-0.308353,0.341846,-0.140593,0.987942,0.532625,-1.408772,0.0066,-0.132679,0.220453,-1.319588,-0.715718,1.004627,0.037711,0.438143,-0.173247
Student,0.081485,0.003722,-0.768722,1.012267,0.050443,-0.752213,-0.587798,0.450417,1.220473,1.653021,-0.562997,-0.342365,-0.19098,-0.423001,-0.213074,1.501225,-0.536688,-0.87767,-0.564537,-0.035328,-0.047698,0.985479,-0.524221,-0.846438,0.878331,-0.483668,-0.388359,-0.110558,-0.317412,-0.204899,-0.542948,0.456417,0.020544,-1.050596,1.02037,-1.584552,0.642013,0.138834,0.859635
approximation,-0.932778,1.228274,0.2814,0.230973,0.692306,-0.27567,0.501239,-0.307927,0.811948,0.2105,0.991957,-1.272169,-0.341875,1.699914,0.490713,-0.517199,1.247173,-0.371929,1.383083,0.947349,-0.235036,1.024681,0.453416,-0.565793,0.09,-0.14572,-0.258596,0.617774,0.819176,0.015092,1.077263,-0.668756,-0.061242,-0.070615,-1.149691,1.077503,1.739606,-0.42578,-1.049886
$\mathbb{Z}$,0.014586,0.046084,0.246432,0.501897,-0.065003,-0.096111,-0.061692,0.707478,-0.150204,-0.671025,0.149113,0.066336,-0.589711,0.61362,0.551231,-0.488747,-0.082287,1.203938,0.432685,-0.227292,0.761397,0.108612,0.015083,-0.176224,0.44677,-0.349996,-0.019044,-0.541243,1.036225,-0.432519,0.271684,-1.326533,1.123443,-0.31777,-0.118287,0.43346,0.154479,-0.27455,-0.161732
mathematics,-1.281488,1.140756,0.953523,0.813393,0.325499,-0.504453,-0.705286,-0.091921,0.707973,1.565581,-0.228896,-0.612285,-0.500132,0.376666,0.065232,0.22512,-0.161695,-0.778072,-0.50425,0.129156,0.341569,0.631715,0.13682,-1.344617,0.737316,0.035322,-0.289028,-0.090692,0.7822,0.47788,-0.027808,-0.043317,-0.091718,0.733874,1.171622,0.867784,1.32294,-1.459243,-0.132649
code,0.23544,0.163928,-0.500021,-0.206854,0.4021,0.415872,-0.112493,0.65862,0.633125,0.416117,-0.64288,0.399125,-0.622086,1.372099,-0.399444,0.528356,-1.394957,0.936317,0.657743,-0.150569,0.369199,0.657113,-0.657884,-0.049016,0.171309,-0.873101,-0.239991,1.251048,0.607746,-0.509506,1.096788,-1.232703,0.777421,-0.066959,-0.383649,-0.221495,-0.256995,-0.402512,0.389364
rank,-0.627699,0.126874,-0.865502,0.471666,0.219284,-0.422984,-0.481373,-0.278157,1.086362,-0.087721,-0.034917,-0.68189,-0.472393,-1.314624,-0.315907,0.187033,-1.664082,0.048045,-1.045166,0.658182,-0.135397,0.864639,-0.151961,-0.524779,-0.693536,0.225256,0.144955,-0.157652,0.531978,0.257308,-0.064834,-0.943796,-0.081597,-0.58227,-0.103551,-0.53852,0.018142,0.416565,0.239395
characteristic,0.215244,0.178798,-0.363249,0.273301,0.15325,-0.313536,-0.246935,0.12461,1.161649,-0.080306,0.303462,-1.277624,0.926287,1.756109,-0.09247,-0.729991,0.617733,1.175586,-0.235457,0.430069,-0.444352,0.152741,-0.483051,-0.274344,-0.071826,1.075209,0.326875,1.184328,-0.295096,-1.022115,0.148204,0.227247,-0.145239,-0.80986,-0.815103,0.054104,0.1577,-0.100603,-0.322099
binary,0.242691,0.65895,-0.193847,0.150165,0.112096,-0.666629,-0.311191,-0.170683,-0.406535,0.039311,0.232002,-0.705812,-1.025349,2.307681,0.502494,0.232237,0.123381,0.378504,0.572732,-0.342605,-0.501938,0.445439,-0.592821,-0.735282,0.356224,-0.835161,0.063308,0.578454,0.618511,-1.071455,0.615017,-1.312436,1.078062,-0.530278,-1.700527,0.548949,0.394055,-1.085229,-0.643006
closed,0.095244,0.355455,0.113238,-0.13732,-0.205386,-0.039204,0.598152,0.197118,0.649192,0.361017,0.562032,-0.031603,-0.342074,0.451793,-0.237442,0.526235,0.154625,1.223142,1.107237,-0.439541,-0.986052,-0.034513,-0.335533,0.499223,-0.136775,-0.011219,0.15808,0.874109,0.09746,-0.589862,0.442874,0.187,0.030904,-0.039495,-0.773274,-0.917458,0.972966,-0.05731,-0.031133
tangent,0.062786,0.872606,0.499472,0.312399,-0.249216,0.021022,0.800751,-0.237951,-0.037766,-0.293075,-0.214648,-0.058198,0.169697,0.693338,0.487052,-1.36,0.147551,0.419427,0.846316,0.274538,-0.269461,0.094974,0.456079,-0.551462,-0.411328,-1.298157,0.168394,-0.000833,-0.027,-0.682016,0.193003,-0.190631,-0.020494,0.31103,-1.144144,0.369051,1.789873,-0.388479,-0.916126
diagram,0.022119,1.029859,0.676305,-0.244587,-0.301225,0.24289,-0.06505,-0.242849,0.509149,0.572489,0.64255,-0.746027,-0.389378,1.998378,0.084717,-0.332442,0.535652,0.887784,1.224925,-0.149149,0.348049,0.779314,0.16638,0.147702,-0.351223,0.595168,0.433868,0.508001,0.632599,-0.573087,0.302728,-0.711601,0.059853,0.235988,-0.740465,0.460853,1.006025,-0.739873,-0.753117
divide,0.063401,0.455611,0.347314,0.549417,0.085919,-0.655852,0.186701,0.122026,0.977671,-0.554415,-0.773071,-0.632098,-0.017853,-0.081354,-0.155356,-0.107006,-0.162968,0.534715,-0.255791,0.454905,-0.299431,0.449516,0.10052,0.231939,-0.05969,0.165852,0.619627,1.616945,-0.067216,-0.402075,0.069438,-0.372227,-0.146738,-0.666645,-0.553143,-1.223232,0.779769,0.195939,0.156979
functional,0.057891,0.343763,-0.001897,0.187264,-0.350109,-0.10154,-0.848752,-0.175804,1.612774,0.584002,0.442651,-0.370183,-0.113209,2.170707,-0.983122,0.129291,0.040438,0.975203,1.367449,0.450456,-0.481666,0.472863,-0.469124,-0.746931,0.179176,0.776439,0.788842,0.991342,0.516134,-0.883232,0.380783,-0.115312,0.2167,-0.346068,0.168434,0.660303,0.511531,0.089608,0.214886
abelian,-0.649807,1.028567,0.330741,1.72391,1.109805,-0.591098,0.029431,0.129792,0.205313,0.460922,0.351079,0.644563,-0.407426,1.268924,0.223765,-0.434337,0.253774,-0.430714,1.36754,0.525476,-1.026889,-1.157731,1.248064,0.045185,-0.523547,-0.244265,0.840643,0.261833,-0.187732,0.405299,1.962594,-0.179362,-0.112966,0.660714,-0.841264,1.4058,2.077943,-0.455036,0.493042
odd,-0.427459,-0.238236,-0.328872,0.23307,0.394168,-0.280779,0.299477,-0.090305,0.314561,0.194765,0.957315,-0.54578,0.434972,-0.373622,0.186546,0.109734,0.266453,0.024708,0.466257,0.71658,0.185124,0.457547,0.363628,0.285427,-0.524537,-0.055358,-0.098546,-0.538257,-0.16044,-0.325902,-0.068287,-0.613409,0.401374,-0.646526,-1.289556,-0.170157,0.69729,0.128309,-0.244363
action,-0.078862,-0.244729,-1.057238,-0.28226,-0.834951,-0.083545,-0.424424,0.099043,0.264216,-0.409384,0.015054,-0.205363,0.874182,-0.135975,0.181624,0.733742,-0.774469,0.771498,1.141213,0.740943,-0.503677,0.232533,-0.437605,-0.124195,-0.603855,-0.558254,-0.422046,0.781178,0.511941,-0.087432,-0.195847,-0.340644,-0.399725,-1.144739,-0.081528,0.140525,-0.256034,0.466294,0.355691
tiling,0.682563,0.996079,1.913865,0.526249,-0.392853,-0.433189,0.206191,-1.172778,-0.634695,0.195874,1.315063,0.348353,-0.50219,1.495718,-0.329436,-1.123302,-0.03316,-0.545386,1.42782,-0.90856,-0.761996,-0.643397,0.534283,0.43156,-1.069245,0.936549,1.034849,-0.16877,0.363327,-0.433458,0.057104,-0.239138,-0.221624,0.086283,-0.387165,-0.177127,1.675455,-0.998451,-0.763318
ratio,-0.643079,0.435092,-0.741121,0.106491,1.022276,-1.354459,-0.118202,0.922223,1.458403,0.25786,0.381308,-1.068625,-0.889409,0.845443,-0.243597,-1.885984,0.238411,0.624269,0.877333,0.596521,-1.157946,0.608166,0.239053,-0.963706,0.600797,-0.595748,0.274551,0.263711,0.171244,-0.54733,0.585413,-0.19518,0.036361,-0.417514,-1.063612,-0.3922,-0.424914,0.138542,-0.837714
program,0.142001,0.797841,-1.142545,-0.01194,0.245986,-0.494223,-1.13872,-0.802229,1.301183,1.227706,0.536086,0.56221,-0.01093,0.006543,-0.632038,1.409358,-0.75023,0.70135,-0.226481,-0.496651,-0.166227,1.142864,-0.912163,-0.654214,0.261587,-1.210707,-0.583726,0.403111,0.585242,-0.582258,-0.307073,0.365619,0.361301,-0.697158,1.114715,-0.801752,0.005969,-0.381441,0.424642
quadratic,-0.267257,1.891228,0.632949,0.257493,0.178829,-1.059158,-0.274642,-0.932502,0.914522,-0.039441,0.477025,0.342925,-0.621197,1.17115,0.210969,-0.649159,0.691573,-0.677716,1.569797,0.846598,-0.6461,-0.175597,0.834304,-0.026722,-0.506466,-0.526939,-0.093584,0.292943,0.68536,-0.414043,1.532606,-0.455497,-0.413742,-0.172407,-1.142637,1.241124,1.652582,-0.475604,-0.489031
cube,0.43807,0.590714,0.01133,-0.021652,-0.119786,-0.271409,0.2646,-0.295452,-0.054101,-0.420938,1.726616,-0.027193,-0.187345,0.702783,0.187213,-0.61583,-0.053127,0.633355,0.725866,-0.838068,0.247254,-0.592325,0.137524,-0.822112,-0.340017,0.038825,0.100043,-0.617107,0.158299,-0.199815,0.014303,-0.472793,0.385789,-0.206185,-0.412375,-0.471292,1.114782,-0.437238,-0.367724
cycle,0.178321,0.414744,0.09379,0.190177,0.284346,-1.332578,0.008835,0.548583,0.739075,1.102351,1.02311,-0.425285,-0.35498,0.439609,0.111869,0.044018,0.437112,1.572986,0.430158,0.798865,-0.129139,0.573304,0.533436,0.310151,-0.135477,-0.11488,0.252257,0.54925,0.461455,-0.372847,-0.454438,0.689888,-0.067798,-0.20525,-0.326368,0.055651,-0.608747,0.085864,0.108586
figure,0.478306,0.164249,-0.110992,0.166249,0.040879,-0.68645,-0.465358,0.645758,-0.02401,-0.068149,0.166469,-0.974763,0.831847,0.301366,0.474649,0.23655,-0.389055,0.168108,-0.320182,0.179623,0.07947,0.10323,-0.215815,-0.160637,-0.625568,0.895318,0.624037,-0.312714,-0.150769,0.25433,0.03938,-0.484095,-0.248992,-1.337539,-0.594982,-0.815679,0.223508,-0.014766,-0.241097
argument,0.078336,0.154843,-0.187944,-0.689337,-0.620216,-0.421452,-0.102122,0.294663,0.63531,0.241725,-0.314512,-0.575308,1.586485,0.904496,0.190295,1.493822,-0.317719,-0.907929,1.351558,-0.300914,0.359744,0.452654,0.584592,0.120717,0.132673,-0.040141,-0.355405,0.924471,0.370456,-0.036688,0.888232,-0.098385,-0.526737,-0.706382,-1.550697,0.582016,0.102507,0.519539,-0.388281
Riemann,-0.796795,1.273836,2.323243,-0.201026,0.253972,-0.21047,0.42195,0.073834,-0.034838,0.012882,0.727762,0.061855,0.485507,1.066038,0.15607,-1.108349,0.80151,-0.815566,0.608291,0.154028,-0.759433,0.4752,0.459981,-0.212871,-0.13668,-0.235395,0.380541,-0.449968,0.69505,0.059347,0.859574,-0.200404,1.229,-0.315044,-0.583389,1.693295,1.497517,-0.021098,-0.75738
Euler,-1.249543,0.932677,1.321136,-0.190174,-0.05858,-0.572999,0.00757,0.277041,-0.342448,0.326165,0.791943,0.003452,-0.099283,0.931394,0.62904,-1.370457,0.647668,-0.66168,0.483007,0.37924,-1.026583,0.830186,0.197155,-0.211005,-0.803963,0.329461,-0.313437,0.162632,0.455415,-0.019149,1.289947,-0.231513,0.246609,0.262294,-0.529425,1.541559,0.984814,0.057339,-0.862275
calculate,-0.461394,0.84481,-0.934972,-0.553468,0.599078,-0.639086,-0.35052,0.409745,0.672005,0.158484,1.070379,-1.102562,-0.790437,0.881335,-0.09121,-0.721046,0.649472,-0.340928,0.882864,0.485136,-0.280464,1.303072,0.242994,-0.839659,-0.205203,-0.481077,-0.356479,0.603181,0.9755,0.316273,0.699331,-0.421567,-0.009891,-0.55984,-1.503267,-0.06753,0.535458,0.097944,-0.603732
shape,0.377378,0.529908,-0.125107,0.386068,-0.841614,-0.63106,0.526271,0.037075,0.755158,-0.559265,0.684286,-0.884975,1.172962,0.988298,-0.318997,-0.929943,0.327317,1.65643,-0.218904,-0.812372,-0.774783,0.027734,-0.152946,-0.149635,-0.443706,1.733921,0.339741,0.671176,-0.703165,-1.127044,-0.195774,0.002629,-0.213526,-0.720215,-1.047203,-0.910726,1.210606,-0.789435,-0.55826
formal,0.151694,-0.096969,0.12731,0.505986,0.503409,-0.1952,0.049209,0.07037,1.397678,0.875481,-0.218477,-0.390168,0.623917,0.572588,-0.278906,1.391907,-0.586692,-0.493986,0.360771,-0.258901,-0.306859,0.466674,-0.368026,0.20029,-0.416016,0.627066,-0.056045,1.342626,1.025166,-0.511382,0.365087,-0.336093,-0.890439,-0.90495,-0.144992,-0.573092,0.466011,0.12028,-0.002254
derive,-0.622148,0.572616,0.334216,0.323277,0.921237,-0.353519,-0.631229,0.828274,0.84009,-0.716807,0.318277,-0.539106,0.695421,1.657719,0.273184,-0.272756,0.153841,1.003254,-0.184785,-0.091681,0.124382,-0.093231,-0.072377,-0.11866,0.639591,0.842783,0.124508,1.591499,-0.106414,-0.39118,0.369868,-0.32498,0.202104,-0.137035,-1.124953,-0.042941,-0.203933,-0.051983,-0.17242
statistical,-0.438127,1.564144,0.547594,-1.094148,0.777209,0.086733,-1.029979,-0.900415,1.720566,0.677888,-0.600252,-1.298249,-0.403959,0.702427,-0.401643,0.197577,-0.489624,-0.24629,0.199861,1.296887,0.586564,0.900723,0.147518,-0.67427,0.354621,-0.587168,-0.265702,0.766303,0.322787,0.442959,0.830517,-0.484838,0.391602,0.564294,-0.697498,0.364969,0.65591,-0.757089,0.467288
network,0.572384,0.604078,-0.720219,-0.325471,0.286031,-0.59231,-0.747255,-0.673694,0.380577,-0.335873,0.020125,0.431125,0.002224,0.232075,-0.468329,0.776523,0.068336,1.412006,1.022479,-0.499198,0.568304,0.971757,-1.661624,-0.62513,0.003726,-1.663107,0.0395,1.273537,0.07882,-0.115496,-0.122003,0.039203,0.636593,-0.010174,0.532536,-0.568894,0.369943,-0.504187,0.003405
estimate,0.000254,0.660595,-1.038636,-0.81188,0.221025,-1.037052,-0.552485,0.302595,0.818425,-0.36623,0.014832,-1.048209,-0.905137,0.521432,-0.832927,-1.067127,0.996937,-0.202648,-0.14484,0.170141,-0.334549,0.795965,-0.43926,0.509059,0.316946,-0.590364,-0.058577,0.490571,0.327361,1.127812,0.008562,0.289374,0.038047,-1.020348,-0.996126,-1.631069,-0.997276,-0.496137,0.555965
norm,0.120296,0.687666,-0.264805,0.225617,0.535781,-0.100939,-0.999271,0.147118,1.001105,0.575468,-0.382494,-0.664545,1.044516,0.058875,0.161994,0.562545,-0.314544,-0.399998,1.007804,-0.162852,0.106955,0.204923,0.481959,0.075507,-0.052939,-0.257973,0.243741,-0.000784,0.018121,-1.110721,1.355734,-0.177108,-0.834249,-0.34516,-0.416273,0.568033,-0.198921,0.206998,0.00075
polygon,0.527232,1.143135,0.632822,-0.365333,-0.202225,0.539146,-0.131605,-0.759034,-0.812669,-0.66546,0.705988,-0.59667,-0.501425,0.666667,-0.271898,-1.127973,-0.371984,0.143871,1.349057,0.676771,0.363852,0.73229,0.168847,-0.067288,-0.864107,-0.212365,0.483007,-0.187261,-0.30373,-0.140711,0.225578,-0.613437,-0.238574,-0.602741,-0.632079,0.207045,1.589215,-0.778062,-1.284029
permutation,-0.032713,0.91405,0.509032,0.389379,0.779996,-0.757436,0.533797,-0.58091,0.183948,0.219976,0.666414,-0.038416,-1.005523,1.902004,0.193536,-0.186293,-0.016749,-0.336108,1.483845,0.359254,0.149177,0.027998,1.367174,0.592692,-0.798931,-0.206195,0.805389,-0.334875,0.628241,-0.478654,0.991993,-0.72094,0.12938,-0.318584,-1.405051,0.616471,1.64597,-0.336275,-0.102069
world,0.103246,-0.214266,-0.543293,0.505975,-0.251513,-0.425456,-0.700249,0.025365,-0.018134,0.472471,0.452266,-0.615118,0.956874,-0.818973,0.442833,0.648624,-0.672302,1.703699,-0.863269,0.183883,0.853696,0.513164,-0.683973,0.028472,-0.549878,-0.084006,0.428086,-0.25121,0.597442,0.618091,0.204673,0.404727,-0.053985,-0.38732,-0.08483,-0.549731,-0.411842,-0.189536,0.648445
maximum,0.164965,-0.029574,-1.500544,-0.476137,0.088109,-0.807665,0.43376,0.777969,1.332407,0.649628,0.401612,-0.627554,-1.143727,0.12141,-0.383403,-1.467016,0.927521,0.952462,0.098466,0.468441,-0.988047,1.269605,0.093177,-0.128918,-0.369756,-0.393878,-0.377768,0.377833,0.660741,-0.526466,0.921083,-0.019179,-0.123521,-0.500526,-1.09537,-0.860105,-0.344092,0.036027,-0.399661
equivalence,-0.586625,0.565458,0.316088,0.443252,0.733072,-0.189105,-0.344476,-0.005368,0.770386,0.942809,0.556312,-0.551208,-0.051877,1.841968,0.330676,-0.26291,0.338797,-0.74166,0.838556,-0.239213,-0.771645,0.498251,0.478945,-0.200222,-0.211081,-0.475412,0.115297,0.499071,1.452839,-0.127923,1.430444,0.021756,-0.315791,-0.004869,-1.230738,1.155281,0.660236,-0.111564,-0.492939
parallel,0.174399,1.110789,0.024644,0.241148,-0.800215,-0.76444,0.70381,-0.130544,0.355779,0.21528,-0.765012,-0.438827,0.098729,1.013087,0.27195,-0.196379,-0.134473,1.214925,0.439111,0.40817,0.340415,0.614405,-0.232737,0.03366,-0.043904,-0.22535,0.523,0.897356,0.154834,-0.689758,0.028667,-0.207248,-0.093975,-0.28167,-0.5947,-0.679268,0.976757,-0.048723,-0.153612
numerical,-1.122425,1.491961,0.06639,0.075949,0.244778,-0.264147,0.149269,-0.487053,0.709713,0.479586,0.489523,-1.074207,-0.544105,1.623036,-0.062229,-0.648386,-0.695055,-0.058942,0.488002,0.668052,0.000869,1.51577,-0.116609,-0.432075,0.126393,-0.313418,-0.243105,0.898421,1.127458,-0.305159,0.957048,-0.548474,-0.481911,-0.60557,-0.498222,0.700339,0.73173,-0.637288,-0.234977
orthogonal,0.634763,1.143702,-0.15309,0.630077,0.159616,-0.988879,0.209765,-0.603249,0.010348,-0.470834,-0.637309,0.51581,-1.187619,1.949615,0.341707,-0.676873,0.502758,-0.067924,1.003288,0.298147,-0.618666,0.06224,-0.09332,-0.632552,-0.967852,-0.432644,0.400768,0.651211,0.505552,-0.968553,0.993657,-0.440834,-0.879834,-0.364499,-0.88916,0.963559,2.531564,-0.459249,-0.656122
isomorphic,-0.014321,0.265213,0.726144,0.800467,0.803972,0.174324,-0.310149,-0.211558,0.100275,-0.261354,0.941357,1.076094,-0.679575,1.740232,0.078989,-0.301126,0.56117,-0.492203,1.260721,0.470458,-0.802138,-0.163968,1.402057,0.701306,-0.440004,-0.277143,0.670938,0.642151,-0.433305,-0.873084,1.507482,-0.474174,0.294598,-0.141819,-0.444062,0.960351,1.654141,0.14577,-0.818592
connection,0.49856,-0.061892,-0.275359,-0.38203,-0.02881,-0.23436,0.195944,0.142835,0.057236,0.174532,-0.774705,-0.050779,0.696641,0.760346,-0.105503,0.514594,0.27811,0.623148,0.966435,-0.116944,0.730296,0.501542,-0.91609,-0.503763,0.145894,-0.327965,0.54167,1.096436,0.126881,-0.270656,-0.002699,-0.029745,0.216172,-0.006138,-0.465124,-0.611356,0.475465,0.413385,0.508696
locally,0.028987,0.261504,-0.335159,-0.038565,1.048671,-0.389716,-0.55695,-0.317768,0.448094,-0.322355,0.305112,0.412972,0.021775,0.307595,-0.159813,0.012478,0.456382,0.68446,-0.061779,0.076094,-0.227938,-0.247518,-0.454613,0.339233,0.344056,0.337519,-0.237321,1.439859,-0.960667,-0.259698,0.117699,0.150391,-0.072771,-0.007819,-0.351609,-1.378004,0.067974,-0.198158,0.031184
existence,-0.299985,-0.379666,0.272584,-0.007609,-0.100042,-0.37571,-0.55469,0.12947,0.224296,0.055007,0.026719,-0.613911,1.087736,0.734667,0.795597,0.797157,-0.120954,0.212834,0.026054,0.465845,-0.241813,0.284642,0.279301,0.049023,-0.006503,-0.423227,0.388357,1.408999,0.614385,0.35262,-0.071647,0.091197,-0.185869,-0.368752,-1.457991,-0.275154,0.28361,0.147664,0.612647
complexity,0.179595,0.564717,-0.576786,-0.030705,-0.111897,-0.553443,-0.375166,-0.856178,0.914226,0.842145,0.422552,-0.390547,1.139772,1.733038,-0.476741,-0.392179,0.241567,-0.151216,0.986466,1.016127,0.849847,0.8338,0.336614,-0.686588,-0.008352,0.032244,0.368561,0.800631,0.809243,-0.597077,0.764719,-0.145426,-0.136869,-0.803327,-0.304402,0.532337,0.320137,-0.472281,-0.124547
isomorphism,-0.250003,1.021182,0.923411,0.807859,0.143915,0.519665,-0.51699,-0.275048,0.949631,0.596596,0.354273,0.63829,-0.433939,2.009375,0.404478,-0.201598,0.333618,-1.241108,1.283632,0.954131,-0.735142,-0.747134,1.267267,-0.026646,-0.784095,-0.748759,0.561509,-0.114845,0.03339,-0.296143,1.057825,-0.514969,0.299433,0.581391,-0.83427,1.007923,1.843042,1.031343,0.845294
commutative,-0.634151,0.936203,0.897002,0.778143,1.432895,0.097426,-0.762769,-0.38732,-0.420526,0.662889,0.218085,0.19649,-0.214025,1.314922,-0.049232,0.096518,-0.226674,-0.570402,2.12749,0.504881,-0.942824,-0.771953,1.0192,-0.332472,-0.09404,-0.424289,0.101428,-0.129469,0.628377,-0.369074,1.737015,-0.456885,0.628139,-0.08106,-0.618656,1.144513,2.692299,-0.267616,0.47521
